658 13
RR_n 0.70378 -1.2717 -3.4921 -2.0878 0.46798 -1.3385 -2.8295 -1.7524 -0.11199 0.54009 0.80981 0.1304 1.348 
RR_p1 0.62788 0.10338 1.9907 3.2308 0.59984 0.24057 1.6149 -3.3182 -1.2482 0.57867 1.2346 -0.70105 1.2511 
HR_p1 0.84444 -0.62725 -0.40669 0.56625 0.26494 -0.3336 -0.98848 -2.437 -0.19928 0.78969 0.60717 -0.14938 1.3526 
BP_n -0.70987 -1.9264 -0.18928 1.1931 -0.33109 -0.4458 -1.1236 -1.1195 0.75486 -0.58534 0.91185 -0.33507 2.4322 
HR_n 0.29683 -0.25047 -0.43554 0.31892 0.21583 -0.079325 -0.59511 -1.9767 -0.47048 0.88522 1.1269 -0.31111 0.99153 
RR_m1 0.38623 -0.84098 1.3868 2.0783 0.17557 -0.0043283 1.1056 -2.0869 -0.65266 0.66427 1.5721 0.27196 0.90545 
BP_m1 -1.393 -0.77809 -0.78642 0.99394 1.0147 -1.6858 -1.0908 -2.1702 -1.0652 -0.949 1.0857 -0.40944 0.088748 
HR_p2 1.6945 -0.57869 0.19243 0.46042 0.81674 -0.4445 -0.7314 -3.434 -1.0142 0.58943 0.48965 -0.14387 1.2357 
BT_n -0.60355 -0.30122 -0.20553 0.45015 -0.055618 -0.34059 -0.67604 -1.3073 0.022928 0.71607 0.84539 -0.24345 1.0597 
RR_p2 1.7571 -1.0289 -1.5767 0.41557 0.17638 -1.3174 -1.4736 -3.215 0.19495 0.38574 0.64951 -0.49032 2.2949 
BT_p1 -0.1712 -0.12944 -0.18305 0.30945 0.085805 0.1933 -0.58865 -1.5849 -0.084547 1.027 0.61188 -0.48419 1.153 
BT_m1 -1.2958 0.049654 -0.35608 0.23074 0.30313 -0.80844 -0.76 -0.7942 -0.22402 0.67028 0.78812 -0.16852 0.99734 
GC_n -1.4215 0.42053 0.48865 0.091873 0.15355 0.88025 -0.71541 -0.6547 0.29313 1.6884 0.15575 -0.75901 1.0207 
PotassiumChloride -0.28443 -0.56515 0.56149 -0.69368 -0.97749 -0.21085 0.5995 -1.0604 0.67647 -0.55619 0.62064 -0.62988 -0.50844 
GC_m2 1.2342 -0.93443 -0.41585 0.32865 -0.15805 0.4847 -0.28671 -2.3443 -0.76495 1.2288 1.6024 0.55301 0.50861 
Furosemide -0.14896 -0.5606 -0.87996 0.28055 -0.1029 0.25321 0.4426 -1.1912 -0.020647 -1.3245 1.2614 -1.6596 1.1923 
RR_m2 2.0999 -1.5286 -0.13677 1.489 0.78895 -2.1147 0.081342 -2.7011 -0.074784 0.62292 2.1064 0.96845 1.0898 
BT_m2 -1.2544 -0.043852 -0.13446 0.72165 0.13338 -0.93036 -0.41119 -0.57854 -0.21202 0.06231 0.98275 0.0414 0.91506 
</s> -0.47467 -0.17596 0.046148 -1.6086 -0.018906 0.11834 0.76218 0.77167 0.51524 -0.276 -0.39311 0.46648 -1.05 
GC_m1 -0.28131 0.64894 -0.20699 -0.052044 -0.39012 0.97265 -0.90246 -1.6722 0.007052 2.1195 0.49261 -0.39655 0.27552 
BP_m2 -1.7738 -1.8077 -0.15793 1.8681 0.25677 -1.6309 -1.257 -1.4819 0.31327 -1.2305 0.4332 -0.20869 1.5719 
SodiumChloride0.9%Flush -1.0812 0.40909 0.4055 -0.87107 -0.73022 1.8607 0.38361 0.65707 0.19007 -0.40626 -0.29449 0.010396 -1.1713 
D5W 1.3247 -0.21973 -0.12184 -0.053362 -0.62221 -3.3154 1.0531 -1.2925 1.5872 -1.1252 2.2344 -0.5792 0.17714 
HR_p3 1.9223 -0.72305 0.46898 -0.03881 0.54103 -1.0426 -1.3619 -3.9699 -0.74912 -0.31842 0.58496 -0.77188 1.7007 
Insulin -0.03308 -0.3695 0.024588 -0.52705 -0.31646 0.90188 1.3059 0.2938 0.42572 -0.069325 0.088348 -0.17612 0.44004 
NS 1.6357 -0.037687 1.436 -0.9189 0.47184 -2.5914 0.85484 -1.5772 1.5097 0.3011 0.56452 -0.1947 -1.0119 
MagnesiumSulfate -0.57578 -0.54268 1.363 -1.424 -1.2188 -0.92297 0.74824 -0.92158 0.73008 -0.38934 -0.10271 0.034863 -1.0225 
Iso-OsmoticDextrose 0.75252 -1.7558 0.073434 0.10197 -0.76865 -1.1992 2.1422 -1.7001 0.65082 -1.0025 -1.6661 0.19276 0.90316 
GC_m3 1.932 -2.332 -0.90098 0.20551 -0.34246 -0.041086 0.12513 -2.1997 -0.87669 0.17304 2.4255 1.403 0.3887 
Acetaminophen -0.84894 -1.5158 0.29213 -0.75093 -0.3229 2.2272 1.2765 1.218 1.2755 -1.0729 0.028724 -0.25349 -1.4578 
0.9%SodiumChloride 0.37182 1.4947 1.0544 0.28908 -2.9367 1.2805 -3.3477 -0.21669 -1.7594 -2.3009 -0.98338 4.1834 -0.41919 
OTHER 0.090041 0.48898 -0.29333 0.072473 0.7449 0.14737 1.0274 0.39118 0.36452 0.45873 -1.3246 0.3314 0.40331 
SW 0.70595 -0.20893 1.2871 -1.1279 -0.95358 -1.4684 0.35136 -1.1528 0.72481 -0.43601 0.67977 0.44186 -1.0009 
Metoprolol 1.3319 0.74206 0.088179 -0.052473 1.3799 -0.70238 0.48594 -0.30185 2.6219 1.0611 3.8292 -2.5857 -0.12823 
VENT -1.0167 -1.1087 -0.0046997 -0.088775 0.84451 1.6835 -0.51077 -0.31936 -0.35009 0.72402 1.5422 -0.56323 0.351 
UO_m1 0.28165 -0.53372 -0.51994 0.33981 0.4041 0.32965 -0.78441 -2.1575 -0.49083 0.81267 1.2642 -0.6615 1.0452 
DocusateSodium -1.4474 -1.8116 -0.015215 -0.83767 -0.60335 2.7612 1.2058 2.3062 1.8012 -1.1766 0.78807 -0.19448 -1.4552 
Heparin 0.36759 0.56678 -0.24641 -1.2813 -0.82364 0.57138 0.68587 -0.20329 0.45462 -0.097796 -1.1116 0.074873 -0.27495 
MetoprololTartrate -0.18473 1.6929 -0.043824 0.3059 -2.2256 3.2642 -3.0244 -0.09433 -1.8789 -2.7352 1.2386 1.0417 0.48827 
5%Dextrose 0.883 1.3535 0.23608 1.2375 -3.4139 0.33379 -3.1997 -0.71583 -1.5996 -4.1803 -0.34635 3.4596 0.71653 
CalciumGluconate 0.3779 -1.4155 1.5467 -1.5583 -1.7314 -1.4284 1.5704 -0.27452 0.69611 -0.86113 0.1368 1.8757 -1.3094 
Lorazepam 1.0994 0.67824 -0.12172 -1.2479 0.32574 0.53488 0.27809 -1.9657 -0.24643 1.0215 -0.73209 -0.65364 -0.48033 
MorphineSulfate -0.17251 -1.0938 1.1429 -1.9578 -0.44631 -9.1499e-05 1.7549 0.85657 0.93635 -0.52781 0.80709 0.22992 -0.97504 
Vancomycin 0.95669 0.57073 0.6701 1.4999 -1.6871 0.13555 -1.8994 -0.5148 -0.54849 -3.5443 -1.4652 2.3495 0.58674 
UO_n 0.95928 -0.42095 -0.1407 0.57266 0.35374 0.60391 -0.8011 -2.3928 -0.076925 1.1912 1.0888 -0.64157 1.0848 
UO_m2 -0.24192 -0.36817 -0.087225 0.49724 0.33626 -0.58133 -0.76325 -1.8373 -0.3802 0.42191 0.94723 -0.42523 1.2815 
Pantoprazole -1.8465 0.99089 -0.29246 -0.80755 0.6722 0.28014 1.2629 0.87415 0.26919 -0.20404 -0.80818 -0.75176 -1.2402 
Bisacodyl -0.90696 -1.628 -0.60323 0.11079 0.038285 3.4168 0.92973 1.1798 1.3783 -0.65223 0.54706 -1.0103 -0.92621 
FentanylCitrate 2.7707 -0.63945 -0.20487 -1.1891 -0.49584 -1.8159 1.9105 -2.9959 -1.535 -0.72199 -0.55546 1.3545 0.41152 
Aspirin -0.88173 -1.013 -0.94923 -1.1928 -0.93815 0.83959 2.1595 1.1062 0.34996 -2.5107 1.0621 -0.17951 -1.6815 
Propofol 3.0371 -1.6908 0.19151 -1.918 -1.027 -0.60845 1.5998 -1.5539 -1.164 -1.8729 1.3537 2.4657 -1.5923 
LR 1.1977 -1.746 1.8685 -2.164 -0.38675 -0.80197 0.26156 -1.1067 -0.37959 -1.7433 0.6629 1.4585 -1.5354 
Oxycodone-Acetaminophen -2.0177 -3.0769 0.84822 -1.2395 -0.14129 2.2728 1.6091 2.5013 1.6984 -1.2504 2.6998 -0.17174 -2.0818 
Warfarin -2.0548 -0.076299 -0.70253 0.68314 -0.37932 0.90834 -0.28366 -0.22551 0.40169 -1.6442 1.0692 -2.3719 1.7546 
AspirinEC -3.2135 -4.2276 -0.33769 -0.96138 -0.08846 3.3373 2.5216 3.1141 1.2294 -2.7845 3.242 -0.67436 -1.9772 
Senna -0.12811 0.63266 -1.1956 -0.31176 -0.16215 2.3858 0.29496 1.1243 1.4192 -0.24533 -2.0476 -0.14112 -0.8625 
Dextrose50% -1.3991 -2.1178 -0.86399 -1.6377 -1.7851 2.0568 1.1291 2.6866 0.066443 -2.8314 -0.21911 2.3211 -1.1996 
BP_p1 0.93604 -0.3011 -0.66725 0.75837 0.018526 -0.46622 0.12356 -2.6636 -0.99929 1.6103 1.5166 0.30505 1.294 
HeparinSodium -0.77742 0.075958 -0.16274 -0.22283 -1.3759 -1.2586 0.81264 -1.1534 0.37657 -1.3809 1.0798 -1.4572 1.4527 
HYDROmorphone(Dilaudid) -0.078591 0.34471 2.0168 -1.5069 -0.25884 2.9113 -2.0825 0.78465 -1.5646 -0.74138 -0.5442 2.3057 -0.377 
Ranitidine -2.4508 -4.7627 -0.43891 -1.1896 -0.57434 3.2043 2.514 2.4102 0.63888 -2.4577 3.7016 0.17543 -2.1122 
Vial -0.13547 0.76246 -0.89292 -1.9443 -0.28298 -3.0294 1.4061 -0.16418 -0.036366 0.1094 -2.144 1.8963 -1.1802 
Albuterol0.083%NebSoln 0.97694 1.5267 -0.42519 -0.61604 1.5262 1.4129 -0.18396 0.64117 -0.63011 -2.4777 -0.41959 -1.3418 1.6606 
VancomycinHCl 2.5724 -0.47487 0.91183 1.9242 2.4541 -4.2486 0.6267 0.022658 4.8719 0.60681 3.1914 -0.65985 -1.0101 
Famotidine 2.7679 0.3771 1.4485 -2.5326 -1.3084 2.2803 0.63081 -0.94932 0.05081 0.87663 -1.0472 1.1324 -0.50153 
DocusateSodium(Liquid) 1.29 -2.341 -0.52995 -1.0478 -0.93255 1.1115 1.8118 0.73093 0.46045 -2.2189 0.99294 1.7505 -2.0117 
MilkofMagnesia -2.7805 -4.6975 -0.87988 -0.13177 0.17547 5.1669 1.9184 3.4078 1.1507 -2.3084 2.7558 -0.37213 -1.2161 
Neutra-Phos -0.43146 0.80074 0.53227 0.090312 -0.70834 -0.15694 -1.3448 -2.1471 0.71217 0.76527 -2.1657 -0.44184 0.086709 
IpratropiumBromideNeb 0.80554 0.66401 -1.1472 -1.0359 1.5375 0.94463 0.74535 -0.47073 -0.25959 -2.2279 -1.3874 -2.5042 2.1753 
Metoclopramide -0.68803 -3.1748 0.76495 -1.0211 -0.44287 0.3694 2.1514 1.4697 0.75035 -1.6606 1.7198 1.6167 -1.7653 
Levofloxacin 1.6677 0.44686 -0.12417 0.27601 0.92008 -1.4956 1.1153 -1.0058 2.4448 -0.33985 -1.8569 -1.4686 0.7023 
Atorvastatin -2.0398 -0.70174 -1.0818 -0.60034 -0.042885 2.4564 2.1642 2.2892 1.3648 -2.0214 1.6561 -1.9248 -1.362 
Ondansetron -1.605 0.63953 1.0883 -1.7043 -0.91277 1.4873 0.10349 1.4089 0.080332 0.40405 -1.1062 1.0608 -0.57115 
Haloperidol 1.9481 1.0273 -1.2444 -0.37507 0.57673 0.46178 0.22105 -3.105 -0.50207 0.97484 0.22585 -1.4167 -0.33323 
Bag -1.353 0.93312 1.8895 0.43989 -3.6911 1.1853 -2.7664 0.82945 -0.754 -2.865 -1.2975 4.0683 -0.63124 
HydrALAzine 0.79445 2.6743 -0.86742 -1.0641 -3.2607 2.8257 -0.38862 0.10351 -1.7411 -0.11797 1.9584 1.3579 0.45459 
RR_p3 2.1171 -0.80467 -0.71893 1.6556 1.5448 -1.1108 -0.39919 -3.2883 -0.57821 0.69125 1.0865 -0.071183 1.5671 
Nitroglycerin -1.3048 -2.3691 -0.38624 -2.582 -2.434 -0.65234 3.5894 1.0602 -0.11048 -2.7023 3.6554 0.79109 -1.783 
PotassiumPhosphate 0.5816 -0.034251 2.1621 -1.4871 -1.1023 -0.63338 -0.35995 -2.9056 0.12175 0.76634 -1.9822 0.44044 -0.62397 
PantoprazoleSodium 0.84402 1.3336 0.5899 -2.196 0.663 -3.0972 2.1605 -0.4502 0.43154 -0.045221 -0.26304 0.4823 -1.9026 
Lisinopril -2.2323 2.101 -1.3439 -0.70618 -1.3764 2.6428 0.85253 0.10131 0.24151 0.62333 0.83442 -2.6003 0.11398 
BM_p1 -1.736 0.41978 -0.24359 0.93139 -1.2438 1.9974 -2.4252 0.61867 -1.2995 -1.2992 0.61783 1.6678 0.58765 
InsulinHumanRegular -0.097165 -2.2888 1.3994 -1.9024 -1.633 -0.64785 2.7248 1.3246 0.58278 -2.621 0.93918 2.1526 -1.7042 
ChlorhexidineGluconate0.12%OralRinse 2.4092 -0.58225 0.47636 -1.7613 -2.1755 0.85783 -0.2608 0.4894 -1.5843 -4.631 0.26741 4.1952 -2.2198 
Midazolam 2.8503 1.0055 -0.43303 -0.51339 -1.1097 -1.2825 -1.9344 -1.9351 -2.3874 -3.3058 -0.38246 3.1295 -0.112 
D51/2NS 0.090612 1.3151 1.7099 -2.2614 0.34566 -0.97713 -0.085034 -0.99714 -0.65982 1.0131 -1.7578 0.66001 0.063294 
Glucagon -0.67031 1.6036 1.6352 1.343 -2.386 4.9338 -0.31696 3.6623 -0.7051 -3.1912 -0.3023 3.5093 -0.96971 
HeparinFlush(10units/ml) -1.6115 1.6657 0.51398 1.5018 -0.85593 2.0109 -2.8444 1.1332 -1.2015 -1.6681 -1.6173 2.1299 1.2884 
Iso-OsmoticSodiumChloride 3.2735 -0.22817 1.0135 -3.9193 -1.5813 0.59947 1.8522 -1.0413 -0.27445 1.3767 -1.5147 2.3321 -0.042796 
Captopril -0.78635 0.66927 -2.0519 -0.17819 -0.42849 -0.22793 0.22477 -0.63973 1.6212 -0.19447 2.9988 -3.0586 0.38383 
BM_n -1.9362 1.1044 0.38724 0.5758 -0.85642 1.2464 -2.4093 0.071285 -1.4295 -0.19978 -0.37038 1.7392 0.15669 
Syringe -0.76764 -3.7212 0.84273 -0.94424 -1.0372 -0.94272 2.7181 0.31022 -0.70489 -3.0694 1.391 3.1455 -3.1715 
Glycopyrrolate -1.2416 -5.7372 1.1345 -3.3441 -0.98343 -0.61338 4.3721 1.5089 -1.1089 -4.2573 4.2506 3.5391 -3.7759 
0.9%SodiumChloride(MiniBagPlus) 1.588 5.2566 5.0824 6.7083 -2.278 1.0146 0.74712 -2.1298 -3.4015 -3.9197 -2.015 3.79 0.34492 
UO_m3 -1.9019 0.089146 -0.20698 1.241 0.28912 -1.6451 -0.8145 -0.71625 -0.33659 0.17555 0.40632 0.13266 1.8748 
Amiodarone -0.4823 0.42371 0.060808 1.6025 -2.4229 1.8572 -2.939 -1.207 -1.0178 -6.3953 2.9127 -0.92073 -0.18424 
CefazoLIN -0.39589 -2.1359 1.5436 -2.2354 -2.7575 3.1446 -0.097397 1.2098 -0.5022 -2.0975 2.0808 2.7745 -2.4789 
Neostigmine -1.2582 -8.1174 0.0061975 -3.1052 -2.132 0.12506 3.6976 1.0665 0.66137 -4.5306 3.677 3.951 -5.2071 
Ketorolac -1.954 -4.3308 1.2716 -1.5597 0.60791 3.4787 1.1112 1.1829 -0.18644 -1.7148 2.4067 -0.080553 -1.5857 
BM_p2 -1.4959 0.47725 0.42855 0.86964 -0.75062 2.2072 -2.2387 0.64691 -1.8005 -1.9364 1.0272 1.3895 0.99304 
LevothyroxineSodium -0.74472 -0.10912 -0.67756 0.033172 0.92925 1.2863 1.7513 1.5409 0.66823 -1.3964 -1.0591 -0.33382 -0.8781 
SodiumBicarbonate -0.27616 0.54076 0.031631 -1.1461 -1.0007 -3.5356 1.339 -0.42878 -0.25207 -1.3029 -0.081804 0.86527 0.95149 
Diltiazem 0.56273 1.3574 -0.0013302 -0.40392 -0.60368 -0.13444 0.091757 -2.4358 -0.74862 -1.3547 0.73032 -2.2549 1.6975 
Multivitamins -1.1281 0.22375 -2.0441 -0.23036 1.3134 1.6829 1.536 -0.88632 -0.42184 -0.0084994 -2.0418 -0.23773 -4.6311 
Simvastatin -1.9347 -0.5149 -0.68765 0.066137 -0.51249 3.8774 1.5559 2.5572 -0.20013 -3.168 0.6544 -0.19802 -1.3147 
Phenylephrine 0.86634 -2.0369 1.1591 -0.87804 -2.5394 -0.1908 -0.69283 0.32621 -1.1286 -5.2579 1.95 3.6893 -1.5791 
SterileWater -0.60817 -0.34478 1.0647 0.72009 -3.6961 0.372 -1.0997 -0.18412 -1.1605 -2.7832 0.094891 3.8292 -0.57605 
AmiodaroneHCl 1.6179 -0.39704 0.68635 1.6073 2.2426 -2.1488 -0.4535 -0.56241 4.3413 -1.0812 6.7575 -3.7101 -1.0215 
OxycoDONE(ImmediateRelease) -1.8199 1.9678 1.5436 -0.36671 -0.34321 2.8541 -2.4475 1.3795 -0.30103 0.37432 -2.6699 1.3938 0.38927 
HeparinFlushCVL(100units/ml) 2.1012 0.66119 1.1502 -1.0307 1.7289 -2.2186 1.0076 -0.44692 1.9357 0.2538 0.19246 -0.55223 -0.86342 
Dextrose5% 2.5807 0.20369 0.49928 -0.43876 0.74715 -2.8198 1.4347 -1.6822 2.0534 -0.57146 -1.7357 -0.65881 0.68019 
PhenytoinSodium 2.0512 -1.2668 -0.07794 -0.70881 -3.1813 1.6878 2.4759 -3.9364 0.50571 4.9954 -0.80696 2.1266 -1.4725 
PredniSONE -0.46986 2.9888 0.36443 0.27075 1.1102 1.6795 -1.3182 2.1202 -1.1265 -0.97079 -1.5742 0.79156 2.9986 
Lactulose -1.2856 0.52723 -1.3811 1.0678 1.2938 -1.558 -0.062373 -0.99936 -0.10882 -0.31514 -2.2777 0.19474 -0.81893 
FoLICAcid 0.38753 0.84623 -3.8242 -2.1643 0.58836 1.6765 -3.1993 -0.80378 -1.4428 -1.5293 -1.8251 2.6092 -6.4757 
Diazepam 0.33445 1.3198 -0.47233 -1.7223 1.1171 1.0079 -0.97734 -2.7184 -1.279 1.5283 -1.8869 -0.18655 -2.6235 
MidazolamHCl 3.186 0.058877 0.74355 0.13239 2.1916 -4.9681 1.2286 -1.2891 2.7616 0.41829 3.781 -0.12475 -2.0847 
Meperidine -0.56998 -4.8705 1.5374 -2.6182 -0.358 -1.1487 3.2713 1.3342 0.64136 -2.3873 3.0486 2.6902 -3.5992 
Phytonadione -0.56224 0.63654 0.2729 -0.14997 -0.22688 -3.0783 0.6831 -1.6265 0.39989 0.082126 -1.5153 0.22732 -0.0062106 
Norepinephrine 1.6978 -2.5811 -0.070462 0.2364 -0.53535 -4.258 1.387 -2.1658 0.85806 -2.9979 -0.7602 1.6046 -0.035451 
InfluenzaVirusVaccine -0.48137 1.0342 0.25116 -1.4934 -2.1143 2.5091 0.40371 1.8203 0.15537 -2.623 -1.817 1.748 -2.0587 
Sucralfate -1.0149 -3.5256 0.6058 -1.8758 0.64701 -2.3726 2.4738 1.6848 1.686 -2.2627 4.0558 1.673 -4.6406 
MetRONIDAZOLE(FLagyl) 0.77092 0.9862 1.0573 -0.033669 -0.7074 -1.5844 -0.57772 -1.5039 0.018668 -2.2084 -3.768 1.1982 0.61657 
PhenylephrineHCl 2.0237 -3.165 1.1047 -0.13014 0.79758 -3.9096 1.6449 0.60083 4.3606 0.22153 6.6818 1.0488 -2.683 
PotassiumChl20mEq/1000mLD51/2NS 0.97042 -0.0028887 2.8243 -2.6471 0.092536 1.3286 -0.35574 -1.9925 -0.44039 1.0973 -0.6775 -0.093754 -0.68953 
ZolpidemTartrate -1.9854 1.0825 0.32376 -0.54643 1.5495 -0.36958 0.091981 0.75841 1.7523 0.48379 -0.20998 -2.2283 -0.22109 
Piperacillin-TazobactamNa 2.5299 -0.54395 0.42536 0.44495 0.85801 -2.8637 0.75467 -1.0834 1.804 -0.90243 -0.87974 0.35539 1.0381 
IpratropiumBromideMDI 3.2477 -0.98173 -2.037 -1.277 1.8099 -0.24283 2.6414 -1.9566 -1.5209 -3.1098 -1.4242 -0.93173 1.7046 
Dexamethasone 1.0495 -0.32202 0.21221 -1.5418 -2.0815 1.2392 0.53233 -0.71923 1.0746 3.3883 -0.73794 1.7757 0.42818 
Hydromorphone 1.0892 -0.85304 2.1197 -0.85873 3.1923 -1.0846 0.47155 0.83638 3.5165 2.3542 2.5611 -1.1974 -0.81803 
CefePIME 1.7714 -1.9447 -3.7585 -1.1524 -1.7861 -0.62108 -4.0287 -0.83751 1.6433 -2.812 -4.7976 1.9242 3.5768 
Albuterol 4.47 0.44074 -1.1363 -0.39275 4.2241 -1.7701 0.74101 0.24947 2.1005 -2.0234 2.3247 -1.7761 -0.46538 
Amlodipine -1.115 2.6312 -2.0415 -0.82312 -1.5252 2.3644 2.0524 0.66743 -0.93801 1.0647 1.0728 -1.0177 0.97935 
Soln. 5.0839 -3.8139 -1.9547 -3.6283 -2.4109 -1.4514 -0.10755 -0.45929 3.9676 1.183 2.8277 2.1397 0.94352 
Soln 3.5178 -0.063481 -0.67106 -0.88945 -1.8527 -0.61262 -0.93202 -2.2901 -3.0259 -2.9626 -1.4423 4.6578 0.28919 
CalciumCarbonate -2.1858 1.4738 -0.69941 1.3466 1.1015 1.2768 1.3914 1.7476 1.3406 0.47265 -2.7049 -0.4201 -0.5858 
PneumococcalVacPolyvalent -1.0497 0.28652 0.079982 -1.175 -2.6664 3.0057 1.3072 1.698 0.43117 -2.929 -1.0825 0.97961 -2.0797 
Thiamine 0.067254 3.7837 1.2759 0.57754 0.31825 2.4901 -1.1118 -2.215 -4.2833 -0.9964 -0.68911 3.0804 -6.7051 
1/2NS -0.34223 2.0651 0.52117 -2.5232 -0.41924 -1.738 0.065186 0.25372 0.5556 -0.30943 -1.002 -0.22324 -0.063452 
CiprofloxacinHCl -1.0786 0.95969 0.069864 0.44006 -0.47155 0.16699 -0.28653 -0.30225 0.31429 -0.61867 -1.5929 -0.13273 0.12958 
Metronidazole 2.7827 0.69484 0.57771 1.0728 2.3978 -4.1893 1.0456 -1.1124 4.544 1.2966 0.4764 -1.1553 -1.2161 
Piperacillin-Tazobactam 1.5026 -0.44354 -0.66081 0.070042 -2.0771 -0.23806 -3.7736 -0.23831 -0.23667 -3.4799 -3.6106 4.0238 2.2076 
NS(MiniBagPlus) 2.142 4.7868 6.2109 4.8134 0.6425 -2.583 4.5589 -3.4481 -2.169 -1.8451 -1.1599 0.50323 -0.3339 
D5W(EXCELBAG) -0.76557 -2.8331 -1.1972 -1.0011 0.34595 -1.9964 2.2915 -3.0783 -0.98166 -3.0018 3.9704 -3.0821 0.68155 
Labetalol 1.2561 3.5355 -1.0511 -1.0762 -3.0949 2.3971 -0.24936 -0.84466 -2.3356 1.3505 0.67718 2.0916 0.33615 
Tacrolimus -0.72335 1.35 0.99427 -1.462 0.98441 -2.0526 1.6818 1.552 -1.6973 1.9417 -0.03271 1.9984 4.7568 
Phenytoin 2.5222 0.31423 -0.6293 -0.64843 -1.4027 2.1533 0.26278 -2.074 2.1875 4.4491 0.11931 0.35431 -1.7984 
Albuterol-Ipratropium 1.556 -2.1119 -1.928 -0.17033 1.8527 0.82219 1.9703 0.36514 0.038434 -3.1861 1.4522 -1.0916 0.19389 
MethylPREDNISoloneSodiumSucc 1.5453 2.49 1.108 -1.8543 0.8157 -0.43863 0.36255 1.3428 -2.2793 -1.2991 -0.92492 1.6858 4.1828 
HydralazineHCl 1.881 2.6208 -1.3694 1.0173 0.51652 -2.1679 1.8567 0.15533 3.6401 4.2186 5.8537 -1.5836 -0.30955 
MagnesiumOxide -1.7128 1.5491 0.2502 0.46839 0.43253 -0.67218 -0.70866 -0.5583 2.6435 1.2738 0.12809 -2.4786 -0.78129 
CeftriaXONE 0.84107 2.4916 -0.27328 1.073 -1.3328 -0.19417 -2.0052 0.041293 0.85015 -2.2979 -3.1901 1.8471 -0.74689 
Ibuprofen -0.97506 -1.9247 0.77632 -0.63322 1.3316 2.3663 -0.27593 0.40507 2.0901 0.31931 -0.37894 -1.5598 -0.98606 
Acetylcysteine20% 0.16958 1.0432 -0.10705 -1.5 -0.18699 -2.3587 0.30446 -0.81832 0.64475 -1.2562 -0.13204 -1.3675 1.4797 
Gabapentin -0.95932 0.072813 -0.41868 0.048032 2.0558 2.4833 0.79613 1.5266 0.39751 -0.068757 -2.9102 0.092058 -0.58314 
Fluconazole 1.2286 -0.054403 1.2812 -0.06694 1.2731 -2.5011 1.255 -0.66245 -0.42018 0.45217 -1.2811 1.4996 2.214 
HydrocortisoneNaSucc. 0.34665 -1.7517 0.41332 0.51199 1.2734 -3.1088 1.0207 -0.3857 0.46881 -1.2895 -0.82591 1.6161 -0.2131 
NitroprussideSodium 0.62502 -2.5284 -0.36109 -3.0904 -3.2912 -0.61585 3.7899 0.14978 1.8285 1.1518 5.4001 1.2285 -2.48 
AlbuterolInhaler 3.1201 1.5965 -1.17 0.68132 0.093368 2.1868 -2.3658 0.76332 -2.5254 -5.3194 -0.31754 2.8904 0.43795 
LeVETiracetam 1.7802 1.2361 -0.36646 1.154 -3.1107 3.6368 -1.6873 -0.82286 -0.77691 1.4832 -1.4096 4.2333 -0.86595 
Omeprazole -2.0734 1.839 -0.65345 0.77985 -0.60993 4.3006 -1.0806 3.0592 -0.70779 -2.9246 -2.1367 1.8247 -1.2739 
NS(GlassBottle) 6.0622 1.0639 -0.45129 -0.87411 -1.0926 -0.46704 -0.44571 -2.1723 4.8872 4.6548 3.0049 0.57258 -2.7632 
Digoxin -0.968 0.46308 -0.84041 0.84521 -0.53095 -0.55177 0.29114 -1.4206 0.64972 -1.8567 0.42215 -2.3404 0.58023 
Meropenem 1.8538 -3.7962 -3.0538 -1.4825 0.34637 -2.4591 -2.5933 -0.57286 1.9587 -0.7681 -4.3503 2.3626 4.5614 
ClopidogrelBisulfate -1.4623 0.065161 -0.70499 -1.3873 1.5521 -0.7938 0.87398 2.7645 4.005 -0.9355 4.5829 -3.0186 -2.3533 
CiprofloxacinIV 0.94239 0.29583 0.75424 0.24689 -2.1367 -0.6949 -1.382 -2.1401 -1.7479 -2.7705 -2.4628 2.8482 0.87813 
DiphenhydrAMINE -0.046795 1.7173 1.8521 -1.6234 0.15373 1.5036 -2.3034 1.999 -0.65008 -0.89709 -1.6337 2.2068 0.83516 
QuetiapineFumarate 1.1687 1.1359 -1.6214 0.77636 0.85823 2.103 -0.41758 -2.3089 -1.1502 -0.16861 -2.0898 -0.63291 0.074239 
BM_p3 -0.87441 -0.13929 0.039581 1.0489 -0.83677 2.2323 -2.0908 0.23586 -1.8291 -2.3971 1.2084 1.21 1.6101 
Albumin5%(25g/500mL) -0.55567 -2.4828 0.33038 0.22944 -1.437 0.65446 -1.2989 0.48427 -2.8169 -5.6647 2.3906 3.4416 -0.055391 
SodiumPhosphate 0.79379 -0.69865 2.2953 -1.2394 -1.4756 -0.19569 -0.29709 -2.3711 -0.15699 0.39325 -1.4362 1.2298 0.10211 
MiconazolePowder2% 0.87644 -0.4165 -1.5289 1.2201 1.1744 -0.52444 0.67695 -0.80623 0.45992 -0.40859 -1.2127 -0.23297 1.369 
Prednisone 0.57532 2.2697 0.037013 0.96374 4.5552 -2.2444 1.0362 2.0347 3.0005 1.9467 1.8827 -2.1187 1.0088 
Albumin25%(12.5g/50mL) -0.48165 -0.22802 0.41867 0.9838 -0.18644 -1.6572 -2.6265 -1.2878 -2.9151 -3.8203 -0.36476 2.9968 1.1943 
traZODONE -2.0794 2.8925 -0.22625 1.2955 0.093827 2.0862 -2.7207 0.87662 -0.80569 -1.8079 -1.7618 0.17919 0.40752 
Azithromycin 0.61357 1.447 -1.2022 -0.060639 0.9574 -0.45472 1.2104 -0.5332 0.60786 -1.4485 -3.5206 -1.2276 1.2831 
Carvedilol -2.3466 1.3855 -2.0477 1.0922 -1.198 0.70982 0.12186 0.45614 0.19833 -2.1176 1.6255 -1.9206 0.61904 
LactatedRingers -0.025216 -0.48609 2.3601 0.1708 -2.2999 2.0871 -2.0522 0.4661 -2.2169 -3.1263 -0.53992 4.9974 -1.3515 
FerrousSulfate -1.6568 0.48643 -1.986 2.1123 1.6149 1.0027 1.5849 0.87613 1.4637 0.20192 -1.6978 -0.73455 -1.9458 
TraMADOL(Ultram) -2.9181 -0.52525 -0.5931 1.1638 -0.33981 4.6884 -2.0144 2.1284 -1.0238 -3.491 0.99738 0.28075 -0.44381 
Propofol(Generic) 3.9385 -1.9657 0.15163 0.46238 1.3456 -3.8214 2.7249 -0.57484 3.4302 1.7305 6.8082 1.2885 -2.5686 
FluticasonePropionate110mcg 1.3002 -1.2448 -1.888 -0.65557 3.4537 2.0062 1.7969 1.4122 -0.33053 -3.7723 1.2318 -2.164 0.65202 
Cefazolin 1.913 -2.096 2.4218 -0.9251 1.5369 -1.0584 1.5498 1.6311 4.9332 2.1332 5.3499 0.14125 -3.0404 
Humulin-RInsulin 1.8427 -1.5235 0.3586 -0.0822 1.1281 -4.3077 2.2015 1.3037 4.6686 1.2154 5.0057 0.57591 -1.7826 
EnoxaparinSodium -0.29094 -0.18876 1.0737 -0.69129 0.39227 0.99445 -0.36178 -0.95222 1.1081 0.22679 -1.2769 -1.3982 0.22784 
Clopidogrel -1.9813 1.768 -1.2718 -1.001 -2.3379 2.5898 -1.5101 2.9342 -0.26927 -4.1225 0.60513 0.81393 -1.0623 
NystatinOralSuspension 1.3449 0.045028 -1.1637 0.84788 0.71374 -0.014914 0.68051 -0.61332 -0.037431 -0.11731 -0.61889 0.32834 1.276 
PotassiumChloride(Powder) 0.44691 2.0251 -0.064031 1.7158 -2.5208 2.2405 -3.509 -2.1887 -1.7112 -1.7183 -1.6486 1.8494 0.71265 
LansoprazoleOralDisintegratingTab 1.7055 1.0979 -1.8818 0.82998 0.43427 0.8207 -0.22377 -0.95967 -0.91992 -1.6982 -1.2918 0.45701 0.2169 
PotassiumChl20mEq/1000mLNS 1.0865 0.061064 0.74638 -1.976 -3.0524 3.0824 -0.32499 -1.2691 0.97169 4.1631 -0.4706 2.1223 -1.5602 
Olanzapine(DisintegratingTablet) 1.3692 2.737 -1.2376 0.028494 -0.41282 0.44898 -1.2762 -2.9417 -1.0079 -0.0061158 -1.3269 -0.8273 0.26365 
ThiamineHCl 1.8819 3.311 3.1729 0.33442 4.6451 -0.20485 3.4772 -2.407 -0.40358 2.5732 2.631 -1.3572 -7.4569 
DiphenhydramineHCl -0.003905 -1.0654 0.66927 0.91039 3.7675 -0.70287 0.69348 2.8328 5.2708 1.8142 4.5325 -2.1032 -1.2898 
LabetalolHCl 2.3386 2.1557 -0.90006 -0.43061 -0.63222 -1.3635 1.9044 -0.34395 3.0043 3.9586 4.3816 -0.98017 -0.26479 
BP_m3 0.42631 -1.4627 -0.60135 0.75079 -0.36593 -0.74829 -0.8196 -2.1219 -0.57521 -0.38331 0.86596 0.84475 0.95231 
VitaminD -2.6907 1.8883 -2.3492 0.90206 1.8092 2.0592 0.4429 3.1649 0.45136 -1.0955 -3.3969 0.65268 -1.8929 
AlbuterolNebSoln 3.1428 1.5818 -0.65941 1.2457 4.5819 -1.7936 0.69243 1.5256 4.4662 0.74751 4.8792 -3.1477 -0.033111 
Milrinone -1.1464 -3.1145 -1.2914 0.84389 -1.8493 -2.3455 1.5934 -1.4607 -0.072879 -4.3272 4.6283 -0.72002 0.46261 
Acetaminophen(Liquid) 2.8991 -1.1383 -0.34453 0.033353 0.43571 0.5299 0.68472 -2.8692 -0.40056 0.16413 -1.5362 0.51011 0.53386 
LidocaineJelly2%(Urojet) -1.1306 1.6078 -0.1524 -0.20799 -1.2828 -0.10113 -0.44816 -0.75668 -0.56548 -0.72753 -1.7019 0.3768 -0.0097954 
FolicAcid 2.4597 0.64945 -5.481 -2.4124 5.1146 -2.041 -1.5706 1.1644 4.6642 3.7017 2.268 -0.22666 -6.8978 
DolasetronMesylate -0.096351 1.3676 1.8548 -1.7067 2.2836 -1.6976 0.30489 1.6585 3.8647 2.2779 1.0015 -1.4119 -1.3896 
Prochlorperazine -2.325 1.5167 1.7052 -2.464 0.049685 0.26755 0.68575 1.4447 0.97477 1.8106 -2.604 0.085447 -0.3234 
Syringe(IVRoom) 0.74882 2.0811 -0.02651 -2.7337 3.8019 -3.2576 5.3041 -2.2279 -3.2456 3.1007 0.76272 0.057121 -1.4492 
HydrALAZINEHCl 2.171 2.9263 -0.0221 -0.42601 0.53034 -1.4448 1.7892 -0.39868 1.9441 2.0557 3.9881 -2.0211 0.16824 
Atenolol -0.60154 2.0723 -0.081513 -0.97344 -1.093 2.4464 0.99234 0.40783 1.0844 1.4244 0.23648 -1.6237 -0.3302 
Cosyntropin 1.2972 -1.718 0.91955 1.6386 1.1048 -4.424 0.17443 -1.4872 2.4364 -1.6524 -1.9981 1.1229 0.06585 
Alteplase(CatheterClearance) 1.7006 -1.481 -1.1451 2.3493 -0.85279 -0.75275 -1.5883 0.46589 3.6529 0.25116 -1.448 1.1231 4.0111 
PolyethyleneGlycol -1.6877 2.0358 -0.64005 2.3621 -0.94164 3.3263 -2.7038 1.3666 -0.4392 -1.9006 -1.9851 1.4898 0.23842 
Clonazepam 0.045485 0.50218 -0.78607 0.26272 2.747 1.8831 0.34814 -0.054514 0.45372 0.085705 -2.502 -1.4202 0.026924 
HeparinFlushPICC(100units/ml) 0.45052 2.1527 0.030439 0.7552 2.0613 -1.4996 -0.18949 -0.76086 1.4629 0.72197 -0.70666 -1.7693 0.56841 
AcetaminophenIV 1.4231 0.17701 1.7052 0.50883 -2.4011 3.3557 -2.0096 -0.39511 -2.5588 -3.1525 -0.72222 4.1788 -0.22031 
NicotinePatch 0.48482 1.2759 -0.90031 -2.0186 1.4819 2.6543 -0.59819 -0.49718 -0.94763 -0.041942 -2.0032 -0.25639 -2.0529 
Dexmedetomidine 2.3342 -0.97483 -0.56372 0.19934 -1.5912 2.4698 -1.4299 -2.0416 -3.9893 -3.9418 2.005 3.2959 -0.8333 
AtropineSulfate -2.7805 1.6624 -1.0656 -3.5011 -2.4626 -2.2332 1.0887 1.1122 2.093 -2.0484 0.99862 -2.575 -0.35539 
SodiumPolystyreneSulfonate -1.1773 1.098 -0.7922 0.49227 -0.03371 -2.5836 1.7453 0.97314 0.39397 -0.54889 -1.2844 0.66562 1.4081 
Vasopressin 1.0114 -3.2586 -0.17049 1.2704 -1.0363 -4.8612 1.4093 -2.325 0.18858 -4.4754 0.56676 1.8935 0.2756 
Albumin5%(12.5g/250mL) -0.20249 -1.5867 1.0201 -0.071027 -1.3539 0.14623 -1.5363 -0.97582 -2.8196 -4.2442 1.5407 2.419 0.68995 
Epinephrine -0.14534 -4.5208 -0.24315 -0.63233 -1.2911 -3.0492 2.8236 -0.4999 -0.2617 -5.9067 4.5985 1.5124 -2.132 
Hydrochlorothiazide -0.79899 3.4793 -0.61085 -1.5479 -1.1888 3.1968 1.1114 0.41032 0.43146 1.8176 0.44916 -2.1697 -0.33317 
Mannitol20% 2.989 0.28735 0.65532 2.0124 -3.4554 1.5278 4.7083 -3.4901 -1.9819 3.9504 1.9202 4.4787 -2.6947 
LansoprazoleOralSuspension 3.1158 0.4202 -1.3819 1.1791 2.4034 -2.5653 0.87622 -1.2993 3.2242 1.3858 1.9934 -1.4623 -0.52515 
Olanzapine 1.0192 1.8929 -1.9059 0.51858 0.68655 1.0537 -0.25844 -2.2883 -0.42156 0.67693 -1.3785 -1.3174 -0.030226 
Spironolactone -2.9603 1.8563 -1.1524 1.527 0.61268 -1.303 -0.52335 -1.0157 0.60055 -0.68488 -0.72112 -2.0176 -1.0282 
ArtificialTears 2.4114 -1.1265 -2.0865 0.88344 -0.075808 0.0062789 1.7948 -1.0817 0.43473 0.069621 -0.70569 1.2141 0.15348 
MycophenolateMofetil -0.54183 0.95726 0.45682 -1.5654 1.893 -1.8806 4.0462 3.3449 -1.1878 2.6085 -0.78692 3.1116 4.1947 
Lidocaine1% 0.69628 1.0914 -0.13902 -0.51651 -0.52623 -0.68726 0.31768 -0.66812 -0.85003 -0.28339 -1.1281 1.0552 1.2333 
FentanylPatch 1.4579 0.10952 0.40649 -0.034506 2.8451 0.47356 -0.12185 -1.0433 0.049752 0.96589 -2.2421 -0.23894 0.74047 
D5NS 0.37415 1.017 1.1486 -1.6767 -0.62773 -0.85083 -0.3108 -1.3318 -0.12022 1.1861 -2.0501 1.4329 -0.91938 
5%Dextrose(EXCELBAG) -1.6603 -0.030476 -0.56691 0.88091 -2.7451 0.98167 0.41239 -2.0392 -3.759 -5.3229 2.3853 -0.23237 1.7237 
PHENYLEPHrine -0.4261 -2.6895 0.66242 0.3473 -4.6024 1.1332 -0.34053 1.0767 -1.5612 -4.9309 0.79689 6.2568 -1.6216 
SodiumChlorideNasal -1.3182 1.0428 0.086225 -0.14443 0.78091 0.83507 0.21191 0.84425 0.090343 -1.412 -0.41847 -1.547 1.3205 
MultivitaminIV -0.29791 -1.0996 0.051863 -3.077 -0.13191 -0.93454 1.6923 -6.3661 -2.8949 2.0798 -3.0544 1.1511 -4.9358 
SarnaLotion -1.8978 0.81264 0.21248 -0.54505 0.87576 0.62598 0.5514 0.53001 -0.37577 0.53649 -1.496 -0.49935 0.99731 
Clindamycin 1.7229 -0.25162 1.0389 -0.90762 -0.28215 -0.15473 1.3912 -1.4073 1.3704 0.4612 -2.3052 0.18174 -0.54388 
EpoetinAlfa -2.4709 2.4308 -1.989 1.6172 0.6228 -4.1226 2.4494 0.97161 -0.85459 1.5267 0.25803 1.5907 0.76324 
CitalopramHydrobromide -0.274 0.92235 -1.2183 0.45063 2.2653 1.6794 1.2876 1.3231 0.88675 -0.66206 -1.748 -0.86793 -1.4889 
Guaifenesin -0.73039 1.6321 -1.2042 -0.54533 1.8381 0.45071 -1.0509 0.49998 0.8767 -1.3903 -2.1664 -2.4408 2.071 
traZODONEHCl -0.13973 2.0159 -0.52136 0.45918 2.9488 -0.77177 0.11189 0.59811 3.6303 1.0655 1.0033 -3.384 -1.3368 
BM_p4 -0.74666 -0.18559 -0.32874 1.1267 -0.42665 1.8237 -2.0145 0.23249 -1.7925 -2.5461 0.89048 1.1785 1.8463 
Allopurinol -2.7274 1.234 -1.1472 0.69719 0.3399 1.1215 2.4613 2.7618 0.64099 -1.6676 -0.7474 -0.72006 -0.56612 
Acyclovir 1.7597 1.3085 -0.32174 0.88356 -0.98251 -1.035 2.484 -1.1218 0.46313 1.5551 -3.7725 2.2667 0.15184 
NiCARdipineIV 2.4913 -0.013747 -2.0736 -4.3943 -6.0718 3.6594 0.76109 0.12579 -0.54991 0.96475 2.9803 2.3169 1.2912 
Sulfameth/TrimethoprimDS -0.36714 1.7607 -0.44225 0.13722 1.3371 -0.15872 0.59939 0.85153 0.35632 1.0962 -2.3588 0.10002 1.7761 
Methadone 2.0003 0.57542 0.020982 0.31777 1.1003 1.4909 -1.9891 -1.6204 -2.5431 -0.87147 -1.8118 2.4796 0.063155 
MethylprednisoloneNaSucc. 5.0209 2.3483 -0.60996 -0.2972 6.973 -5.3037 -1.3425 4.0374 4.882 4.7045 4.7767 2.7231 -0.54367 
Lidocaine5%Patch -1.5568 1.0316 0.10206 0.84586 1.6963 2.2401 -0.98632 1.1994 -0.06773 -0.99913 -3.1869 0.061841 0.20742 
Gentamicin -0.58239 -1.6991 -10.009 -5.4619 -1.8778 -5.8581 -4.5887 -0.55899 3.2147 2.0377 -2.268 3.3475 -4.2914 
IsotonicSodiumChloride 3.2041 -1.0957 10.441 5.9087 -2.9844 2.9185 6.5609 -1.6981 3.4337 -0.61118 -0.035162 -0.90548 4.522 
AcetaZOLamideSodium 1.6403 0.44899 -0.60478 0.8 -1.1721 0.22723 -0.96973 -3.4395 -2.4653 -2.5565 1.1831 -0.18857 2.2392 
MetoprololSuccinateXL -2.9991 3.2589 -0.47961 0.50355 -2.0735 3.1386 -2.3659 1.2115 -0.65692 -1.5967 0.38537 -0.53587 0.48079 
AscorbicAcid -3.1114 -0.19761 -0.37855 4.0158 5.0347 1.8728 3.7374 0.56455 -1.1856 -1.8424 0.93564 -1.8806 -4.2505 
IsosorbideMononitrate(ExtendedRelease) -3.1349 2.9209 -1.8845 -0.1676 -1.4317 0.98226 1.9789 1.3461 0.27586 0.0076548 1.4598 -2.3605 0.64765 
Aluminum-MagnesiumHydrox.-Simethicone -3.2115 1.7602 0.52149 -1.3891 -0.20198 0.40494 -0.28243 0.97906 1.0878 0.41441 -1.6002 -1.4621 -0.22707 
CisatracuriumBesylate 3.7372 -2.4158 -0.97719 0.64862 -1.9334 -3.0963 2.5237 -3.2129 -1.0043 -2.7242 0.86629 2.6503 1.1171 
CalciumAcetate -1.875 1.7913 -3.0999 2.0209 0.42324 -2.228 2.8542 1.5842 0.49472 0.88674 -0.83403 0.81295 1.0135 
CloniDINE 0.98711 3.6927 -2.036 -0.2693 -1.0458 3.1674 -0.67985 -1.1919 -3.1101 0.56653 -0.070996 1.072 -0.027207 
ArtificialTearOintment 4.0016 -1.2031 -1.1451 0.61566 -1.2227 -0.22447 1.4891 -1.507 -0.42831 -1.0448 -0.30924 2.9699 0.36254 
SodiumChloride 1.0637 -0.51092 -0.69686 1.2872 -3.5259 -0.6876 0.67616 -2.1256 1.1502 3.0719 -0.24999 2.9873 0.081621 
NitroglycerinSL -3.0082 2.5397 -0.71042 -1.5597 -1.0215 -0.50486 0.98788 1.7114 1.3333 -0.96757 0.098804 -2.0518 -0.14992 
Simethicone -3.0956 1.0058 0.20266 0.30558 0.60114 0.1896 -0.52197 0.83527 1.1223 0.38459 -1.8169 -1.0273 0.17314 
Linezolid 0.90836 -0.14474 0.053356 1.4493 1.1446 -2.5421 0.72047 -1.4039 0.089346 -0.43274 -2.3765 0.83328 2.1619 
Metolazone -1.953 1.0486 -2.1751 2.001 -1.6362 -1.3241 0.92006 -0.57718 -0.40154 -2.2887 1.2462 -1.2817 2.6718 
NORepinephrine 0.62837 -0.65629 0.76859 1.6622 -3.1952 -0.84576 -0.33318 -0.31058 -1.5378 -5.4147 -1.341 4.7374 0.11117 
Valsartan -2.0172 2.7549 -1.0313 -0.89613 -1.4918 1.8919 0.80541 1.0808 0.57747 0.50516 0.31739 -1.9623 0.77035 
BT_p2 2.9063 -1.9374 0.24005 1.0565 0.98889 -1.8598 -1.062 -3.7735 0.26076 0.22864 -0.2727 0.98124 0.90894 
VecuroniumBromide 4.7269 -1.8581 -1.3659 -0.97549 -1.1758 -1.323 1.334 -4.0026 -1.1716 -0.38807 0.80309 1.9179 0.67749 
Ampicillin-Sulbactam 1.7302 -2.3449 -2.1591 -5.3565 -0.81689 -0.45415 -2.8308 0.89017 1.8636 -0.58667 -4.4702 2.1377 2.8375 
Tamsulosin -2.5835 1.1478 -0.48476 0.71824 -1.0097 4.102 -0.48806 2.5781 -0.6215 -3.011 0.27637 0.39558 -1.0711 
Pravastatin -2.834 -0.51986 -0.56042 0.015354 -0.31936 2.9793 2.1197 3.1629 0.4309 -2.1505 -0.19507 -0.079111 -1.0125 
Golytely -1.7824 2.1457 0.51316 -0.82324 0.34917 -2.2952 0.0091688 -0.42102 0.19637 0.79378 -0.93606 -0.29698 -0.73211 
Nephrocaps -3.2762 1.2346 -4.0335 2.3192 0.68662 -0.30581 3.9913 3.1784 0.12187 0.11947 -1.8747 1.1463 0.36144 
TiotropiumBromide -0.27923 0.98489 -1.5652 -1.0682 2.7344 2.8551 0.73471 2.1197 -0.8283 -3.9834 -1.9632 -1.6869 0.84233 
VancomycinOralLiquid 0.0072415 0.53798 0.61221 1.6521 -0.24877 -2.1021 0.084715 -1.5652 -0.26904 -1.1998 -3.4915 1.4085 1.7775 
Sertraline -0.88967 1.2429 -1.3411 -0.096315 0.75089 2.8492 0.31076 2.12 -0.15866 -2.0027 -1.6773 0.14131 -0.99765 
IsosorbideDinitrate -1.4028 3.6587 -2.308 0.34569 -1.1417 -0.84355 2.4485 0.077259 0.5894 0.78477 1.7806 -2.4965 1.2579 
Cyanocobalamin -1.6885 1.4056 -1.6212 0.90304 1.5936 1.0232 2.212 0.22224 -0.085026 0.11252 -2.2251 -0.57113 -3.0283 
LosartanPotassium -2.081 2.1562 -1.5324 -0.41825 -1.1467 1.9114 1.33 0.84282 0.32039 0.20996 0.50077 -1.9796 0.50746 
AmpicillinSodium 1.919 -3.0987 -2.5738 -2.0275 -1.8175 -1.1758 -0.46009 -0.83531 4.0138 0.14278 -4.1446 0.75166 1.6634 
OxycoDONE-AcetaminophenElixir 2.5369 0.17047 0.90627 -0.6943 0.095082 2.894 -1.1799 -1.665 -1.3587 -0.72297 -0.066205 0.45548 0.76715 
Alprazolam -0.73117 0.31418 0.41116 -1.0193 1.424 1.9239 0.24831 0.55877 0.40875 0.14004 -0.69409 -1.2382 -0.22917 
Phenytoin(Suspension) 2.8619 -0.37188 -1.6614 0.29608 -2.2086 2.2265 0.32356 -3.0553 1.0446 3.4799 -0.96572 1.1489 -0.53366 
DopAmine 0.38783 0.09186 -0.7273 0.58424 0.5801 -5.8232 1.3337 -0.33241 3.7789 -0.60826 2.8061 -1.2025 -0.85503 
ProtamineSulfate -1.2094 -4.7604 -0.075113 -1.5592 -1.5984 -1.3987 2.6182 0.65002 0.217 -3.1064 3.9101 2.4703 -2.7184 
Levetiracetam 2.4894 1.1602 -0.5311 0.32159 0.12478 0.25952 0.96728 -1.6125 2.255 3.1783 -0.48316 0.0046129 -1.396 
Ceftriaxone 3.0969 1.1618 -0.2906 2.0579 1.8054 -3.3458 1.6481 0.22878 5.6549 1.2095 0.69322 -0.93429 -1.438 
Oxycodone -0.51396 1.7271 0.77497 0.29818 3.3966 -1.6133 0.58839 1.7628 4.6073 2.7974 -0.21226 -2.1171 -0.65517 
ChlorothiazideSodium -0.94947 0.6229 -2.6892 1.4511 -1.6436 -2.8438 1.2822 -0.69818 -0.75639 -2.8784 1.8909 -0.30876 2.7507 
0.45%SodiumChloride -1.2602 2.4168 0.66557 -0.82686 -2.139 0.5398 -1.603 0.70883 -1.5103 -1.1012 -2.1438 3.0112 -0.01958 
Sulfameth/TrimethoprimSS -0.50202 1.4916 0.1497 -0.85489 1.7699 0.015801 2.5018 3.6827 -0.42518 1.572 -2.2738 2.3263 3.4677 
MetFORMIN(Glucophage) -2.0503 0.17236 0.21008 0.22499 -0.6723 6.641 -1.4266 2.2 -0.3169 -1.5158 2.5304 -1.0645 0.15793 
RosuvastatinCalcium -2.5625 -1.052 -0.67323 -0.38698 -0.2102 4.0865 1.7924 2.8432 -0.46466 -2.6512 1.0661 -0.24751 -1.0746 
BT_m3 -0.13919 -1.7705 -0.086045 0.18002 -0.81577 -0.66196 0.072002 -0.50592 -0.90652 -0.33928 1.9684 2.0636 0.5743 
Esmolol 0.78108 0.64717 0.15356 -1.6799 -2.4444 -1.3065 1.5069 -2.55 -0.4912 -1.4156 1.994 -1.3328 0.089811 
Hydrocodone-Acetaminophen -1.6719 0.060723 1.247 -1.1206 0.97729 1.7246 -0.0024117 1.2928 1.115 0.50965 -0.36497 -1.0944 -0.22561 
OctreotideAcetate -4.1595 0.3776 0.74768 -2.1742 2.9034 -6.6951 -0.16221 -1.0185 -2.094 -0.74492 -3.8254 2.7643 -3.3765 
CyclosporineModified(Neoral) 1.4116 -0.083186 -0.050357 0.55267 3.3864 -3.3972 1.6346 1.6315 1.7296 3.9948 4.0381 1.7994 2.7874 
Eptifibatide -3.4025 2.0975 -0.91925 -5.1677 -2.9823 -2.2573 0.30787 0.9468 2.8351 -2.104 1.7736 -3.562 -0.87584 
MupirocinNasalOintment2% -3.184 -3.0244 -1.1537 0.1239 -2.0631 4.3812 0.46797 3.6117 -0.7648 -4.96 1.1473 2.7254 -1.9973 
OxycoDONELiquid 1.8312 0.99884 0.32437 0.61753 0.31854 2.5955 -2.7729 -1.2287 -1.7533 -0.74345 -1.676 1.8376 0.95769 
Latanoprost0.005%Ophth.Soln. -0.74551 1.2014 -2.8903 1.1933 -0.079655 2.136 3.7447 3.6827 -0.33864 -1.1984 0.63935 1.5393 -1.0616 
Cepacol(Menthol) -2.4406 1.737 0.78324 -0.4881 0.30424 2.4688 -2.4224 1.337 -0.47491 -1.4528 -1.3676 -0.26342 0.16921 
DiphenhydrAMINEHCl 1.0299 0.82081 2.6234 -1.613 2.5674 -1.3102 0.94569 1.2 2.887 1.611 0.28147 -1.1116 0.20292 
Lansoprazole 1.4383 0.2779 -0.87202 0.46024 2.473 -1.0883 0.88183 0.10964 3.3052 1.7227 1.7915 -1.8034 -0.82732 
Ciprofloxacin 1.901 0.77157 1.165 -0.21051 1.0157 -4.0514 1.0607 -1.8472 1.2742 -1.0839 -0.85695 -0.29809 -0.22209 
MetoprololXL -2.035 3.0578 -0.30183 0.68158 0.12628 -0.39346 0.58724 0.21543 3.4743 1.9339 2.7335 -4.0995 -0.73505 
Mirtazapine -1.2704 1.3028 -1.3016 0.82921 1.812 1.7285 1.5396 1.0094 0.40772 -0.51288 -3.5339 -0.46042 -1.1635 
DOPamine -0.91626 0.39415 -1.0231 -0.83883 -2.5076 -2.8502 -0.028351 -0.40253 -0.10463 -4.4334 -0.39944 0.39118 0.69066 
Bupivacaine0.5% 1.3856 -1.5755 5.8647 -5.2467 4.8277 0.41604 -1.6022 -0.2452 -0.39805 -1.1409 1.8072 -1.1191 0.091168 
Succinylcholine 5.1452 0.98968 -1.6545 -4.0082 -0.97235 -2.2053 2.704 -4.4122 -3.4367 -2.1334 1.1225 0.023334 1.1375 
UO_p1 2.0866 -0.74765 -0.1205 0.1956 -1.1738 -0.70863 -0.41269 -2.9196 0.058107 2.1093 0.72292 1.2927 1.3362 
Fluticasone-SalmeterolDiskus(250/50) -0.51303 2.2687 -0.98189 -0.57432 1.543 3.6583 -1.359 3.2835 -1.5519 -5.006 -1.5199 0.41441 0.2096 
Sevelamer -2.1626 2.0042 -2.6039 2.4568 0.63585 -2.212 2.6774 2.22 1.8947 1.4356 -0.23915 0.17468 0.77501 
SodiumCITRATE4% -1.6535 2.5237 -0.94033 1.7717 -2.2787 -3.1195 -1.549 1.5098 -3.3324 -1.8569 0.34361 6.7784 1.7758 
BM_m1 -1.5538 0.88064 0.76959 0.53853 -0.67755 0.50072 -2.3676 -0.27995 -0.9578 -0.19487 -1.1128 1.7205 0.35787 
Bupivacaine0.1% 0.79687 -3.2214 5.4878 0.32766 4.393 4.1467 -3.6755 1.0989 -3.2374 -2.0981 -1.7413 6.0736 -1.0316 
PotassiumChl40mEq/1000mLD51/2NS 0.36327 1.5145 2.5855 -2.581 -0.61915 0.13371 -1.1026 -1.9865 0.56328 1.4485 -1.9441 0.088305 -1.8941 
DesmopressinAcetate 0.072027 0.34312 -0.73361 -0.27538 -0.75603 -2.7358 1.4391 -0.20444 -0.50188 1.0342 -0.70917 2.8216 0.33649 
Prismasate(B22K4) -1.0556 -0.34475 1.0244 1.3504 -3.1398 -5.1804 -0.36507 -0.55463 -1.8497 -1.9494 -0.47972 5.7738 3.7049 
OxycodoneSR(OxyconTIN) -1.4847 1.1168 2.0482 0.098266 1.3602 3.2404 -2.0206 1.4878 0.21558 0.27718 -3.1294 0.68094 0.43485 
DexmedetomidineHCl 2.8622 -1.8574 -0.34347 -0.27259 1.418 -1.7587 1.0399 -2.0513 0.65084 -0.38778 4.9843 -0.62068 -1.2787 
FludrocortisoneAcetate -0.49098 -1.4251 -0.53915 1.724 1.8524 -3.765 1.3353 0.30408 1.9162 -0.75268 -2.3268 1.5578 -0.72374 
Ezetimibe -2.4273 -1.2921 -1.6465 -1.0096 1.1692 3.5954 1.5941 2.5839 0.15146 -2.3909 1.0769 -1.4809 -1.6235 
Prismasate(B32K2) -0.63338 -0.77911 0.56684 0.82231 -2.2192 -5.7798 0.59266 -0.094472 -0.92782 -1.7946 -0.21527 4.8476 3.6129 
MethadoneHCl 2.499 -0.066205 0.52717 0.60218 4.5816 -1.1671 0.55138 -1.0279 1.4948 2.2678 -0.27911 -0.38871 -0.71873 
Fluoxetine -0.45433 1.4062 -1.0027 -0.025206 0.69651 3.6631 -0.71954 2.2672 -0.77267 -2.2678 -1.2306 1.0552 -1.246 
AcetazolamideSodium 2.7402 -0.087352 -0.45658 1.8824 2.5643 -3.044 1.0576 -1.4041 2.0055 1.9038 5.4423 -1.0366 0.83926 
Erythromycin0.5%OphthOint 1.8619 0.79744 -0.9868 0.17956 -0.095075 0.74912 1.5089 -0.84775 0.28362 0.57589 -0.378 0.19522 -0.48286 
Nesiritide -0.62165 0.20678 -1.82 2.4906 -0.11227 -3.9959 1.2873 -0.71239 2.5982 -1.1792 4.721 -2.2778 0.98412 
MontelukastSodium 0.40845 0.038971 -1.8319 -1.4741 3.9019 3.2661 1.7311 3.5983 -0.0060903 -3.2273 -1.5903 -1.2068 0.72786 
MethylprednisoloneNaSucc 2.7259 2.5019 1.125 -2.1029 3.3112 -3.812 2.7859 1.2994 1.4767 1.8575 2.0053 -0.090506 0.66826 
PromethazineHCl -1.0294 0.92792 2.4186 -2.2068 1.2512 -1.453 1.0576 1.022 3.6737 2.6662 -0.4127 -1.3222 -1.254 
Acetaminophen-Caff-Butalbital -0.82358 0.74787 1.2285 -1.9744 -2.2917 4.4621 -1.6068 0.80818 0.51074 4.1259 -0.95479 2.3421 -0.40044 
Hespan -1.0715 -4.0929 0.83462 -0.54293 1.5007 -2.0127 1.2854 0.067607 0.77591 -1.6416 4.5421 -0.24542 -0.68026 
Cephalexin -2.6549 0.46019 -0.28447 -0.58686 -0.85207 1.6409 -0.26236 0.16341 0.79772 0.91761 0.54734 -1.4839 0.31235 
GentamicinSulfate 1.5511 -1.3627 0.45884 0.63227 -0.73204 -1.9282 0.7198 -1.9602 1.2501 -0.29846 -1.2107 0.97669 0.52286 
0.83%SodiumChloride -0.10218 2.7158 0.29507 0.59527 -7.8781 4.4183 1.3893 -0.64074 -2.2664 0.032607 3.6966 4.1982 -2.1287 
MorphineSulfateIR -1.9031 1.0233 1.4471 -0.39547 2.4682 1.2636 -1.3296 0.84089 0.31224 1.6076 -3.7746 0.27998 0.21418 
Nadolol -4.0742 1.134 -0.20012 0.38825 2.1954 -2.4042 -1.1216 -0.80089 -0.35627 0.63433 -3.4178 0.61833 -3.0642 
DiltiazemExtended-Release -1.0755 2.627 -0.044065 -0.65878 0.081965 2.0036 0.57111 0.9981 0.30918 0.019273 -0.41069 -1.9182 0.9393 
BM_p5 -0.50069 0.4529 -0.31562 1.6534 0.38405 1.0388 -2.6546 -0.48664 -1.8067 -3.0314 0.04454 0.76177 1.6492 
SodiumChloride3%(Hypertonic) 1.7748 -0.46123 -1.6211 0.93776 -2.801 -0.27103 0.04321 -2.1258 0.88608 2.8603 -0.33815 2.8668 0.34002 
Neomycin-Polymyxin-Bacitracin -4.3793 -0.039062 -3.4247 3.0726 -1.7736 -0.74997 1.385 0.37871 -2.7782 2.0722 -2.4707 4.7175 3.4445 
TacrolimusSuspension 0.44649 1.429 0.80276 -0.89011 0.22254 -1.2368 -0.56297 0.53249 -3.2916 -0.083289 -0.13218 3.5856 4.6598 
D10W 0.71856 0.050872 0.76356 -1.0407 -0.74155 -1.5648 1.0259 -0.40716 -0.59357 0.62416 -1.1378 2.4797 0.61556 
ClonidineHCl 2.5921 2.4188 -1.5959 0.74616 1.8712 -1.0955 2.3389 -0.82004 1.9886 3.7958 2.4481 -1.5727 0.72261 
Midodrine -2.8189 -0.57564 -0.56146 2.192 0.48684 -1.9685 -2.8722 0.46256 -0.8524 -1.6727 -2.1059 3.4525 0.357 
Finasteride -2.2161 -0.052357 -1.7199 0.38862 0.016964 3.0743 2.8874 2.3168 0.081456 -2.1448 -0.035858 -0.84875 -1.3033 
PNEUMOcoccalVacPolyvalent -1.263 2.2512 0.64473 -0.66621 -0.028716 1.4193 -1.4208 0.28681 0.70932 0.52285 -0.3878 -1.1952 -0.13226 
Nafcillin 1.7747 -0.044146 0.27528 0.70386 -1.0258 0.84224 -1.2532 -1.1516 0.43046 -1.1112 -1.446 1.1547 0.94403 
Risperidone 0.66778 1.5628 -1.7971 1.2025 1.8583 2.1526 0.87954 -0.12917 0.97031 -0.32279 -2.5559 -1.35 -1.3082 
Albumin25%(12.5gm) 0.60804 -1.3416 0.45189 1.492 1.6367 -5.5382 0.55537 -1.3259 2.9897 3.2272 2.454 1.1176 0.51792 
GlyBURIDE -1.8907 -0.74816 -0.24698 -0.40122 -0.18182 4.6707 0.71288 0.95873 0.25862 -1.1703 2.5628 -2.7346 0.21484 
Fluticasone-Salmeterol(250/50) 1.2015 2.0122 -1.3707 -2.1412 4.2961 1.4483 0.76205 2.3804 1.1797 -1.8623 -0.33847 -3.1634 0.34181 
Etomidate 6.0804 1.1536 -2.9373 -0.79043 0.58985 -1.759 2.1312 -2.5632 -2.4273 -2.4251 1.6536 1.7324 -0.20349 
Readi-Cat2(BariumSulfate2%Suspension) 0.73235 1.4196 1.0723 0.91823 -2.0087 0.1904 -2.372 -0.98046 -1.7318 -1.6436 -2.3705 3.7714 0.9854 
FluticasonePropionateNASAL -1.1095 1.9743 -0.81424 0.08604 1.2994 3.3184 -0.29555 3.3094 -0.76584 -3.7225 -1.8102 0.40042 0.19423 
Oxycodone-Acetaminophen(5mg-325mg) -2.8671 -3.2731 0.27865 -0.40146 -1.8275 4.2269 0.48363 3.4617 -1.2266 -3.7086 1.4727 3.8547 -1.5369 
Citalopram -0.90636 1.3668 -1.1778 1.3837 0.29793 4.1562 -0.24943 2.2792 -1.0575 -2.7481 -2.2385 1.7957 -1.3488 
HYDROmorphone 0.49083 -1.5769 2.7633 -2.9606 0.81433 1.8426 -0.42027 -0.62501 -1.0238 0.39294 -1.2316 1.1782 -0.0016049 
Oxycodone-AcetaminophenElixir 2.6082 -0.41287 0.15212 0.5458 3.1376 -0.40926 0.18144 -1.2323 2.4008 2.1653 2.1648 -1.6628 0.09398 
Nimodipine 1.6562 -1.2838 0.31936 -1.8982 -3.604 1.4702 0.26484 -1.153 1.1947 2.8921 0.81112 2.7147 -0.8232 
Bumetanide -1.7748 0.57585 -2.2474 1.6955 -0.4758 -2.0251 0.67186 -0.50258 0.99027 -1.2288 1.1008 -1.659 1.4232 
HeparinDwell(1000Units/mL) -3.2546 4.1355 -2.9231 3.0614 0.16598 -1.7638 -2.8116 2.3473 -3.7062 -0.91904 0.056742 5.6132 0.16379 
PotassiumChl40mEq/1000mLNS 0.19337 1.2181 1.415 -1.8387 -2.0674 0.70739 -0.18827 -1.5443 0.90419 2.061 -1.9056 0.97515 -2.0737 
Paroxetine -0.069545 1.1239 -1.1539 0.77564 1.0569 2.9135 -0.26082 1.3367 -1.0239 -2.6826 -0.94377 0.5921 -1.2111 
Daptomycin -0.26729 0.21211 1.1673 1.7322 0.55459 -2.0799 -0.19384 -0.55192 -1.057 -0.68287 -3.2019 3.1399 1.4954 
AluminumHydroxideSuspension -1.2237 1.3765 -2.4331 1.6797 0.0016456 -3.2912 2.0901 0.54997 0.16344 0.63545 0.034924 0.90027 1.7357 
Aztreonam 1.5157 -0.23568 0.053156 0.48107 0.29963 -2.3047 0.50751 -1.1465 1.0541 -1.1879 -3.0735 0.67586 1.7959 
NSEpiduralBag 0.15418 -1.83 5.1115 -4.536 4.4778 -1.2617 1.0447 -1.0244 -1.1901 -0.79011 1.907 -1.4668 0.16746 
Metformin -0.97204 -0.29468 -0.34411 0.41531 2.9701 2.2753 0.79084 2.426 3.9168 0.95085 4.674 -4.1461 0.14407 
Torsemide -3.9368 2.2228 -1.047 2.3814 -1.5753 0.99213 -1.8459 0.76667 -0.24867 -2.4427 0.15934 -1.2049 2.5412 
Fexofenadine -1.6356 1.3841 -0.29655 -1.1245 2.3824 2.2768 1.2008 3.2413 0.29357 -1.1584 -2.0293 -0.96663 0.33346 
HeparinFlush(1000units/mL) -2.4942 1.7901 0.12796 1.5807 -1.3326 -0.55884 0.18299 2.1206 -2.4158 -1.0431 -1.2667 4.2145 2.7985 
Syringe(0.9%SodiumChloride) 0.14058 6.4301 -0.089435 0.35595 -2.4823 -1.275 -0.33205 -3.7108 -4.6153 0.74796 -2.0004 1.3085 4.0846 
Benzonatate -1.5707 2.8658 0.24104 0.34149 1.7356 1.1991 -1.0946 0.66131 0.50051 -1.7936 -2.934 -2.5927 2.3634 
NIFEdipineCR -1.7008 5.3605 -1.6079 -0.55367 -1.8238 1.8731 1.844 2.3402 -0.537 1.82 -0.00067161 -0.046507 1.4068 
Ceftazidime 2.3587 -0.23959 -0.77641 2.6267 1.3008 -4.5008 0.96759 -1.485 4.9976 1.5949 0.78234 -0.62608 -0.33521 
Colchicine -3.4714 0.57915 0.19999 -0.18593 0.47408 1.3644 -0.014961 1.7174 -0.012368 -1.1054 0.41134 -1.238 0.11679 
GlipiZIDE -2.5125 -0.43057 0.18809 -0.57315 0.010452 4.3674 0.48285 1.5832 0.19012 -0.84322 1.9045 -2.36 0.70617 
Erythromycin 0.31341 0.40263 -0.30876 -0.42444 -0.35387 -1.8435 -0.26861 -1.7283 -0.74386 0.076028 -1.2913 1.5779 -0.33836 
TobramycinSulfate 1.6576 -0.18826 -0.66367 2.009 -0.027212 -1.3999 0.24803 -3.1819 -1.0503 -0.78896 -2.5987 1.2464 1.5706 
BuPROPion(SustainedRelease) -1.4845 0.066593 0.075137 -0.64046 2.1336 3.6974 0.65421 2.011 -0.04779 -1.178 -1.4857 -0.65453 -1.5527 
AlbuterolMDI 3.3508 1.2103 -0.86851 -0.57992 1.8383 0.15272 -1.747 0.61001 -0.81489 -3.9407 0.3445 1.1138 -0.16929 
Rifaximin -2.9384 2.163 -0.26291 1.3873 2.5825 -2.5246 -0.94091 -0.71859 -2.0321 -0.70911 -4.2427 2.4066 -2.8981 
CitrateDextrose3%(ACD-A)CRRT -0.84451 -0.59936 0.70672 1.7255 -3.3201 -4.6483 -0.56671 0.11712 -1.4093 -2.9341 -0.33099 6.3387 3.6058 
PotassiumChl20mEq/1000mLD5NS 0.8138 0.69774 2.07 -2.2332 -1.3732 1.8369 -0.37465 -1.502 0.67625 3.4063 -0.55496 1.0288 -1.6542 
EnalaprilMaleate -0.84408 2.367 -1.166 -0.48308 -1.2173 1.4144 1.8125 -0.1052 0.53162 1.3207 1.1753 -2.0537 0.41554 
PotassiumChlorideReplacement(Oncology) -0.87152 1.3732 2.8433 -0.50558 -0.73346 -0.27013 -1.1766 -0.94603 0.89907 0.79938 -3.4248 0.26346 0.94762 
Lidocaine -0.9503 -0.060063 -0.60834 -0.11126 -1.6363 -1.9274 0.81423 -2.0367 -0.32054 -3.3847 2.3818 -1.4675 -1.0183 
HeparinFlush(100units/ml) -1.8778 0.8555 1.6358 0.18683 -0.16385 0.31569 -0.87364 -0.28276 -0.030893 0.23367 -3.885 0.67124 1.947 
BrimonidineTartrate0.15%Ophth. -0.66077 1.3521 -2.9952 0.42815 0.61621 1.6583 3.882 3.4909 -0.88515 -0.71477 1.6261 1.3054 -1.0428 
Oxazepam -2.2514 -1.7526 -0.042667 -0.12619 1.7793 1.2438 0.59238 1.779 3.2588 0.20661 2.6414 -2.756 -0.78493 
EpiduralBag -0.3435 0.44359 6.0175 -5.1564 1.6322 2.4307 -3.5841 -0.78451 -3.0391 -4.6023 0.30261 -0.54751 -0.42697 
Acetaminophenw/Codeine -1.5219 -0.15205 0.2831 -1.0476 0.076117 1.6197 0.39634 1.1412 2.023 1.4029 0.46627 -1.3848 -0.44059 
SertralineHCl 0.38602 0.77803 -1.0245 1.2828 3.1316 -1.0902 2.0328 1.2002 3.2362 0.47505 1.6724 -2.4217 -1.1233 
Sirolimus -0.01761 1.8118 -0.13713 -0.12933 0.58504 -1.633 2.4773 1.5705 0.17994 2.2985 0.046754 1.2953 2.407 
TuberculinProtein -1.4897 1.7092 -1.0052 0.31662 -0.34683 -1.0857 -0.0704 -0.10089 0.435 0.8034 -1.2244 0.19082 -0.027938 
Donepezil -0.45288 1.3559 -1.8395 0.51954 0.089793 2.5107 2.0676 0.65819 1.2526 -1.2935 -1.9058 -1.3848 -2.2548 
CetylpyridiniumChl(Cepacol) -1.3089 0.82794 0.96354 -0.88673 2.0494 -0.63837 -0.23991 0.69297 2.7494 0.69756 0.90488 -2.9625 -0.28676 
D5LR 0.35462 -0.41642 2.6278 -1.7975 -0.12538 -0.42214 -0.28956 -1.6579 -0.41556 -0.046662 -1.0794 0.89622 -1.0507 
Calcitriol -2.705 2.6035 -2.5054 1.6825 0.31268 -0.35122 3.082 3.0488 -0.10296 -0.3188 -1.4482 1.1976 -0.44986 
Argatroban -0.16741 -0.11087 -0.58072 0.77417 -1.1523 -2.2023 -0.035406 -1.9133 -0.11061 -1.3043 0.15283 -0.15267 1.8073 
Baclofen -0.30934 0.062669 -0.067517 0.41753 2.0273 2.8321 -0.056395 0.39765 0.54454 0.69014 -3.7707 0.15326 -0.55866 
MorphineSR(MSContin) -1.3811 1.1066 2.0827 0.069593 1.2483 2.7366 -3.0949 1.0973 0.18156 -0.14438 -2.9423 0.80294 0.43337 
CefTRIAXone 2.179 0.92684 0.22697 0.10768 1.6029 -2.5551 0.88044 0.22747 4.674 0.4724 -1.0534 -1.3775 -0.53523 
HYDROmorphoneP.F. -1.1019 -1.7034 4.3177 -4.1915 2.802 0.93439 -1.3372 -0.73402 -2.3872 -2.0541 -0.55823 -0.018551 0.94915 
PhenytoinSodiumExtended -0.35533 1.2215 -0.0018764 -0.4544 -2.8685 4.9481 -2.4521 0.58823 0.24521 3.233 -1.1187 3.5688 -1.668 
HR_m1 -1.3952 -0.04965 -0.48901 0.21176 -0.50886 -1.1245 -1.0332 -0.64859 0.47377 -0.20287 0.77507 -0.18474 0.52603 
EscitalopramOxalate -0.66261 0.40404 -0.93074 -0.24368 1.6076 2.9186 1.2219 1.1975 0.92351 -0.65759 -1.6707 -1.4684 -1.3039 
VenlafaxineXR -0.95334 0.51328 -0.61193 -0.41698 2.2278 2.5748 0.99542 1.8669 1.0084 0.45307 -1.873 -0.68037 -0.98392 
ZincSulfate -0.22045 -2.4628 -3.0937 5.1992 4.1917 -0.09812 0.5997 -0.84922 3.0747 -0.57041 -3.1667 -0.60607 -2.6849 
Duloxetine -0.97068 0.81063 -0.62435 -0.20484 1.9974 3.2906 0.097999 2.081 -0.10981 -1.2126 -3.0217 0.20423 -1.1622 
Guaifenesin-Dextromethorphan -1.2497 1.693 -0.8434 -0.65868 1.2091 0.48061 -0.29479 -0.098883 1.138 -1.124 -1.813 -3.08 0.98501 
ArtificialTearsPreserv.Free 1.4207 -0.18529 -2.1235 1.1518 -0.84143 0.47524 1.278 0.24205 -0.44749 -1.5293 0.48608 1.6705 0.31959 
Famotidine(IV) 4.2445 0.17217 1.9883 -1.2527 1.4755 -1.4343 1.8919 0.76692 4.4109 3.0824 2.1343 0.56941 -1.307 
MagnesiumCitrate -1.259 0.010663 0.75994 -0.22275 -0.086211 -0.019496 -0.25568 -1.1568 0.65437 0.83492 -1.3183 -0.57476 0.023322 
TamsulosinHCl -1.0422 0.14877 -0.67781 0.38601 2.3823 1.2246 1.395 2.4499 3.1117 0.27199 2.1035 -2.472 -1.0953 
AminoAcids4.25%W/Dextrose5% 2.5665 3.1191 2.8275 1.4249 3.627 -4.0766 -2.391 -2.977 -0.081354 0.67816 0.7351 1.9256 -5.8033 
Enalaprilat 1.4006 1.9376 -1.4794 -1.2415 -1.4733 0.4444 2.0197 -1.7315 -0.74986 0.66674 2.3268 -1.3141 0.18991 
NSEpiduralBag(0.9%NaCl) 0.53371 -2.2589 4.8835 -5.1403 4.6625 1.284 0.076042 -1.3898 -0.94107 0.73976 -0.07703 -1.699 0.54181 
DOBUTamine -0.20023 -1.1004 -0.48373 0.26611 -1.6464 -3.7407 0.77921 -1.3205 0.64304 -3.3799 1.2007 0.16594 0.33299 
OndansetronODT -2.2743 2.0652 0.96222 -0.36379 -0.054611 1.4881 -1.695 1.3443 0.052888 0.30449 -2.626 0.98455 -0.3409 
IsosorbideMononitrate -1.6847 -0.97439 -1.7143 -0.6055 -0.57623 0.73944 1.6294 1.7208 1.8401 -0.02128 3.2535 -1.1814 -0.71032 
ValGANCIclovir -0.80476 1.7501 1.611 -0.95192 0.81619 0.41847 0.38902 3.9849 -2.5181 0.12899 -1.3231 5.1217 4.8768 
Anti-ThymocyteGlobulin(Rabbit) -0.52685 0.30606 0.98806 -2.291 0.56006 -1.9298 2.9005 2.6325 -1.669 1.9579 0.41756 3.396 4.884 
ValproateSodium 3.1007 -0.86831 -0.82428 0.32144 -0.74692 0.69541 0.29368 -3.0293 1.2135 2.2355 -1.9905 1.249 -0.97782 
Sulfameth/TrimethoprimSuspension 0.95498 0.95485 1.3463 -2.0785 1.6369 -1.1313 1.2034 2.7725 -1.2005 0.98784 -1.6204 4.32 2.9359 
BM_p6 -0.73967 0.79571 -0.60374 1.0337 -0.031831 1.0799 -2.1332 -0.051485 -1.1363 -1.9788 -0.49823 0.21538 2.4031 
Caspofungin 1.7405 0.021533 2.0602 -0.020231 1.8162 -4.2495 0.32032 -1.906 0.096677 0.53905 -1.4016 1.3583 2.0312 
Sulfameth/Trimethoprim 2.6674 1.6848 -0.68422 0.88261 1.7532 -3.34 1.7811 -0.10177 0.6228 1.0193 -2.2195 1.7953 2.2269 
DoxycyclineHyclate 0.25491 0.51199 0.083365 0.21408 -0.077642 -0.56787 0.28607 -0.41382 0.73523 -0.12019 -2.4921 0.74819 0.44948 
Maalox/Diphenhydramine/Lidocaine -2.1111 2.2855 0.8529 -0.67845 0.12744 -0.32079 -0.47913 1.0688 0.47798 -0.21517 -1.9633 -0.23516 0.37132 
sevelamerCARBONATE -2.9472 2.465 -2.5531 1.6213 -1.4071 0.43794 0.56261 3.1025 -1.4294 -0.70206 -1.3201 3.3441 0.99325 
MycophenolateMofetilSuspension 1.1242 1.7698 2.6227 -2.6925 0.70041 -0.44206 2.0382 2.8935 -3.0822 0.013563 -0.87491 4.943 4.0998 
ScopolaminePatch 0.85221 -0.28213 0.4684 -0.12424 0.11849 0.97845 -0.5081 -0.95332 -0.05989 0.68269 -1.2179 0.95253 0.51411 
Nicotine 0.71393 0.50734 -0.13213 -0.73155 2.6921 0.50733 0.68315 0.13455 3.2528 2.5324 1.8033 -2.3178 -2.6201 
ValproicAcid 2.9683 0.043249 -1.865 1.4592 0.10748 1.3937 0.99315 -2.1436 0.93982 1.2756 -1.4374 0.35242 -0.90115 
Albumin25%(12.5g) 0.08825 -0.37636 1.4937 -0.072089 2.5791 -5.3127 -0.24674 -1.4112 1.1965 -0.48648 -0.27724 -0.064611 0.25282 
Loperamide -2.1052 1.8276 0.33683 1.1624 0.37205 -0.11277 -1.5536 0.11158 -0.57659 -0.0054699 -2.3315 1.1341 0.45953 
traMADOL -1.7311 0.26447 0.0070646 0.2584 2.9301 -0.12979 0.39008 1.0813 3.2124 0.70947 1.308 -3.3578 -1.2596 
Promethazine -0.61685 1.0529 2.5634 -1.7327 -0.54531 2.4017 -2.2087 1.5492 -0.19117 0.84333 -1.8005 2.816 -0.31154 
ParoxetineHCl 0.3849 0.72651 -0.66221 0.27188 3.7289 0.037276 0.91846 1.6993 3.3628 1.1291 1.5358 -2.4533 -1.0746 
Glyburide -1.7241 -0.78478 -1.1828 0.27963 2.3884 1.9599 1.0691 1.4446 3.2892 0.88004 3.8483 -4.1318 -0.30504 
NitroglycerinOintment2% 0.44877 3.2423 -1.4892 -0.58547 -1.6819 -0.63098 1.5688 0.012405 0.26261 0.016419 0.083838 -0.69476 1.1628 
Ranitidine(Liquid) 1.7854 -0.38129 -0.91157 0.48296 -0.74006 1.6383 0.43306 -1.2681 -0.62193 -2.2476 0.56185 -0.082084 0.39437 
AcetaZOLamide 0.882 1.1042 -0.79597 1.2644 -0.90865 0.95927 -2.0105 -1.8386 -0.90076 -1.8425 0.098071 -0.1084 1.7032 
Filgrastim 0.27533 1.8122 1.7104 -0.17333 0.32834 -3.7147 0.63859 -0.33743 0.29487 0.94696 -2.3638 2.1491 1.2149 
FluoxetineHCl -0.090406 0.31062 -0.0051426 0.15709 3.2709 0.57837 1.4743 1.6281 3.2559 0.60292 0.45142 -2.2893 -1.8753 
LidocaineViscous2% -1.2841 1.3018 0.8152 -0.87685 1.1349 -1.2016 -0.18477 0.032469 0.080586 0.4703 -1.8006 -0.20082 0.44175 
BacitracinOintment 1.3115 -0.56386 -0.70462 -0.51115 0.66229 1.4665 1.0109 -0.31462 1.0132 1.276 -0.5178 0.030197 -0.60247 
IbuprofenSuspension 3.1326 -0.79712 -0.14273 0.07494 -0.1763 0.74063 -0.35331 -3.2462 -0.61774 -0.044808 -1.0423 0.75141 0.22874 
BuPROPion -0.031705 -0.18581 -0.91057 -0.46501 2.1845 2.8208 0.24219 1.3984 -0.17135 -1.2121 -1.5325 -0.10722 -1.05 
Amoxicillin-ClavulanicAcid -0.94855 1.9392 1.1076 -0.24286 0.55688 1.43 0.11942 0.21631 0.33118 0.89935 -1.5497 -0.93432 0.54193 
OxymetazolineHCl 1.9093 0.81974 -0.75069 0.43067 2.1808 -1.6072 0.71911 0.045604 2.5835 1.0175 0.55744 -1.2345 0.55081 
Ursodiol -1.7037 0.75596 -0.62955 0.69255 2.5437 -0.95761 1.7953 0.85204 -0.25526 0.45697 -3.3616 0.71569 -0.23725 
Carbidopa-Levodopa(25-100) -0.042597 0.0019361 -1.9529 0.54661 1.3303 0.83435 1.5895 1.0816 0.77776 -1.054 -1.422 -0.022748 -1.2997 
Phosphorus -0.50737 0.86878 1.4405 0.8512 -2.4508 2.4205 -2.9452 -1.3724 -0.16332 -0.62481 -2.2884 1.6756 -0.08609 
ClonidineTTS1Patch 2.5973 1.8981 -0.07707 -0.59117 1.2533 -0.21637 1.6942 -1.6547 0.64267 3.4714 1.7226 -0.83743 -0.24774 
Oxybutynin -1.3008 0.9643 -0.44664 0.21725 0.25066 2.0083 0.71038 1.1915 0.96675 -0.51896 -1.7508 -0.79678 -0.43768 
FerrousGluconate -3.1647 -2.8905 -1.4525 2.7409 3.1739 2.5599 -0.27928 0.92784 2.77 -1.1254 -0.30214 -2.5054 -1.8834 
VerapamilHCl 1.2207 2.4859 -0.94882 -0.020445 0.35472 0.25528 0.22959 -0.89166 1.6042 0.94948 1.206 -2.5888 0.84163 
CalciumChloride -0.03691 -1.8032 0.37538 -0.44364 -0.86454 -3.6509 1.5177 -0.98682 0.12278 -2.4751 1.1414 1.0046 -0.11547 
Doxazosin -0.68557 1.8594 -1.3316 -0.4697 -0.43126 2.8394 2.1002 2.5312 0.26377 -0.37692 0.94519 -0.89369 0.7739 
Micafungin 0.75878 -0.86124 0.0093992 0.35471 -0.62648 -1.5189 -2.654 -0.4129 -1.1957 -1.3872 -3.7918 4.8423 3.0073 
MetoprololXL(ToprolXL) -1.752 2.697 -1.0527 0.24527 -0.095158 1.0767 -0.13478 1.3261 1.6256 -0.026695 0.71699 -2.0452 -0.090115 
Dorzolamide2%/Timolol0.5%Ophth. -0.68962 1.6465 -1.8535 -0.2676 0.67136 1.3913 3.1515 4.0795 -0.16625 -0.46617 0.97943 1.4706 -0.93714 
Gemfibrozil -2.3324 -0.65544 -0.53302 0.024199 0.753 3.6393 2.5304 2.914 0.92939 -1.3446 0.8851 -1.2279 -1.6323 
AMP -3.0357 -0.5855 1.6451 0.44679 3.5106 -6.051 -0.71036 -0.80515 -0.10842 -0.4088 -4.0102 2.936 -2.5661 
Fosphenytoin 2.0771 0.47219 -1.4446 1.2345 -3.6878 2.48 -1.7935 -2.5896 -0.8805 1.0162 -1.5502 3.8319 -0.47436 
TimololMaleate0.5% -1.2937 0.73785 -1.4834 -0.65822 0.34877 1.5445 2.4847 3.301 -0.38164 -0.41002 0.58137 1.2449 -0.62822 
Oxycodone(SustainedRelease) -1.0003 -0.09223 0.99717 -0.64738 3.1942 -0.34577 0.61873 1.3785 3.6011 3.193 -0.64528 -1.5671 -0.18506 
Oxacillin 1.7844 -0.012843 0.35066 1.0749 1.2985 -2.1512 1.0582 -1.1372 3.5332 1.7929 1.0742 -0.9736 -0.86269 
Racepinephrine 2.5275 0.55053 0.015121 -1.4202 0.030251 0.69053 0.21365 -1.002 -0.84639 -0.28968 0.16384 0.28928 1.4936 
AcetaZOLAMIDESodium 2.3522 -0.35167 0.45675 0.76762 1.2197 -2.0962 0.86844 -2.4906 1.5885 0.87139 2.5351 -1.5536 1.0398 
MultivitaminsW/minerals -0.9743 1.1565 -1.2271 0.8406 1.5255 1.7642 0.9067 0.39458 0.076058 0.36315 -2.2666 0.2382 -2.7493 
HydrOXYzine -1.4159 1.6946 1.2598 -0.5003 1.5583 1.4553 -0.74704 1.6286 -0.73484 0.40626 -2.8846 1.3293 0.32439 
CeftazIDIME 2.2945 -1.5155 -1.0582 -1.2157 -0.46003 -0.86668 -2.0766 -0.067697 2.6865 -1.2139 -3.3696 1.1333 2.2938 
LaMOTrigine 0.46005 0.87481 -1.238 -0.29595 0.42439 3.8935 0.12824 1.1292 0.031168 0.14055 -3.0962 1.6511 -2.1978 
BM_p7 -0.56732 0.90457 0.3348 0.74755 -0.21031 1.2018 -1.3299 -0.082191 -0.23576 -1.031 -0.62015 -0.056569 1.3433 
Unasyn 1.5771 -0.38845 0.46275 -1.5342 2.2177 -3.5022 1.1256 1.0748 2.6298 2.789 0.34054 1.49 0.66393 
Ganciclovir 1.098 0.50475 0.29348 -0.56912 1.702 -3.0152 3.2876 1.2072 -0.56988 2.0523 -1.1489 3.0487 3.2682 
Cefepime 1.7823 -1.1594 -1.14 0.08958 1.4936 -4.1984 -0.179 -0.99845 3.9672 1.4967 -1.9244 -0.020455 2.0304 
LansoprazoleOralSolution 1.899 0.012254 -1.433 1.5547 2.1913 -2.7833 2.0201 -0.47889 2.6211 1.4884 3.0728 -1.1516 -0.046589 
ChlorhexidineGluconate 2.8204 -0.36859 0.75857 -0.073973 2.692 -1.0475 1.7142 -0.20689 2.9299 1.3282 0.23749 -0.78022 -0.63509 
YellowCADDCassette -0.12219 0.38146 5.899 -4.1101 0.67163 3.5353 -3.9941 -0.55251 -3.6476 -3.8644 -0.58042 1.7635 0.24724 
NaloxoneHCl 0.78047 0.45573 0.1546 -0.023183 2.0182 -2.3565 0.76052 0.24323 1.7178 0.62837 -0.50691 -0.0090278 -0.10643 
HydromorphoneP.F. 0.27344 -3.0201 3.8183 -4.4748 5.105 -1.3013 -0.021523 -0.21329 1.0243 1.4469 2.1613 -1.2517 0.87633 
Lacri-LubeOint 4.8004 -1.702 -1.0646 1.371 0.97751 -2.2003 2.2792 -0.53853 2.9202 1.3476 2.7248 1.5482 0.45383 
Venlafaxine 0.44968 0.073717 -0.43356 0.029278 2.3506 2.2627 1.124 0.71015 0.41912 0.014706 -1.1222 -0.48142 -1.418 
PropoxypheneNap.-Apap(N-100) -1.9738 -0.87862 -0.075668 -0.14367 1.3242 1.5872 0.66972 1.4261 1.3783 -0.76447 2.2708 -2.353 -0.36816 
LoperamideHCl -0.6001 0.96733 0.25018 0.97419 3.0805 -3.4168 0.2903 -0.39111 1.9791 2.233 0.33769 -1.0027 0.43345 
VerapamilSR -0.14987 1.7681 -0.63307 -1.2493 0.092565 2.3094 0.091049 0.82539 0.76078 0.48857 0.41245 -1.7032 0.55199 
Alteplase 0.69086 0.61252 0.74618 -0.26069 -0.70349 -0.90911 0.54837 -1.2561 -0.28248 0.56966 -0.83412 0.87539 1.1313 
Albumin5%(25g) 0.085027 -1.8334 1.3722 0.029466 1.8492 -4.8788 1.0053 -1.4231 0.48282 -1.4329 1.0655 0.12437 0.72808 
SalmeterolXinafoateDiskus(50mcg) 0.73551 0.6358 -1.67 -0.48649 3.9535 0.89622 2.1765 1.9207 1.036 -1.4332 0.071652 -2.3044 0.52726 
HeparinFlush(5000Units/mL) -1.2319 1.85 -0.64478 0.54256 -0.72963 -2.1166 -0.39756 1.3607 -1.4279 -1.1024 -0.72614 2.8399 2.7856 
LactuloseEnema -1.1291 1.4709 0.3541 1.0061 0.4377 -1.4992 -1.9257 -1.319 -2.1269 -1.7481 -2.7112 2.4414 -0.40666 
Aluminum-MagnesiumHydroxide -2.2933 1.3881 -0.12855 0.34986 1.6842 -1.5386 0.50455 1.5157 4.0162 1.856 1.5673 -2.6546 -1.0521 
PenicillinGPotassium 1.2291 0.16025 0.19276 -0.13715 0.19928 -1.2632 -0.033399 -0.24077 1.4961 0.058641 -0.20265 0.24745 0.38011 
Amitriptyline -1.2259 1.274 -0.74794 -0.18292 0.58352 3.3536 -0.422 2.4172 -0.26305 -1.496 -2.1615 0.76176 -0.59148 
Miconazole2%Cream 0.71806 0.9508 -0.27758 1.5137 1.555 -0.87768 0.61093 -0.23064 0.35257 -0.30862 -1.4417 0.39118 0.48055 
NitroglycerinOint.2% 0.79756 1.4355 -1.0574 -0.031602 0.33091 -1.7952 2.2682 -0.61845 2.5604 2.9151 2.7975 -1.6885 0.20275 
MethylprednisoloneSodiumSucc 1.772 -0.089465 -0.60625 -0.20195 3.5592 -2.6432 2.3103 1.0578 1.8217 2.667 2.0724 0.519 1.5933 
Xopenex 0.73132 2.2828 -0.33649 -0.43354 1.6724 0.63005 -0.85696 0.13065 -0.31281 -2.4747 -0.62297 -1.886 1.6841 
PhenytoinInfatab 0.62741 1.0834 -0.1888 -0.45441 -2.5236 4.2118 -2.8431 0.034135 -0.096629 1.9817 -1.3127 3.147 -0.62903 
FishOil(Omega3) -2.8044 0.10214 -1.39 0.38835 0.49912 3.9667 0.91039 2.7584 -0.81711 -2.031 -0.19693 0.83336 -2.4779 
Naloxone 0.49974 0.48334 1.5373 -0.11195 0.26227 1.2995 -1.3122 -0.21639 -1.9168 -1.3858 -1.894 2.6456 0.54221 
Aripiprazole 0.53011 1.4613 -1.475 0.60378 2.2703 3.2417 0.29187 1.2705 -0.69756 -1.2011 -2.4709 0.079116 -0.35286 
Acetylcysteine(IV) -0.25946 1.4515 1.4445 -1.0018 -0.64471 -1.4036 -0.33596 -1.189 -0.76985 -0.37505 -2.8421 2.2303 -1.3242 
XopenexNeb -0.12354 1.6448 -0.2915 0.1732 -0.21153 2.1265 -2.5061 0.32711 -1.1556 -3.5398 -1.1487 -0.26696 2.2508 
ChlorasepticThroatSpray -0.88244 0.89978 1.8564 -0.35227 0.0033996 2.0646 -2.1397 0.14147 -1.4477 -0.61658 -1.5516 1.6615 0.64444 
NystatinCream 0.63903 1.047 -0.74578 1.0783 0.9915 -0.92404 0.148 -0.90341 0.55946 -0.089425 -1.9893 0.015005 0.75957 
Voriconazole 1.3433 1.7356 -0.2824 0.77695 1.0954 -1.5291 0.46954 -0.2165 -0.76663 0.28556 -2.9229 2.0296 2.3895 
Albumin5%(12.5gm) 1.0654 -1.3171 1.0239 0.46662 1.0235 -4.705 1.1254 -0.64919 2.4737 2.0964 3.2107 1.2161 0.31718 
LidocaineJelly2% -1.0464 0.54401 -1.0343 0.54485 1.444 -1.7529 -0.22307 -0.42314 0.77306 0.6041 -1.3032 -0.3084 -0.054191 
DivalproexSodium 2.0567 1.043 -1.6355 0.43701 2.2699 1.0234 1.6796 -0.43731 2.4482 1.824 -0.92967 -1.2178 -2.3282 
ValganciclovirHCl 0.59917 1.0167 1.5977 -0.1656 3.2632 -3.9618 3.5983 2.1084 0.713 3.4789 1.6154 2.0623 3.1771 
Imipenem-Cilastatin 2.403 -0.63188 0.38163 -0.86346 1.4203 -3.3241 0.49346 -0.7036 2.1887 0.61057 -1.4055 0.34192 2.046 
ValGANCIclovirSuspension 1.0401 1.3662 1.6604 -2.6293 1.4195 -2.348 0.43409 2.6433 -2.2098 0.79095 -0.77462 5.4436 3.8642 
CefpodoximeProxetil -1.3907 1.7793 -1.0306 0.8916 0.32616 0.96817 -0.51767 -0.12444 0.62847 0.073339 -1.8665 -1.2037 0.71506 
Verapamil -0.84639 2.08 -0.27874 0.10944 -1.1793 2.4334 -1.044 -0.27803 -0.9233 -0.56089 -0.52951 -0.42373 1.4488 
PhenytoinSodium(IV) 3.0961 0.83839 -0.22642 -0.63901 -4.0917 2.768 -1.9789 -1.4208 -1.1151 0.31111 -0.39537 4.6214 -0.84137 
NIFEdipine -0.92247 3.9169 -1.2238 -0.35848 -1.0644 -0.010138 2.2104 0.64803 -0.37917 2.0858 0.037752 -0.36434 1.7722 
Tolterodine -1.5311 1.0464 -0.79402 -0.31741 0.52169 2.6178 1.5428 1.4927 1.3524 -0.16488 -1.1455 -1.632 -1.4157 
AlendronateSodium -0.92957 0.67151 -0.28639 0.62416 0.991 0.37464 0.25313 0.62441 0.92724 0.4878 0.049094 -0.78614 0.034324 
Amoxicillin -3.9217 1.8524 -1.684 1.0542 -0.29247 -1.2492 1.3182 0.16801 0.57935 1.1619 -0.91965 -0.58689 -1.818 
CalciumReplacement(Oncology) -0.4661 0.94421 3.2755 -0.26627 -0.40005 -1.8109 -0.70562 -0.54982 1.569 0.38178 -4.2457 1.6264 -0.21894 
MorphineSulfate(OralSoln.) -0.63448 1.9872 -0.038116 0.26236 1.4351 0.67432 -1.2706 -0.12272 0.18576 1.1896 -2.2516 -0.2342 0.75918 
Dobutamine 0.24124 -1.883 -0.59679 0.67646 -0.080275 -3.8738 2.1819 -0.29189 3.0567 -0.87255 4.0421 -0.79134 -0.17134 
AmitriptylineHCl -0.60905 0.38276 0.35367 -0.58799 3.3357 1.2017 1.014 2.2741 2.3079 0.81504 -0.43287 -1.7844 -0.66686 
Oxymetazoline -0.23826 1.5903 -0.24966 -0.13204 0.098085 0.42899 -1.1254 0.66428 -1.0808 -1.6081 -1.0353 0.96409 1.1124 
Guaifenesin-CODEINEPhosphate -1.1932 2.9599 -0.44386 0.5099 1.0554 1.4583 -1.4051 0.93642 -0.10164 -2.0573 -2.5658 -1.0974 1.0656 
Hydrocortisone -1.1145 0.15496 -0.32015 1.1384 0.85852 -0.89711 -0.072842 0.91372 0.75194 0.41032 -2.1734 1.4136 0.23482 
FerrousSulfate(Liquid) 0.57337 0.55603 -2.4305 2.0036 1.8543 -0.39608 1.0717 -0.75429 -0.20891 -0.7499 -1.8417 0.14557 -0.86699 
Ambisome 1.3012 -0.041015 0.59958 0.65222 1.0023 -3.7159 1.6051 -1.2142 0.30016 0.94901 -1.6351 1.9132 1.2355 
RosiglitazoneMaleate -2.2003 -0.096885 -0.71805 0.20277 1.0286 2.0723 1.8644 2.3464 2.2193 0.044205 2.9461 -3.0714 0.26196 
Pregabalin -1.1725 1.3359 -0.071741 0.28788 1.2679 2.9671 -0.77281 2.4455 -0.0098722 -1.0207 -3.3287 1.3259 -0.051001 
Multivitamin12 1.0358 -1.006 0.042136 -0.33675 1.8859 -2.0535 1.917 -2.7522 0.89814 3.1076 0.22742 0.015048 -1.9486 
Nortriptyline -0.72811 0.14965 -0.52811 -0.49044 2.5403 2.9964 1.5042 1.9076 0.036659 0.0053375 -1.8378 -0.5678 -0.42674 
CodeineSulfate -0.88452 1.7216 0.14768 0.078031 0.040757 0.8785 -1.0129 0.42208 0.89072 0.23934 -0.79555 -0.64798 0.2692 
EPINEPHrine -1.2075 -2.79 -0.73992 -0.30576 -3.552 -0.031083 1.2694 0.67898 -1.5273 -5.7831 1.353 4.0383 -0.70725 
PHENObarbital 1.9719 0.16974 -0.093492 1.0239 -1.3827 1.2627 -0.60517 -2.3434 0.31075 1.0116 -1.5436 1.6389 -0.85132 
Glipizide -2.5354 -0.52591 -1.2882 0.695 2.1827 0.23282 1.4408 1.4243 2.2676 1.3365 3.601 -2.9737 0.25554 
IpratropiumBromide 1.9213 -0.1742 -1.6985 -0.035995 3.2672 -0.65684 2.6069 0.71352 2.1261 0.35589 1.4555 -2.1507 0.97248 
Terazosin -1.7793 1.4704 -1.5067 0.35615 -1.0716 3.3346 0.47432 2.2242 -0.26183 -1.8655 0.15158 -0.0049101 -0.46357 
Oxcarbazepine 0.5279 0.56687 -0.78386 0.26849 0.6002 2.1048 0.99131 0.67442 0.58379 0.99589 -1.6354 0.8101 -1.187 
NystatinOralSusp. 2.4438 -0.20251 -0.86801 1.5778 2.7909 -1.9178 1.6393 -0.36869 2.1853 1.3924 1.8794 -0.514 0.19986 
Adenosine 0.12085 0.016237 0.11288 -0.3333 -2.0584 -1.5133 0.86223 -3.0733 0.1552 -1.3757 0.49919 -1.5406 0.79145 
Sotalol -1.8521 1.1825 0.045077 0.010227 -1.0701 1.6559 -1.2116 0.72989 0.18991 -1.9849 -0.53942 -0.55624 -0.15125 
CefTAZidime 0.47903 0.0053556 -1.3047 -0.50464 -1.7539 0.57498 -2.4962 0.089681 0.26787 -0.86708 -3.7474 2.4633 2.7856 
LaMIVudine -0.47664 1.7261 0.37412 0.16648 1.3638 -0.59637 0.022433 2.1738 -1.0346 -0.1433 -2.6514 3.2802 0.7113 
Methylnaltrexone 1.0561 0.74819 0.70647 0.47442 -0.41395 1.3176 -1.9069 -0.97874 -2.1065 -1.0337 -1.8009 2.6647 1.3118 
Carbamazepine 0.39194 0.49124 -0.43177 -0.078063 0.64756 1.6345 0.89128 0.37498 0.9588 1.1093 -1.3844 0.10593 -1.0438 
BenztropineMesylate 1.2162 1.8773 -1.0432 -0.11805 2.0023 2.077 0.261 -0.64681 0.17846 0.64802 -2.0066 -0.91387 -1.5408 
Normocarb -0.23858 -2.3968 -0.29352 1.6408 -3.7676 -5.2868 1.4936 -1.5101 2.0307 1.6852 0.65321 4.4439 0.66324 
Fluticasone-Salmeterol(100/50) 0.42694 1.1042 -0.89772 -1.3406 2.89 0.93991 1.3142 1.6163 1.5894 -0.59641 -0.71123 -2.2304 -0.32272 
ClonidinePatch0.3mg/24hr 0.069578 3.0851 -1.4397 0.030683 -1.3824 2.0214 -0.53568 -0.19029 -2.5317 0.29052 0.18471 1.619 0.94073 
Psyllium -2.5188 1.3452 -0.37718 0.54724 -0.021793 1.3532 -0.0098546 0.86966 0.68884 0.48818 -0.19038 -1.3288 0.26637 
Mucinex -0.26466 1.8335 -0.18183 0.14972 1.3199 1.7345 -1.0565 0.8407 -0.4065 -2.3655 -0.68231 -1.0952 1.0116 
MoviPrep -2.97 1.3616 0.62999 -0.39309 -0.538 0.12324 -1.3503 0.62305 -1.1746 -0.90064 -1.4932 1.4457 -0.58724 
Doxercalciferol -3.5095 1.4541 -1.848 1.8884 -0.69004 -1.3594 0.58894 1.4853 -1.265 0.82388 -1.3518 3.0309 1.2603 
BusPIRone 0.24768 0.19896 -1.3924 0.11639 2.2726 3.0859 0.37928 0.93658 0.3932 -0.5647 -2.0251 -0.30772 -1.6538 
sevelamerHYDROCHLORIDE -2.6008 2.5315 -2.4753 1.5974 0.052909 0.25456 1.0354 3.0574 -1.1085 -0.56008 -1.4172 2.1103 0.98597 
Albumin5%(12.5g) 0.21802 -2.2287 1.5688 -0.036941 1.9361 -2.8813 0.75379 -1.7638 0.53886 -1.214 1.1376 -0.69322 0.22937 
Topiramate(Topamax) 0.46867 1.3846 -0.36962 -0.25105 1.4277 3.9029 -0.30256 0.92898 0.070431 0.18146 -3.4188 0.87573 -1.7305 
Ketamine 2.3776 -1.6843 2.2743 -0.51448 2.8155 2.3447 -2.3678 -1.9662 -1.8456 -0.81478 -2.9668 2.3935 -0.031301 
Fluticasone-SalmeterolDiskus(100/50) -1.0105 0.52846 -0.69919 -0.95315 0.83836 3.1432 -0.16315 2.675 -0.96474 -2.9193 -0.9912 0.5532 0.054123 
ClonidinePatch0.1mg/24hr 0.91272 2.1886 -0.58867 -0.91475 -0.89559 2.4345 -0.53754 -1.0949 -2.59 0.32075 -0.73764 1.6612 0.081766 
PhenasepticThroatSpray 0.77878 0.56137 1.1168 -1.1414 1.4587 -0.84012 0.17282 -0.44472 1.2541 1.1517 0.31499 -0.831 0.040945 
BM_m3 -0.64499 0.83274 0.28013 0.19177 -0.50636 0.85676 -1.3454 -0.012978 -0.65132 -0.12019 -0.90114 1.147 0.99899 
Heparin(CRRTMachinePriming) -1.7402 -0.90519 0.49181 -0.12166 -3.1198 -3.0086 0.99534 0.68842 -1.7812 -1.9878 -0.28714 5.6808 2.5233 
Cyclobenzaprine -1.3747 0.46641 1.2607 -0.39464 0.14287 3.1494 -1.2625 1.1855 -0.40179 -0.76041 -1.6727 1.0526 -0.74159 
D5W(GlassBottle) 0.608 1.5928 -1.9011 -0.57478 -1.1481 -2.5536 3.4327 -0.40798 0.040544 1.8868 1.1875 0.52011 2.0727 
AmlodipineBesylate -0.95717 0.85044 -2.1312 1.1705 0.75327 -0.5868 2.7131 0.69553 2.3185 2.7088 2.9275 -1.7683 0.23068 
Azathioprine -1.2764 1.1788 -0.35808 0.29108 1.7541 -0.2841 2.1825 2.8436 -0.23442 0.94263 -1.5018 1.4323 1.5668 
FleetPhospho-Soda 0.87034 0.76272 0.32135 0.61176 1.2964 -1.1756 0.46837 -1.021 1.5562 1.6006 -0.22194 -0.46168 -0.39867 
Fluticasone-SalmeterolDiskus(500/50) -0.61904 1.2928 -0.86563 0.12626 1.0044 2.9834 -0.34824 2.5013 -0.6334 -3.3576 -1.814 0.28789 0.85633 
PyridostigmineBromide -0.57786 0.25145 -0.1123 -0.80932 1.8896 -0.69009 0.69912 1.3285 -0.56675 1.0029 0.033769 0.8699 1.4531 
Indomethacin -2.7889 0.17551 0.67311 0.096805 1.0176 1.3937 -0.36668 0.77134 0.38595 0.013128 -0.047331 -1.2483 -0.22337 
PolysaccharideIronComplex -2.0901 -2.0405 -1.2945 2.2496 3.0761 1.0749 0.35437 0.63125 3.6758 1.1166 0.8253 -2.5354 -1.7018 
Oseltamivir 1.2368 1.5762 -1.1329 -0.61473 -0.74273 0.53092 0.093841 0.61186 0.33741 -3.0404 -3.7372 0.79416 1.2273 
Tricor -2.2353 -0.69761 -0.62179 0.017705 0.89089 2.8813 1.0117 2.1642 0.27344 -0.52347 1.2264 -0.51675 -1.101 
Lidocaine2% -0.018402 0.96913 1.3257 -0.055501 -0.11759 -0.63402 -0.20793 -0.5994 -0.19997 -1.0742 -1.6238 0.65245 0.29215 
CycloSPORINE(Sandimmune) 1.2482 2.5757 -1.516 1.4906 -1.4133 -1.6264 1.644 0.97562 -0.038854 -0.3237 0.32054 1.7404 2.2876 
PhenazopyridineHCl -0.65781 1.2991 0.43482 -0.20952 0.91552 -0.39616 0.28981 0.16985 2.6337 0.86228 -0.64295 -2.2239 0.10777 
Epinephrine1:1000 -0.10014 1.1911 1.7713 -2.7755 1.4237 0.30253 0.60228 2.4441 0.10843 0.40663 -1.9657 0.94944 2.1841 
Clarithromycin -3.5702 1.7383 -0.69469 1.8635 1.1415 -1.5253 1.3368 -0.27603 -0.16666 0.38955 -0.71955 -0.48863 -2.8988 
Quinapril -1.004 1.3071 -0.49817 -0.95433 0.23527 1.896 1.3891 0.81496 0.67912 1.029 0.92177 -1.5889 -0.30217 
FondaparinuxSodium -0.31291 0.035513 0.46119 0.046893 0.33332 -0.21797 -0.35866 -0.81955 -0.078391 -0.39579 -1.5153 0.36162 0.20571 
Gastroview(DiatrizoateMeglumine&Sodium) 0.019817 0.51233 1.4355 0.33044 -1.5386 0.43276 -1.82 -1.2601 -1.8907 -1.6469 -2.2841 3.0104 1.0083 
Propranolol -0.63655 1.0652 -0.081963 0.3586 0.53785 1.5443 -2.2023 -0.38299 -0.55355 -0.3549 -1.3223 0.50382 -0.19208 
Hydroxyurea -0.52247 0.55122 0.14653 -0.33209 0.44271 -0.054519 0.87523 0.75619 0.81674 0.17223 -1.4287 0.075659 0.16562 
CeftAZIDime 2.111 -0.70767 0.19517 0.0059004 2.3198 -2.2335 1.3291 -0.97214 2.3808 1.0575 -0.30262 -0.65289 0.2328 
MorphineSulfateSR -1.0297 0.78314 1.1533 -0.26465 2.8641 -0.36271 0.58102 1.4362 2.9022 2.113 -0.73483 -1.4616 -0.57842 
Tizanidine -0.69691 0.38658 1.1004 -0.28152 1.047 3.5127 -1.2839 1.0827 -0.32853 0.17383 -2.2385 1.0388 -0.35412 
TerazosinHCl -1.289 0.57453 -1.0278 0.53146 1.5382 1.3483 2.3724 2.1086 2.3243 1.53 1.0679 -1.8555 -0.49294 
MidodrineHCl -1.9687 -0.62406 0.79461 0.88935 2.6677 -3.3253 0.47408 0.19855 1.7972 1.7435 -0.35516 0.28263 -0.49779 
AscorbicAcid(Liquid) 0.25963 1.2247 -1.6204 2.9777 4.0552 -0.2887 1.9622 -0.81493 -1.4052 -1.3235 -0.5633 -0.76115 -1.5319 
ClonidinePatch0.2mg/24hr 1.1685 2.5551 -1.0572 -0.38983 -0.73058 2.5865 -0.81868 -0.69642 -2.6286 0.3045 -0.52216 1.7892 0.4807 
Divalproex(DELayedRelease) 0.38081 1.5674 -0.50051 0.44258 0.3962 3.2599 -0.70286 0.19149 -0.40429 0.19218 -3.063 1.5747 -1.6768 
Cholestyramine -1.1424 1.4155 -0.23989 0.76621 0.63671 -0.39714 -0.21995 0.1183 0.18001 -0.11786 -1.7294 0.17674 -0.34674 
Methimazole -1.0862 0.41292 -0.33433 -0.11684 0.025996 1.0695 0.61779 1.1638 0.74521 -0.41487 -0.36792 -0.37121 -0.097262 
PioglitazoneHCl -1.7414 0.0042268 -0.23272 0.36983 1.6447 2.29 1.2666 2.0066 2.1617 1.1064 2.5502 -2.5075 -0.04893 
NiacinSR -2.4081 -0.20847 -0.64975 0.0094628 -0.13132 3.1458 0.89066 2.3602 0.1645 -2.1778 -0.12779 -0.24093 -0.804 
Rifampin 0.031951 -0.055227 -0.35373 0.2618 -0.59187 -0.43064 0.64024 -0.16775 0.12027 -0.80167 -0.82339 0.64257 0.88636 
PotassiumChl40mEq/1000mLD5W -0.63912 1.1677 0.93845 -0.49695 -0.69865 -0.070607 -0.59495 -1.5721 0.2485 0.39125 -2.1785 0.0011787 -0.53376 
Qvar 1.8868 -0.49401 -1.4535 -0.77816 1.0036 -0.19358 0.84072 0.017238 -1.281 -4.0153 0.54365 0.55859 -0.023911 
Desitin -0.11144 2.0538 -0.018437 1.9697 1.6332 -1.9798 0.808 -0.35979 1.3201 0.89294 0.3139 -1.2767 0.42148 
HeparinFlushPort(10units/ml) -0.012178 1.0752 0.73977 -0.49669 1.8219 -0.86944 0.75047 0.44399 1.9585 1.243 -0.92394 -1.1287 0.089433 
Mirapex -0.80425 -0.078259 0.085701 0.99454 1.6244 0.90692 0.91256 0.82312 1.2674 -0.40011 -0.92292 -0.93608 -0.47869 
PropranololHCl -1.1193 1.7161 -0.41217 0.21182 1.9417 -0.74177 0.59903 0.065375 1.8099 1.4446 -1.2927 -1.1898 -1.8716 
PrednisoLONEAcetate1%Ophth.Susp. -0.21835 1.5375 -0.89599 0.67623 0.62334 2.4372 1.4115 2.6673 -0.19286 -0.95511 -0.85993 1.1106 -0.08541 
Lanthanum -1.0545 1.3746 -2.2422 0.994 0.74237 -0.46872 1.6245 2.3496 -0.46928 0.14339 -0.28551 1.4491 0.98043 
ChlorproMAZINE 0.73686 0.87906 0.53764 -0.48572 -0.050375 1.2908 -0.49879 -0.90481 -0.11496 0.25516 -0.55532 0.11527 -0.44732 
Nystatin 0.078761 0.78231 -0.22878 1.0665 0.59449 0.13686 -0.57405 -0.32104 -0.19789 -0.72691 -1.5102 0.36586 0.9478 
TimololMaleate0.25% -1.0025 0.92301 -0.93976 -0.15439 0.29573 1.3745 2.4431 2.5138 0.60006 -0.21352 0.55469 0.1004 -0.7428 
NystatinOintment 0.46341 0.91083 -1.1671 1.1905 1.5569 -0.61025 0.55145 -0.14271 1.5503 1.0422 -0.12092 -0.88947 0.37778 
MupirocinCream2% -0.30634 -0.093895 0.091883 0.74681 0.70288 -0.087011 1.0644 0.90578 1.3861 -0.26747 -1.0136 0.15988 -0.36302 
Namenda -0.21561 1.1505 -1.5725 0.43345 0.20677 1.63 0.73835 0.068901 1.1431 -1.0744 -1.9023 -0.85293 -1.7631 
Cinacalcet -2.645 1.4078 -1.9705 1.2465 -0.016151 0.59159 1.6379 3.4033 -1.072 -0.93179 -1.5446 2.5479 0.95358 
NicardipineHClIV 2.0791 -0.27559 -0.30531 -0.80251 -1.1131 -0.47571 1.5141 -1.3693 2.2463 3.5043 2.5153 0.39966 -0.59892 
PotassiumChl40mEq/1000mLD5NS -0.20912 0.70048 0.817 -1.7399 -0.39957 0.73033 -0.46569 -1.1488 0.82325 2.3562 -2.2008 0.68881 -1.963 
Syringe(NS) 2.2112 0.092081 1.5817 -1.7529 2.4825 0.88731 -3.0322 -1.1014 -1.9886 -0.43491 -0.88514 2.2773 -0.33412 
Guaifenesin-CodeinePhosphate -1.3302 2.0905 -0.45561 0.10794 2.0477 -1.1873 0.27051 0.91828 2.5823 0.2916 -0.16871 -3.1299 0.96484 
LithiumCarbonate -0.11362 -0.12417 -0.71945 -0.033756 0.95295 1.747 0.46091 0.65907 0.49621 -0.58302 -1.3203 -0.19811 -0.56955 
LeVETiracetamOralSolution 1.7267 0.88832 -0.86795 0.6772 -1.9592 2.413 -1.1339 -1.2555 -1.0741 0.90196 -0.68781 2.7804 0.23783 
Ciprofloxacin0.3%OphthSoln 0.56306 1.2326 -0.1194 -0.29439 -0.51893 1.1541 -0.17935 0.4888 0.062156 0.93061 -0.97458 1.6651 -0.61947 
Dorzolamide2%Ophth.Soln. -0.40574 0.92949 -2.1909 -0.17911 0.6363 1.5338 2.8483 2.9315 0.19295 -0.79189 0.73145 0.3496 -0.60896 
FatEmulsion20% -0.19099 -0.13878 0.14616 0.51858 0.85665 -1.6876 -0.25633 -2.0955 0.054167 1.507 0.47286 0.090966 0.058634 
HydroxychloroquineSulfate -1.1533 1.2198 -0.68977 -0.050106 0.51163 1.7352 0.97199 2.0182 0.43214 -0.63275 -1.3131 -0.033032 0.086931 
GlipiZIDEXL -1.8289 0.80486 -0.80117 -0.33013 0.1312 2.8237 0.071401 1.7807 0.59004 0.017278 0.82965 -1.0961 0.016686 
Phenobarbital 1.9941 0.10455 -0.16047 0.16606 0.71957 -1.0009 1.4815 -2.1191 1.3576 2.3809 0.24641 -0.0046521 -0.95546 
RiTONAvir -0.23306 1.147 -0.32964 -0.31742 0.77638 1.1681 0.3544 1.3244 -0.81604 -0.77347 -2.8703 1.7548 0.078249 
HeparinFlushCRRT(5000Units/mL) -0.48293 0.046672 0.034719 0.65616 -0.65716 -4.5541 1.2859 0.17764 0.28244 -0.36646 -0.28962 2.5056 1.3585 
SilverSulfadiazine1%Cream 0.096832 -0.075564 1.0173 -0.51892 0.52402 -0.07814 0.29859 0.052929 0.59557 -0.4552 -0.64217 -0.093439 0.71459 
ClotrimazoleCream -0.24002 0.8449 -0.62187 0.11542 0.83743 0.78467 0.34936 0.61121 0.29567 -0.62531 -0.93455 -0.51419 0.27629 
Papain2.5%Solution 1.3512 0.76294 0.13866 0.51097 1.1418 -1.5155 0.36302 -1.4526 -0.0060764 0.98175 0.45737 -0.048702 1.575 
Acetazolamide 0.48667 0.31272 -0.89079 0.89278 1.349 -1.6235 0.32222 -1.4166 1.2816 1.8257 2.4673 -1.3913 0.62471 
MagnesiumSulfateReplacement(Oncology) -0.35605 1.2196 2.2887 -1.0533 0.2681 -1.5196 -0.58807 -0.61736 2.5895 1.6452 -4.0063 0.16562 -0.50299 
MesalamineDR -1.4176 0.47653 -0.048937 -0.58179 1.2182 1.2861 0.3634 1.4964 0.70748 -0.74628 -0.64033 -0.83192 -0.76376 
Lamivudine 0.10444 1.1141 0.17667 -0.41664 2.6499 -1.5381 1.8221 1.4 1.3896 2.0504 -0.26801 0.070663 0.12244 
Albumin5% -0.20946 -1.1432 1.5333 -0.38234 -0.66169 -0.78947 -0.96402 -0.6494 -1.7563 -2.1319 -1.099 2.9711 1.2118 
AtovaquoneSuspension -0.40041 1.2449 -0.53376 0.57675 1.0198 -0.68752 0.21405 0.89776 0.38931 0.30083 -2.9326 1.2535 1.1104 
Heparin(IABP) -1.0081 -0.62805 -0.64888 -0.65479 -1.9588 -0.97766 0.46484 -0.4968 -0.30504 -3.0006 0.70698 0.56269 -0.7641 
Dipyridamole-Aspirin -0.65354 0.39801 -0.49297 -0.6101 0.19365 0.62698 1.1453 0.80978 1.2607 -0.36484 0.075831 -1.1518 -0.29203 
Mannitol 3.2423 -0.51344 -0.84336 -0.45394 -1.3093 0.0041627 2.1394 -0.49258 1.5479 2.31 1.2453 2.346 -0.64863 
Paricalcitol -2.6873 2.006 -1.5977 1.0493 -0.57263 -1.0553 0.7051 1.4423 -0.87794 0.38405 -1.5428 2.068 1.2722 
OLANZapine(DisintegratingTablet) -0.7196 0.58811 0.078104 0.28889 -0.91345 1.4445 -1.7819 -0.95568 -1.8456 -0.70017 -0.95434 1.5729 0.54921 
Amikacin 0.59197 -0.36817 0.91881 0.46093 0.58082 -1.5302 -0.76159 -1.2719 -0.50563 -0.71951 -1.1885 1.2529 1.3869 
Zonisamide 0.88022 0.8892 -0.60875 -0.05225 -0.37114 2.6783 0.43676 0.21704 0.75987 1.5248 -2.0383 1.1961 -1.7513 
CycloSPORINE(Neoral)MODIFIED -1.3632 1.7564 -0.078718 0.63172 0.20991 -0.24056 -0.37579 1.9219 -1.1154 0.031168 -1.1639 2.7493 1.3565 
Diphenoxylate-Atropine -0.78431 0.77166 0.92528 0.052364 1.2113 0.085742 -0.019276 0.027118 0.85627 0.89803 -1.9149 -0.2717 -0.1827 
Ropinirole -1.1304 0.75416 -0.76272 0.28028 0.41957 2.198 0.20714 1.2428 -1.0147 -1.9331 -1.312 0.74277 -0.62154 
FentanylPCA -0.056113 0.11854 1.4155 -1.649 1.6197 -0.12266 -0.49271 0.46402 0.48052 0.95826 -0.3035 0.21503 -0.25088 
AdvairDiskus -0.17013 0.1922 -0.50381 -0.72978 2.9027 1.3899 0.91752 1.5089 0.82266 -0.84907 -0.19578 -2.055 0.95219 
Clotrimazole -0.34655 1.1812 0.41578 0.32153 1.516 -0.47606 1.1265 1.0403 0.76055 0.82258 -2.0652 0.45795 0.40967 
CycloSPORINEModified(Neoral) 0.12051 0.64064 0.066314 -0.29304 1.5933 -2.4673 1.4414 0.6603 0.58669 1.7535 0.65966 1.0726 1.1704 
