630 13
rr_n 1.1539 -0.1484 -1.9095 -0.27998 1.6308 0.39989 -0.037244 0.12372 -0.88834 3.4635 3.0104 -1.1291 1.1813 
rr_p1 1.6622 0.35522 1.6505 0.28106 0.181 0.70806 -1.8192 -4.6658 0.13837 -1.1903 -0.043297 -0.61505 0.48164 
hr_p1 1.4347 -0.37359 0.93862 -0.27167 1.8702 0.45897 0.42819 -1.7728 0.080412 0.50115 1.8943 -0.37508 1.0756 
bp_n 0.80393 0.24176 0.91172 0.78717 1.1563 1.81 -1.7679 -0.70618 -0.26051 1.3588 0.12277 -0.13181 0.65091 
hr_n 1.1867 0.81796 -0.52921 0.89513 0.59846 0.1029 -0.4684 -1.8566 -0.37792 0.7956 0.75293 -0.82466 -0.24022 
rr_m1 1.0711 0.22472 1.4523 1.4968 0.49895 0.75442 -0.82483 -2.903 -0.49892 -0.58917 0.68932 0.66532 -0.49928 
bp_m1 0.71771 1.222 0.85355 1.1764 -0.072958 1.4506 -2.2173 -0.70589 -0.49923 2.1211 0.3075 -0.59167 -0.25609 
hr_p2 1.8389 0.81873 0.10609 1.0973 0.032336 0.40535 0.065636 -3.1482 -0.74585 1.3207 0.78911 -1.5482 -0.81388 
bt_n 0.61437 1.1301 0.19158 0.55924 1.0029 0.029102 -0.78857 -0.74261 -0.14284 0.80608 0.67249 -0.3277 0.26561 
rr_p2 1.2934 -0.30827 0.48727 0.64075 2.1077 0.81934 0.55336 -2.328 -2.2416 2.4577 1.9174 -1.0607 0.14752 
bt_p1 0.74466 0.91885 0.19698 0.46266 1.0016 -0.22448 -0.48409 -1.2257 0.071621 0.60087 0.54614 -0.31449 0.38296 
bt_m1 0.34574 1.1565 0.52537 0.36677 0.98111 -0.037458 -1.0158 -0.50742 -0.16155 0.86146 0.57292 -0.07911 0.3241 
gc_n 0.22371 1.6028 0.17405 0.63143 1.6789 -0.89335 -0.41013 -0.3253 1.1854 -0.21153 -0.20872 -0.51375 0.44946 
potassiumchloride -1.0558 0.39509 0.32245 0.22475 -0.3639 1.0455 0.78643 0.024804 0.66101 0.084142 0.75982 -0.97595 1.0369 
gc_m2 1.6452 0.21123 -0.74173 1.2211 0.85225 1.1005 0.10325 -1.9638 -0.62511 -0.049924 1.6021 0.037838 -0.0093904 
furosemide -0.81837 -0.20558 0.155 -0.15509 0.70069 1.2093 -1.8157 -1.0095 -0.2046 0.0038626 1.0276 -1.8054 0.35438 
rr_m2 1.307 -0.49537 0.72743 1.799 -0.30689 1.2077 -0.72031 -3.8448 -1.7019 1.5399 2.1203 0.81174 0.56276 
bt_m2 -0.006168 1.3022 0.96421 0.62935 0.75704 0.20949 -1.3404 -0.16119 -0.46662 0.83493 0.4546 0.07114 -0.17723 
</s> -1.1577 0.22706 -0.66461 0.15794 -1.1781 -0.0097906 1.0808 1.1547 0.67985 0.016382 -0.71325 0.74138 -0.479 
gc_m1 0.72537 1.676 -0.25879 0.51157 1.7718 -0.79505 0.77079 -0.79546 0.022805 0.08355 0.51249 -0.27619 0.60288 
bp_m2 1.1768 0.97189 1.375 1.2188 0.34667 2.2032 -2.1217 -0.43334 -0.34394 2.5722 -0.70329 0.087556 0.36178 
sodiumchloride0.9%flush -0.81504 0.40329 -0.5987 -0.16989 -0.12511 0.42372 0.56037 1.7692 1.3268 -1.0347 -0.79304 0.18138 -0.88991 
d5w -1.7238 -0.15085 0.6133 1.1741 -2.0689 1.2063 -0.57466 -2.5593 -1.5813 1.1242 1.4823 -0.23739 1.1127 
hr_p3 1.9753 -0.92611 1.5743 -0.33443 1.3079 1.2589 1.1954 -2.8303 -0.21376 1.6035 1.9506 -1.7347 0.69897 
insulin -0.85195 -0.43102 -1.3075 -0.51222 -0.39355 -0.057918 -0.51721 0.19859 0.62287 -0.2123 0.33465 -0.074174 0.21931 
ns -1.0297 -0.52715 0.60324 1.476 -1.7116 -0.32536 1.5768 -2.3917 -0.4876 1.0707 0.6424 0.81982 0.80035 
magnesiumsulfate -0.99864 0.20385 0.8627 0.03275 -1.3106 1.0299 1.7713 0.33246 1.042 0.35006 0.81734 -0.25967 1.0846 
iso-osmoticdextrose 0.32082 -1.3645 0.55204 -1.3655 -1.2371 1.7751 0.6256 -1.6163 -0.26656 0.79473 -0.26218 0.33276 1.6291 
gc_m3 1.8069 -0.59949 -1.11 1.2731 0.30092 2.5385 -0.26937 -1.8773 -1.2382 -0.035657 2.712 0.50588 -0.052195 
acetaminophen -1.5593 -1.1352 -1.0618 0.31801 -0.25472 1.1432 -0.082805 1.7193 2.0939 -1.2735 -0.24024 0.44485 0.11715 
0.9%sodiumchloride 2.6975 1.6219 0.98268 -1.9914 -0.22363 2.3237 1.9813 0.89329 -0.47615 -1.5079 -0.48909 0.63 -2.1316 
sw -0.62669 0.24118 0.80538 0.30962 -1.414 0.89341 1.4264 -0.77041 0.12867 0.26874 1.2281 0.03503 0.81316 
metoprolol -2.846 -0.68191 -0.24064 2.5915 0.14363 -1.3517 -1.1259 -2.8987 0.32114 -0.29716 1.8026 -0.72885 1.0118 
other -0.46131 -0.38564 -0.35253 -0.94441 0.012158 -0.89071 -0.025964 0.17154 0.099654 0.593 -0.91169 0.83586 0.012678 
vent 0.40475 -0.065758 -0.31922 0.85833 1.591 0.20354 -1.3658 -0.027214 1.315 -0.58229 1.3515 -0.33622 -0.45524 
uo_m1 0.82141 0.053836 -0.20235 0.57465 1.4377 0.32891 -0.62693 -1.7007 -0.34091 0.53598 1.4235 -0.81852 0.33091 
docusatesodium -2.423 -1.4095 -1.4341 0.41023 -0.18371 1.3485 -1.0156 2.3948 2.3411 -1.7764 -0.25357 0.63366 0.088388 
heparin -0.63634 0.34328 -1.3482 -0.86937 -0.92418 -0.060132 1.2634 0.18899 -0.19319 0.11955 -0.61208 -0.18434 -0.097659 
metoprololtartrate 0.87535 1.5552 0.38169 -1.8545 1.1031 2.054 -0.88638 1.1731 0.076564 -2.6599 0.56668 -1.9871 -2.8634 
5%dextrose 2.0203 1.6345 1.2687 -2.7912 -0.83103 3.5217 0.56931 0.36604 -1.6523 -1.0103 0.020214 -0.77235 -2.012 
calciumgluconate -0.53791 -0.12985 0.47265 -0.028826 -2.6058 1.8304 2.018 0.85454 0.45864 0.4631 1.4032 1.2282 0.58549 
lorazepam 0.082295 -0.4898 -0.12389 0.056974 0.43095 -0.3339 2.2424 -1.6883 -0.08631 -0.12357 0.13451 -0.56065 -0.023112 
morphinesulfate -1.5005 -0.65636 0.34593 0.30848 -1.8275 0.17963 0.49754 0.41093 1.7643 -0.84057 1.3293 1.1109 0.40157 
vancomycin 1.7789 0.083162 0.90332 -2.4549 -1.0113 2.6425 0.288 -0.39093 -1.0248 -0.23978 -0.63596 -0.18175 -1.2898 
uo_n 1.0977 0.20648 -0.24555 0.6455 1.7634 0.097214 0.0066537 -2.0605 0.10343 0.083199 1.4797 -1.0101 0.57733 
uo_m2 0.79233 0.78598 0.12349 0.83002 1.2427 0.16054 -0.5879 -1.3069 -0.26299 1.0274 0.85894 -0.81513 0.17077 
pantoprazole -2.3019 0.14924 0.1314 0.126 0.071237 -0.86501 0.16957 1.1125 0.25464 0.19119 -1.2702 0.36782 -0.38954 
bisacodyl -1.437 -1.407 -1.8479 0.38395 0.86639 0.96435 -1.9504 1.1367 2.3523 -1.8044 -0.49679 0.012535 0.27041 
fentanylcitrate 1.2884 -0.95971 -0.42814 -0.18517 -2.0761 2.1179 2.4188 -1.8907 -1.8775 1.5536 1.0638 -0.10827 -0.92254 
aspirin -2.6337 -0.92041 -0.90615 0.032513 -1.0073 2.1904 -0.55899 1.9739 0.29809 -1.0249 0.39786 0.11672 -0.386 
propofol 0.57494 -1.6596 -0.46126 0.092725 -2.4887 3.5295 2.2305 -0.72185 -0.634 -1.347 2.2028 0.82926 -1.4341 
lr 0.59542 -0.85052 0.5707 1.189 -2.4404 2.3563 1.7594 -0.44876 0.8017 0.16139 1.078 0.80459 -0.92871 
oxycodone-acetaminophen -2.6456 -1.666 -0.8807 1.8502 -0.53673 1.623 -1.8187 2.1537 3.529 -2.214 1.5495 1.2641 0.47367 
warfarin -0.96764 0.56912 0.7655 -0.79209 1.0193 1.3823 -2.9687 -0.12233 1.0277 -0.088698 -0.18998 -2.3561 0.97027 
aspirinec -3.3914 -2.1349 -1.4153 1.6251 -0.69413 3.139 -3.8017 3.143 3.8013 -2.4054 1.4917 0.55442 0.116 
senna -0.97267 -0.03649 -1.6594 -1.117 0.29649 0.14224 0.82174 1.229 1.0282 -0.9971 -2.2671 -0.083017 0.093936 
dextrose50% -0.57918 -0.42876 -1.5419 -1.4812 -1.7795 2.521 -0.70632 4.1452 1.4821 -1.1176 0.29028 1.7457 -1.3455 
bp_p1 1.411 0.76767 -0.83978 0.42155 0.88772 0.024683 -0.26658 -2.5002 -1.1358 0.36819 2.1889 -0.21582 0.59404 
heparinsodium -1.2947 0.82192 0.65059 -0.26076 -0.7956 1.1885 -1.2998 -0.9351 -0.64117 0.6499 0.73946 -1.4977 0.84658 
hydromorphone(dilaudid) 2.2408 0.67831 -0.16195 -0.7885 -0.15262 0.50367 1.1963 1.2746 2.5112 -2.1661 0.087689 0.43216 -2.618 
ranitidine -2.9432 -2.3392 -0.86077 1.3747 -0.29384 3.5344 -3.0687 3.3687 3.3764 -2.2274 2.4612 0.91057 0.18142 
vial -0.99814 0.56102 -1.1518 -0.45511 -1.7263 -0.24473 2.3686 1.6957 -2.2341 3.1402 -0.41814 2.3026 0.17375 
albuterol0.083%nebsoln -0.90999 -1.476 -0.54381 -1.8677 0.67476 -0.83018 -0.28839 0.030964 -0.35472 0.85698 0.015158 -2.3916 -2.6761 
vancomycinhcl -1.9533 -2.0014 1.415 1.9022 -1.5784 -0.041649 -0.9988 -4.4079 -1.1629 1.3265 0.87966 2.1136 2.4717 
famotidine 1.5664 0.22743 -2.6887 -0.36742 -1.7426 -0.022642 3.2388 -0.78961 0.86424 -1.4604 0.21079 0.29467 -1.2699 
docusatesodium(liquid) -1.5487 -2.3155 -1.176 0.031192 -1.3499 3.0479 0.69203 1.3359 0.028064 -1.2242 1.3991 1.1646 -0.59049 
milkofmagnesia -2.4272 -2.6821 -1.3753 0.93393 0.9473 2.8358 -3.8247 3.3785 4.3765 -3.2032 0.96217 0.76849 -0.12188 
neutra-phos 0.68672 1.341 0.85985 -0.85982 0.77052 0.14477 2.5181 -0.57899 0.54008 0.59228 -0.9239 -1.1497 1.3717 
ipratropiumbromideneb -1.0561 -1.6724 -0.30886 -2.1315 0.67563 -0.80953 -0.48953 -0.90524 -0.072601 1.19 -0.20234 -2.8455 -1.0773 
metoclopramide -1.8039 -1.9613 0.48778 0.079285 -1.5263 2.1196 -0.48275 1.4554 1.782 -1.4209 2.2891 1.9425 0.64774 
levofloxacin -1.4139 -1.4973 -0.18213 -0.52519 -0.83225 -1.003 1.1299 -3.1963 -0.68304 1.591 -0.87314 -1.0159 1.4229 
atorvastatin -4.1754 -1.0338 -1.8107 0.88313 -0.039579 0.92749 -2.3327 2.3435 1.7227 -1.2094 -0.37089 -0.73316 -0.054058 
ondansetron -0.25339 0.94956 -0.51878 -0.92145 -1.0422 -0.48608 1.0778 2.0831 2.1977 -0.97752 -0.67555 0.73871 -0.70614 
haloperidol 0.075457 -0.72821 -0.58858 0.57369 1.9281 -0.18658 1.8404 -2.6867 -0.84273 -0.36683 0.46232 -1.5833 0.008665 
bag 1.3662 2.2405 1.8378 -2.8495 -1.1484 2.7605 1.7058 2.7629 0.75221 -1.2612 -0.049561 0.31796 -1.1093 
hydralazine 0.23672 2.3758 -1.6974 -1.9176 0.64864 0.61728 0.44408 0.30004 -1.1636 -4.0582 1.5872 -0.85368 -1.8301 
rr_p3 1.9393 -1.0897 1.0097 -0.20187 1.001 0.56106 -1.029 -4.4698 -0.77085 1.1496 2.0845 -0.70058 1.1436 
nitroglycerin -3.6193 -0.97705 -0.094438 -0.11795 -2.8016 3.5575 -0.30538 2.3498 0.34856 -1.4259 3.9816 0.64763 0.55363 
potassiumphosphate 1.5743 1.0544 0.73171 -0.23793 -0.89047 0.86853 3.9322 -1.0562 0.76637 0.7178 0.23225 -0.70477 0.86948 
pantoprazolesodium -2.3741 0.0038172 0.086784 2.3438 -3.1437 -1.008 1.9788 -1.5173 -1.7328 1.1673 -0.65361 2.106 -1.3228 
lisinopril -2.207 1.8491 -1.5731 -0.38888 1.6995 -0.56085 -0.47608 0.70226 0.58509 -1.6882 -0.5303 -2.465 0.43354 
cefazolin -0.57458 -0.49398 -1.2342 1.3814 -1.8163 3.0645 0.69107 2.0127 2.5817 -2.2642 2.3086 1.2414 -0.084352 
bm_p1 1.5969 1.7171 0.82135 -1.0082 1.4243 1.7922 -0.99319 1.6552 0.205 -1.1859 0.098893 0.052473 -1.6785 
insulinhumanregular -1.7169 -1.239 0.23631 -0.90199 -3.6607 2.6309 0.35164 1.8931 1.136 -0.51965 2.5743 1.806 0.42993 
chlorhexidinegluconate0.12%oralrinse 0.50243 -1.2364 -0.25296 -1.5224 -2.8332 4.0235 2.1053 1.5866 -1.1482 -1.6735 1.2581 1.2311 -3.6599 
midazolam 2.056 0.36957 0.25516 -1.1996 -1.7376 2.7638 2.1169 -0.87827 -3.0264 0.61261 0.15507 -0.26777 -3.5652 
d51/2ns 0.61687 1.1073 0.45517 -0.48742 -0.88632 -1.1524 2.9131 -0.19367 0.49885 0.9104 -0.1415 -0.16546 -0.8352 
prednisone -0.79733 -0.27222 0.014709 -2.5259 0.94035 -3.2952 -0.82784 0.086431 0.11581 1.4773 -0.11045 -0.22103 -0.44552 
glucagon 0.11436 0.024966 -1.2461 -2.9583 -0.17418 2.2611 -0.89758 3.8509 1.5276 -3.7334 -0.69264 1.6289 -2.1547 
phenylephrine 0.45769 -0.60158 1.3466 -0.97129 -2.999 5.4535 0.13946 2.0573 -0.29181 -1.6124 1.7386 1.6311 -2.4635 
heparinflush(10units/ml) 2.2849 1.3925 0.90031 -2.7035 1.0528 0.78557 -1.003 1.5018 0.96639 -1.0716 -1.6069 0.088858 -2.0475 
iso-osmoticsodiumchloride 1.4751 -0.52976 -3.0812 -1.2818 -2.8778 -0.23032 5.0431 -0.49452 1.0654 0.11867 1.9696 0.066087 -0.42398 
captopril -3.566 0.93615 -0.0020983 1.2755 1.2506 -0.22901 -1.7227 -1.2726 -0.536 -0.54399 1.1761 -2.2295 1.4894 
folicacid -2.6337 -1.8946 -0.38528 0.92448 3.6337 1.0522 5.5225 2.9771 -1.2536 -0.2247 0.40081 0.72531 -0.39645 
bm_n 1.8921 2.1794 0.63916 -0.92727 1.2569 0.75509 -0.098904 1.5494 0.38645 -0.59964 -0.53787 0.42819 -1.4172 
syringe -1.3782 -2.0268 0.99593 0.34899 -2.4067 4.2824 0.89857 2.2777 0.24926 -0.57763 2.9436 2.4362 -0.53121 
glycopyrrolate -2.6166 -2.7343 -0.016449 2.1311 -4.0961 6.2496 -0.0079908 3.3774 1.4644 -0.82394 4.9465 2.7182 -1.0965 
0.9%sodiumchloride(minibagplus) 2.4692 -1.6544 5.1561 -6.9489 2.9149 2.8549 3.028 -0.14571 -2.1129 -1.7614 -0.059272 1.522 0.10133 
uo_m3 0.67562 1.6422 1.0395 0.0082409 0.71412 -0.15816 -1.3536 -0.40012 -0.95067 1.726 -0.020234 0.41547 0.16123 
amiodarone -1.0706 1.4905 0.49767 0.88816 0.51053 4.0079 -2.7765 2.1626 -2.2374 -0.1117 0.68239 -3.0017 -5.1845 
neostigmine -3.4808 -3.8509 0.90846 0.7258 -4.2141 7.0074 0.067274 3.519 2.4934 -1.6395 5.338 2.6916 0.36516 
ketorolac -0.91083 -2.082 0.29939 1.2853 0.13726 2.4787 -1.6872 2.2595 4.2662 -1.8456 1.8535 0.093168 -0.7001 
bm_p2 1.5999 1.4817 0.73446 -1.4512 1.3491 1.606 -2.088 1.7009 0.40334 -1.0181 0.71467 -0.59871 -2.267 
levothyroxinesodium -1.7415 -1.1423 -1.356 -0.69304 -0.44095 0.24995 -0.65841 1.298 0.46374 0.30275 -1.7188 0.19955 -0.49898 
sodiumbicarbonate -0.92841 0.82613 0.72206 -0.83609 -2.6555 0.57469 -0.064776 -0.55546 -1.8932 2.1595 0.76305 0.47439 0.35248 
diltiazem -0.37585 0.33964 0.78679 -0.61593 0.33293 0.42481 0.35157 -1.7278 -0.37975 0.65284 0.91203 -3.4461 -0.61601 
multivitamins -2.7099 -2.2057 -0.7945 0.22899 3.4467 0.90749 3.3213 2.3596 -0.83722 -0.061641 -1.0358 0.17722 -0.13984 
simvastatin -2.2497 -1.0183 -1.643 -0.97158 0.88128 2.0045 -1.6465 3.6278 1.4962 -2.3492 -0.9277 -0.35924 -1.8059 
norepinephrine 0.55959 -1.1098 0.65458 -0.25712 -3.3649 4.2914 0.68855 -0.72528 -2.1042 3.3056 -0.025761 1.3888 0.83693 
sterilewater 1.68 1.2873 1.8794 -2.8312 -1.1503 4.1502 1.1333 2.0392 0.22293 -1.48 0.98515 0.60426 -0.365 
amiodaronehcl -4.7776 -1.4651 0.91061 5.6585 0.23579 -0.079908 -3.7893 -2.1879 -1.7564 1.8982 2.6685 -0.13936 -1.3654 
oxycodone(immediaterelease) 1.3957 1.6888 0.13288 -1.9045 1.0753 -1.169 0.99594 1.6193 2.4977 -0.94824 -2.434 -0.058422 -1.063 
hydralazinehcl -3.4696 0.60073 -1.3202 2.2942 0.29746 -2.5739 -0.66202 -4.2549 -2.0556 -1.2539 3.1987 0.68857 2.3849 
heparinflushcvl(100units/ml) -1.4988 -1.2669 0.18251 1.4226 -1.5975 -1.3031 1.2094 -2.4025 -0.26923 1.5539 -0.018212 1.0109 0.40036 
dextrose5% -0.83353 -1.6692 -1.028 0.24484 -2.2397 -0.25188 2.0461 -3.3985 -1.5488 3.2307 -0.66371 -0.53189 1.1477 
phenytoinsodium 1.0944 2.7083 -4.9517 3.8037 -1.1427 2.5836 4.5048 -1.9647 -1.1005 -0.47709 -0.08277 -0.322 1.559 
lactulose -0.29642 -0.097244 0.98876 -0.67342 1.6726 0.19697 0.90621 0.32169 -1.5024 1.7951 -1.944 0.69522 0.29112 
diazepam 0.28268 -0.18864 0.42781 0.87462 2.3488 -0.31775 4.9581 -0.54138 0.41451 -0.39424 -0.64251 -1.0742 -0.88368 
midazolamhcl -2.2282 -1.9474 1.002 3.3474 -2.201 0.18277 0.48595 -4.2671 -1.6742 1.3109 2.1182 1.9877 1.1206 
hydromorphone -1.1462 -1.7268 0.021911 2.6758 -0.93541 -2.0713 0.16339 -2.0519 2.8789 0.2685 1.1567 1.2413 0.64497 
ceftriaxone -0.33207 -0.2023 -0.5995 -1.9021 -0.79903 0.29729 2.0626 -0.62827 -1.3394 1.7979 -2.204 -0.27406 0.83797 
meperidine -2.6738 -2.7091 1.0254 1.5961 -3.8167 3.6454 -0.048295 1.7314 2.3586 -0.9262 4.01 3.0854 0.58894 
phytonadione -0.61821 1.0266 1.5703 -0.089023 -0.78839 0.12335 1.408 -0.43491 -1.0281 2.0669 -0.70075 0.83712 1.191 
influenzavirusvaccine -1.3274 0.37658 -1.4371 -1.7844 -1.4299 2.0472 1.6472 3.5895 0.79857 -1.6778 -1.2543 0.2331 -1.8078 
sucralfate -4.3984 -2.8249 1.8601 3.3648 -3.2428 2.7467 -0.50792 0.70889 1.0881 -1.1249 3.168 3.6651 -0.30801 
metronidazole(flagyl) 0.77639 0.29226 1.2451 -2.5736 -1.8251 1.1336 1.6453 -0.76524 -1.0637 1.7317 -2.88 -0.81018 -1.1499 
phenylephrinehcl -3.4703 -1.8506 1.0192 4.4106 -2.6602 2.3076 -1.2507 -2.2514 -1.0256 -0.22433 4.2372 3.6755 1.5801 
cefepime 3.642 2.3587 -3.0395 -2.4022 -3.7268 1.9435 -1.4047 -2.1927 -0.52952 2.9726 -3.768 -2.6838 -0.61834 
pneumococcalvacpolyvalent -1.567 0.77095 -1.2674 -1.2887 -0.78264 1.7937 0.95475 3.0645 1.0334 -1.9565 -1.2796 -0.53747 -1.4454 
potassiumchl20meq/1000mld51/2ns 1.3515 0.32629 -0.59997 0.73386 -0.68865 -0.77576 3.184 -0.73863 2.583 -0.51471 0.62976 -0.50792 -0.7746 
zolpidemtartrate -2.5469 0.16032 0.76148 0.52821 0.50937 -2.3024 -0.72279 -0.55792 1.7117 0.60428 -1.2142 -0.67948 1.064 
piperacillin-tazobactamna 0.31659 -1.3254 -0.16114 -0.26072 -2.1307 0.15656 0.41419 -3.1271 -1.3564 2.6725 -0.4029 0.40528 0.70639 
ipratropiumbromidemdi -0.22616 -4.1786 -2.3829 -1.9747 -0.45976 1.2958 0.26583 -1.028 -1.6259 3.1043 1.3235 -2.1289 -1.3174 
dexamethasone 1.5383 1.6505 -2.9556 0.4997 -0.57724 -0.71092 2.2891 -0.53918 0.86915 -0.9539 0.021313 1.6918 1.0716 
albuterol -2.9062 -4.0808 -0.58427 1.646 -0.75063 -1.3177 -0.47193 -3.7768 -1.6 1.414 0.94509 -0.50792 -1.71 
amlodipine -1.8973 1.7069 -2.0465 -2.1812 1.4923 -1.3669 -0.72687 0.25224 -0.74784 -3.0725 0.60272 -1.362 -0.3111 
levetiracetam 2.5057 1.5521 -2.7251 -0.91607 0.87002 0.95976 2.6068 -0.42504 -0.52734 -1.9282 -1.1028 1.5106 0.75294 
soln. -0.44517 -0.95934 -5.0661 2.0409 -1.0522 1.4367 2.0079 1.0031 -2.8227 2.3148 5.4243 3.83 2.0253 
soln 3.4027 -0.24834 -0.94459 -2.2929 -1.8864 3.8939 3.0085 -0.047265 -2.7083 1.2205 0.76281 -0.20571 -3.2572 
calciumcarbonate -2.1307 -0.4946 -1.1817 -2.0589 2.9011 -1.8545 0.66742 3.1065 0.14594 1.6037 -1.1315 0.67333 1.3997 
thiamine -0.17657 0.60697 1.496 1.3566 2.3509 2.2741 5.4168 1.6597 -1.8751 -3.4842 -1.8436 1.0123 -5.1334 
1/2ns -1.3258 1.6484 0.063606 -0.54323 -1.8781 -1.2103 1.7353 0.088871 -0.51523 1.3637 -0.60479 -0.62621 -0.60135 
methylprednisolonesodiumsucc 0.80533 0.019246 0.29829 -3.4244 -1.3991 -2.7315 0.25462 -0.60732 -0.68773 1.249 1.4311 0.053442 -2.4942 
ciprofloxacinhcl -0.34124 0.92447 0.76587 -1.2971 0.64562 0.60041 0.35075 0.54439 -0.291 0.23639 -1.4992 -0.43229 0.27589 
metronidazole -2.1539 -1.7959 0.61997 1.6981 -1.4576 -1.5729 1.1619 -4.4089 -1.0366 2.5657 -1.0648 1.2925 2.3947 
piperacillin-tazobactam 3.6527 1.7529 -0.65736 -3.2142 -3.1475 2.4951 0.20593 -0.42201 -0.84259 1.5138 -2.5199 -0.78488 -2.3877 
ns(minibagplus) 0.15517 -3.6287 6.0875 -4.7869 1.8659 0.80926 3.2871 -2.8267 -1.9901 -0.36741 0.24092 2.2976 2.1245 
d5w(excelbag) -1.7207 -1.9797 2.446 1.8804 -1.3831 4.2929 -2.2579 -3.5278 1.584 0.88563 2.2822 -3.8554 2.273 
labetalol 1.1654 2.7367 -1.4476 -2.2507 0.93098 0.19029 1.7308 -0.59579 -1.7445 -4.1795 1.3633 -0.44481 -1.6411 
tacrolimus 1.1875 1.1026 0.99257 -3.4262 -1.0031 -3.3562 -1.1673 -0.23017 -0.094693 1.2098 2.9428 2.1695 -0.17397 
phenytoin 0.5647 1.069 -3.5935 2.3902 0.73532 -0.8002 3.1657 -2.0204 0.2692 -1.9391 -0.18709 1.7224 1.7554 
albuterol-ipratropium -1.7354 -3.9835 -1.4899 -0.10029 0.13955 1.667 -1.8314 -0.31966 -0.33541 0.68674 1.4872 -0.91211 -0.93905 
magnesiumoxide -2.4448 1.2714 1.4828 1.0694 1.2183 -1.4636 0.59612 -1.097 0.86093 0.59092 -0.98913 -1.1579 2.2062 
ibuprofen -0.60991 -1.4508 -0.11201 1.1242 0.85799 -0.42181 -0.40086 -0.23385 3.467 -0.75242 -0.69205 -0.32218 0.30251 
acetylcysteine20% -1.4258 0.63226 0.46238 -0.80114 -1.5706 -0.26161 0.3846 -1.4348 -0.94337 1.5026 0.59436 -1.9515 0.17379 
gabapentin -0.14646 -1.7215 -0.5398 -1.3898 1.1581 -0.8629 -0.074761 0.59481 2.1084 -0.81025 -3.3033 0.48431 -0.94126 
fluconazole 1.4683 -0.75904 0.74845 -1.6874 -1.8788 -1.3232 0.21371 -2.1179 -0.14347 1.7188 0.7425 1.9567 0.39039 
hydrocortisonenasucc. 0.11615 -1.3804 1.9257 0.39848 -1.5932 1.0221 0.0718 -0.74692 -1.1387 2.6635 -0.087043 2.6889 0.2285 
nitroprussidesodium -3.7822 0.1712 -1.8853 3.0703 -3.1004 1.9497 0.66287 -0.57065 0.49704 -2.8013 5.0639 1.943 2.3509 
albuterolinhaler 0.90321 -2.1423 -0.85021 -3.1564 -0.18338 2.3543 -0.54536 0.19238 -2.1341 -1.1577 -0.59591 -1.0887 -5.1722 
omeprazole -1.0722 0.21152 0.12777 -2.8658 1.6578 0.96783 -0.34267 3.7281 0.84977 -2.3902 -3.1877 0.19419 -2.7055 
digoxin -1.9463 0.62148 1.0136 -0.17908 0.36755 1.2111 -1.0003 -0.60468 -0.79094 0.77064 -0.72972 -2.5238 0.39455 
meropenem 4.1109 1.6977 -2.5373 -1.7252 -4.2548 0.40383 -2.2947 -2.8457 -0.23415 4.0677 -2.8925 -0.54232 -0.34908 
ns(glassbottle) 0.26926 -0.8084 -3.0284 2.0999 0.61018 -1.0275 3.6686 -4.4925 -1.1261 -2.6558 2.0721 4.7895 4.0711 
clopidogrelbisulfate -6.0823 -0.91607 -0.61355 3.928 -1.4519 -0.29212 -2.6395 0.22048 1.385 -0.36304 0.51043 -0.13976 0.012656 
ciprofloxaciniv 2.7871 0.76071 1.2065 -2.8902 -1.1084 3.0764 1.8986 -0.15669 -1.3925 0.34497 -1.0578 -0.37854 -1.7394 
diphenhydramine 1.6878 1.2208 0.18269 -1.8036 -0.83432 -1.5115 0.61716 1.2727 1.8275 -0.85543 -0.84806 0.99812 -2.7835 
diphenhydraminehcl -2.8678 -1.8822 -0.24266 2.7673 -0.47123 -2.3912 -2.5356 -1.5645 2.7049 0.24607 0.80956 1.6412 1.4009 
quetiapinefumarate 1.181 -0.65257 -0.72531 -1.2099 2.7563 0.33574 1.543 -1.1184 -0.93359 -0.44083 -1.5868 -1.6357 -1.5955 
bm_p3 1.9875 1.1603 0.63874 -1.7012 1.0743 1.8177 -2.2911 1.2112 0.38503 -1.1534 0.48907 -0.53401 -2.2443 
albumin5%(25g/500ml) 1.2909 -0.415 1.7752 -0.92951 -1.3836 5.8542 -2.309 2.7413 -0.6235 -0.73117 1.6923 0.66105 -3.8504 
sodiumphosphate 1.8656 1.2093 0.93544 -0.56294 -1.07 1.0141 3.101 -0.38329 0.76821 0.6503 0.13473 -0.12544 0.16184 
miconazolepowder2% 0.26502 -1.3899 -0.65741 -1.1414 0.24206 0.059064 -0.85633 -2.0586 -0.93588 1.0933 -1.0104 0.12803 0.74662 
albumin25%(12.5g/50ml) 2.9311 0.93823 2.5378 -1.6304 -0.46308 3.2703 -0.80841 0.50883 -1.9896 1.6739 0.082979 0.34268 -3.2525 
trazodone 0.0954 1.5417 1.2236 -2.3375 2.0179 -0.09669 -0.46968 1.3964 0.49665 -0.59684 -2.9288 -1.5241 -1.7903 
carvedilol -2.5183 1.5563 1.0815 -1.0452 1.3308 0.81859 -3.037 0.68018 -0.45531 -1.3109 -0.27223 -1.7639 0.024948 
lactatedringers 2.4782 0.20946 1.0953 -1.7193 -0.92236 3.9279 2.0932 2.777 1.2479 -1.7356 0.52625 1.0331 -2.7855 
ferroussulfate -2.719 -1.5346 0.25223 -0.17541 2.6774 -0.62562 -0.58855 0.56222 -0.5008 -0.39901 -2.6234 1.2766 0.61503 
tramadol(ultram) -0.099738 0.38613 -0.062548 -0.8999 2.3352 2.8182 -3.0745 3.4269 1.9089 -2.4975 -0.96419 -1.1167 -2.6199 
azithromycin -1.3723 -1.1783 -0.076642 -2.8471 0.31945 -0.91616 1.3163 -0.49804 -1.1187 1.9417 -1.7074 -1.8617 -0.18577 
propofol(generic) -2.9931 -2.6879 0.70765 3.6706 -2.6246 1.0599 0.21172 -5.3457 -1.0749 -1.3671 4.4996 2.4061 1.801 
fluticasonepropionate110mcg -2.661 -5.1449 -1.4705 -0.63208 0.96226 0.22624 -2.1927 -0.54063 0.43392 0.46618 0.77196 -1.873 -2.0499 
humulin-rinsulin -3.7824 -1.8337 0.42771 2.5578 -2.9312 0.12257 -0.91785 -2.5976 -0.11957 0.046948 3.1759 2.8982 2.7154 
olanzapine(disintegratingtablet) 0.93329 1.1858 -0.18849 -1.2912 1.8392 0.21617 2.0372 -1.9399 -1.6972 -0.41687 -1.0846 -2.414 -0.71307 
enoxaparinsodium 0.11664 -0.3004 0.16696 -0.2589 0.56873 -0.44575 0.69053 -0.94546 1.8457 -0.038083 -0.79742 -1.374 0.27014 
clopidogrel -2.1972 1.7533 -0.94326 -1.3543 -0.71707 1.7907 -1.4357 3.4278 -0.09972 -2.1054 -0.98174 -1.3671 -3.0658 
nystatinoralsuspension 0.72969 -1.3088 -0.46221 -1.4264 0.21753 -0.18469 -0.76417 -1.866 -0.9414 0.41247 -0.024562 0.4877 -0.017539 
potassiumchloride(powder) 2.5196 1.9459 0.84442 -2.9043 1.9172 2.3761 1.8901 0.11516 -0.83239 -1.1189 -0.62699 -1.983 -0.76686 
lansoprazoleoraldisintegratingtab 0.61245 -0.62241 -1.0416 -1.7183 0.77254 1.1202 0.37825 -0.64131 -1.9961 0.10453 -1.5582 -0.67215 -1.5429 
acetazolamidesodium 0.91474 -0.82295 0.5088 -0.81392 0.78222 1.6318 -0.62314 -3.0073 -1.6439 0.50799 2.5736 -1.2085 0.91936 
potassiumchl20meq/1000mlns 1.7303 2.969 -3.1191 0.88928 -0.29367 0.44114 3.8354 -0.063892 1.5385 -3.2356 0.3475 1.3143 1.0001 
thiaminehcl -5.0412 -2.3091 0.9703 5.4887 2.267 -2.6035 5.6811 -2.2131 -1.3211 -1.0548 0.66188 1.5694 -1.2441 
labetalolhcl -2.9543 0.93466 -2.2129 2.5185 0.016929 -2.3349 0.089974 -3.6565 -2.0063 -1.4905 2.7016 1.3806 2.2066 
bp_m3 1.7752 0.62677 -0.13057 0.49445 0.26926 1.844 -0.59904 -0.92537 -0.85799 1.4316 1.135 -0.40835 -0.26219 
vitamind -2.162 -0.82062 0.7059 -2.1634 1.2804 -0.6449 -0.56408 1.9777 1.0282 -1.2896 -5.7431 1.119 -1.5302 
albuterolnebsoln -3.8028 -2.8084 -0.65666 1.8419 0.83154 -2.7092 -1.4662 -3.5121 -0.71627 1.3756 1.6586 -0.8091 0.70219 
milrinone -2.5768 -0.66219 1.9717 1.5798 -1.4632 5.1131 -3.6599 -0.23316 -1.9658 1.2387 3.0497 -0.94903 0.26445 
acetaminophen(liquid) 1.9742 -1.321 -1.5514 -0.63807 0.16632 0.89579 1.8025 -2.4497 -0.57984 0.5179 0.087202 -0.58827 -0.0017997 
lidocainejelly2%(urojet) 0.19186 1.8055 0.57454 -1.6108 0.039451 0.47381 0.97548 0.61771 -0.63262 0.097031 -1.2808 -0.81868 -0.6588 
dolasetronmesylate -2.9529 0.10067 0.29582 2.6272 -1.4757 -3.5748 0.85269 -1.4605 1.9032 0.71768 -0.77542 1.6453 0.84759 
prochlorperazine -0.79079 1.5117 0.42484 -0.61457 -0.97921 -2.6874 1.7159 1.1241 2.4356 -0.28256 -1.9971 1.4239 0.1362 
syringe(ivroom) -2.3771 -4.468 1.1139 2.1402 1.7529 -4.1231 2.5985 -3.1757 -2.5091 -0.20187 3.244 5.8252 -1.1598 
atenolol -2.0694 1.348 -1.8961 0.13388 0.72763 -1.4921 0.74709 0.2071 0.9105 -1.9093 -0.25879 -1.1182 0.22037 
cosyntropin 0.37459 -1.2377 1.3903 0.45981 -2.4983 1.5557 0.37157 -2.294 -1.1526 4.0104 -1.8164 1.9486 1.8703 
alteplase(catheterclearance) 1.2181 -0.67682 2.0086 -3.8757 2.0493 0.30116 -0.37857 -2.243 -0.43277 -0.065959 1.326 0.73247 4.2354 
polyethyleneglycol 0.89093 1.0435 -0.0082875 -2.7637 2.3251 0.86544 -0.92705 1.8593 0.7157 -1.3365 -3.2892 -0.49997 -1.177 
clonazepam -0.59963 -1.6623 -0.61481 -0.49112 1.5506 -1.3626 0.55851 -0.73354 1.2082 0.23299 -2.6123 -0.93974 -0.7698 
epinephrine -2.0232 -2.2976 0.87139 1.3661 -3.5696 6.9566 -2.3879 1.5325 -1.2805 0.90219 3.3146 1.4513 -0.61479 
heparinflushpicc(100units/ml) -1.0715 -0.35629 0.82986 0.56364 0.44388 -2.3142 -0.46222 -2.8468 -0.10347 1.0214 -1.464 0.14054 0.49897 
acetaminopheniv 3.1675 0.054724 0.77692 -2.7429 -0.091095 3.6727 1.2258 1.1153 0.29389 -2.9311 -0.088621 0.4038 -3.3289 
nicotinepatch -0.48853 -1.1473 -0.81554 -0.27752 2.2171 -1.0348 3.2506 1.1069 0.97889 -0.70116 -1.2451 -0.65786 -2.1522 
dexmedetomidine 2.4796 -1.1149 0.13216 -1.3423 0.90365 4.7877 0.93351 0.27585 -1.2348 -2.7377 2.5222 -0.86769 -3.7069 
dopamine -2.3216 0.61049 -0.047984 0.90935 -3.1191 2.4782 -0.80237 -0.38906 -2.2597 3.3434 -0.1761 -0.19577 1.4295 
atropinesulfate -5.1565 3.0197 -1.1004 1.0061 -3.0652 0.41101 -0.39956 2.172 -0.40712 1.7909 -0.40164 -2.4443 0.35748 
vasopressin 0.056215 -1.228 1.5671 0.28682 -3.5328 5.778 -1.0319 -1.2036 -2.9998 3.5722 0.73095 1.1828 0.7961 
sodiumpolystyrenesulfonate -0.98392 0.80899 0.84001 -1.7107 -1.5075 -0.68629 -1.0374 -0.032588 -1.8735 1.8587 -1.0795 1.4533 0.12871 
olanzapine 0.21362 0.086912 -0.95177 -0.49755 2.5274 -0.40354 1.5672 -1.7355 -1.1785 -0.41306 -1.5134 -1.8745 -0.52998 
albumin5%(12.5g/250ml) 2.2994 0.22772 1.2327 -0.58082 -1.2504 4.7673 -1.0428 1.3778 -0.34775 0.077042 1.8237 -0.26642 -3.1475 
hydrochlorothiazide -2.459 1.8981 -2.5917 -0.53711 1.674 -2.2102 0.91526 0.14655 0.45861 -2.6331 -0.062128 -1.988 0.11316 
mannitol20% 2.0877 0.90221 -1.0627 0.27027 -2.0673 3.229 2.1831 -6.035 0.14029 -6.8385 1.0027 1.0721 2.0142 
lansoprazoleoralsuspension -1.9991 -2.2978 -0.81432 2.263 0.16351 -1.1007 0.19895 -4.3034 -2.051 1.4991 0.51244 0.98952 1.4897 
spironolactone -2.2815 1.0674 2.6649 -0.11381 2.4837 -0.11769 -0.051996 0.572 -0.97954 1.3444 -1.752 -0.75418 0.86969 
artificialtears 0.63105 -1.8668 -2.705 -0.41696 -0.40232 1.4965 0.085966 -1.1966 -1.9125 0.99825 -0.079654 1.3767 0.35517 
lidocaine1% 0.8194 0.81799 0.14958 -1.5034 -0.73853 0.12602 0.50025 -0.63405 -0.75697 0.23847 -0.57983 -0.0043344 -0.85406 
mycophenolatemofetil -0.62093 -0.37194 0.091947 -3.596 -1.023 -4.7671 -1.2919 0.28304 -0.0088646 1.2194 2.9451 3.5878 0.26273 
oxycodone-acetaminophenelixir 1.241 -1.7037 -1.6342 0.5761 0.63663 -0.36386 0.45261 -2.6496 0.99681 -0.15853 0.42046 -0.74036 -0.37258 
fentanylpatch 1.4028 -1.8133 -0.019797 -0.50501 0.84126 -1.7567 0.68082 -2.6528 1.0654 0.64778 -1.2389 0.19994 -0.47337 
d5ns 1.0505 1.2024 0.35187 -0.081927 -1.1088 -0.089503 3.3165 -0.01015 0.38101 0.64274 -0.82789 0.92836 -0.19292 
5%dextrose(excelbag) 0.55744 0.51653 3.4328 -2.9957 -0.80743 6.0778 -2.1749 -0.11609 0.54975 -2.1128 1.1173 -4.251 -1.5207 
sodiumchloridenasal -0.59885 -0.21406 0.0077985 -1.6316 0.53259 -1.1796 -1.7902 0.043122 1.1811 0.56917 -0.88665 -1.61 -0.71459 
multivitaminiv 0.35643 -1.0439 2.3163 0.5747 2.6072 1.9306 8.6387 1.3143 -1.191 0.62639 2.45 0.63361 -0.63628 
sarnalotion 0.51159 0.62189 -0.18103 -1.1389 0.37337 -1.5888 -1.0733 0.74599 1.5453 0.66804 -1.4671 0.48951 -0.37683 
clindamycin 0.0029314 -1.348 -0.97707 -0.48009 -1.1625 0.092762 2.5676 -1.7984 0.52145 0.4502 -1.271 0.090175 1.1113 
epoetinalfa -2.0955 2.6955 0.72443 0.83614 -0.77687 -1.9332 -2.2454 -1.4686 -4.1818 0.59421 -1.8794 3.4407 -0.47385 
guaifenesin -1.1326 -0.61206 0.64884 -1.8298 1.4832 -1.5939 -0.35608 -0.24291 0.44304 1.8463 -1.917 -2.6424 -0.78071 
citalopramhydrobromide -2.1825 -1.5789 -1.0967 -0.21461 1.21 -1.5004 0.031256 0.58449 0.7023 -0.3747 -2.6178 0.43743 -1.0426 
trazodonehcl -3.9974 -0.83265 0.02966 2.5839 1.4478 -2.6889 -0.60731 -1.9243 0.49042 0.94093 -1.3984 -0.72584 0.92175 
bm_p4 2.0639 0.79954 0.22936 -1.4391 1.1626 2.0803 -2.2352 0.66406 0.090647 -0.81396 0.24716 -0.8753 -2.2706 
allopurinol -3.0161 -0.50896 -0.63646 -1.487 0.53936 0.11432 -1.7989 2.6508 0.28404 -0.54908 -1.9924 0.72744 -0.1031 
acyclovir 0.65676 -0.58846 -0.39685 -3.0728 -0.64156 -0.95515 2.7346 -1.4082 -1.2363 0.35345 -1.4021 2.4447 2.0191 
nicardipineiv -0.080728 3.3464 -4.4986 -1.4856 -0.50816 3.6788 2.6286 1.1861 -1.3792 -4.5729 3.8264 -0.93227 1.7234 
sulfameth/trimethoprimds -0.27365 0.34993 -0.0489 -2.0212 0.59543 -2.7 0.15316 -0.46469 -0.20336 0.79309 -1.1001 0.58682 0.16743 
methadone 3.4351 -0.91748 0.69157 -1.7489 1.6285 0.55295 1.8842 -0.89078 -0.57643 -0.38766 -0.47426 0.46405 -2.9927 
methylprednisolonenasucc. -3.9349 0.14588 3.1076 -0.38974 0.43235 -5.4542 3.6677 -2.2437 -1.3298 3.199 6.9635 0.38337 2.5263 
lidocaine5%patch 0.59344 -0.4303 0.49547 -2.1781 1.6952 -0.77687 0.11797 1.4052 1.4007 0.11228 -3.2736 0.19757 -1.5425 
gentamicin -0.39582 -2.1543 -4.3991 -4.8665 2.2053 3.3254 3.8041 1.7185 0.45675 4.5221 3.3334 -3.1801 9.6778 
isotonicsodiumchloride 1.5033 1.8735 3.9947 4.7815 -5.6811 0.60811 -1.555 -5.7716 1.2372 -4.5097 -6.0369 7.1264 -2.6649 
metoprololsuccinatexl -1.3036 3.5791 0.32112 -2.0627 1.82 -0.1357 -1.5431 2.273 0.97416 -2.4814 -1.5957 -2.3266 -1.3446 
ceftazidime 1.2314 -0.20459 -2.2046 -0.17265 -2.7202 0.3691 -0.76072 -3.6257 -0.67401 2.4819 -1.9282 0.40151 2.1357 
ascorbicacid -2.7544 -3.553 -0.91121 3.032 3.7516 2.732 -2.4617 0.79844 0.67736 0.29194 -4.8728 1.6279 1.197 
isosorbidemononitrate(extendedrelease) -4.3487 2.3503 -1.0078 -1.045 1.1169 -1.2377 -2.1241 1.4944 -0.59353 -1.4834 -0.10872 -1.6161 0.7146 
aluminum-magnesiumhydrox.-simethicone -1.8305 1.5266 1.1031 -0.64237 0.39247 -1.7976 0.34732 1.4223 1.9162 0.19196 -1.7952 -0.72848 0.20807 
cisatracuriumbesylate 1.7118 -1.7365 -0.6189 -0.96359 -3.1499 4.9277 0.34025 -2.4527 -3.9841 2.238 2.4273 1.1633 0.13989 
calciumacetate -2.9768 0.66977 -0.70365 -1.1367 -0.045085 -1.8884 -2.6417 -0.57095 -2.7535 0.51571 -1.7371 2.5876 1.3382 
clonidine 1.1506 1.3873 -0.76648 -2.5494 2.6181 -0.098193 1.6074 -0.73453 -1.7406 -4.1781 0.60518 -1.2947 -3.0094 
artificialtearointment 2.5186 -1.3275 -2.954 -0.41396 -1.1982 2.8553 0.84476 -1.7159 -2.9386 0.12018 -0.013644 2.3207 -0.94006 
nitroglycerinsl -3.8746 2.175 0.55935 -0.25232 -0.59743 -1.3013 -0.73302 1.0996 0.37498 0.10019 -1.3272 -1.7905 -0.049124 
simethicone -1.201 1.1794 1.0296 -0.55837 0.77273 -0.83121 -0.80127 1.2984 1.5374 0.71987 -2.1413 -0.16032 0.70093 
linezolid 1.3284 -1.1525 1.5812 -2.1317 -0.66266 0.19352 -0.457 -2.2802 -0.99585 2.3069 -1.0836 1.0224 1.0162 
sodiumchloride 2.1772 2.3403 -1.0734 0.1908 0.097135 2.166 1.3572 -1.0989 -1.6977 -1.0482 0.49247 3.2956 3.1169 
metolazone -1.3777 1.0698 1.8507 -2.6457 0.68638 1.6063 -3.3277 -0.69435 -2.3128 0.4841 0.028547 -1.4358 1.011 
valsartan -2.2623 2.3679 -1.0108 -1.5585 0.77264 -1.3192 -0.79599 0.68161 0.61388 -2.024 -0.22916 -1.999 0.27029 
bt_p2 3.1388 -0.99897 0.43979 0.30244 -0.082206 1.2823 0.93614 -4.1583 -0.46034 2.3136 0.767 -0.12496 1.3621 
vecuroniumbromide 2.0365 -1.214 -1.477 0.50942 -1.6505 3.0074 1.8297 -3.5323 -2.7843 0.76532 2.9603 -0.13371 -0.35111 
ampicillin-sulbactam 2.7177 2.9278 -4.5229 -0.8399 -6.0786 -0.53422 -0.3005 -0.81529 1.6595 2.3137 -2.7246 -1.4172 -2.1332 
tamsulosin -1.7092 0.38485 -0.3989 -1.8039 1.3323 1.785 -1.7426 3.537 1.2254 -2.6974 -1.9948 -0.45826 -1.9498 
pravastatin -2.5442 -0.68665 -1.0934 -1.4254 0.50784 0.93787 -1.6299 3.6443 1.9537 -1.7101 -0.8685 0.25107 -0.52091 
golytely -1.2914 1.9413 0.83574 1.6933 -0.43644 -0.93553 1.3164 0.52685 -0.49823 2.0282 -1.5225 0.70908 -0.25295 
nephrocaps -2.7802 0.62231 -1.3082 -1.8477 0.39007 -1.3742 -3.5833 1.2586 -2.5928 -0.65639 -3.3346 3.8562 0.0016948 
glyburide -2.6601 -0.577 -2.3952 1.5061 1.9438 0.65264 -3.4855 0.84942 2.5798 -1.5296 0.47067 -2.2091 0.52704 
tiotropiumbromide -2.4056 -2.8505 -1.499 -2.4722 1.2977 -0.83895 -1.064 2.6194 0.72776 1.2075 -0.92554 -2.6267 -3.7245 
vancomycinoralliquid 1.8329 0.31577 1.9307 -2.7271 -0.97018 1.0686 0.26979 -0.80624 -0.87747 2.2335 -2.1993 0.55367 0.27846 
sertraline -1.3096 -0.86391 -1.2436 -1.765 0.94456 -0.27455 -0.074088 2.1981 0.56882 -1.0658 -2.4447 -0.1262 -2.3653 
isosorbidedinitrate -4.1199 1.8492 -0.72501 -1.1636 0.94199 -2.2763 -2.0128 -1.3988 -2.0732 -0.84023 0.40829 -1.2608 1.6083 
alprazolam -1.0796 -0.75338 -0.65201 -0.23528 1.0948 -1.1036 0.14866 0.79 1.9894 -0.22305 -0.95013 -0.60379 -0.31358 
cyanocobalamin -3.1738 -1.0991 0.10557 -0.16281 2.7145 -0.69017 1.9866 1.9089 -0.80914 -0.21995 -2.7717 0.98306 -0.3364 
losartanpotassium -2.5976 1.4539 -1.5418 -0.95422 1.2719 -0.88577 -1.1379 0.74343 0.18132 -1.5704 -0.40257 -1.9186 0.12722 
cyclosporinemodified(neoral) -1.1262 -0.52375 0.71048 0.17038 0.20329 -3.9155 -1.2421 -3.0849 -0.89148 0.95517 4.5345 3.2792 1.3667 
ampicillinsodium 0.68351 1.4439 -3.535 0.27223 -4.3951 0.97677 0.48729 -2.7397 -0.0091974 2.3575 -3.7153 -0.73535 1.8235 
phenytoin(suspension) 2.0823 0.81385 -3.4774 -0.37853 1.7171 0.57674 2.9174 -2.013 -0.9564 -1.8696 0.17553 0.83201 2.0703 
protaminesulfate -2.5571 -1.5204 0.47107 2.0982 -3.2835 4.7019 -0.7402 1.7307 0.46094 -0.26633 3.5177 2.2934 0.027627 
0.45%sodiumchloride 1.0372 2.506 1.0125 -3.2205 -0.60131 0.35307 2.313 2.1417 -0.6152 -0.15205 -0.96961 -0.088939 -2.1998 
oxycodone -2.8312 -0.88513 0.24347 1.4638 0.53091 -3.9205 -0.35607 -2.1712 1.5132 1.2025 -1.8475 1.534 2.3203 
oxycodoneliquid 3.4421 0.017532 -0.063705 -1.9383 1.6306 0.015189 1.2717 -1.5443 0.4828 -1.1372 -1.0037 -0.86712 -2.3907 
chlorothiazidesodium -1.1234 0.99009 0.84004 -1.9892 -0.41561 1.977 -3.53 -0.85205 -3.2518 0.96138 1.1357 -0.83877 0.42016 
sulfameth/trimethoprimss -0.35608 -0.21656 -0.63641 -4.3062 -0.68682 -3.9113 -1.5113 1.1841 -0.16033 0.49716 0.31744 3.2985 -0.5604 
metformin(glucophage) -1.1561 0.95793 -1.6324 0.2435 2.4573 0.92268 -3.2246 2.8329 3.3997 -3.969 0.035665 -1.3428 -1.7226 
rosuvastatincalcium -2.516 -1.3587 -1.0616 -1.0475 1.4292 1.98 -2.0702 4.4119 2.2739 -2.1473 -0.070551 -0.20059 -1.2683 
bt_m3 0.99658 0.37153 0.024423 0.73395 -0.49895 2.455 -1.0626 0.13735 -0.8694 0.73368 2.0469 1.2288 -0.026614 
esmolol -1.4576 1.1051 0.20293 0.36093 -2.1446 1.5672 0.98255 -1.814 -0.96338 -0.12756 1.9922 -2.6775 0.0028374 
hydrocodone-acetaminophen -0.96172 -0.024563 -0.30614 0.63657 -0.2288 -1.5328 -0.1327 0.39161 3.0226 -0.81806 -1.3499 0.24027 -0.30684 
octreotideacetate -0.88824 1.598 4.3604 2.1713 -1.4581 -0.11288 3.9874 2.826 -1.7745 5.9742 -2.7037 3.1405 -2.4368 
eptifibatide -7.0729 3.9797 0.24321 1.1931 -2.8476 -0.22849 0.38441 2.4014 0.72032 1.3073 1.6091 -3.9359 1.2713 
mupirocinnasalointment2% -1.2986 -1.2656 -0.58969 -2.2689 -0.17178 5.1854 -1.9485 5.8084 2.1884 -2.8258 0.25033 0.7511 -1.829 
latanoprost0.005%ophth.soln. -2.487 0.16318 -4.1331 0.53081 -1.4301 1.3618 -3.3051 1.9506 -1.3966 -0.84567 -2.9281 1.2334 -2.102 
cepacol(menthol) 0.28106 0.95962 0.20302 -1.5464 1.6268 -0.60171 -0.27879 2.4843 2.2458 0.080115 -1.4023 -1.4472 -1.7421 
lansoprazole -2.4973 -1.5547 -1.2817 2.1657 0.77342 -2.1397 -0.38393 -2.6505 -0.2011 1.101 0.17061 0.78441 1.8188 
ciprofloxacin -0.38016 -0.78778 1.4661 0.090167 -2.3129 0.18787 1.3683 -3.1758 -1.5625 2.5993 -0.4445 0.73367 1.0823 
metoprololxl -4.9519 2.1194 0.27845 1.9863 1.4709 -2.3989 -1.8193 -1.4684 0.38159 -0.84338 -0.54465 -1.5233 2.3485 
sodiumcitrate4% 1.9805 4.0281 2.8733 -3.6171 -1.9508 1.8517 -1.801 0.79012 -4.0561 -1.1351 -0.34659 3.5641 -2.9435 
mirtazapine -1.697 -1.1944 -0.68763 -1.4231 1.6784 -0.48694 0.5531 1.0605 -0.013306 -0.19263 -4.3268 0.0059027 -1.0873 
bupivacaine0.5% 1.6082 -1.8627 -2.146 4.9831 -2.6613 -1.7573 0.85357 -0.37916 4.8258 3.7459 0.66942 0.13658 -4.4264 
succinylcholine 1.2467 0.51688 -2.4233 0.81035 -3.5624 0.08683 2.0641 -2.2275 -4.2428 1.0105 4.8395 -0.58766 -5.8933 
uo_p1 2.1735 1.1295 -0.4417 0.69855 0.29086 0.88912 1.0589 -2.7748 -1.0088 0.0058847 1.9427 0.73833 1.5298 
fluticasone-salmeteroldiskus(250/50) -1.6711 -1.8228 -0.032706 -3.6162 1.1383 -0.14585 -0.86898 3.4408 0.9852 -0.46269 -1.5503 -1.4692 -4.1742 
sevelamer -3.3314 1.0731 -0.1602 -0.25551 0.029804 -2.858 -3.0057 -1.1426 -2.6098 0.20835 -1.8863 3.3119 1.2842 
bm_m1 1.6133 1.9593 1.4769 -1.2497 1.0091 0.6227 0.35233 1.3404 0.47957 -0.10672 -0.39141 0.05812 -1.2179 
bupivacaine0.1% 4.1996 -2.0425 3.5512 -0.54514 -1.1619 0.32511 1.1734 1.6109 7.1668 -0.79339 2.3811 -0.060119 -5.9314 
glipizide -2.2616 -0.1511 -1.9241 0.73672 1.4446 0.24423 -3.5279 1.0679 2.9484 -1.2865 0.28273 -1.8533 0.8953 
potassiumchl40meq/1000mld51/2ns 0.31197 1.8004 0.72175 0.50957 -0.69343 -1.1287 4.5088 -0.13839 1.8614 -0.010229 -0.35272 -0.55594 -0.11668 
hydromorphonep.f. 0.46477 -0.6399 0.0068934 3.5379 -4.6236 0.017544 -0.80052 -2.1996 4.447 1.812 -0.089747 -2.2693 -4.1011 
desmopressinacetate 0.35233 1.7796 -0.32176 -0.62693 -1.2871 -0.10203 0.74879 -0.28826 -2.6447 1.4906 0.27262 2.4922 0.74855 
dexmedetomidinehcl -1.5192 -2.4163 -0.042491 3.1683 -0.48825 1.2211 -0.3873 -3.2526 -1.2292 -0.10047 3.8124 0.57594 -0.26948 
prismasate(b22k4) 2.9256 3.952 2.4113 -3.3181 -3.2028 3.0319 -1.3426 0.6216 -3.5956 2.2867 2.0466 2.5012 -0.34414 
oxycodonesr(oxycontin) 1.3953 0.34559 0.64035 -1.7796 1.0443 -1.7717 0.463 1.043 3.5513 -0.94429 -2.7905 0.39543 -1.4212 
fludrocortisoneacetate -0.69287 -1.9919 0.57002 0.3314 -1.3365 0.99786 0.15772 0.23294 -1.0296 3.7968 -2.0295 3.8183 1.6613 
ezetimibe -3.24 -2.0031 -1.1329 0.52435 0.68048 1.4222 -3.2 2.787 2.4456 -1.8654 -1.0649 -0.11202 -1.3771 
prismasate(b32k2) 1.9789 2.5771 2.3343 -2.9205 -3.3066 2.9028 -1.6018 -0.055279 -3.4104 2.7317 1.5502 2.5491 0.33843 
methadonehcl -0.012367 -2.496 0.50888 1.1567 1.1859 -2.9501 1.499 -3.6851 0.58524 0.9086 -0.15033 1.3714 0.35047 
fluoxetine -0.61302 -0.86078 -1.1626 -1.7174 1.0809 -0.0056323 -0.13945 2.1631 0.69727 -1.4057 -2.0611 -0.24959 -3.2724 
erythromycin0.5%ophthoint 0.2703 -0.85061 -2.2979 -0.089425 0.32641 0.24653 0.88639 -1.3634 -1.2905 -0.44993 -0.753 0.81708 -0.099245 
nesiritide -3.909 0.51448 1.6747 1.4688 0.034637 1.359 -3.413 -2.6543 -3.0613 1.2489 2.3383 -0.79547 2.379 
montelukastsodium -2.4416 -4.3691 -2.1453 -2.5448 0.72708 -1.917 -1.1555 2.171 1.834 0.90426 -1.329 -0.96634 -3.1827 
methylprednisolonenasucc -2.7816 -1.736 0.30631 0.69361 -2.0953 -3.957 0.76556 -3.118 -1.8155 1.5052 1.9122 1.8757 -1.1485 
promethazinehcl -2.8437 0.36092 0.75007 1.7631 -2.0628 -3.6375 1.8098 -1.0672 3.0892 0.46444 -0.99655 1.1865 1.3889 
acetaminophen-caff-butalbital 2.247 3.1563 -2.75 -0.1168 1.2153 -1.2399 1.6071 1.5567 3.2452 -3.1156 -0.77206 1.4645 0.11919 
hespan -1.7186 -1.5669 0.76856 3.8494 -2.2763 2.2698 -2.7214 -0.52423 1.0593 1.6081 3.1422 1.5836 0.2704 
cephalexin -1.4239 2.1427 -0.67282 0.7846 1.2777 -0.13312 -0.64334 1.152 1.5663 -0.8886 -0.55462 -1.2015 0.79371 
gentamicinsulfate 1.0761 -0.95229 1.0753 -0.6336 -1.3995 1.8498 1.0325 -2.4963 -0.22167 0.98915 -0.6494 1.2412 2.3557 
nifedipinecr -2.8893 3.111 -1.942 -1.9899 0.73374 -3.9133 -0.63198 -0.21949 -1.239 -3.2836 0.013202 -0.14104 -0.50832 
0.83%sodiumchloride 0.95039 4.727 -2.8338 -0.58267 -1.8013 2.9629 1.2916 1.4868 -1.1894 -7.7258 3.0402 1.5307 -4.0825 
morphinesulfateir 1.1252 -0.001959 2.0912 -2.0921 1.3746 -2.3568 1.3107 0.32165 3.3062 0.26348 -2.7289 0.4993 0.28277 
nadolol -1.3117 1.3722 3.0903 1.0696 2.1289 -0.76168 2.5699 2.3555 -0.56206 3.2613 -2.5133 1.521 -0.0032191 
diltiazemextended-release -2.1074 1.3209 -0.025875 -1.1802 0.59875 -2.0565 -0.53505 0.22265 0.77095 -0.60801 -0.88141 -2.2797 -0.97486 
sodiumchloride3%(hypertonic) 2.0635 2.3631 -1.8257 0.065912 -0.083963 1.6561 1.8463 -1.4769 -1.6178 -0.38854 0.52084 1.8087 2.5959 
bm_p5 1.7553 0.029906 0.93963 -1.9668 1.7195 1.5657 -1.6519 0.5328 -0.49149 0.15386 0.13812 -1.0731 -2.2499 
dobutamine -2.3882 -0.21745 1.0981 1.0824 -2.58 3.4366 -1.7008 -1.3349 -2.1797 1.7973 1.1607 -0.12394 1.3447 
neomycin-polymyxin-bacitracin 3.3259 3.8765 -0.80972 -4.0949 2.6294 0.5474 -1.9689 3.1459 -4.9439 1.4732 -1.6214 4.0605 -1.9799 
tacrolimussuspension 3.1529 1.4897 1.5733 -4.4972 -1.0433 -0.92067 -1.2803 0.0099748 -1.1942 0.62899 2.945 1.0929 -2.8527 
d10w 1.2858 0.81362 -0.050149 -1.3182 -1.844 0.32947 1.3735 -0.25614 -0.7133 0.55286 0.64612 1.8907 0.1665 
fluticasonepropionatenasal -1.498 -1.4788 -0.80895 -2.9483 1.1131 -1.0863 -1.3893 2.9853 1.0086 -0.056674 -2.3067 -0.51398 -3.4133 
clonidinehcl -2.4178 -0.84207 -0.93408 1.1868 1.2098 -3.2557 -0.29385 -4.7142 -1.477 -0.64471 1.8173 0.61643 1.9396 
midodrine 2.7417 1.7455 2.1679 -0.85839 0.53414 2.1714 -1.2403 1.6915 -1.1411 2.2303 -3.2497 2.8048 -1.4557 
finasteride -3.054 -0.52063 -1.7636 -0.70974 0.93071 1.2208 -1.9363 2.7385 0.79289 -1.5173 -1.9914 -0.60772 -0.80649 
nafcillin 2.2889 0.091251 -0.525 -1.4885 -0.13225 1.4359 0.68937 -1.079 -0.091404 0.11227 -0.73463 -0.10704 0.066962 
risperidone -1.2479 -1.8696 -1.6829 -0.19599 2.1156 -0.7017 0.994 -0.53008 -0.35826 0.32485 -3.0929 -0.95196 -1.1198 
albumin25%(12.5gm) -0.28781 0.69505 1.9016 2.4291 -1.2311 -0.89995 -0.25507 -3.5927 -1.6338 2.9553 2.108 3.6377 3.488 
fluticasone-salmeterol(250/50) -3.9073 -3.011 -0.58346 -0.74199 0.6998 -3.0265 -0.64316 0.67022 1.2699 1.344 -0.36074 -1.659 -2.2606 
readi-cat2(bariumsulfate2%suspension) 3.6527 1.7559 1.1037 -3.6404 -0.078065 1.9541 1.8143 0.1187 -1.1813 0.03765 -0.92951 0.16237 -1.5852 
etomidate -1.0814 -3.0462 -0.50972 -2.0911 -1.5972 3.5055 3.6982 -4.9121 -3.0115 -0.34003 1.4653 -4.5867 -0.10784 
oxycodone-acetaminophen(5mg-325mg) -0.21646 -1.0878 -1.2724 -1.5047 -0.37583 4.7621 -1.9521 5.7542 2.969 -3.4148 1.5625 1.8911 -2.3814 
citalopram 0.035908 -0.80362 -1.011 -2.7359 1.7643 0.93317 -0.086394 3.1082 0.53323 -2.087 -2.6868 0.7037 -3.1826 
nimodipine 1.9608 2.5209 -3.7359 1.3146 -1.3315 1.1218 2.2315 -0.56357 0.55378 -1.7235 1.2619 2.5047 2.1668 
bumetanide -2.1487 0.82618 1.6301 -0.93339 0.75508 0.53517 -3.0722 -0.92324 -1.4166 0.97233 -0.058084 -1.174 1.4754 
heparindwell(1000units/ml) 1.8034 4.2454 3.3863 -2.7767 -0.14858 0.62289 -2.7953 0.066617 -3.4363 -3.0283 -2.9697 3.3263 -4.6516 
potassiumchl40meq/1000mlns 0.31763 2.5704 -0.49998 0.27551 -0.49653 -0.14471 4.7173 0.49607 0.80992 -0.88479 -0.44505 0.1912 0.69432 
acetazolamide 0.62463 0.26491 -0.15508 -0.64388 1.4809 0.65359 -0.93985 -2.3974 -1.087 0.1387 0.59429 -1.858 0.32037 
paroxetine -0.61372 -1.1954 -1.1585 -1.4319 1.6168 1.1003 -0.67999 2.0432 0.15204 -1.0971 -2.5028 -0.36903 -2.7351 
daptomycin 2.7009 0.29187 2.3396 -3.0029 -0.80235 0.41685 -0.060718 -0.59516 -0.66761 1.8452 -1.3034 1.8359 -0.44166 
nsepiduralbag -0.69569 -1.9849 2.6531 3.5365 -3.2944 -2.6929 0.066783 -2.0137 4.0458 1.5544 2.3098 0.58789 -4.1689 
aztreonam 0.98201 -0.77664 0.72668 -2.2575 -1.7349 -0.25285 0.38213 -2.0856 -0.70493 2.026 -1.9528 0.66771 0.35173 
aluminumhydroxidesuspension -1.447 1.2609 0.037908 -0.91132 -0.75708 -1.153 -2.2658 -1.5442 -3.3017 1.4558 -0.44765 2.7343 1.7228 
metformin -4.3899 -1.8096 -1.8837 3.2998 2.6673 -1.9846 -4.7018 -0.7978 3.1299 -1.7602 1.1135 -0.50264 1.0794 
torsemide -0.74486 3.245 1.5247 -2.6486 2.7403 0.671 -3.001 2.0729 -0.33298 -0.13772 -1.1951 -2.2218 0.029493 
heparinflush(1000units/ml) 2.0579 2.9363 1.695 -3.8089 -0.38839 0.32449 -2.0211 2.2657 -1.7764 -0.56318 -0.43262 2.9234 -2.672 
fexofenadine -2.0664 -1.2553 -1.0109 -1.5269 0.64675 -2.4231 -1.2014 1.8531 2.2542 0.2817 -2.193 -0.32952 -1.663 
syringe(0.9%sodiumchloride) 4.3824 5.9761 -0.91243 -2.9391 -2.6363 -1.3581 -0.42983 -3.3211 -1.8215 0.51328 -2.9695 -2.5069 -3.8292 
benzonatate -1.0424 0.47559 1.2598 -2.941 1.0831 -2.7421 -0.64512 0.62792 1.4499 2.1055 -2.419 -3.2225 -1.6727 
colchicine -1.8938 0.40768 1.5622 -1.0726 0.86517 0.26947 -1.8709 1.8176 1.8096 -0.9003 -1.2891 -0.42938 0.19367 
bupropion(sustainedrelease) -1.0775 -1.4415 -1.2345 -0.56139 1.4395 -0.25483 -0.52447 2.6175 2.4782 -1.2901 -2.5019 0.052003 -2.4145 
erythromycin 1.3025 0.67474 0.35026 -0.057491 -0.74199 0.46865 1.6186 -0.50051 -1.2067 1.2955 -0.39773 1.3037 -0.7705 
tobramycinsulfate 2.9032 -0.52938 0.58491 -2.522 0.32714 2.0111 0.35712 -2.2122 -1.651 1.7722 -1.3267 0.024713 0.83858 
albuterolmdi 0.0076624 -2.1676 -0.33712 -1.4209 -1.007 0.91762 -0.017276 -0.88453 -1.8224 0.42673 0.38343 -0.40643 -3.3609 
rifaximin 0.56161 0.50011 2.8758 -0.71241 2.3254 0.13644 2.7436 3.0233 -2.2211 3.3095 -3.4063 2.8857 -2.2513 
citratedextrose3%(acd-a)crrt 2.9411 3.3008 2.2841 -4.123 -3.2615 3.1338 -1.3949 0.99054 -3.8896 2.6159 1.9907 3.4946 -0.55617 
potassiumchl20meq/1000mld5ns 1.0772 1.6755 -1.5814 1.3083 -0.6449 -0.93135 4.3104 -0.55208 2.2382 -1.7099 -0.15019 0.93882 0.35836 
enalaprilmaleate -2.1606 1.2644 -2.0125 -0.23889 1.1571 -1.3783 -0.18141 -0.31904 -0.3152 -1.4632 0.50803 -1.2245 0.79592 
potassiumchloridereplacement(oncology) 1.0529 2.2609 1.7615 -2.757 -0.77868 -1.4983 2.9737 0.10689 1.9302 0.90905 -0.93743 -1.2911 0.91111 
lidocaine -2.5681 0.32187 1.1308 1.2411 -1.4262 3.1402 -0.96902 -0.81246 -1.5212 0.42891 1.2373 -2.0098 -0.020119 
heparinflush(100units/ml) 1.8741 2.1243 1.5287 -2.5855 0.30147 -1.1209 0.71601 0.78865 1.7354 0.52516 -1.9431 0.40531 0.017222 
brimonidinetartrate0.15%ophth. -2.2591 -0.093066 -5.0053 1.4115 -1.232 0.92678 -3.5494 1.0913 -1.5692 -0.91883 -2.7147 1.8222 -2.3148 
oxazepam -3.6311 -1.5281 -0.66662 2.4396 0.91874 -0.40255 -3.1119 0.28128 3.3748 0.063543 0.082349 -0.041338 2.2266 
valganciclovir 2.3645 2.5115 0.8925 -5.6455 -1.2485 -3.0618 -0.78624 2.5247 0.4784 -0.14868 1.98 3.0684 -3.035 
epiduralbag 1.721 1.2671 0.3811 1.7499 -2.8749 -0.14401 1.2805 1.1325 3.6776 0.66255 -0.10522 -2.6736 -7.4177 
acetaminophenw/codeine -1.5119 0.37769 -1.5352 0.81263 0.3843 -1.6679 -0.68427 0.49513 2.6538 -0.49811 -0.6123 -0.016755 1.049 
sertralinehcl -3.9155 -2.5899 -0.66999 1.8434 0.5139 -1.8487 -2.1014 -1.9546 -0.052289 0.98728 -1.5234 0.6565 0.84022 
sirolimus -0.98118 0.79568 0.062876 -2.1238 -0.68982 -3.217 -0.73253 -1.1338 -1.1053 0.67884 1.2952 1.9074 1.0353 
donepezil -2.622 -0.46608 -2.88 0.11043 1.355 0.97465 0.44951 1.5836 -0.18055 -0.65286 -3.9659 -0.88043 -0.39945 
tuberculinprotein -0.79923 1.6822 0.75888 -0.87081 0.63048 -1.0299 0.29815 0.043004 -1.0849 0.66561 -1.3513 0.28992 0.35885 
cetylpyridiniumchl(cepacol) -2.9805 -0.1139 1.0012 1.9686 0.50907 -2.3916 -0.42277 -0.45206 1.8064 1.4275 -0.30932 -0.51832 0.76496 
d5lr 1.3563 0.14228 0.33196 0.33707 -1.6985 0.36054 2.7585 -0.068182 1.5644 0.79295 0.47005 0.34372 -0.96496 
baclofen 0.59745 -1.3934 -0.73315 -1.3218 1.6344 -1.0719 1.5776 0.25298 1.9629 -0.66231 -3.5189 0.77144 -0.45927 
calcitriol -2.8585 0.15148 -0.37804 -2.4386 0.53445 -1.258 -2.2009 1.5043 -1.8292 -1.0359 -2.8377 2.6129 -0.53617 
argatroban 0.12396 0.84159 1.1484 -1.0365 -0.98583 1.2518 -1.3684 -1.339 -1.5091 1.7048 -0.12101 -0.85471 0.38064 
morphinesr(mscontin) 2.0555 0.54234 0.95343 -1.6794 1.7309 -1.5995 1.2295 0.94207 3.615 -0.71547 -2.9193 0.10066 -1.0403 
phenytoinsodiumextended 2.4714 2.531 -2.9109 -0.56699 2.4249 0.37319 3.1755 1.4913 1.8423 -3.9214 -1.4408 1.9184 0.48023 
escitalopramoxalate -1.9114 -1.4328 -1.6311 0.2862 1.2083 -0.48888 0.21236 0.78284 1.3525 -1.3343 -2.0561 -0.45052 -1.2584 
hr_m1 -0.2119 2.065 0.64623 0.84464 -0.003276 0.61328 -0.96776 -0.28909 -0.52463 0.9798 0.28529 -0.20901 0.49901 
zincsulfate -1.9742 -5.2039 1.8529 0.17922 4.5019 1.1469 -1.2195 -2.0898 -1.1001 0.61629 -3.8474 2.9574 2.7912 
venlafaxinexr -1.5288 -1.4784 -1.0791 -0.24887 1.0731 -1.7766 -0.022122 0.96395 2.3319 -0.45926 -2.6482 -0.094215 -1.2443 
duloxetine -0.58549 -1.5551 -0.90358 -1.4991 1.2102 -0.6446 0.35804 2.021 1.9928 -1.138 -3.0557 0.18659 -2.5209 
guaifenesin-dextromethorphan -2.0925 -0.19413 0.8248 -1.476 1.0603 -2.034 -0.60666 0.3145 1.1739 1.4231 -1.5216 -2.3615 -0.56747 
artificialtearspreserv.free 0.33483 -0.80753 -1.5802 -0.87522 0.0013736 2.4608 -0.9643 -0.22432 -2.0328 -1.1482 -0.62794 1.4144 -0.82164 
famotidine(iv) -1.2968 -1.1468 -2.7543 1.991 -3.0604 -2.7068 2.1874 -3.1094 0.54142 -0.12176 1.9396 2.6251 1.0574 
magnesiumcitrate 0.47846 0.79971 0.30379 0.38012 0.73411 0.22743 0.83915 0.24029 1.3224 0.63553 -1.8434 0.1158 0.87296 
tamsulosinhcl -3.6528 -1.4133 -1.1137 1.4819 0.65765 -1.6652 -2.6217 -0.15475 1.4971 -0.28634 -0.71964 0.36399 0.79071 
aminoacids4.25%w/dextrose5% -0.85059 0.12385 4.9457 3.2417 -0.28322 -0.93615 5.8457 -3.1281 -2.2744 1.3291 0.34962 0.50827 -3.0903 
lamotrigine -0.055092 -1.3324 -3.1032 0.043786 1.4775 0.052317 2.1553 0.95742 0.43052 -1.2065 -3.1499 1.0138 -1.3565 
enalaprilat -1.9191 1.1099 -1.2408 0.41859 0.063917 -1.1981 1.0383 -2.4483 -1.5232 -1.9725 3.0864 -1.1989 0.36157 
nsepiduralbag(0.9%nacl) 0.58813 -1.8905 2.3176 2.6826 -3.2406 -2.4362 1.0748 -3.786 5.72 -0.47706 0.57891 -1.3813 -4.1245 
ondansetronodt 0.33877 1.9311 0.97862 -1.7996 0.99039 -1.367 1.3166 2.1386 1.6672 -0.68472 -2.029 0.51027 -0.98258 
isosorbidemononitrate -3.8565 -0.43994 -0.57549 1.383 0.3025 0.12058 -2.6384 0.083788 0.85851 -1.7059 1.495 0.33288 1.5673 
anti-thymocyteglobulin(rabbit) 0.56275 1.3749 0.28748 -3.2281 -2.5538 -3.001 -0.46837 0.62956 -0.51438 0.83637 3.9523 3.0519 -1.1663 
sulfameth/trimethoprim -0.040373 -0.84653 0.31371 -2.2708 -1.2603 -2.4735 0.39683 -2.6546 -2.4126 2.0155 -0.44516 2.2023 0.076048 
valproatesodium 1.8358 -0.2343 -2.1305 0.60858 0.79296 1.117 3.0148 -1.857 -1.3316 0.41963 -1.2501 1.0508 0.9521 
sulfameth/trimethoprimsuspension 1.264 0.65845 -0.54136 -3.4948 -3.0482 -3.1686 0.68466 0.36236 -0.03319 1.3425 1.2249 2.948 -2.0373 
caspofungin 1.1163 -0.2739 2.2618 -0.897 -2.201 -0.85376 0.37351 -2.5734 -0.91145 3.0464 0.84464 2.0102 0.80198 
bm_p6 1.3656 0.57504 0.40649 -1.8537 1.4117 0.86278 -2.24 0.23019 -0.05447 0.28499 -0.50992 -1.5953 -1.9033 
doxycyclinehyclate 0.62215 -0.1455 0.27262 -1.7356 -0.16774 -0.17838 1.131 -0.3452 -0.27011 1.0727 -1.8286 0.92235 0.54607 
sevelamercarbonate 0.050531 2.5938 -0.36127 -3.3116 1.1278 0.025251 -2.3981 3.0093 -2.3737 -1.3797 -2.3485 2.8974 -1.9379 
maalox/diphenhydramine/lidocaine -0.87689 1.2623 1.2024 -1.6571 0.19753 -1.5507 0.44628 0.9332 0.60627 0.71994 -1.7088 -0.40693 -0.55653 
mycophenolatemofetilsuspension 1.9855 0.95736 0.26565 -4.8094 -3.4466 -2.5363 0.55699 1.8823 -0.195 0.49461 3.0724 3.9035 -3.5922 
guaifenesin-codeinephosphate -1.6071 -0.39514 1.4469 -2.4493 0.62889 -2.1566 -0.72923 -0.046809 1.2115 1.9436 -1.7855 -2.4381 -0.36177 
scopolaminepatch 1.7522 0.25651 -0.40211 -0.41649 0.35034 0.20963 1.5456 -0.85736 0.44582 0.068667 -0.66581 0.032471 -0.36666 
valproicacid 1.3731 -1.3173 -2.8807 0.22229 1.6408 0.36689 1.7056 -2.8374 -1.3118 -0.25117 -1.6862 0.65508 1.0356 
nicotine -3.332 -1.9905 -1.1385 3.1925 1.8621 -2.8714 1.3485 -1.6761 1.3484 -0.25299 0.7234 0.32589 0.83618 
albumin25%(12.5g) -0.62526 -0.63195 2.8252 2.1829 -1.1596 -0.37512 0.030512 -1.7279 -1.1974 4.4959 0.041346 1.8992 0.20837 
loperamide 0.76644 1.8477 1.7991 -1.9455 1.0678 -1.2617 0.77467 1.1629 0.088573 1.1248 -1.5929 0.21781 -0.88217 
paroxetinehcl -3.2203 -2.3264 -0.62781 1.5965 1.0887 -2.5486 -0.91865 -1.3357 1.2398 0.25554 -1.1989 0.6136 0.59667 
tramadol -3.5355 -1.4951 0.58991 1.871 1.1545 -2.1393 -1.5642 -0.43043 2.0019 1.1523 -1.1994 -0.060133 1.1423 
promethazine 2.5314 2.2851 -0.21769 -1.2483 -0.56176 -1.7799 2.3359 1.4175 2.8729 -1.2409 -1.0547 1.5645 -1.629 
ranitidine(liquid) 0.48557 -1.5536 -1.1184 -1.2415 -0.13112 2.534 -0.34728 -1.0921 -1.0587 -0.77154 0.302 -1.1116 -1.1428 
nitroglycerinointment2% -2.2017 1.2925 0.0012457 -2.0296 -0.65389 -1.2381 0.17027 -1.0523 -1.5131 -1.2336 0.62394 -1.2376 -0.070036 
filgrastim 0.094712 1.6605 2.499 -1.7091 -2.234 -1.5577 1.4516 -1.2375 -1.514 1.8446 -0.94054 2.0484 0.13393 
fluoxetinehcl -3.48 -2.3548 -1.1692 2.2757 1.0042 -2.4855 -0.48367 -0.69266 1.7866 0.46051 -1.7949 1.0648 0.8342 
lidocaineviscous2% -0.48441 0.55673 1.042 -0.61537 -0.27666 -1.704 1.073 0.27167 0.32711 1.5951 -1.1575 0.24186 -0.68723 
bupropion -0.63168 -2.1957 -1.1208 -0.43972 1.3868 -0.36872 -0.061493 1.1277 1.4862 -0.62596 -1.9382 0.076486 -2.2057 
bacitracinointment 0.10644 -1.5535 -2.098 0.055033 0.2868 -0.44251 0.9438 -0.40242 0.50337 0.16375 -0.44529 1.4703 0.53554 
phenobarbital 2.2543 -0.33806 -2.1702 0.043763 1.1152 1.1759 2.5933 -1.6978 -0.92489 0.49668 -0.8117 0.86964 1.3271 
ibuprofensuspension 2.604 -1.0892 -0.95543 -0.78968 0.27343 1.7884 1.4939 -3.0708 -1.068 -0.19596 0.1094 -0.41726 -0.04755 
amoxicillin-clavulanicacid -0.5453 0.87158 0.084145 -0.99685 1.263 -1.6398 0.35654 0.37306 1.43 -0.40349 -1.6168 -0.63009 -0.041552 
oxymetazolinehcl -1.3082 -1.9887 0.049251 0.20399 0.30834 -1.395 -0.17699 -3.1222 -0.70441 1.337 0.2285 0.39358 1.5409 
ursodiol -0.8232 -0.67737 0.88391 -1.6419 0.59573 -2.1282 -0.0037457 1.1874 -0.50346 1.5282 -2.4284 2.8663 -0.50278 
carbidopa-levodopa(25-100) -1.5758 -1.6876 -1.5808 -0.043936 0.70576 0.75112 0.12372 0.69887 -0.24893 0.1905 -2.5286 0.45367 -0.43863 
phosphorus 2.8728 2.1142 0.33857 -1.1375 1.4144 1.9049 2.026 0.76569 0.826 -0.43652 -1.6787 -0.72624 -0.41744 
clonidinetts1patch -1.0855 -0.48955 -1.4616 1.074 0.6405 -3.2768 1.5364 -4.4897 -0.76971 -0.98548 1.7822 0.30287 1.0312 
oxybutynin -1.4994 0.0054061 -1.1723 -0.60393 0.98391 -0.45131 -0.3034 0.8647 1.109 -0.64537 -2.5726 -0.14827 0.47099 
lamivudine -0.22091 -0.79039 0.085033 -2.4952 -0.49026 -2.9236 -0.039912 0.40146 -0.16393 0.94135 -1.1523 3.1591 -0.69923 
verapamilhcl -2.1203 0.49956 -0.78676 0.35029 1.1064 -2.4337 -0.058827 -1.8916 -0.42442 -0.058282 0.69826 -1.6131 0.32782 
nifedipine -2.7514 2.1846 -1.0004 -1.5664 0.53472 -3.642 -0.15425 -1.349 -1.7246 -1.7469 0.96903 0.40157 1.1384 
ferrousgluconate -3.0503 -2.982 1.4413 1.4627 4.4756 0.70133 -2.9265 0.93508 2.241 -1.0556 -2.0089 1.1082 1.3252 
calciumchloride -0.92867 -0.64436 1.0147 0.76611 -3.023 2.6126 -0.5141 -0.22127 -0.995 2.4483 1.2475 0.83554 0.26128 
doxazosin -2.0315 0.81781 -2.3189 -1.672 0.55686 -1.3368 -1.6644 1.1273 0.28051 -2.2191 -0.41331 -0.16318 -0.37303 
metoprololxl(toprolxl) -2.9864 1.3624 0.11422 -0.208 0.73842 -1.4542 -1.5744 0.51955 0.44747 -0.22936 -1.0325 -1.3719 0.19193 
micafungin 5.2058 1.7135 0.23351 -3.9445 -2.1623 1.3093 -0.40846 -0.72064 -0.58335 2.3643 -1.2154 0.69657 -1.303 
gemfibrozil -2.8917 -2.0273 -1.8713 -0.14601 1.4907 0.87845 -2.5478 2.3835 2.1654 -2.1993 -1.543 0.11257 -0.56187 
dorzolamide2%/timolol0.5%ophth. -2.1522 0.17745 -3.6235 0.52495 -0.83907 -0.12599 -2.8719 1.423 -0.63718 -0.397 -3.025 2.6013 -0.44519 
fosphenytoin 4.3661 1.8868 -2.5762 -2.3891 1.1794 2.9165 2.7046 -0.75236 -1.5854 -2.123 -0.91457 1.3758 0.77534 
timololmaleate0.5% -1.2988 0.17376 -3.3095 0.12043 -0.97953 0.85518 -2.1945 2.2688 0.096485 -0.20871 -2.3339 1.7013 -0.84829 
amp 0.03739 -0.68206 5.6917 0.61951 -0.29478 -0.46866 2.0355 2.3853 -0.055116 6.3047 -1.7635 3.9637 -1.2686 
oxycodone(sustainedrelease) -1.785 -1.1432 0.39363 1.6969 0.61299 -3.3549 0.24988 -1.5994 2.867 0.88366 -1.4084 1.3955 1.8996 
oxacillin -1.6038 -0.82361 0.11765 1.5625 -0.342 -0.4294 0.67547 -3.1175 -0.29899 0.78294 -0.34263 1.2543 3.0625 
racepinephrine 0.72472 -0.83857 -1.7288 -1.781 -0.51144 -0.85145 0.79869 -1.5338 -0.0099661 -0.17967 1.8887 -1.4652 -1.1412 
multivitaminsw/minerals -1.5744 -0.57495 -0.5993 -0.23568 2.5158 -0.14491 1.8015 1.6119 -0.50724 -0.64616 -2.8634 0.85749 -0.71281 
hydroxyzine 1.1851 0.5489 0.55584 -1.7033 1.0489 -2.0599 0.22227 0.89684 1.6801 -0.26106 -2.651 0.73244 -2.0803 
bm_p7 0.71799 1.3369 1.06 -1.2732 0.96222 0.27866 -0.34366 0.20583 0.015063 0.096698 -0.51402 -0.84194 -0.83517 
unasyn -0.96263 -0.75761 -1.2491 1.0434 -2.9856 -2.7091 0.53732 -2.3216 0.32517 1.9764 1.5277 2.6553 1.1378 
d5w(glassbottle) -2.9151 0.69094 0.43956 -1.3344 -2.125 -2.1547 0.22763 -4.0846 -2.6702 -0.99229 3.4816 0.74646 1.9418 
ganciclovir 0.33062 -0.45639 0.55178 -3.0742 -2.2221 -2.9094 -0.027775 -1.3827 -1.3517 2.2538 2.0072 3.1113 0.28501 
lansoprazoleoralsolution -2.9802 -2.0794 -0.49715 1.973 0.71692 -0.95279 -0.89717 -3.2769 -1.9512 1.2893 1.7233 0.99571 2.3187 
chlorhexidinegluconate -1.0459 -2.8247 -1.1348 1.3067 -0.41983 -1.6596 0.78047 -2.7383 0.39455 1.2173 -0.057314 1.4507 1.06 
yellowcaddcassette 4.0351 1.615 0.46401 1.2286 -2.2228 -0.16928 2.0819 1.2093 4.8866 0.88543 -0.41967 -2.2811 -7.1815 
naloxonehcl -1.1899 -0.42165 0.40552 1.0188 -0.79183 -2.1318 0.15414 -2.1636 -0.52721 1.2247 -1.3977 1.8511 0.39177 
lacri-lubeoint -0.20965 -3.2688 -3.2541 1.8917 -1.211 0.45414 -0.90928 -4.3532 -1.8911 0.72746 1.9937 3.5036 2.264 
propoxyphenenap.-apap(n-100) -2.35 -1.2583 -0.38074 1.5362 0.74876 0.24176 -3.1646 0.27607 2.4216 -0.56045 0.12749 -0.47589 0.48131 
venlafaxine -1.0662 -2.5549 -1.0176 0.11086 1.3794 -0.68944 0.35694 0.034026 1.0079 -0.068634 -2.4896 0.47479 -0.70637 
loperamidehcl -1.6192 -0.24831 2.2671 0.61298 0.50689 -2.5785 -0.47833 -2.0975 0.29545 2.1279 -0.059845 1.1883 2.0819 
cyclosporine(sandimmune) -1.2331 0.98763 -0.25806 -2.0477 -0.90218 -1.4031 -0.82479 -2.0648 -4.2419 -0.16352 1.7906 1.7338 0.10112 
verapamilsr -1.975 -0.13991 -1.3456 -0.23864 1.2842 -1.9503 0.44698 0.0038265 0.84387 -0.77262 0.26981 -1.6374 -0.6225 
alteplase 0.64196 1.2164 0.56305 -0.73453 -1.1641 -0.68306 0.73257 -1.5695 -0.42809 0.33043 0.11329 0.47529 0.11131 
salmeterolxinafoatediskus(50mcg) -3.7152 -3.7688 -1.2118 -0.75967 0.87428 -2.7264 -1.6832 0.11657 0.9519 1.7372 -0.061408 -1.3054 -1.528 
albumin5%(25g) -0.70437 -1.1365 2.3073 1.7171 -1.9528 0.42605 -1.0062 -1.699 -0.73718 3.5577 0.74045 1.7794 0.29347 
heparinflush(5000units/ml) 1.4659 1.7131 0.5653 -2.8914 -0.95799 0.45471 -2.5389 0.20816 -2.4859 1.0245 -0.35034 1.7276 -1.5021 
lactuloseenema 1.9436 1.0444 2.592 -1.4306 0.88199 1.4194 1.8216 1.2231 -1.8718 2.1258 -2.1306 0.84658 -2.4452 
aluminum-magnesiumhydroxide -4.0427 0.27615 0.26734 1.9436 0.62201 -2.8432 -1.2517 -0.9731 1.3817 0.55454 -0.73852 0.075528 1.8045 
penicillingpotassium -0.12113 -0.51895 -0.71073 0.34575 -0.75129 0.30509 0.0030689 -1.1449 0.2993 1.0991 -0.33988 0.64745 1.5939 
amitriptyline -0.18523 -0.48088 -1.454 -1.9685 0.83837 -0.3795 -0.37124 2.5804 1.9706 -1.6186 -2.5243 0.35839 -2.4307 
miconazole2%cream 0.34309 -0.97423 0.064802 -1.1896 0.74996 -0.57917 0.094653 -1.0139 -0.54546 1.0734 -1.6303 0.69295 -0.028629 
nitroglycerinoint.2% -2.6534 0.34965 -1.6589 2.0464 0.12808 -2.5338 -0.045014 -3.5178 -1.1596 -0.064468 1.8342 0.32654 2.0208 
xopenex -0.88717 -0.5376 0.062312 -1.4804 0.51088 -1.9793 -0.71253 -1.0057 -0.14302 1.395 -0.27466 -2.7648 -2.417 
naloxone 2.4305 0.52646 0.77095 -2.0226 -0.82186 0.21057 1.1899 0.88511 0.60257 0.034031 -0.54823 0.60655 -3.3314 
phenytoininfatab 3.1669 2.3374 -2.9116 -1.1897 2.0964 0.43699 2.1165 1.0443 1.2105 -2.8567 -1.3574 1.3585 0.19352 
fishoil(omega3) -2.1769 -1.0397 -0.85019 -0.99666 1.7168 1.6483 -1.058 3.8315 1.5988 -2.1175 -1.8488 0.41244 -1.5603 
aripiprazole -0.21041 -2.0606 -1.1461 -1.8209 2.068 -0.66229 0.23427 0.2808 -0.022087 -0.60313 -2.799 -0.48636 -2.5828 
acetylcysteine(iv) 0.51907 1.5967 0.54486 -0.83123 -1.1712 0.52685 3.2196 1.0377 -1.2471 1.7268 -1.023 0.95722 -0.73423 
chlorasepticthroatspray 2.1585 1.3775 0.82031 -1.6679 0.47568 -0.70661 1.2193 1.3205 1.7828 -0.26706 -0.45157 -0.36567 -2.6368 
xopenexneb 1.1722 0.13977 0.67043 -3.1203 1.2393 0.27972 -0.86742 0.8395 0.48832 0.49097 -0.73317 -2.7493 -2.967 
albumin5%(12.5gm) -0.47636 0.35649 0.93169 2.3912 -1.608 -0.16428 -1.0241 -2.678 -1.379 2.8652 2.519 2.8224 2.524 
lidocainejelly2% -0.75136 -0.12982 0.99362 -0.067856 1.2781 -1.0377 0.83805 -0.61295 -0.48302 1.8064 -0.67493 -0.22484 0.69321 
voriconazole 1.8751 -0.061712 0.47966 -2.8769 -0.59563 -1.5766 0.72031 -1.9485 -1.1005 1.1082 -1.1975 1.3487 -0.58549 
nystatincream 0.34006 -0.47062 0.94896 -1.4787 0.67458 -0.77847 -0.03297 -1.439 -0.91264 1.1027 -1.3165 0.35889 0.0020644 
divalproexsodium -1.8607 -2.2036 -3.1641 1.1915 1.2647 -1.4636 1.9344 -2.3582 -0.61116 0.61319 -2.3074 0.22798 1.2992 
valganciclovirhcl -1.5578 -0.33119 1.2236 -1.4523 -1.79 -5.4221 -0.90327 -2.426 -0.30348 2.4825 3.4607 3.4508 1.415 
imipenem-cilastatin 0.60708 -0.53401 -0.57045 -0.073818 -2.5923 -0.83544 -0.31003 -3.7024 -0.91347 3.0503 -1.1711 0.68277 1.1704 
phenytoinsodium(iv) 3.8828 1.3309 -2.2216 -1.8225 0.58567 3.3854 2.9232 0.10112 -1.1657 -2.9051 0.41396 2.3645 0.3213 
verapamil 0.0071168 1.3116 0.28833 -2.2509 1.4156 -0.38223 0.39282 0.68551 -0.0030892 -0.86662 0.25639 -2.361 -1.8947 
cefpodoximeproxetil -1.3098 1.2751 0.39923 -1.3255 1.4189 -1.1654 -0.23405 0.49101 -0.11364 0.50088 -2.0886 -1.3181 -0.097645 
valganciclovirsuspension 2.0207 1.4248 1.0844 -4.1791 -3.1254 -2.6736 0.83586 0.59208 -0.40791 2.0892 3.2303 2.4548 -2.4571 
buspirone -1.5012 -2.2666 -1.655 0.062158 1.799 -0.6392 0.3978 0.16552 1.2643 -0.34705 -3.4196 -0.28969 -0.882 
tolterodine -2.434 -0.80457 -1.4405 0.020231 0.5192 -0.73905 -0.28836 0.90577 1.6395 -0.80001 -2.3747 -0.35685 -0.037659 
alendronatesodium -1.226 0.29373 0.084971 0.11922 1.3082 -1.2999 -0.80643 0.59979 0.75574 0.31385 -0.77313 0.4997 0.43577 
amoxicillin -2.2328 2.4356 0.95368 1.9091 1.045 -1.8333 0.11726 1.7309 -0.77803 1.0194 -1.5969 1.5662 -0.83343 
albumin5% 3.9592 0.48671 1.6296 -2.3018 -1.7659 2.7453 1.1249 1.6843 0.31736 1.9634 1.3133 1.0862 -2.8759 
calciumreplacement(oncology) 0.88543 1.1434 2.021 -2.3639 -1.9152 -1.2481 3.2603 0.30105 2.1663 1.4163 -1.3041 1.3627 1.5814 
morphinesulfate(oralsoln.) 0.49138 0.16291 0.57293 -1.4299 1.4693 -1.6196 0.66121 -0.10668 0.63146 0.65994 -1.7935 0.20368 -0.24999 
prednisoloneacetate1%ophth.susp. -1.5476 -0.31634 -3.0962 0.023556 -0.52384 -0.036575 -1.848 0.92426 -0.80544 -0.31515 -1.9234 1.4149 -0.91083 
amitriptylinehcl -2.1045 -2.2536 -0.67881 0.90934 0.56106 -1.9962 -0.9406 -0.83047 2.0244 0.29704 -1.4822 0.29002 -0.076714 
hydrocortisone 0.012497 0.54572 0.4087 -0.59492 -0.007799 -0.21764 -0.29685 0.96795 0.13917 1.3159 -1.9322 1.9988 0.63393 
oxymetazoline 0.91672 0.5345 0.27873 -3.0025 0.76209 -0.090861 -0.45771 0.95933 -0.53722 0.44446 -0.48477 -0.40318 -1.2763 
ferroussulfate(liquid) -0.32762 -1.8061 -0.146 -0.47314 1.6194 0.499 -0.30221 -0.97084 -2.1067 0.62772 -2.0036 0.92574 -0.75885 
heparinflushport(10units/ml) -0.85866 -0.33402 0.20088 -0.036613 -0.35895 -2.5781 0.13728 -1.0159 0.99184 1.0604 -1.4954 1.0379 0.18762 
rosiglitazonemaleate -3.7299 -0.97515 -1.4385 1.7007 1.0938 -0.92843 -3.7113 0.051455 2.2114 -0.69759 -0.11684 -0.88856 0.88041 
ambisome 0.92103 -0.69984 1.5322 -2.0264 -1.7553 -0.55674 0.51817 -2.3695 -1.1694 2.3482 0.57241 2.2079 1.8889 
pregabalin 0.66219 -0.48991 -0.75771 -2.3403 0.85137 -0.5834 0.71807 2.0697 1.5694 -0.60905 -3.3472 0.89436 -2.0324 
nortriptyline -1.1905 -2.0571 -1.7025 -0.67336 0.99034 -1.7249 -0.52882 1.112 1.949 -0.92438 -2.461 0.67052 -1.9392 
multivitamin12 -1.5824 -1.9695 1.0344 2.5876 1.0548 -1.152 3.4778 -2.4993 -0.82165 1.8343 2.2493 1.7554 2.0085 
codeinesulfate -0.90017 1.1873 0.13834 -0.97627 0.88173 -1.822 0.66994 0.67772 1.1557 0.20238 -1.033 -0.58444 0.23926 
glipizidexl -2.8469 0.15504 -1.2734 0.94711 1.9956 -0.46413 -2.4078 0.99932 1.5369 -0.90047 -0.55006 -1.0104 0.74296 
ipratropiumbromide -2.6133 -3.3681 -2.0297 0.83966 -0.061973 -2.0844 -1.1776 -1.9502 0.23465 2.5955 0.86331 0.12714 1.1205 
terazosin -1.8141 0.029829 -1.2188 -1.8665 0.91448 0.61473 -1.3122 2.8439 0.51996 -2.0534 -0.86182 -0.39656 -1.8926 
nystatinoralsusp. -1.0753 -2.2176 -0.71818 1.2957 0.25633 -1.2751 -1.1741 -3.1633 -0.54226 1.0609 0.70214 1.6699 1.6121 
oxcarbazepine -0.17995 -0.74915 -2.1481 -0.35895 1.0431 -0.8454 0.9532 0.12652 0.22339 -1.1905 -1.8779 1.3942 -0.73886 
adenosine -0.97632 0.96943 1.2452 0.29637 -1.3947 1.2131 0.49164 -0.96539 -0.62511 1.3666 1.2171 -2.0883 0.14664 
sotalol -0.78775 0.92688 0.061601 -1.0034 0.5892 1.2038 -0.62473 1.7461 1.0931 -0.79816 -0.93687 -1.3952 -0.70556 
carbamazepine -0.4126 -0.49227 -2.2687 0.2404 0.57033 -0.68309 0.94642 -0.0097316 0.79169 -0.96589 -1.8361 0.98377 0.08122 
methylnaltrexone 3.3348 0.9839 1.0771 -2.4258 0.29952 0.92099 1.0048 -0.51186 0.30479 -0.78997 -0.74881 -0.28988 -2.2727 
benztropinemesylate -0.67633 -0.90347 -1.6982 0.16774 1.9086 -1.3635 2.1453 -0.54323 -0.29395 -0.18835 -1.7363 -0.36189 -1.2245 
normocarb 1.0271 2.5622 0.69669 -0.1921 -2.9732 2.8319 0.18132 -1.2459 -2.0461 1.8517 3.0068 3.0325 4.6923 
fluticasone-salmeterol(100/50) -2.9363 -2.0673 -0.64448 -0.35233 0.54642 -2.059 -0.86726 0.13329 0.6587 1.3953 -1.116 -0.98661 -0.99565 
ketamine 4.1762 -1.3757 1.5177 -1.3748 0.51014 1.6731 3.6948 -0.62312 2.8303 -0.5318 0.07129 -1.0423 -2.5721 
clonidinepatch0.3mg/24hr 0.94643 1.9359 -0.47963 -2.2892 1.453 -0.43172 1.2899 -0.36349 -2.039 -3.286 0.84659 -0.14291 -2.8646 
albumin5%(12.5g) -0.054168 -1.4107 1.7974 2.0573 -1.4574 1.4262 -0.9839 -1.3507 0.1285 2.8894 1.1898 1.3504 0.42213 
moviprep 0.13567 2.5162 1.0597 -0.80431 0.44658 -0.2285 0.77921 2.6539 0.49607 0.42764 -2.0494 0.5426 -1.6326 
mucinex -0.63243 -0.54209 0.43518 -1.6277 0.6111 -0.77114 -1.3444 -0.014556 1.1076 0.37231 -0.65304 -2.0539 -1.4578 
psyllium -1.4778 0.45768 0.1317 -0.66814 1.0888 -0.72007 -1.1899 0.55919 1.1054 -0.33907 -1.5227 -0.65232 0.36754 
sevelamerhydrochloride -0.96782 1.3796 0.077301 -3.1524 0.61844 -0.6878 -2.0854 1.7629 -1.8341 -0.71263 -2.741 1.693 -1.7354 
doxercalciferol 0.89923 2.7019 0.37948 -2.1322 0.26514 -0.19099 -2.5025 1.892 -1.9709 0.87202 -2.8037 3.3816 -1.1316 
topiramate(topamax) 0.54564 -0.85959 -2.0941 -1.1182 1.4138 -0.58872 2.0539 1.2447 1.3597 -1.1466 -3.4512 0.75616 -1.8634 
fluticasone-salmeteroldiskus(100/50) -0.78632 -1.3489 -0.52864 -2.2574 0.39467 0.43658 -0.90209 2.5662 0.95599 -0.64185 -1.3552 -0.5622 -3.1334 
clonidinepatch0.1mg/24hr 1.727 1.1196 -0.74159 -1.893 1.52 -0.054193 2.3079 -0.18721 -0.84466 -2.4622 0.39104 -0.97391 -3.2021 
bm_m3 1.4372 1.5944 0.84939 -1.5167 0.9303 -0.10791 -0.10387 0.49848 -0.098493 -0.27436 -0.028552 0.32245 -1.0679 
phenasepticthroatspray -0.54217 0.069292 -0.11324 1.6478 -0.42951 -2.0262 0.59546 -1.5137 1.2826 1.1257 -0.14358 0.4386 0.39785 
ritonavir -0.12578 -0.96603 -0.33916 -2.1836 0.17949 -1.6684 0.87799 1.0894 0.089258 0.12417 -1.9194 1.8425 -1.672 
cyclobenzaprine 0.66275 -0.1206 0.13473 -1.5218 1.0314 -0.10971 0.75745 1.6344 2.5031 -1.0396 -1.6827 -0.15897 -1.5395 
heparin(crrtmachinepriming) 1.0453 3.053 1.2347 -3.9747 -3.6595 2.8811 -0.86478 2.1147 -2.5802 1.2626 0.80122 2.8655 -1.0926 
amlodipinebesylate -3.8171 0.080072 -1.3859 1.2866 0.84357 -2.4855 -2.1191 -1.7457 -0.30138 -0.34451 0.77709 0.5447 2.4237 
azathioprine -1.3963 -0.31173 0.50861 -2.6106 0.051842 -3.0132 -0.58728 1.2335 0.13726 -0.1127 -0.17225 1.8344 -0.97528 
fleetphospho-soda -0.5274 0.050429 -0.28722 1.4044 0.59807 -0.65993 0.99764 -1.9603 -0.055442 1.3455 -1.2567 0.52652 1.8525 
fluticasone-salmeteroldiskus(500/50) -1.1366 -1.7023 -0.42302 -3.7921 1.2089 -0.53839 -0.85019 2.3361 0.67539 -0.011693 -1.4631 -1.6175 -3.1657 
pyridostigminebromide -0.20777 0.18319 0.55904 -0.96518 0.34322 -2.494 -0.43618 -0.01346 0.14485 1.0851 0.83138 0.42592 -1.2235 
hydroxyzinehcl -1.8206 -0.65584 0.22904 1.3497 -0.77421 -2.8197 -0.26815 -1.2157 2.5271 0.38063 0.14456 1.0803 0.87012 
indomethacin -1.212 0.45521 0.94789 -0.0018422 1.1875 -0.51485 -0.7596 1.2466 1.8799 -0.51163 -0.60081 -0.93335 -0.66137 
oseltamivir 0.73403 -0.79707 -0.96769 -3.943 -0.8588 0.63615 0.70248 0.21616 -1.3599 1.2328 -2.2887 -0.65583 -1.6663 
polysaccharideironcomplex -3.0166 -2.6645 0.36934 2.8411 2.8954 -0.27247 -2.0626 -1.2615 1.8671 -0.83869 -1.5443 1.4088 2.0874 
tricor -2.359 -0.61981 -0.94985 0.14815 1.0292 0.36398 -1.8241 2.1203 1.5911 -1.6934 -0.73197 0.088112 -0.76087 
lidocaine2% 0.79266 0.58157 0.59232 -1.6414 -1.1302 -0.23788 0.91753 -0.22013 0.28751 1.0897 -0.77721 -0.21863 -0.72927 
phenazopyridinehcl -1.8093 1.041 0.37278 0.85274 0.24775 -1.8826 -0.028559 -1.1109 0.72174 1.2894 -1.4215 -0.9644 1.034 
epinephrine1:1000 0.38961 -0.0011023 -1.2107 -2.2924 -2.1684 -3.0363 -0.088298 0.58469 2.1459 0.44312 -0.97057 1.3231 -1.433 
clarithromycin -2.7386 1.4997 1.4088 1.7892 0.32065 -0.11258 0.90521 0.25169 -0.38041 -0.10519 -4.553 0.15364 -0.64345 
fondaparinuxsodium 1.1043 0.029033 0.76831 -0.77825 0.43153 0.16656 0.46086 -0.46721 0.22842 0.51409 -0.74438 0.10945 -0.4357 
quinapril -2.3375 0.64177 -1.3667 0.56267 0.95481 -1.1962 -0.055514 0.42873 1.8344 -1.5118 0.033319 -1.0609 0.56231 
gastroview(diatrizoatemeglumine&sodium) 3.7698 1.7465 0.95408 -2.45 -0.68177 1.5657 1.8853 0.94294 -0.006177 1.0228 -0.40151 0.28537 -2.2547 
propranolol 1.0463 1.217 0.6009 -0.94827 1.6086 0.068904 1.3407 1.2166 0.19799 0.04939 -1.1504 -0.25829 -1.4918 
morphinesulfatesr -1.8746 -1.0232 0.17475 0.84653 0.87457 -3.341 0.27333 -1.01 2.0713 1.1465 -1.3505 1.1012 1.4404 
hydroxyurea -0.40642 0.044754 -0.31954 -1.3612 -0.61896 -1.0819 -0.18764 0.42318 0.42268 0.66206 -1.2145 1.0339 0.080191 
terazosinhcl -3.3696 -0.35802 -1.6777 0.91526 0.68082 -2.0967 -2.127 0.09742 1.2727 -0.52865 -1.2278 0.61429 1.1003 
chlorpromazine 0.73113 0.28343 -0.57533 -0.14255 0.064962 0.11624 1.2676 -0.15307 0.52895 0.20371 -0.80355 -0.26087 -0.54598 
tizanidine 1.4615 -0.57554 -0.30366 -1.3966 1.1073 -0.20596 0.75695 1.2068 2.6929 -1.4837 -2.048 0.16616 -2.152 
midodrinehcl -0.86762 0.153 1.4834 2.0408 -0.065769 -1.4577 -0.72868 -0.8914 -0.49032 3.4353 -1.0809 3.0211 1.4522 
ascorbicacid(liquid) -0.64251 -2.4707 -0.28767 1.0491 3.21 1.0635 -0.85225 -2.1806 -2.7158 1.2768 -3.5217 0.76679 -0.078577 
clonidinepatch0.2mg/24hr 1.2478 0.73185 -0.32857 -2.5553 1.4656 -0.086745 2.3256 -0.52113 -1.3494 -2.6998 0.47908 -0.56033 -2.6671 
divalproex(delayedrelease) 0.73052 -0.013072 -1.8179 -0.86262 2.1203 0.16492 1.9972 1.2825 0.34852 -1.498 -2.7886 0.402 -1.6351 
cholestyramine -0.61459 0.49793 1.0728 -0.67844 1.1023 -0.8553 0.4251 0.54761 0.032171 1.1599 -2.1906 -0.0054945 -0.24211 
pioglitazonehcl -3.0645 -0.75072 -1.3532 1.5724 1.5695 -1.3065 -2.9406 -0.11235 2.102 -1.044 0.13181 -0.32673 1.1305 
methimazole -1.4384 0.12838 -0.77964 -0.11507 0.50606 -0.10482 -0.9282 1.3276 0.61687 -0.63884 -1.0899 0.28113 -0.52602 
niacinsr -1.6537 -0.7348 -0.79186 -0.97155 0.94439 1.3542 -1.539 3.2589 2.0753 -1.788 -0.95435 -0.19529 -1.3216 
rifampin 0.4413 -0.21273 -0.23601 -1.0604 -0.68842 0.53341 -0.17912 -0.33778 0.084101 0.23278 -0.93968 0.66782 -0.057418 
qvar -0.47435 -3.1599 -1.0496 -1.3579 -0.87723 1.8137 -0.54867 0.12643 -1.0668 1.0871 0.93341 -0.76433 -2.533 
potassiumchl40meq/1000mld5w 0.48953 1.1947 0.98538 -0.83769 0.45028 -0.11671 2.4661 0.26641 -0.072468 0.92376 -0.47072 -0.28089 -0.068797 
mirapex -1.2609 -1.303 -0.53211 0.1549 0.7758 -0.28098 -0.91755 0.46025 1.1293 0.32526 -2.2241 0.32553 -0.22785 
propranololhcl -2.6154 -0.67991 0.73137 1.3075 1.0458 -2.2997 1.4544 -0.99069 -0.07364 1.0012 -1.5817 0.33905 0.096323 
desitin -1.2339 -0.083602 1.5238 0.93935 1.0933 -1.7871 -0.021019 -2.2418 -0.83933 1.6063 -0.91716 0.34543 0.85688 
lanthanum -1.4085 1.1736 -0.84704 -1.5498 0.13983 -1.2675 -1.8561 0.7134 -1.9179 -0.14223 -1.9222 1.9995 -0.49672 
nystatin 0.72506 -0.11566 0.16592 -1.3749 0.19626 -0.0067895 0.016652 -0.76236 -0.13251 0.49141 -0.80801 -0.36493 -0.57473 
mupirocincream2% -0.64834 -0.37657 -0.65806 -0.8272 -0.47877 -0.38909 -0.59115 0.20594 0.18672 0.10183 -1.0275 0.9487 -0.031211 
nystatinointment -1.1272 -1.0016 -0.24988 0.063373 1.1324 -1.8338 -0.65142 -1.5632 -0.58049 1.0905 -1.0708 0.94109 0.76665 
timololmaleate0.25% -1.5871 0.13855 -2.7581 0.45464 -0.49096 0.33362 -1.663 1.1073 0.29893 -0.6605 -2.4256 1.1478 0.03377 
cinacalcet -0.31731 1.026 -0.79676 -3.1245 0.66764 -0.26541 -2.1048 2.0556 -1.5638 -1.3712 -2.3716 2.4279 -1.8928 
namenda -1.7004 -0.45077 -1.9755 0.18483 1.3041 0.12166 0.21482 0.46497 -0.46278 -0.51775 -3.0119 -0.20794 -0.79819 
potassiumchl40meq/1000mld5ns 0.17688 1.1255 -0.62929 0.61959 -0.21309 -1.1524 3.6752 0.18614 1.55 -0.040918 -0.75904 0.21771 0.062994 
nicardipinehcliv -0.73973 1.3853 -2.9369 2.2078 -0.41817 -0.84918 1.5616 -2.4923 -0.98647 -0.6126 1.5509 1.2054 2.0936 
syringe(ns) 4.0518 -1.1818 1.2159 -0.85892 -0.072065 -0.34427 0.99565 -2.5374 2.092 -1.1123 -0.74662 0.63388 -2.9612 
ciprofloxacin0.3%ophthsoln 0.74177 0.41759 -1.9345 -0.33555 -0.048718 0.1321 1.7155 0.32696 -0.23542 -0.77368 -1.3664 1.8415 -0.2349 
levetiracetamoralsolution 2.7897 1.2126 -1.5115 -1.5221 1.4703 1.3393 1.6672 -0.65344 -0.88802 -1.8579 -0.5311 0.65445 -0.42271 
lithiumcarbonate -0.49192 -1.3892 -1.5479 -0.032731 0.55692 -0.17955 0.24692 0.14085 0.37467 -0.29608 -1.6056 0.26838 -1.4234 
dorzolamide2%ophth.soln. -2.5671 -0.63779 -3.09 -0.027448 -0.3545 0.18867 -1.9432 1.0083 -0.56128 -0.66957 -2.1918 0.86546 -0.78187 
hydroxychloroquinesulfate -1.3984 -0.48486 -0.60257 -1.2574 0.98681 -0.98592 -0.36426 1.3952 0.54224 -0.49867 -1.6324 0.50424 -1.0378 
fatemulsion20% 0.19271 0.42094 1.1757 0.94955 0.69225 -0.20529 1.0155 -2.095 -0.66123 1.1863 0.99593 0.078057 0.95342 
docusate 0.4054 -0.066292 -1.3873 -1.461 -0.1059 0.54162 0.62608 2.2697 1.0852 -1.2704 -0.20174 1.1629 -1.3633 
rocuronium 1.5856 0.34993 -0.42056 -1.143 -0.8162 2.3507 0.68883 -0.56652 -2.1565 -0.30186 1.2279 0.32381 -1.5101 
heparinflushcrrt(5000units/ml) -0.0038325 1.6918 1.2354 -1.0089 -2.4397 0.52486 -0.87532 -0.8799 -2.485 1.5187 0.16659 2.0914 0.25564 
clotrimazolecream -0.089251 -0.6028 -0.56627 -0.63868 0.85843 -0.53515 -0.12318 0.12308 -0.19265 1.0668 -1.1769 -0.018013 -0.72321 
papain2.5%solution 0.68818 0.26585 0.47743 -0.81336 0.34646 -1.1089 0.14069 -2.3223 -1.0804 1.4639 0.97425 -0.010541 0.75324 
silversulfadiazine1%cream -0.0053979 -0.71927 -0.5571 -0.12039 -0.62714 0.2443 0.13216 -0.40343 0.50687 0.79874 -0.67735 0.34162 0.070306 
magnesiumsulfatereplacement(oncology) 0.19102 0.92526 1.2519 -1.8291 -1.6582 -2.5586 2.5356 -0.47783 2.4504 1.7998 -0.96909 0.49784 1.8164 
mesalaminedr -1.6606 -0.41077 -0.16599 -0.071307 0.43578 -0.65207 -0.37972 1.373 1.5766 -0.020318 -0.93812 -0.4572 -0.91573 
atovaquonesuspension 0.10952 -0.39948 0.13176 -2.3523 -0.31537 -1.8965 0.61234 -0.34019 -0.31194 0.91832 -1.5364 1.0746 -0.7443 
heparin(iabp) -1.4265 0.1697 0.95937 -0.39765 -1.9003 2.3381 -0.72886 1.0892 -0.45787 0.6559 0.0065738 -0.26179 -0.85371 
dipyridamole-aspirin -1.7872 0.00020175 -1.2643 0.19994 0.19899 -0.85943 -0.089177 0.3446 0.52441 -0.67718 -0.27171 -0.050026 -0.064948 
mannitol 0.39798 -0.048309 -2.9793 1.3642 -1.7862 0.43191 2.1714 -2.3283 -0.82983 -0.84525 0.97444 2.7756 1.6376 
paricalcitol 0.39662 2.4293 -0.31653 -1.8152 0.26953 -0.57833 -2.1763 0.72858 -1.7436 -0.19496 -2.2526 2.7226 -0.59444 
amikacin 2.0102 0.13513 0.86216 -0.93007 -0.23408 0.82396 -0.14918 -1.1976 -0.56748 1.7863 -0.098013 0.43583 -0.032859 
zonisamide 0.69781 -0.15246 -2.6224 0.1032 1.6268 0.085527 2.1013 0.38876 0.23818 -1.3869 -2.1938 1.2213 -0.40016 
cyclosporine(neoral)modified 0.86808 1.8355 0.78601 -2.5722 -0.048851 -1.4874 -0.4991 1.375 -0.5792 0.4373 0.083201 1.6695 -1.1696 
beclomethasonedipropionate -0.44272 -2.6713 -0.84397 -1.6489 -0.69265 1.8276 -0.50862 0.76811 -0.85931 -0.3177 0.88645 0.18513 -2.8664 
diphenoxylate-atropine -0.38008 0.3402 0.81582 -0.064068 0.50178 -1.2963 0.67397 0.029905 1.12 0.83097 -1.8383 0.46345 0.15634 
clotrimazole -0.52528 -0.66731 0.05925 -1.2148 -0.10169 -1.9504 0.21072 -0.08548 0.12767 1.4803 -1.4658 1.1858 -0.1182 
fentanylpca 0.61221 -0.40339 0.29867 0.37342 -0.91098 -1.9663 1.2562 -1.1585 2.1963 0.038442 0.39424 0.58283 -0.7415 
ropinirole -0.8624 -0.33442 -0.58315 -1.4217 0.90991 0.54215 -0.44425 2.0377 0.74248 -1.2 -2.2742 -0.40612 -2.3326 
advairdiskus -2.0721 -1.8335 -0.83436 -1.0529 0.44104 -2.18 -1.2682 0.27004 1.3658 0.74986 -0.33437 -1.0593 -1.2359 
