1286 13
OTHER -0.59705 0.091897 0.53726 0.58885 0.40292 0.1694 -0.55844 -0.057469 0.6057 0.51253 -0.77299 -0.31409 0.10321 
</s> 0.4859 0.15115 -0.55161 -0.73098 0.90058 0.72498 -0.26727 2.5818 0.61554 -0.63272 0.56663 0.19061 1.3331 
4019 0.86797 0.60591 -0.24035 0.32069 0.081537 -0.74051 -0.1832 0.78809 -0.79785 0.26999 -1.0921 0.84017 0.24225 
4280 1.4532 0.23299 -0.74721 0.35947 -0.71213 -1.6627 1.811 -0.97345 0.14841 -0.56425 -0.16756 0.64798 -0.56879 
3893 -0.99294 -1.0154 0.49269 -1.2538 0.88699 0.60457 0.4195 2.0872 1.6324 -2.0196 0.37063 0.45022 0.67875 
41401 1.5298 0.97656 -1.3454 0.79432 0.83838 -1.3957 1.0624 -0.16389 -1.1744 -0.3626 0.12584 0.91638 -0.19816 
42731 1.7359 0.64487 0.045159 0.12311 -0.46991 -1.9719 0.94482 -0.38685 -0.11621 0.21221 -0.41187 -0.25001 -0.67696 
5849 -0.26729 1.4652 -0.028997 0.48998 -1.6223 -0.98998 1.7339 -1.9381 0.25721 0.71908 0.33706 1.3571 -0.73094 
25000 1.1051 -0.070301 -0.36567 0.49356 0.19348 -1.1733 0.76325 0.55853 -0.31528 0.059206 -0.67886 0.36317 -0.10107 
2724 2.0583 0.28947 0.39477 1.1611 1.4757 -1.2767 0.47725 0.52947 -0.99911 0.26965 -0.48966 1.2097 -0.58352 
9604 -0.42728 -0.64183 -0.28504 -1.0673 -0.58549 1.3055 0.50395 2.3219 1.624 -1.6535 -0.21991 0.14875 1.1855 
966 -0.87173 -1.425 0.97937 -1.9698 -0.086996 0.23573 -0.30246 3.006 2.2194 -1.5983 -0.39909 -0.55212 2.1361 
9904 -0.52238 -0.044146 -0.86824 -1.9607 1.468 -0.16906 0.22874 2.5712 1.5401 -1.1808 1.4457 -0.17126 0.93527 
5990 -0.3325 0.58985 0.83196 0.19127 -1.5629 -1.0631 1.178 -1.5911 0.11857 0.09191 -0.52457 0.80564 0.051244 
51881 -0.31292 1.065 -0.062193 0.30718 -3.2327 0.039402 1.8851 -1.9635 0.3849 -0.13343 -1.0964 0.21547 -0.038256 
9671 0.34531 -0.75077 -0.44252 -0.47236 -0.31017 1.5829 0.48318 2.2459 1.3614 -1.5182 -0.28589 0.33342 1.1898 
53081 0.90921 0.31255 -0.34069 0.66892 1.3171 -0.42763 0.088913 0.6494 -0.58667 0.090828 -1.1003 1.0982 -0.95149 
3961 3.2838 1.9608 -2.9364 -0.50096 2.3222 -1.0766 -1.4869 1.8908 0.60527 -1.6319 0.80467 -0.1886 0.91263 
311 0.071633 -0.58156 0.18196 0.29418 0.71558 0.29386 -0.65381 0.9701 0.62627 -0.5693 -1.2828 1.0634 0.32514 
2859 0.64555 0.0025974 0.11689 0.30811 0.77272 0.12667 0.34717 0.33061 0.37833 -0.2493 -0.46296 1.1382 -0.55183 
2720 1.3252 0.55933 -0.69222 0.35324 0.66825 -1.0958 0.373 0.66508 -1.212 -0.63768 -0.31501 0.5599 0.65319 
9672 -0.68929 -0.8766 0.27805 -1.23 -0.38836 0.71539 -0.28103 2.1693 1.8857 -1.9959 -0.59716 -0.70884 1.5726 
2449 1.4041 -0.2614 0.4365 0.16773 0.62549 -0.82018 0.35632 0.43051 0.26313 -0.1581 -1.0328 0.90707 -0.78173 
8856 2.5862 1.2715 -2.0475 0.036963 1.9786 0.32153 1.1374 2.5011 0.1221 -1.4844 2.7033 -0.66605 1.8266 
3995 0.047828 -2.1306 -1.0019 -1.0443 3.1215 0.67826 2.087 0.22477 2.595 -2.7507 1.2891 -0.027107 0.022925 
486 0.24186 1.18 -0.13426 -0.020809 -1.8036 -0.33544 1.3837 -1.8399 -0.0013456 -0.19706 -0.74982 0.21179 -0.49805 
2851 -1.0661 1.0413 -0.57895 0.53338 -0.37682 -1.9602 1.1117 -1.0519 -0.19105 2.413 0.19101 0.09675 -0.37048 
496 0.50027 0.055753 -0.45042 0.63303 -0.84162 -1.3545 0.97929 -0.27374 -0.46605 0.048064 -1.251 0.090665 -0.016161 
2762 -0.48636 0.93672 0.03664 0.6813 -1.3547 0.08068 1.3616 -1.5688 0.50198 0.69549 -0.70534 0.75517 -1.3004 
3615 2.8197 2.3803 -2.8957 0.13352 2.3294 -1.2873 -1.1824 1.848 -0.62745 -1.494 0.95364 0.7433 1.1144 
V5861 2.1468 -1.2325 1.0629 0.17739 1.7546 -1.3926 1.3391 0.89579 0.068192 0.2507 -0.6633 -0.20039 -0.7452 
3891 -0.24743 -0.94426 0.18272 -1.0565 -0.0076976 1.1495 0.53072 2.5225 1.9965 -1.7829 0.43564 0.19852 1.2911 
40391 -0.41194 -0.12018 -1.4859 0.34227 0.99598 -1.1534 2.796 -3.9427 0.43871 -1.1964 0.45285 0.28628 -0.65463 
5856 -0.25611 -0.42614 -0.79178 0.47372 1.7324 -0.45904 3.2263 -5.0484 0.47117 -1.0808 -0.095249 -0.00027587 -1.1266 
3051 0.74927 -0.38899 -1.2872 1.4036 1.4075 0.92248 -0.081817 0.90195 -0.30973 0.84286 -1.5668 0.19839 0.1128 
412 1.6489 -0.1811 -0.11226 1.1778 1.426 -1.7501 0.97771 0.68599 -1.0686 -0.63449 -0.46276 0.77783 -0.57737 
8872 1.6597 -0.069724 -1.3975 -1.603 1.3607 -0.27641 -0.45057 1.8706 1.9858 -2.5409 0.8788 -1.1676 1.0967 
5070 -0.90982 0.88461 0.16883 0.13774 -3.5044 0.081815 1.2611 -1.2351 0.20024 0.34764 -1.0183 0.58276 1.273 
5859 1.7871 0.24404 0.18957 0.52201 0.50589 -2.1755 1.401 -0.39039 -0.21972 0.99305 -0.26887 1.5965 -1.2304 
40390 2.5243 -0.069023 0.91084 0.68947 1.2123 -2.6066 1.3615 -0.66728 -0.005762 1.3306 -0.083069 2.0307 -1.3796 
99592 -0.97253 0.52379 2.3086 -0.087415 -1.7497 -0.9166 1.5413 -1.3657 1.242 -0.25154 -0.15401 0.78595 -1.2075 
2875 0.26073 0.09459 0.25503 -0.096074 0.55446 0.095484 0.85974 -0.92951 1.1107 1.6335 -0.06437 0.30533 -0.94576 
9915 -3.5654 -0.66908 0.61407 -1.8491 1.0721 0.48648 0.15729 3.259 1.894 -1.4923 0.016956 -0.57519 0.063732 
3722 2.4093 1.4247 -1.6466 0.93195 2.4992 -0.39501 0.68134 1.9795 -0.60522 -0.69024 2.3719 -0.27632 1.6274 
V5867 0.77508 -0.97782 -0.2969 1.1778 2.5696 -1.3731 0.35813 -0.071101 0.35234 -0.64498 -0.49375 2.8973 -0.86021 
32723 1.6758 -0.42533 -0.3218 1.0736 1.2612 -0.7534 -0.30213 0.042853 0.53157 -0.5056 -2.2518 1.4952 -2.0844 
2761 -0.30565 1.0822 0.33518 0.33069 -0.92554 -0.042871 0.8457 -2.3811 0.58937 1.3939 -0.50237 0.67468 -0.78515 
4513 -1.3081 -1.0755 -0.85663 -2.091 1.4179 -0.36294 1.25 3.1588 1.8002 1.0501 0.62819 1.5291 0.29901 
41071 0.64432 2.1889 -1.1142 0.18431 -1.4957 -1.9486 2.2188 -1.4344 -1.2749 -0.031736 1.3073 0.49955 0.64432 
0389 -1.7518 1.5388 1.5591 0.066801 -3.3017 -0.88599 2.2427 -1.9786 0.48049 -0.059373 -0.14255 0.6945 -0.84887 
4240 2.0556 1.1804 -1.3769 0.2733 -0.053403 -1.1782 1.147 0.0096652 -0.18487 -0.086267 -0.089163 0.22844 -1.0231 
V4581 1.2938 -0.73032 0.074844 0.35656 0.79623 -3.1153 0.88695 0.73535 -0.060061 -0.62503 -0.19957 0.60301 -0.10966 
5119 -0.2971 1.6349 -0.21046 -0.42158 -1.4704 -0.86375 0.048939 -1.6096 0.36367 1.1507 -1.0316 -1.1303 -0.77827 
V4582 1.7787 -0.081708 -0.24018 0.7576 1.8626 -2.0309 0.66134 0.50371 -1.0365 -0.42889 -0.25179 0.68097 -0.39544 
3324 -0.25589 -0.65537 0.78026 -2.2001 0.31153 1.3722 -1.0069 2.3475 2.0494 -2.0876 -1.2318 -0.95053 0.95577 
V1582 2.0214 -0.34501 0.11838 -0.24704 2.851 -0.72983 -0.47632 1.6004 -0.67408 0.184 -1.4345 0.30188 -0.48358 
49390 0.52137 0.28827 -0.89128 -0.04461 1.4583 0.3894 -0.67772 -0.10566 -0.073792 -0.11201 -1.3906 1.6176 -0.31726 
3723 2.0807 1.1564 -2.1993 0.1739 1.2708 0.14452 1.5342 1.9553 -0.12517 -1.3835 2.2542 -0.75318 1.4283 
2767 0.80259 -0.45332 0.36564 1.0376 1.656 -0.23522 1.6802 -1.7664 1.0324 -0.018582 0.22007 0.77024 -1.7853 
4168 2.7664 0.21886 -0.41313 0.057944 0.57567 -1.109 1.1352 0.058555 0.60613 -0.18212 -0.6967 1.0733 -2.1771 
4241 2.286 1.3785 -1.2664 -0.18157 -0.13402 -2.273 -0.080208 -0.15859 -0.47027 1.099 -0.91439 -0.21911 -0.28145 
42789 1.3893 0.12011 0.40998 0.86911 0.27056 0.075796 0.29354 0.44946 0.2745 0.069571 -0.5825 0.5445 -0.4762 
3572 0.27901 -0.65465 -1.4891 0.60799 2.2595 -2.5319 0.71273 -1.2183 1.1465 -1.7472 0.56757 3.9035 -0.14612 
9971 1.0771 2.6609 -1.4081 0.08961 0.37033 -1.7915 -0.011621 -0.66251 -0.72578 -0.078289 0.68772 -1.844 -0.58288 
4254 1.1476 0.021073 -1.1564 0.8747 -0.45439 -0.49847 2.7629 -2.1674 0.30228 -0.13412 -0.10945 -0.63152 -0.77197 
28521 1.2663 -1.1109 0.29352 0.4951 3.0992 -0.76229 2.0034 -1.4907 1.1195 -1.3282 0.33631 1.3107 -1.914 
5180 -0.4395 1.1677 -0.16641 0.56473 -1.1259 -1.0941 -0.43231 -1.2276 -0.27926 0.81245 -1.9275 -0.64291 -0.69031 
4589 0.66276 -0.13613 0.58502 0.34912 -0.097841 0.12067 0.91893 0.28985 0.6157 0.31831 -1.0404 1.1161 -1.1942 
45829 1.4896 0.72459 -0.11797 1.2161 1.8965 -1.1497 -0.75766 -0.15342 -0.30256 0.16537 -0.75172 -0.33592 -1.191 
78039 -0.31123 0.073838 0.059997 0.38626 -0.77834 1.0642 0.63423 -1.2011 -0.1824 -0.19243 -0.98505 0.8775 1.4482 
2760 -0.46099 0.53359 0.95015 0.36288 -2.4819 -0.9295 0.81653 -1.8683 0.62872 1.2381 -1.459 1.2379 -0.054097 
V1251 1.5923 -1.908 1.8009 0.95638 2.3984 -0.18543 1.3861 1.0421 -0.073385 -0.65473 -1.5713 -0.076899 -1.1876 
5185 -1.4423 1.9225 -0.22997 -0.59049 -2.0897 -2.1375 -0.26395 0.15786 -0.20345 0.66884 -0.46891 -1.9221 0.33838 
78552 -1.3595 1.6005 2.3904 -0.2264 -3.4142 -0.96966 2.3436 -2.1054 1.121 -0.16449 0.053179 0.73541 -1.1383 
8853 1.8964 2.193 -3.2907 0.021438 1.3282 0.21748 0.36558 2.3214 -0.3438 -1.6604 2.1359 -0.50444 2.139 
2749 1.6563 0.057432 0.081883 0.52163 1.4568 -1.4527 0.83888 0.44177 -0.48696 0.30917 -0.34779 0.75749 -0.96329 
07054 -1.5773 -0.52073 -1.9738 1.0357 0.51411 1.4593 1.2579 -1.6694 1.7614 1.5638 -0.9229 0.11063 -0.30788 
9907 -0.50055 -0.12054 -0.63487 -3.0187 1.685 0.72034 -0.38242 2.8529 2.5125 -0.63219 1.3403 -0.19559 1.3716 
73300 1.6311 0.23986 1.2791 0.12723 0.35157 -0.65955 -0.086522 1.0804 -0.41284 -0.089383 -1.4205 1.3943 -0.77719 
5845 -1.1484 2.3314 0.11997 -0.5573 -2.0174 -1.0756 1.1998 -2.8825 0.65325 0.42138 0.72037 -0.90338 -0.47151 
2765 -1.9428 2.133 -1.138 -0.11789 -1.8682 0.5439 0.84508 -0.07581 0.27167 -1.4653 0.39556 1.6812 -0.27461 
7907 -1.2264 -0.090315 -0.12363 0.077218 -0.71606 -0.89284 0.8957 -3.2483 1.0209 0.22642 -1.121 -0.76325 -0.050311 
3895 -0.67753 -2.0861 0.023187 -1.6571 3.0511 0.38567 2.0634 0.32995 2.7729 -2.933 1.3462 -0.3225 -0.42595 
9390 1.2804 -0.80427 -0.49439 -1.0491 0.27318 1.3038 1.4092 2.8572 1.1684 -3.4268 -0.9313 1.2719 -0.75391 
5363 -1.9721 0.29805 -1.9706 -0.34953 2.8011 -0.14225 1.6886 -1.9564 -0.42137 -2.3655 -0.43227 5.2625 0.24922 
3612 2.6549 2.4741 -2.5645 -0.42617 2.203 -1.0342 -1.0944 1.5174 -0.69179 -1.3591 0.99031 0.57109 0.98687 
4271 1.2102 1.3839 -0.72904 1.3574 -1.2606 -1.5399 1.8473 -1.0999 -0.53525 0.49484 0.58106 -1.1566 -0.17723 
0331 -0.6987 -1.0479 1.6703 -1.2817 1.0424 2.9512 0.28299 0.73076 1.4449 -1.2537 -0.22867 1.3337 2.3601 
49121 1.6031 0.52232 -0.12772 0.9904 -3.0454 0.16282 2.4189 0.29845 -0.8268 -0.60553 -2.7788 1.2745 -1.0278 
99811 -0.35868 2.0951 -1.256 0.17633 0.54192 -2.2249 0.17646 -1.7055 -0.22788 1.2166 0.017069 -2.3641 -1.5324 
E8798 0.18495 -1.5036 1.2053 -0.29372 1.9297 -0.67905 -0.45859 -0.15022 0.96743 0.7623 -1.7922 -0.95109 -0.15335 
30000 1.4677 -0.3003 -0.10646 1.0504 1.2824 1.1143 -0.026793 1.3108 -0.23094 0.43706 -2.031 0.67096 -0.83282 
4311 0.052831 -0.90673 1.2919 -1.3704 -0.65639 0.72578 -1.0694 2.3658 1.5931 -2.1649 -0.77844 -0.020378 3.4549 
27651 -0.37016 0.51876 0.97065 0.61826 0.4289 -0.11937 0.83785 -0.56385 -0.13153 1.2259 -0.71742 2.2489 -1.2242 
9920 1.3674 1.866 -1.7145 0.62704 1.4724 1.0841 2.7699 2.7335 -0.47339 -1.0415 4.0237 -0.59589 2.6928 
4111 1.6073 2.9191 -2.6693 0.74034 1.3481 -1.8901 -0.10027 -0.28176 -1.8488 0.087167 0.64957 0.30642 0.037509 
27800 1.8631 0.14775 -0.55689 1.1865 1.1735 -0.64926 -0.75918 0.69911 -0.085393 -0.086728 -1.5885 0.87988 -0.9563 
3491 0.047479 0.053972 0.050818 -2.3761 0.7434 0.72262 -0.72512 2.294 2.5463 -1.312 0.23268 -1.4548 0.16467 
4439 0.73453 -0.58672 -0.33663 0.32233 1.6525 -1.7742 0.95238 0.42571 -0.33144 -0.57005 -0.063682 0.72163 -0.19073 
42832 1.0511 0.39436 -0.066121 0.56897 -1.0197 -2.189 1.9168 -2.076 -0.11004 0.3535 -1.281 1.3861 -1.6387 
25060 0.51241 -0.5373 -0.99235 0.12144 1.4055 -3.3289 0.56076 -1.5154 1.33 -1.1358 0.38281 3.1055 -0.55051 
36201 0.091255 -0.48037 -1.0355 0.16641 3.7512 -2.4934 0.45032 -1.2781 1.4785 -1.8564 1.1627 4.1048 -0.90403 
00845 -1.4915 0.26072 1.0328 -0.19984 -1.7965 -1.371 1.4175 -1.8683 0.17434 0.28169 -0.8614 0.21874 -0.028406 
0040 1.5359 -0.39416 0.11951 -0.094441 4.0765 -0.25591 2.3703 1.7191 -0.12688 0.075838 3.4547 -1.1626 3.0436 
3004 0.85256 -0.98067 -0.028873 2.4557 1.6931 0.99642 0.42852 0.76266 0.42485 0.32956 -1.6439 0.90087 -1.0982 
2809 1.1239 -0.5523 -0.12197 0.99665 0.89949 -0.070949 0.90702 0.44455 0.26468 -0.048414 -1.2287 1.4419 -1.4038 
28529 0.61304 -1.3124 1.194 0.8664 0.64785 0.10601 0.54299 0.19127 1.3814 -0.54279 -1.7693 1.6464 -1.736 
2768 -0.16988 -0.022163 1.1113 0.80287 0.64693 1.099 0.27889 0.11579 0.80807 1.3404 -0.96044 1.5637 -1.0889 
27652 -0.028641 0.31277 1.2351 1.2161 0.24562 -0.43354 0.78467 -0.27269 0.12202 0.9664 -0.55599 1.4705 -1.4471 
2930 0.14847 0.82331 1.0876 0.93342 -1.0711 -1.105 0.11947 -1.3441 0.24026 1.2106 -0.92825 -0.027695 -0.42554 
5789 -1.3793 0.74868 -1.0406 -0.25046 -0.77707 -1.2198 2.6053 -1.0031 -0.28152 1.9752 0.43623 0.9055 -0.26444 
42833 1.8624 0.97646 -0.18411 0.27375 -1.9658 -2.0817 2.2625 -1.9268 -0.049489 -0.46438 -1.3472 1.4271 -1.9005 
3613 2.6389 1.9821 -2.5028 0.22706 2.3807 -1.422 -0.87377 1.2978 -0.5775 -1.3084 1.1152 0.62672 1.0284 
41400 1.3216 -0.7435 0.23935 0.77353 0.18901 -2.9246 1.013 0.5362 0.15987 -0.30107 -0.75249 0.83809 -0.56339 
99662 -2.3797 -0.57002 -0.23326 -0.33768 -1.2842 -0.45851 3.0185 -3.2276 0.68023 -2.0494 -0.47653 -1.7842 0.31769 
25061 -1.4438 1.9252 -1.5507 -1.2758 1.5317 -0.12078 1.4786 -1.6738 -0.21309 -4.1629 1.1944 3.7302 -0.19285 
99591 -1.1441 -0.26979 2.0961 0.26952 -1.1344 -1.2212 1.8747 -2.029 0.77036 0.27382 -0.68979 0.55351 -0.78794 
5491 -2.2914 -1.0915 0.60374 -1.9604 2.1234 0.12394 0.33169 2.338 3.6855 0.59058 0.61355 -0.41796 -1.4242 
3404 -0.16692 0.66391 -0.47073 -1.8139 0.50073 1.1049 -1.7976 3.1068 2.1521 -1.4877 -0.35513 -2.5894 1.0877 
3897 0.94939 -2.0346 2.1665 -0.4194 2.4242 0.38653 -0.47534 2.5682 2.6941 -0.45647 -0.3438 0.61898 -0.40598 
27801 0.77626 -0.10708 -0.86769 1.4654 0.45179 -1.6457 -0.46512 -0.056044 0.63979 -1.3577 -2.3828 1.9365 -2.3903 
5715 -0.94669 0.15183 -1.9619 -0.53152 0.96015 0.33086 0.3914 -1.8037 2.5047 3.0973 -0.87664 0.28458 -1.4244 
3521 3.6168 1.3182 -1.9265 -0.75731 1.8328 -1.7631 -1.5705 1.5748 0.54083 -0.092294 -0.19265 -0.616 0.66784 
2639 -1.6225 0.81372 1.2762 -0.079732 -1.5203 -0.66461 0.48166 -2.324 0.48184 1.9233 -1.2495 -0.15314 -0.024426 
5712 -1.3499 0.61123 -1.6265 -0.34065 -0.28141 0.29434 0.7076 -1.3669 3.2317 4.5469 -0.19068 0.51152 -0.57959 
60000 2.1026 0.37824 0.63186 0.33395 0.95715 -1.4542 0.18768 1.2651 -0.67761 1.0162 -0.78892 0.53377 -0.54417 
99812 -0.36656 1.5125 -0.071477 0.60482 0.72934 -1.7034 0.73332 -1.9507 -0.75387 0.73189 0.57865 -2.1706 -0.33656 
79902 1.2979 0.23232 1.1218 0.63387 0.31499 -0.21474 -0.23815 -0.40132 0.3939 1.1859 -2.0321 1.2403 -1.6211 
70703 -0.35448 -0.52754 3.4733 0.67674 -1.1273 -3.4819 0.571 -1.6063 1.567 0.032541 -0.91738 0.93474 -0.81246 
25040 0.71275 -0.98692 -1.7187 0.077623 1.7287 -2.6567 1.8037 -1.9549 1.687 -1.092 0.85357 1.5544 -0.77693 
99859 -2.639 2.3532 0.52606 1.2381 -0.8029 -3.4604 -0.76091 -2.4751 -0.39463 -0.035015 -0.55599 -1.2834 -1.0494 
E8788 -0.057499 0.35454 0.70458 0.52558 1.7709 -1.7725 -1.6888 0.45465 -0.34167 0.65969 -1.5417 -0.83217 -0.6644 
78791 0.62849 -0.152 1.6901 -0.20701 1.9202 0.74907 0.1631 -0.45794 0.99296 0.47167 -0.68728 1.5945 -1.7789 
42823 2.1711 0.82809 -0.57246 1.4861 -1.6736 -2.0433 2.8781 -2.7774 0.31191 0.947 -0.15818 0.13735 -1.2901 
42732 1.5891 1.1932 -0.50886 0.46159 -0.94229 -1.5817 1.4137 -1.5879 -0.37666 0.51462 -0.67404 -0.89499 -0.95408 
E8782 0.84431 0.34021 -1.0651 0.64951 2.8169 -2.938 -1.3413 -0.38829 0.015334 0.16892 -0.77332 -1.0031 -1.0258 
29181 -0.70792 0.57408 -1.9602 2.3588 -1.5072 2.4028 1.1237 -0.86828 0.88924 3.5708 -1.8375 0.426 0.94714 
8841 0.26625 -0.84082 -0.035541 -1.2602 1.9961 1.4177 0.20771 1.3758 -1.0446 -0.31186 -0.77914 -0.13575 5.0423 
2800 -0.36735 -0.042674 -1.0469 -0.49967 -0.25778 -1.3012 1.7181 0.083564 0.53016 1.9864 -0.065412 0.88264 -0.23823 
V4501 2.5325 -0.22666 0.42206 0.015836 0.20785 -2.4991 0.86962 1.2603 0.098701 0.094039 -0.11076 0.41004 -0.11514 
5723 -1.7121 0.44001 -1.3059 -1.1825 0.51918 -0.37734 0.94462 -2.3889 2.7198 4.8769 -1.3028 0.31387 -1.5611 
42822 1.0358 0.069475 0.063684 2.1754 -0.25647 -2.3804 2.5192 -2.0252 -0.33469 0.57466 -0.0057979 0.45531 -1.3523 
42830 0.38656 0.39623 -0.74767 -0.1586 -1.4256 -1.3109 2.0358 -1.0835 0.056383 -1.4282 -0.44068 0.83655 -0.622 
0066 2.4854 0.62028 0.64993 1.83 2.9192 0.15806 2.8552 0.81908 -1.3265 0.46656 2.7573 -0.30444 1.0664 
3322 -0.80761 -0.32474 -0.51144 -1.904 -0.38561 0.70588 -1.1893 2.5678 1.2984 -2.8342 -2.2904 -1.0728 0.96194 
58381 -0.2675 -0.22835 -0.83255 0.040975 3.3264 -0.89713 0.97527 -1.7035 1.3702 -1.9116 0.92786 2.8525 -1.411 
V1046 1.4852 0.20508 1.2909 -0.25362 0.75261 -1.9967 0.47374 1.8451 -1.003 0.6834 -0.27884 0.27216 0.093699 
3606 1.6084 1.133 -0.42665 1.6394 1.1478 0.77069 3.1752 2.0099 -0.92317 -0.65733 3.4869 -0.86281 2.3373 
V5865 1.1637 -0.49102 1.9143 -0.53276 1.42 0.29296 0.42184 0.96404 0.17409 -0.79474 -2.1028 0.69942 -2.4392 
V1581 0.68107 -1.4785 -1.6838 1.4185 1.8817 1.5435 0.94161 -0.30037 1.4371 -0.44021 -0.99285 2.9837 -0.046625 
9905 -0.59517 1.2899 -1.0514 -3.6567 2.4236 1.2999 -1.51 2.2514 2.602 0.14266 1.6124 -0.62575 1.4701 
34590 0.78296 -2.0909 1.1934 0.87575 1.0415 0.28046 0.9296 -1.3273 1.0486 1.1514 -1.9783 1.4659 0.14576 
2763 -0.08263 0.62515 0.22713 1.1489 -1.8467 -0.40384 0.81752 -1.7034 0.19742 1.0685 -2.177 0.32458 -1.2121 
5601 -1.8779 1.8244 0.0055318 1.0997 -0.76086 -1.3268 -0.15767 -1.232 -0.03209 1.754 -0.92251 -0.93866 -1.7209 
V103 1.3536 0.72363 1.3871 -0.48157 0.93021 -0.25043 0.18303 1.5668 -1.5916 0.29145 -1.126 0.32771 -0.32075 
3607 2.2471 0.71804 -0.89408 1.658 1.9259 0.33199 3.3122 1.5738 -0.56086 -0.52193 3.3243 -0.053195 1.8113 
0414 0.31524 -0.14089 1.2646 0.032612 -0.19173 -0.84472 0.6391 -0.109 0.39624 0.66334 -0.64007 1.3868 -0.30233 
4139 1.823 1.7378 -1.2494 0.61641 1.2493 -2.033 -0.02088 0.30838 -1.4554 -0.31631 -0.032693 0.45497 -0.1059 
5770 -2.4428 1.7646 -0.83862 -0.023089 -2.2923 0.19304 1.5796 -0.91435 0.28995 1.9332 -0.67658 -0.099188 -0.97972 
3323 -0.33393 -0.2516 -0.49924 -2.0885 -0.30179 0.84129 -1.0177 2.502 1.4389 -2.7818 -1.8259 -0.95612 0.87155 
E8497 1.0743 -0.9926 0.63808 0.85187 2.0138 -1.1665 -1.4216 0.30452 0.94109 1.1726 -1.9165 -0.68433 -0.41925 
8964 -0.036039 0.57357 -2.0612 -1.652 0.51183 0.53977 1.3214 2.9855 2.1723 -2.3407 2.2646 -1.9834 0.5485 
07070 -1.1836 -1.3128 -2.4946 1.3003 1.2164 0.75832 1.1755 -2.5358 1.6505 0.95498 -1.3488 0.75762 0.061041 
99681 -1.7935 1.6731 -0.23338 -0.70166 1.1028 -0.25113 2.0305 -4.4653 0.47296 -1.6787 0.94297 0.55794 -1.9 
79092 1.9201 -1.2746 0.86062 -0.11175 1.4614 -1.2493 1.2201 0.39829 0.89533 0.84982 -0.79646 0.60152 -1.2829 
78820 0.85321 0.59623 1.2343 0.75868 -0.32158 -1.387 -0.26565 0.61831 -0.30176 0.52331 -0.38653 0.62004 0.23389 
V1254 2.2698 -1.1704 1.4044 0.69412 2.0433 -1.448 0.46095 1.351 -0.36383 0.59006 -0.93457 0.63642 0.15182 
7100 0.73887 0.26301 0.80724 1.7294 2.861 2.3472 3.265 -2.8706 0.33324 -1.3348 -0.9538 -1.1582 -4.0167 
3601 1.0057 2.1703 -2.3015 0.68203 -0.32746 0.075741 2.8599 1.7778 -1.2027 -1.6654 2.4394 -0.80699 1.9815 
40301 0.37089 1.0106 -1.6163 1.1702 3.9357 3.8928 4.1448 -5.1832 0.422 -3.4121 0.96652 0.87409 -1.6228 
33829 1.0151 -1.3597 0.78978 2.9927 2.7727 0.94866 0.54383 1.1992 0.79404 -0.049267 -2.0784 1.8529 -2.9616 
25013 -2.0611 1.123 -0.89166 2.538 1.1767 0.63601 1.3084 -3.322 0.50832 0.16989 0.21915 5.6972 0.0085775 
25011 -2.6159 4.4467 -2.439 0.42839 -0.29578 1.4117 0.41628 -0.92855 -0.17634 -2.2728 1.3503 5.6433 0.40073 
78959 -1.3677 1.2219 0.35009 0.023225 0.15453 -0.68037 0.86639 -3.6843 2.351 4.2198 -0.71303 -0.42215 -2.7281 
4523 -0.67415 -1.4835 -0.51838 -1.9904 1.7427 -1.3221 2.6767 3.9386 0.68429 1.1862 0.47247 0.92848 -0.24193 
5939 0.17326 0.92452 -1.6444 -0.6196 0.32987 -0.45729 0.92431 0.58555 -0.8447 -1.4808 0.11256 1.1608 0.50717 
30500 -0.49991 0.065427 -1.2148 1.911 0.19662 1.3384 -0.34968 0.14736 1.2078 1.2791 -0.17134 0.13095 1.5393 
3611 3.4404 1.9059 -2.876 -0.76946 1.8134 -1.0142 -0.80454 1.5271 -0.0257 -0.95644 0.56174 -0.15819 0.97552 
4148 1.9615 -0.44042 -0.7459 1.1384 -0.056262 -2.422 1.9008 0.969 0.76841 -0.40656 0.55413 0.027453 -0.85412 
56400 0.91983 -0.69998 1.921 1.3642 2.2012 0.69123 -0.20426 0.68731 0.68015 0.20488 -1.2117 1.4917 -1.6212 
6826 0.095419 1.1618 -0.58778 0.56759 -1.5912 -1.9004 0.5922 -2.7651 1.1355 -0.62911 -0.1842 0.96782 -0.65792 
56210 0.46402 -0.26904 -0.1083 0.31279 1.325 -2.1376 1.3547 2.2154 -0.61778 2.2982 -0.86513 1.474 -1.6026 
48241 -1.5542 0.54883 -0.20823 -0.25869 -3.994 -0.48806 1.2495 -1.1883 0.98965 -0.97753 -1.2302 -0.62703 1.124 
49320 0.87751 0.34987 -0.23112 0.7373 0.066235 -0.71319 0.47864 -0.21323 -0.6871 -0.44918 -1.9638 0.8514 -1.4143 
V4511 1.4445 -1.9496 0.73683 1.1387 3.7651 -0.95978 2.2419 -1.8759 0.54902 -1.0118 -0.52382 1.2218 -2.0987 
71590 2.4133 -0.0042315 0.81905 0.75594 1.5552 -0.74311 0.13611 1.8108 -0.6902 0.86563 -1.1419 1.1157 -0.63933 
9982 -0.90968 2.144 -0.6055 0.9338 0.2104 -1.986 0.23366 -0.73167 -0.93941 1.1562 0.41086 -2.82 -0.84763 
2869 -0.95398 0.89491 0.061079 -0.087005 -0.30743 -0.21702 1.0586 -1.8176 1.3684 2.0773 -0.108 -1.165 -1.4777 
25041 -1.763 2.6328 -1.8031 -0.78558 1.1978 -0.34669 1.5986 -2.4128 0.70252 -3.8119 2.4504 2.9339 -0.5514 
V090 -0.24184 -1.716 0.44803 -0.44102 -0.33871 -0.97419 0.51127 -0.54157 1.6478 -2.2099 -1.5573 0.30999 0.16686 
9974 -3.2667 2.6363 -0.15828 0.56247 -0.52039 -2.6348 -0.13235 -0.9503 -0.55661 1.7219 -0.85175 -0.97097 -2.1709 
8855 1.6828 1.8121 -1.4937 -0.69358 1.8007 0.0085353 2.131 1.9692 -0.041408 -1.0109 3.5592 -1.0537 1.1138 
431 1.2161 0.54169 1.5275 -0.31492 -1.2485 0.7054 0.83038 -2.606 -1.6499 0.62772 -2.1161 0.18439 3.5045 
V4502 2.6322 -1.1652 -0.19131 1.4323 0.68959 -2.5155 1.8442 1.5946 0.43269 -0.3877 -0.13874 0.026235 -0.72956 
3950 -0.96774 -1.9159 -0.87438 -0.36346 3.8438 -2.5549 1.7936 0.14348 -0.18391 -0.0073477 0.88136 -1.8739 2.3208 
3761 2.0529 2.2419 -2.5438 0.13687 0.33521 -0.40095 0.62745 1.6428 0.057995 -1.3548 2.3705 -0.99235 1.8997 
51882 -0.20784 0.68502 -0.67684 -0.50365 -1.7399 0.40469 1.4406 -1.2276 0.6809 -0.37259 -1.0613 -0.28201 -0.61683 
2948 2.0614 -0.40332 1.5464 0.23893 -0.87557 -1.4472 1.022 0.54938 0.20395 0.96077 -0.90712 1.6607 0.63138 
51889 1.7869 -0.75502 0.76953 1.269 0.72158 0.030642 0.72788 0.81344 -0.35492 -0.17409 -2.2509 0.52978 -1.1111 
0045 0.99239 -0.32096 -0.23543 0.34918 3.6058 0.48019 3.0092 1.8384 -0.35878 0.10117 3.5752 -0.97696 3.2961 
04111 0.017973 -0.97193 0.72779 1.0858 0.57327 -1.0951 -0.45391 -1.8735 1.4684 -0.87774 -1.3181 -0.23141 -0.35726 
0014 -2.4713 -1.1725 1.783 -2.2172 1.1665 -0.2397 0.3501 1.6538 2.9626 -2.5889 0.66674 -0.78805 0.17199 
28860 1.5252 -0.10998 1.1851 1.203 1.325 0.86639 0.36631 0.37794 -0.28011 1.6223 -1.7114 2.0371 -1.2924 
3970 2.419 0.99467 -1.7659 -1.1909 -0.54951 -1.5925 2.4839 -0.32861 0.90094 0.40483 0.6516 0.71249 -1.2367 
E8889 1.2043 0.35613 0.43289 2.5083 -0.87943 0.084938 -0.6243 0.2282 1.0408 1.2553 0.193 1.2589 1.9817 
41519 -0.58781 1.2624 1.5617 0.91698 -1.6082 0.63593 1.7769 -1.1183 -1.533 1.0384 -1.1729 -1.4554 0.015335 
78057 0.99876 0.31286 -1.136 0.099881 0.076831 -0.41096 0.33917 0.86177 -0.27511 -2.493 -1.558 0.85201 -1.1156 
3371 -1.8865 2.2212 -1.7003 -1.208 2.3241 0.38034 1.5884 -2.8783 -0.62493 -3.5005 0.80535 3.9735 -0.10289 
V440 -0.11 -3.7266 1.3536 -0.041866 -0.87534 -1.8909 1.6862 1.2544 1.4733 -1.3904 -3.7539 1.0501 0.21673 
5121 0.14998 2.2383 -0.60184 -0.55596 -1.2121 -1.2635 -0.83633 -1.2575 -0.47412 0.42635 -1.6365 -1.9223 -0.47147 
25063 -1.767 -0.5543 -1.1467 2.2797 3.0109 0.0083229 2.1899 -3.4473 0.61357 -0.97515 0.24059 5.6068 0.088633 
30391 -0.85824 -0.85395 -0.92716 1.1899 0.43982 1.7911 1.0014 0.13884 0.72312 3.1381 -1.5415 0.69587 0.58458 
4275 1.0154 1.6294 -0.71116 1.1822 -2.5173 -1.4079 1.2681 -1.5354 0.75541 -0.023884 0.75514 -2.413 0.44626 
78551 1.1085 2.8246 -1.0876 0.54179 -2.3026 -1.6087 2.3963 -1.912 -0.20863 0.37823 2.2091 -1.4128 0.86498 
V4365 1.6441 0.15791 0.47059 1.1079 1.6331 -1.3439 -0.48902 1.9252 -0.53729 0.49411 -0.74186 0.24632 -0.5246 
5781 -0.94158 0.22451 -0.11758 0.1054 -0.29094 -1.1705 2.7346 -1.1844 -0.14774 2.3419 -0.12802 0.20781 -1.0383 
4538 -1.9147 -0.023554 0.5151 -0.6064 -0.99873 -0.36203 1.806 -1.9307 -0.40291 0.16126 -0.82382 -1.8079 0.98538 
9962 1.8351 -0.028157 -0.42855 -0.81049 -0.31976 0.044202 0.49374 2.425 1.5135 -2.4944 0.62795 -2.0761 1.1875 
387 -1.5631 -1.0487 2.8442 0.55048 0.87405 0.6131 0.039094 2.2036 0.50801 0.31008 0.16783 -1.9971 2.2309 
5459 -4.1741 -0.3163 0.20637 0.63963 2.2859 -0.38634 -0.43062 3.7161 0.47491 -0.3834 -1.758 -1.3063 -1.7494 
43310 2.0512 0.31818 -1.2615 0.18325 1.8212 -2.8837 0.46786 -0.43387 -2.0665 0.66315 -0.64393 1.0569 1.6996 
570 -1.5686 2.4099 -0.08837 -0.34235 -2.2179 0.5178 0.67706 -2.4908 1.3583 1.71 0.97317 -0.50645 0.44313 
51884 0.8379 0.18379 0.54285 0.66685 -4.6426 -1.3941 2.1406 -1.2975 -0.009373 -1.4155 -4.5989 0.89883 -1.2597 
8847 -2.0331 -0.74717 0.30902 -1.9627 3.1016 -1.1108 0.82661 3.5561 1.1996 1.7098 2.0619 -1.4141 1.6556 
4516 -1.6892 -0.82842 -0.05279 -2.0173 2.6863 0.86689 1.6518 3.283 0.71801 0.21645 0.28196 2.2548 -0.67833 
V4364 1.6519 -0.042478 1.1782 0.88926 0.8523 -1.7648 -0.72024 1.6562 -0.28162 0.069625 -1.0781 0.56001 -0.26122 
0017 0.25954 -0.47141 0.30956 -1.6361 0.19503 0.86824 1.3604 2.6094 2.3055 -2.7893 1.4328 -0.36215 0.13541 
8842 0.70168 -1.2893 -1.3232 0.092916 2.4274 -2.2603 0.24934 2.7816 1.3905 -0.7517 1.915 -1.8354 3.1883 
3659 1.9197 0.16012 1.3747 0.31655 1.5295 -1.3672 0.72465 0.89479 -0.99404 -0.16018 -0.44689 1.8732 -0.56594 
E8780 -0.15587 -0.41884 0.53421 -1.6592 3.9847 -0.81132 1.1307 -2.6404 1.7344 0.055078 0.44301 0.3536 -2.6686 
3485 0.73348 1.066 2.5198 0.86127 -0.81898 1.5336 -0.21923 -2.5293 -1.7555 2.6984 -2.7681 -0.28198 3.3717 
E9320 1.0818 -0.74496 0.49841 -1.8131 2.142 2.4544 0.95388 1.3451 0.68315 0.57883 -3.6576 0.17111 -3.3346 
V1005 1.0501 0.41135 1.4982 -0.48264 0.97813 -1.8034 0.0020357 1.6178 -0.61684 0.47404 -0.30603 -0.2124 -0.30449 
4443 -0.72983 -0.58104 -0.70106 -2.1533 1.5553 -0.45683 2.7625 3.5492 0.98 1.569 1.48 1.308 -0.10955 
5853 2.4917 0.22522 1.1643 1.2909 0.80716 -2.5515 1.3804 -0.73678 0.30766 1.6418 -0.042694 2.361 -1.8434 
E9342 1.5907 -1.795 0.8976 -0.12442 1.0833 -1.8597 1.6843 0.75048 0.56306 1.2434 -0.77846 -0.62554 -0.11622 
V433 1.0981 -0.89122 0.187 -0.40877 0.75179 -2.3809 1.2088 0.76197 0.72153 0.67346 0.059774 -0.60594 -0.021677 
04104 0.4144 -0.74137 1.6645 -0.15335 0.76142 -1.2972 -0.35207 -0.95254 1.8163 1.4852 -1.4207 0.19298 -1.3507 
2766 -0.23363 0.41319 -0.26696 -0.070088 0.58344 0.099733 -0.084542 -1.0824 0.72371 0.29247 -1.0299 0.14109 -1.064 
2874 0.096775 0.62988 0.0083488 -0.90375 -0.35323 0.55285 0.55719 -1.3193 1.2203 0.88503 -0.35878 0.084415 -0.55726 
042 -1.4692 0.036164 -1.1421 -0.22666 -0.1734 2.3119 2.2369 -2.8853 0.97704 0.79966 -0.55488 -0.072266 0.49188 
99674 -1.5182 0.36168 0.12068 -0.37291 -0.07917 -1.9814 1.5944 -2.7778 -0.93581 0.60956 -0.6474 -1.8162 0.65236 
1120 -0.67509 0.4268 1.5974 -0.71855 -1.2395 0.34342 0.93558 -2.4908 -0.013256 1.239 -2.052 0.21608 0.18765 
51919 0.76034 -0.77928 0.32436 -0.25606 -0.25183 -1.085 -1.1678 -0.63289 0.1087 -0.92711 -5.1048 0.75225 -1.2192 
4011 0.36486 0.060845 1.1166 -0.14482 0.78657 0.73745 -0.54201 1.1734 0.11693 0.74353 -1.974 0.38475 -0.85231 
9910 -0.060841 -1.6259 0.75792 -1.8884 1.9636 0.46289 1.406 1.0826 0.44227 -0.79408 0.58458 -1.5865 3.0437 
E8781 2.4796 -0.28002 0.37558 1.378 1.996 -1.6838 -1.009 -0.30496 0.68911 0.434 -0.78253 -1.392 -0.64706 
4233 0.51101 0.55824 -0.86879 -1.8972 0.77352 0.58621 0.93014 0.32186 1.9001 2.6231 0.46343 -1.4135 -0.49942 
5771 -2.4201 -0.48718 -1.2055 1.2974 0.8892 -0.062633 1.0976 -0.81482 0.18765 1.8205 -1.2829 0.18272 -0.81204 
V173 2.1787 1.1967 -2.3816 0.55362 3.511 0.14529 -0.07129 1.4928 -1.1664 0.41545 0.26403 -0.12765 0.33801 
5533 0.84111 0.59426 -0.062814 -0.10253 0.79269 -0.6989 -0.058739 1.8025 -0.67699 1.8703 -1.4861 1.7565 -0.89722 
7140 0.74186 0.4733 0.78915 0.90735 1.4429 -0.76802 -0.065862 -0.41558 -0.85406 0.26197 -0.93678 0.51536 -0.88006 
7850 -0.31818 0.055137 0.88316 1.3329 0.66598 1.3342 -0.63991 0.78064 0.71463 0.81527 -1.7114 1.1849 -1.3884 
29680 0.19098 -0.91195 -0.37654 1.6398 0.74908 0.86917 -0.14987 0.2402 0.53061 1.0047 -2.7123 1.2973 -0.76415 
5722 -2.1082 1.4637 -1.0287 -1.2438 -1.7251 0.59631 1.3634 -3.4218 3.7241 4.1934 0.17962 0.36661 -0.24691 
30301 -0.41679 -0.044465 -1.9359 3.0317 -0.2757 3.7722 1.3298 0.75126 1.4757 3.369 -1.7496 0.65368 0.38645 
34690 0.14107 -0.16059 -0.56717 0.48455 2.4408 1.7629 -0.44379 0.19191 -0.5586 0.016453 -1.9667 2.1154 -0.29997 
V4986 2.3752 -0.91714 3.8267 0.61208 1.476 -1.2682 -0.0094048 1.677 0.46938 1.3484 -1.558 1.8188 -0.91023 
7242 1.2287 -0.021947 -0.26881 1.3337 0.99332 1.2278 1.0262 2.2599 -1.1175 0.44279 -1.8869 2.1358 -1.1424 
25050 0.9471 -0.61261 -1.7896 -0.88473 2.7739 -4.1011 0.48852 -2.2639 1.7272 -0.69715 0.47161 3.1345 -0.72249 
34982 -0.33494 0.98426 1.1001 0.77102 -1.883 -0.86294 1.0525 -3.826 0.29907 1.2519 -1.0368 0.79384 0.25707 
34830 -0.50355 0.1419 1.9527 0.42315 -1.579 0.18084 0.9519 -3.275 0.0066823 1.7504 -1.7628 0.80938 1.3316 
25051 -0.23889 2.0085 -1.0015 -1.2795 2.3973 -0.99803 0.57596 -2.4304 0.22349 -3.4292 1.5279 3.2791 -0.92848 
4414 0.89917 0.57015 -0.26338 0.41937 0.17269 -2.845 0.44795 0.77242 -1.1748 1.3441 -0.51133 -0.52455 0.37588 
0413 -0.23105 -1.0609 1.8063 0.40439 0.71686 -2.1226 0.5882 -0.65493 1.307 0.3613 -0.64158 1.378 -1.3864 
V441 0.53251 -3.1795 2.6554 -0.33872 -0.8585 -2.2585 0.90355 1.9472 1.0612 -1.3496 -3.4161 2.1212 0.80994 
3721 2.4095 0.3629 -0.93821 -0.62502 1.4348 0.92388 2.113 2.2033 1.9081 -0.16688 1.863 -2.5477 -1.0915 
5761 -1.9661 2.0177 1.6346 -1.6045 -1.91 -1.8888 2.4924 -0.48614 -0.21927 3.1467 -0.82215 0.0090685 -2.4314 
E8859 1.5994 0.50015 0.90575 2.2041 -0.52684 -0.67091 -1.6192 0.64402 0.63269 1.66 -0.55644 0.93628 1.6967 
V153 1.245 0.37589 2.92 -0.61513 2.1698 -0.4854 -1.0308 2.4756 -1.4757 0.92245 -1.9805 -0.58649 -0.18051 
V600 -0.04271 -0.97756 -2.6886 3.4868 0.94962 3.8836 1.0464 1.5678 1.9967 1.8301 -2.1418 0.14592 0.98433 
30390 -0.88096 -0.31186 -0.99692 0.6443 -0.22661 1.2866 0.66578 0.0084039 1.2017 3.0274 -0.79688 0.1711 0.66572 
03811 -1.4904 0.50143 0.68562 -0.55264 -1.8829 -0.7298 2.0953 -4.4543 2.0568 -2.2282 0.17426 -1.291 0.19919 
V462 2.7035 -0.56215 0.93653 0.7529 0.46438 -0.71316 0.96224 1.9015 -0.67754 -0.84453 -3.4345 2.6337 -2.6597 
70715 -0.37084 0.017619 -0.78337 1.7772 0.43311 -2.8241 0.87699 -2.4745 0.9147 -1.6306 1.0294 2.699 0.66809 
8622 -1.8545 -0.72221 -0.32636 1.1669 1.4918 -1.8804 -1.8775 -0.24281 2.7979 -2.7693 0.69014 0.46083 1.4704 
9605 -0.10615 -0.30626 -0.091485 -3.0459 -0.030626 1.0814 -1.4342 3.0583 1.3511 -3.0133 -2.8406 -0.2828 1.3017 
53550 -0.59334 -0.54093 -0.60057 -0.039533 1.3032 -0.61787 1.3932 1.5325 -0.36972 1.7237 -0.78995 3.4754 -0.36544 
6930 1.2715 -0.053246 2.8512 -1.3023 0.91376 0.28147 -1.4596 -1.9331 2.2764 0.81453 -1.6187 0.6187 -0.62893 
78009 1.4556 -0.44319 0.68084 1.8479 0.31175 0.3869 -0.56964 0.37094 0.86409 0.78435 -1.646 0.75578 -0.16104 
4928 0.97437 0.45466 -0.25582 -0.28493 -0.27029 -0.61227 0.45239 0.33277 -1.0065 0.91744 -1.7582 0.24853 -0.19637 
7455 2.4375 1.0367 -0.46398 -1.6156 -0.50661 -0.15812 0.86339 -2.0331 -0.11859 0.079059 -1.2293 0.28017 0.27554 
8659 -0.64741 -0.24115 0.88162 1.7123 0.94818 1.8928 -2.3495 2.629 2.9343 -0.83082 0.32979 -0.77191 3.0964 
9961 0.51901 0.817 -0.47918 -1.0944 0.056857 -0.49995 0.50142 0.2863 0.97704 -1.2854 0.8693 -2.1038 0.02287 
V4589 1.7861 -1.4645 0.74037 0.495 3.2029 0.62721 0.76777 2.7083 -0.12375 -0.21817 -1.2856 0.75326 -0.87444 
8848 -0.5689 -1.9628 -1.0317 0.26627 3.3526 -2.7108 0.51141 1.6496 1.1367 -2.4597 2.1395 -0.34727 4.7303 
7895 -2.9465 1.4067 -2.5944 -1.716 -1.0845 0.29008 1.5826 -0.8507 1.6984 1.7395 0.3674 -0.89071 -0.58334 
2753 0.50164 -0.60051 2.2579 1.8315 2.4021 1.8275 1.0048 -0.54995 1.5333 0.55949 -0.20446 2.1089 -2.2244 
2841 -0.18379 0.39875 0.99073 -0.066984 0.11494 1.6862 1.7269 -2.8783 1.335 2.4356 -1.1424 0.74441 -1.7007 
5997 0.51191 1.1183 0.42654 -0.032992 -1.6435 -0.3876 1.36 0.16019 0.033149 0.55091 0.89589 -0.41156 0.90905 
8852 1.8835 1.4241 -1.448 -0.16288 1.138 0.31159 3.6082 1.8861 -0.030342 -0.53353 3.7493 -0.67735 1.2239 
25043 -0.92705 -0.74726 -0.7337 2.6657 3.4187 0.22666 2.5866 -4.2744 1.6767 -0.44395 1.1645 4.5095 -0.1175 
0159 0.45141 0.4279 2.3907 -0.042447 1.8969 2.1028 -1.3865 1.526 -2.0594 0.28498 -2.8135 0.26664 2.9324 
5569 -1.5454 1.3313 0.22608 -1.0093 2.0759 -0.42228 0.52741 -1.334 0.22853 -0.27653 0.6043 -0.15484 -1.975 
9607 -1.9197 -0.58499 -0.47422 -1.1176 0.90616 1.1562 0.55585 3.3122 1.2957 -0.65634 0.38361 0.72065 0.66058 
3845 2.3995 0.86427 -3.0278 -1.1994 1.4795 -1.0595 -2.4902 1.4929 1.5523 0.62989 -1.4086 -2.8803 1.8266 
30560 -0.3973 -0.43089 -2.3085 2.5404 0.41157 2.1193 1.504 -0.95901 1.1361 0.77902 0.17238 0.93775 1.314 
25002 0.09056 -0.4218 0.0054198 1.0012 -0.49198 -0.82387 1.0983 0.049699 0.23914 0.95871 -1.2097 0.95851 -0.60177 
70714 -0.60059 0.87542 -0.49338 0.94659 -1.6277 -1.8855 1.2096 -2.4204 1.1114 -2.4202 1.2548 2.152 1.1556 
43411 1.5334 0.85062 0.35905 -0.94707 -1.6286 -1.5434 1.4713 -3.5068 -0.90359 1.7371 -0.85068 -1.033 3.1791 
43491 0.48255 1.2817 0.29392 -0.6399 -1.6717 -0.35728 0.70244 -2.3061 -1.3696 1.2057 -0.73813 -0.34227 3.4591 
4239 1.2785 1.8627 0.10667 0.28103 0.62877 1.1542 1.5919 -1.8731 0.0038035 0.070715 -0.049395 -2.0914 -2.5243 
8604 -1.4856 -0.88585 -0.34776 0.93119 0.87943 -0.31489 -0.63389 0.77271 2.423 -1.58 0.91892 -0.90394 1.4755 
1985 0.21117 3.4891 3.6272 -0.34002 -0.094006 1.1069 0.21229 -1.3357 -2.7664 1.414 -1.4646 -1.9203 -0.56982 
4260 3.778 1.7564 -0.080884 1.0149 -0.9927 -2.1656 1.4261 -2.0775 0.27922 -0.11404 0.86595 -1.0899 -0.19063 
V420 -1.0244 1.8198 0.152 -0.03408 1.2167 -0.31045 0.68246 -3.2678 -0.3673 -1.9959 0.39678 0.76534 -1.3583 
99731 -0.08749 0.70831 1.4859 1.7924 -2.8991 -1.1667 -0.064309 -4.1971 0.46009 2.7615 -3.3501 -0.60464 0.68308 
78720 0.93086 -0.90681 3.06 0.52229 0.23802 -1.232 -0.22848 0.016408 -0.51773 1.0927 -1.999 2.2446 1.1519 
43889 1.9451 -2.2938 2.2176 1.1025 1.5062 -1.2388 2.058 -0.98805 -1.3792 -0.23196 -1.9488 2.1848 1.4283 
45621 -1.3657 -0.056484 -1.5462 -1.4955 0.82984 -1.182 1.1228 -2.3654 3.2127 5.0774 -1.3917 0.46319 -1.5987 
3522 3.8177 0.95107 -2.5643 -0.4254 1.8949 -0.87628 -1.5969 1.0673 1.2861 -0.1104 -0.92865 -1.7715 0.34213 
3990 -1.5083 -1.1898 -0.65289 -1.8654 3.5287 -2.291 1.9183 1.3046 -0.78138 -0.55098 1.7487 -2.4297 4.2603 
45981 2.4066 -0.44351 0.41656 1.0047 -0.023844 -1.7494 0.47486 0.32885 1.4406 -0.47132 -0.715 2.2144 -1.5621 
25080 1.3649 -0.9548 0.32499 0.69533 1.0204 -2.1083 0.39326 -1.8751 1.5944 -0.922 -0.56893 2.2648 -0.82587 
1983 0.9079 3.3956 4.0146 -0.21364 -0.63395 1.7101 0.13182 -0.58267 -4.0973 1.1454 -2.8783 -1.3823 1.2618 
49322 1.8619 0.76937 -0.32597 0.83453 -2.6661 0.053138 1.7814 -0.49078 0.24415 -0.35294 -3.0811 2.0659 -2.2528 
41402 2.3753 1.624 -1.7453 1.5553 -0.12422 -2.4161 2.1781 -0.99096 -1.1288 0.0009243 1.2132 -0.29787 0.43159 
07032 -1.0735 -0.32889 -2.5096 1.5134 -0.088257 1.7401 2.6001 -1.675 0.88861 1.1625 -0.60227 -0.3721 0.0759 
430 -0.47398 0.48983 0.30532 -0.40618 0.15846 1.3396 0.69619 -2.3001 -2.3339 1.4052 -2.102 -0.081877 3.5041 
03842 -1.347 2.1979 3.2124 -0.85088 -2.6328 -1.114 3.3878 -2.0025 -0.016541 -0.17502 0.98213 1.8258 -1.5157 
4639 -2.8393 0.4609 -0.40255 -1.4464 1.0624 -0.55613 -1.5586 4.4485 1.2959 -1.0845 -1.0452 -1.8248 -0.26367 
4160 0.87075 1.2302 -2.1418 -0.53681 -0.37417 -0.64368 2.0405 -0.41652 -0.15685 -0.53712 -0.012004 -0.26319 -1.3095 
2764 0.29686 0.8203 0.47737 0.8399 -1.9028 -0.85788 0.85455 -2.1142 0.4659 0.35859 -1.7655 1.4316 -1.4675 
5780 -1.5666 1.3862 -0.79194 -0.0036718 -0.021175 0.13757 1.6373 -1.7809 0.063334 2.0132 0.41073 1.2197 -0.25906 
0417 -0.44939 -1.7098 1.8007 1.0618 -0.054952 -2.2547 -0.25306 -0.93064 1.1849 -0.39395 -2.1527 0.71101 -0.32927 
3963 2.1733 1.7319 -2.2183 -1.8047 -0.18133 -1.6133 1.1717 0.00969 0.18391 0.035825 0.56084 0.015131 -0.27346 
78659 0.83496 0.15539 -0.36682 1.491 2.1566 2.0386 1.4401 0.24175 0.015546 -0.18288 -1.2929 2.2011 -2.5178 
41011 1.4842 2.314 -1.7166 1.5991 -0.56023 0.11603 2.647 -1.1304 -1.413 0.58991 1.7956 -0.34036 0.96106 
6822 -2.2301 1.2062 0.40163 1.1095 -0.68481 -2.3845 -0.078206 -2.0395 -0.030813 -0.61769 -1.1154 -0.70068 -1.4295 
E9331 1.0146 1.6607 3.7079 -2.1073 2.7195 1.975 -0.61218 -1.1062 0.44935 1.8134 -0.93745 0.50002 -2.0139 
3320 0.99952 0.36181 1.68 0.021225 -1.4579 -1.3398 0.11126 1.5328 -0.039211 0.14092 -1.2319 1.3286 -0.061253 
4210 0.48266 1.1907 -0.67572 -1.7261 -1.2901 -1.136 1.0598 -4.7926 1.8219 -1.0145 0.16309 -2.147 0.64332 
3569 1.5511 -0.48567 0.41444 0.85663 1.3157 -0.40482 0.049942 0.33811 -0.10734 0.49079 -1.2631 0.93563 -0.39549 
42820 0.54498 0.6151 -1.36 1.2266 -0.85854 -1.0985 2.1802 -1.0446 -0.025134 0.47472 0.96614 -0.69277 0.28642 
41041 1.4353 2.5815 -1.035 1.4764 -0.36969 -0.27017 2.0053 -0.70506 -1.8771 0.75318 1.6797 -0.78554 0.79199 
2536 0.55874 0.74376 2.0109 0.49263 -1.7253 0.99077 0.40846 -1.3483 -0.46527 0.89657 -1.8 -0.073835 0.7639 
4412 2.3595 1.3447 -1.9304 -0.24414 0.37001 -1.0978 -1.1791 -0.18073 0.00046639 1.5761 -1.7828 -1.4633 0.29186 
515 1.1976 0.47879 0.58439 -0.8227 -0.30306 -1.4818 1.1185 -0.86542 -0.79756 -0.33411 -1.9112 0.68577 -1.3202 
9975 -0.66609 2.2131 -0.43451 -0.13909 0.13242 -2.8878 -0.78302 -0.9618 -0.62906 0.29398 0.35767 -0.59965 -0.21301 
99672 1.4955 2.3569 -1.9011 1.7137 0.079671 -2.1248 1.9909 -1.5576 -1.2701 0.34686 2.0567 -0.73356 0.75338 
4821 -1.4563 0.10091 0.96347 -0.36701 -3.6621 -1.5943 1.0108 -1.2598 0.63057 -0.88393 -2.4471 -1.1568 0.69537 
2867 -1.9942 0.96447 -0.49474 -1.0382 -1.1766 0.08216 0.63462 -3.1178 2.14 2.9855 -0.61946 -0.81863 -0.20395 
5122 -2.7495 1.231 -0.80706 -1.4861 1.9745 -0.58091 -1.6968 3.3125 0.91353 0.71832 -1.0477 -1.5766 -1.6752 
5187 -0.76537 0.40668 1.1711 -2.8712 0.69785 -1.1391 0.29852 3.2213 1.4033 1.4655 -0.46524 -1.0635 -1.6716 
V707 2.3133 0.72671 -0.45729 0.56971 2.7384 -0.68445 -0.61792 1.223 -0.71979 0.76786 -0.1701 0.45107 -0.008548 
44020 1.5773 -1.5256 0.0039793 1.8517 2.1307 -3.0783 1.1808 -0.33407 -0.23407 -0.51315 -0.18046 0.63466 0.055864 
5059 -3.1984 0.73034 -1.1577 -3.0145 4.2397 0.48242 -1.1418 -0.55009 2.8089 2.1236 -0.28365 -1.4032 -1.7046 
V4975 1.6533 -2.5333 0.39329 0.9623 3.8186 -1.3959 1.4912 -0.78143 1.4223 -3.0605 0.10489 1.5669 -0.80218 
135 -0.67956 -0.54182 -0.94864 -2.3895 0.79995 -0.14622 2.3281 -2.8293 0.16937 -0.78364 -1.6916 1.2378 -0.86212 
4010 -1.297 1.2571 -1.7673 -0.31851 0.1241 1.6582 2.333 -1.9166 -0.95034 -0.65919 -0.4109 2.9611 0.74441 
3321 -0.29297 -2.5022 0.62555 -2.1171 -0.21354 -0.57205 -0.4356 2.2202 2.1203 -3.7044 -3.2266 0.67202 1.5822 
42821 1.4767 1.718 -0.36186 1.0479 -1.6756 -0.58512 2.0028 -2.0053 -0.57968 1.3045 0.77785 -0.55494 0.74227 
3772 5.1286 0.86438 1.0444 0.047869 -0.91571 -1.63 0.29948 2.5722 2.2027 -2.0203 0.86587 -1.2063 0.26032 
3783 4.6713 1.7218 0.971 0.94998 0.054966 -1.4744 -0.46706 1.7608 2.3707 -2.3801 1.703 -1.5047 -0.47521 
7806 0.17988 0.735 -0.38314 -1.3192 1.6441 1.1386 -0.79749 -0.98581 0.44945 -0.10385 -0.55899 0.054678 0.33851 
V1011 1.3614 0.11157 0.93481 -0.34928 0.35778 -0.6961 0.39129 0.98453 -1.7618 -0.56652 -2.1941 -0.48451 0.093056 
V422 1.9966 -0.3881 0.49737 -0.33885 -0.0044915 -1.9148 1.0728 0.13747 0.22974 0.16997 -0.65351 -0.64929 -0.23435 
5680 -2.9929 0.54657 0.70403 1.1486 2.0316 -1.7647 -0.55521 0.28957 -0.74287 1.3229 -2.3277 -0.49427 -2.9241 
9925 0.30109 1.0486 3.8795 -3.3272 1.8736 3.2111 -0.75147 0.83028 2.1255 -0.51682 -0.19943 -0.12997 -0.45321 
70722 0.53742 -1.2933 4.2416 0.87751 0.60937 -3.9991 -0.64089 0.00037869 1.7324 0.44673 -0.97995 1.8342 -0.73332 
7904 1.02 -0.53552 1.8081 0.43509 1.5066 1.417 0.24928 0.3213 1.4448 1.4927 -0.73096 1.2982 -1.2704 
42831 1.231 1.4738 -0.10138 -0.059384 -1.7763 -0.54178 1.8533 -1.8501 -0.36392 0.068118 -0.4717 0.18259 -0.72832 
7245 0.98181 -0.39269 -0.13143 1.8817 1.7881 1.0795 0.19107 1.4559 0.22264 0.75114 -1.3255 1.7536 -1.3603 
0013 0.53726 0.76964 -2.5288 -1.401 -1.0325 -0.70218 1.5585 1.9219 2.1941 -2.9953 2.113 -1.006 0.33321 
1970 -0.38511 3.0224 3.0865 -1.1241 0.20926 1.2319 1.108 -1.2556 -3.188 1.0004 -1.5 -1.0828 -0.54426 
E8809 0.81222 0.59408 1.2334 2.1516 -1.6996 0.45099 -1.3839 0.29808 1.0385 2.0033 -1.0761 0.50841 2.551 
51883 -0.20435 -1.4648 0.885 -0.071575 -2.8026 -2.7974 1.9221 -1.1116 0.48492 -0.8616 -4.566 1.0982 -1.2491 
V1083 1.9619 0.51407 0.95328 -0.081628 2.3946 -0.73251 -1.0022 2.0202 -0.75057 1.2783 -1.3124 0.029691 -0.67829 
9973 -0.98116 2.7043 -1.7119 -0.79569 -1.1284 -1.8152 -0.98185 -1.0437 -0.73896 -0.54398 -0.65386 -2.1185 0.43831 
29410 1.1937 1.129 3.0695 -0.16157 -1.2244 -2.6786 -0.58528 1.4624 -0.11847 1.193 0.098362 3.6227 1.5611 
3484 0.79336 1.1957 1.6537 1.1379 -1.0108 0.93342 -0.68966 -2.451 -1.6017 1.8855 -2.7117 0.15984 3.3445 
99673 -1.0213 -0.99629 -2.3224 0.55082 1.7353 -0.67556 3.4468 -4.9295 0.086805 -0.39942 -0.06203 -1.5941 0.4388 
3734 3.6624 -0.042135 0.0079151 2.4545 0.049508 -1.4243 1.6993 2.5197 1.0198 -1.8893 0.50825 -2.2751 -1.1165 
7802 1.5321 0.5525 0.068693 1.359 0.46379 -0.22339 0.21985 0.30317 0.29634 1.7338 0.47003 1.004 0.28506 
0093 -3.2242 0.58248 -1.2708 -2.7603 5.406 1.369 -1.1926 0.46447 3.3019 0.79287 0.50204 -1.5444 -1.5748 
3726 3.1379 0.078762 -0.49507 2.242 0.3226 -0.94495 1.3133 2.1789 1.1002 -3.6686 0.7045 -3.2393 -0.23498 
39891 2.4705 1.9312 -2.47 -2.0461 -1.2948 -2.3772 2.0057 -0.60608 0.40112 0.89614 0.083896 -0.84627 -0.81363 
3778 3.1978 1.0375 0.23773 -0.070204 -0.28245 0.25947 0.79413 2.6055 1.706 -1.9807 2.0976 -1.6102 1.2218 
43820 0.45742 -0.89962 1.0375 -0.54197 -0.85118 -1.0157 1.4238 -2.1239 -0.1212 -0.016041 -1.3723 1.4694 1.6099 
53789 -0.80139 -0.84655 -0.88053 -1.2352 2.9096 0.14606 0.42458 -0.33519 2.9537 5.018 -1.2231 2.2173 -1.5601 
03849 -2.3752 0.80901 2.371 -0.83402 -2.3946 -0.78606 3.0695 -1.8545 0.59776 -0.64727 0.42053 0.61515 -0.64161 
5011 -2.5057 0.18569 -0.49378 -3.9492 2.369 0.68551 0.17627 1.8031 2.7994 0.84204 0.50285 -1.9954 -0.52037 
E8498 -0.022044 -1.3541 0.17496 0.47669 1.9889 -0.9442 -0.31216 -1.0158 1.4932 1.3196 -1.6122 -0.66499 -1.2136 
E8790 2.3906 1.4639 -0.38151 1.8511 2.7751 -0.87332 1.5147 0.54108 -1.349 1.2523 2.0829 -1.4929 0.32572 
2554 -0.75788 1.1001 0.2432 -1.5885 -2.1981 1.0568 1.5856 -1.6301 1.3818 -2.5951 -0.86126 1.103 -0.97633 
7843 2.1234 -0.56104 1.8735 -0.60147 0.12683 -0.39284 0.4911 -1.6261 -1.0804 1.5042 -1.9373 0.26372 3.686 
4562 -4.2151 -0.60464 0.39151 1.6539 2.0855 -0.96389 0.18015 2.5989 0.069944 -0.59669 -0.61848 -0.90517 -0.84386 
45620 -2.6146 1.6394 -2.532 -1.9526 -0.55191 1.2953 1.6407 -2.3007 2.9625 4.647 0.052274 1.1781 0.15954 
V451 0.1449 -1.9756 -0.74302 0.60369 2.9118 0.64499 3.0955 -2.2127 0.89452 -1.5789 -0.12471 -0.50243 -0.82503 
04119 -0.14113 -1.2417 0.53415 1.3701 1.3212 -0.35833 0.18481 -1.9847 1.8102 -0.53175 -0.76367 0.4703 -0.4038 
7863 1.2201 0.81039 -0.36138 -1.2671 -0.7567 0.72398 1.1099 -2.334 -0.61036 -1.0196 -2.0122 -0.33094 -0.15161 
9929 -0.72759 -0.67709 -0.019778 -1.1673 2.2014 0.34676 0.71175 2.793 0.43086 0.39051 1.1601 -1.4944 1.9247 
3314 -1.0031 0.36455 1.3417 0.3499 -1.2834 0.83938 0.33019 -2.4799 -2.1575 0.6885 -2.8721 0.31542 3.7736 
370 2.3659 1.1119 0.72421 -2.0002 1.928 1.7432 1.0001 2.0715 1.9062 -0.091418 1.1722 -3.5014 -1.5112 
30501 -0.19767 0.23402 -1.4708 1.256 0.07813 1.5036 0.47697 0.4784 0.244 1.9505 -0.63431 0.40569 0.83055 
3310 1.0523 -0.31014 3.2283 2.3248 -2.1431 -1.3281 2.6512 2.1621 -0.70322 0.43355 0.396 1.7479 1.2324 
27541 -0.19364 -0.049977 1.8846 1.4772 1.9456 1.1868 0.8224 -0.13269 1.2304 1.2119 0.31636 1.0563 -1.9984 
V1052 0.88156 0.51567 1.7661 -0.64019 2.8176 -0.8341 0.5555 -0.41488 -1.4393 -0.8036 -0.28093 -0.81282 -1.1408 
42843 1.8683 1.3376 -0.82954 1.3862 -1.5225 -2.1594 2.2563 -3.0396 0.69167 0.2389 1.1883 0.68153 -0.63232 
3441 -0.72109 -0.98685 2.8584 4.0724 -2.5142 -1.0442 1.5225 -1.2581 1.7421 -0.37425 -2.0096 0.66208 -1.6714 
3614 2.5587 2.0237 -2.0443 0.32373 1.8998 -0.98012 -0.79546 1.4447 -0.65029 -1.3569 0.95178 0.0032424 0.88734 
78559 -1.518 1.5099 -0.13105 -0.50114 -1.8903 -1.2144 1.4241 -1.3132 0.53722 1.5164 0.85237 -0.12052 0.092301 
5570 -3.4932 1.9283 -0.22567 0.7475 -1.9169 -2.1063 1.9102 -1.4124 -0.60258 1.5558 -0.15241 -1.3258 -0.88244 
42741 2.3114 2.4492 -1.6264 2.4393 -1.6671 -1.1798 1.7003 -1.4862 -0.36236 0.096928 1.356 -2.1472 0.80291 
1977 -1.286 3.621 3.0094 -1.4499 -0.57441 1.0116 1.2314 -0.442 -2.8677 2.7555 -1.0812 -1.0855 -0.84199 
73390 1.5235 0.37826 1.1641 0.55102 1.9612 -0.40278 -0.68296 0.51277 0.48043 1.0987 -0.66963 1.2461 -1.4837 
0131 1.4222 0.055342 2.1116 0.55321 -0.11364 0.64525 -1.5093 1.973 0.10011 1.0851 -1.0275 1.3041 3.7139 
591 -1.5459 2.1714 3.6866 0.90643 -0.69417 -1.0968 1.1252 -0.61528 -0.13187 0.83534 1.3813 1.0438 -1.3293 
1122 -1.0752 0.020618 1.3041 0.045876 -1.0255 -1.6389 0.56987 -2.2162 0.64334 -0.33316 -1.1809 0.6935 -0.46506 
0046 2.1294 -0.28223 0.61455 1.0836 3.2312 0.32013 3.7489 2.4582 -0.40145 -0.30585 4.0732 -0.73586 2.6834 
9359 -1.8595 -1.2922 0.61604 -0.62323 2.5889 0.47873 -1.8877 2.3412 1.4813 -2.3201 -0.54299 -1.0823 2.6573 
2113 -0.91725 -0.50047 -0.44924 -0.33533 1.383 -2.358 2.5746 1.57 -0.46549 2.6106 -0.37758 1.3711 -1.6673 
0380 -1.4232 1.1967 1.9453 -0.26778 -2.3367 -1.2064 1.7279 -3.2325 1.3259 -0.0041557 0.16334 -0.22494 -0.51324 
29590 1.1914 -0.32458 -1.1366 1.4379 -1.527 0.52874 1.0122 1.0426 0.34788 -0.35705 -2.8405 2.6153 -0.80899 
3512 3.5699 1.988 -2.1898 -0.92255 0.96046 -0.46904 -1.1359 1.3614 0.774 -0.73112 -0.063117 -0.35783 0.12177 
2910 -1.1983 0.7666 -2.11 2.2162 -1.5845 1.6079 0.15809 -0.9186 0.87507 2.9624 -1.3381 -1.4668 1.4279 
99702 1.4855 1.3377 -0.45946 -0.87463 -1.09 -3.011 -0.16652 -2.4567 -1.9111 0.9165 -1.1475 -1.4702 3.84 
9462 0.31433 -0.64999 -1.0619 1.25 1.0845 3.7617 -0.0077819 2.2617 1.9817 2.049 -0.78378 1.0029 1.3565 
25053 0.053815 -0.59271 -1.1666 1.5607 3.4145 -0.45476 1.8092 -3.2995 1.8087 -0.88112 1.2338 5.2637 0.38903 
9723 -0.76846 -2.6882 0.67478 -1.3748 0.019779 -0.82187 -0.65478 2.3648 2.2321 -4.4637 -3.8693 1.163 1.1985 
V08 -0.42958 -0.40327 -1.235 1.0191 0.94794 1.0311 0.8513 -1.3488 0.95559 0.86939 -0.74754 -0.23244 -0.31424 
7291 0.82185 0.31463 -0.18894 0.42967 1.5588 0.88368 0.14749 0.47139 -1.086 0.19912 -1.8175 0.69709 -1.0697 
4525 -1.7952 -0.43536 0.68817 -1.9339 2.3075 0.21117 2.1083 3.2346 0.83786 0.37262 1.1688 0.89415 -1.3433 
56212 -0.19457 0.69221 -0.334 -0.25134 -0.55169 -2.903 2.5 0.46301 -0.95718 2.4748 0.0058886 1.3953 -0.69875 
4580 -0.48426 0.74114 0.55154 0.085462 0.90491 0.30795 0.26266 -0.012083 -0.50949 0.44969 -0.50552 2.7254 -0.51369 
29281 -0.23722 1.244 -0.63717 2.7288 -0.70734 0.55324 -0.42933 -1.8771 0.078902 0.51821 -1.1471 -0.70749 -0.46983 
585 -1.5746 0.47677 -2.5445 -0.32699 -0.968 0.91726 2.7021 -1.0561 1.352 -1.7482 1.1731 -0.62636 0.072462 
59654 -0.2535 -0.60916 2.8399 1.3872 0.33212 -0.71592 0.53127 -0.70747 -0.036897 -1.7927 -1.183 4.3281 -0.090567 
78701 0.5816 0.67758 1.2456 0.66705 2.7049 2.5985 0.25982 -0.55044 0.29928 0.86607 -0.69804 1.7921 -1.8987 
V1082 1.2318 1.1368 1.3502 0.10876 1.0321 0.26661 -0.19813 1.5992 -1.7 0.93995 -0.64159 -0.418 0.34695 
99931 -1.4501 -0.88542 2.8334 1.1982 -0.11651 -1.099 1.3435 -4.3901 1.2142 0.75281 -1.6691 -0.9806 -0.58577 
3979 -1.0014 -1.044 1.0209 -0.18179 2.7831 -0.82703 -0.090793 1.6614 0.81767 1.6114 0.64337 -1.7503 1.2866 
E9478 1.2987 0.0090066 0.86455 0.23962 2.4967 -0.77704 0.61667 -0.74927 0.10016 1.0073 0.67143 0.27928 -0.51285 
3142 0.49674 -0.70743 0.53767 -1.1943 -0.084943 1.267 -0.8834 2.4293 1.3023 -2.4648 -2.2207 -0.60899 0.90443 
0390 -1.3466 1.0201 0.16051 -0.017287 1.6604 0.4563 -2.9479 3.8549 0.32304 -1.4763 -1.2528 -1.5206 0.72105 
4373 -0.20245 -0.47469 -0.53598 0.032721 1.7247 0.32577 0.42622 -0.61344 -1.948 0.95581 -2.0132 -0.2347 2.886 
3962 2.7639 1.3515 -1.2987 -0.81703 -0.43239 -2.6336 1.222 -0.65881 -0.33568 0.82796 -0.072317 -0.92273 -0.15593 
V1588 2.8779 -1.1351 2.4435 1.1188 1.58 -0.22051 -1.1648 1.3898 0.54635 0.8007 -1.2773 1.3093 1.158 
56409 1.4574 -0.49237 1.5399 1.6497 1.1444 -0.51999 -0.57298 0.20739 0.22567 0.53482 -1.6393 1.9975 -0.83917 
42781 2.7275 0.68203 1.3661 0.60808 -0.64597 -2.1855 0.85609 0.097161 0.13805 0.71293 0.020956 -0.73503 -0.53764 
70705 0.50486 -0.27064 2.802 0.82944 -1.0638 -3.2645 0.3603 -1.2798 1.5134 0.31489 -0.20016 0.31004 -0.83172 
57420 -0.061255 -0.48165 0.75037 0.077602 1.407 -0.63826 0.15495 0.61451 0.8942 1.9444 -0.76176 0.71059 -1.1243 
58281 0.85373 1.851 0.097524 1.1643 3.4203 5.389 5.5536 -4.4648 0.71501 -1.8891 0.34209 -2.5779 -4.5654 
8605 -1.0573 -2.3051 1.5326 -0.8669 2.5865 1.5076 1.5091 0.039479 1.738 -2.5572 0.042364 -1.2019 0.6258 
340 -1.0193 0.038334 3.1435 1.5011 -1.7856 -0.57189 0.93413 -0.49088 -0.23452 -0.218 -1.3402 3.1848 0.19467 
34290 2.2709 0.010216 0.90013 -0.68682 -0.6382 0.010694 0.60235 -2.0319 -0.73728 1.5635 -1.5794 0.52046 3.6726 
3523 3.7304 1.2676 -2.0701 -1.4183 1.1153 -1.2486 -0.85668 1.5942 1.0407 -0.6953 -0.41912 -1.3274 -0.080207 
4223 0.44645 1.7274 -2.083 -2.0057 -0.23169 -0.11482 -1.0253 1.6259 0.60709 -2.6027 0.1877 -0.89637 1.2587 
30981 -0.21413 -0.43311 -1.7545 2.7511 1.7402 1.735 0.17751 0.95225 -0.17865 0.63273 -1.6532 0.86851 -0.65219 
04185 0.098233 -0.76854 1.0511 1.0944 0.94005 -1.8045 -1.1614 -1.171 1.4242 1.4082 -1.1549 0.85399 -0.31799 
8191 0.31748 -0.7675 0.46029 0.15139 1.1661 0.57357 0.059629 1.7678 2.5112 -1.6454 1.2332 0.24069 0.1171 
3972 -0.88717 -0.89433 0.49952 -0.22897 2.7217 1.2558 -0.16777 0.19326 -1.531 0.43994 -1.6921 0.40711 4.0283 
5412 -3.8238 0.67333 -0.68413 -0.72819 3.5633 -0.85122 -1.4264 1.7943 1.8949 -0.49824 0.53726 -2.297 -1.1202 
5184 -0.69376 1.4916 0.91859 0.21926 -0.98211 -0.50078 0.57093 -1.933 -0.17731 0.92032 -0.9368 -0.32564 -1.2448 
27650 0.22771 0.030702 0.89755 0.44083 0.1882 0.10624 0.85933 -0.049275 0.36203 0.84267 -0.67388 2.299 -0.97944 
34839 -0.080023 0.30212 0.98221 -0.13869 -0.87916 0.74872 0.95144 -3.1846 0.20146 0.85853 -1.2487 0.83776 0.69435 
4251 2.6755 1.1186 -0.9974 0.53993 1.0486 1.2171 2.9547 -1.6754 -0.61628 -1.3781 -0.72309 -1.6245 -2.3919 
5854 1.5693 0.87289 0.3173 0.97037 -0.1962 -2.7565 2.138 -2.5291 -0.22098 2.1701 -0.303 1.9322 -1.8242 
7847 1.4394 -0.68985 0.067304 -0.88428 1.4416 0.10641 0.82016 -0.35818 0.96524 0.97913 -0.42821 -0.2026 -0.29932 
5718 -0.12059 -0.18225 -0.86947 0.5994 1.8505 -0.39007 -0.91004 -0.6395 1.8517 2.6536 -1.1437 1.1131 -1.5211 
30401 -1.5469 0.12554 -2.1302 2.4784 0.13524 2.0011 1.1389 -2.8676 -0.12438 1.0595 -1.5877 -0.80132 0.20438 
4321 0.71635 0.43268 1.6854 0.11303 -0.80764 0.3855 0.38619 -2.2186 -0.82511 1.0572 -1.1755 -0.27757 2.6446 
0041 1.4243 -1.2608 0.99559 0.34485 3.3353 -0.65169 2.8068 1.8239 0.55112 -1.1657 3.402 -1.4738 3.3742 
7840 1.7906 -0.41464 0.66755 1.1649 2.8414 2.7167 0.14403 -1.1417 -0.61529 -0.36152 -1.7378 1.4682 0.3944 
25001 -0.099317 0.85244 -1.6784 0.14404 0.21762 0.1624 0.17904 -0.57628 -0.28812 -1.7019 -0.31331 0.41938 0.16311 
3929 -0.5758 -0.67479 -1.1529 1.8531 1.8301 -4.409 -0.78881 0.38751 0.69104 -2.2777 1.3241 -0.85335 2.9503 
5307 -2.8842 1.4465 -1.7244 -1.0567 -0.20075 0.25388 2.1719 -1.4469 0.092465 0.75598 0.8798 3.3325 0.287 
44024 -0.91196 0.30089 -1.559 1.7996 -0.84402 -3.2806 2.0087 -4.1919 0.76739 -1.695 1.4214 0.59459 1.6788 
9960 1.392 -1.0014 0.2291 0.14604 0.99479 0.89301 0.4607 3.7032 2.549 -2.6356 1.4085 -1.5182 1.1427 
60001 2.0236 0.50809 2.0318 0.9807 -0.193 -1.3579 0.5694 1.468 -0.48701 0.31156 -0.37456 2.2991 -0.35361 
8162 -0.79667 1.8742 4.0216 1.2475 2.2223 1.8033 -2.0626 0.52482 1.2218 -5.1124 1.0834 -1.7464 2.1001 
27669 0.7456 0.10844 0.9241 0.90521 2.1661 -1.4344 -1.6615 -0.78563 1.1696 2.2153 -1.4338 0.25886 -1.701 
5711 -1.4182 -0.17515 -0.1988 1.0903 0.011881 2.9059 1.0638 0.17329 2.818 5.0588 -1.2502 1.2537 -0.59645 
5559 -1.2187 0.26248 1.3322 0.68394 -0.33208 -0.59914 1.6607 -0.4006 -0.61048 0.087153 -1.3826 0.15131 -2.1245 
85221 2.0979 1.0108 1.6346 2.2987 -1.7498 -0.052457 -0.79792 -1.2675 -0.14024 2.6266 -1.4741 0.72454 3.0146 
4319 -3.5983 0.06993 0.52373 -1.0314 0.81743 -0.33252 -1.71 3.1924 1.7443 -1.5167 -0.76756 -0.73114 0.48408 
E8490 0.67634 -0.76551 0.58618 2.3846 0.049936 0.79862 -0.24261 -0.080502 0.84259 0.92446 -1.0164 0.81983 0.94758 
4588 2.0057 0.15256 -0.024187 1.2655 -0.55498 0.67155 0.84402 -0.47849 0.96454 0.40092 -0.78313 1.065 -0.75384 
4131 0.19487 0.75263 3.2248 -2.927 2.1831 3.74 -0.3999 0.35279 2.8985 -0.24649 0.20392 -0.1018 -0.35712 
2752 -0.36308 0.37136 1.7997 1.5327 1.0639 2.2031 0.2613 0.62659 0.69438 1.6795 -0.33595 1.352 -1.2347 
403 -1.5229 1.8566 -0.8301 -0.41158 0.25292 0.14648 -2.1264 3.6447 -1.2142 -1.4913 -2.9393 -2.27 -0.56949 
45341 -0.70073 0.87856 2.3145 1.8417 -0.55993 0.46615 1.6615 -2.1295 -1.8686 1.9223 -1.1365 -1.1797 0.67149 
E9289 2.1126 -1.2344 1.9682 2.0395 0.95717 1.0083 0.45191 0.99922 1.7289 1.2451 -0.57523 -0.22656 -0.15362 
73313 0.85988 1.4842 2.0563 1.7793 -1.4779 -0.54646 0.35798 -2.9149 -0.80218 1.2179 -2.7419 -0.79617 -1.8053 
79029 1.8424 0.39105 1.0076 0.05979 1.3135 1.2479 -0.12849 0.65505 0.63224 1.3706 -1.0236 0.50049 -1.235 
8163 -0.84211 1.5783 5.0163 0.90016 2.9696 1.716 -2.6506 1.2099 1.727 -4.656 0.68127 -1.8777 2.3227 
022 -1.1717 -0.57152 1.2596 -0.82859 0.52518 2.3449 -0.54107 0.6006 -0.5375 -0.11276 -1.8101 -0.057876 5.0705 
V1051 1.1765 0.54095 1.698 -0.40591 1.2493 -2.0854 0.62896 1.4593 -1.2795 0.32667 -0.023818 0.24077 -0.33756 
20280 0.57974 1.2666 0.66657 -1.6137 -1.179 0.38941 0.70448 -1.69 0.11202 0.20461 -1.3214 -0.83666 -0.50152 
72888 -0.64607 1.0522 0.24148 2.4827 -2.1946 0.92432 0.70763 -2.4137 0.75419 1.72 -0.62359 1.2052 0.73443 
2848 -1.2709 1.0166 -0.4202 -2.8488 -1.0318 1.2899 1.4515 -2.3013 1.9232 1.1041 -0.42095 -0.093053 -0.31721 
8857 1.8524 1.4996 -1.9425 -0.43727 1.1931 0.3833 1.4078 2.4294 -0.29094 -2.1287 2.6687 -1.5649 2.3611 
4573 -2.8712 0.24338 -0.12974 0.72812 1.4261 -2.4508 0.53417 3.5003 -0.56601 -1.3184 0.11886 -1.4712 -1.2124 
2518 0.72545 0.27923 1.0994 -1.5097 -0.31029 2.7061 1.9833 0.37761 0.48604 0.24029 -2.2898 -0.032733 -2.5063 
53085 0.24761 0.42608 -0.1748 -0.30459 1.7616 -0.82331 -0.0036349 1.5036 -0.51111 1.6868 -1.2073 0.91253 -1.4178 
8628 -0.9758 -1.5155 1.3329 0.82474 1.3336 -1.0647 -0.53514 2.3011 3.1742 -3.5307 1.6343 0.19874 1.3084 
V8741 2.0484 0.54954 3.674 -0.44691 3.5216 0.23039 -0.95981 3.04 -1.5751 1.9543 -2.2206 -0.62415 -1.1366 
86121 -1.8509 2.2289 0.84371 2.9861 -2.3447 0.50349 -2.727 0.40094 2.0227 1.5074 -1.072 -1.7151 2.2352 
5768 -1.6131 0.12815 1.6199 -0.93442 1.3001 -0.7434 -0.76726 -0.17781 1.0589 3.2013 -1.8099 -0.36884 -1.7005 
78060 0.52787 -0.54181 2.0485 1.1329 2.0544 1.8812 0.12757 -0.89748 0.045948 1.8266 -1.6574 1.3314 -0.43369 
30393 -0.88475 -0.61083 -0.8241 0.04766 2.0563 0.12377 -0.82646 -0.61062 1.9836 3.2186 -1.7843 0.37602 -1.5357 
78052 1.5368 -0.22894 0.51184 1.8203 2.0813 0.46587 0.33159 1.7034 -0.20269 1.3801 -0.95527 0.76616 -1.4226 
V1259 1.1767 -0.35702 -0.2933 -1.4026 1.3803 -0.60549 0.041355 0.77497 -0.16679 -0.077861 -0.68033 0.39041 0.97157 
5762 -3.3465 2.0068 0.95105 -2.3466 -0.50092 -1.3834 0.9325 -0.61606 -0.49922 3.962 -1.6232 -0.21225 -1.7031 
70707 0.056648 -1.206 3.2843 1.7381 -0.77974 -4.515 0.54091 -1.0022 1.8148 -0.56058 -0.25386 1.298 -0.042818 
5191 -0.05601 0.77936 -0.43483 -1.6546 -2.2542 -1.326 0.32851 -0.18428 -0.93943 -3.4557 -3.9136 0.24423 -0.019571 
3409 -0.45559 0.75578 0.095196 -2.2804 0.3301 0.74118 -1.2863 2.6206 2.7218 -1.9037 0.15169 -3.008 0.11022 
E8786 -1.4809 1.7938 1.1229 0.95678 1.309 -1.187 -1.7526 1.4708 -1.4122 0.2191 -2.1632 -0.97972 -2.3051 
2409 -2.5099 3.3101 0.38511 1.8844 0.42883 2.6617 -0.76442 0.92377 -1.9813 -1.1968 -0.46346 4.9462 0.74405 
48283 -1.0027 1.2146 0.546 -0.19228 -3.1434 -0.8945 -0.12377 -2.0893 0.52865 -0.23544 -1.8548 -1.1972 0.74211 
8611 0.43817 -0.28341 1.53 -2.3824 1.794 2.0562 0.048786 0.41271 3.3452 -1.5961 1.2548 -0.13823 0.40511 
53140 -1.0484 1.3212 -0.72948 -1.1355 -0.73311 -1.114 2.7802 -0.42958 -0.48172 1.6347 0.90503 1.2957 -0.54504 
5724 -3.6458 2.7142 -0.12501 -1.8777 -1.6749 -0.82277 0.81364 -3.7991 4.151 3.4729 0.87592 -0.9303 -1.1586 
8968 0.97647 1.3436 -2.9608 -1.5843 1.5712 0.23536 -0.2494 3.1151 1.0774 -1.7804 1.6402 -1.4175 1.2323 
79001 0.19999 0.75609 0.48062 0.82419 0.24374 -0.96211 0.17219 -1.0584 -0.2466 2.5536 -0.52279 -0.62037 -0.076323 
34831 -0.76127 1.2618 1.175 1.0654 -1.8993 -1.1867 0.64363 -2.9572 0.43291 1.2095 -0.78693 1.3025 -0.27324 
99664 -0.038731 0.33648 3.5352 0.79774 -3.1736 -0.5892 2.3459 -1.6108 0.73622 0.10427 -0.92974 2.3322 -0.19474 
19889 -0.43208 3.6264 1.6776 -0.86256 0.34231 0.45962 -0.39586 -0.3032 -2.6002 1.2656 -1.4538 -2.7059 -0.98999 
41072 1.7537 0.30218 -0.35337 -0.053404 0.56966 -2.0414 1.1304 0.10531 0.24187 -0.85818 0.61715 1.4717 -0.6217 
3964 2.7724 1.4244 -3.0833 -0.5181 2.561 0.34497 -0.87623 3.7874 0.32545 -1.6634 1.109 -1.1996 1.7938 
9972 -0.18276 1.7769 -0.14173 0.8293 1.142 -2.1823 1.0345 -3.2222 -1.7113 0.25402 1.0556 -3.1563 1.3194 
5110 -1.1874 0.23951 0.57807 -2.787 0.28479 -0.74974 -0.29121 2.3521 1.2525 0.99475 -1.3664 -1.2807 -1.203 
0309 0.17051 0.68768 3.5587 1.1549 2.3689 0.81597 -2.1832 -0.98578 0.31961 -2.7793 -0.17126 -0.36864 1.6296 
3949 -1.4993 -2.048 -1.2167 0.27269 3.6872 -3.3369 0.3756 -0.12954 1.4644 -1.7982 0.9996 -1.8138 1.6633 
4400 2.146 0.35 -0.70884 -0.23004 1.276 -2.8844 0.13755 0.69871 -0.60247 1.2631 -0.42413 -0.18934 0.5321 
30590 -0.61659 -0.6629 -3.0027 2.1609 0.7595 2.5897 1.1236 -0.45816 1.2408 0.55777 -0.82949 0.1826 0.59931 
E8791 0.52215 -3.0871 1.1037 0.76973 4.4632 0.17811 1.9985 -3.7176 1.7179 -1.8457 -1.196 -1.0804 -1.2618 
8600 -1.7336 2.648 0.72016 3.0097 -2.8008 0.58065 -2.5489 0.05889 1.9075 2.2204 -1.5591 -2.1937 1.9185 
319 0.085304 -1.4449 2.2778 0.095737 -0.93845 0.38311 0.29771 -0.54616 1.0761 -0.76084 -3.3743 1.3588 -0.59672 
7070 -2.2876 0.45214 -0.80174 0.02335 -2.9157 -0.24264 0.95989 -0.16897 1.3721 -2.4122 0.62145 0.079384 2.0477 
6961 1.7141 0.623 0.41627 0.12693 1.2004 0.43692 -0.5627 0.89232 0.31548 0.97408 -0.45773 0.58339 -0.59941 
53240 -0.98284 1.1903 -0.43507 -0.8507 -0.8307 -1.6759 2.8528 -0.94914 0.083872 2.0922 1.3025 1.4427 -0.42022 
5498 0.060697 -0.7753 -0.31137 -0.75973 3.9069 0.80456 1.2411 -0.13707 1.7551 -3.3346 1.775 1.5407 -0.46811 
7464 2.8819 2.1337 -2.5556 0.69335 0.62245 -0.40917 -1.0252 -1.4344 -0.11523 1.3749 -1.4272 -1.8984 0.02238 
5411 -3.2081 0.30833 -0.10988 0.31595 1.2428 0.52115 -0.73732 2.2662 1.229 -0.53053 0.62393 -1.5045 -0.27268 
7779 -0.74 1.9097 3.6365 2.419 2.8067 1.356 -3.1944 0.12832 0.93272 -3.2816 0.07252 -1.3749 1.4163 
7821 1.3063 -0.35845 1.2158 0.21689 1.6992 1.7042 0.42834 0.083048 1.2371 0.37066 -1.0853 0.38972 -1.8694 
53019 -0.90058 -0.077374 -0.39539 -1.4586 1.6097 0.0085721 1.1777 0.41753 -0.24749 3.535 -1.1907 3.4902 -0.39478 
78830 1.3578 -0.30861 2.1432 1.532 0.82402 -0.47045 -0.44905 0.92965 0.11312 0.74932 -0.73523 2.1597 0.1909 
56211 -2.8447 1.4475 1.4971 0.4947 -0.05022 -1.55 0.93147 -0.37583 -1.4372 -0.35378 -0.48765 -0.10854 -1.5091 
8730 0.52108 0.53173 0.64228 3.3992 -0.6779 0.93092 -1.6988 0.8044 1.431 2.1853 -0.9756 -0.076244 2.1771 
8960 2.7305 1.4042 -2.8092 -2.1779 2.8931 -0.43627 -1.6189 2.5488 0.50889 -1.3014 0.47547 -0.6993 1.576 
56722 -4.5503 2.0227 3.1283 1.2326 -1.6086 -2.1703 0.5786 -2.3622 -0.20004 1.8307 -1.7958 -0.9947 -2.2381 
2662 0.74069 -0.031773 0.99579 1.0926 -0.1482 0.25958 1.0311 0.76427 -0.44754 0.64236 -0.69081 1.6658 0.17299 
41091 -0.64845 2.5448 -1.8624 0.0038437 -1.3453 -1.6265 1.0915 -0.92114 -1.0595 -0.62678 1.4173 -0.46367 1.0678 
4582 -0.90658 1.1204 -1.3581 0.31178 0.81143 -0.986 0.50145 1.0055 -0.78835 -0.80224 0.80097 -1.0762 0.54037 
71690 1.3351 -0.00039226 -0.20676 1.1117 2.4327 -0.89444 -1.0642 1.3949 -1.441 0.44531 -2.2743 2.1402 -0.43355 
7935 0.3724 0.28242 0.042788 2.0487 -0.075825 -0.53004 -1.5198 1.4315 2.1782 0.16673 1.2324 0.27714 2.222 
1550 -1.9187 1.9647 -1.0093 -1.3553 0.56688 0.14578 -0.21803 -2.3834 0.84449 4.7555 -0.90577 -1.0766 -0.61451 
25541 0.21349 0.29792 2.4122 0.065334 -0.97759 0.40399 2.0129 -3.5552 0.38478 0.73054 -1.8165 -0.097851 -1.6211 
8451 -1.0047 2.3916 4.1635 -0.22892 2.4879 2.402 -2.1558 1.0617 2.1656 -5.776 1.0005 -2.4254 2.6584 
3727 4.364 -0.20812 0.13084 2.7224 0.90464 -0.70252 1.3897 3.4886 1.2631 -3.1565 0.081326 -3.8935 -0.9642 
V1272 1.9168 -0.25479 0.19233 -0.43177 3.238 -0.52077 -0.081371 2.7973 -0.067187 1.3639 -0.73012 0.90729 -1.121 
1623 0.41636 3.0548 0.66683 -0.8819 -1.5073 0.42315 -0.22867 -0.50178 -3.1544 0.18064 -2.9503 -1.9171 0.28502 
33394 1.9652 0.13055 0.20774 0.50325 1.4239 0.21049 0.82438 0.031714 -0.56733 -0.44646 -0.57175 0.62909 -0.76943 
58881 0.92216 -0.35624 -0.4275 1.6476 1.8631 -1.3115 3.5894 -2.8461 -0.3112 -0.060648 -0.10161 0.40825 -2.815 
3794 3.0029 0.67965 -1.1903 1.949 -0.52426 -0.20587 1.8397 1.493 0.76477 -1.8288 1.5774 -2.0744 0.74599 
5523 -1.3761 0.74513 0.49897 -2.2046 2.8861 1.2666 0.21016 0.016241 1.7916 -1.2263 1.1265 -1.1259 -1.7588 
185 0.89082 1.7652 0.94419 0.62231 -0.014944 -0.7414 -0.14216 0.96238 -1.1675 1.9495 -0.12098 0.56916 -0.22803 
04112 0.43082 -1.8088 1.426 1.4653 1.0533 -0.9229 -0.40927 -1.0577 1.4325 0.13458 -2.5713 0.092948 -1.2962 
8754 -4.3421 0.30182 0.54279 -4.4918 2.0697 -0.10872 0.12101 2.2613 2.9804 1.1953 0.16037 -1.3533 -0.44303 
7823 0.53697 -0.65589 1.297 -0.21883 2.1134 0.24733 -0.5666 -0.077364 1.0032 0.98886 -1.8065 0.81562 -1.8138 
4142 3.4452 2.0439 -1.1429 2.1915 2.0143 -1.6038 0.96132 -0.11356 -1.9784 1.6899 1.0434 1.1797 0.27889 
E9308 1.4766 -1.0299 2.5472 -0.9899 1.5904 -0.074229 -1.7279 -0.43763 3.0678 0.32037 -1.8732 1.0186 -1.2129 
56081 -3.7948 1.4776 -0.67803 1.0093 -1.0184 -2.1191 0.8351 -1.4408 -1.0937 1.2751 -1.5168 -0.75302 -1.4514 
V4611 -0.41694 -1.4111 0.68675 0.26919 -3.224 -2.805 0.068599 -1.7501 1.8712 0.27491 -4.9657 0.11589 -0.41943 
8054 -1.0598 2.2037 0.27547 3.7283 -1.8938 0.041587 -1.7828 -1.085 1.2993 2.0723 -0.47427 -1.251 1.3782 
V4983 -0.058315 -0.35404 -0.77374 -0.29558 3.7341 0.091137 0.63685 -2.193 2.507 2.4565 0.071524 0.6734 -2.167 
44023 0.76965 -0.74686 -0.45405 1.6178 0.47733 -4.3585 1.5232 -1.5531 0.50576 -2.2624 0.84085 1.6346 0.52341 
28522 0.85375 1.6218 3.7474 -1.4793 1.3338 1.0524 -0.83016 0.069478 -0.48856 1.0636 -1.4878 0.54532 -1.5142 
27542 0.64264 -0.75787 1.9094 0.069622 0.59972 1.4975 0.63178 -0.97657 1.2305 -0.46209 -1.8456 0.94948 -1.5941 
7856 0.62133 0.050149 0.80741 -0.36724 -0.15755 1.5 -0.17776 0.28213 0.40841 -0.23827 -2.5607 0.41581 -1.1872 
53010 -1.3139 0.39368 -0.70789 -0.45706 1.8476 -0.12193 0.75573 0.27005 -0.14029 2.7679 -0.32556 3.9776 -0.64397 
99832 -1.9887 1.7156 -0.1258 0.62474 -0.38421 -2.6957 -0.78451 -2.4942 -0.16203 -0.99231 -0.9055 -1.7747 -0.62242 
4524 -1.6798 -0.98132 -0.42661 -0.88206 2.2112 -0.80821 0.94517 3.905 1.4516 0.031897 0.86331 1.0052 -0.3572 
8105 0.96788 1.9896 3.7204 3.4374 3.0699 0.43251 -3.6766 -0.92797 0.09769 -0.9981 -0.72432 -0.807 0.3469 
V4586 -0.12118 -0.30171 -0.50292 2.1524 1.6749 -0.19627 -1.5455 0.87266 1.0597 1.154 -2.5025 1.073 -2.3727 
0353 -0.77169 0.54118 4.4412 3.5945 1.7221 1.5664 -2.4446 -0.069203 1.395 -1.4161 -0.21327 -1.3284 1.3095 
5609 -2.7928 1.5361 0.46042 -0.019212 -0.94196 -0.81237 1.5833 -0.78501 -1.3026 1.0376 -0.43706 -0.26763 -0.80134 
7936 -1.5925 -0.20348 0.92319 2.7435 1.6678 0.47257 -3.3356 1.0781 3.4878 -0.51008 0.17963 -0.87352 2.7616 
30550 0.13357 -0.99822 -1.764 3.2809 0.60299 1.6497 -0.43741 -0.59509 2.4576 0.97535 -1.2472 -0.18711 1.1391 
24200 -0.92242 0.11104 -2.4625 1.4427 3.076 1.5115 -1.2463 -2.4671 0.62272 0.19156 -2.2799 6.2435 1.4296 
29570 0.22953 -0.94218 -0.25318 1.2357 -0.15034 0.26589 1.6456 -0.89141 -0.34492 -0.21315 -2.0808 0.50854 -0.39968 
V5866 2.3324 -0.29066 0.10506 1.1054 1.7101 -1.4789 0.36475 1.7801 -0.11975 -0.067051 -0.014639 1.1767 -0.084999 
3733 3.9788 1.4323 -2.1549 -0.73286 0.95181 -0.77141 -0.86396 2.2331 0.79572 -1.3865 -0.76104 -1.8695 -0.2572 
E8796 1.4615 -1.3968 3.3924 1.7556 -0.35103 -1.0193 1.2373 1.559 1.4715 0.86661 -0.20303 1.8906 -0.13921 
99682 -3.9706 2.3823 -0.7857 -2.222 0.57656 -0.50658 1.1321 -4.3058 1.6239 3.2256 0.13905 -2.0952 -1.2578 
04186 -0.89828 -0.2142 -0.43807 -0.21254 0.56291 -0.96441 2.2171 1.2288 -0.038319 2.4701 -0.15759 3.2676 -0.4333 
452 -3.163 2.4702 -0.065156 -1.4412 -0.29817 -0.053812 1.3993 -2.5935 0.99839 4.8162 -0.019839 -1.268 -1.1638 
25062 -0.13245 -0.12868 0.75303 3.0202 1.9731 -2.5285 0.34735 -2.2507 0.71098 -0.29037 1.2921 3.9732 -0.1153 
4550 -0.0026965 -1.0335 -0.94144 0.38382 2.592 -2.4451 2.453 2.5192 -0.25427 3.7289 -1.1458 2.9352 -2.0023 
E9352 1.0861 0.043337 1.0754 2.7319 1.9745 0.93747 -1.3399 0.39952 0.017949 -0.37897 -2.178 0.21094 -1.7235 
4568 -1.8448 -0.43757 -1.0817 -1.0544 2.5801 -0.16951 1.1051 -0.8546 1.5927 5.1646 -1.3872 0.29526 -1.5604 
0416 0.66958 -1.3042 2.0571 0.96998 -0.26776 -2.2718 0.61264 -0.091101 1.1257 0.0061544 -0.92873 1.6411 0.029438 
4430 0.49599 0.69864 -0.41876 -1.1854 3.1734 1.6065 0.51018 -0.47732 -0.3896 0.25422 -0.82787 -0.61607 -1.839 
4829 0.81265 1.4242 1.0731 -0.43106 -2.0082 0.0071905 2.031 -1.4578 0.47702 0.74144 -0.82296 -0.11046 -1.716 
4263 2.996 0.57392 0.14057 1.2843 0.29451 -0.94094 0.84614 1.2437 -0.55317 -0.084887 -0.10759 0.78038 -0.29158 
7905 1.4499 -1.4908 0.7711 1.4113 1.3198 0.95174 0.57667 0.69526 0.94907 0.053933 -0.82236 1.1488 0.28927 
78097 1.013 -0.92964 1.3848 2.8587 1.0781 1.2463 0.57166 -1.0821 0.042116 0.42013 -1.8769 1.871 -0.60577 
43330 2.7859 0.51738 -1.04 -0.023415 2.337 -3.3402 0.044967 -0.14871 -1.7263 1.0195 -0.49601 0.87373 1.8032 
9331 -0.020146 -1.5219 1.1351 -0.53283 -1.8249 -1.9783 -1.3052 0.11319 2.927 0.83517 -3.9428 1.3255 -0.61858 
V180 0.2784 -1.5019 -2.0689 0.35951 5.529 0.71499 -0.55127 1.0277 -0.4563 -0.72094 -1.4062 1.1484 0.47517 
5589 -1.154 0.45409 1.0624 -0.10864 1.5759 1.1518 0.98314 -0.86904 0.24303 0.33571 0.057744 1.8123 -1.388 
87342 0.22407 -0.0039491 0.58937 3.9402 -0.411 1.4875 -1.2697 0.79773 2.165 1.709 -0.63582 -0.071538 1.9245 
23871 -0.69193 -0.5893 2.0471 0.98078 1.6267 0.11914 -0.90504 0.59924 1.1497 2.1749 -1.0934 1.2333 -0.61487 
3524 3.9965 1.2119 -2.5128 -1.375 2.0698 0.1488 -0.58177 0.31764 0.99364 -1.1301 -0.40361 -1.2904 -0.13676 
E915 0.017647 -2.3913 0.67799 1.2307 0.14228 -0.20344 -0.5106 1.3863 1.8064 0.33406 -3.915 0.62484 -1.0682 
5672 -6.1828 2.3944 -1.3141 -1.5132 -1.9171 -0.81045 0.89576 -1.6152 1.1991 -1.3886 0.34688 -1.254 -0.72141 
4820 -1.9241 0.94294 0.74623 -0.70138 -3.763 -1.6536 0.86481 -2.0539 0.6006 -0.32135 -1.6636 -1.8007 0.80934 
0212 0.03377 0.071654 2.5314 0.1377 1.9825 1.8144 -2.689 1.6786 -1.3834 -0.084727 -3.2333 -0.42315 4.0784 
5188 -0.44254 1.4548 1.1651 -2.5047 -0.50617 -1.5434 0.50081 3.6261 1.0255 0.75872 -0.13319 -0.91463 -2.4377 
8052 -1.1777 2.4441 0.81308 3.3382 -3.0082 0.09068 -2.2427 -1.2925 1.4353 1.2825 -1.2636 -1.2296 1.456 
44101 0.86625 2.4851 -1.2388 -0.51942 -1.3434 -1.2117 -0.71513 -1.1358 -0.52651 1.6444 -0.89528 -1.9754 0.78892 
9744 1.7392 1.5711 -2.0869 -0.44688 0.73223 0.36298 0.20888 3.3575 0.84563 -2.4591 3.0161 -1.1765 3.2061 
07030 -1.1922 -0.27002 -2.243 -0.23383 -0.011365 1.6506 1.3436 -2.2432 1.2346 0.7162 -1.8744 -0.68923 -0.41007 
3453 -0.77372 0.31877 1.5273 0.058308 -1.8426 0.61615 0.83369 -1.9005 -0.18381 0.99497 -1.3587 0.6534 1.8235 
5772 -3.4398 0.75597 0.18995 0.78494 -1.5182 -0.6165 1.0484 -0.60037 -0.046634 3.1858 -2.1379 -0.16224 -1.4517 
4401 1.1104 -0.06055 -1.2495 0.46456 1.4931 -2.5034 1.4899 0.24076 -1.4622 0.036331 0.12383 -0.06841 0.63903 
78900 0.33447 -1.399 0.42492 1.6113 2.7011 2.1983 2.3298 -0.77619 1.5663 -0.13247 -0.88866 2.289 -3.0379 
5641 0.97346 0.91416 0.54749 0.86937 2.1628 -0.71284 -0.54616 0.82367 -0.83044 0.71211 -0.91543 1.628 -1.5938 
53551 -1.5977 1.4099 -2.3968 -0.8307 -0.71766 -0.75029 2.0564 -1.0717 -0.70165 0.44468 -0.38877 3.2151 -0.05167 
44021 1.4076 0.82309 -1.8974 0.22789 1.274 -3.1769 0.59469 0.1741 -1.4794 0.11719 0.022712 -0.16594 0.85599 
2967 -0.92898 -0.17572 -1.3039 1.0146 -1.3722 1.3439 0.80279 0.61296 0.31292 -1.7837 -1.2863 0.58334 1.0483 
3533 3.9739 1.6523 -2.9045 -1.087 1.8708 -1.2355 -1.0674 1.4955 0.63942 -1.0563 -0.2254 -0.48867 0.13833 
5793 -4.652 0.16534 3.6091 0.045503 0.21749 0.24782 3.2029 -1.5784 -0.81314 0.10472 -0.53147 -1.2575 -1.288 
3481 -0.47522 -0.16966 0.023757 1.2372 -3.1947 -0.58237 1.1063 -1.0265 1.03 0.90173 -1.0354 -1.2228 1.5145 
V442 -1.2359 -1.1087 2.5867 -0.025603 1.632 -0.77201 0.9469 1.4403 -0.48933 -0.70884 -1.935 0.93184 -1.994 
415 -3.5039 0.29388 -0.012666 -0.076353 1.9302 0.72791 -1.6244 1.0845 1.955 1.4432 0.041976 -1.9021 0.16436 
725 1.5217 1.1003 0.81811 0.37237 0.41399 -1.8741 0.01196 1.2022 -1.5213 -0.020535 -0.88179 0.42279 -0.56431 
42842 1.0065 0.61675 -0.89493 0.33394 0.51953 -1.7928 2.1483 -3.1177 0.25562 0.50208 0.555 0.53114 -0.68292 
3694 0.53858 -0.28683 0.47522 0.38095 1.5936 -1.6822 -0.10596 0.2145 0.093248 -0.62938 -0.21398 2.1839 -0.32989 
2252 1.7014 0.17519 1.7267 0.58586 1.0016 0.36208 -0.77716 -0.3449 -1.6782 1.2243 -2.5968 0.48106 1.5771 
6823 -0.71073 0.5153 -0.76893 1.4705 -0.74138 -0.15186 0.87731 -2.3934 0.091116 -0.53416 -0.2843 -1.2757 0.49752 
49392 0.78858 0.90929 -0.75411 0.66014 -1.3794 1.5914 1.5095 -0.60213 0.23776 -0.80482 -1.8462 1.3507 -1.5444 
8669 -2.2521 -0.73576 -0.49714 1.8062 2.3861 -0.97501 -3.5456 0.44412 2.8461 -2.1139 -1.2416 -0.26443 1.4472 
25012 -1.4687 0.54202 0.6322 2.6049 -0.47751 -0.27858 1.301 -2.5419 0.34737 1.4711 0.054051 3.065 -0.01965 
7885 0.1425 0.90311 0.88559 0.59229 1.3323 -1.8657 -1.4764 -0.12442 0.010124 1.0257 -0.51605 0.21908 -0.94526 
2440 0.95499 0.18207 1.6286 -0.050286 0.32856 -0.10977 1.1537 1.7355 -1.6967 -1.3563 -1.6589 1.4721 -1.124 
99889 -1.2443 1.3804 -1.3224 -0.0075236 1.3235 -1.2171 -1.8407 -1.5049 -0.59256 -0.043039 -1.1672 -1.6007 0.69869 
59970 2.4088 -0.81354 1.7842 1.0447 0.4298 -1.4032 0.31457 0.78265 1.6677 2.4921 -0.22297 1.2898 -0.21872 
9914 -0.37031 -0.5427 1.8409 -2.0821 2.5005 2.5118 0.13982 1.714 2.0049 -0.87624 -0.11132 0.42255 -0.70101 
7994 -1.1235 1.2561 1.5137 -0.16007 -1.6437 -0.20879 0.50347 -2.5953 0.42901 1.2429 -2.0425 0.88591 -1.3287 
V1301 0.69615 -0.020588 -0.062951 -0.045697 2.597 0.14723 -0.30431 1.691 -0.22062 0.63529 -0.40426 -0.071126 -0.21164 
4592 -1.1274 -0.56608 0.60963 -0.55979 1.9264 0.95343 2.5539 -2.5918 -0.69978 0.44148 -1.8152 -3.7521 -1.2236 
7906 0.58065 -0.5512 0.061526 1.0597 1.4179 1.0892 -0.58001 1.3143 2.311 0.16141 0.047023 0.52961 -0.48747 
V454 0.96668 -0.60999 2.3971 2.324 2.607 -0.70572 -1.4788 1.6355 0.17223 -0.46645 -0.62154 0.52518 0.001133 
1628 0.3214 2.6527 1.5058 -0.5712 -1.6446 0.8181 -0.20728 -0.78799 -2.2148 0.39768 -2.6529 -1.247 -0.11279 
3605 1.09 1.9091 -1.7918 0.39472 -0.21438 0.7369 2.6646 1.1 -0.34395 -1.7154 2.884 -1.2577 1.5283 
E8120 -0.088319 0.83498 0.56473 2.7961 -0.90353 0.07469 -2.1041 1.1821 1.6476 1.3277 -0.41888 -0.7979 1.5766 
4242 1.5112 1.1806 -0.37921 -0.22787 -0.23977 -1.221 -0.17199 1.2512 -0.11218 0.37045 -1.2185 -1.0407 -1.5329 
71536 1.5074 0.36759 -0.25659 1.3756 0.97526 -1.0972 -0.13455 0.46366 -0.47446 0.7849 -2.0225 1.1967 -1.7774 
5728 -1.671 -0.82419 -0.49124 -1.9753 1.5674 -0.17795 0.25892 -1.816 2.7311 3.075 -2.2096 -0.071357 -2.1512 
6827 -0.68987 0.36621 -0.071327 3.1746 -0.56889 -2.6898 1.3378 -3.6125 1.1845 -1.3411 1.7221 1.9194 1.4353 
2866 -1.9044 1.8268 0.77724 -1.1914 -2.2689 0.27154 1.2453 -2.2657 1.5587 0.33727 1.1506 -1.6547 0.88071 
V641 1.3441 -0.22731 -0.82721 -0.90884 0.98118 -0.63226 0.7778 -0.17888 0.58301 0.83931 -0.3174 -0.43143 -0.15277 
56981 -4.8431 1.039 2.6828 1.8028 -1.6835 -1.8481 1.1826 -0.60527 -0.77899 -0.23922 -1.7492 -1.3853 -1.7044 
8670 1.5698 1.6961 1.9897 1.5805 -3.0908 -0.67827 1.0236 -0.36061 1.0103 3.0548 0.29323 0.7274 -0.0013821 
5920 -0.40208 1.1259 2.7555 1.0762 0.1344 -0.8737 0.39683 0.60937 -0.19685 0.10109 0.82214 2.7042 -0.51332 
5168 0.50467 -0.57997 -1.2412 -1.3382 -1.8287 -0.98647 2.3067 -2.5693 2.3348 -0.76199 -2.1541 -0.91946 -1.5086 
3844 -0.6788 0.43662 -1.4899 -0.51659 0.6077 -2.9093 -1.081 1.9897 -0.14395 -1.0261 -0.39457 -2.62 1.2275 
8382 -0.78893 0.57934 0.046375 0.019766 1.7146 -2.6269 -4.0939 0.133 1.5257 -3.7187 -1.3514 -1.3595 1.7995 
78829 1.3294 0.23864 2.2724 1.0434 0.18167 -1.0466 -0.30946 0.95592 0.084961 1.1742 -0.80312 0.67754 -0.62312 
V1087 1.2743 -0.23585 1.3406 -0.84598 0.23666 -0.33762 0.6125 2.1606 -1.3711 -2.683 -2.7679 0.87438 -0.82424 
9341 -0.65213 0.19977 0.88242 0.063161 -1.3673 -0.60947 -2.0324 -0.33314 0.66282 -0.11283 -3.549 -1.1391 0.23786 
0088 0.21535 0.79194 -0.21067 1.9057 0.74314 0.93668 1.7563 -0.51935 -0.075011 0.17497 0.20471 2.8381 -1.7239 
23875 1.5225 0.21467 2.1962 -0.45823 0.5148 -0.84734 1.6598 -1.2446 0.57625 2.0918 -0.088401 0.86162 -1.1756 
V443 0.56074 -1.3113 3.2167 0.27479 1.0787 -1.1074 1.2109 1.864 0.34856 -0.0012753 -0.6405 -0.084865 -1.1335 
72989 2.9438 -1.2183 1.8332 0.34587 1.4893 -0.68024 -0.07322 -0.71585 -0.53469 0.74469 -1.6734 1.3439 2.0033 
9656 -0.67706 -0.59988 -0.22414 -2.0506 -0.47633 1.65 -0.72422 2.26 2.0437 -3.3275 -2.1509 -0.76902 1.3528 
7921 1.4124 -0.30304 0.088145 0.6706 0.79475 0.02223 0.8201 1.1095 0.41221 0.037516 -0.099495 1.5264 -0.32649 
E912 0.42565 -2.3249 3.0415 1.0445 -0.078927 -0.3523 -0.95251 1.9118 1.1017 -1.4649 -4.5458 -1.2105 -0.65363 
261 -2.1672 0.80221 1.7131 0.20599 -1.7208 -1.0816 1.9027 -3.4598 0.53063 1.9402 -0.63578 0.28746 -0.5578 
43811 1.3067 -1.5169 1.9542 -1.3098 0.031249 -1.6382 1.2491 -0.44188 -0.046264 -0.12691 -1.2336 2.1639 1.9307 
3403 2.0417 2.0946 -2.5632 -1.4942 1.8875 -0.88097 -2.8515 1.8888 1.5402 -1.1391 0.44684 -2.5584 1.2383 
8051 -0.054297 1.9195 2.9681 1.1893 1.7982 1.0592 -2.0029 -1.1914 0.90053 -3.8327 0.84591 -0.55292 1.0526 
8020 -0.53959 1.0191 0.42253 3.3025 -1.8564 1.3399 -2.104 0.25615 1.6786 1.5811 -1.5426 -0.79679 3.194 
8082 -0.68706 3.1163 0.14006 3.5439 -1.9948 0.076372 -2.3257 -0.44469 1.9325 2.0235 0.27127 -0.66337 0.93585 
4940 1.8554 0.3313 0.99174 -0.3046 -0.65209 0.0046882 0.16596 0.36039 0.26906 -0.00022272 -2.6506 0.64009 -1.7786 
28800 0.6205 1.2332 3.5504 -0.87071 1.2389 2.4183 -0.27942 -2.4677 1.7482 1.8916 -1.3652 0.67909 -2.1944 
V1006 -0.22355 -1.1006 3.0474 1.5887 1.4336 -1.3555 1.7867 1.309 -0.6481 0.41386 -0.78852 -0.4968 -1.5055 
29620 -1.4154 -0.01711 -1.0447 0.25606 0.44927 1.6303 -0.0087767 -1.3483 0.899 0.26585 -1.5987 1.9333 -0.1099 
28981 0.28467 0.72265 0.84397 0.94072 0.59672 -0.2644 1.8331 -2.7152 -1.1718 1.0455 -1.3395 -1.4465 -1.4771 
9229 -0.23625 0.29367 4.0361 -2.7745 1.5175 2.6922 -0.55841 1.8145 0.9071 -0.36642 -1.219 0.27499 0.098732 
56983 -4.9385 2.9835 1.6115 1.1212 -1.668 -2.1234 1.3417 -1.3375 -0.94194 0.3053 -0.38347 -1.9197 -1.8283 
71941 1.4087 -0.2539 0.55785 1.0697 0.38168 1.214 0.28713 2.3251 0.0171 0.22101 -1.3889 1.3212 -0.56043 
481 0.14816 1.5494 0.30068 -0.41997 -3.4342 2.2388 1.8115 -0.76584 1.0469 0.52476 -0.85983 -0.97176 0.025098 
99659 -2.0601 0.83225 0.84197 -1.3145 -1.6445 -1.4194 -0.058757 -1.6892 0.15614 0.82091 -3.3499 -0.27347 -1.7458 
51902 -0.54769 0.15406 -0.013028 0.35553 -3.182 -2.0323 -0.15584 -1.5168 -0.26311 -1.4769 -5.2868 -0.45005 -0.70667 
V427 -1.2112 0.71877 0.60689 -0.87977 0.30615 -1.1693 1.3358 -2.3789 1.2677 1.7757 0.78256 0.80855 -1.4001 
45182 1.6141 0.48115 -0.056235 0.72327 0.39766 0.39113 -0.33772 -0.97811 -0.455 -0.16758 -1.4863 -1.2906 0.29523 
E8792 -0.13812 -0.39307 3.2509 -0.97059 2.6203 -0.89999 -0.01651 1.2241 -1.3704 2.2091 -1.926 -0.20236 -0.46397 
3712 2.0207 1.4982 0.4119 -1.4672 1.3722 0.73763 -0.78647 1.6661 1.5811 -0.62243 -0.090847 -3.9776 -0.97707 
7295 1.0116 -1.0819 0.11729 1.7507 2.0357 0.37331 0.076082 0.69806 0.73203 -0.1239 -1.6184 1.2303 -1.3938 
5303 -0.92313 0.26341 0.58135 -1.2272 0.11438 -0.73738 0.34876 1.3265 -0.90686 2.0038 -2.1944 1.1811 -0.6451 
3899 2.2999 -0.15502 1.6783 -0.19713 1.9917 -0.065803 -0.31045 1.315 0.097784 0.59744 -0.58114 1.6107 0.026895 
9992 1.5574 1.7064 -1.2331 0.081969 0.2671 0.83546 0.94294 -2.1488 -1.1048 -0.30375 -1.2939 -2.5995 -0.29456 
41511 -1.2811 1.5473 0.92844 0.88902 -0.9534 -0.76961 -0.012905 -1.4014 -1.0564 0.84794 -0.97925 -2.8425 0.6711 
41189 0.052004 -0.024005 0.78782 0.71136 -0.4351 -2.3836 2.5826 -1.9733 -0.33949 1.3176 -0.41736 1.0095 -1.0771 
8024 -0.63326 1.6993 -0.28565 2.7258 -1.8645 1.8523 -1.9433 0.39163 1.2366 1.4825 -1.498 -0.60355 3.1409 
E8147 -1.218 1.2046 0.29476 2.9543 -1.2329 0.67727 -2.2452 0.26651 1.7741 1.3805 -0.64772 -1.0149 2.1412 
99831 -1.0445 2.043 -0.10386 0.27115 -1.1791 -4.0153 -0.96753 -2.4819 -0.31442 -0.1986 -1.1856 -2.2639 -0.23956 
56881 -1.6076 1.3715 0.456 0.66679 -0.418 -1.3146 1.1013 -2.0186 -0.28089 2.8554 -0.29231 -2.323 -0.59607 
V0980 0.10393 -2.0559 2.5052 -1.1119 1.7563 -1.0565 -0.0021456 -0.51188 2.2142 0.014014 -2.4801 -0.31603 -1.8734 
V1204 1.39 -1.8794 2.0327 1.5372 2.9165 -1.3376 -0.54297 2.3292 0.029523 -0.31775 -2.0437 1.8604 -0.75721 
V4579 1.0989 -0.84718 0.79385 0.86202 3.2543 -0.05411 -0.5667 2.2789 -0.32993 1.6472 -1.5402 -0.20269 -0.47674 
85220 1.0474 0.9938 0.47925 1.8022 -2.1593 0.69197 -0.73967 -0.40296 0.13799 1.0699 -0.78968 1.0572 3.6076 
5855 0.59344 0.72092 -0.33205 0.021381 0.94723 0.47615 3.2809 -2.9996 1.1467 -1.8404 0.60993 1.1873 -2.6438 
70709 0.043946 -1.1055 2.537 1.3829 -0.55686 -3.592 -0.34954 -1.957 2.8972 -0.63925 -0.50893 1.0226 -0.49775 
3931 -0.87431 0.75042 -2.0471 0.45245 1.9327 -0.54698 -1.3044 2.2112 0.71621 -0.35861 1.0058 -3.1232 1.7533 
9999 -0.30873 -1.2623 0.58495 -0.72033 -0.80416 -1.1169 0.16022 -0.5555 1.0553 -0.046218 -1.9852 0.69899 0.84632 
9654 -2.8235 1.6362 -1.1273 1.8216 -1.2087 4.2854 0.95499 -2.0639 1.8475 1.4972 -1.1013 1.0107 0.20968 
1890 -0.42543 3.2343 1.0905 -0.048332 -0.38089 0.22715 0.70915 -0.72778 -2.5345 0.68871 -0.48695 -1.4702 -0.70923 
72402 1.6111 0.33011 1.1716 1.4839 1.0532 -1.62 0.16857 0.13284 -1.6582 -0.11216 -0.99822 0.029873 -0.064113 
9694 -2.1246 0.97572 -1.4984 3.1291 -2.0043 4.7369 1.3357 -1.147 0.97361 0.18572 -2.5065 0.89424 0.40203 
1962 -2.15 4.1614 0.84583 -0.36629 0.35544 -0.052224 -0.17669 0.54816 -2.3082 2.906 -0.60341 -0.60771 -1.5849 
9906 -1.3298 0.95582 -0.07597 -3.843 3.0021 1.629 -1.8088 2.7457 3.077 0.41587 1.1544 -1.6361 1.486 
48242 -0.70438 0.088563 1.9951 2.1418 -3.9084 -1.2353 1.6101 -1.8541 0.2907 0.63733 -2.8108 0.76901 -0.14368 
5198 -2.2945 -0.28806 0.83232 -2.9676 1.3872 0.31178 0.03136 2.1435 1.3528 0.16169 -1.4425 -0.085337 -0.99454 
36250 3.2135 0.81544 1.4311 -0.60128 1.7 -1.4728 -0.54193 1.6728 -0.59988 1.4994 -0.64624 1.101 -0.17399 
V1302 1.8091 -2.1203 2.9632 1.4429 2.2675 -1.0595 0.048554 3.5396 0.2491 -0.1973 -1.8723 1.8724 -0.15817 
07044 -1.4757 1.6493 -1.2118 -1.6319 -0.74058 1.4419 1.0117 -2.5991 3.8035 2.8084 -0.19169 0.22114 -2.0808 
1976 -2.6828 3.7766 2.0973 -0.68224 -0.21454 0.7403 0.39865 -0.47273 -2.6088 2.5875 -1.0292 -1.1251 -1.3388 
V0254 0.7644 -2.0166 0.65724 2.1437 1.7673 -0.66412 0.71512 0.99385 1.013 -0.62194 -1.615 1.5289 -1.8194 
78321 -0.14778 0.30435 1.0911 0.29676 1.3497 0.68136 -0.58815 1.7721 0.43535 1.3835 -1.2895 0.9661 -1.844 
5118 -0.12609 2.3351 -1.1602 -1.7303 -2.1974 -0.2854 0.048338 -0.41456 1.1166 0.3635 -0.73368 -2.5513 -0.74344 
3571 4.0141 1.479 -2.8589 -1.8746 1.8957 0.42862 -0.88582 0.68282 0.72661 -1.0025 -0.67816 -0.79879 0.77531 
E8160 -0.2672 1.2904 0.63686 2.4303 -0.76335 0.83483 -2.4845 0.6869 2.1457 1.1666 -0.32675 -0.53025 1.8083 
4432 -0.40611 0.098603 1.8843 -2.4202 -1.2493 0.34126 -0.60742 1.0388 1.0164 -1.2951 -0.57972 0.68579 2.5931 
2410 0.5009 -0.27503 1.6496 0.13841 1.5953 0.5481 -0.66124 0.41165 0.0067594 1.3899 -1.6669 2.2478 0.28848 
3229 -0.89726 0.88316 -0.23847 -1.8843 -0.96465 0.96735 -0.95768 -1.1473 -0.11192 -1.3752 -2.0864 -0.94388 1.8075 
V5869 1.9271 -0.078562 1.9631 -0.23972 2.8197 1.1243 0.069466 0.71055 -0.075663 -0.36235 -0.88428 0.68447 -1.3916 
78609 0.39521 -0.53718 0.00027479 1.5989 1.1664 -0.11255 0.31193 -0.082644 -0.43573 0.58081 -2.4864 0.85908 -1.4065 
4270 0.57331 0.42906 -0.13017 1.0138 -0.84142 -1.2003 1.0722 -0.95425 -0.24611 1.4813 -0.67417 -0.90917 0.081244 
4786 0.75909 -1.1438 0.91477 0.55427 -0.37513 -0.50247 -0.88343 -0.42634 0.15345 -1.3052 -4.3119 0.14878 -0.11726 
E9290 0.42494 -3.3655 3.0322 4.024 -0.96409 1.2294 1.5317 1.8027 3.6412 -0.57184 -2.5257 1.1689 -0.8151 
V4987 0.98704 -1.1571 1.7576 1.4868 0.94881 0.7061 -1.225 0.98698 1.1725 1.6055 -2.1152 0.41659 0.4329 
56089 -2.6263 2.8052 1.5872 0.86528 -0.62253 -0.73767 0.030479 -1.5079 -1.7342 0.97327 -0.92161 -0.86003 -1.1582 
28850 -0.030132 -1.038 0.57845 -0.55784 1.6196 0.9602 0.90284 -0.50847 1.2489 2.0338 -1.2942 2.2108 -0.56205 
8849 0.10148 -1.4126 0.59243 -0.74513 4.0886 -0.15076 0.28702 0.82378 1.8651 -1.0965 2.0922 -1.9951 2.3695 
8851 -0.91352 -1.7226 2.8573 -1.3679 3.0251 1.7545 0.93845 2.2046 1.2831 -0.43312 0.63699 -3.1128 1.9703 
99685 0.13157 0.25767 1.9236 -2.5646 -1.8086 1.7752 2.1127 -3.7949 2.2717 1.3341 -2.6125 -2.0515 -1.0378 
7210 1.8335 0.4226 1.2213 1.4038 0.35914 0.208 -0.58264 0.4327 -0.62321 0.63393 -1.4411 0.52573 0.42077 
V550 -0.37058 -1.9773 0.7854 -0.77394 -1.1027 -1.9699 0.48935 -0.27968 1.0307 -2.2417 -3.5621 2.0191 -0.379 
5531 -1.954 1.0656 -0.36627 0.47426 1.9195 -1.1916 -0.40829 0.24693 0.25225 0.6978 0.10184 1.2604 -1.9407 
25081 -1.0485 0.70574 -0.25402 0.72934 1.6856 0.64276 1.1005 -2.7492 0.839 -3.6883 0.86669 2.8086 0.067838 
8674 -1.3297 0.52678 -0.24069 0.66637 1.2359 -2.0185 -3.6031 0.76117 1.4515 -3.5094 -1.3999 -0.88454 1.9596 
8028 -0.5935 1.2712 0.15718 2.9499 -1.6972 1.1436 -2.1594 0.16594 1.234 1.8538 -1.7646 -0.92334 2.8625 
3241 -0.89699 1.7244 1.4761 1.7145 -2.1268 -1.4843 -0.55701 -4.5254 0.76651 -1.8183 -1.1262 -1.6161 0.13719 
4561 -2.1261 0.5894 -1.7652 0.32942 1.4243 0.30229 -0.24333 -1.0699 1.6232 3.8655 -0.97957 0.13649 -1.2572 
03819 -2.2255 -0.055585 0.70009 -0.21117 -1.9326 -0.44517 2.2654 -2.5231 0.68027 -0.75602 -0.11214 -0.063881 0.79868 
4660 0.619 0.32914 -0.78596 -0.98307 -0.34831 0.53619 0.48768 -0.097093 0.16079 -1.151 -2.0266 1.1302 -0.64842 
2920 -1.2131 0.33184 -1.4015 2.7424 -0.89459 3.326 1.0167 -2.0593 0.68316 1.2279 -2.0615 -1.223 0.15623 
51189 0.6372 1.7201 0.024778 0.11207 -0.91864 -0.64922 -0.14088 -2.4036 1.0264 2.0701 -1.2202 -1.7142 -1.7249 
0388 -2.6558 1.4625 1.4546 -1.049 -2.7244 -1.0023 1.5242 -3.0305 1.3268 -0.26257 0.11581 -0.49591 -0.33343 
E9503 -1.4223 0.19784 -0.68014 3.1808 -0.72275 4.5745 0.73252 0.91397 1.0103 0.33849 -2.4204 1.9426 0.63747 
1961 0.45616 3.5488 1.6607 -1.0448 -1.1099 0.80807 -0.57155 -0.23336 -2.829 0.54855 -3.4521 -1.847 -0.90882 
04149 1.0192 -0.76449 2.5112 1.2074 1.7277 -1.7942 -0.36197 0.31475 0.068529 1.4015 -1.0913 1.0035 -0.77657 
78079 2.0323 -1.3012 0.99633 0.38441 0.6164 1.0909 0.73333 0.19859 0.21243 0.24568 -2.0812 0.99032 0.3351 
3558 1.8994 -0.30001 1.3586 0.45145 2.003 0.059032 0.59497 0.097603 0.20026 1.0742 -0.56064 0.4361 -1.1209 
57410 -2.4436 2.0071 -0.79537 -0.87853 -0.75847 -1.5897 0.13933 -0.20226 -0.30751 1.3883 -1.5612 -0.73183 -2.1722 
0061 1.3782 0.18051 -0.98964 -1.3212 3.2943 -2.4135 0.51037 0.88857 -1.9216 1.4203 0.43964 2.291 4.5126 
E9394 1.3161 -0.61605 0.2425 2.7319 1.0422 1.3441 -0.34767 1.0256 0.48185 0.98088 -1.7399 -0.02498 -0.29226 
25083 -1.0668 -0.46029 -0.23035 1.3526 2.0414 1.8365 1.7849 -4.5761 1.2545 -2.2255 -0.23916 4.3247 0.52015 
70712 0.79783 -0.063693 -0.76399 -0.13772 -1.6949 -2.3275 1.8469 -2.2922 2.0012 -1.0304 -0.41596 1.9002 -0.91366 
3179 0.25054 0.47942 0.34879 -0.54593 -0.16827 -1.1765 -2.269 1.8606 -0.19038 -3.8818 -4.6706 0.81043 -0.64908 
53540 -0.3249 0.239 -1.211 0.071169 1.1139 0.14585 2.4663 1.1804 -0.099937 2.4361 0.064698 3.1492 -1.0327 
53783 0.23413 0.6208 -2.1074 -0.78703 -0.06901 -2.4628 3.581 -1.2316 0.53009 1.2393 1.0428 1.2666 -1.4497 
79431 1.6389 -0.95286 -0.038697 1.5777 1.6035 0.5835 0.79651 0.57233 0.42782 0.066217 -0.6654 2.1341 -0.23597 
3003 -0.43694 -0.44643 -0.54503 2.3164 -0.21817 2.5439 0.55217 0.86749 1.1576 1.5388 -2.0376 1.2445 0.3265 
7837 -0.54656 -0.18763 2.4407 0.41885 0.35269 -0.075948 -0.37203 -0.29989 0.77144 1.0259 -1.5985 2.8106 -0.97724 
9634 -1.8458 -0.054195 -1.3698 -2.2203 0.4178 0.41602 1.3247 2.8617 1.6257 0.6639 1.3855 1.0584 1.1478 
04109 0.98692 -0.17109 0.16847 -0.53115 0.99175 -0.54666 -0.55396 -1.7456 1.6393 0.59871 -0.78718 0.12015 -0.37837 
4471 0.040031 -0.23473 -0.6606 -0.39009 1.423 -2.5916 1.5827 0.085957 -1.0698 0.76747 0.14677 -1.8065 0.39388 
1125 -3.5576 0.70185 2.0775 -0.56694 -1.9327 -1.063 1.7945 -2.3053 1.1637 -0.27416 -0.030335 -1.3319 0.059017 
8103 0.465 1.1256 4.3109 3.1259 0.8708 1.1801 -2.4652 -0.37764 0.54227 -1.9881 -0.95536 -0.49985 1.3539 
8080 -1.4904 3.1263 0.27204 3.3043 -3.0489 -0.38391 -2.0302 -0.026203 2.0348 1.628 -0.092169 -1.0696 1.1274 
8102 0.47104 0.85077 3.0632 3.1552 0.98699 0.68916 -2.5542 -1.3564 0.14528 -2.1657 -0.74482 0.024998 1.6905 
4370 0.86052 -0.61868 2.3925 0.52778 -0.095236 -1.4711 -0.14286 0.2809 -0.52931 1.0699 -1.2687 4.0822 2.7852 
44422 -0.388 1.1014 -0.75411 1.7869 0.1778 -3.2897 0.88237 -2.9035 -0.67768 0.633 0.86072 -2.0269 1.4747 
9951 3.8585 0.57332 0.9251 1.0138 0.34186 2.2707 0.96584 -1.4366 0.70756 -1.346 -1.7941 1.4 -1.2911 
514 -0.10311 0.50482 0.47243 0.60593 -0.60267 -0.03748 1.4263 -1.1474 -0.94382 0.6569 -1.6286 0.2997 -0.9844 
598 -2.4053 1.3677 2.3304 -0.69601 0.88636 -1.2027 -0.46822 3.0029 1.1941 -0.79445 2.3477 1.1734 0.016503 
25042 -0.1258 -0.58034 -0.27314 2.7335 1.3602 -1.6591 1.2409 -3.6542 1.3487 0.033596 0.70236 2.7411 0.1033 
78061 1.432 1.0562 5.1757 -0.56736 1.8011 1.7102 -1.2596 -2.0734 2.4292 3.1729 -1.5475 0.80214 -1.7995 
7872 0.79744 0.72322 0.14984 -0.59419 -1.2767 0.092217 -0.65204 0.63988 -0.020124 -0.66875 -1.2186 1.0146 1.4206 
5109 -0.68008 2.1176 0.23545 -0.97189 -2.9861 0.6165 -0.68686 -1.8002 1.5965 0.43466 -2.2918 -1.9599 -0.92714 
4543 -0.46029 -0.65156 -0.2463 -1.5439 2.2888 -1.9332 2.6747 2.9877 -0.13801 1.4015 0.95004 0.60397 -0.57093 
73730 1.0912 0.77213 1.4205 0.54878 0.55843 -0.64297 -1.2071 0.75207 -0.23119 -0.48939 -2.5604 0.30785 -2.0705 
78650 0.84276 -0.14107 -0.25017 2.1337 1.5487 1.5138 1.4303 0.19288 0.67177 0.25126 -0.40528 1.3637 -1.9802 
53190 -0.090352 -0.56391 -0.5987 0.37115 1.0486 0.019479 1.7018 1.2556 0.57773 2.4665 -0.19864 2.0167 -0.95909 
V4283 -1.3217 2.4791 0.92401 -0.21147 0.56312 -1.7396 1.0264 -4.0255 -0.64898 -3.243 0.64225 1.7813 -1.7149 
11284 -1.4705 0.40001 -0.19947 -0.77122 -0.01878 -0.33785 1.8312 -2.984 0.29173 1.9942 -0.42375 1.4731 -0.20447 
V4573 0.92878 0.081947 2.1765 -0.22437 3.4005 -0.5146 -0.0683 0.076377 -1.5418 -0.095216 -0.77602 -0.83857 -0.54317 
4590 -0.5363 -0.49519 -0.78574 -0.86109 -0.59277 -0.11341 1.8314 -0.47784 1.0094 0.54457 -0.27895 -1.5609 0.24156 
V667 1.206 -0.96522 3.0076 0.062203 0.60324 -0.1012 -0.11569 1.0651 0.34215 1.4208 -1.7614 1.0407 0.04533 
E8700 -1.0688 1.1235 0.35827 0.98291 2.421 -1.4142 -1.9145 0.47865 -0.3164 1.5054 -1.4039 -1.3508 -2.0941 
920 1.1588 0.032082 1.1409 2.7181 -0.52119 0.97333 -1.1194 0.48518 1.3996 1.7501 -0.72159 0.86457 1.9217 
30001 0.053155 0.052582 -0.13153 1.9777 2.0669 1.8048 -0.46805 0.75761 -0.47212 0.40789 -1.9316 3.3124 -0.85853 
59971 1.6776 0.45155 2.7447 1.5342 0.8802 -0.935 -0.0056529 1.4988 0.052044 1.9401 -0.014212 0.1038 -0.74925 
4552 -0.32528 -0.71764 -0.59566 0.27199 0.93225 -0.38084 1.6351 -0.01334 1.1395 2.1642 -0.51496 1.3081 -1.3184 
V1271 1.1606 -0.44308 0.17317 0.31985 3.4763 -0.31988 0.30641 2.1077 -0.46378 0.9912 -0.64664 0.31515 -0.95222 
9072 -0.86567 -2.7621 3.8313 4.8388 -2.1573 -0.07941 2.4681 -0.24299 4.3704 -0.16586 -1.8821 1.3525 -1.7866 
7078 0.030921 -1.6273 1.4137 -0.14166 0.86522 -1.0621 0.27374 -0.57399 1.687 -1.0856 -1.0828 0.77613 -0.6769 
56985 -0.72061 0.31183 -2.7187 0.58256 -0.82826 -1.7671 3.3902 -0.56319 -0.13736 2.0134 0.29446 0.82983 -0.39115 
8452 -0.29457 2.1129 3.1766 -0.041516 2.9361 0.81214 -2.9085 0.70562 1.6475 -4.1829 0.49592 -2.0702 1.835 
80701 -0.90014 1.6952 0.43635 2.2945 -1.5028 0.60583 -2.0867 -0.058708 1.5039 1.7852 -0.90262 -1.1922 1.3369 
9749 -0.85678 -1.9291 1.4512 -1.4481 2.6254 0.40389 0.65447 -0.095574 2.585 -2.2999 0.48731 0.65261 0.22131 
4576 -3.4485 0.43953 0.94333 0.90972 1.5002 -1.7645 -0.48041 3.1528 -0.70878 -1.4291 -0.57906 0.18519 -0.83822 
72400 2.5283 -0.32675 1.0628 1.063 1.2192 -1.5599 0.72437 1.6945 -0.77755 0.90605 -1.0617 1.906 -0.56001 
E9300 0.9818 -0.5617 2.6026 -1.3621 1.6906 0.57025 -1.5806 -1.4557 3.0353 -0.214 -1.3646 0.51861 -1.0707 
V453 -0.24508 0.14258 0.31149 -0.29978 0.86975 0.40561 0.20813 0.97762 -0.15677 -0.45945 -1.6195 0.53236 -1.5256 
0063 1.5308 -0.073385 -0.53888 -1.8499 5.0398 -0.91335 0.98847 0.80642 -2.1283 0.68429 0.53241 -1.5791 4.568 
5503 -1.4655 0.56275 3.4482 -0.023496 0.7309 -0.69159 0.21942 2.4578 1.4202 -0.75513 1.8824 2.2953 0.092353 
03843 -2.6056 0.67149 1.4986 -0.81847 -2.9559 -0.86207 2.5961 -1.9455 1.1745 -1.1988 0.044752 -0.74697 -0.084764 
3942 0.66854 -1.3155 -1.7552 -0.8869 3.0608 -1.4048 1.711 -1.0246 0.73451 -1.9875 0.68224 -1.1381 0.60339 
5738 -0.64179 -0.040191 0.38495 0.47036 1.5916 -0.19124 -0.70006 0.59692 0.21164 1.8735 -1.0419 -0.088999 -0.71669 
5732 -1.1925 1.1323 2.0013 0.024208 0.12987 -0.55277 -0.60331 3.4949 1.3401 -0.69097 1.9323 0.17763 0.21826 
3451 -0.23392 1.0401 -0.26227 -2.3459 -1.3931 0.31962 -1.5549 2.6542 1.8701 -1.0691 -2.0065 -2.6624 -0.10434 
99661 0.49509 2.1697 -0.30159 -0.33804 -2.0211 -1.6379 1.171 -4.2934 1.3197 -1.2812 0.7246 -2.7605 0.10037 
4739 0.5258 -0.10202 -0.017002 -0.39912 0.68987 1.3708 0.073645 -0.012839 0.59184 0.2047 -1.1501 0.91523 -0.14213 
7812 1.8645 -0.73102 1.0646 1.0583 1.0359 0.95312 -0.67067 0.6924 0.31013 1.1481 -1.5913 1.0322 1.2897 
45821 1.4327 -1.3496 0.13396 0.66102 2.2312 0.31627 2.3054 -2.614 1.4921 -1.5044 0.40241 -0.69792 -0.63341 
70723 0.029807 0.23326 3.1443 1.7254 -1.5391 -2.797 0.45562 -3.4645 0.66491 0.32241 -1.8797 0.44688 -0.77965 
70719 0.25896 0.50352 -0.48351 1.1058 -1.567 -2.9375 0.61706 -2.6349 1.2263 -0.37396 -0.76739 1.248 -0.83181 
391 -1.9633 -0.38405 -1.5179 -2.8148 1.8724 1.2075 0.58924 0.81804 3.462 2.7755 0.66952 0.018622 0.62394 
5419 -3.8439 0.76704 -0.0025516 -0.25603 1.8726 -0.31364 -1.8544 1.8918 2.0831 0.42663 0.10136 -1.9952 -0.23778 
V6284 -1.7929 0.3167 -1.1988 2.6053 -0.38932 1.2747 0.67338 -1.7049 0.42121 1.8884 -1.6212 0.97642 -0.04127 
33818 -0.73591 0.62519 0.69768 1.8806 2.8354 -1.1084 -2.1959 0.174 -0.47149 0.6055 -1.8017 -0.18602 -1.7198 
5750 -1.4748 1.4932 1.0879 -0.88996 -2.3019 -2.0205 1.8214 -0.22315 -0.14957 0.9655 -0.32694 -0.38712 -1.1404 
9986 -3.3872 2.0203 0.48582 0.43231 -0.39971 -2.9641 -0.060206 -1.8821 -0.57509 0.21389 -0.69515 -2.0353 -1.15 
71596 0.84374 -0.43592 -0.070757 1.312 1.5771 -1.4552 1.0117 0.51337 -1.0421 0.462 -0.62045 0.4495 -0.30447 
51851 -0.3378 2.407 0.0017999 1.1263 -1.3537 -2.4421 -0.87458 -2.6487 -1.0755 1.6278 -1.2409 -1.5424 0.91133 
11289 -2.1873 -0.099549 1.035 0.7071 -0.16112 -0.42307 0.72024 -3.0547 1.3564 0.39076 -1.1901 -1.081 -1.0897 
9702 -1.7129 -2.0238 1.6311 -2.4071 -0.58187 -1.5637 0.054556 2.5398 2.8952 -2.0919 -1.4743 0.72906 0.69786 
4621 -3.8881 0.99403 -0.048022 -0.10977 1.5985 -0.53661 0.49012 3.5817 0.17019 -2.5711 0.91404 -0.12228 -1.313 
4593 -2.8662 0.76484 -0.21946 1.5973 0.67522 -1.8409 0.36777 4.9486 0.19985 -1.2784 1.133 -1.1817 -0.83822 
1121 -0.75918 0.44026 1.7092 1.0471 1.1842 1.0841 -0.7846 -0.28697 -0.052093 0.63425 -1.7956 3.5283 -0.55601 
8845 -0.4221 -0.43854 -0.64873 -0.75769 3.1112 -0.061389 1.1741 1.2617 0.89004 -0.12363 2.7883 -1.6904 2.2949 
2819 0.71592 -0.50446 0.78896 0.52879 0.10802 0.98865 0.46503 0.90543 1.2323 1.9819 -0.88384 1.8673 0.080486 
4423 0.85618 0.61739 0.28461 0.62897 2.7389 -2.5876 0.51381 -1.5812 -1.3077 0.29956 0.9637 -1.8932 0.66181 
42090 1.2414 2.109 -0.069521 -0.98568 -0.78709 -0.24699 0.29028 -1.1059 -0.038617 1.0327 -0.93925 -3.0501 -0.94566 
544 -3.643 1.811 0.71967 0.45957 1.6316 -0.1875 -1.2493 3.9853 -0.55587 -0.47914 -0.61308 -1.1655 -1.0283 
E9500 -2.0474 0.48051 -0.27092 2.5389 -0.48755 4.7465 0.82432 -0.50471 1.8804 0.40761 -1.4928 1.4876 -0.0047996 
4264 2.5663 0.34412 0.0085946 0.42898 0.96298 -1.1108 0.80489 0.87637 0.027065 0.12095 0.30212 0.53263 -0.16969 
E8499 0.15836 -0.70758 -0.088207 1.3475 1.5558 1.2038 -0.54825 -0.66403 1.7192 0.79981 -0.64323 -0.46348 0.011408 
V0259 -0.23754 -2.8142 1.1783 0.23558 0.68954 -0.52164 0.97411 0.1771 1.3633 -2.5631 -3.4131 1.3896 -1.5645 
51909 -0.53017 -0.16923 0.30345 -0.56631 -2.4834 -2.3072 -0.052064 -1.2205 0.03566 -1.0227 -3.9318 0.27919 -0.0052166 
2740 0.3738 0.59714 -0.30883 -0.68409 0.058709 -0.64819 0.45438 0.27291 0.53456 -1.3212 0.57657 0.12462 -0.090294 
6929 1.5155 0.27729 0.79511 0.46124 1.4676 1.047 -0.36858 0.72802 0.14565 0.40263 -0.37076 1.1463 -0.17821 
56969 -3.6744 1.8851 1.2537 0.77959 -1.0053 -1.8262 1.0468 -0.90237 -0.65623 0.49609 -1.3931 -0.47272 -2.098 
72889 0.54201 -0.7135 1.0376 1.6754 -0.65947 -0.90593 0.57018 -0.63818 0.26676 -0.49356 -0.71904 -0.15621 0.90466 
25200 1.0595 0.0081008 1.3337 0.14153 2.2987 1.2041 1.5883 0.78144 0.57736 -0.30307 -0.099491 0.77848 -2.507 
20410 1.6484 1.6133 1.5991 -0.89036 -0.61234 0.046143 1.1746 -1.5924 -0.24487 0.64805 -0.23725 -0.75035 -0.70998 
78194 2.6946 -0.49658 2.0055 -0.14018 1.3462 -0.19513 0.36608 -0.60907 -1.4513 1.3124 -1.7058 1.1159 3.226 
53560 -0.95353 -0.3745 -0.43413 0.56214 1.3564 -0.99848 1.3304 1.3798 0.097618 3.1585 -0.33883 2.5211 -0.79482 
7824 -0.46046 1.1598 1.3005 -0.027578 0.12737 0.27353 0.2076 -2.0326 1.6334 2.828 -0.71377 0.4154 -1.9152 
53390 0.69583 0.065455 -0.63821 0.56147 1.1312 0.018513 0.29345 0.49149 -0.4207 0.51316 -0.9741 1.9338 -0.21845 
31401 -0.19526 -0.028083 -0.22908 2.884 0.94942 2.622 -0.32573 1.0879 0.44666 1.8785 -1.6316 1.2933 0.013215 
7761 0.44917 1.0033 -1.9277 -0.023801 1.1618 -4.0867 -4.1186 0.90214 1.8985 -4.0874 -1.397 -1.193 1.1233 
20300 1.1296 1.5099 2.331 0.08031 -0.95224 -0.065139 1.2019 -2.756 -0.61423 -0.082504 -0.86431 -0.033302 -0.58261 
9980 0.2942 2.4494 -1.6428 0.72118 -0.55664 -2.7261 0.085945 -0.9013 -0.65088 1.5514 0.14572 -1.9567 -0.41111 
20500 0.023841 2.1824 2.022 -2.1291 -1.6774 1.5319 2.2406 -3.0431 1.0681 0.86008 -0.05688 -2.2058 -0.90436 
56723 -2.436 1.2622 0.092358 -0.39188 -0.35247 0.13706 1.0603 -3.9513 3.0641 3.1015 -0.20534 -0.63694 -1.498 
V1042 -0.14979 0.13773 1.8505 -0.4255 1.1925 -0.23825 0.31408 1.7118 -1.4999 0.50787 -0.91564 0.23958 0.11414 
3201 0.18453 0.24069 0.93578 -2.4314 0.082293 1.8119 -1.0535 1.0465 0.009468 -2.1904 -3.6889 -0.31936 0.39017 
5733 -0.59395 0.23707 0.71384 0.44263 -0.02694 1.2283 0.1876 -1.5053 1.2498 0.85453 -0.74027 0.69015 -0.63977 
8345 -1.7955 -0.80069 0.76099 2.2641 2.9242 -0.60856 -2.5615 -0.52571 3.1416 -2.3671 0.5375 -0.51555 2.2981 
78702 1.617 0.17742 0.8489 1.1265 2.5099 1.8592 0.15274 -0.17101 -0.27834 0.40303 -1.345 0.27346 -1.1889 
E9426 2.8022 -1.0195 0.81202 2.1261 2.0209 1.1033 1.0253 -0.34327 1.2556 -1.2392 -0.69077 0.68483 -1.2758 
27803 1.753 0.33955 -0.53188 2.1966 -2.341 -2.0875 1.4205 -1.413 -0.16398 -0.46593 -4.1215 2.7115 -2.5006 
2883 1.1809 -1.0716 1.0567 -0.0065253 1.5596 0.61537 0.14373 -0.88809 1.3132 -0.089202 -1.796 1.3533 -0.97937 
57451 -1.0582 1.8118 0.77948 -1.0619 -1.7222 -1.2607 2.1431 0.13654 -0.50115 2.3379 -0.51113 -0.073935 -1.9375 
4542 -1.0636 -0.8289 0.14463 -1.4863 2.0018 -0.9413 1.991 3.8523 0.56622 1.1416 0.21436 1.8345 -0.88993 
7213 0.6274 1.1545 0.92152 2.2318 1.3733 -0.92303 -1.4677 0.24267 -0.82632 0.59907 -1.2645 0.97243 -1.4232 
25082 0.11465 -0.5428 0.45735 2.49 1.464 -1.4704 0.12949 -2.3913 1.2405 0.62807 -0.16691 2.7356 -0.45217 
5852 0.97241 -0.0093738 1.1855 0.73714 0.55597 -2.1514 1.1228 -0.29842 0.18058 1.2102 0.18636 2.0456 -0.62685 
7932 -0.9872 -0.05991 0.82315 2.4009 1.3163 0.99383 -2.6505 1.4392 2.6006 0.076216 -0.24831 -1.3608 2.5382 
5101 -0.75825 0.045095 1.3141 -1.5353 0.038213 -1.4952 0.40168 4.0317 0.81942 -0.42365 -0.23909 -0.068164 -0.86878 
9921 -0.672 -0.79699 -0.31392 -1.5951 2.4332 1.1544 -0.92349 2.1165 1.8238 -1.4288 0.20804 -0.097278 1.62 
56729 -3.9681 2.5034 1.1969 0.067215 -1.7096 -1.9806 1.0402 -2.3611 0.18077 1.0843 -0.40566 -0.85878 -1.6653 
5012 -4.3912 1.6673 -0.30367 -1.5355 1.6831 0.085344 -1.0227 2.2444 1.5008 1.3393 0.01602 -2.5631 -0.48129 
3669 2.3296 -0.2789 1.2217 0.60286 2.5128 -1.1775 0.09948 0.87997 -0.5955 -0.23844 -0.48366 1.926 -0.074149 
78909 1.1438 0.63232 0.52254 1.0585 3.1969 3.5618 2.7502 -1.1171 0.52649 -0.014649 -1.0608 1.3648 -4.8258 
55321 -2.6811 0.66012 0.15106 0.069843 1.5222 -2.2941 -0.49502 -0.067361 -0.42132 -0.19696 -1.701 -0.39118 -2.5437 
4632 -1.8832 -0.58779 0.46335 -1.3612 -0.20494 -0.045392 -0.81303 2.2182 1.4624 -0.86812 -0.57938 -0.19481 1.5429 
78722 1.4482 -1.3748 1.9469 0.55104 0.61503 -0.83592 -0.10952 0.64029 -0.0095559 1.7534 -2.3485 1.479 0.72279 
2689 1.1549 -0.55109 0.64123 0.94773 1.6719 -0.27302 -0.17384 1.2205 0.26449 0.72946 -0.91951 1.391 -0.89405 
E8495 -0.55573 0.61951 -0.03554 2.7472 -0.39016 0.84454 -2.0469 1.0355 1.6204 1.4693 -1.1605 -0.60062 1.5506 
57511 -2.0382 1.1554 -0.030442 -0.50806 0.51769 -1.0792 -0.13525 0.90502 0.15498 1.5694 -1.0479 -0.69352 -2.261 
0139 0.48662 -0.11595 1.6187 -0.89755 0.22075 1.1803 -1.4591 0.30086 0.038252 0.1404 -1.6211 -0.16667 4.2237 
5551 -1.9467 2.2211 0.50806 0.59566 1.1273 0.00047833 -0.28052 0.91719 -0.94551 0.29876 0.26434 -1.5582 -1.2743 
28419 -0.70863 1.2156 1.796 0.55982 0.076624 0.87874 0.86588 -3.3726 0.83444 3.8275 -1.0925 -0.69408 -1.1323 
4591 -4.8922 -0.22123 0.68019 0.45687 2.6008 -0.56743 -0.35047 3.1358 0.6172 -0.38089 -0.032617 -1.714 -0.043283 
2939 0.75897 1.4802 -0.35224 0.78788 -0.013887 -1.6348 -1.2608 -0.68638 -1.0173 0.088175 -1.0936 -0.20609 0.62262 
V8801 1.922 -0.62204 1.8761 0.71029 3.9595 -1.0351 -0.43287 3.0888 -1.0505 1.0378 -1.2461 0.33049 -0.3403 
42611 1.9908 -0.10636 -0.4271 0.12398 0.77471 -1.0248 0.8585 0.16584 0.19435 0.16091 -0.17831 -0.26261 -0.039172 
V1255 1.7164 -0.96159 3.1173 0.20538 1.8948 -0.99273 0.11483 1.2505 -0.4816 0.63627 -2.3027 -0.087252 -1.3152 
4611 -3.5462 -0.060859 0.91003 0.6776 1.692 -2.5778 -0.5824 3.1912 0.047568 -1.9636 -0.27289 -0.084262 -0.48775 
3079 1.0474 -1.015 0.82681 1.6063 1.1066 1.1965 -0.40416 0.58754 0.63637 1.1213 -1.6302 0.60392 0.67453 
5571 -2.3965 0.71916 -0.39388 0.139 0.07528 -1.7803 1.5148 -0.47482 -1.6576 -0.077144 -0.38641 -0.26866 -0.26091 
E9429 3.3614 0.42865 1.8833 1.1865 0.55722 1.2685 1.0812 -0.60351 -0.099118 -0.98174 -1.0205 2.3608 -0.95899 
72887 2.4371 -2.4391 2.2355 1.5562 1.4124 -1.053 0.50601 -0.39913 -0.10238 1.0823 -2.7684 1.5086 1.7819 
07051 -2.5892 0.81323 -3.1792 0.095208 -0.15101 1.595 0.47901 -1.6127 1.4553 -0.56394 0.53075 0.021248 1.3693 
3559 0.48307 -0.01384 -0.16938 0.76868 1.7473 0.43914 0.71892 0.28266 -0.57823 0.41664 -0.86897 2.3413 -0.4576 
28803 1.3275 0.91636 3.957 -1.5588 0.93567 1.2105 -0.50836 -2.6642 1.7763 1.5838 -1.9033 0.39138 -1.6892 
59010 -1.9673 1.4884 2.2798 0.17185 -1.2607 -0.69394 1.4641 -1.2504 1.0128 0.42188 0.81659 2.843 -1.1485 
4823 -3.5324 -0.81584 -0.58323 -0.15717 2.1027 -1.296 0.45982 3.7795 1.7965 -0.55386 1.1229 -0.26377 -0.20299 
E9323 0.83251 -1.4251 0.21477 0.56507 2.3941 0.011326 0.49313 -2.1981 1.0657 -0.50214 -1.0881 3.11 0.24066 
E9359 -0.2056 0.38534 -1.0612 0.36631 0.86526 0.12646 1.5475 1.0841 0.056472 2.7641 -0.13176 1.8471 -0.86532 
78062 0.96393 0.58726 0.42718 1.2165 2.2981 0.032029 -1.586 0.15949 -0.72986 1.1798 -1.5127 0.21198 -0.011084 
42613 2.4364 1.084 -0.04633 0.60718 0.065374 -1.1999 0.61493 -0.33259 -0.34647 -0.5334 0.33553 -0.73979 -0.20029 
99739 -0.46543 1.7902 -0.24497 0.90377 -0.42005 -1.8522 -1.4707 -1.6511 -0.63459 0.66312 -2.5542 -1.2343 -1.347 
