1286 13
other -0.47327 0.11861 0.54354 0.71152 0.54588 0.030191 -0.33675 -0.044358 0.52519 0.51663 -0.75342 -0.20203 -0.0074496 
</s> 1.347 0.65588 -0.58481 -1.1592 0.24183 0.24797 -1.1888 1.7883 1.1262 -0.26881 0.071914 -0.019058 1.4833 
4019 0.81668 0.46493 -0.2386 0.021879 -0.15368 -0.78134 -0.027094 0.40949 -1.0853 0.39 -1.0984 0.74875 0.48433 
4280 1.1743 -0.26478 -1.0167 0.60666 -0.47598 -1.41 1.878 -0.84769 -0.45003 -0.75483 0.25659 0.80817 -0.75038 
3893 0.0089266 -0.26389 0.041345 -1.9664 0.58046 0.10585 -0.6325 1.2386 2.6914 -1.6795 -0.0064204 0.60509 0.9384 
41401 1.7145 0.71905 -1.2462 0.478 0.7828 -1.1041 0.91363 -0.099869 -1.6438 -0.14745 0.55713 0.88994 0.14634 
42731 1.2704 -0.16125 -0.26494 0.70093 -0.41587 -1.7425 1.2323 -0.15814 -1.0126 -0.40195 -0.35096 -0.37664 -0.87565 
5849 -0.67326 1.0017 0.039341 0.98225 -1.1641 -0.7199 2.626 -0.99658 -0.38446 0.40355 0.79081 1.2554 -1.1387 
25000 1.1554 -0.23011 -0.41096 0.27806 0.064239 -1.1928 0.55112 0.30883 -0.66465 0.098294 -0.48779 0.49044 0.011991 
2724 2.2292 0.019467 0.46883 0.56893 1.0673 -1.3044 0.20895 0.26058 -1.5139 0.27649 -0.44508 1.3665 -0.20025 
9604 0.37067 0.10257 -0.79099 -1.6137 -1.0628 0.43467 -0.61851 1.1684 2.7372 -1.1185 -0.63213 0.3336 1.1482 
966 -0.072259 -0.58681 0.33918 -2.4272 -0.61694 -0.63873 -1.2632 1.44 3.1843 -1.3439 -1.1495 -0.76055 2.1244 
9904 0.58975 0.3718 -1.0429 -2.1656 1.099 -0.2935 -0.62593 2.1699 2.0181 -1.1044 0.98263 -0.64323 0.96151 
5990 -0.78641 0.31538 0.52729 0.46372 -1.2266 -0.94968 1.9461 -1.3493 -0.2883 -0.056568 -0.29266 0.75665 -0.2045 
51881 -0.90479 0.9179 -0.53899 0.65431 -2.8194 -0.065248 2.3857 -1.9343 0.23292 -0.06492 -0.69663 0.27068 -0.75554 
9671 1.1748 -0.0099084 -0.82706 -1.0388 -0.8694 0.61619 -0.79996 1.0048 2.2555 -0.83966 -0.8299 0.63923 1.182 
53081 1.1477 0.19615 -0.26688 0.1538 1.2476 -0.38296 -0.11887 0.52161 -1.0035 0.26474 -1.0967 1.4099 -0.58509 
3961 3.4894 2.2031 -2.9706 -0.59476 1.676 -1.5822 -2.3094 0.57229 -0.45649 -1.4014 0.39048 -0.46292 0.8994 
311 0.26589 -0.24389 0.020693 -0.15224 0.58893 -0.13987 -0.93024 0.22544 0.84639 0.047995 -1.4267 1.1676 0.62543 
2859 0.89946 0.16529 0.16971 -0.13609 0.60191 0.014457 0.0096161 -0.017151 0.14715 0.0056787 -0.61828 1.1991 -0.39848 
2720 1.466 0.31266 -0.67975 0.18668 0.47895 -0.78521 0.27262 0.40782 -1.2938 -0.48739 -0.23586 0.45641 1.0268 
9672 -0.035186 -0.020457 -0.34998 -1.7086 -0.6744 -0.18553 -1.2458 0.66187 2.772 -1.497 -1.0851 -0.53883 1.4629 
2449 1.3051 -0.55609 0.2556 -0.068797 0.49843 -0.9845 0.29806 0.20986 -0.31268 -0.14008 -1.0575 0.94191 -0.62644 
8856 4.0375 1.7942 -1.6386 -0.86502 0.78664 -0.55041 -0.5746 1.3479 0.6759 -0.93851 2.5853 -0.64365 1.8183 
3995 1.527 -1.5129 -1.2458 -1.5585 3.1135 0.49104 0.6083 -0.29061 3.4508 -1.9057 1.4016 0.31909 0.0091094 
486 -0.35772 0.56049 -0.43581 0.73348 -1.3929 -0.059655 2.1474 -1.2982 -0.38069 -0.51071 -0.42819 0.13556 -0.94275 
2851 -1.2753 0.28529 -0.20378 1.2033 0.2716 -1.317 2.236 0.4573 -0.96204 1.7932 0.82838 -0.40415 -0.7465 
496 0.13107 -0.36902 -0.69166 0.74264 -0.54985 -1.2851 1.1894 -0.2174 -0.71633 -0.037068 -0.9007 0.29326 -0.068861 
2762 -0.7116 0.82976 0.018481 0.5629 -0.93257 0.061841 1.7738 -1.14 0.11315 0.59162 -0.36614 0.98889 -1.5464 
3615 3.2317 2.5059 -2.7208 -0.3098 1.7743 -1.414 -1.7308 0.92744 -1.491 -1.1185 0.6566 0.43086 1.6101 
v5861 2.411 -1.7644 0.88746 0.18002 1.421 -1.4827 0.83206 0.84121 -0.21112 -0.13669 -0.74865 0.021866 -0.79003 
3891 0.72822 -0.12067 -0.19736 -1.7158 -0.49809 0.22089 -0.89071 1.307 3.0692 -1.2191 -0.11697 0.22695 1.2836 
40391 -0.46778 -0.40027 -1.6794 0.87713 1.8793 -0.25428 3.2163 -2.7836 0.2141 -1.0426 1.4254 0.6532 -0.89308 
5856 -0.16647 -0.84115 -0.92663 1.1749 2.7636 0.37241 3.7258 -3.8192 0.17084 -0.8248 0.97001 0.35183 -1.6343 
3051 1.3325 0.22587 -0.98892 0.60224 1.0282 0.21535 -0.95952 0.10513 -0.054801 1.6685 -1.2778 0.6641 0.24764 
412 1.8935 -0.61405 -0.22499 0.62665 1.3558 -1.437 0.63608 0.71191 -1.358 -0.6872 -0.28346 1.2176 -0.043075 
8872 2.279 0.37677 -1.7921 -1.5816 0.93302 -0.90782 -1.6435 0.45596 2.0273 -2.2646 0.22219 -1.205 0.85328 
5070 -1.51 0.645 -0.14503 0.74155 -3.1043 0.074684 2.0892 -0.97432 0.4308 0.26696 -0.66299 0.25747 0.67501 
5859 1.5608 -0.42946 0.22092 0.49235 0.39411 -1.9639 1.6164 -0.13904 -1.1985 0.57929 0.019129 1.4542 -1.1111 
40390 2.3097 -0.7381 1.102 0.59173 1.0196 -2.7478 1.5958 -0.46165 -1.316 0.88937 0.11897 1.8616 -1.3774 
99592 -1.3238 0.69457 1.795 -0.49624 -1.3761 -1.1506 1.7655 -1.5175 0.8021 -0.50777 -0.20616 1.0928 -1.5699 
2875 0.46177 0.20748 0.5545 -0.10817 0.48258 -0.08303 1.0165 -0.66919 0.54421 1.5485 0.12124 0.047907 -1.472 
9915 -2.2136 0.35535 0.15674 -2.8535 0.95917 -0.044677 -0.82024 2.6605 3.0127 -1.2372 -0.48448 -0.36705 0.44287 
3722 3.5657 1.6977 -1.0264 -0.13719 1.574 -0.85116 -0.53637 1.1476 -0.60494 -0.25561 2.2649 -0.48208 1.9795 
v5867 1.056 -0.73426 -0.1938 0.17843 2.611 -1.4321 0.063717 -0.51819 -0.030922 0.03013 -0.24569 3.1462 0.092668 
32723 1.5782 -0.31674 -0.44889 0.42027 1.1806 -1.2089 -0.63383 -0.76877 -0.24867 0.038094 -2.0835 2.0801 -1.7651 
2761 -0.80254 0.64428 0.54341 0.84838 -0.4138 0.10408 1.8625 -1.6719 -0.13876 1.142 -0.089004 0.36804 -1.2159 
4513 0.1632 -0.88724 -0.68562 -2.6717 1.1313 -0.39165 0.79613 3.1389 2.2356 1.2662 0.45143 0.70781 0.47139 
41071 0.34544 1.581 -1.1468 0.47336 -1.3707 -1.3536 2.8597 -0.82764 -1.7798 -0.45145 1.8361 0.31633 0.31976 
0389 -2.2586 1.4036 0.96348 0.098694 -2.6987 -0.74805 2.923 -1.5059 0.20902 -0.74415 0.08526 0.89591 -1.3266 
4240 1.8481 0.56315 -1.6113 0.5304 -0.099644 -1.0666 1.1205 0.149 -1.0294 -0.19753 0.12554 0.1902 -1.1343 
v4581 1.221 -1.4629 -0.2314 0.70496 1.0285 -2.4425 1.0159 1.1065 -0.66255 -0.9011 -0.12701 0.63815 0.38031 
5119 -1.0619 1.1339 -0.24171 0.4912 -0.99486 -0.60077 1.1158 -1.1194 -0.63892 0.5917 -0.74886 -1.5516 -1.4277 
v4582 2.0166 -0.50872 -0.21227 0.41532 1.69 -1.6795 0.41503 0.49276 -1.5312 -0.40733 -0.043465 0.89275 0.14019 
3324 0.25411 -0.27847 0.14329 -1.9562 0.023974 0.84769 -1.6126 1.0906 2.7736 -1.9068 -2.057 -1.2589 0.83294 
v1582 2.4481 -0.62642 0.21458 -0.57857 2.4022 -0.74252 -0.87703 1.128 -1.1719 0.22496 -1.6083 0.24578 0.12696 
49390 0.59742 0.43465 -0.71597 -0.088045 1.4613 0.32245 -0.48493 -0.24881 -0.45549 0.35373 -1.1713 1.4619 0.037572 
3723 3.2559 1.4433 -1.7041 -0.4226 0.4925 -0.12132 0.2544 1.2088 0.44531 -0.88298 2.3844 -0.7413 1.5501 
2767 1.0149 -0.70303 0.48117 1.0664 1.9304 -0.09189 1.4916 -1.0975 0.54711 -0.072735 0.48158 1.1158 -1.7177 
4168 2.5579 -0.17849 -0.60017 -0.094094 0.33286 -1.5641 0.68378 -0.37846 -0.35722 -0.15392 -0.55052 1.2363 -2.2869 
4241 1.6434 0.97949 -1.1921 0.38815 -0.35194 -2.3809 0.44031 -0.51578 -1.9661 0.50967 -0.61943 -0.51228 -0.76144 
42789 1.4605 0.09373 0.4509 0.58277 0.0028595 -0.20803 0.079683 0.10246 -0.029392 0.14277 -0.70134 0.73779 -0.47185 
3572 0.34711 -0.51839 -1.2401 -0.017002 2.7897 -2.1598 1.0885 -1.2335 0.27705 -1.0419 1.0888 4.0534 0.74236 
9971 0.7227 2.0878 -1.2994 0.68034 0.66515 -1.4032 0.4489 -0.28557 -1.9012 -0.60591 0.89485 -1.8765 -0.82121 
4254 0.95511 -0.7675 -1.435 1.5933 0.236 0.11466 3.0179 -1.2242 -0.094402 -0.3534 0.50364 -0.33381 -1.1179 
28521 1.8491 -1.2276 0.17098 0.30746 3.2629 -0.53456 1.3505 -1.1098 0.78759 -1.1037 0.66034 1.9505 -1.7521 
5180 -1.3545 0.72164 -0.3517 1.0352 -0.6481 -0.96216 0.56187 -0.79389 -1.0661 0.55756 -1.6879 -0.6521 -0.79865 
4589 0.68079 -0.47858 0.50795 0.31492 -0.016951 0.064845 0.93024 0.3394 0.30659 0.16444 -1.1268 1.2983 -1.0906 
45829 1.3102 0.38136 0.07452 1.0037 1.9062 -1.183 -0.64703 -0.1494 -1.2404 0.063621 -0.59511 -0.077552 -1.0676 
78039 -0.41963 0.06831 -0.08749 0.80054 -0.65677 1.3028 1.096 -0.94396 0.34083 0.14209 -0.78078 0.67356 1.3958 
2760 -1.3292 0.18041 0.69313 0.87663 -1.9484 -0.93205 1.9676 -1.6168 0.10536 1.0337 -1.0336 0.87627 -0.63615 
v1251 2.1272 -2.3728 1.547 0.47996 2.315 -0.20113 0.53815 0.85112 0.3178 -0.82951 -1.7244 0.93225 -0.7681 
5185 -2.1488 1.8183 -0.7054 -0.34334 -1.6584 -2.0972 0.40383 0.033109 -0.79986 -0.013172 -0.4978 -2.0445 -0.025117 
78552 -1.9974 1.608 1.6676 -0.4033 -2.7194 -1.1611 2.9432 -2.1511 0.65319 -0.78683 0.11234 0.96142 -1.6993 
8853 3.1284 2.3902 -3.0661 -0.2762 0.56253 -0.033063 -0.67564 1.4752 -0.091661 -1.1122 2.0899 -0.62416 2.3894 
2749 1.8215 -0.46453 0.17526 0.25452 1.3176 -1.339 0.70438 0.51025 -1.0784 0.037872 -0.26256 0.89217 -0.76138 
07054 -1.2014 -0.10946 -1.8776 1.0343 1.1124 1.2661 1.2396 -1.1492 1.8336 2.3658 -0.60861 0.39096 -0.84522 
9907 0.70082 0.50233 -1.0224 -3.2002 0.93392 0.079682 -1.2778 1.918 3.048 -0.37835 0.51152 -0.99648 0.98535 
73300 1.5203 0.17557 1.165 -0.48981 -0.14883 -1.0232 -0.24618 0.38148 -0.86017 -0.0058713 -1.7173 1.4041 -0.54513 
5845 -1.7057 2.3295 -0.14381 -0.1203 -1.4635 -0.99131 2.1337 -2.6241 -0.031167 0.017378 1.0653 -0.90846 -1.4186 
2765 -1.7716 2.1133 -1.4682 0.098462 -1.2805 1.0087 1.4119 0.79214 0.37478 -1.5095 0.42864 1.8526 -0.014033 
7907 -1.9615 -0.33674 -0.27217 1.072 0.10332 -0.40428 1.996 -2.442 0.61288 0.088192 -0.49993 -0.8577 -0.90219 
3895 0.8719 -1.274 -0.3862 -2.2784 3.097 0.016717 0.45636 -0.25531 3.7054 -2.4437 1.2841 0.10372 -0.48158 
9390 2.4579 -0.18326 -1.2746 -2.2099 -0.39061 0.29914 -0.59811 0.93682 2.2485 -2.5188 -1.4191 1.9906 -0.36452 
5363 -0.88526 0.37702 -1.1687 -0.81236 3.6522 1.1848 2.7795 -0.91408 -0.53303 -1.0485 0.68947 4.7795 2.0301 
3612 2.8957 2.5908 -2.6102 -0.57967 1.5795 -1.0957 -1.5184 0.66139 -1.6004 -1.1635 0.60889 0.17859 1.1907 
4271 0.82041 0.69623 -0.76612 1.9057 -0.96354 -1.1912 2.1507 -0.34316 -1.0801 0.012449 1.164 -0.91528 -0.55999 
0331 0.31359 -0.15635 1.2875 -1.7274 0.31289 2.2986 -0.38575 -0.16657 2.8339 -0.63483 -0.9037 0.87507 2.34 
49121 1.3597 0.22038 -0.83926 0.51955 -3.0713 -0.22166 1.8815 -0.46812 -0.57524 -0.32959 -2.5902 2.1264 -1.1548 
99811 -1.0443 1.3069 -1.1508 1.078 1.345 -1.3971 1.2475 -0.55847 -1.735 0.45466 0.55726 -2.5263 -1.9015 
e8798 0.11752 -1.6184 1.0796 -0.36375 1.9566 -0.8663 -0.39388 -0.42416 0.68974 0.78266 -1.8326 -1.0508 -0.21005 
30000 2.0151 -0.10042 -0.094426 0.24311 0.83133 0.66301 -0.8453 0.57519 -0.20991 0.97045 -2.3351 1.1349 -0.65398 
4311 0.44416 0.067612 0.65294 -1.708 -1.4585 -0.25064 -1.8077 0.5229 2.6472 -1.5616 -1.5555 -0.41803 3.3696 
27651 -0.22036 0.33586 1.1452 0.27608 0.46618 0.094787 1.3191 -0.060849 -0.60239 1.0938 -0.70926 2.2463 -0.92558 
9920 3.8003 2.4617 -0.88126 -0.93941 0.20233 0.50048 0.82925 1.8232 0.99119 -0.37814 3.9122 -0.73745 2.9661 
4111 1.4406 2.3477 -2.2511 0.71731 1.3175 -1.2707 0.40435 -0.064162 -3.0147 -0.088078 0.96595 0.159 0.42736 
27800 1.7043 0.3345 -0.61057 0.53017 0.83108 -1.0487 -1.1995 -0.13942 -0.69119 0.40283 -1.5544 1.219 -0.53033 
3491 0.64488 0.24962 -0.37327 -2.0028 0.35142 0.20912 -1.3026 1.5609 2.5903 -1.4349 -0.58285 -1.9029 -0.17687 
4439 1.1121 -0.81704 -0.35512 -0.078197 1.5936 -1.6135 0.67681 0.34002 -0.57183 -0.51154 0.12072 0.86165 0.29493 
42832 0.32113 -0.31751 -0.50032 0.98095 -0.58788 -1.9422 2.4203 -1.6736 -0.85631 0.020849 -0.62537 1.6227 -1.8729 
25060 0.19424 -0.65941 -1.252 -0.079934 1.7271 -3.1252 1.0428 -1.5209 0.36419 -0.70155 0.87926 3.2655 -0.035096 
36201 0.69265 0.14623 -0.85276 -1.25 3.9559 -2.3462 0.36625 -1.6417 0.71013 -0.85172 1.5474 4.4999 0.08116 
00845 -2.0515 -0.15176 0.67901 0.38497 -1.0399 -0.87452 2.5496 -0.97918 -0.047513 -0.24089 -0.47403 0.1207 -0.52848 
0040 3.8276 0.4776 0.73767 -2.2412 2.5243 -1.5104 0.38609 0.1055 1.2829 0.59244 3.3862 -1.2617 2.8254 
3004 1.4787 -0.88858 0.090405 1.7003 1.7732 0.50923 -0.47218 0.46779 0.53733 0.98019 -1.7922 1.872 -0.80191 
2809 1.4257 -0.32139 -0.13177 0.38816 0.7207 -0.41311 0.16765 0.17769 0.032038 0.37972 -1.2062 2.0022 -1.194 
28529 0.70772 -1.1899 0.91764 0.27229 0.75498 -0.051177 0.18193 -0.26422 1.1525 -0.2712 -1.9944 2.2737 -1.3813 
2768 0.20639 0.15268 1.3662 0.28852 0.51996 0.69486 0.205 0.35492 0.60078 1.4362 -1.1368 1.6303 -1.1714 
27652 -0.083743 -0.058369 1.4448 1.017 0.39374 -0.31513 1.0777 0.44197 -0.31975 0.62366 -0.5816 1.6624 -1.2481 
2930 -0.52617 0.54827 1.0662 1.1076 -1.0702 -1.3315 0.87241 -1.1512 -0.45667 0.85604 -0.74116 -0.044635 -0.87247 
5789 -1.2107 0.11974 -0.794 0.070068 -0.33774 -0.46224 3.4369 0.41614 -0.41048 1.548 1.1146 0.45667 -0.61994 
42833 0.89216 0.15453 -0.64903 0.73336 -1.6311 -2.0169 2.8983 -1.7428 -1.2438 -0.7616 -0.82591 1.7032 -2.2847 
3613 2.9275 2.0528 -2.3808 0.0061002 1.8674 -1.484 -1.3259 0.61075 -1.4512 -0.99417 0.87886 0.40697 1.4342 
41400 0.98651 -1.6194 -0.17129 1.1616 0.47592 -2.4539 1.2246 0.82113 -0.54938 -0.67181 -0.65533 0.92597 -0.25034 
99662 -2.5199 -0.60673 -0.71106 0.14521 -0.12177 0.06131 3.3532 -2.6583 1.4135 -1.8952 0.1778 -0.95913 -0.56826 
25061 -0.41233 2.0372 -1.3759 -1.7854 2 1.171 2.1818 -1.3271 -0.31052 -3.0994 1.7094 3.6028 1.3978 
99591 -1.5114 -0.38192 1.7355 0.10866 -0.46389 -0.96593 2.5185 -1.7393 0.39268 -0.071409 -0.58117 0.85454 -1.097 
5491 -0.94541 -0.068267 0.49885 -2.9912 1.9037 -0.60708 -0.50978 1.9901 3.8844 0.65321 0.101 -0.43055 -1.7009 
3404 0.31689 1.0132 -1.0386 -1.3392 0.12425 0.52878 -2.3794 1.9629 2.4171 -1.5482 -1.2508 -2.9411 0.95646 
3897 1.8466 -1.4279 1.9398 -1.3413 1.722 -0.71965 -1.8009 1.3116 2.9884 -0.24522 -1.2601 0.74511 -0.29008 
27801 0.39051 0.19188 -1.2311 0.60142 0.70579 -2.1684 -0.91954 -0.94759 0.0070667 -0.60539 -2.1134 2.9113 -1.9878 
5715 -0.71419 0.71562 -1.5279 -0.52811 1.402 -0.13133 0.92934 -1.6076 1.4494 3.6403 -0.041737 -0.086692 -2.07 
3521 3.3779 1.2659 -1.9638 -0.37275 0.97226 -2.4143 -1.937 0.32808 -0.84427 -0.24217 -0.54488 -1.1849 0.27432 
2639 -2.3228 0.53312 1.0684 0.54432 -1.0326 -0.22004 1.9242 -1.5403 0.091791 1.4703 -0.809 -0.68466 -0.65371 
5712 -0.99751 1.1782 -0.80423 -0.25072 -0.072576 -0.39898 1.4492 -0.89005 2.142 4.9555 0.65503 -0.16458 -1.8176 
60000 2.0753 -0.17868 0.66424 -0.014052 0.54146 -1.6766 0.073202 0.93539 -1.4363 0.5853 -0.9569 0.4599 -0.42759 
99812 -0.6885 1.0204 0.20766 0.96723 1.1396 -0.9286 1.4966 -1.0399 -1.4355 0.00055185 0.98391 -2.1645 -0.70539 
79902 0.90996 -0.027147 1.2633 0.46296 0.37908 -0.54698 0.12333 -0.70728 -0.68524 1.2536 -2.0361 1.151 -1.5636 
70703 -1.1283 -1.2535 3.0093 0.94714 -0.58594 -3.3779 1.8912 -1.0793 0.64272 -0.7383 -0.67081 0.90312 -1.2294 
25040 0.69423 -0.87937 -1.9316 0.025736 2.2648 -2.5074 1.8689 -1.6875 0.98318 -0.72629 1.6133 1.9014 -0.9841 
99859 -3.6738 2.0034 0.20376 1.7037 0.46032 -2.5973 0.77395 -1.3795 -1.5073 -0.85295 0.0018972 -0.86796 -1.2876 
e8788 -0.30876 -0.024323 0.76097 0.59524 1.964 -1.6266 -1.0849 0.49992 -1.1996 0.48397 -1.5849 -0.88605 -0.31643 
78791 0.97468 0.099703 1.8639 -0.77029 1.6802 0.39934 -0.012381 -0.7796 0.50116 0.53491 -0.93535 1.6353 -1.6312 
42823 1.3369 -0.16681 -0.70734 2.406 -1.2517 -1.7416 3.5177 -1.8317 -0.94949 0.41734 0.61503 0.28155 -2.0086 
42732 0.91568 0.33273 -0.83375 1.4345 -0.572 -1.0605 1.9898 -0.95555 -1.426 -0.096091 -0.23357 -0.8972 -1.4516 
e8782 0.5112 0.13258 -0.81376 0.66289 3.0025 -2.8529 -1.0786 -0.64845 -1.2918 0.13972 -0.50919 -0.78883 -0.77112 
29181 -0.58256 1.1739 -1.6879 2.2176 -1.4503 1.778 1.2094 -0.68071 1.0047 4.3438 -1.5706 0.47722 -0.018624 
8841 1.2972 -0.030384 -0.094149 -2.0696 0.7821 0.79569 -0.57775 -0.1201 0.61681 0.85061 -1.1187 -0.87404 5.2589 
2800 -0.32139 -0.4672 -0.88209 -0.051381 -0.057004 -0.90365 2.2864 0.90398 0.10919 1.7173 0.44844 0.34619 -0.57286 
v4501 2.2713 -0.92112 0.14356 0.29509 -0.091239 -2.4729 0.73367 1.1811 -0.67939 -0.58434 -0.23849 0.1859 -0.12106 
5723 -1.5147 0.57386 -0.30903 -0.5737 1.2942 -0.43484 2.6796 -1.3068 1.36 5.0453 0.22249 -0.64725 -2.7589 
42822 0.56671 -0.90697 0.13528 2.8421 0.40962 -1.5103 3.0518 -0.46109 -1.1583 -0.056602 0.66412 0.84593 -1.4482 
42830 0.050916 -0.048011 -1.322 0.37397 -1.0129 -0.91425 2.2582 -0.76116 -0.1404 -1.4557 -0.050844 1.1599 -0.75905 
0066 4.5441 1.0159 1.4951 -0.23139 1.5563 -0.51304 1.1624 -0.13672 -0.62908 0.97977 2.9027 -0.097846 1.2814 
3322 -0.35887 -0.3412 -1.5533 -1.3808 -0.070435 0.501 -1.466 1.4972 2.113 -2.6117 -2.867 -1.0667 0.95098 
58381 0.43238 -0.081492 -0.77053 -0.62311 3.7965 -0.56992 1.1675 -1.3776 0.62327 -1.2928 1.1809 3.2041 -0.45675 
v1046 1.6576 -0.56993 1.1581 -0.15054 0.38699 -1.6703 0.6028 2.1127 -1.4634 -0.057028 -0.57733 -0.044657 0.34775 
3606 3.8605 1.455 0.27217 0.11933 0.11437 0.35512 1.4523 1.3136 0.52639 0.058024 3.775 -0.79556 2.3374 
v5865 1.5179 -0.62164 1.5291 -1.1902 1.149 0.053582 -0.14476 0.20609 -0.061862 -0.91621 -2.5395 1.1942 -2.1141 
v1581 1.5883 -0.90106 -1.4742 0.65005 1.9792 1.0684 0.24429 -0.53146 1.7615 0.91334 -0.59712 3.359 0.33996 
9905 0.66215 1.984 -1.0427 -3.4915 1.4707 0.98028 -1.9265 1.3669 2.619 0.27853 0.55021 -2.0481 0.79625 
34590 0.89417 -1.9348 0.98283 0.40433 0.98071 -0.31769 0.83256 -1.8134 1.193 1.6727 -1.8066 1.4427 -0.028033 
2763 -0.87671 0.18034 0.19373 1.6436 -1.2104 -0.39988 1.6558 -1.2735 -0.38742 0.87349 -1.6752 0.47922 -1.6594 
5601 -2.5779 1.5878 0.14625 1.2176 0.068552 -1.0835 0.85091 -0.20371 -1.0731 1.373 -0.58538 -0.67046 -1.9888 
v103 1.5155 0.16577 1.3717 -0.29727 0.50965 -0.089205 0.1029 1.5742 -1.7787 -0.31827 -1.3712 0.15278 0.070961 
3607 4.4051 1.1261 -0.15629 -0.12659 0.78243 -0.46746 1.4835 0.7625 0.62958 0.32284 3.6573 0.041539 1.9881 
0414 0.17336 -0.14504 1.0855 -0.17699 -0.31894 -1.0122 0.81812 -0.25398 0.10294 0.58701 -0.57201 1.2435 -0.32265 
4139 1.7027 1.1148 -1.2228 0.63213 1.0896 -1.5645 0.2766 0.3902 -2.5069 -0.5185 0.029625 0.40631 0.37409 
5770 -2.6783 2.1672 -1.0048 -0.4978 -1.7504 0.023486 1.8672 -0.8767 -0.0088708 2.0645 -0.59808 0.057033 -1.3563 
3323 0.057484 -0.13164 -1.3381 -1.737 -0.29525 0.20768 -1.4038 1.1278 2.0817 -2.5419 -2.4851 -1.029 1.1307 
e8497 0.7689 -0.99438 0.79238 0.64496 1.8148 -1.6639 -1.2439 -0.1368 0.18988 1.3939 -1.9588 -0.86032 -0.57496 
8964 1.324 1.1116 -2.3248 -1.8259 0.21591 -0.075144 -0.27668 2.2364 2.7958 -2.2399 1.857 -1.7634 0.22804 
07070 -0.89417 -0.90575 -2.2523 1.5045 1.951 0.88233 1.4804 -1.7919 1.6679 2.0213 -0.56755 0.89202 -0.25411 
99681 -1.6659 1.3622 -0.32172 -0.45998 2.0244 0.77285 3.0011 -3.3561 -0.023067 -1.6293 1.4354 0.7897 -1.8916 
79092 2.111 -1.757 0.90749 0.091899 1.2749 -1.282 0.87297 0.59341 0.31042 0.47309 -0.85286 0.51072 -1.4182 
78820 0.55285 0.47355 1.2049 0.42416 -0.62999 -1.6651 -0.091844 0.27435 -0.94329 0.17955 -0.55924 0.64717 0.40597 
v1254 2.6284 -1.3995 1.3918 -0.038639 1.4294 -1.7034 -0.12299 0.64367 -0.66002 0.58606 -1.2447 0.72495 0.44091 
7100 1.6958 -0.56087 0.59589 1.8221 3.4928 2.9204 2.8319 -1.358 0.36066 -1.4356 -0.5685 0.43998 -3.984 
3601 2.3473 2.1423 -1.9267 0.13873 -0.8279 0.16778 1.9977 1.6915 -0.29783 -1.1295 3.1721 -0.74558 2.3372 
40301 2.0956 0.63524 -1.2552 1.4333 4.7516 4.9659 4.0109 -3.5509 0.77499 -2.3104 1.845 1.5009 -1.4047 
33829 2.0548 -0.89607 0.94167 1.2729 2.6125 0.46706 -0.83982 0.64251 0.93238 0.82597 -2.3404 3.3512 -2.1821 
25013 -1.9247 1.0717 -0.1968 2.5981 2.28 1.3378 2.5986 -1.3158 -0.10398 0.82579 0.76085 5.4517 0.64205 
25011 -1.8924 4.905 -2.1411 -0.36539 0.18428 1.9992 1.4597 -0.40437 -0.36559 -1.2604 1.7602 5.2701 1.6584 
78959 -1.5675 1.2214 1.024 0.47427 0.77956 -0.71439 2.3304 -2.5141 0.69975 3.848 0.24637 -0.87862 -3.9419 
4523 0.83052 -1.4579 -0.62054 -2.6774 1.2006 -1.0451 1.6532 4.3608 1.4241 0.8439 0.41255 0.42031 0.022916 
5939 0.70438 0.59991 -1.6438 -0.61565 0.37897 0.12182 0.99857 1.0037 -0.81611 -1.3794 0.33624 0.8917 1.2183 
30500 0.035675 0.55048 -0.79434 1.7568 0.088739 0.71768 -0.49043 0.20248 1.5663 2.2327 -0.049992 0.018511 0.98062 
3611 3.5872 1.7995 -2.9163 -0.62682 0.92001 -1.3918 -1.3533 0.34485 -0.88873 -0.80035 0.13254 -0.70726 0.88061 
4148 2.0106 -1.0087 -0.97506 1.0329 -0.016918 -2.3461 1.3895 1.1239 0.14665 -0.65809 0.61979 0.45029 -0.68925 
56400 1.4892 -0.62027 2.03 0.47071 1.8277 0.19442 -0.70776 0.39738 0.58734 0.46572 -1.5389 1.9807 -1.2153 
6826 -0.89719 0.87177 -0.85833 1.1708 -1.0097 -1.6985 1.6452 -2.4117 0.20119 -0.7154 0.48705 0.99584 -0.88937 
56210 1.0822 -0.59952 0.078376 -0.50791 1.085 -2.1264 0.98853 2.5913 -1.084 1.8406 -0.68839 1.4941 -1.2323 
48241 -2.2325 0.67788 -1.1096 0.40408 -3.3883 -0.60866 1.6847 -1.2987 1.2445 -1.0629 -1.1051 -0.40625 0.23797 
49320 0.60007 0.030898 -0.50539 0.46991 0.1902 -0.60346 0.47856 -0.42937 -1.0728 -0.32315 -1.618 1.3949 -1.0588 
v4511 1.9671 -2.1137 0.73554 0.45281 3.9418 -0.44558 1.4806 -1.5556 0.34274 -0.80707 -0.34677 1.9126 -1.7828 
71590 2.8144 -0.12451 0.82443 -0.028135 0.85122 -1.2254 -0.50214 1.0875 -1.1634 1.033 -1.4136 1.0472 -0.35644 
9982 -1.1694 1.8309 -0.23735 0.87872 0.78331 -1.6819 0.78925 0.028353 -1.7272 0.56268 0.94987 -2.5972 -1.0817 
2869 -1.0443 0.74246 0.31151 0.38877 0.15098 -0.27492 1.6435 -1.0098 0.71543 1.5197 0.3521 -1.1384 -2.4503 
25041 -1.0369 2.6717 -1.478 -1.0571 1.982 0.82675 2.455 -1.5557 0.28264 -3.0881 3.0511 2.8169 0.40624 
v090 -0.40279 -1.2297 -0.43427 -0.57881 -0.041624 -1.3905 0.0062087 -1.5909 1.887 -1.7705 -1.5626 0.81147 -0.0603 
9974 -3.8434 2.3853 -0.14855 0.50476 0.55254 -2.0614 1.074 0.066743 -1.8118 1.0132 -0.54061 -0.48093 -2.2996 
8855 3.268 1.9014 -1.2025 -1.3912 0.90717 -0.40581 0.89459 1.7653 0.26875 -1.1103 3.4476 -1.2811 1.0764 
431 0.53199 0.15349 1.2994 0.84827 -1.6605 1.0808 2.0755 -2.5594 -1.4262 0.39244 -2.0123 -0.82571 3.195 
v4502 2.8694 -2.0065 -0.49218 1.4826 0.76026 -2.1801 1.1996 1.8422 -0.16938 -0.74968 -0.14187 0.55279 -0.29041 
3950 0.11982 -1.5479 -0.45492 -1.6551 3.8473 -2.486 1.11 -0.17378 0.31749 0.19695 1.5495 -1.841 2.5429 
3761 2.8928 2.6163 -2.2737 -0.36382 -0.57116 -1.0774 -0.48872 0.45777 0.10349 -1.0237 2.2376 -1.0963 1.6653 
51882 -0.47742 0.45014 -1.144 0.0059541 -1.4233 0.44631 1.7532 -1.1205 0.50675 -0.44326 -0.82985 -0.26294 -1.108 
2948 1.874 -0.73793 1.3113 0.037733 -1.3199 -1.8579 1.0095 0.14193 -0.27687 0.68429 -1.0834 1.2469 0.34573 
51889 1.7492 -1.1219 0.57118 0.82354 0.66943 -0.14757 0.21219 0.38515 -0.41743 -0.088086 -2.3079 1.2541 -0.66221 
0045 3.5636 0.54119 0.74092 -1.8734 2.1309 -0.7047 0.96809 0.58726 1.4051 0.84191 3.7359 -1.0107 3.3566 
04111 -0.57155 -0.70469 0.61196 1.4937 1.0233 -1.184 -0.13585 -1.976 1.06 -0.76022 -0.95156 0.27508 -0.69015 
0014 -1.4024 -0.40217 1.2044 -2.7827 1.2069 -0.8355 -0.42225 0.82551 3.8679 -2.5693 -0.062164 -0.53265 0.064475 
28860 1.9244 -0.0079392 1.4862 0.40534 0.85624 0.37359 -0.015646 0.090501 -0.62252 1.9482 -1.8443 2.1583 -1.0529 
3970 2.0911 0.030346 -2.3007 0.0034873 -0.56845 -1.4792 2.4473 0.29734 -0.3779 0.0040138 0.7781 0.18261 -1.9899 
e8889 0.92452 0.20618 0.83931 2.7754 -1.0665 -0.51176 -0.2583 0.5768 0.72263 1.5659 0.048055 0.89525 1.5971 
41519 -0.94038 0.60235 1.3211 1.4071 -1.3801 0.86142 2.3156 -0.004998 -1.1611 0.467 -0.93157 -1.2843 -0.29911 
78057 0.9729 0.37215 -1.5815 -0.18469 -0.060507 -0.45423 -0.23003 0.16966 -0.3102 -1.9539 -1.4356 1.5784 -0.44087 
3371 -0.76 2.0132 -0.92811 -1.429 3.122 1.8875 2.9318 -1.9537 -0.69382 -2.3573 1.8406 3.4939 1.4429 
v440 -0.17931 -4.076 0.35252 -0.3452 -0.41814 -1.8994 1.6608 0.61957 1.9591 -1.0823 -3.6514 1.7078 0.4935 
5121 -1.0175 1.3658 -0.95334 0.73491 -0.6909 -0.64202 0.50644 -0.98962 -1.633 -0.25115 -1.5438 -2.309 -0.8963 
25063 -1.1452 -0.11954 -0.65665 2.314 3.9873 0.94052 2.8257 -1.174 0.47264 0.22099 1.2386 5.7043 0.8884 
30391 -0.18747 -0.26095 -0.63231 0.8895 0.42709 1.4079 0.70787 0.42156 1.0987 3.7917 -1.1952 0.57323 0.16205 
4275 0.24207 1.3322 -0.96198 1.6816 -2.2206 -1.7401 1.5727 -1.6436 0.26731 -0.372 1.2492 -2.3006 -0.56224 
78551 0.68578 2.3668 -0.95142 1.0186 -2.1985 -1.5637 2.5853 -1.6038 -0.72083 -0.21235 2.5906 -1.662 -0.23219 
v4365 1.7562 -0.01235 0.56289 0.53671 1.1421 -1.6658 -1.0358 1.4651 -0.96513 0.52916 -0.9983 0.44288 -0.045531 
5781 -0.94951 -0.57307 0.10728 0.60829 0.12911 -0.40375 3.5234 0.50174 -0.43184 1.7178 0.55907 -0.031785 -1.3022 
4538 -2.2334 -0.52286 0.19707 0.34584 -0.39296 0.46126 2.8937 -0.78568 0.19705 -0.31672 -0.35128 -1.8819 0.41435 
9962 2.401 0.14123 -1.0471 -0.74142 -0.89097 -0.55626 -0.67073 1.0681 2.0168 -2.4205 0.12801 -1.9671 1.0276 
387 -0.78792 -0.70354 2.9716 -0.13338 0.6578 -0.13309 -0.35132 2.2678 1.9473 0.2136 -0.25204 -1.9448 2.0758 
5459 -3.1416 0.3142 0.15727 -0.82509 2.9797 -0.58826 -1.207 4.2002 1.1226 -0.14506 -2.1909 -0.066231 -1.2019 
43310 1.7788 -0.13779 -1.167 -0.047491 1.3492 -2.5439 0.9091 -0.69223 -2.8193 0.85477 -0.42175 0.53626 1.9639 
570 -1.8024 2.867 -0.014709 -0.057096 -1.978 0.16608 1.4062 -2.2986 0.89574 1.4972 1.1607 -0.92745 -0.74813 
51884 -0.52174 -0.69322 -0.85506 1.2074 -4.0182 -1.5313 2.8033 -1.6884 -0.20951 -1.4082 -4.1187 1.6665 -1.6756 
8847 -0.26655 -0.16039 0.73392 -2.908 2.394 -1.4191 0.005871 3.7682 1.9811 1.4244 1.6337 -2.0574 1.6957 
4516 0.27619 -0.59176 0.099576 -3.1204 2.3273 1.1617 0.89058 3.634 1.7224 0.43734 0.035117 1.839 0.21351 
v4364 1.5944 -0.1964 1.2132 0.58342 0.58652 -2.0001 -0.92019 1.0804 -0.84414 -0.26101 -1.3222 0.59601 -0.039765 
0017 1.5661 0.23106 -0.19993 -2.3214 -0.35787 -0.067085 -0.28083 1.2703 3.1944 -2.6148 0.81971 -0.18799 -0.0011568 
8842 1.7397 -0.4644 -1.0388 -0.97949 1.9946 -3.0783 -1.0086 1.6436 1.7421 -0.72089 1.8246 -1.7771 3.0415 
3659 2.3574 -0.060912 1.3298 -0.47159 0.83266 -1.5138 0.42846 0.34885 -1.3597 -0.27881 -0.67355 1.9006 -0.045165 
e8780 0.4525 -0.37035 0.75663 -2.266 4.1402 -0.73512 1.3622 -2.7648 0.74118 0.30637 0.64869 0.39675 -2.4624 
3485 0.034385 0.36097 2.8102 2.3641 -1.0247 1.7068 1.4431 -1.875 -1.6109 2.1846 -2.5538 -1.4429 2.7983 
e9320 2.2551 -0.20686 0.21945 -2.7898 1.4831 1.4761 -0.49519 -0.47562 0.52399 1.0161 -4.1125 0.6914 -3.2288 
v1005 1.1049 -0.29542 1.3685 -0.36458 0.69288 -1.5249 0.21504 1.732 -1.0427 -0.36712 -0.63269 -0.34248 -0.21791 
4443 1.0801 -0.91015 -0.42896 -2.7179 0.99584 -0.36317 1.8922 4.133 1.4294 1.327 1.0743 0.55713 0.22827 
5853 2.0995 -0.39732 1.3145 1.0492 0.67468 -2.7595 1.6071 -0.40627 -1.0142 1.3639 0.30009 2.426 -1.9313 
e9342 1.6741 -2.245 0.73069 0.28541 0.84638 -1.8079 1.4117 1.0563 0.16892 0.68237 -0.6396 -0.6852 -0.5379 
v433 1.1457 -1.6651 -0.026028 0.29366 0.80795 -2.112 1.4004 1.2571 0.11292 -0.063144 0.037695 -0.89875 -0.27124 
04104 0.20595 -0.55713 1.6731 -0.35464 0.59193 -1.8666 -0.11177 -1.3266 0.81849 1.3317 -1.3764 -0.013288 -1.9231 
2766 -0.52086 0.20458 -0.33663 0.11693 0.9512 0.17105 0.45198 -0.88691 0.14574 0.40332 -0.96947 0.068371 -1.1192 
2874 -0.074066 0.64867 0.18318 -0.51268 -0.29591 0.41191 1.0314 -1.1519 0.55312 0.78164 -0.24109 -0.25333 -1.1105 
042 -1.2238 -0.024413 -1.0832 0.79864 0.38385 2.6303 2.8392 -1.5342 1.5283 0.89858 0.16604 -0.33161 -0.21569 
99674 -2.1098 -0.3958 0.38149 0.41981 0.74819 -1.1171 3.2255 -1.4185 -1.217 -0.035847 0.45783 -1.9185 0.36492 
1120 -1.3396 -0.23983 1.4964 0.3065 -0.82565 0.83792 2.4739 -1.5417 -0.29591 0.7151 -1.7286 -0.31899 -0.29607 
51919 -0.26993 -1.3306 -0.44867 -0.076947 0.26494 -1.0805 -0.16939 -1.5406 -0.97202 -0.73015 -5.1056 0.93104 -0.81468 
4011 0.53598 -0.19998 1.0512 -0.028832 0.64723 0.57281 -0.58908 1.0739 -0.080253 0.46047 -2.326 0.33454 -0.74557 
9910 1.1598 -1.1149 0.43424 -2.4548 1.3849 0.031058 0.37942 -0.047948 1.6677 -0.5045 0.14106 -1.9295 2.9012 
e8781 2.1905 -0.42885 0.53898 1.4507 1.825 -2.157 -1.2328 -0.83135 -0.36642 0.30817 -0.76232 -1.1112 -0.87709 
4233 0.94944 0.20483 -0.70692 -1.0217 0.62095 0.427 1.0921 0.80088 1.2518 2.1965 0.56886 -2.3043 -1.5686 
5771 -2.2121 -0.1867 -1.143 0.52423 1.5601 0.084568 1.1826 -0.3273 0.18213 2.3726 -0.95595 0.71012 -0.67103 
v173 3.1303 1.2489 -1.6551 -0.25166 2.8741 -0.090239 -0.93026 1.0094 -1.4935 0.89176 0.31051 -0.095912 0.91913 
5533 1.0322 0.20037 0.21663 -0.46298 0.33329 -0.78414 0.098429 1.9435 -1.289 1.8507 -1.529 1.1601 -0.50899 
7140 0.70122 0.27985 0.88281 0.61594 1.3008 -0.65159 -0.011138 -0.35744 -1.1801 0.20394 -0.9224 0.77372 -0.72945 
7850 0.052642 0.3865 1.1292 0.67719 0.58587 0.87766 -0.86543 0.66978 0.63648 1.1701 -1.9589 1.5404 -1.1208 
29680 0.46858 -0.090583 -0.44201 0.79345 0.61784 0.13708 -0.78899 -0.40218 0.43484 1.9218 -2.6087 1.9385 -0.73917 
5722 -2.1071 2.0583 -0.39454 -0.58199 -1.2605 0.098955 2.8686 -2.5174 2.7538 4.4716 1.3738 -0.74636 -2.0667 
30301 0.52642 0.58392 -1.6155 2.5815 -0.3319 2.7936 0.61317 0.93343 2.0458 4.418 -1.8719 1.0714 -0.18745 
34690 0.73221 0.23839 -0.18574 -0.19241 2.284 1.6134 -0.63162 -0.15443 -0.4673 0.87592 -1.8899 2.2857 0.54715 
v4986 2.3476 -1.1353 3.7579 -0.20121 0.70679 -1.9701 -0.33633 1.0018 -0.20758 1.0163 -2.1955 1.5904 -0.75082 
7242 2.2551 0.45067 -0.24474 -0.37655 0.19 0.6354 -0.36078 1.1917 -0.69315 1.1762 -2.2389 2.882 -0.45616 
25050 0.30302 -0.88174 -1.8156 -0.95062 3.4943 -3.7803 1.4808 -2.1541 -0.19094 -0.27227 1.0774 3.0547 -0.45699 
34982 -1.2883 0.81163 0.98849 1.5176 -1.2952 -0.68986 2.2945 -3.4185 -0.58903 1.0874 -0.56573 0.52859 -0.46608 
34830 -1.2011 0.030903 1.8599 0.95722 -1.3765 0.051962 2.1975 -3.2342 -0.12271 1.777 -1.4525 0.32478 0.74389 
25051 0.079068 1.852 -0.98953 -1.5309 2.9505 0.17103 1.7154 -1.9763 -0.80465 -2.9476 1.8631 3.2212 0.32684 
4414 0.73083 0.095065 -0.029074 0.26193 0.10927 -2.7226 0.70414 0.75342 -1.8613 0.742 -0.34513 -0.5909 0.3164 
0413 -0.27555 -1.1782 1.7046 -0.15728 0.99981 -2.2468 0.88192 -0.70251 0.67874 0.17189 -0.54869 1.7265 -1.2641 
v441 0.21165 -3.5331 1.5279 -0.92962 -0.78279 -2.4281 1.0273 1.0431 1.3577 -1.2559 -3.691 2.3059 1.4834 
3721 3.6413 0.32628 -0.85833 -0.75818 0.67253 0.25349 0.45588 1.6321 1.9159 -0.38416 1.5677 -2.3301 -1.4724 
5761 -2.1084 2.1283 1.3313 -2.615 -1.7459 -1.9376 2.9665 -0.48473 -1.5192 2.1053 -0.88409 0.0061679 -2.6455 
e8859 1.0184 0.18391 1.4152 2.8273 -0.7105 -1.1506 -0.78311 0.9804 -0.20573 1.6551 -0.68833 0.47105 1.4171 
v153 1.5344 -0.42471 2.7923 -0.25892 1.6458 -0.26631 -0.75517 2.5393 -1.8092 -0.27865 -2.638 -0.90878 0.37964 
v600 1.4402 -0.091286 -2.8138 2.7957 0.86061 2.8624 -0.44132 1.4293 2.83 3.4086 -2.5723 0.97233 0.43032 
30390 -0.38101 0.53707 -0.70875 0.14834 -0.27624 0.37376 0.38301 -0.11869 1.3385 3.6809 -0.38322 -0.01033 0.052178 
03811 -2.1539 0.80575 -0.14818 0.44852 -0.90209 -0.42908 2.5491 -4.1768 2.1098 -2.4629 0.80777 -0.84791 -0.98771 
v462 2.8588 -0.64771 0.35673 -0.57575 -0.085737 -1.2975 -0.087011 0.53395 -1.0015 -0.37949 -3.5178 3.302 -1.7529 
70715 -0.53287 -0.12954 -0.31953 1.7842 1.1403 -2.1892 1.9178 -1.582 0.14057 -1.4544 1.8855 2.8761 0.9211 
8622 -1.6449 0.11439 -0.34443 1.4857 2.2859 -1.4945 -1.5965 -0.25226 2.6568 -2.5511 0.76257 0.78583 1.7564 
9605 0.25519 -0.2317 -1.2661 -2.5774 -0.13973 0.74066 -1.8063 1.4563 1.9811 -2.8307 -3.6984 -0.69311 1.6469 
53550 0.41042 -0.63794 -0.20437 -1.0702 1.098 -0.25896 1.5458 1.8935 -0.474 2.2011 -0.56928 2.9188 0.47251 
6930 0.78442 0.48748 2.8709 -1.2184 0.35257 -0.28184 -0.76505 -2.9433 0.7975 0.74676 -2.0818 -0.0264 -1.3645 
78009 1.3748 -0.074965 0.87091 1.4018 0.086581 -0.32954 -0.96406 -0.3551 0.51742 1.1004 -1.7821 1.1284 -0.34973 
4928 0.80697 -0.12261 -0.32466 0.12106 -0.32276 -0.45493 0.84826 0.27133 -1.4463 0.58496 -1.6178 -0.019107 -0.14747 
7455 1.8728 0.87134 -0.79535 -0.86009 -0.87379 -0.21049 1.2347 -2.7338 -0.97967 0.10825 -0.9518 -0.63121 -0.40719 
8659 0.21477 0.80679 1.0281 1.3271 0.39264 0.44245 -3.0148 1.9903 3.936 0.086968 -0.48239 -0.87098 2.7529 
9961 0.65391 0.65942 -0.79065 -0.33404 0.038435 -0.37758 0.24596 0.2356 0.81034 -1.6235 0.73616 -2.0602 -0.45299 
v4589 2.8932 -1.522 0.84252 -0.63524 2.5402 0.34294 -0.46935 2.0257 0.29811 -0.042811 -1.5948 1.3501 -0.098972 
8848 0.71738 -0.9532 -0.62321 -0.9046 3.064 -2.7906 -0.30248 0.76769 2.0222 -1.9236 2.2148 -0.53147 5.1023 
7895 -2.5633 1.4788 -2.3181 -0.92224 -0.31561 0.77355 2.3465 0.37454 1.5936 1.8193 1.0023 -1.4669 -1.5951 
2753 1.2731 -0.60223 2.5623 1.1893 2.3764 1.5192 0.50382 -0.11864 1.3795 0.67216 -0.51616 2.5464 -1.8774 
2841 -0.17052 0.049329 1.3182 0.25756 0.54257 1.6366 2.6503 -1.9906 0.75165 2.4161 -0.57226 0.31748 -2.2309 
5997 0.56747 0.70373 0.38276 0.18689 -1.9113 -0.43426 1.5637 0.35213 0.04684 -0.025404 0.86953 -0.67362 0.39891 
8852 3.6422 1.4819 -0.85299 -1.1984 0.11407 -0.28984 1.8896 1.377 0.89931 -0.38183 3.8943 -0.90552 0.89287 
25043 -0.04485 -0.60738 -0.58511 2.7975 4.2617 0.62373 3.0504 -2.3122 1.641 0.38814 2.0936 4.8261 -0.11066 
0159 0.91488 0.12704 2.4243 0.44115 1.2582 2.2676 -0.94344 1.0002 -0.96608 0.04772 -2.9906 -0.35993 3.5733 
5569 -1.1032 1.1874 0.12107 -1.1959 2.4934 0.12887 0.94371 -0.65331 -0.3267 -0.4689 0.65429 0.028568 -1.8934 
9607 -0.47504 0.03684 -0.47513 -2.1067 0.71912 0.63257 -0.44644 2.8348 2.5488 -0.27759 -0.03258 0.79652 0.95584 
3845 1.9297 1.7254 -2.905 -0.59469 0.77171 -2.2514 -3.1912 -0.34616 0.43508 0.64299 -1.6965 -3.3541 0.87642 
30560 0.64398 0.70605 -1.8718 1.7737 0.30465 1.5508 0.56075 -1.2831 2.0504 2.3189 0.74178 1.5256 1.0494 
25002 0.22999 -0.28637 -0.12518 0.50419 -0.44275 -1.0754 0.82199 -0.10447 0.077018 1.1202 -1.0541 1.3272 -0.83833 
70714 -0.89537 0.6026 -0.30714 1.5867 -0.66012 -1.2392 2.2975 -1.5332 0.73221 -2.5839 1.899 2.2467 1.0465 
43411 0.45309 0.43064 0.10878 0.37712 -1.9091 -1.2735 2.5322 -3.7112 -1.5168 1.3072 -0.57352 -2.3048 1.9415 
43491 -0.21755 0.85824 0.27891 0.36919 -1.908 -0.032308 1.7974 -2.4048 -1.3275 1.0112 -0.6747 -1.4229 2.7237 
4239 1.2821 0.83179 0.069654 1.3256 0.84732 1.705 1.9141 -0.65998 -0.76181 -0.6475 0.14723 -1.616 -2.789 
8604 -0.86323 -0.28337 -0.39258 1.0346 1.292 -0.43821 -0.936 0.8754 3.0497 -1.3708 0.90891 -0.72988 1.3172 
1985 -0.46825 1.8306 3.7042 1.8614 0.18202 2.0841 1.9118 0.35101 -3.0369 -0.59926 -1.4702 -2.0514 -0.6639 
4260 2.7782 0.79461 -0.25487 2.2263 -0.98198 -2.1439 1.7531 -1.6812 -1.3181 -0.95818 0.96884 -1.2286 -1.2027 
v420 -1.1147 1.4126 0.2484 0.46124 2.133 0.78779 1.7135 -2.2434 -1.0391 -2.0687 0.846 0.99781 -0.93516 
99731 -1.7786 0.37221 1.4122 2.6002 -2.4137 -1.3485 1.8399 -3.8493 -0.59099 2.7119 -2.5945 -1.1089 -0.5255 
78720 0.68362 -0.93928 2.8777 -0.11292 -0.28305 -1.5861 0.30338 -0.57899 -0.78423 1.334 -2.4823 1.5765 1.3372 
43889 2.1923 -2.368 1.9785 0.33839 0.93267 -1.2541 1.6488 -1.5586 -0.87425 0.29016 -1.6922 2.0101 1.6905 
45621 -1.193 -0.24061 -0.39987 -0.96926 1.3483 -1.2182 2.9543 -1.1759 1.6413 5.2908 -0.18008 -0.57576 -2.9069 
3522 3.4518 1.2403 -2.5041 0.025277 1.1059 -1.9389 -2.4042 -0.37294 -0.15208 -0.13387 -1.1118 -2.0468 -0.30257 
3990 -0.17714 -0.51836 -0.3497 -3.262 2.998 -2.3654 1.2752 0.7128 0.35307 -0.23542 1.9467 -2.9839 4.395 
45981 2.1819 -0.55739 0.27384 0.68478 -0.01918 -2.4485 0.23958 -0.26348 0.30644 -0.40921 -0.66712 2.5825 -1.5734 
25080 0.99466 -1.2369 0.32686 0.86967 1.4537 -1.9834 0.91895 -1.9255 0.54271 -0.69281 -0.19953 2.3383 -0.75876 
1983 0.52499 1.3273 3.7658 2.1547 -0.73691 2.4708 2.0388 0.57342 -3.7768 -0.98511 -2.8241 -1.9004 1.4683 
49322 1.309 0.47426 -0.83822 0.5207 -2.6046 -0.62999 1.6715 -1.3151 -0.21755 0.034362 -2.7046 2.6358 -2.4325 
41402 2.3955 0.90082 -1.4651 1.6436 -0.0093533 -2.134 2.1062 -0.75458 -1.7856 -0.17864 1.9381 -0.18343 0.25147 
07032 -0.6777 -0.34768 -2.713 2.0859 0.69555 2.105 2.36 -0.51427 1.1553 1.6679 -0.27808 0.04335 -0.31683 
430 -0.57757 0.65351 0.42706 -0.18554 -0.098069 1.8538 1.6154 -2.3646 -1.6626 1.9249 -1.8119 -1.1329 3.3552 
03842 -1.4371 2.2027 2.4803 -1.3825 -2.3766 -0.96211 3.6791 -1.7776 -0.31578 -0.88687 0.86157 2.0147 -1.85 
4639 -2.046 0.81978 -0.89741 -2.0628 1.2951 -0.86674 -2.0458 3.7703 1.7823 -1.1163 -1.9124 -1.5244 0.18936 
4160 0.89127 0.7265 -2.541 -0.073097 -0.085198 -0.34465 2.018 -0.015599 -0.69476 -0.79176 0.43518 -0.11948 -1.532 
2764 -0.54517 0.58219 0.17478 0.88271 -1.438 -0.95072 1.5386 -2.158 -0.3641 0.55862 -1.3873 1.6308 -1.7658 
5780 -1.3532 1.1226 -0.13538 0.29305 0.47341 0.73813 2.6332 -0.56777 -0.33921 2.1152 1.0822 0.77508 -0.39102 
0417 -1.1078 -1.8254 1.5166 0.96195 0.80024 -2.1205 0.48613 -1.0612 0.72264 -0.47731 -1.9261 0.95965 -0.17987 
3963 1.849 1.0552 -2.4993 -0.72026 -0.28041 -1.2729 1.3093 0.29739 -1.0064 -0.58827 0.52183 -0.82918 -1.0148 
78659 1.6483 0.19623 -0.40364 0.42574 2.1134 1.9606 0.65158 0.29709 -0.029398 0.44157 -1.5003 2.9518 -1.7579 
41011 2.0067 2.2162 -1.252 1.3883 -0.88231 0.14588 2.3689 -1.0259 -1.4096 0.8489 2.4471 -0.16851 0.51893 
6822 -3.0794 0.65299 0.027424 1.6168 0.57588 -1.5363 1.1437 -1.0489 -0.83678 -1.1431 -0.82599 -0.15782 -1.3676 
e9331 1.1122 0.75854 4.2597 -1.1326 2.1428 2.5129 0.46462 -0.25961 -0.31041 0.78977 -1.6233 -0.84715 -2.326 
3320 0.69071 0.13001 1.2309 -0.25332 -1.824 -1.6566 0.27388 1.0367 -0.48115 -0.30086 -1.4909 1.2516 -0.0025312 
4210 -0.64861 1.2539 -1.1921 0.20839 -0.66922 -0.78902 1.9023 -4.6355 0.87019 -1.4551 0.52557 -2.5666 -1.0535 
3569 1.6278 -0.43726 0.49598 0.38346 0.90682 -0.78145 -0.25449 -0.1874 -0.42951 0.64449 -1.2817 1.1696 -0.32765 
42820 0.53534 0.27142 -1.267 1.5072 -0.5736 -0.72518 2.1771 -0.34164 -0.18618 0.30664 1.4596 -0.39718 -0.21542 
41041 1.8228 2.2573 -0.39473 1.0987 -0.73427 -0.24056 1.8481 -0.29493 -1.9383 0.53784 2.2054 -0.71653 0.52931 
2536 -0.060687 0.39965 1.8935 1.1968 -1.7578 0.94798 1.2763 -0.94364 -0.5128 0.52822 -1.6922 -0.33647 0.2356 
4412 1.4936 1.37 -1.6908 0.24233 -0.02407 -1.5732 -0.98776 -1.0832 -1.3385 1.4415 -1.6883 -1.8616 -0.25872 
515 0.74932 -0.29659 0.068624 -0.31917 -0.12122 -0.94574 1.7718 -0.64652 -1.6108 -0.91396 -1.5989 0.60713 -1.3438 
9975 -1.2109 1.8245 -0.40259 0.059697 0.65776 -2.4159 0.28998 -0.76837 -1.8789 -0.41479 0.4755 -0.83126 -0.22206 
99672 1.6858 1.8547 -1.33 1.8238 0.13543 -1.7836 2.1548 -1.066 -1.9437 0.24622 2.8325 -0.9102 0.58704 
4821 -2.5767 -0.30485 -0.13234 0.30301 -2.8936 -1.4005 2.0209 -1.0989 0.8691 -1.3275 -2.0362 -0.8729 -0.025917 
2867 -2.3059 1.3809 -0.082393 -0.29314 -0.70702 0.057853 1.8948 -2.4306 1.5035 2.843 0.19202 -1.6351 -1.4947 
5122 -1.9798 2.0576 -0.76818 -2.4726 2.0212 -0.96543 -2.1186 2.8098 0.34416 0.67869 -1.6232 -1.4182 -1.2793 
5187 -0.003585 0.99342 0.62959 -4.1686 -0.025611 -2.064 -0.64238 1.902 0.75145 1.088 -1.5537 -0.97489 -1.5325 
v707 2.5667 0.89456 0.097058 -0.1073 2.071 -0.91221 -1.0776 0.67213 -1.4937 0.74636 -0.32896 0.25889 0.28395 
44020 1.7554 -1.9157 0.1392 1.1067 2.2645 -3.0264 1.0321 -0.3453 -0.63362 -0.41201 0.28775 1.0526 0.47557 
5059 -1.9664 2.2003 -0.85424 -4.0712 4.155 -0.20042 -1.2631 -1.513 2.024 2.5991 -0.50782 -1.5692 -1.773 
v4975 2.6185 -2.3966 0.33881 -0.22239 3.7863 -1.2959 0.56244 -1.597 1.4753 -2.3651 0.12988 2.502 -0.067858 
135 -0.72107 -0.97795 -1.2661 -2.0883 1.3964 0.62335 3.3499 -2.18 -0.12491 -0.4617 -0.74654 0.79338 -0.69975 
4010 -0.3352 1.2261 -1.2979 -0.7771 0.61042 2.6503 3.2868 -1.3189 -0.96325 0.43749 0.14798 2.3842 1.6439 
3321 -0.25866 -2.0809 -0.77564 -2.2736 -0.17953 -1.2002 -0.98763 0.40856 2.9911 -3.0864 -3.7464 0.57903 2.0468 
42821 1.2002 1.1831 -0.16249 1.499 -1.6979 -0.53438 2.3465 -1.8499 -1.0495 0.93224 1.1297 -0.81193 -0.14875 
3772 4.8645 0.54852 0.68114 0.5768 -1.6017 -2.4909 -0.85657 1.6814 0.75412 -3.2324 -0.041684 -1.3061 -0.78977 
3783 4.4293 1.315 0.2538 1.9842 -0.72963 -2.1453 -1.5751 0.51226 1.3484 -3.2457 0.70655 -1.0285 -1.2944 
7806 0.32629 0.92232 -0.08589 -1.0658 1.3365 1.2868 -0.31987 -1.2003 0.23958 0.17497 -0.51781 -0.61769 0.2409 
v1011 1.1277 -0.79899 0.43977 0.091996 0.19774 -0.19223 0.73302 1.0268 -1.7675 -1.0729 -2.2165 -0.44446 0.4965 
v422 1.6504 -1.2324 0.046877 0.3005 0.019387 -1.6628 1.2699 0.31934 -0.43897 -0.41079 -0.63633 -0.8952 -0.4693 
5680 -3.0893 0.51828 0.95568 0.2394 2.9033 -1.4452 -0.19481 1.2225 -1.31 1.0705 -2.3764 0.33219 -2.4518 
9925 1.1723 1.0262 3.8726 -2.618 1.0955 3.4519 -0.52645 0.99105 2.2305 -1.2819 -1.4591 -1.4975 -0.51242 
70722 -0.035541 -1.7925 3.9729 0.36093 0.83128 -4.2905 0.23881 -0.34745 0.55267 -0.25197 -1.2589 1.7115 -0.58374 
7904 1.6537 -0.23842 2.1433 -0.16729 1.0169 0.87372 -0.20783 0.076422 1.1629 1.6813 -1.0733 1.2803 -1.2086 
42831 0.69713 1.0463 -0.26357 0.58634 -1.7557 -0.49302 2.1319 -1.5978 -0.90199 -0.32624 -0.056892 0.12694 -1.3152 
7245 1.6656 0.036548 0.12309 0.60347 1.4109 0.68095 -0.75096 0.93728 0.15133 1.519 -1.4918 2.2074 -0.83409 
0013 1.2522 0.79676 -3.1613 -1.0217 -1.0115 -0.97251 0.52924 1.454 2.3858 -3.081 2.0115 -0.85517 0.031579 
1970 -0.52094 1.341 2.9231 0.46567 0.21968 2.2911 2.8149 0.55154 -2.9499 -0.7527 -1.4163 -1.4678 -0.35889 
e8809 0.40355 0.73977 1.4485 2.4618 -2.2148 -0.76645 -0.94358 0.046985 0.93051 2.3444 -1.4059 0.084378 1.8549 
51883 -1.2815 -2.4005 -0.40219 0.37429 -1.805 -2.4643 3.1019 -1.1444 -0.025572 -0.90705 -3.989 1.5824 -1.246 
v1083 2.1491 0.15732 1.0749 -0.34128 1.886 -1.0112 -1.1462 1.5786 -1.5578 0.88071 -1.67 -0.21739 -0.42293 
9973 -1.7919 2.104 -1.9275 0.50592 -0.69409 -1.2322 0.23877 -0.58938 -1.646 -0.99561 -0.51636 -2.469 0.042822 
29410 0.93791 1.1463 2.5146 -0.78756 -2.5668 -3.605 -0.2146 0.59954 -0.60128 1.3919 -0.65744 2.5661 1.556 
3484 0.0067562 0.26645 1.767 2.7816 -1.1217 1.2174 1.2818 -1.7429 -1.6422 1.4024 -2.4715 -0.87017 2.9205 
99673 -0.89481 -1.1418 -2.4569 1.2111 2.7356 0.22217 3.7093 -3.6939 0.48809 -0.026127 1.3496 -1.2945 -0.057057 
3734 4.0562 -1.0948 -0.4494 2.6216 0.10518 -0.97789 0.85485 2.877 0.46876 -2.3654 0.39356 -1.0931 -0.50062 
7802 1.5303 0.23625 0.53866 1.5488 0.25208 -0.35162 0.36321 0.82767 -0.25195 1.5732 0.44962 0.56883 0.103 
0093 -1.313 2.0583 -1.1313 -4.1711 5.2148 0.51774 -2.0518 -0.49667 3.2443 1.4237 -0.04041 -1.4931 -1.8208 
3726 3.6475 -0.69594 -0.96008 2.7909 0.47199 -0.30572 0.31722 2.332 0.94274 -4.072 0.81082 -1.9323 0.38911 
39891 1.703 0.87187 -3.1945 -0.50009 -1.1315 -1.9473 2.5187 -0.20359 -1.3456 0.10158 0.27732 -1.784 -1.8384 
3778 3.8166 1.1992 0.10741 -0.015215 -1.2652 -0.77602 -0.65609 1.3507 1.9483 -2.2791 1.4237 -1.4936 0.56559 
43820 0.043584 -1.1237 0.59358 -0.2884 -0.87389 -0.66518 2.3599 -2.2032 -0.12702 0.10512 -0.85722 0.92607 1.3456 
53789 -0.12588 -0.37421 0.31842 -1.8052 2.8501 -0.28818 1.1524 0.053162 1.6046 5.4602 -0.49862 1.171 -1.9843 
03849 -2.5286 0.73534 1.6571 -1.2575 -1.7768 -0.52717 3.5702 -1.4448 0.95644 -1.2068 0.57148 0.99597 -0.96534 
5011 -0.94034 0.89006 -0.6396 -4.5775 2.1587 0.049145 -0.47917 1.1404 2.8983 0.83702 -0.12498 -2.3626 -0.98472 
e8498 0.16043 -1.4875 0.32257 0.21237 2.2723 -1.3034 0.027252 -1.1262 0.87401 1.5674 -1.3067 -0.58377 -1.338 
e8790 3.5282 1.1182 0.49717 1.0221 2.0874 -1.1076 0.66134 0.63347 -1.7085 1.2312 2.3745 -1.2883 0.38673 
2554 -0.94493 0.87816 -0.53873 -0.96035 -1.7837 1.3137 2.1101 -1.6498 1.4481 -2.5926 -0.91742 1.0727 -1.3177 
7843 1.6171 -0.58804 1.8087 -0.11227 -0.80128 -0.52305 1.0293 -2.3374 -1.224 1.3953 -2.187 -0.8186 3.1502 
4562 -3.3354 0.088956 0.33049 -0.030918 2.9789 -1.3634 -0.66965 3.2558 1.0825 -0.4188 -0.49836 0.54139 -0.34825 
45620 -2.1198 2.0924 -1.6358 -1.1965 0.051451 1.1831 3.1353 -0.87973 2.2458 5.1687 1.2322 -0.011638 -1.3946 
v451 1.2585 -2.1698 -0.92163 0.30302 3.5108 1.2023 2.5698 -1.695 1.5101 -1.1237 0.40679 0.16008 -0.6577 
04119 -0.064628 -1.0857 0.82368 1.4833 1.9192 -0.4398 0.2598 -1.948 1.564 -0.028824 -0.21867 0.80975 -0.60392 
7863 0.54449 -0.15494 -0.76162 0.024159 -0.45807 1.1391 2.1459 -1.9946 -0.89318 -1.1547 -1.6543 -0.66922 -0.46252 
9929 0.53342 -0.49874 0.0779 -1.5202 1.7129 0.4468 0.11575 2.8647 1.3768 0.35663 0.92359 -1.9507 2.1749 
3314 -1.3967 0.017757 1.1957 1.0198 -1.1875 1.4034 1.9201 -2.3602 -1.2178 0.93846 -2.5105 -0.51143 3.5483 
370 3.1978 0.43801 0.59324 -1.0189 1.2321 1.522 0.040499 2.2393 1.5832 -1.0128 0.43714 -3.7132 -2.0627 
30501 0.5159 0.49636 -1.0196 1.0745 0.0093575 1.2305 0.32892 0.73524 0.56578 2.4618 -0.37286 0.1958 0.47876 
3310 1.5207 0.12021 3.3769 1.083 -2.8331 -1.6631 1.7221 2.1352 -0.39689 -0.64632 0.058158 2.4546 0.97094 
27541 0.53955 0.014797 2.216 0.90597 1.8934 0.95814 0.46081 0.4723 1.0284 1.0856 -0.048046 1.4769 -1.8605 
v1052 1.0968 -0.083665 1.7512 -0.13278 2.6507 -0.023067 0.67562 0.30177 -1.6153 -1.6679 -0.31013 -0.67879 -0.69517 
42843 1.1262 0.63378 -0.84569 2.2554 -1.1702 -2.0919 2.9637 -2.4731 -0.47624 0.015884 1.8738 0.5916 -1.4227 
3441 -1.8011 -1.2411 2.5835 3.1369 -1.4662 -1.144 1.7599 -1.0385 1.6401 -0.35854 -1.9974 2.4224 -1.3236 
3614 3.0798 1.992 -2.0667 0.13294 1.4148 -0.934 -1.4279 0.54931 -1.3617 -1.1277 0.61435 -0.29086 1.1785 
78559 -1.782 1.1956 0.0047997 0.073548 -1.4694 -0.82038 2.6806 -0.2635 0.1917 1.0023 1.2837 -0.77863 -0.60194 
5570 -3.9037 1.7644 -0.1626 0.75251 -0.95183 -1.6026 2.8865 0.032925 -0.94039 0.73111 0.47831 -0.8608 -1.5901 
42741 1.8133 1.9193 -1.5231 2.9116 -1.5985 -1.2071 1.7731 -1.0666 -0.96224 -0.1877 1.9334 -1.9556 -0.034157 
1977 -1.3495 2.0897 3.1885 -0.34537 -0.43658 1.949 2.964 1.4647 -3.1943 0.77554 -1.0588 -1.8157 -0.8979 
73390 1.7249 0.135 1.4442 0.18521 1.5217 -0.728 -0.51757 0.40289 -0.58174 0.81171 -0.93827 1.1876 -1.1139 
0131 1.6785 0.27837 2.3616 0.64178 -1.3759 0.0054579 -1.2802 1.2347 0.36399 1.2171 -1.7699 0.12993 3.5016 
591 -1.7152 1.8845 3.7718 0.12022 -0.39251 -0.90846 1.8133 0.19046 -0.51052 -0.059966 1.0726 1.3342 -1.2153 
1122 -1.6104 -0.27076 1.1323 0.28431 -0.34276 -1.2671 1.7856 -1.8992 0.16842 -0.66189 -0.693 0.68797 -0.59904 
0046 4.8415 0.49517 1.5117 -1.7019 1.4959 -1.01 1.3138 0.80982 1.2094 0.23451 4.0222 -0.48817 2.7137 
9359 -0.81273 -0.53071 0.42576 -0.47405 2.5986 0.56548 -2.3424 1.6797 2.6438 -2.1365 -1.0273 -0.96605 2.9413 
2113 -0.17329 -1.072 -0.20456 -0.6156 1.337 -1.8342 2.5426 2.9091 -0.78989 2.0798 -0.065676 1.2598 -1.3972 
0380 -2.1664 1.0606 1.5296 0.3491 -1.6357 -0.87695 2.8255 -2.7649 0.70287 -0.69431 0.46811 -0.1923 -1.2503 
29590 1.287 0.023117 -1.6023 0.61278 -1.5732 -0.31268 0.26422 -0.1408 0.60606 0.64448 -2.5891 3.3033 -0.77754 
3512 3.3972 2.0279 -2.5294 -0.4055 0.39431 -1.0102 -1.7551 0.18358 -0.48478 -0.72153 -0.61093 -1.0767 -0.36415 
2910 -1.1678 1.5148 -1.8011 2.3334 -1.2707 0.83842 0.20204 -0.87301 0.76503 3.7648 -1.0641 -1.1605 0.43259 
99702 0.048499 0.79722 -0.6186 0.39744 -1.181 -2.5796 1.239 -2.8104 -2.8276 0.34696 -0.91433 -2.7506 3.0368 
9462 1.6487 0.54761 -0.4949 0.36457 0.29492 2.3806 -1.3011 1.5033 2.7062 3.3343 -1.1703 0.83092 1.1149 
25053 0.42556 -0.61133 -0.65902 1.633 4.2472 -0.034081 2.5476 -1.7639 0.95887 -0.061451 1.9374 5.1149 0.88003 
9723 -0.57493 -2.3628 -0.70317 -1.5048 0.45719 -1.1652 -1.031 0.52361 3.1073 -3.8853 -4.1878 1.4463 1.9006 
v08 -0.092642 -0.060711 -1.1406 0.78762 1.3055 0.91439 0.65428 -1.2931 0.98076 1.5266 -0.30522 0.10489 -0.62193 
7291 1.1405 0.57572 -0.15666 -0.20524 1.2199 0.56895 -0.43588 -0.013344 -1.1564 0.51106 -1.7758 1.1331 -0.655 
4525 0.083967 -0.35156 0.72425 -2.8197 1.8211 0.27893 1.2386 3.8328 1.7168 -0.053044 0.83857 0.68913 -1.0008 
56212 -0.015693 -0.16055 -0.029379 0.13259 -0.43345 -2.1489 3.174 1.8848 -1.6366 1.4906 0.69139 0.91356 -0.79911 
4580 0.043186 0.45191 0.93696 -0.4226 0.89306 0.86807 0.96308 0.65841 -0.77657 0.77487 -0.40677 2.2689 0.34317 
29281 -0.82361 1.5416 -0.58361 2.9783 -0.12216 0.52248 -0.13735 -1.4637 -0.47905 0.70627 -0.73354 0.004963 -0.77205 
585 -0.89518 0.21115 -2.8511 0.12955 -0.16639 1.454 2.7905 0.10291 2.0069 -1.6312 1.6698 -0.20806 -0.18487 
59654 -0.18984 -0.45782 2.6605 -0.13799 0.51177 -0.64435 0.95267 -1.1625 -0.077741 -0.93221 -1.3372 4.7271 1.253 
78701 1.3868 0.73044 1.6956 0.01609 2.3308 2.5667 0.25326 -0.069556 0.01659 1.1833 -0.82795 1.9829 -1.5748 
v1082 1.4942 0.34697 1.4104 0.53921 0.74128 0.43112 -0.020378 1.9159 -1.8189 0.23312 -1.0277 -0.47224 0.68696 
99931 -2.2058 -1.2661 2.5842 1.8387 0.78804 -0.82108 2.5129 -3.4952 0.99482 0.30715 -1.1057 -0.67923 -1.6828 
3979 -0.20044 -0.85215 1.4062 -0.67282 2.5929 -1.1317 -0.4818 1.9299 1.184 1.3304 0.33369 -1.9684 1.2722 
e9478 1.68 0.14992 1.2913 -0.37747 2.2462 -0.85309 0.41381 -0.89802 -0.49123 0.97529 0.74962 0.054658 -0.61446 
3142 0.64362 -0.82925 -0.17263 -0.57772 -0.28638 0.93753 -1.172 1.4543 1.9543 -2.2265 -2.7713 -0.75808 1.1745 
0390 -0.66539 1.3593 0.00079771 -0.17582 1.4521 0.068844 -3.3604 3.3207 0.91512 -1.3096 -1.9985 -1.3851 1.1774 
4373 0.20197 -0.38563 -0.31969 -0.16134 1.2431 0.4145 0.75471 -0.91286 -1.2977 1.695 -1.6384 -0.75774 3.1856 
3962 2.1067 0.57106 -1.6396 0.080106 -0.63671 -2.4925 1.4712 -0.55799 -1.7808 0.078803 0.081221 -1.3375 -1.0885 
v1588 2.9621 -0.85588 2.6736 0.72275 0.53988 -1.1457 -1.6119 0.46426 0.28675 0.86382 -1.7402 0.91704 1.2551 
56409 1.206 -0.33563 1.5927 0.98246 1.0067 -0.96898 -0.61705 -0.12906 -0.3677 0.70221 -1.6358 2.2552 -0.36536 
42781 1.9994 -0.27855 1.0942 1.3768 -0.84276 -2.1526 1.082 0.67898 -1.024 -0.59776 -0.12403 -0.79388 -1.1421 
70705 -0.27442 -0.8052 2.4812 1.2118 -0.71865 -3.3163 1.282 -1.075 0.47146 -0.56882 -0.14001 0.33736 -1.3988 
57420 0.35886 -0.0066201 0.87623 -0.81443 1.2202 -1.208 -0.18648 0.25556 0.36523 2.1288 -0.72768 0.68505 -1.1436 
58281 2.5374 0.5238 0.21602 1.4856 4.0534 6.0605 5.1457 -2.0741 0.84924 -1.8928 0.64471 -0.8488 -4.7375 
8605 0.22614 -1.7783 1.164 -1.0939 2.6128 1.246 0.35265 -0.37706 3.3797 -2.1912 -0.09687 -0.7391 0.49971 
340 -1.157 0.11063 2.812 0.40876 -1.596 -0.54593 1.6179 -0.64762 -0.12691 -0.18005 -1.529 3.361 0.72609 
34290 1.6916 -0.030912 1.0278 0.10348 -1.5823 -0.19818 1.2249 -2.864 -1.0189 1.6792 -1.7049 -0.80727 2.9109 
3523 3.4737 1.107 -2.499 -0.65657 0.54479 -1.8031 -1.4496 0.55472 -0.37604 -1.0346 -0.85225 -1.8758 -0.54503 
4223 0.59103 1.5646 -2.6454 -1.0123 -0.17741 0.14138 -1.0096 0.90453 0.45065 -2.6415 -0.31422 -1.4006 1.3947 
30981 0.66986 0.28185 -1.4585 1.5075 1.7123 1.2295 -0.87973 0.65412 0.27108 1.9663 -1.5567 1.9705 -0.19939 
04185 -0.52726 -0.66387 1.1936 0.91203 1.2416 -1.9664 -0.36441 -1.155 0.33065 1.5465 -1.0439 0.6059 -0.45474 
8191 1.3071 -0.18056 0.38557 -0.25715 0.97832 -0.0063927 -1.0025 1.1057 2.9758 -1.2444 0.7823 0.37701 0.17797 
3972 0.049273 -0.16031 0.60657 -1.0583 2.1787 1.1403 -0.41254 -0.55284 -0.13853 1.6065 -1.7593 -0.31826 4.504 
5412 -2.661 1.4681 -0.71589 -1.8279 4.27 -1.1441 -1.8199 1.8082 1.8689 -0.34407 0.27592 -1.8022 -0.9885 
5184 -1.1496 1.3585 0.66122 0.16858 -0.65254 -0.41047 1.2365 -1.5978 -0.77391 0.59128 -0.67018 -0.28339 -1.6011 
27650 0.14876 -0.20079 0.91322 0.40799 0.21872 0.14459 1.1473 0.29132 0.056865 0.86067 -0.77356 2.2468 -0.75614 
34839 -0.53048 0.59266 0.9188 0.062958 -0.81525 0.69372 1.5492 -3.2366 0.063795 1.0364 -1.0049 0.58209 0.082096 
4251 3.0644 0.21403 -1.4284 1.5045 1.335 1.8162 2.4535 -0.7426 -1.109 -1.5498 -0.35088 -0.64009 -2.7249 
5854 0.87348 -0.10495 0.57069 1.2324 0.16868 -2.2737 3.1805 -1.706 -1.6626 1.6592 0.42811 1.6925 -1.9946 
7847 1.7766 -0.82863 0.24273 -0.72726 1.1176 -0.0511 0.71731 -0.42528 0.64662 0.86598 -0.26398 -0.62878 -0.68838 
5718 -0.10827 0.38508 -0.20768 -0.091331 2.1057 -1.1301 -0.61442 -0.90777 0.77784 3.2609 -0.70766 1.1317 -1.8004 
30401 -1.304 0.58994 -1.9174 2.5656 0.78146 2.278 1.1244 -2.1371 0.34156 1.8332 -0.89044 0.02308 -0.30805 
4321 0.31143 -0.0078415 1.7311 1.1514 -1.0954 0.74858 1.5295 -1.864 -0.88644 0.59253 -1.0978 -1.0896 2.1531 
0041 3.5153 -0.56278 1.4749 -1.8955 2.0567 -1.7746 0.86501 0.18936 2.0013 -0.80331 3.185 -1.3858 3.3764 
7840 2.3424 -0.29991 0.84902 0.7106 2.2676 2.5488 -0.13409 -1.5617 -0.15946 0.53043 -1.6986 1.5379 0.87211 
25001 0.10481 0.94351 -1.8277 0.076642 0.41529 0.35714 0.26111 -0.69628 -0.21243 -1.1525 0.013326 0.72145 0.50259 
3929 -0.41935 -0.34361 -0.73864 1.4904 2.3781 -4.1215 -0.62763 0.35967 0.35344 -2.1759 1.6869 -0.49222 3.4304 
5307 -2.0822 1.2392 -0.94947 -1.3438 0.45119 1.1775 3.5775 -0.028218 -0.074453 1.3146 1.6494 2.5163 0.89641 
44024 -1.7497 0.0051643 -1.3831 2.6107 0.43039 -2.2474 3.4545 -2.859 -0.050988 -1.8886 2.4673 0.73401 1.3872 
9960 2.7239 -0.31643 -0.11469 -0.67349 0.28778 -0.17749 -1.5829 1.8724 3.6156 -2.2046 0.7163 -1.0973 1.005 
60001 2.3235 0.5459 1.7929 -0.21781 -0.84413 -1.9859 -0.043121 0.3964 -0.86908 0.17163 -0.83987 2.5904 -0.27576 
8162 0.24605 3.5331 3.7711 -0.55232 1.2657 -0.51088 -3.7931 -1.4214 3.0016 -2.795 0.0684 -0.99239 1.7426 
27669 0.39902 0.36945 1.4417 0.27672 2.0936 -1.8799 -1.2787 -1.1971 -0.49825 2.1242 -1.4659 0.23055 -1.8294 
5711 -0.60744 1.0451 0.33803 0.23308 -0.27546 1.7562 0.81072 0.30814 2.6689 5.7812 -0.94038 1.0188 -1.4936 
5559 -1.3962 -0.24879 1.1531 0.50891 0.16369 -0.29413 1.8628 0.57957 -0.43007 -0.52337 -1.343 0.94724 -2.1649 
85221 1.2438 0.096708 1.9479 3.889 -2.1865 -0.084975 0.87598 -0.33902 -0.75147 2.0907 -1.4222 -0.27837 2.2481 
4319 -2.8433 0.77834 0.13555 -1.6935 1.2044 -0.7232 -1.8476 2.7047 2.4838 -1.2494 -1.448 -0.57939 0.92221 
e8490 0.89391 -0.56424 0.80441 2.1911 -0.27159 0.13538 -0.2246 0.044091 1.0412 1.3827 -1.0263 0.98203 0.69397 
4588 1.9037 -0.073542 0.077243 1.2519 -0.6501 0.26887 0.80592 -0.57044 0.54755 0.72281 -0.6589 1.1279 -1.0794 
4131 1.0933 0.61955 3.236 -2.3953 1.5086 3.7564 -0.27049 0.54059 3.3252 -0.74636 -1.0213 -1.2035 -0.88629 
2752 0.27423 0.48373 2.1778 0.97001 0.87686 1.9916 0.18887 1.4026 0.71406 1.5418 -0.93037 1.5446 -1.0706 
403 -1.2407 0.83113 -1.4755 0.78385 0.95426 0.93325 -1.4853 4.1679 -0.90138 -1.9192 -3.3558 -1.7914 0.0054725 
45341 -1.0615 0.39286 2.2731 2.082 -0.40252 0.83319 2.3525 -0.75847 -1.4457 1.1482 -0.75315 -1.0321 0.22684 
e9289 2.5891 -1.1894 1.8976 1.5441 0.29427 -0.018431 -0.43367 0.34503 1.7029 1.376 -1.0779 0.27459 -0.43681 
73313 -0.32278 0.54538 2.0832 2.4911 -0.92777 -0.40698 1.8232 -2.0494 -1.9435 0.41234 -2.2368 -0.47642 -2.2206 
79029 2.3886 0.82853 1.2601 -0.9374 0.53413 0.3263 -0.80678 -0.47321 0.12226 1.4697 -1.3041 0.52925 -1.3728 
8163 0.29246 3.0693 4.7119 -0.61385 2.1582 -0.59298 -4.2908 -0.58641 3.4737 -2.9078 -0.51745 -1.9215 1.8898 
022 -0.21914 -0.20542 1.151 -0.53886 -0.20917 2.2919 -0.095413 0.020083 1.2296 0.47593 -2.1043 -1.1286 5.1559 
v1051 1.259 -0.12493 1.5756 -0.44282 0.84617 -1.7012 0.63366 1.6509 -1.6621 -0.45864 -0.38887 0.10454 0.0078749 
20280 0.11284 0.2779 0.54747 -0.22455 -1.1002 0.79424 2.1071 -0.91883 -0.58598 -0.36706 -1.1292 -1.6414 -1.0816 
72888 -1.0722 1.2929 0.34445 2.4114 -1.9419 0.6044 1.4506 -1.9586 0.63761 2.0102 -0.16326 1.2636 0.13979 
2848 -1.2472 0.82768 -0.52768 -1.7585 -0.80357 1.553 2.4436 -1.5585 1.5253 0.84913 -0.234 -1.198 -1.4137 
8857 3.3077 1.7269 -1.7473 -1.1124 0.19949 -0.33283 -0.15825 1.5416 0.60683 -1.7369 2.7174 -1.5507 2.5125 
4573 -2.1209 0.76241 -0.22255 -0.74117 1.7776 -2.5398 -0.47873 3.942 0.0354 -1.673 0.30655 -0.24905 -0.69038 
2518 1.719 0.6708 0.65613 -2.8001 -0.96317 1.7693 1.1018 -1.0427 0.57873 0.41881 -2.5997 0.44179 -2.4107 
53085 0.60649 0.0086474 0.12529 -0.78277 1.6441 -0.63069 0.26239 1.8367 -1.3526 1.5989 -1.3123 0.57819 -0.69429 
8628 -0.046825 -0.62104 1.1369 -0.025516 1.4248 -1.5842 -1.5659 1.5489 4.1623 -3.2274 1.2556 0.84205 1.5332 
v8741 2.5972 -0.34844 3.7622 -0.64417 2.6598 0.27077 -0.95508 3.1469 -2.1299 0.85454 -3.1425 -0.86149 -0.57865 
86121 -2.5543 2.4824 1.0098 3.5593 -2.0342 -0.45709 -1.5466 0.71794 1.9251 1.6046 -1.2966 -2.1209 1.2174 
5768 -1.6543 0.46909 1.8365 -1.712 1.3504 -1.1555 -0.086653 -0.44599 -0.12568 2.9955 -2.1095 -0.66606 -1.7362 
78060 1.0035 -0.22589 2.5579 0.62274 1.6332 1.5016 0.16588 -0.78921 -0.13318 2.0514 -1.7843 1.1406 -0.32978 
30393 -0.55203 0.22237 -0.20662 -0.76678 2.1341 -0.82894 -0.76007 -1.1928 1.0785 3.9939 -1.3413 0.40154 -1.8676 
78052 2.4019 -0.10018 0.70083 0.60114 1.6091 -0.12204 -0.73788 1.2188 -0.32207 1.7701 -1.1463 1.3967 -0.93064 
v1259 1.4821 -0.38423 -0.40687 -1.2997 0.79827 -0.59144 -0.24525 0.28714 -0.31892 -0.10894 -0.95837 -0.22821 0.9997 
5762 -3.3548 1.9888 1.0206 -2.8464 -0.027167 -1.0243 2.3416 -0.14232 -1.6811 3.0525 -1.4539 -1.0566 -1.7774 
70707 -0.82249 -1.7825 2.8725 1.8305 -0.1459 -4.5326 1.4143 -0.79011 0.91288 -1.3357 -0.20793 1.7357 -0.20543 
5191 -1.0579 -0.019867 -1.8238 -0.82266 -1.5893 -0.63827 1.118 -0.80674 -1.0233 -3.6546 -3.8025 0.37613 0.36691 
3409 0.018254 0.97804 -0.52741 -1.6533 -0.0079344 0.13423 -1.9001 1.7834 2.8879 -2.1282 -0.89609 -3.0551 -0.4137 
e8786 -1.7791 1.2299 0.97276 1.0295 2.0107 -0.74058 -1.0723 2.0639 -2.089 -0.36244 -2.409 -0.21758 -1.5459 
2409 -1.4097 4.6701 0.14054 -0.16382 -0.0068439 2.1865 -1.1415 -0.15924 -0.86279 0.50699 -1.3051 5.24 1.8509 
48283 -2.2073 0.95533 -0.13551 0.77276 -2.511 -0.92514 1.0191 -2.1708 0.21897 -0.43603 -1.7435 -1.4212 -0.15616 
8611 1.4334 0.36599 1.3344 -2.1664 1.3041 1.7425 -0.563 -0.27884 3.6155 -1.5401 0.44173 -0.71672 -0.24232 
53140 -0.81332 0.40137 -0.47835 -0.34077 -0.41266 -0.099808 3.8005 1.3638 -0.81494 0.99471 1.3581 0.46105 -0.60422 
5724 -3.5384 3.0608 0.55151 -1.0611 -0.72306 -1.0944 2.7175 -2.7986 2.5863 3.1277 1.9295 -1.9437 -3.0429 
8968 2.0405 1.6444 -2.9865 -1.3162 1.0791 -0.11163 -1.312 2.3204 1.2176 -1.5607 1.2528 -1.7295 1.2462 
79001 -0.18486 0.2801 0.9171 1.0367 0.32386 -0.87476 1.0321 -0.39948 -0.95543 2.2113 -0.16682 -0.94711 -0.45739 
34831 -1.5243 1.023 1.2202 1.3246 -1.4433 -1.1051 1.9711 -2.4795 -0.28724 1.0257 -0.2267 1.2567 -0.70461 
99664 -0.67818 -0.30577 3.1741 0.57544 -2.7437 -0.44828 3.4742 -1.4445 0.40927 -0.50157 -1.0138 2.3744 -0.18818 
19889 -0.91571 1.8264 1.5916 1.2213 0.94757 1.5449 1.3182 1.2779 -3.1392 -0.34297 -1.4192 -2.9323 -0.92804 
41072 1.7746 -0.055638 -0.41873 -0.33745 0.24653 -2.0222 1.0549 -0.25438 -0.49046 -0.99367 0.72449 1.538 -0.34823 
3964 3.9742 1.9714 -2.8667 -1.0845 1.5135 -0.55953 -2.5487 1.999 0.47366 -1.1974 0.62854 -1.3274 2.0679 
9972 -0.74126 0.93019 0.14891 1.8039 1.7495 -0.79983 2.2645 -1.7507 -2.2934 -0.56737 1.7924 -3.2742 0.80024 
5110 -0.7477 0.40548 0.17824 -3.0661 0.025724 -0.90027 -0.29463 1.7959 0.83511 0.49527 -2.007 -1.6202 -1.2043 
0309 0.25969 1.5717 3.4638 0.36797 1.7808 -0.12734 -2.695 -2.3013 1.0388 -1.7141 -0.88042 -0.29423 1.6432 
3949 -0.89499 -1.4111 -0.89214 -0.61377 4.2731 -3.1851 -0.037086 -0.42402 1.6934 -1.4975 1.6118 -1.3784 1.9913 
4400 1.9527 -0.048843 -0.58261 -0.29581 0.87007 -2.9883 0.20785 0.34648 -1.7198 0.95385 -0.17295 -0.7199 0.35899 
30590 0.43708 0.13626 -2.6408 1.8052 1.0421 2.1888 0.37204 -0.5475 1.9248 1.9374 -0.43821 0.81478 0.30342 
e8791 1.3806 -2.715 0.63066 0.66671 4.9407 0.28791 1.1578 -3.8419 2.1926 -1.4277 -0.56455 -0.17882 -1.6451 
8600 -2.4689 2.4153 0.73273 4.043 -2.4113 -0.47523 -0.90809 0.772 1.5155 1.9388 -1.6292 -2.3739 0.86055 
319 -0.27149 -1.0285 1.5244 -0.30756 -0.87497 -0.22078 0.2259 -1.5671 1.2725 -0.36178 -3.4676 1.7029 -0.68765 
7070 -2.3818 0.87214 -1.5681 0.3074 -2.279 -0.19732 1.236 0.075509 2.2759 -2.1061 0.77914 0.34025 1.6601 
6961 1.9163 0.62333 0.79553 -0.21295 0.68667 -0.1361 -0.75413 0.5561 -0.30814 0.98202 -0.7279 0.26336 -0.66471 
53240 -0.89261 0.46098 -0.14534 -0.1797 -0.50737 -0.8363 3.8407 0.74096 -0.45892 1.5863 1.8044 0.65843 -0.84486 
5498 1.5302 -0.21485 -0.39814 -1.4121 3.7021 0.8954 0.12636 -0.37283 2.2393 -2.6778 1.6799 2.0108 0.18283 
7464 1.8795 2.1808 -2.0511 1.4578 0.46753 -0.81318 -0.75698 -2.0354 -1.8026 1.137 -1.0545 -1.9807 -0.73723 
5411 -2.0896 1.0081 -0.10725 -0.43923 1.6164 0.22285 -1.2564 2.5507 1.8334 -0.35352 0.20405 -0.76845 -0.070876 
7779 -0.36668 3.2201 3.7908 0.93727 2.2757 -0.69062 -4.03 -1.1181 1.7363 -1.4246 -0.82388 -0.86466 1.3861 
7821 1.8785 -0.2794 1.1931 -0.42119 1.363 1.1535 -0.14207 -0.51477 1.0293 0.60906 -1.454 0.74009 -1.952 
53019 -0.37663 -0.84313 0.5895 -1.349 1.7438 0.76153 2.6173 1.7077 -0.73672 3.5341 -0.72436 2.0895 0.30603 
78830 1.5118 0.22916 2.2901 0.027218 0.13893 -1.2677 -0.91658 -0.18473 -0.044164 0.97181 -1.1748 2.2213 0.52756 
56211 -2.8523 1.6967 1.139 -0.49334 0.19613 -1.5747 0.97809 0.47057 -1.2781 -0.82063 -0.51496 0.78734 -1.4894 
8730 0.36519 0.77847 1.0167 3.3423 -1.1987 -0.25539 -1.4451 0.97058 1.4226 2.8246 -1.2857 -0.18392 1.5328 
8960 3.3257 1.7644 -3.0205 -2.0094 2.1045 -0.48977 -2.4465 1.1025 -0.38134 -1.3331 -0.35768 -1.343 1.6088 
56722 -5.4516 2.1685 2.9544 0.87933 -0.27146 -1.7543 1.9186 -0.89682 -0.82205 0.83121 -1.4634 -0.34079 -2.6943 
2662 0.97312 -0.0063367 0.94397 0.3395 -0.53716 0.12876 0.693 0.56023 -0.21582 0.6903 -0.88749 1.9199 0.45599 
41091 -0.79266 2.0246 -1.8898 0.59775 -1.0475 -0.82665 1.9323 -0.062822 -1.3433 -0.91705 1.8924 -0.70408 0.96183 
4582 -0.36352 1.1298 -1.2263 0.0023238 1.0273 -0.47305 0.28483 1.4323 -0.61811 -0.85072 1.147 -0.74521 1.0223 
71690 1.2132 -0.11312 -0.042046 0.46741 2.218 -1.0017 -1.0134 0.97327 -2.1803 0.88076 -2.2865 2.1801 0.70446 
7935 0.5769 0.32476 0.47405 2.2927 -0.27356 -1.2483 -1.2369 1.6506 1.9857 0.36918 0.94147 0.033218 1.8623 
1550 -2.2211 1.8423 -0.37704 -0.44357 0.90621 0.35539 1.4219 -1.2639 -0.3904 4.4065 -0.20811 -2.1482 -1.5485 
25541 -0.40741 -0.43162 2.2485 0.73159 -0.52357 0.72728 3.1378 -2.6156 -0.16711 0.040921 -1.2537 -0.081708 -1.9936 
8451 0.052015 3.958 3.8611 -1.5589 1.6364 0.20759 -3.7897 -0.96636 3.9901 -4.084 -0.55149 -2.5942 2.0028 
3727 5.0697 -1.1237 -0.374 2.7411 0.84554 -0.57991 0.038121 3.6079 1.0312 -3.4401 -0.17568 -2.5463 -0.47978 
v1272 2.8349 -0.36298 0.49841 -1.109 2.5206 -0.60371 -0.68623 2.4463 -0.71722 1.2222 -1.0283 0.63927 -0.49553 
1623 -0.51311 1.5167 0.15236 1.0639 -1.2525 1.3836 1.3357 0.49786 -3.4891 -0.87196 -2.867 -2.3158 0.24812 
33394 2.4052 -0.24926 0.24713 0.30382 1.1952 0.22768 0.39919 -0.20888 -0.68203 -0.259 -0.53655 0.8684 -0.4259 
58881 1.1964 -0.94576 -0.42159 1.5956 2.3961 -0.55463 3.2598 -1.6913 -0.87706 -0.25351 0.59041 1.1515 -3.0303 
3794 3.5894 0.12074 -1.3602 2.0014 -0.72409 -0.131 0.89965 1.2951 0.79804 -1.8484 1.5984 -1.4868 0.96451 
5523 -0.31251 0.683 0.1163 -2.1953 3.0298 1.6091 0.018255 0.50148 1.7877 -1.5832 0.4599 -1.3532 -1.677 
185 0.777 1.13 1.3321 0.68102 -0.24743 -0.7294 0.37789 1.4885 -1.8141 1.2477 -0.16076 0.2642 -0.095524 
04112 0.10745 -1.8566 1.3293 1.4994 1.5079 -1.1863 -0.27808 -1.2745 1.0705 0.25101 -2.396 0.61464 -1.3567 
8754 -2.7469 1.3539 0.34675 -5.5889 1.8115 -0.64919 -0.18407 1.6829 3.2377 1.0936 -0.74629 -1.7616 -0.68338 
7823 0.77916 -0.60183 1.3843 -0.65781 2.0128 -0.027097 -0.40086 -0.25841 0.35468 1.111 -1.9186 0.58998 -1.8354 
4142 3.7144 1.5462 -0.42766 1.2472 1.3212 -1.8051 0.79447 -0.30134 -2.9569 1.7114 1.3579 1.0003 0.38133 
e9308 1.0902 -0.5989 2.3879 -1.2274 1.1824 -0.77813 -1.6491 -1.7313 1.8742 0.25257 -2.6258 0.53396 -1.7531 
56081 -4.4393 1.0505 -0.66435 1.1865 0.38564 -1.2788 2.0783 0.19862 -1.3994 0.85688 -0.76737 -0.22822 -1.5955 
v4611 -2.1775 -2.3585 -0.25229 1.217 -1.9906 -2.5752 2.0684 -1.6186 0.82529 0.033487 -4.1957 -0.029618 -1.0125 
8054 -1.8595 1.9508 0.68266 4.4022 -1.5057 -0.54932 -0.47881 0.10242 0.82119 1.9438 -0.23515 -1.4105 0.44645 
v4983 0.69677 0.028548 0.077739 -0.80466 3.8474 -0.30117 0.8157 -1.8853 1.3532 2.8274 0.76443 0.50698 -2.6629 
44023 0.27457 -1.1653 -0.25325 1.9135 1.1917 -3.3109 2.1159 -0.73329 -0.6104 -2.5218 1.4225 2.0943 0.96158 
28522 0.77016 0.59285 4.0028 -0.57017 0.80486 1.7375 0.37386 0.92754 -1.0777 -0.1278 -2.2426 -0.25064 -1.2053 
27542 0.66984 -0.57503 1.4376 0.16902 0.63562 1.3325 0.48999 -1.1135 0.99795 -0.63258 -2.0359 1.2533 -1.8953 
7856 0.5953 -0.16863 0.49592 -0.063071 -0.17308 1.3889 -0.061619 0.21852 0.13478 -0.29021 -2.7581 0.38886 -1.2378 
53010 -0.62335 0.20243 -0.072802 -1.0243 1.9886 0.44712 1.7737 1.27 -0.56303 3.0893 0.12598 3.0119 0.27715 
99832 -3.0471 1.1465 -0.35676 1.8733 1.0385 -1.6061 0.91746 -1.4803 -1.2832 -1.6942 -0.24791 -1.3583 -0.68076 
4524 0.020334 -0.23408 -0.17593 -2.4289 1.944 -1.2562 -0.24285 3.7477 1.9544 0.19875 0.51865 1.2441 0.076705 
8105 0.46412 2.9216 4.1415 2.2921 2.2952 -0.89008 -3.8356 -1.6435 -0.2281 0.45719 -1.3608 -0.57505 0.28678 
v4586 0.00044852 0.37771 -0.084133 1.1146 1.6739 -1.1587 -2.0563 0.53281 0.4938 2.0055 -2.3736 1.7997 -2.3293 
0353 -0.33534 1.9444 4.4125 1.7422 1.1611 -0.73954 -3.4824 -1.2182 2.4799 0.44382 -1.0605 -0.69883 0.99615 
5609 -2.8161 0.91161 0.35038 0.31733 -0.36429 0.075218 2.695 0.89502 -1.1607 0.29159 -0.017104 -0.17114 -0.95815 
7936 -1.0926 0.51582 1.1732 2.7635 1.7374 -0.71823 -2.9569 1.1467 3.7575 0.36395 -0.17894 -0.71084 2.5048 
30550 0.31772 -0.0035334 -1.5435 2.8303 0.71417 0.69634 -1.0516 -1.1335 2.5163 2.3354 -1.2189 0.24618 0.5078 
24200 -1.0361 0.57939 -1.6447 2.1801 3.8394 1.7324 0.11547 -1.1106 -0.29858 1.6087 -1.2119 5.3281 2.4207 
29570 0.19255 -0.82571 -0.62165 0.72173 0.17407 0.23088 1.2566 -1.1725 0.070824 0.25557 -1.6107 1.0783 -0.41362 
v5866 2.8089 -0.35248 0.07929 0.402 1.1163 -1.6878 -0.50539 1.0934 -0.4972 0.0012562 -0.27651 1.469 0.35926 
3733 3.8541 1.0205 -2.6701 0.2519 0.4224 -1.1603 -1.6343 1.3351 -0.28775 -1.572 -1.1737 -2.0176 -0.48429 
e8796 1.6411 -1.4563 3.5589 0.41655 -0.80827 -1.888 0.8372 0.87488 1.3534 0.65266 -0.66451 2.3397 -0.060227 
99682 -3.8057 2.9363 -0.3079 -1.7287 1.4637 -0.13329 2.5285 -3.2402 0.31584 2.7385 0.93434 -2.719 -2.3893 
04186 -0.14671 -0.85187 0.082553 -0.65842 0.56536 -0.4478 2.8798 2.3216 -0.19196 2.4068 0.06387 2.6391 0.36323 
452 -3.1044 2.3764 0.76243 -1.0034 0.24751 0.32459 3.1112 -0.85712 -0.054446 4.0334 0.69102 -2.1295 -2.4469 
25062 0.0017681 0.092898 0.88618 1.9446 2.3822 -2.3938 0.68375 -2.4887 0.099391 0.58543 1.3166 4.3156 0.54435 
4550 1.1841 -0.96996 -0.24163 -0.68086 2.2622 -2.2348 1.8688 3.3263 -0.86864 3.6413 -0.42589 2.7879 -1.7105 
e9352 1.1247 0.31045 1.178 2.046 1.9429 0.43833 -1.9739 -0.031518 -0.22165 -0.11406 -2.5616 1.2581 -1.4594 
4568 -1.0464 0.070752 0.061069 -1.2631 2.7561 -0.2201 1.7252 0.078891 0.86206 5.1901 -0.23293 -0.38433 -2.2906 
0416 0.29385 -1.4685 1.7064 0.47267 -0.1187 -2.7034 0.84425 -0.40809 0.77541 -0.21454 -0.91677 1.6626 -0.046489 
4430 1.3472 0.54573 -0.16136 -1.3361 2.9022 1.7711 0.31299 -0.1471 -0.67338 0.34576 -0.79093 -0.62913 -1.6584 
4829 0.37012 0.64782 0.67095 0.089142 -1.8858 -0.1636 2.3685 -0.98919 -0.21414 0.15257 -0.8586 -0.27327 -2.3774 
4263 3.0576 0.18995 0.056267 0.74403 -0.24041 -1.1859 0.22684 0.78715 -0.95218 -0.22524 -0.25015 0.85234 -0.18816 
7905 2.174 -1.2701 0.65832 0.79651 0.98466 0.40081 -0.2643 0.22246 1.1945 0.55813 -1.1063 1.4048 0.42521 
78097 1.3475 -0.81119 1.3379 2.2138 0.86408 0.77401 0.22793 -1.1456 0.2701 0.88972 -1.8414 2.7324 -0.616 
43330 2.566 0.027447 -1.0151 -0.14814 1.6785 -3.1908 0.29636 -0.70409 -2.7782 1.0644 -0.31613 0.26287 1.9346 
9331 -1.332 -1.7472 0.24278 -0.4788 -1.1097 -2.6551 -0.12307 -1.1268 1.4342 0.94173 -4.1508 0.91753 -0.72202 
v180 1.6111 -1.0612 -1.6717 -0.47983 5.491 0.98648 -1.1617 0.71321 -0.28399 0.46962 -1.2107 1.1388 1.5263 
5589 -0.37157 0.5915 1.3023 -0.39763 1.5912 1.4625 1.2417 0.066037 0.20375 0.54398 0.08613 1.7346 -1.0395 
87342 0.45731 0.49647 0.97009 3.4489 -0.66617 0.081915 -1.5108 0.87616 2.3642 2.6112 -1.1086 0.2263 1.3411 
23871 -0.38653 -0.067938 2.4188 0.087589 1.391 -0.31362 -0.80082 0.41242 0.81126 2.3435 -1.4057 1.158 -0.58736 
3524 3.7263 1.0294 -3.0121 -0.22752 1.4414 -0.37969 -1.2484 -0.3766 -0.14003 -1.1526 -0.78929 -1.8324 -0.72209 
e915 -0.27429 -2.0855 0.096583 0.39672 0.55282 -1.0889 -1.014 0.15776 1.7686 1.2418 -4.1793 1.2388 -0.82873 
5672 -6.1546 2.9496 -1.8387 -1.1914 -0.403 -0.10761 1.8678 -0.44873 1.6006 -1.6202 0.87349 -0.90258 -1.2554 
4820 -3.1467 0.1903 -0.16762 0.52266 -2.8261 -1.325 2.6328 -1.3509 0.26787 -0.89412 -1.3448 -2.0867 -0.15721 
0212 0.36229 0.18991 2.6335 0.7162 1.2563 1.7205 -2.1095 0.90318 -0.29414 -0.27876 -3.6236 -0.95031 4.6626 
5188 0.09632 1.8212 0.23986 -3.7298 -1.0396 -2.3761 -0.54477 2.2235 0.42296 0.20396 -1.1364 -0.68278 -2.3051 
8052 -2.1562 2.1369 0.82943 4.6572 -2.5182 -0.67101 -0.49626 -0.48881 1.0021 1.1286 -1.1423 -1.4078 0.45946 
44101 -0.2287 2.1368 -1.2038 0.56201 -1.3579 -1.1427 0.25967 -1.219 -1.771 1.1221 -0.84107 -2.7148 -0.0791 
9744 3.0952 2.1709 -2.0196 -1.2511 -0.33416 -0.68791 -1.5568 1.4437 1.725 -1.755 2.4131 -1.408 3.059 
07030 -1.2864 0.032371 -2.4978 0.30571 0.67647 1.8194 1.6608 -1.769 1.2261 1.3404 -1.2473 -0.59975 -1.0259 
3453 -1.3089 0.34581 1.3236 0.49921 -1.686 0.52423 1.5728 -2.093 0.089414 1.0386 -1.2548 0.062573 1.4152 
5772 -3.7057 0.87975 0.23713 0.080446 -0.55318 -0.54307 1.7522 -0.071835 -0.44256 2.936 -1.8843 0.20215 -1.6082 
4401 1.4134 -0.39893 -1.1883 -0.11733 1.3565 -2.2112 1.2615 0.1189 -1.6885 -0.02708 0.47322 -0.025072 0.93495 
78900 1.4903 -1.3639 0.69986 0.75674 3.0377 2.2728 1.6293 -0.011945 1.362 0.40355 -0.94142 3.1394 -2.4562 
5641 1.2053 0.8291 0.86151 0.0091475 1.8777 -0.76376 -0.47474 0.75243 -1.658 0.76539 -1.0869 1.8607 -0.93856 
53551 -1.2279 1.0646 -2.0149 -0.88789 -0.1696 0.051345 3.0984 -0.37502 -0.97225 0.94808 0.42122 2.7331 0.40509 
44021 1.2367 0.33432 -2.0023 0.070545 1.2466 -2.6995 0.80358 0.16404 -2.3072 -0.19841 0.37119 -0.19537 1.2189 
2967 -0.35793 0.35343 -1.7916 0.7304 -1.2475 1.1267 0.31211 0.33268 1.4087 -0.76618 -1.0236 1.2823 1.0726 
3533 3.9187 1.1968 -3.276 -0.21761 1.5117 -1.4504 -1.5583 0.78885 -0.81689 -1.1536 -0.67335 -1.1822 -0.067506 
5793 -4.3483 -0.10274 3.4779 -0.54857 1.2534 0.86984 3.8498 0.42317 0.060053 -0.97833 -0.27394 -0.36858 -1.2752 
3481 -1.1832 -0.22134 -0.19934 1.7378 -2.7028 -0.96889 1.7065 -1.1087 1.1787 0.72814 -0.51807 -1.1851 0.53371 
v442 -0.70149 -1.071 2.1444 -0.86881 1.7929 -0.78748 0.38339 1.6343 0.032686 -0.95297 -2.1185 1.7515 -1.5388 
415 -2.7734 1.0476 0.1447 -0.66572 2.163 0.092071 -1.7247 1.4676 2.2555 1.7795 -0.39379 -1.7989 -0.087651 
725 1.3225 0.4794 0.77876 0.14926 0.060131 -1.7975 0.13502 0.95692 -2.1402 -0.46588 -1.1802 0.44724 -0.35209 
42842 0.66844 0.12896 -0.74177 0.95879 0.98017 -1.2951 2.6361 -2.4407 -0.79512 0.46379 1.228 0.30578 -1.12 
3694 0.77135 -0.3326 0.59145 -0.16172 1.5202 -1.5486 0.046204 0.023135 -0.36239 -0.53133 -0.15548 2.2221 0.25924 
2252 1.266 -0.49787 1.7926 1.5598 0.61253 0.60277 0.1811 -0.30106 -1.8394 0.65587 -2.7428 0.0816 1.8794 
6823 -1.0667 0.4873 -0.6698 2.1655 0.0053743 0.448 1.4203 -1.4652 0.057042 -0.44198 0.35751 -0.73207 -0.039308 
49392 0.89317 1.0061 -1.1557 0.24159 -1.487 1.1445 1.1193 -1.0319 0.38737 -0.23157 -1.6595 1.9821 -1.6833 
8669 -1.9683 -0.072985 -0.267 2.8364 3.3198 -0.16159 -2.6344 0.80783 2.5633 -2.109 -1.0503 0.11649 2.0487 
25012 -1.4777 0.74231 1.0173 1.9846 -0.017103 -0.11061 2.1248 -1.6949 0.030345 1.8363 0.38634 3.3277 0.055742 
7885 -0.17834 0.85269 1.005 0.22734 1.4008 -1.9469 -1.0467 -0.29341 -1.0574 0.77383 -0.65437 0.18716 -0.87615 
2440 1.38 -0.036755 1.1081 -0.79263 -0.028055 0.10146 0.38839 1.451 -1.3564 -1.4428 -2.1415 2.0804 -0.51113 
99889 -1.7515 1.3143 -1.0103 0.72495 1.9607 -0.51521 -0.63789 -1.0393 -1.4207 0.052938 -0.67783 -1.7473 0.73066 
59970 2.5246 -0.76891 2.1868 0.55709 -0.19094 -2.3004 0.18298 0.1444 0.64765 2.2081 -0.47273 0.87483 -0.69092 
9914 0.9922 0.10032 1.6895 -2.7494 1.8174 1.9857 -0.77061 0.98315 2.7484 -0.50548 -0.90455 -0.011976 -0.62027 
7994 -1.8689 0.21682 1.6603 0.90345 -0.86001 0.36643 2.6701 -1.3369 -0.42624 0.76458 -1.4898 0.39747 -1.8005 
v1301 1.3985 0.17258 0.13153 -0.76344 2.1259 -0.062563 -0.9981 1.2838 -0.26272 0.8304 -0.67913 -0.18974 0.1677 
4592 -1.0223 -1.5895 0.18178 0.48447 2.7313 1.8545 3.1307 -1.0191 -0.087018 -0.33289 -1.1404 -3.3022 -1.6111 
7906 1.1402 -0.11172 0.21507 0.69507 1.2197 0.61925 -1.1589 1.0163 2.0556 0.45393 -0.35119 0.68556 -0.42469 
v454 1.4043 -0.074705 2.4038 0.95174 1.9491 -1.5077 -2.254 0.835 0.3141 -0.062376 -1.2159 1.2578 0.39663 
1628 -0.60916 1.0453 1.1239 1.246 -1.2874 1.6858 1.5135 0.25627 -2.58 -0.72996 -2.6808 -1.61 -0.20902 
3605 2.4533 1.9226 -1.4722 -0.05065 -0.64677 0.79258 1.7696 1.0207 0.40162 -1.5919 3.1332 -1.146 1.6644 
e8120 -0.5199 1.0588 0.77752 2.996 -0.95437 -0.99703 -1.6217 1.2112 1.4581 1.6846 -0.74478 -0.66135 1.0351 
4242 1.1909 0.2461 -0.85489 0.48088 -0.20947 -1.1918 0.062033 1.4037 -1.1222 -0.28185 -1.5018 -0.9297 -1.62 
71536 1.3281 0.17131 -0.25843 0.96491 0.85605 -1.3205 -0.40701 0.29137 -1.0774 1.0925 -1.7206 1.2787 -1.754 
5728 -1.4225 -0.077363 -0.42316 -2.3765 1.9153 -0.55474 0.83022 -1.9724 1.6689 3.2485 -1.4689 -0.53361 -2.8412 
6827 -1.2196 0.10362 0.47782 3.6524 0.58199 -1.8737 2.8058 -2.1117 0.42375 -1.3501 2.5519 2.2278 1.1329 
2866 -1.9891 2.0346 0.62604 -0.39407 -1.8897 0.33365 2.04 -1.7327 1.3928 -0.19141 1.2864 -2.0918 -0.35615 
v641 1.5172 -0.47757 -0.95796 -0.56773 0.72249 -0.79398 0.63833 -0.37495 0.18322 0.70828 -0.086749 -0.80425 -0.47323 
56981 -5.3525 0.80136 2.1784 1.3929 -0.088408 -1.354 1.9515 0.89016 -0.475 -1.3731 -1.6997 0.031828 -1.8898 
8670 0.97253 1.1987 2.4948 1.7327 -3.2174 -1.1181 1.7514 -0.50906 0.13856 2.1926 0.21787 0.22535 -1.039 
5920 -0.083841 1.308 2.7945 -0.3452 -0.0086689 -1.0675 0.50124 0.51254 -0.50617 0.10432 0.41285 2.8867 0.13548 
5168 -0.094408 -1.7029 -1.5468 0.017725 -0.9852 -0.74345 3.6642 -1.6115 1.3517 -1.0373 -1.0872 -0.91755 -2.3183 
3844 -0.68798 0.88096 -1.4618 -1.1335 0.6838 -3.4819 -1.3254 0.97667 -0.3293 -1.0959 -0.33051 -2.1888 1.1554 
8382 -1.3599 0.31407 -0.47704 2.5195 2.4693 -1.0286 -2.5788 0.55783 0.56893 -4.4142 -1.3937 -1.3516 2.4519 
78829 1.2272 0.22117 2.3948 0.38646 -0.31151 -1.6026 -0.41358 0.52459 -0.43552 0.85687 -1.0828 0.74802 -0.73491 
v1087 1.4158 -0.47349 0.59575 -1.2611 -0.078664 -0.20146 0.016531 1.3994 -1.2177 -2.9315 -3.1275 1.5914 0.15072 
9341 -1.6694 -0.056658 0.3084 0.55401 -0.98654 -0.97096 -0.9609 -0.8565 0.077367 0.089129 -3.7564 -1.4816 -0.03743 
0088 0.9398 0.62508 -0.10839 1.5377 0.8299 1.2175 1.6616 0.5035 -0.19009 0.33377 0.26706 3.285 -1.4951 
23875 1.2854 -0.46945 2.3141 0.079106 0.26565 -0.7498 2.2531 -0.36932 -0.28776 1.2351 0.056731 0.23216 -1.8716 
v443 0.99722 -1.6179 2.887 -0.17264 0.8136 -1.3312 0.53186 1.7397 0.54504 -0.79871 -1.0608 0.44431 -0.90917 
72989 2.657 -1.2702 1.7674 0.22085 0.5985 -0.97789 0.062571 -1.4635 -0.68662 0.86714 -1.7089 0.48086 2.0362 
9656 -0.28515 -0.30749 -1.2535 -1.8413 -0.50646 1.17 -1.1595 0.77286 2.9888 -2.8863 -2.6886 -0.92325 1.5045 
7921 1.8921 -0.2587 0.32588 0.1851 0.38532 -0.26625 0.27492 0.81049 0.46429 0.25186 0.067292 1.6633 -0.011395 
e912 0.03656 -1.8946 1.8641 -0.090804 -0.21474 -1.7553 -1.9646 0.20421 1.4105 -0.65214 -5.3652 -0.20707 -0.38072 
261 -2.9135 0.23887 1.6107 0.96105 -0.88917 -0.5706 3.5872 -1.945 -0.0037839 1.2532 -0.059237 0.072153 -1.379 
43811 1.1094 -1.8287 1.3909 -1.2994 -0.39258 -1.6568 1.5009 -1.011 -0.052336 -0.15966 -1.2412 1.3972 2.0801 
3403 1.9058 2.2272 -2.9373 -0.25006 1.6144 -0.98795 -3.101 0.97654 0.35982 -1.4307 -0.24269 -3.2388 0.93005 
8051 0.016843 3.2228 2.7184 -0.037059 1.534 -0.59511 -2.9092 -2.6619 1.701 -1.7756 0.12399 -0.2602 0.77447 
8020 -0.84807 1.3939 0.66183 3.7127 -2.0023 0.12062 -1.3222 0.26206 1.8876 2.3497 -1.9099 -0.97137 2.2451 
8082 -1.3624 2.7094 0.62486 4.8322 -1.606 -0.54294 -0.64447 0.95736 0.85637 1.722 0.32276 -0.96608 0.04052 
4940 1.4267 -0.21863 0.77088 -0.30098 -0.89611 -0.24173 0.3552 -0.1186 -0.64819 -0.29114 -2.9624 0.63095 -1.7374 
28800 0.59928 0.84286 4.1502 -0.30527 1.1552 2.5398 1.0352 -1.5452 0.68701 1.2367 -1.5629 -0.2044 -2.7425 
v1006 0.16013 -1.6987 2.7365 0.79754 1.6093 -1.1722 1.2633 1.9427 -0.31196 -0.34235 -0.93309 0.58348 -1.0966 
29620 -1.3227 0.58043 -0.91767 0.36418 0.80078 1.5021 0.43667 -1.1005 1.1029 1.1965 -1.0568 1.8617 -0.27125 
28981 0.0053981 -0.18693 0.88348 1.6459 1.0974 0.406 2.5294 -1.4014 -1.6815 0.33873 -0.76443 -0.96476 -1.9711 
9229 0.51226 -0.24808 3.813 -2.0457 0.93918 2.8314 -0.24152 1.9628 1.6389 -1.1228 -2.3339 -0.77855 0.083658 
56983 -5.5373 2.6334 1.2552 0.89189 -0.27524 -1.3638 2.58 0.62067 -1.0286 -0.88773 -0.012151 -0.83016 -2.242 
71941 2.1925 0.12506 0.52747 -0.096441 -0.28282 0.33204 -0.87826 1.0276 0.52925 0.68041 -1.7581 1.9116 -0.2172 
481 -0.034238 1.2525 0.025226 0.21073 -3.4124 1.8532 2.0292 -0.73171 1.259 0.11851 -1.0028 -0.95834 -0.92864 
99659 -3.0449 0.49924 0.2755 -0.82909 -0.71145 -1.0224 1.4648 -1.5773 -0.96546 0.42488 -3.0879 -0.41583 -1.6796 
51902 -2.1174 -0.62175 -1.2753 1.6336 -2.0876 -1.6759 1.2679 -1.6521 -0.97439 -1.764 -4.8682 -0.083014 -0.85968 
v427 -1.3079 0.54016 0.84883 -0.90943 0.70658 -1.0388 2.1875 -1.6076 0.26226 1.3607 0.9865 0.59304 -1.686 
45182 1.011 0.23023 -0.2519 1.3832 0.27653 0.40716 -0.076779 -0.90425 -0.93645 -0.21777 -1.3427 -1.2926 0.14283 
e8792 0.18587 -1.3912 3.42 -0.50602 2.4383 0.069415 0.93305 2.2821 -1.4506 0.88468 -2.104 -0.73216 -0.085988 
3712 2.1502 0.81483 -0.17006 0.11535 1.1111 0.76292 -1.0815 1.8029 0.89127 -1.5808 -0.78322 -3.9811 -1.5204 
7295 1.3551 -0.80452 -0.021701 0.84394 1.946 -0.012596 -0.76029 0.1207 0.57575 0.44029 -1.9363 2.1111 -0.9655 
5303 -0.75228 -0.31423 0.51992 -1.2661 0.098296 -0.182 1.2638 1.7777 -1.196 1.6004 -2.102 0.5285 -0.15135 
3899 2.6286 0.12117 1.9107 -0.79009 0.98455 -0.60834 -0.86472 0.49513 -0.34606 0.67285 -1.1681 1.388 0.43526 
9992 1.1592 1.3613 -1.3061 0.84047 0.38086 1.613 1.3217 -1.7049 -1.728 -0.52107 -0.87092 -2.3913 -0.79896 
41511 -1.9471 1.0537 0.81328 1.6851 -0.40777 -0.30844 0.91423 -0.44876 -1.1545 0.013014 -0.71324 -2.6493 0.051724 
41189 -0.36353 -0.75372 0.76772 1.0576 0.017363 -1.7778 3.3094 -0.76912 -1.0426 0.81495 0.15113 1.0752 -1.2921 
8024 -0.92237 1.8435 0.29957 3.2697 -2.0573 1.1066 -1.0074 0.76745 1.5318 1.9225 -1.6275 -1.0683 2.3838 
e8147 -1.6999 1.2484 0.57172 3.4248 -0.93994 0.034226 -1.2038 0.88735 1.6623 1.6408 -0.70041 -1.0382 1.6193 
99831 -2.6511 1.2989 -0.55092 1.8248 0.094735 -3.044 0.75074 -1.8248 -1.8484 -1.0988 -0.69274 -2.0658 -0.81478 
56881 -2.1104 0.91388 0.69716 1.2632 0.056759 -1.0176 1.9986 -0.6144 -0.89495 2.0011 0.086047 -2.4187 -1.4871 
v0980 0.084171 -1.8237 2.082 -1.4931 1.6833 -1.4579 -0.1194 -1.18 1.6876 -0.16799 -2.7165 -0.16267 -2.1156 
v1204 1.8974 -1.7414 1.9445 0.2312 2.6312 -1.7455 -1.3812 1.461 -0.13119 -0.074598 -2.5594 2.5503 0.17153 
v4579 1.8812 -0.52651 1.107 -0.32138 2.5975 -0.64984 -1.5537 1.6955 -0.46624 1.9409 -1.8539 0.10235 -0.22024 
85220 0.67219 0.63042 0.69058 2.7475 -2.5002 0.50384 0.41452 0.2132 0.19687 1.0813 -0.89757 0.044859 2.9665 
5855 1.1507 0.37335 -0.58334 0.22935 1.5369 1.1442 3.1955 -2.2118 0.51162 -1.947 0.93888 1.7447 -2.6653 
70709 -0.95769 -1.6372 2.5457 2.2187 0.31269 -3.4997 0.85919 -1.7829 1.4489 -1.2621 -0.37075 1.3573 -0.70109 
3931 -0.19785 1.096 -1.726 0.40226 2.0969 -0.51868 -1.6434 2.1982 0.91439 -0.23096 1.1249 -3.1233 1.691 
9999 -0.70769 -1.0683 -0.023565 -0.76427 -0.65025 -1.6082 0.35249 -1.37 1.0151 0.26629 -1.9292 0.39383 0.63831 
9654 -2.1117 2.8489 -0.61974 1.5305 -0.77369 3.7642 0.92627 -1.5611 2.5877 2.6277 -0.8033 1.6184 -0.69404 
1890 -0.78808 2.1113 0.98374 0.98153 -0.146 0.96262 1.6926 0.73339 -2.7581 -0.75302 -0.44265 -1.5489 -0.76672 
72402 1.3255 -0.039245 1.1816 1.0292 0.79732 -1.7505 0.16905 -0.0074201 -1.9722 -0.25621 -1.0161 0.36974 0.10991 
9694 -1.0412 1.9402 -1.4205 2.9798 -1.5071 4.398 1.0969 -0.54826 2.2442 1.6559 -2.1524 2.0925 -0.34187 
1962 -2.0503 3.025 1.2934 0.050108 0.69243 0.99819 1.3864 2.1927 -3.0993 1.7731 -0.70804 -1.1497 -1.3279 
9906 0.19313 1.8835 -0.15469 -3.678 2.0994 0.94766 -2.5111 1.8606 3.5026 0.62655 -0.097988 -2.8579 0.65804 
48242 -1.9999 -0.22945 1.2573 1.8499 -3.0791 -1.6054 2.4105 -2.0978 0.059033 0.5193 -2.5872 1.573 -0.41107 
5198 -1.1889 0.37963 0.33995 -4.0405 1.2583 -0.015117 -0.33843 1.013 1.4452 0.38784 -2.1668 -0.42132 -0.51669 
36250 3.1639 0.40299 1.5068 -0.74254 0.65856 -1.6549 -0.50461 1.1861 -1.8619 0.922 -1.2062 0.25056 -0.15014 
v1302 2.7635 -1.8446 2.6592 -0.45439 1.3095 -1.9216 -1.3846 2.1762 0.61377 -0.1062 -2.6492 2.5112 0.63989 
07044 -1.0938 2.2386 -0.76457 -1.1637 -0.32539 0.70456 1.7351 -2.2007 2.7163 3.2126 0.75288 -0.53527 -3.4914 
1976 -2.7722 2.523 2.4131 0.34467 0.45263 1.7406 2.4037 1.7289 -2.8323 1.019 -0.76828 -1.8076 -1.3196 
v0254 1.2358 -1.6989 0.35526 0.89361 1.9579 -1.1943 -0.46323 0.49331 1.0343 0.012651 -1.7483 2.8063 -1.4118 
78321 0.3866 0.26195 1.3511 -0.14559 1.0954 0.46232 -0.63381 1.9521 0.0032686 1.055 -1.7251 1.087 -1.523 
5118 -0.91969 1.8476 -1.7415 -0.36477 -1.9185 -0.061577 0.82697 -0.076274 0.15909 -0.33956 -0.79223 -2.9823 -1.6872 
3571 3.9777 1.6329 -3.331 -1.1719 1.2205 -0.1793 -1.5206 -0.69315 -0.2836 -0.79096 -0.95229 -1.5583 0.30302 
e8160 -0.31936 1.4231 1.0395 2.8974 -0.78264 -0.12579 -1.772 0.8055 1.842 1.4953 -0.63676 -0.76949 1.1638 
4432 -0.19832 0.51359 1.2959 -2.0331 -1.8398 0.19025 -0.44682 0.034192 1.4678 -1.3957 -1.2665 -0.24746 2.3565 
2410 0.75297 -0.24882 1.9573 -0.19692 1.1024 0.21358 -0.2277 0.20612 -0.29152 1.5552 -1.8077 1.6673 0.79809 
3229 -1.4181 -0.012226 -0.76818 0.32001 -0.36342 1.7475 0.68007 -0.62016 0.098648 -1.6478 -2.0242 -1.5857 1.6584 
v5869 2.589 -0.052308 2.0042 -0.84892 2.3046 0.973 -0.63333 0.31006 -0.19161 -0.38257 -1.3635 0.91603 -1.0353 
78609 0.53643 -0.545 -0.15512 0.95751 1.2783 -0.15102 0.18937 -0.30744 -0.73916 0.99864 -2.3563 1.523 -1.0358 
4270 0.19934 0.043872 0.01586 1.6171 -0.71996 -1.0862 1.5368 -0.31702 -0.78125 0.76623 -0.17356 -0.88618 -0.53226 
4786 -0.15447 -1.691 0.044112 1.1431 0.14152 -0.57066 -0.26624 -1.1187 0.054974 -1.0857 -4.4603 0.33047 0.065552 
e9290 0.48345 -3.5029 2.4952 2.6709 -0.26283 0.50907 0.81053 1.2261 4.2783 0.12316 -3.0782 3.2287 -0.068399 
v4987 1.202 -0.54566 1.6993 0.75884 0.48672 -0.37771 -1.6156 0.088526 0.96705 1.9111 -2.4029 0.43763 0.21729 
56089 -3.2598 2.2144 1.551 1.1326 0.2782 0.090506 1.4219 -0.17725 -2.1461 0.17027 -0.83438 -0.5674 -1.1015 
28850 0.38512 -0.66622 0.77946 -0.8579 1.5189 0.59859 0.80282 -0.57086 0.89993 2.3971 -1.1843 1.7396 -0.62102 
8849 1.4137 -0.94322 0.88853 -1.2312 3.4467 -0.62086 -0.60273 0.35338 2.6596 -0.88613 1.9061 -2.2632 2.3695 
8851 0.69969 -1.466 2.6742 -1.8335 2.2667 1.0499 -0.20458 2.0718 2.8987 -0.90965 -0.12913 -3.1978 1.8565 
99685 -0.29607 -0.95548 1.9723 -0.81872 -1.4573 1.9876 4.2871 -2.504 1.4965 0.61991 -2.0752 -3.0651 -2.4239 
7210 1.7394 0.41961 1.3926 1.1635 -0.16179 -0.37301 -0.81863 -0.042016 -0.78706 0.74062 -1.5311 0.38147 0.40549 
v550 -1.0543 -2.2673 -0.16154 -0.43977 -0.37227 -1.4047 1.1635 -0.8117 0.91196 -2.2613 -3.4914 2.2226 0.078433 
5531 -1.4531 1.4622 0.061019 -0.16996 2.3237 -0.83595 -0.15692 0.85189 -0.42259 0.81228 0.45364 1.3839 -1.5109 
25081 -0.32505 1.0208 0.13426 0.72817 2.4007 1.4739 1.5032 -2.142 0.98248 -2.9633 1.4561 3.113 0.57366 
8674 -1.4524 0.37125 -0.69753 2.4484 2.2087 -1.1802 -2.5616 0.92576 1.0109 -3.8919 -1.4838 -0.67551 2.4915 
8028 -1.0883 1.191 0.62855 3.6108 -1.6635 0.33934 -0.94914 0.63107 1.4326 2.227 -1.9607 -1.3916 1.9747 
3241 -2.4438 1.7052 1.0122 3.0277 -1.0896 -1.1587 0.79943 -4.0015 0.31573 -2.1347 -0.59271 -1.0396 -1.0031 
4561 -1.8418 1.1119 -0.50713 0.081821 1.8486 0.033645 0.55446 -0.25956 0.77432 4.4359 -0.16454 -0.028128 -1.8839 
03819 -2.4369 0.00085625 0.074184 -0.20776 -1.1147 0.016902 2.9744 -2.0322 1.2446 -0.88607 0.29059 0.12935 0.32604 
4660 0.71952 0.0074787 -1.2267 -1.0159 -0.41339 0.61944 0.73073 -0.58207 0.11268 -0.81816 -1.9957 1.0798 -0.39692 
2920 -1.0403 0.89366 -1.4271 2.9434 -0.2676 3.0453 0.83187 -1.5993 1.244 2.0916 -1.6771 -0.36922 -0.60835 
51189 -0.3757 0.67991 0.092445 1.6944 -0.2328 -0.50518 1.1623 -1.3391 -0.64602 1.4634 -1.0929 -2.1944 -2.8101 
0388 -3.3156 1.4207 0.91758 -0.48112 -1.8119 -0.80059 2.65 -2.3216 1.0171 -0.62747 0.45161 -0.57082 -1.1845 
e9503 -0.25587 1.2471 -0.48735 2.5585 -0.83306 3.7435 -0.036107 0.82391 2.5712 1.8204 -2.3438 2.8421 0.46365 
1961 -0.41682 1.5836 1.1498 1.2446 -0.75023 1.7038 1.3514 0.90193 -3.4349 -0.99858 -3.6158 -2.2872 -0.85709 
04149 0.89726 -0.97993 2.6686 0.45716 1.6003 -1.9907 -0.1509 0.17041 -0.69924 1.1778 -1.2302 1.0143 -0.5666 
78079 2.3147 -1.1564 0.61052 -0.046645 -0.062003 0.64879 0.18904 -0.7625 0.56926 0.66259 -2.3688 1.0483 0.19086 
3558 2.1232 -0.54587 1.4549 0.324 1.725 -0.046632 0.34251 0.17374 -0.47534 0.74877 -0.75 0.42561 -1.1735 
57410 -3.0037 1.908 -1.1687 -1.0266 -0.17376 -1.1821 1.0416 0.21311 -1.3132 1.084 -1.495 -0.58658 -2.0635 
0061 2.1523 0.40272 -0.63645 -2.2549 1.6986 -2.7858 -0.028998 -0.15239 -1.6416 1.7387 -0.069198 1.3395 4.8437 
e9394 1.5819 0.17056 0.28017 1.6675 0.59636 0.44798 -1.5568 0.2753 0.59893 1.7218 -2.1153 1.0032 -0.40487 
25083 -0.72922 -0.46981 -0.1721 2.2011 2.8455 2.2299 2.5493 -3.1967 1.596 -1.0378 0.36394 4.3857 0.57359 
70712 0.085484 -0.69326 -0.79957 0.78072 -0.8892 -1.999 2.9157 -1.6431 0.91069 -1.1895 0.41511 1.8575 -1.5092 
3179 -0.52006 -0.23705 -0.9653 -0.029303 0.64797 -0.63681 -1.5693 0.51319 -0.69914 -3.5929 -5.2858 0.9301 0.45839 
53540 0.58473 -0.017999 -0.59444 -0.37867 1.0115 0.53 2.4273 2.1713 -0.08536 2.4716 0.50092 2.69 -0.5428 
53783 0.30851 -0.19541 -2.0459 -0.14835 0.31673 -1.7409 3.855 0.12395 -0.061078 0.82259 1.9378 1.1207 -1.8378 
79431 2.1944 -0.99663 -0.06353 0.64946 1.3547 0.31965 0.22365 0.073303 0.44054 0.78689 -0.90337 2.3533 0.31409 
3003 0.12292 0.39361 -0.73011 1.4402 -0.20586 1.8406 -0.22543 0.51664 1.428 2.5299 -2.3209 1.6871 0.18014 
7837 -0.54056 0.077249 2.4899 -0.3162 0.23181 -0.47155 0.0085228 -0.58281 0.44038 1.2804 -1.8533 2.6501 -0.73017 
9634 -0.34911 0.33411 -1.1357 -2.7326 0.13206 0.23706 0.69375 2.9421 2.4351 1.0078 1.0534 0.26627 1.0654 
04109 0.50677 -0.30622 0.26784 0.24236 0.93983 -0.7397 0.042961 -1.8566 0.64703 0.69194 -0.78399 -0.33583 -0.91239 
4471 0.22961 -0.60005 -0.51406 -0.74369 1.6079 -2.1908 1.6352 0.37238 -1.4419 0.35036 0.54883 -1.6319 0.44809 
1125 -4.0731 0.80941 1.6197 -0.20955 -1.1271 -0.65073 2.7791 -1.3101 1.3882 -1.1453 0.22516 -1.089 -0.5653 
8103 0.38817 2.4531 4.0201 1.3896 0.12391 -1.0966 -3.4608 -1.9222 1.3909 0.027585 -1.7389 0.16239 1.1797 
8080 -2.3859 2.7274 0.60199 4.5171 -2.2622 -0.85935 -0.25908 1.2869 1.2276 1.2305 0.033095 -1.2568 0.28682 
8102 0.16113 1.8746 2.9314 1.8487 0.45837 -1.0707 -3.0017 -2.8321 0.91571 -0.54981 -1.1806 0.52348 1.5822 
4370 0.68146 -0.41093 1.6588 0.11335 -1.3552 -2.604 -0.11401 -0.21994 -0.17533 1.5062 -1.7397 3.2638 3.064 
44422 -1.197 0.5299 -0.39076 2.359 1.0554 -2.4231 2.1541 -1.5328 -1.4393 0.027291 1.8459 -2.1113 0.88336 
9951 3.7923 0.40711 0.78591 1.0475 -0.075168 1.6479 0.4692 -2.2254 0.29961 -0.97964 -1.7526 1.6063 -1.4029 
514 -0.07327 0.33944 0.24466 0.37846 -0.70737 -0.037726 1.5989 -1.0931 -0.99034 0.89035 -1.3329 0.65297 -1.1346 
598 -1.2814 1.9336 2.2193 -1.8809 0.53696 -1.4254 -0.99649 2.7258 1.6756 -1.1391 1.2965 1.4592 0.22398 
25042 -0.19451 -0.73036 0.058828 2.3788 2.1007 -1.3355 2.1027 -2.9786 0.63613 0.52515 1.4116 2.9705 0.15487 
78061 1.1539 0.37905 5.9526 0.12434 1.1997 1.54 0.39993 -1.3904 1.0653 2.2192 -2.255 -0.4693 -2.7955 
7872 0.5986 0.81949 -0.073481 -0.30651 -1.4659 0.069384 -0.44681 0.15137 -0.26754 -0.73245 -1.5652 0.53455 1.4481 
5109 -1.8298 1.7379 -0.40711 0.60403 -2.343 0.59725 0.60308 -1.7128 0.66291 -0.20338 -2.3264 -2.3455 -2.0512 
4543 0.86948 -0.96939 -0.027669 -2.149 1.8395 -1.5651 1.9882 3.7085 0.049206 0.82766 0.936 0.22363 -0.20516 
73730 0.70478 0.75007 1.1566 0.040475 0.21947 -1.0295 -1.2076 -0.01746 -0.97143 -0.24097 -2.7763 0.90567 -1.7197 
78650 1.9916 0.26373 -0.0036963 0.88553 1.3011 0.9584 0.16205 -0.17165 0.87967 0.93732 -0.42005 2.3446 -1.8534 
53190 0.68809 -0.79073 -0.0074873 -0.15984 0.95319 0.084269 1.4756 1.7244 0.41368 2.5527 -0.11529 1.7869 -0.58059 
v4283 -1.6596 2.0911 0.56876 -0.33332 1.4339 -0.60005 2.297 -3.2811 -1.2773 -3.2629 1.067 2.0266 -1.2705 
11284 -1.5869 -0.27961 0.17919 0.40353 0.66006 0.7554 3.6054 -1.2605 -0.22012 1.8833 0.43297 0.57747 -0.56835 
v4573 1.312 -0.43538 2.2756 0.027406 3.3304 -0.1067 -0.33332 0.39672 -1.526 -0.54711 -0.99852 -0.81969 -0.17499 
4590 -0.30252 -0.93034 -0.93377 -0.36713 -0.24829 0.07973 2.2115 0.17554 1.0583 0.32767 0.068701 -1.7976 -0.37325 
v667 1.2128 -1.1347 2.9537 -0.069312 0.11903 -0.49185 -0.05656 0.70404 0.27838 1.0909 -2.1852 0.69843 0.039887 
e8700 -1.102 1.0645 0.85228 0.38063 2.7855 -1.4148 -1.3899 0.71819 -1.4338 1.3688 -1.4658 -1.1122 -1.8253 
920 1.0333 0.039786 1.5987 2.8335 -0.97936 0.022364 -0.75485 0.55682 1.3548 2.053 -0.93919 0.49504 1.3002 
30001 0.61249 0.43607 0.32151 0.74051 1.9805 1.4589 -0.76163 0.41022 -0.37228 1.4961 -2.0701 3.7485 0.24031 
59971 1.9032 0.22668 3.1773 0.79759 0.47558 -1.5461 -0.24581 1.2217 -0.663 1.3096 -0.48642 0.37061 -0.88937 
4552 0.40356 -0.65298 -0.14628 0.097279 1.0341 -0.3362 1.5102 0.77606 0.90793 2.265 0.040469 1.2763 -1.7295 
v1271 2.1541 -0.58363 0.34757 -0.47095 3.0277 -0.47582 -0.50173 2.0814 -0.5969 0.99375 -0.82855 0.58682 -0.33762 
9072 -1.1625 -3.0032 3.2181 3.4545 -1.0542 -0.68713 2.2183 -0.52159 4.6245 0.21544 -2.3631 3.5946 -1.2352 
7078 -0.013398 -1.7834 1.2222 0.053853 1.1317 -0.87296 0.58719 -0.5707 1.4759 -1.3055 -0.98699 0.92953 -0.54728 
56985 -0.27769 -0.40015 -2.4248 0.9363 -0.50879 -1.03 3.9761 1.1267 -0.4019 1.9902 1.2605 0.6104 -0.84717 
8452 0.23157 3.0709 2.9012 -0.59945 2.2786 -0.92025 -3.8215 -0.48301 2.6089 -2.7409 -0.59557 -2.165 1.4959 
80701 -1.5019 1.7265 0.95477 2.9134 -1.184 -0.064089 -1.0729 0.49744 1.2475 1.9312 -0.86306 -1.2807 0.58084 
9749 0.22304 -1.0556 0.83277 -1.9367 2.4774 0.1605 -0.15458 -0.70467 3.3318 -1.8434 0.22411 0.80785 0.23398 
4576 -2.6091 0.99085 0.80713 -0.30595 1.8446 -1.6122 -1.0866 3.2837 0.069669 -1.6605 -0.7713 1.1112 -0.16342 
72400 2.6731 -0.5328 1.1754 -0.1662 0.6896 -2.0721 0.20468 0.94872 -1.3782 0.79487 -1.1912 2.0852 -0.083167 
e9300 0.77117 0.0097775 2.3905 -1.502 1.5116 -0.13905 -1.4084 -2.7468 2.0695 -0.024954 -2.0452 -0.08002 -1.5979 
v453 0.12976 0.3984 0.15653 -0.94331 0.69234 0.006925 -0.37938 0.45043 -0.042288 -0.12768 -1.7477 1.0375 -1.2964 
0063 3.318 0.14114 -0.25847 -2.7077 2.8164 -1.9612 -0.305 -0.69814 -0.76339 1.5672 0.058661 -2.5271 4.7 
5503 -0.43816 0.91012 3.3277 -1.586 0.5197 -1.0205 -0.19282 1.9924 1.8646 -0.93231 0.91373 2.4834 0.66712 
03843 -3.0411 0.32827 0.76558 -0.28665 -2.0482 -0.32735 3.5551 -1.144 1.3794 -1.7833 0.24442 -0.38912 -0.58139 
3942 1.3839 -1.3933 -2.0348 -0.61221 3.3529 -0.92635 1.1675 -0.95959 0.9169 -1.5152 1.1061 -1.0878 0.66333 
5738 -0.44727 -0.010506 0.70671 -0.072898 1.5691 -0.45113 -0.55634 0.86014 -0.25043 1.8461 -1.194 -0.11328 -0.53501 
5732 -0.48693 1.4658 1.8192 -0.82216 -0.25029 -1.0586 -1.256 3.2443 1.7224 -1.1125 0.95849 0.40413 0.51554 
3451 -0.51242 0.70052 -1.2192 -0.96742 -1.349 0.2454 -1.3822 1.9105 1.6193 -1.815 -2.9402 -3.0758 -0.72387 
99661 -0.49717 1.6079 -0.92109 1.5176 -1.2156 -0.98673 2.2354 -3.5376 0.26888 -1.9944 1.1374 -2.902 -1.4477 
4739 0.7616 -0.10913 0.021866 -0.37454 0.53637 1.2446 0.15206 -0.17386 0.54381 0.60439 -1.2993 0.71952 -0.041026 
7812 2.0608 -0.35674 1.3726 0.58538 0.22911 0.087053 -1.1125 -0.22554 0.34982 1.704 -1.9771 0.74827 1.222 
45821 2.0909 -1.4379 -0.14107 0.90431 2.3996 0.45185 1.6818 -2.7073 1.5279 -1.4454 0.6344 -0.29228 -1.0074 
70723 -1.5119 -0.54396 2.9355 2.3182 -0.82323 -2.4253 2.2401 -2.5149 -0.51088 -0.53917 -1.355 0.53748 -1.2937 
70719 -0.86854 -0.006207 -0.71255 1.7698 -0.5599 -2.6815 1.8299 -1.9411 -0.025316 -0.70051 0.014313 1.4808 -1.4911 
391 -0.58086 0.48423 -0.97197 -2.9559 1.5734 0.3931 0.4759 0.68983 3.7619 3.1456 0.88726 -1.0085 -0.50707 
5419 -3.0949 1.6209 0.053806 -0.82294 2.275 -0.75666 -1.9887 2.0137 2.1064 0.42878 -0.34076 -1.7572 -0.30516 
v6284 -1.7001 0.63459 -0.88102 2.4126 0.3094 1.2959 1.158 -1.1248 0.51008 2.6113 -1.1158 1.485 -0.16866 
33818 -0.86912 0.63315 1.1566 1.3101 3.3354 -1.0578 -1.8009 0.53225 -1.3645 0.63364 -1.8659 0.28166 -1.2616 
5750 -1.7968 1.3221 0.69201 -1.0752 -1.9006 -2.0651 2.1554 -0.13198 -0.68072 0.13378 -0.33036 -0.22467 -1.6669 
9986 -4.2206 1.6162 0.31232 0.8865 1.0585 -2.0431 1.3942 -0.67158 -1.4456 -0.58894 -0.2319 -1.4589 -1.1929 
71596 1.1904 -0.87512 0.076501 0.88442 1.6529 -1.307 0.89055 0.89058 -1.2405 0.42799 -0.22398 0.69464 0.059185 
51851 -1.5779 1.8975 0.2689 2.0416 -0.85884 -2.1008 0.77385 -2.2345 -2.4171 1.0484 -0.71574 -1.9097 0.35661 
11289 -2.5923 0.017636 0.87572 0.70686 0.90485 -0.01907 1.6209 -2.2626 0.81059 0.037689 -0.68464 -0.69015 -1.3826 
9702 -1.1746 -1.6346 0.62237 -2.8086 -0.35974 -1.7669 -0.22792 1.388 3.4134 -2.3093 -2.0281 0.59682 0.85503 
4621 -2.3169 1.9624 -0.19298 -1.544 1.7705 -0.75104 -0.71451 3.784 1.4424 -2.4274 0.73827 0.91963 -0.7761 
4593 -1.5523 1.2756 -0.08357 0.21574 0.92043 -2.1208 -0.80372 5.4297 0.99655 -1.5275 0.93696 -0.057029 -0.38951 
1121 -0.44136 0.46183 1.978 0.23913 1.3555 1.0219 -0.13447 -0.23719 -0.086905 1.2105 -1.7272 3.2771 0.35179 
8845 1.0877 -0.076322 -0.29107 -1.5085 2.4764 -0.17128 0.12479 1.1307 1.6379 0.074083 2.4184 -1.9049 2.2335 
2819 1.1513 0.0054769 1.0284 -0.19349 -0.55551 0.0094379 -0.052711 0.40518 1.183 2.2861 -0.92796 1.7461 -0.17662 
4423 0.87658 -0.15508 0.73873 0.86002 2.9723 -1.5731 1.354 -0.69947 -2.0189 -0.43804 1.4805 -2.1719 0.91471 
42090 0.32088 1.0645 -0.26583 0.7419 -0.39925 0.26372 1.2355 -0.38734 -1.2193 -0.21257 -0.82481 -3.6423 -1.7634 
544 -2.908 1.8083 0.71471 -0.06559 2.0191 -0.10464 -1.3829 4.7169 0.18902 -0.7641 -1.2252 -0.61992 -0.4016 
e9500 -0.58712 1.8268 -0.23176 1.4351 -0.59404 3.6298 -0.021565 -0.97267 3.0622 1.9972 -1.5315 2.5264 -0.31684 
4264 2.7593 0.15206 0.13709 0.088351 0.25834 -1.2272 0.27555 0.60012 -0.64887 0.092015 0.20132 0.4048 -0.055592 
e8499 0.5243 -0.36115 0.071272 1.205 1.5248 0.5 -0.91303 -0.88939 1.7791 1.314 -0.61106 -0.31564 -0.39559 
v0259 0.11842 -2.1829 0.10677 -0.8445 1.0185 -0.81154 0.0045926 -1.0162 1.7571 -1.7913 -3.5789 2.5161 -1.2827 
51909 -1.793 -1.0535 -0.87822 0.40101 -1.6665 -1.8877 1.4637 -1.0376 -0.64513 -1.2615 -3.4526 0.067438 0.019587 
2740 0.59126 0.20573 -0.56286 -0.30124 0.085819 -0.44302 0.52746 0.3164 0.35158 -1.5914 0.41506 0.050194 -0.06788 
6929 2.0215 0.67181 1.0516 -0.35477 0.82596 0.5015 -0.92633 -0.099518 0.047653 0.74494 -0.77458 1.0866 0.025693 
56969 -4.1281 1.3964 0.9145 0.97347 0.23114 -1.0369 2.323 0.89116 -1.1207 -0.41444 -0.743 0.093201 -2.0123 
72889 0.10712 -0.4959 0.80372 1.5643 -0.6539 -1.1261 0.30234 -0.72464 0.46693 -0.40432 -0.56007 0.16887 0.60487 
25200 2.1299 -0.19674 1.3133 -0.64145 1.9343 1.0164 0.74414 0.87366 0.54648 -0.36091 -0.48691 1.511 -2.239 
20410 1.1535 0.6459 1.4654 0.21156 -0.79699 0.41253 1.8386 -0.95372 -0.99048 -0.35992 -0.43515 -1.2204 -1.3679 
78194 2.7136 -0.56607 1.9959 -0.0041338 0.19292 -0.41027 0.64097 -1.5368 -1.5682 1.5254 -2.0348 0.065668 3.1224 
53560 -0.15137 -0.46711 0.18841 -0.13138 1.308 -0.78495 1.5164 2.2792 -0.19197 3.2367 -0.072537 2.4076 -0.36699 
7824 -0.676 0.93021 1.8823 0.25804 0.4018 0.11323 1.2794 -1.2366 0.63682 2.4046 -0.37349 -0.15696 -2.6442 
53390 1.1268 0.17949 -0.41279 -0.20585 0.87639 -0.16964 -0.040154 0.13626 -0.60983 1.1199 -0.88513 1.9123 0.12181 
31401 0.75936 0.69567 0.089471 1.8791 0.74583 1.8204 -0.98484 0.70906 0.84411 2.6385 -1.7632 1.8204 0.042434 
7761 -0.32856 0.4317 -2.9987 2.4331 2.2031 -2.8208 -3.0084 0.47531 0.2991 -4.6333 -1.6531 -1.2177 1.6847 
20300 0.33139 0.5116 2.3733 1.0912 -0.84485 0.37544 2.5262 -1.8533 -1.1648 -0.87066 -0.62189 -0.17416 -1.163 
9980 -0.37677 1.7024 -1.4913 1.4787 -0.080334 -2.3592 0.94093 -0.039487 -2.0068 0.76719 0.70003 -2.1095 -1.1393 
20500 -0.3126 1.3204 2.0624 -0.7215 -1.579 1.8547 3.6166 -1.8286 0.53904 -0.25226 0.071729 -2.9227 -2.1054 
56723 -2.4055 1.5255 0.52674 0.33309 0.45984 0.065214 2.3245 -2.7778 1.9403 2.7876 0.70565 -1.0865 -2.9551 
v1042 0.32374 -0.15658 1.8204 -0.61723 0.96743 0.053351 0.21729 1.9452 -1.2569 0.092472 -1.184 0.20854 0.60503 
3201 0.12408 -0.32024 -0.011673 -1.4009 0.16366 2.1558 -0.31997 0.2455 0.25901 -2.5278 -4.1205 -0.68919 0.71965 
5733 -0.50856 0.61516 0.96524 0.46595 0.099328 0.9236 0.44883 -1.2973 1.0427 1.1522 -0.67034 0.70808 -1.1979 
8345 -1.1778 0.24791 1.1289 2.7504 3.4635 -0.35884 -2.1577 -0.16551 3.1556 -1.9038 0.64123 -0.033045 2.4924 
78702 2.3134 -0.049161 0.98941 0.70442 2.1931 1.8306 -0.071504 -0.049174 -0.40695 0.65093 -1.436 0.58152 -0.96953 
e9426 3.4551 -1.2717 0.87394 1.9045 1.8929 0.81906 0.12764 -0.66319 1.1205 -0.86036 -0.80332 1.4208 -1.1775 
27803 0.87602 -0.02706 -0.96914 1.7478 -1.7792 -2.5004 1.4432 -2.5622 -0.74207 0.20376 -3.4604 3.3209 -2.6268 
2883 1.3145 -0.90275 0.8376 -0.24099 1.5506 0.24604 -0.023453 -1.3786 0.80063 0.19747 -1.9232 1.3327 -0.90578 
57451 -1.1547 1.8924 0.34317 -1.855 -1.5811 -1.3189 2.058 0.066576 -1.3071 1.5645 -0.56874 -0.14146 -2.0119 
4542 0.6465 -0.47312 0.2905 -2.9235 1.2561 -1.0105 0.95295 4.0403 1.0857 1.0266 0.020146 1.6854 -0.4544 
7213 0.29425 1.4318 1.277 1.2047 1.13 -1.4305 -1.4895 -0.013662 -1.6387 1.0243 -1.3973 1.5475 -0.96833 
25082 0.12001 -0.56301 0.98233 2.3306 2.0972 -1.3878 0.76292 -1.8429 0.30977 0.94852 0.28866 2.7392 -0.51787 
5852 1.0386 -0.14522 1.3023 0.063008 0.35015 -2.5221 1.1555 -0.41992 -0.46883 1.0551 0.44851 1.9467 -0.65761 
7932 -0.52954 0.64732 1.2007 2.6357 1.252 0.013077 -2.4665 1.506 2.8276 0.62152 -0.5837 -1.2435 2.3728 
5101 0.22777 0.43277 0.54002 -2.8798 -0.4605 -2.2347 -0.82732 2.7749 1.1499 -0.7235 -1.1129 0.19524 -0.57825 
9921 0.35122 -0.27241 -0.41914 -1.5756 2.1436 0.87534 -1.5437 1.7584 2.6573 -0.93856 -0.20778 -0.62831 1.6688 
56729 -4.5604 2.4405 1.2525 -0.068741 -0.44203 -1.5267 2.377 -1.3094 -0.59715 0.45352 0.13864 -0.30754 -2.145 
5012 -3.2841 2.3753 -0.27985 -2.2506 1.8951 -0.29932 -0.97739 2.3572 1.5848 1.0853 -0.53044 -2.8103 -0.64016 
3669 2.7148 -0.29258 1.3344 -0.27201 1.806 -1.4821 -0.40787 0.15105 -1.0701 -0.037114 -0.71831 2.0477 0.55086 
78909 2.7407 0.52216 0.87779 -0.021421 3.2161 3.6202 1.6666 -0.39161 0.32685 0.38424 -0.91135 2.5505 -4.5709 
55321 -2.7864 0.54573 -0.0094125 -0.32778 2.4028 -1.5779 0.10463 0.73089 -1.0428 -0.39729 -1.5638 0.22173 -2.3217 
4632 -1.1828 0.034364 -0.049961 -1.7167 -0.38937 -0.54265 -1.2764 1.41 2.2181 -0.53204 -1.2158 -0.4825 1.4808 
78722 1.2141 -1.4838 1.9924 0.20468 0.061079 -1.1829 0.077509 -0.10113 -0.33255 1.7322 -2.5512 1.1261 0.86014 
2689 1.5162 -0.32105 0.75514 -0.070191 1.3216 -1.0495 -0.76358 0.56482 0.059176 0.98732 -1.1782 1.7863 -0.71296 
e8495 -0.45916 0.69988 0.15325 2.8751 -0.51618 -0.25324 -1.5834 1.2496 1.6506 1.8564 -1.2717 -0.54362 1.1753 
57511 -1.8772 1.0913 -0.031308 -1.0492 0.80102 -0.77396 0.094592 1.2977 -0.48726 1.0019 -1.3452 -0.5035 -2.1501 
0139 0.62646 0.10176 1.5546 -0.20563 -0.56447 0.98363 -1.0738 -0.50852 0.68716 0.291 -2.3859 -1.4358 3.8424 
5551 -1.6133 1.6853 0.7982 0.68952 1.5399 0.073153 0.082407 2.2961 -0.89705 -0.51792 0.11649 -1.053 -1.2132 
28419 -0.95401 1.079 2.4843 1.1636 0.3798 0.87335 2.1123 -2.3624 -0.072406 3.2118 -0.42946 -1.1633 -2.1002 
4591 -3.6492 0.65207 0.78231 -1.3778 3.0859 -1.0478 -0.83299 3.4058 1.6454 -0.40944 -0.31476 -0.93907 0.43245 
2939 0.071789 1.0229 -0.2789 1.4303 0.20826 -1.2569 -0.40797 -0.49104 -1.89 -0.26126 -0.79773 -0.39662 0.69232 
v8801 2.7874 -0.81543 2.2121 -0.22362 3.1354 -1.3293 -1.232 2.7981 -1.3318 0.86928 -1.7107 0.43953 0.35156 
42611 2.0845 -0.43673 -0.41655 0.31028 0.55685 -0.92871 0.50656 -0.020433 -0.3776 -0.0063078 -0.173 -0.41737 -0.30855 
v1255 1.6904 -1.2752 2.879 -0.43837 1.3337 -1.4298 -0.28901 0.73064 -0.79939 0.25334 -2.7962 0.10514 -1.061 
4611 -2.5954 0.65472 0.67065 -0.67136 2.1611 -2.5969 -1.213 3.4089 0.65834 -2.0489 -0.46761 0.64884 0.19597 
3079 1.4647 -0.57368 0.94711 1.0313 0.50414 0.34482 -0.93048 -0.066248 0.85436 1.6572 -1.8023 0.76222 0.63556 
5571 -2.4217 0.68454 -0.4394 -0.69408 0.68137 -1.5591 1.6436 0.011546 -1.4238 -0.26722 0.094147 0.24834 -0.13032 
e9429 3.4259 0.11719 1.7637 1.0282 0.15328 0.70369 0.39849 -1.4324 -0.26208 -0.66911 -1.3726 2.2544 -0.96788 
72887 2.2243 -2.4887 1.9748 1.1044 0.63059 -1.6947 0.44187 -1.1153 -0.17682 1.4743 -2.8504 1.2127 1.7587 
07051 -2.2127 1.6455 -2.8002 0.27822 0.62186 1.8592 0.79343 -1.2527 1.8483 0.38013 1.124 0.0083318 1.202 
3559 1.1954 -0.1874 0.16578 0.15544 1.6064 0.46307 0.60886 0.45414 -0.76914 0.79786 -0.84984 2.419 0.14875 
28803 0.94514 0.20802 4.189 -0.56631 0.54395 1.377 1.0966 -2.1445 0.35725 0.84615 -2.3612 -0.88224 -2.6383 
59010 -1.9016 1.5495 2.2252 -0.40678 -1.0105 -0.8569 2.1292 -0.8107 0.50822 0.26444 0.73495 3.0102 -0.93526 
4823 -1.7922 -0.051818 -0.43055 -1.2434 2.4213 -1.538 -0.49777 4.1605 2.7973 -0.39999 1.101 0.28262 0.057812 
e9323 1.1084 -1.1132 0.10302 0.35212 2.3936 -0.15192 0.54341 -2.3076 0.97936 0.18291 -0.68272 2.8398 0.40616 
e9359 0.56875 0.080203 -0.36398 0.34864 0.78079 0.093908 1.4935 2.1474 -0.093189 2.7559 0.20625 1.3963 -0.85751 
