375 13
73909 -0.25552 1.2787 0.276 0.070641 0.1962 0.54049 -0.32781 -0.98949 1.4031 -0.22262 0.21664 0.9094 -0.070649 
66515 -0.17491 1.4663 0.36987 0.11867 0.23475 0.64384 -0.5257 -1.1954 1.6697 -0.30551 0.21895 1.1253 -0.22273 
116 -0.21571 1.5024 0.37128 0.18773 0.14677 0.63205 -0.5513 -1.2816 1.5813 -0.36493 0.31205 1.0378 -0.19767 
65070 -0.26635 1.4775 0.417 0.1351 0.21667 0.58024 -0.42682 -1.1558 1.4712 -0.41431 0.26946 0.95848 -0.083864 
49318 -0.23412 1.1078 0.27335 0.033982 0.15895 0.46793 -0.30891 -0.82814 1.0898 -0.21422 0.24264 0.7961 -0.13429 
</s> -0.16403 0.95413 0.30856 0.14129 0.18227 0.35344 -0.31255 -0.83903 1.0973 -0.24928 0.15315 0.82492 -0.04707 
17603 -0.17712 1.0969 0.21504 0.12861 0.23026 0.41513 -0.3774 -0.95489 1.2105 -0.25559 0.17649 0.76956 -0.047306 
57712 -0.13356 1.172 0.22612 0.096946 0.074155 0.5225 -0.26372 -0.94527 1.1867 -0.24025 0.24753 0.86374 -0.20837 
21214 -0.12682 1.258 0.24761 0.095432 0.13963 0.48741 -0.374 -1.0063 1.2436 -0.25871 0.1674 0.79262 -0.10556 
51303 -0.11518 1.0514 0.28138 0.041027 0.2303 0.5037 -0.28738 -0.94703 1.1484 -0.34558 0.18943 0.76801 -0.17945 
73907 -0.15803 0.75971 0.22287 0.015313 0.042603 0.30566 -0.28658 -0.57323 0.81372 -0.19802 0.06555 0.62029 -0.12416 
65099 -0.13739 1.1374 0.2884 0.14383 0.10808 0.43072 -0.30579 -0.86622 1.1265 -0.24602 0.23697 0.69739 -0.088556 
57715 -0.23549 1.1208 0.34039 0.058067 0.15998 0.5137 -0.29921 -0.8341 1.2244 -0.28033 0.14838 0.7645 -0.16084 
65120 -0.23403 1.1604 0.35217 0.14494 0.079146 0.46617 -0.37946 -0.94105 1.2415 -0.22437 0.26183 0.81744 -0.17124 
69333 -0.11368 0.98155 0.27236 0.10349 0.11775 0.33691 -0.3514 -0.72313 1.0737 -0.20918 0.17939 0.69654 -0.048012 
105 -0.13387 0.99814 0.26576 0.015074 0.077714 0.47854 -0.36002 -0.79446 1.032 -0.23394 0.12657 0.63309 -0.17738 
65060 -0.073298 1.0902 0.17092 0.055628 0.11132 0.39139 -0.32662 -0.7625 1.108 -0.2531 0.12358 0.75364 -0.0614 
22030 -0.206 0.98975 0.29086 0.081546 0.15134 0.49641 -0.40186 -0.90814 1.1498 -0.22506 0.23112 0.72687 -0.090071 
11700 -0.23405 1.0724 0.22145 0.14982 0.23885 0.55839 -0.41558 -0.8716 1.258 -0.27193 0.22701 0.83524 -0.061048 
110 -0.12183 1.2093 0.33686 0.076912 0.18212 0.55704 -0.41054 -0.99973 1.3158 -0.26851 0.14476 0.78067 -0.15693 
23 -0.041304 0.89427 0.25048 0.10745 0.062708 0.37851 -0.29797 -0.6744 0.91408 -0.26802 0.20766 0.62276 -0.068727 
58503 -0.25034 1.1008 0.3136 0.15859 0.12396 0.57077 -0.41885 -0.86781 1.2438 -0.33053 0.17745 0.83335 -0.18462 
22002 -0.1492 0.95983 0.27014 0.043231 0.070002 0.38283 -0.2337 -0.73182 0.97711 -0.23151 0.14735 0.67263 -0.054148 
22035 -0.066436 0.83204 0.28613 0.006299 0.085181 0.36029 -0.1941 -0.70947 0.89374 -0.14578 0.20448 0.56664 -0.027573 
73915 -0.18105 0.88184 0.25144 0.024753 0.065777 0.29919 -0.20017 -0.64814 0.98692 -0.13769 0.15782 0.62166 -0.14301 
55244 -0.1008 0.98379 0.21573 0.0018691 0.086098 0.4447 -0.24629 -0.74773 1.0566 -0.22626 0.23114 0.68323 -0.13133 
69478 -0.12824 0.83355 0.21971 0.05295 0.07974 0.28067 -0.25637 -0.67839 0.92846 -0.19111 0.1789 0.63153 -0.16008 
104 -0.18279 0.90509 0.16803 0.049519 0.084516 0.39469 -0.25162 -0.68311 0.97484 -0.28599 0.18845 0.6663 -0.15913 
33 -0.17857 0.81091 0.20986 0.019115 0.10031 0.31121 -0.1806 -0.6129 0.85044 -0.15775 0.14142 0.62217 -0.046183 
65105 -0.043849 0.85982 0.14023 0.060006 0.13993 0.41277 -0.21566 -0.5781 0.87704 -0.20163 0.20816 0.514 -0.15674 
65123 -0.12508 0.88095 0.23738 0.097598 0.081706 0.3665 -0.2866 -0.69466 0.97085 -0.21303 0.14086 0.70351 -0.10569 
22012 -0.096422 0.74252 0.24375 0.085071 0.031792 0.34038 -0.17714 -0.54342 0.69341 -0.20139 0.15249 0.54579 -0.0542 
13709 -0.063011 0.56398 0.10086 0.10967 0.14513 0.22709 -0.21301 -0.53611 0.64187 -0.10424 0.18047 0.44108 -0.011659 
22025 -0.07047 0.89179 0.14549 0.001496 0.10637 0.37886 -0.20679 -0.75004 0.98813 -0.15994 0.16278 0.57549 -0.10719 
65096 -0.056893 0.81398 0.22244 -0.020268 0.093558 0.39369 -0.24701 -0.61666 0.75717 -0.13664 0.16694 0.54172 -0.021653 
73910 -0.040868 0.57236 0.19871 -0.031719 0.14205 0.27537 -0.16588 -0.51106 0.63462 -0.08082 0.15111 0.40122 -0.12965 
65090 -0.12925 0.64525 0.11977 0.035188 0.01822 0.31808 -0.22964 -0.52412 0.60147 -0.23045 0.14414 0.42139 -0.13015 
69306 -0.096223 0.74701 0.2187 0.053914 0.075776 0.33724 -0.18583 -0.63121 0.85809 -0.1353 0.14641 0.61298 -0.091753 
119 -0.074678 0.65023 0.13991 -0.028205 0.039546 0.2109 -0.11343 -0.44574 0.69575 -0.18388 0.15167 0.44543 -0.12218 
69384 -0.11379 0.49718 0.21481 0.043703 0.10473 0.19707 -0.18932 -0.49706 0.63811 -0.17994 0.032961 0.46251 -0.1092 
66518 -0.215 1.0646 0.31288 0.063196 0.1662 0.502 -0.34278 -0.88207 1.0697 -0.30383 0.13425 0.80827 -0.15066 
18222 -0.11487 0.72463 0.22009 -0.0031986 0.06406 0.23773 -0.15145 -0.61129 0.74394 -0.19817 0.1566 0.55095 -0.093166 
69321 -0.13037 0.65354 0.1415 0.11225 0.066096 0.25524 -0.31428 -0.53904 0.82949 -0.15673 0.14438 0.53549 -0.076813 
13876 -0.18605 0.99988 0.23626 0.16026 0.1358 0.51531 -0.32557 -0.94283 1.1215 -0.31455 0.26753 0.74905 -0.062664 
57521 -0.033144 0.65141 0.15905 0.039849 0.11715 0.24444 -0.27307 -0.60624 0.82094 -0.13701 0.1521 0.60064 -0.027982 
36 -0.090091 0.45048 0.14009 -0.027509 0.15601 0.22148 -0.17818 -0.48061 0.57785 -0.12256 0.099224 0.30656 -0.06258 
69387 -0.13144 0.49312 0.19617 0.040103 0.14306 0.17258 -0.19795 -0.41675 0.63734 -0.1499 0.10864 0.40227 -0.061237 
66509 -0.019389 0.36583 0.040786 -0.0068591 0.12616 0.1731 -0.1617 -0.35053 0.50579 -0.04412 0.1498 0.32732 -0.084335 
66716 -0.12146 1.0092 0.19392 0.058738 0.14794 0.50239 -0.35523 -0.84641 1.0006 -0.21408 0.20255 0.73384 -0.064382 
53 -0.060258 0.60366 0.15535 0.012104 0.13114 0.3054 -0.22557 -0.422 0.60527 -0.071437 0.050876 0.43001 -0.11551 
65126 -0.060831 0.68031 0.10817 0.048457 0.1271 0.25036 -0.21314 -0.47449 0.74561 -0.16576 0.10986 0.50924 -0.14307 
66500 -0.19094 0.78258 0.25605 -0.012632 0.14948 0.35601 -0.18744 -0.72465 0.91663 -0.24721 0.13108 0.6126 -0.084365 
66512 -0.098264 0.56151 0.10389 0.02333 0.1385 0.32723 -0.16454 -0.55108 0.72385 -0.19406 0.1732 0.49418 0.00047954 
69354 -0.086971 0.62108 0.11873 0.024001 0.085349 0.22519 -0.2677 -0.52849 0.65814 -0.087021 0.041086 0.41517 -0.096098 
65129 -0.15475 0.51334 0.20779 0.030575 0.047455 0.26229 -0.17751 -0.50189 0.6447 -0.21273 0.10562 0.48915 -0.015752 
22040 -0.10457 0.56374 0.16504 0.062133 0.12507 0.27255 -0.21706 -0.53878 0.67585 -0.19121 0.061572 0.38807 -0.025691 
40 -0.13134 0.59148 0.13953 0.10324 0.16374 0.2819 -0.25604 -0.41455 0.68206 -0.20502 0.16127 0.42036 -0.019056 
73903 -0.041376 0.54376 0.18584 0.074156 0.12117 0.28812 -0.10924 -0.3859 0.66095 -0.1776 0.093516 0.43288 0.0069497 
13706 -0.072934 0.60242 0.15545 0.058599 0.12696 0.20969 -0.20353 -0.54694 0.73637 -0.22227 0.068093 0.38031 -0.042714 
72823 -0.11245 0.53485 0.11066 0.0032678 0.12396 0.19181 -0.19085 -0.41622 0.71857 -0.19677 0.1624 0.40329 -0.09076 
55113 -0.13933 0.78143 0.26073 0.12456 0.12679 0.42912 -0.26149 -0.6106 0.8792 -0.2218 0.22417 0.55675 -0.1578 
66611 -0.13768 0.55823 0.11656 0.029544 0.018127 0.33277 -0.231 -0.46951 0.64984 -0.091199 0.088075 0.52108 -0.14476 
13873 -0.14337 0.87292 0.13397 0.041994 0.055007 0.35724 -0.30248 -0.60145 0.95339 -0.27602 0.18821 0.64508 -0.011841 
66566 -0.10818 0.64006 0.15877 0.084216 0.051557 0.30902 -0.25554 -0.49534 0.69378 -0.10566 0.17355 0.5279 -0.0073419 
66519 -0.068268 0.68033 0.12129 0.07093 0.16251 0.3299 -0.20976 -0.47061 0.67831 -0.24784 0.20651 0.5561 -0.02779 
89 -0.15079 0.67388 0.19577 0.022071 0.17904 0.25335 -0.17796 -0.57322 0.76232 -0.16183 0.16934 0.45812 -0.14267 
66596 -0.13568 0.71603 0.14793 0.067545 0.14435 0.37847 -0.24056 -0.59595 0.8082 -0.20047 0.082559 0.47249 -0.052085 
18225 -0.1573 0.57271 0.20109 0.10816 0.14163 0.19666 -0.12982 -0.37899 0.676 -0.15293 0.076939 0.38458 -0.1252 
24 0.013988 0.41581 0.12482 0.042034 0.055095 0.17628 -0.12085 -0.32369 0.45797 -0.032004 0.029659 0.23936 -0.062401 
50 0.017234 0.40252 0.057819 -0.030515 0.049631 0.16477 -0.05277 -0.28552 0.42312 -0.047617 0.072106 0.2057 -0.087197 
66719 -0.1554 0.63506 0.21414 -0.020304 0.041082 0.24877 -0.24374 -0.61192 0.74474 -0.18354 0.087475 0.46422 -0.05623 
65111 -0.0821 0.28536 0.08369 0.08076 -0.014951 0.19512 -0.16489 -0.25818 0.32401 -0.052243 0.020891 0.22256 -0.053972 
13870 -0.17065 0.86543 0.19628 0.065919 0.14126 0.39708 -0.26813 -0.60265 0.85006 -0.20332 0.19309 0.55246 -0.080941 
69390 -0.08174 0.41358 0.045537 0.045504 0.04525 0.22556 -0.094974 -0.31212 0.53309 -0.024049 0.12333 0.26996 -0.030702 
61348 -0.094495 0.65816 0.1228 -0.0056436 0.061922 0.3352 -0.21829 -0.45426 0.69459 -0.18924 0.13312 0.50348 -0.0691 
11712 -0.041114 0.59001 0.1657 0.099964 0.077726 0.33662 -0.24741 -0.44889 0.59114 -0.19853 0.12889 0.36749 -0.02599 
66608 -0.15735 0.97053 0.25492 0.12825 0.2182 0.38791 -0.37268 -0.79823 0.98963 -0.23269 0.13645 0.62653 -0.056608 
90 -0.057499 0.47841 0.19354 0.10923 0.096029 0.21755 -0.18207 -0.43176 0.56652 -0.063207 0.095678 0.38181 -0.056202 
22020 -0.11789 0.61353 0.15763 -0.0076957 0.16938 0.33725 -0.17472 -0.52863 0.76609 -0.23854 0.091291 0.39932 0.0040323 
72816 -0.089506 0.36556 0.1134 0.10748 -0.0015652 0.16832 -0.15584 -0.26553 0.36759 -0.091555 0.065309 0.27221 -0.11515 
66602 -0.15357 0.69736 0.10915 0.032427 0.15689 0.38949 -0.24927 -0.52864 0.72423 -0.16552 0.0563 0.49495 -0.027398 
22001 -0.094366 0.58415 0.078666 0.056414 0.15545 0.3025 -0.17143 -0.39993 0.65287 -0.10727 0.15721 0.37703 0.017078 
13103 0.03259 0.0078143 -0.036294 0.072262 0.069635 0.071468 0.046452 -0.059182 -0.018284 -0.014161 0.0032735 0.060129 0.0327 
830 -0.083256 0.2598 0.11041 -0.0085996 0.014729 0.19389 -0.1365 -0.252 0.3038 -0.11745 0.032077 0.1613 -0.004396 
36800 -0.0030342 0.33093 0.024188 -0.04054 0.10516 0.15152 -0.17323 -0.28379 0.4956 -0.050845 0.029038 0.3485 -0.074194 
57350 -0.053797 0.72832 0.17102 -0.013279 0.054106 0.22591 -0.19236 -0.46115 0.68902 -0.10931 0.11125 0.46047 -0.12642 
50124 -0.06325 0.48041 0.1328 0.080813 0.078253 0.24839 -0.20081 -0.3207 0.46456 -0.066662 0.0022831 0.3563 -0.017367 
37 0.028055 0.25426 -0.0089461 0.031224 0.038563 0.11688 -0.099528 -0.22126 0.30242 -0.044436 0.086983 0.24375 0.033787 
52 -0.0059108 0.31052 0.067159 0.034844 -0.014201 0.18547 -0.14581 -0.24193 0.35567 -0.12756 0.12287 0.24846 -0.015185 
21402 -0.10476 0.58934 0.058546 0.086541 0.094974 0.29076 -0.10775 -0.36413 0.5456 -0.1564 0.13248 0.32545 -0.041273 
11702 -0.11757 0.48765 0.18471 0.06877 0.022276 0.23689 -0.17126 -0.40689 0.58093 -0.18875 0.13471 0.38193 -0.09959 
66800 -0.055542 0.70362 0.20714 0.11932 0.101 0.29701 -0.27797 -0.5407 0.77307 -0.17057 0.19266 0.51173 -0.082605 
58903 -0.12379 0.39762 0.029095 -0.018113 0.073737 0.12384 -0.18847 -0.36967 0.51673 -0.10119 0.0023415 0.26603 -0.017674 
3 -0.071013 0.30348 0.14748 0.097794 0.1089 0.16097 -0.10516 -0.25538 0.31513 -0.015075 0.022785 0.29664 -0.039282 
69318 -0.063392 0.67455 0.14043 -0.0070491 0.14746 0.35583 -0.15394 -0.56696 0.74091 -0.13759 0.17064 0.50474 -0.1437 
61307 -0.025529 0.44932 0.042723 -0.02423 0.038855 0.21409 -0.16744 -0.23661 0.35126 -0.028961 0.012238 0.27414 0.025566 
69303 -0.042415 0.40401 0.13596 -0.045574 0.050165 0.13085 -0.14793 -0.36081 0.36621 -0.12437 0.012675 0.24743 -0.017275 
18216 0.0030014 0.34638 0.065931 -0.039834 0.097168 0.063801 -0.093461 -0.20609 0.28446 -0.046249 0.10957 0.26148 -0.068378 
66503 -0.10779 0.53765 0.17142 0.1191 0.091567 0.32202 -0.18575 -0.46722 0.67808 -0.18295 0.15173 0.45274 -0.059173 
60506 -0.10517 0.54559 0.15503 0.054969 0.010439 0.2426 -0.25177 -0.49395 0.57828 -0.099898 0.034758 0.41846 -0.1234 
66551 -0.031663 0.38256 0.14327 0.082783 0.013004 0.22526 -0.10542 -0.37087 0.50482 -0.080825 0.096916 0.32958 -0.1126 
47930 -0.031539 0.46739 0.17 0.077088 0.13149 0.13933 -0.17725 -0.4127 0.49252 -0.15462 0.096439 0.39144 -0.026028 
66695 -0.031694 0.63219 0.20351 0.056813 0.13731 0.26592 -0.20925 -0.51318 0.70781 -0.088437 0.045513 0.36043 -0.025276 
66614 -0.11895 0.65622 0.15738 0.041497 0.13607 0.31734 -0.23792 -0.54506 0.65826 -0.11895 0.074917 0.42878 -0.013023 
11701 -0.1215 0.37909 0.012766 0.0063717 -0.00067929 0.19026 -0.19099 -0.24599 0.31297 -0.12208 0.08037 0.32576 -0.055231 
66569 -0.14189 0.60687 0.16645 0.087814 0.06366 0.20985 -0.16051 -0.47921 0.68905 -0.19747 0.054025 0.52671 -0.14538 
69345 -0.1132 0.40363 0.14561 0.061417 -0.0082034 0.2312 -0.14567 -0.27431 0.50388 -0.16286 0.054218 0.3425 -0.10035 
51300 -0.019418 0.43688 0.05187 0.01278 0.067649 0.15623 -0.14134 -0.23805 0.40374 -0.083824 0.0078124 0.3007 0.013662 
56619 -0.039263 0.48155 0.16315 0.015294 0.098862 0.27108 -0.20959 -0.38113 0.5317 -0.16433 0.066821 0.37895 -0.063249 
57509 -0.016383 0.45808 0.20304 -0.015855 0.1178 0.2235 -0.20881 -0.38081 0.57717 -0.065026 0.019116 0.40754 -0.017633 
66506 -0.097984 0.49824 0.038408 -0.023613 0.13292 0.14965 -0.13219 -0.30374 0.42166 -0.17273 0.027293 0.36148 -0.080171 
66563 -0.080002 0.46516 0.11583 0.10909 0.021162 0.28073 -0.12956 -0.44598 0.57071 -0.13786 0.081814 0.30598 -0.10328 
66536 -0.042461 0.27683 0.093041 0.057274 -0.010764 0.14815 -0.16869 -0.18274 0.38851 -0.12544 0.056626 0.22557 -0.049022 
69357 -0.055046 0.458 0.10654 0.067919 0.0042269 0.15756 -0.092137 -0.34599 0.62195 -0.15637 0.15884 0.41147 -0.11502 
21200 -0.092503 0.58716 0.11986 0.0028536 0.11854 0.2434 -0.19241 -0.4843 0.63502 -0.10136 0.057668 0.40786 -0.11956 
57527 -0.10603 0.18724 0.061358 0.030904 0.022819 0.10896 -0.014435 -0.19586 0.15452 -0.02097 0.089256 0.096382 -0.075709 
69402 -0.089409 0.41602 0.13314 -0.042337 0.067031 0.18002 -0.064379 -0.21075 0.37036 -0.087184 0.0089749 0.20494 0.02516 
55274 -0.124 0.28099 0.16073 0.025704 0.075382 0.11095 -0.032642 -0.35041 0.33972 -0.052698 0.1251 0.32435 -0.089883 
21210 -0.076362 0.12632 -0.031946 -0.027541 0.027363 0.14879 -0.054234 -0.096078 0.25877 0.0079373 -0.0023453 0.054742 0.0039321 
66764 -0.0023327 0.51769 0.19224 0.010665 0.13995 0.22052 -0.18183 -0.3561 0.60102 -0.1494 0.045564 0.42879 -0.093343 
55114 -0.0095267 0.26064 0.024054 0.052604 0.089331 0.082733 -0.025661 -0.23191 0.27964 -0.02267 0.10413 0.28175 -0.10731 
55036 -0.12305 0.52818 0.090291 0.011498 0.0094449 0.22228 -0.13325 -0.37711 0.58123 -0.084894 0.10383 0.31074 -0.10173 
66656 -0.032102 0.39395 0.12658 -0.042419 -0.0039011 0.24518 -0.11118 -0.40012 0.4901 -0.062741 0.048103 0.31032 -0.0049065 
11603 -0.031507 0.37675 0.10425 -0.0076063 0.060402 0.17523 -0.053795 -0.32634 0.34007 -0.017821 0.10472 0.30222 0.0058179 
72824 -0.11471 0.50818 0.14915 -0.015342 0.091161 0.2319 -0.19469 -0.39798 0.50666 -0.069974 0.16144 0.38645 -0.040368 
55038 -0.060444 0.5896 0.13224 0.017824 0.11738 0.31509 -0.1834 -0.43015 0.52746 -0.20586 0.045181 0.38765 -0.087321 
66599 0.0059099 0.4369 0.050683 0.10218 0.11152 0.24609 -0.11204 -0.28528 0.47786 -0.067537 0.13505 0.30897 -0.0018055 
66650 -0.071224 0.5963 0.09768 0.034744 0.077996 0.32956 -0.20759 -0.48422 0.64322 -0.11012 0.025826 0.49019 -0.042928 
58100 -0.041944 0.41724 0.16582 0.042871 0.096269 0.13628 -0.14987 -0.27573 0.48777 -0.041071 0.11776 0.27271 -0.025643 
32090 -0.091324 0.55145 0.16158 -0.0091736 0.074281 0.22389 -0.087646 -0.37233 0.57256 -0.18679 0.022973 0.40479 -0.017165 
73921 0.012989 0.36894 0.149 0.099509 0.068664 0.058662 -0.10651 -0.20751 0.38505 -0.099025 0.11296 0.16733 -0.028086 
44 -0.061065 0.52203 0.059021 -0.020147 0.12286 0.26992 -0.23873 -0.43995 0.59651 -0.17952 0.097435 0.30949 0.017801 
1 0.0043832 0.35676 0.075596 -0.041932 0.094343 0.14948 -0.18492 -0.31698 0.34216 -0.032889 0.085309 0.19214 -0.053218 
61421 -0.042504 0.46505 0.10405 0.051131 0.045382 0.22059 -0.18901 -0.35034 0.54554 -0.1041 0.045125 0.41493 -0.035829 
13815 -0.11161 0.61898 0.1677 -0.0030856 0.12748 0.21939 -0.2292 -0.50359 0.57566 -0.12664 0.069237 0.39374 0.0016916 
22014 -0.10488 0.40496 0.10565 0.0091842 0.046053 0.09373 -0.16337 -0.23739 0.4652 -0.11948 0.12826 0.30776 0.034081 
60509 -0.071457 0.41965 0.035658 0.076556 0.065204 0.16615 -0.11489 -0.35963 0.37447 -0.030193 0.12122 0.32877 0.036191 
56307 -0.072524 0.33298 0.014884 0.0583 0.054378 0.16416 -0.12537 -0.22833 0.31396 -0.017884 0.014832 0.29916 -0.0084011 
30473 -0.090456 0.59746 0.13754 0.029754 0.049286 0.31526 -0.14497 -0.43732 0.62237 -0.21277 0.12916 0.38704 -0.10184 
87 0.026152 0.24979 0.095101 -0.029992 0.0225 0.14545 -0.012693 -0.15288 0.32622 -0.1009 0.021953 0.2025 -0.054765 
47960 -0.010356 0.20304 0.045633 0.036164 0.0020312 0.0604 -0.00099657 -0.22436 0.21584 -0.11186 0.0081964 0.075445 0.027695 
73905 -0.080348 0.25593 0.029074 0.041217 -0.025065 0.058516 -0.058767 -0.17979 0.30191 -0.059908 0.02186 0.21655 -0.10676 
59925 -0.12367 0.48932 0.091023 -0.007189 -0.011511 0.2507 -0.19711 -0.28264 0.38507 -0.11073 0.030276 0.36888 0.016539 
47048 0.018645 0.39773 0.077536 0.087764 0.11388 0.13972 -0.081733 -0.20891 0.32876 -0.1386 0.08466 0.19964 -0.044012 
20740 -0.045533 0.53874 0.13406 0.059042 0.12945 0.25024 -0.16643 -0.4613 0.6378 -0.2041 0.14051 0.39995 0.0025137 
71106 0.0048245 0.45782 0.1663 0.076748 0.06433 0.20939 -0.084649 -0.29399 0.42366 -0.1638 0.064102 0.28124 -0.025041 
58106 -0.065098 0.30416 0.099091 -0.0097601 0.10093 0.17319 -0.028866 -0.15539 0.30571 -0.074255 0.043918 0.23146 -0.088244 
56223 -0.11615 0.28588 0.092048 0.038828 0.052724 0.088139 -0.13905 -0.2861 0.21638 -0.023838 0.073911 0.25819 0.0055417 
69481 -0.072915 0.14614 0.022661 0.064379 0.045739 0.1074 -0.03736 -0.16803 0.2645 0.0024371 0.0090229 0.14454 -0.088993 
38218 -0.0083195 0.40517 0.040918 0.020145 0.096112 0.12688 -0.073159 -0.29703 0.53474 -0.10559 0.0094764 0.31188 -0.11539 
71097 -0.092892 0.42389 0.11776 0.033957 0.019177 0.20913 -0.06871 -0.33625 0.46809 -0.15636 0.0040027 0.29045 -0.1149 
71119 -0.059613 0.46409 0.08502 0.067647 0.12652 0.20736 -0.064331 -0.40617 0.45076 -0.13973 0.031405 0.26944 -0.060787 
91 0.0057551 0.37807 0.12695 0.012496 0.11702 0.16361 -0.10379 -0.26701 0.28747 -0.032027 -0.0032443 0.22802 0.0091348 
31265 -0.11276 0.30596 0.054331 0.067097 -0.017675 0.086908 -0.08476 -0.25931 0.34997 -0.036085 0.095825 0.20838 -0.09103 
18270 0.0071679 0.26218 -0.010484 0.03512 0.076054 0.10791 0.014044 -0.16512 0.17019 -0.035102 0.072071 0.18543 0.0079179 
21212 0.026439 0.20082 0.0012317 0.06779 -0.0065618 0.003656 -0.075382 -0.091668 0.20512 -0.010681 -0.004961 0.11078 -7.9024e-05 
66572 -0.093844 0.34864 0.087031 0.0093446 0.023179 0.19508 -0.19399 -0.35778 0.49789 -0.05883 0.12818 0.3567 -0.10265 
66655 -0.016536 0.20716 0.11595 0.059537 0.077108 0.051704 -0.052769 -0.13265 0.27706 -0.013722 -0.014867 0.070434 -0.017407 
54 -0.13066 0.53959 0.20886 0.027147 0.055558 0.2954 -0.25364 -0.44366 0.59407 -0.096851 0.035501 0.38491 -0.036126 
25015 -0.013387 0.18747 0.00095798 -0.059709 0.097272 0.14976 0.0086688 -0.21576 0.28062 -0.0058679 0.03208 0.14727 -0.08044 
66722 0.0024565 0.36851 0.043323 -0.037807 0.080079 0.14557 -0.1209 -0.17819 0.32653 -0.14659 0.097113 0.29466 0.0052024 
47927 -0.034868 0.23338 0.032888 0.00084588 -0.028745 0.078351 -0.12742 -0.21528 0.38971 -0.10192 -0.0068616 0.23522 0.011843 
59 -0.085845 0.094686 -0.033044 -0.033177 -0.0032524 0.10003 -0.036315 0.00068779 0.049762 0.019139 0.05184 0.066797 0.06885 
66632 -0.076689 0.28912 -0.0086408 0.091222 0.026277 0.096412 -0.10784 -0.13099 0.21033 -0.11406 0.052698 0.23431 0.035746 
60503 -0.038117 0.34531 0.075962 -0.051344 0.0062996 0.10034 -0.15856 -0.19117 0.34011 0.0024637 0.027616 0.19536 -0.0031232 
832 -0.089963 0.19771 0.063756 0.014053 -0.045022 0.053408 0.0043638 -0.099013 0.12587 -0.081975 0.00091652 0.09428 -0.077094 
55116 -0.040994 0.26405 0.020253 0.01662 0.070298 0.12461 -0.14992 -0.28948 0.32869 -0.064878 0.097029 0.22505 -0.10038 
11506 -0.037418 0.24557 0.062768 -0.018889 0.07291 0.033489 -0.056541 -0.18836 0.28465 -0.056361 0.0089716 0.1944 -0.081714 
22015 -0.032355 0.43859 0.098006 0.028498 0.027421 0.11241 -0.055667 -0.33991 0.35386 -0.13649 0.14825 0.18725 -0.018906 
66653 -0.014569 0.23748 -0.0045313 -0.0094791 0.0708 0.13534 -0.00081861 -0.20207 0.23867 -0.042246 0.052921 0.18974 0.009868 
69360 -0.060721 0.3451 0.096632 0.035949 -0.00030211 0.22864 -0.063522 -0.23908 0.34817 -0.039944 0.058629 0.34172 -0.11251 
56507 -0.06828 0.39214 0.12491 0.072563 0.12225 0.10448 -0.14978 -0.25963 0.41506 -0.017548 0.086791 0.31779 0.01284 
66560 0.017365 0.31961 0.014632 0.057175 -0.033199 0.11808 -0.15828 -0.18694 0.329 -0.060403 0.1186 0.15018 -0.08117 
56001 -0.093734 0.26222 0.12246 0.047208 0.093766 0.062222 -0.12908 -0.18907 0.26811 0.013531 0.0499 0.11103 -0.021235 
511 -0.078447 0.25111 0.083343 -0.053857 0.10585 0.097477 -0.015001 -0.14685 0.25824 -0.07518 -0.022059 0.085666 -0.011318 
66803 -0.077131 0.31614 0.0090422 0.0052348 0.036162 0.11256 -0.070167 -0.27399 0.35968 -0.15297 0.056929 0.30553 -0.06171 
11312 -0.07028 0.38833 0.074237 -0.029223 0.059934 0.13619 -0.10914 -0.33076 0.50106 -0.11033 0.11811 0.25003 -0.089991 
19 -0.0012015 0.24237 0.12774 0.0047287 0.11012 0.072819 -0.12558 -0.17785 0.22779 -0.075675 0.0011849 0.21532 0.04888 
66584 -0.13905 0.59333 0.18571 -0.022606 0.016226 0.26541 -0.18177 -0.40227 0.52486 -0.12513 0.025818 0.33994 -0.131 
11327 -0.063162 0.60117 0.10926 0.093637 0.011877 0.31443 -0.14071 -0.40043 0.55194 -0.079771 0.15907 0.37388 -0.041295 
41764 -0.12328 0.3693 0.085152 0.065666 0.08304 0.2517 -0.085653 -0.31803 0.53332 -0.18203 0.14926 0.35165 -0.072343 
12306 -0.066208 0.16847 0.016268 -0.014362 0.070039 0.086445 -0.019712 -0.12035 0.31532 -0.084985 0.0084254 0.12883 -0.043473 
71057 -0.10901 0.33015 0.031706 -0.049249 0.081736 0.18771 -0.12843 -0.26482 0.37646 -0.094254 0.050327 0.17652 -0.071651 
69309 0.012109 0.23061 0.014479 -0.02236 0.093691 0.14855 -0.0017116 -0.17394 0.30705 -0.1004 0.11217 0.14236 -0.056571 
65144 0.048329 0.091124 0.052536 0.057451 0.086002 0.094912 0.0089759 -0.032325 0.1651 -0.0059547 -0.049247 0.10213 0.021751 
73901 -0.010315 0.091394 -0.0087573 0.025943 0.076153 -0.0025699 -0.021078 -0.11458 0.14742 -0.015395 0.087107 0.062066 0.027467 
55039 0.013601 0.1482 0.061051 0.020513 0.022675 0.031138 0.010461 -0.11974 0.19557 -0.061441 -0.023864 0.17512 -0.032158 
56007 -0.035805 0.23743 0.11063 -0.015778 0.069042 0.10511 -0.064446 -0.18859 0.24415 -0.067556 -0.015689 0.17166 -0.070673 
30032 -0.065135 0.16109 0.0085748 -0.0092158 -0.021264 0.10529 -0.015624 -0.22002 0.29832 -0.12288 0.072956 0.2318 0.050738 
69324 -0.043974 0.15718 -0.0027341 0.037029 -0.010254 0.013371 0.031306 -0.10498 0.11897 0.029128 -0.0032686 0.13954 0.062776 
304 -0.055283 0.066832 -0.013846 0.033425 -0.057943 -0.064788 -0.051658 0.028171 0.025772 0.025844 -0.021876 -0.0040794 -0.062383 
306 -0.06521 0.086115 0.077964 0.031765 0.053285 0.0063132 0.0010177 -0.0032391 0.11753 -0.023495 -0.006919 0.11905 -0.083164 
30071 -0.05297 0.10416 0.043694 0.050531 0.063502 0.037189 -0.026774 -0.077934 0.13415 -0.10771 -0.029824 0.099529 0.047349 
55246 -0.054254 0.0048163 0.077685 -0.059071 -0.061785 -0.046759 0.055425 -0.013056 -0.010191 -0.071024 0.062617 0.044992 0.006212 
65114 -0.025408 0.089225 0.056746 0.025208 0.044221 -0.022788 -0.089415 -0.093553 0.18783 -0.061229 -0.042101 0.041226 -0.085933 
13888 -0.092753 0.35863 0.028824 0.058261 0.07339 0.13332 -0.099258 -0.31212 0.44715 -0.17803 0.1343 0.27023 -0.11068 
55117 -0.066533 0.12622 0.0057788 -0.015215 0.09484 0.14177 -0.032169 -0.075652 0.14021 -0.043247 0.0418 0.1388 0.029707 
10907 -0.081082 0.057344 0.030925 -0.072534 -0.06626 0.083689 0.0099149 -0.021992 0.026848 -0.075748 0.042877 0.040254 0.05114 
71109 -0.011897 0.23812 0.059067 0.057501 0.014018 0.094677 -0.10341 -0.23359 0.23351 -0.052795 -0.0055054 0.20536 -0.053509 
11602 -0.043118 0.14064 -0.019446 -0.052319 -0.027506 0.018985 -0.03836 -0.15258 0.1412 -0.086996 0.035356 0.088232 -0.029863 
71113 -0.01423 0.14393 0.054177 0.081875 0.046411 0.10116 -0.056248 -0.17038 0.16917 -0.020604 0.057778 0.12051 -0.04338 
72830 -0.051344 0.16282 -0.016754 -0.027963 0.098643 0.084579 -0.077501 -0.14326 0.13846 -0.088244 0.097492 0.055435 -0.059488 
39126 -0.051674 -0.013714 0.0031699 -0.05085 -0.062896 0.031867 0.036463 -7.3913e-05 0.022213 -0.0071753 0.013901 0.032248 -0.0091685 
56409 0.019364 0.15505 0.096041 -0.017787 0.075022 0.0036828 -0.067931 -0.12773 0.22586 0.033394 0.098868 0.051724 0.0075547 
59751 -0.021352 0.24609 0.097457 -0.048802 0.029497 0.024925 -0.011964 -0.16123 0.25797 -0.086187 0.10742 0.13514 0.036294 
20810 -0.038524 0.10202 0.091217 -0.035923 0.028161 -0.023331 -0.10645 -0.02495 0.11516 -0.016175 0.044605 0.14725 -0.085859 
61446 0.061104 0.11708 0.010443 0.022142 0.076175 0.053761 -0.0056776 -0.07613 0.16105 0.023259 -0.023027 0.047389 0.022378 
36812 -0.10876 0.32108 0.12667 0.015145 -0.028835 0.12156 -0.067662 -0.23589 0.32769 -0.10592 -0.018687 0.16744 -0.019908 
73913 0.057536 0.12669 0.075515 0.011966 0.023434 0.098197 -0.045796 -0.0091343 0.012685 -0.030875 -0.058507 -0.020552 -0.0028555 
65102 -0.080658 0.080382 -0.019679 -0.016048 0.037764 0.063001 -0.023959 -0.025445 0.12331 -0.042518 0.026295 0.036586 0.060258 
18274 -0.045676 0.28254 -0.0098008 -0.02303 0.096909 0.062566 -0.12689 -0.22444 0.28971 -0.11333 -0.024452 0.15827 -0.04419 
66698 0.033528 0.17701 0.02533 -0.033138 -0.024537 0.13054 -0.015114 -0.065977 0.12495 -0.027509 0.066476 0.055911 -0.077719 
22045 -0.079533 0.11524 -0.02751 0.082251 0.085681 0.11054 -0.056879 -0.14834 0.099639 0.0016062 0.007389 0.025994 -0.082117 
10918 0.060208 0.1117 -0.036655 -0.06344 -0.0084046 -0.0087582 0.062485 0.034737 -0.0067539 -0.081981 0.05916 0.095413 0.064688 
10900 0.047035 0.14119 0.050412 0.0062019 -0.057229 0.014727 0.049927 -0.11759 0.038908 -0.026711 0.034541 0.12294 0.037841 
11600 -0.016126 0.15769 0.076849 0.04276 -0.018806 0.081448 0.0024769 -0.12302 0.29051 -0.080997 -0.0012193 0.15203 0.027042 
69475 -0.055433 0.1636 0.022735 0.034385 0.033382 0.030004 -0.0078237 -0.083774 0.21411 -0.045735 0.023864 0.11036 -1.5827e-05 
13882 -0.014506 0.28282 0.056978 0.028467 0.0016273 0.17413 -0.07815 -0.24868 0.37233 -0.077244 0.06594 0.29141 0.0028442 
13755 0.019685 -0.0011309 -0.003203 -0.034253 0.01142 -0.052101 0.043672 0.0082661 0.04377 -0.035684 -0.024162 0.037101 0.052974 
71059 -0.046988 0.30209 0.088894 0.08107 -0.011701 0.18902 -0.036624 -0.25289 0.35284 -0.11375 -0.0098919 0.21863 -0.023481 
57721 0.015207 0.12466 -0.045387 0.082553 0.076107 -0.0087957 -0.075749 -0.045991 0.073568 -0.074153 0.054699 0.15574 -0.076767 
65093 0.030329 0.0033727 0.00031503 0.074037 0.061955 -0.031111 0.032827 -0.085066 -0.0057868 -0.012817 0.037979 0.056678 -0.009666 
55276 -0.0070391 0.2022 -0.022248 0.086681 0.024809 0.080611 0.0065145 -0.12271 0.14662 0.0056851 -0.034959 0.068025 0.029196 
66752 -0.099218 0.16437 0.11215 -0.03867 -0.032447 0.052757 -0.0054182 -0.12807 0.20547 -0.044802 0.059531 0.16347 0.033476 
21230 -0.098764 0.27047 0.11671 -0.025417 0.0053686 0.10508 -0.046488 -0.20067 0.20851 -0.045067 0.08123 0.22086 -0.023803 
173 -0.040874 0.18912 0.03305 0.0085111 0.080566 -0.00075035 0.038386 -0.092682 0.088135 0.035203 0.039387 0.065145 -0.011208 
66669 0.011671 0.10271 0.07286 0.048039 0.035893 0.11883 -0.028512 -0.14523 0.10278 0.0035016 -0.0097934 0.067722 0.019715 
63609 0.016906 0.096658 0.018 -0.047535 0.013567 -0.0096452 -0.025629 -0.13333 0.19504 -0.0069508 -0.029877 0.12742 -0.024735 
55032 -0.078696 0.082782 0.050818 -0.055702 -0.0051499 0.044704 0.018128 -0.098333 -0.0061418 0.0091662 0.035296 -0.010437 -0.044219 
66773 0.046362 0.086715 -0.030939 -0.022636 0.058857 0.076351 -0.037332 -0.064314 0.15821 0.035952 0.072212 0.14236 -0.089932 
71101 0.029331 0.25487 0.051846 0.073692 -0.0011353 0.18487 -0.036656 -0.27865 0.32241 -0.031266 0.01896 0.11105 0.026042 
22050 -0.06697 0.15322 -0.017922 -0.030735 0.0053374 0.021531 -0.023099 -0.14377 0.14908 0.015944 0.057671 0.18942 -0.093871 
71099 -0.084074 0.31008 0.0016519 0.086718 0.039645 0.17253 -0.12134 -0.2677 0.31084 -0.054277 0.026302 0.21278 0.027238 
193 -0.018383 0.047163 0.080909 0.036893 0.075432 0.12749 -0.031973 -0.07569 0.16645 0.032138 0.084468 0.05542 -0.00091171 
57703 -0.084195 0.14023 0.036556 -0.026893 0.045743 0.10636 0.018199 -0.16541 0.24577 -0.085991 0.034845 0.092745 -0.057477 
97 0.017544 0.085313 0.046601 0.065194 0.060563 0.10873 -0.020034 -0.11039 0.087473 0.020029 0.066313 0.14301 -0.0081815 
55808 -0.068984 0.068646 0.056546 -0.0052295 0.056456 0.049819 -0.027452 -0.082246 0.13005 -0.085592 0.093544 0.0055221 -0.065991 
63427 -0.055105 0.041454 -0.026587 0.062485 -0.016643 -0.062478 0.011721 -0.058576 -0.035328 -0.038271 -0.047406 0.056691 -0.063554 
22007 -0.039132 0.12674 -0.017965 -0.058211 -0.027719 -0.051645 -0.064566 -0.11495 0.025926 -0.028257 -0.059555 -0.014969 0.033674 
21160 0.013573 0.18329 -0.0018886 -0.019238 0.014973 0.0083229 -0.081191 -0.13214 0.080238 -0.095556 0.020712 0.02865 -0.047093 
20914 -0.083971 0.12642 -0.010257 0.055503 0.026407 0.040818 -0.01382 -0.16459 0.18111 0.023786 0.094085 0.096721 -0.025794 
65087 -0.072991 0.14856 0.061105 -0.034194 -0.031471 0.10966 0.0089018 -0.13086 0.16001 0.031269 -0.01665 0.15613 -0.041275 
63421 0.0053013 0.076726 0.0046252 -0.051067 0.091961 0.07524 -0.055293 -0.18491 0.15031 -0.048184 0.024254 0.14211 0.028697 
56022 -0.014367 -0.025453 0.0075448 -0.034936 0.029081 -0.050324 0.0084177 -0.077939 0.11138 -0.081913 -0.051223 0.024911 0.07037 
57963 0.058721 0.042523 0.031811 -0.048491 -0.0037339 0.0082292 0.0024349 -0.090265 0.11061 0.018065 -0.044225 0.094876 0.025744 
66623 0.039166 0.0056489 0.052822 -0.072837 0.056786 0.059556 -0.060999 -0.04771 -0.026402 -0.042391 0.070703 1.636e-05 0.067594 
36863 -0.11082 0.3324 0.11692 -0.01165 -0.020765 0.1631 -0.022192 -0.17887 0.30523 -0.10714 -0.0082411 0.13903 -0.018107 
61449 0.025957 0.080206 0.012678 -0.051355 0.071354 -0.0065294 -0.015108 -0.072414 0.23095 -0.010771 0.092454 0.076745 -0.088231 
10916 -0.053771 0.04205 0.070382 0.040964 0.074905 0.019821 0.064385 0.033434 0.026247 -0.036831 0.0031942 0.041005 0.0286 
30087 -0.029083 0.22029 -0.0044171 0.028021 0.055634 0.078933 -0.011665 -0.22324 0.15222 -0.074604 0.00033843 0.11518 -0.090055 
30084 -0.024669 0.19555 -0.00055525 -0.011042 0.075728 0.0066966 -0.083159 -0.072581 0.19546 -0.024422 0.088136 0.10273 0.0076328 
11503 -0.028534 0.14828 0.048745 -0.039533 0.025543 0.10899 -0.057979 -0.029109 0.14741 0.037733 0.059136 0.0051636 -0.080433 
13885 0.04088 0.23464 0.10137 0.059028 0.0060226 0.095299 -0.020013 -0.10524 0.17318 -0.012051 0.054724 0.13679 0.028535 
13842 -0.012939 0.073124 -0.03358 -0.039213 -0.047623 0.091337 -0.082947 -0.11601 0.11805 -0.0080065 0.010786 0.10602 -0.035961 
37203 -0.0097595 0.29132 0.10881 0.033872 0.089698 0.063893 -0.14221 -0.19948 0.36681 -0.072997 0.024515 0.2158 0.045204 
66701 -0.014702 0.037174 -0.016413 -0.041184 -0.02217 0.094395 0.002646 -0.10415 0.064125 0.012843 0.05628 0.037233 -0.070783 
49818 0.031022 0.068486 0.064972 0.033461 -0.051459 0.059557 -0.057503 -0.09653 -0.0089483 0.066617 0.029277 -0.045952 -0.046161 
58700 -0.083249 0.23977 0.082176 -0.020046 0.0522 0.13352 -0.018869 -0.17632 0.24685 0.020599 0.01724 0.13994 -0.025178 
55048 -0.070866 0.16228 -0.0084358 -0.025218 0.068125 0.11432 -0.10048 -0.1131 0.11205 -0.0022424 -0.010217 0.069572 0.03164 
66590 -0.026089 0.17469 0.088118 -0.034664 0.0072561 0.18115 -0.05966 -0.25053 0.21858 -0.04179 -0.019995 0.25255 -0.10238 
66617 -0.028563 0.20866 0.046298 -0.052462 -0.011049 0.054635 -0.10961 -0.19321 0.33777 -0.10023 -0.0088402 0.1524 0.030774 
15269 0.0010968 0.1244 0.00094637 -0.02631 0.090504 0.0085256 -0.076116 -0.061049 0.11756 -0.043367 -0.00464 0.17939 -0.04261 
15500 -0.02506 0.22786 0.038114 -0.017084 0.094958 0.13596 0.0044694 -0.16874 0.19384 0.023414 0.096817 0.087177 0.029467 
56226 -0.043265 0.084291 0.010973 0.0187 0.023864 -0.034579 -0.011528 -0.059896 0.062966 0.054414 0.041597 0.01239 0.012333 
15518 -0.094863 0.20288 0.045958 0.016984 0.04881 0.019206 -0.10099 -0.043685 0.19169 -0.022973 0.085586 0.04578 -0.06852 
601 0.020085 0.23895 0.05533 -0.033528 0.073952 0.085198 -0.08443 -0.19627 0.22473 -0.11081 0.0029895 0.17184 0.040089 
13879 -0.018366 0.29028 0.038419 0.055278 0.006944 0.09378 -0.039327 -0.17366 0.20624 0.0020523 0.10776 0.16507 -0.081688 
162 -0.099468 0.19832 0.015899 0.0031502 -0.051258 0.012909 0.015265 -0.071841 0.20955 -0.038758 -0.029199 0.084429 -0.039178 
55715 0.0092782 0.28676 0.06025 0.049486 0.011974 0.10307 -0.15356 -0.23167 0.27446 -0.067829 0.064008 0.13393 -0.066088 
72846 -0.0097551 0.1067 0.031214 0.061869 -0.014901 0.10517 -0.067609 -0.10517 0.24547 -0.052844 0.056321 0.10694 0.013758 
160 -0.066012 0.14796 0.063881 0.076267 0.059718 0.13133 -0.0077626 -0.17526 0.12731 0.012506 0.017966 0.033854 -0.048417 
11221 0.023523 0.14043 -0.016495 -0.042023 -0.0098636 0.069771 -0.039903 -0.030593 0.04396 0.0001084 0.080096 0.019635 -0.057506 
55816 0.03131 0.21753 0.009053 -0.052642 -0.033425 0.1516 -0.096362 -0.20243 0.27061 -0.1121 -0.029781 0.11196 0.044817 
66578 0.032559 0.17215 0.10125 0.02918 -0.0036046 -0.005062 -0.0010844 -0.15965 0.18112 -0.089621 0.019538 0.089214 -0.047051 
55118 -0.0032966 0.23199 0.016719 -0.04626 0.10397 0.16991 -0.10998 -0.23242 0.23164 -0.13344 0.068357 0.16078 0.051766 
39330 0.064752 0.14789 -0.00646 0.042143 0.024936 0.081424 -0.091102 -0.12366 0.13441 -0.076724 0.055984 0.1357 0.014422 
50375 0.018363 0.031714 -0.033758 -0.01528 0.076895 0.0036042 0.02794 0.012115 -0.0046968 0.033829 -0.044823 -0.030858 0.037293 
35 -0.078933 0.17156 -0.011631 0.073578 0.087286 0.014701 0.015052 -0.048152 0.19813 0.015262 0.0016901 0.082459 -0.030574 
73912 -0.048337 0.13327 0.073498 -0.063882 -0.049853 0.096387 -0.072608 -0.12005 0.15281 -0.072344 0.012715 0.031916 0.0041811 
12321 -0.025729 0.021153 0.043616 0.046824 0.035116 -0.0045604 -0.041541 -0.057939 0.1145 -0.079264 -0.050109 0.026555 0.0067803 
71071 -0.032994 0.078752 0.019125 -0.035379 0.0028534 0.13288 -0.013539 -0.12058 0.20945 0.034907 0.10319 0.15715 -0.057034 
31290 0.031352 0.17362 0.014656 -0.038487 0.026741 0.045929 -0.12952 -0.099208 0.19736 0.027675 -0.045623 0.17433 -0.078102 
45203 -0.089358 0.1892 0.037689 -0.055198 0.04046 0.050445 -0.11559 -0.077949 0.17411 0.015482 0.010587 0.053327 0.010998 
21220 0.054077 0.15946 0.085873 0.0012879 -0.056029 0.0059163 -0.095123 -0.0026203 0.04022 -0.038202 -0.0078436 0.076971 -0.074667 
65136 -0.050047 0.11594 0.042611 -0.0086088 0.072239 0.0075047 -0.099734 -0.025702 0.11025 0.014586 0.056609 0.047923 -0.058496 
65168 0.058317 0.11401 0.044757 -0.024064 0.02112 0.036238 0.025713 -0.1497 0.1217 -0.095263 0.066207 0.1228 -0.039533 
11900 -0.05202 0.10026 0.097499 0.054434 -0.017771 0.083527 0.018475 -0.11959 0.097063 -0.073484 0.026811 0.05088 -0.011115 
55828 -0.067608 0.11895 -3.5874e-05 -0.030377 0.0026388 0.096439 0.0011445 -0.14361 0.12198 0.014807 0.074061 0.069909 0.048922 
57 0.025462 0.14799 -0.042261 -0.041769 -0.051077 0.048846 0.0074162 -0.1533 0.0554 -0.016991 0.028827 0.041198 -0.056773 
73053 0.0049445 0.11623 0.053229 0.04747 0.081941 0.055988 -0.018237 -0.014645 0.080816 0.012005 -0.015368 0.099664 -0.0372 
66593 -0.01712 0.091926 -0.022904 0.056527 0.010114 0.10577 0.0051049 -0.15375 0.17407 -0.019358 -0.048515 0.033903 -0.062332 
14215 -0.058098 0.10798 0.0058692 0.071727 -0.027206 -0.016927 0.011494 -0.11442 0.071615 -0.0049172 0.0079351 0.069519 -0.03424 
66672 -0.027877 0.12698 0.073232 0.027099 0.010694 0.032864 -0.081627 -0.11171 0.068478 0.0044577 0.0064861 0.012539 0.027382 
31285 -0.050211 0.12927 0.076293 0.0034085 0.052917 -0.0321 -0.073227 -0.13721 0.027841 -0.022647 0.065933 0.12463 -0.0045124 
25 0.042543 0.11471 0.019263 -0.066155 0.0027391 0.072212 -0.049372 -0.066674 0.092493 0.027092 -0.038156 0.12698 -0.039205 
56501 -0.056241 0.16197 0.047315 -0.049473 0.055916 0.048931 -0.10748 -0.068718 0.13297 -0.053044 -0.013781 0.12964 -0.024198 
66776 -0.023365 0.26379 0.013173 -0.024994 0.099102 0.0092108 -0.13646 -0.19281 0.22523 -0.0022304 -0.035368 0.11755 0.013034 
66557 0.019286 0.11969 -0.0009846 -0.021213 0.085631 0.043139 -0.047755 -0.068747 0.12324 0.010096 0.098321 0.086206 0.026366 
58500 -0.055777 0.096674 0.051806 -0.017552 -0.020615 -0.024464 0.013468 -0.065773 0.16048 -0.074318 0.058588 0.10055 -0.0024441 
51 -0.087569 0.079753 0.046269 0.045851 -0.0099173 0.11695 -0.039934 -0.098889 0.11295 -0.082592 0.03997 0.045258 -0.074024 
702 -0.044265 0.056454 0.04806 -0.047942 0.070624 0.071214 -0.057759 -0.072688 0.084841 0.046649 0.078491 0.11453 -0.06847 
38256 -0.064828 0.30643 0.020024 0.013869 0.063308 0.069369 -0.12218 -0.1316 0.23393 -0.047151 -0.01264 0.18556 0.010239 
13839 0.037637 0.16305 -0.0020604 0.084323 0.043174 0.11697 -0.074041 -0.0024527 0.12273 -0.012319 0.086826 0.11088 -0.062407 
63659 -0.082923 0.0345 0.072736 -0.050334 -0.0030809 0.085893 -0.024054 -0.03084 0.10164 -0.013818 0.0095391 -0.0045881 0.03282 
11240 -0.031553 0.053769 0.046118 0.037085 0.089491 -0.0074852 0.050354 -0.078774 0.0078385 0.02267 0.049378 0.076657 0.048745 
50115 -0.065988 0.12745 0.07844 0.07114 -0.044547 0.064191 -0.088148 -0.14303 0.13038 -0.074752 -0.044302 0.034388 0.02265 
48203 -0.029153 0.26067 0.079619 0.061093 0.0085565 0.0367 -0.0072649 -0.21928 0.3027 -0.012585 -0.017487 0.1786 -0.094132 
66626 -0.0035775 0.13894 0.099566 -0.025506 -0.05199 0.058222 -0.061592 -0.06053 0.20449 0.033574 0.015267 0.11549 0.020029 
55238 -0.0061713 0.16687 0.052259 0.041352 0.077934 0.030029 -0.012992 -0.058871 0.091171 0.011907 -0.028669 0.12889 -0.035312 
66725 0.035721 0.080228 0.088848 0.022601 0.058238 0.03552 -0.04999 -0.1176 0.12442 -0.092317 0.026166 0.065473 0.017307 
38246 -0.09488 0.3449 0.04667 0.021341 0.026943 0.079665 -0.062358 -0.2952 0.29321 -0.012763 0.0051745 0.13975 0.038745 
65135 -0.0054876 0.12438 0.021154 -0.029205 0.040747 0.027281 -0.046644 -0.12567 0.15622 -0.0073693 0.060379 0.13752 -0.097372 
66680 -0.052519 0.18674 0.0030804 0.031629 0.045963 0.10092 -0.086712 -0.19366 0.11569 -0.057877 -0.0028467 0.14701 0.033396 
11721 0.046204 0.056279 0.055736 0.028729 0.043723 -0.055745 -0.087818 0.041549 0.11958 -0.0034789 0.022274 -0.040861 -0.043155 
63009 -0.055073 0.08857 0.0048404 0.079878 0.060307 -0.032627 -0.011142 -0.096732 0.060393 -0.072035 -0.018639 0.0026871 0.032522 
66575 -0.065579 -0.016109 0.0042846 0.024355 0.063453 0.012595 -0.0080686 -0.02632 -0.0014449 0.056851 -0.048884 0.041524 0.057545 
21382 -0.049107 -0.019 -0.069317 0.066397 0.013623 -0.068352 0.066841 -0.077585 -0.035499 -0.075191 0.049244 0.048846 0.053795 
14203 0.0034929 0.047681 0.073473 0.014673 -0.023309 0.029584 -0.034305 0.033982 -0.037809 0.069507 0.040938 0.015926 0.027775 
72847 -0.035714 0.01561 0.005505 -0.0291 0.016563 0.036124 0.00067242 -0.05308 0.02779 -0.060248 0.033501 0.033713 0.015912 
21110 -0.069669 0.20252 0.088913 -0.054644 0.02805 0.015988 -0.093954 -0.055022 0.059827 -0.017062 0.08081 0.090758 -0.01579 
47507 -0.0013314 -0.029277 0.082385 -0.053751 0.0091697 0.043485 0.010898 -0.081036 0.08747 -0.062449 -0.051207 -0.039017 -0.0044679 
49330 0.038438 0.057261 0.045083 -0.0054856 0.065576 0.011312 0.0072459 -0.061724 0.098609 -0.06388 0.025885 0.057737 -0.069037 
49336 -0.056002 0.07708 -0.032805 0.047959 0.02608 -0.013638 0.024447 -0.13745 0.076304 -0.0053392 -0.0031951 0.0092668 -0.08037 
21460 -0.017115 -0.029 0.018388 0.060896 0.023241 0.034857 0.053469 -0.070296 0.01751 0.065247 0.0036312 0.066479 -0.010826 
47918 0.032215 0.065315 -0.054861 0.050931 -0.0031745 -0.037902 0.028946 -0.052024 0.059668 0.053587 0.065574 0.016116 -0.07352 
11012 0.042497 0.18585 0.052214 -0.063178 -0.0019776 0.11244 0.002689 -0.14238 0.06848 -0.022378 0.02187 0.14336 -0.023989 
18350 0.0063596 0.087843 0.028361 -0.020397 -0.01734 0.020214 -0.0099236 -0.17485 0.24038 -0.00048363 -0.038754 0.096444 -0.058339 
18352 -0.062251 0.15658 0.10928 0.010962 0.040965 0.011786 -0.11868 -0.073597 0.10593 -0.10986 0.0024253 0.081946 0.01405 
66812 -0.077955 0.090607 -0.0013536 -0.0141 0.050699 -0.0071465 0.039065 -0.064503 0.12448 -0.0012087 -0.045282 -0.0029772 -0.027578 
11709 -0.074191 0.098311 0.034469 0.062341 0.074363 0.071054 -0.074541 -0.09288 0.064884 -0.073856 0.022951 0.032303 0.073235 
21400 0.022037 0.017183 -0.0086139 -0.068336 0.038184 0.050778 -0.027308 0.00013985 0.1236 0.011556 -0.007548 0.036634 0.0078035 
65078 -0.0028651 0.13034 0.073611 -0.030099 -0.051994 -0.0076421 -0.049736 -0.0951 0.071789 -0.038926 -0.033374 0.088852 -0.090958 
66713 -0.064987 0.090842 0.05864 0.02875 -0.00028287 0.003443 0.018755 -0.055932 0.14633 -0.067779 -0.030047 -0.013493 0.044287 
66542 -0.090754 0.085625 -0.025581 -0.058556 -0.03368 -0.014493 -0.027317 -0.076671 0.058106 -0.067547 0.026545 0.036876 -0.040131 
37011 -0.085496 0.12264 -0.014325 -0.063497 0.082883 0.016849 0.0068421 -0.025004 0.11162 -0.064108 0.073977 0.02367 -0.0672 
47372 -0.068174 0.12274 0.086037 -0.056514 -0.0021341 -0.035327 -0.01322 -0.078 0.15047 -0.080795 0.095054 0.0055734 0.037489 
57515 -0.063573 0.18193 0.011422 -0.014137 0.04367 0.012782 -0.052711 -0.17129 0.21011 0.016502 -0.013836 0.16384 -0.027485 
161 -0.070133 0.15419 -0.033954 -0.034686 -0.03987 0.00083643 -0.023165 -0.071092 0.13935 0.0012923 -0.02655 0.20207 -0.065033 
30192 0.041293 0.00085917 -0.037652 -0.067359 -0.03613 -0.011607 -0.063227 -0.11229 0.07499 -0.0578 -0.036154 -0.007461 -0.0019567 
66767 -0.066721 0.078731 0.076603 0.027805 -0.024374 0.089176 0.036009 -0.099935 0.046753 0.031002 -0.016001 0.088844 -0.057819 
69363 0.061856 0.085029 0.0025162 0.043567 -0.042536 0.073522 -0.018895 -0.040572 0.012818 -0.036263 0.071504 -0.0030021 -0.065089 
48 0.031947 0.085852 -0.061706 0.018999 0.032145 -0.067473 -0.064562 -0.0909 0.0059746 0.039787 0.024504 -0.059963 -0.063061 
66641 -0.051992 0.093598 0.085538 0.037324 -0.04043 0.075807 -0.035784 0.0093988 0.12452 -0.08592 -0.034118 0.062593 -0.0097765 
72836 -0.075856 0.062979 0.045464 -0.019874 0.053243 -0.0029571 -0.024825 0.01803 0.072898 0.01906 -0.027019 -0.023316 0.03715 
69444 0.027486 -0.0038592 -0.062176 -0.023331 -0.028251 0.037738 -0.03822 -0.071363 0.033657 0.046755 -0.026518 0.044441 -0.011492 
42788 -0.048858 0.013067 -0.041386 0.049636 -0.015482 0.04661 0.050081 0.001564 0.11404 -0.006542 -0.017141 0.028611 0.06032 
21195 0.01668 0.094167 0.029477 -0.044163 -0.028164 0.048861 -0.077622 -0.10337 0.065849 -0.0040109 0.051895 0.067618 0.064663 
30023 -0.012538 0.022392 0.080237 0.05754 -0.038554 -0.00056462 -0.07225 -0.096899 -0.0029867 -0.041147 0.045815 -0.015614 0.0045222 
58103 -0.037077 0.0033368 -0.023213 -0.046717 -0.0069915 0.092671 0.038328 0.04253 -0.019396 -0.036651 -0.016243 0.029448 -0.02781 
56301 -0.049616 0.084642 0.02439 -0.02933 -0.058843 -0.010743 -0.0013273 0.012759 0.093297 -0.062447 -0.028281 0.057849 -0.068653 
57921 -0.084242 0.10713 -0.044466 -0.032793 0.072767 -0.037891 -0.06874 -0.041814 0.067404 -0.024293 0.041147 0.015339 0.053283 
71153 0.062542 0.14272 0.059578 0.045172 0.0027657 0.042351 -0.024734 -0.073368 0.15072 -0.059954 0.018751 -0.0031243 0.025772 
73055 0.029579 0.14015 0.076902 0.012261 -0.011207 0.051613 0.014694 -0.016687 0.16855 -0.095798 -0.010268 0.013493 -0.028565 
66605 -0.03746 0.030468 0.0055199 0.027615 0.0451 0.075451 -0.014027 -0.091699 0.065793 -0.028234 0.0053212 0.083484 -0.058534 
47519 -0.042411 0.064796 -0.018033 -0.06763 -0.06391 0.068794 -0.054523 -0.095669 0.014195 -0.043171 0.06518 0.094306 -0.081203 
69375 0.027051 0.062294 -0.0338 0.017149 0.060112 0.025703 0.033852 0.010893 0.14872 -0.093667 0.027487 0.11954 0.035296 
32093 0.030019 0.07983 -0.045848 -0.030228 0.00079226 0.032639 -0.019108 0.059012 -0.018406 -0.064503 -0.03438 -0.021626 -0.076469 
66704 -0.061986 0.056635 0.01549 -0.043902 -0.056399 0.027751 0.025269 0.029922 0.11063 -0.021745 -0.051512 0.00042726 0.044096 
835 0.020879 0.20037 0.10715 0.046201 0.034121 0.028271 -0.043376 -0.10242 0.11975 -0.041095 0.088326 0.1257 0.052161 
69336 0.008545 0.058122 0.085982 -0.01313 0.074622 -0.029817 0.019215 -0.072582 0.063731 0.0059643 -0.045403 0.088195 -0.072735 
20920 -0.026555 0.097251 0.017878 -0.017244 0.076275 0.074065 0.0088672 -0.022112 0.082079 0.051552 0.0050997 0.021941 -0.081559 
30631 0.037838 0.10757 0.052386 -0.064256 0.010693 0.01958 -0.014189 -0.12003 0.15706 0.024085 -0.020732 0.011911 -0.067004 
2 -0.045723 -0.050194 0.013422 0.0035503 0.033895 0.060451 0.0087111 0.055608 0.0057839 -0.033353 -0.045635 0.047201 -0.0031234 
31280 -0.078621 0.023329 -0.065543 0.028354 -0.015937 -0.046747 -0.0087993 -0.0018479 -0.021087 0.057369 0.064091 -0.025354 0.024152 
58109 -0.05249 0.089942 0.064933 0.034781 0.065518 -0.024271 -0.034563 -0.081862 0.01463 -0.042225 0.015115 0.015645 -0.070597 
43 -0.0037181 0.0044513 0.086265 0.034237 -0.058643 -0.0044542 -0.013323 -0.10076 -0.01963 0.0028907 0.064106 0.082044 0.064527 
66659 0.063695 0.11406 -0.041311 0.0076213 -0.043721 -0.024398 0.054566 -0.065475 0.071259 -0.074817 0.07935 0.049612 0.033712 
66692 -0.061794 0.040367 0.024026 0.0028088 0.070637 -0.021912 -0.021515 -0.054363 -0.024567 -0.052254 -0.0025275 0.053099 -0.059038 
47906 -0.001782 -0.017845 0.034293 -0.059303 0.0032936 0.049172 0.014466 0.0089084 -0.020936 0.01729 0.073762 0.07705 0.054476 
49327 -0.006559 0.16607 0.072601 -0.039779 0.089134 0.0069639 0.0071338 -0.049228 0.075169 0.0062537 -0.033356 0.077073 0.012946 
21990 -0.049802 0.091201 0.072443 -0.040113 -0.023677 0.078722 -0.027042 -0.11085 0.094364 -0.07741 -0.047948 0.1118 -0.028003 
31270 -0.03438 0.14981 -0.034564 0.014507 0.081545 0.02358 0.032324 -0.14826 0.060593 -0.00065822 0.023173 -0.0061685 -0.066691 
61473 0.046021 0.065405 0.05595 0.019441 -0.010588 0.086461 0.010616 -0.047583 0.14054 0.019708 0.076359 0.045895 -0.031114 
72817 -0.047935 0.10112 0.016164 0.015524 -0.0416 -0.010217 0.0073334 -0.11893 0.13943 0.047877 0.066851 0.073028 0.022128 
22070 -0.067204 -0.057205 -0.068156 0.011319 -0.056825 0.055106 -0.073128 -0.072161 -0.055884 -0.067219 0.031435 -0.044285 -0.065894 
