1753 100
GE -0.91761 -0.50623 0.099106 1.577 -0.87239 0.60966 -0.60738 0.48772 -0.83015 -0.13941 0.1409 0.31611 0.73269 -0.83276 0.45586 -0.045301 -0.75223 -0.05826 0.47119 -0.66832 -0.078165 0.051022 0.83144 -0.61062 0.82768 0.017311 -0.78098 0.35162 -0.26607 -0.045412 0.238 0.24362 -0.60973 0.020942 1.4325 -0.40304 -0.37158 0.12522 -0.38855 -0.54154 0.33684 -1.2359 0.58408 -1.3285 0.24937 -0.82338 -0.83891 -0.51322 -0.91405 -0.48777 0.18712 0.96562 -0.021913 -1.0582 0.264 0.75548 -0.33222 -0.37691 0.37816 -0.14441 -0.50437 1.0855 0.075373 -0.11077 -0.78553 -0.34307 -0.972 -0.27443 -0.019084 0.092387 -0.69582 -0.1487 -0.6 -1.0697 -0.45329 0.91949 0.67686 -0.076358 0.43642 0.060729 2.0993 0.13304 -0.72316 0.22623 1.1337 0.043074 0.32999 -0.3409 0.33983 -0.26638 -0.51858 0.07054 -0.76335 -0.43695 0.65508 0.21416 -0.82944 -0.1053 -0.015947 -0.69883 
1.0 0.74759 0.85763 0.69981 -0.10056 0.29419 -0.45791 -0.24035 -1.1771 -0.15091 -0.51673 -0.15467 0.0010478 -0.18486 -0.5434 -0.27059 0.52371 0.42936 -0.18236 1.2046 0.5387 0.26265 -0.92015 -0.46024 0.62545 -0.39341 0.2708 -0.08318 -0.048371 0.32002 1.0384 -0.89314 0.46476 -0.62284 -0.84137 0.11929 -0.81883 0.44103 -0.60212 0.4216 -0.27737 -0.32549 0.24089 -0.60069 0.35243 -1.3418 -0.16982 -0.78639 0.2027 0.74712 -0.27238 0.096937 0.27903 0.37269 0.28357 -0.51215 -0.56597 -0.8385 1.1959 1.1126 0.63386 -0.32209 0.55759 -0.046011 0.86454 -0.64334 -1.2555 0.022741 -0.75129 -0.75261 0.33992 -0.21702 -0.98304 0.10665 0.66227 0.50238 -0.41851 -1.4827 -0.097041 -0.60518 0.31748 -1.1108 0.29786 0.39494 -0.68637 -1.1723 -0.059373 0.54712 0.32181 -0.21521 0.39657 -0.49913 -0.034251 0.2751 1.0892 -0.90458 -0.39373 0.53343 -0.089009 0.28982 1.5659 
nan 0.8112 0.89781 0.57744 -0.3641 0.13649 -0.11029 0.21201 -0.97055 -0.5938 -0.17389 -0.40713 -0.61364 0.14601 0.23796 0.11295 0.45325 0.59896 -0.38183 0.29253 0.17082 -0.03024 -0.14391 -0.10166 0.68059 -0.1639 0.38372 -0.2454 0.11627 0.033955 -0.15832 -0.92927 0.68405 -0.64294 -1.3298 0.5155 0.17674 0.8494 -0.032154 0.586 -0.2981 -0.20663 0.5212 0.58216 0.62158 -0.88573 -0.11855 -0.3991 0.61537 0.65163 0.070709 -0.12089 1.0125 -0.41007 0.23749 -0.017619 -0.75022 -0.25182 0.015535 0.26898 -0.18285 0.20202 -0.12137 -0.38553 0.23506 -1.0455 -1.0833 0.66334 0.81253 -0.041295 0.48032 0.64127 -0.35305 -0.6823 -0.10895 0.88154 -0.11483 0.13545 -0.87698 -1.0264 0.53761 -0.33161 0.099127 -0.40331 -0.12854 -0.8845 0.52561 -0.59324 -0.22962 0.3889 0.68885 -0.46481 -0.90071 -0.98025 1.0886 -0.45742 0.19229 -0.48597 0.029288 0.13506 0.76083 
2.0 0.32004 0.59332 -0.37149 -0.59747 0.12685 0.60053 0.0022188 0.52008 -0.61979 -0.51801 -0.3713 0.11904 -0.83917 -0.22608 0.20085 -0.016852 -0.66495 -1.1682 1.4988 0.83587 -0.06816 -0.53459 -0.19613 0.55067 0.58146 0.087267 0.066928 -0.7615 0.36672 -0.64475 -0.63497 0.35115 0.65705 -0.75947 0.55898 -0.15122 1.305 0.71292 0.58827 -1.0275 0.032839 -0.70773 -0.32869 0.5258 -0.10218 -0.86603 0.056854 -0.32661 0.98558 -0.2942 -0.18406 0.63413 -0.61722 0.57233 0.21548 -0.74311 0.22769 -0.1232 1.288 0.15228 0.65562 -0.021716 0.76863 -0.74786 -0.72716 -0.89162 -0.41098 -0.59338 -0.48804 0.37513 2.0605 -0.51173 0.38954 0.26547 -0.3221 0.16725 -1.4812 -0.31508 0.56283 0.080629 -1.2436 -0.51148 0.23405 0.84585 -0.97318 0.17469 -0.11978 0.035395 -0.13472 -0.44236 0.51423 -1.3166 0.17067 -0.16984 0.36773 0.47325 -0.34132 0.404 0.86893 1.0487 
</s> 0.35757 0.010134 0.08053 -0.2522 0.036663 0.24282 -0.05523 0.22705 0.32548 -0.010168 0.46204 0.098708 0.40978 0.19868 -0.47442 0.042419 0.0039703 0.36072 0.063415 -0.096305 0.066553 0.013597 0.12198 0.19583 -0.53602 0.13017 0.026663 0.051297 -0.41556 0.26058 0.077336 0.29367 0.55906 0.054172 -0.17871 0.11123 0.17413 0.11269 -0.15297 -0.19158 -0.41248 -0.25133 -0.079953 0.28047 0.57211 0.060777 0.19031 0.17479 -0.52715 0.1334 0.0024628 -0.047625 0.069518 0.13632 -0.1186 -0.06125 0.21801 -0.15974 -0.075709 0.18242 0.083868 0.26667 0.75082 0.46225 0.013287 -0.48719 -0.092982 0.10208 0.14444 -0.13263 0.30695 -0.46653 -0.14397 0.21584 -0.15618 0.54194 0.02477 0.079514 0.21868 -0.045359 -0.063571 -0.12016 -0.13432 0.33077 0.45122 -0.24051 0.17231 -0.14194 -0.028867 0.07703 0.19301 0.098873 0.61692 0.162 0.32333 -0.039045 0.34307 -0.087049 -0.51383 0.06263 
01746X 0.25111 0.057402 0.52339 -0.047303 0.31048 0.34638 -0.13796 -1.1425 -0.57168 0.22163 0.28186 0.50043 0.43754 0.033849 0.079126 0.020551 0.16468 0.055983 0.30004 0.3227 0.097165 0.17328 0.05445 -0.084462 0.67596 0.6672 -0.7842 -0.65241 -0.092983 -0.13873 -0.41927 0.54826 -0.63365 -0.38157 0.462 -0.28501 -0.82068 0.15277 -0.49913 0.083947 0.6449 0.086081 -0.3328 0.24847 0.28294 0.42127 -0.90714 -0.45776 -0.67271 0.036521 0.041737 -0.39899 -0.17358 0.21219 -0.74809 0.42362 -0.48681 0.48161 -0.50011 -0.53663 0.08042 -0.090776 0.24166 0.43156 -0.17122 -0.60858 -0.18073 -0.25312 -0.024808 -0.41768 -0.64763 -0.57244 0.35292 -0.30991 0.096267 -0.0016613 -0.48343 -0.11307 -0.48458 0.28683 -0.29396 -0.069575 -0.76839 -0.42932 0.13035 -0.62208 0.059799 -0.095193 -0.19204 -0.36282 -0.17583 -0.36758 0.072452 0.14296 0.1694 -0.071195 0.098197 -0.019333 0.11536 0.39512 
08333N 0.59038 -0.78449 -0.1639 -0.56983 -0.081847 0.63441 0.76183 -0.2202 -0.53441 -0.13791 -0.44953 0.27544 -0.17674 0.7863 0.19237 -0.20733 0.50004 0.41706 -0.19223 0.036435 -0.63184 0.77796 -0.076685 0.13805 0.69797 -0.13207 -0.052733 -0.029025 0.38517 0.019612 -0.66207 0.78027 -0.84001 -0.27356 0.33476 -0.82995 -0.52749 -0.65423 -0.011782 0.1344 -0.39862 0.43035 0.014838 0.24247 0.024448 0.48774 -0.56711 -0.11915 -0.68312 0.18397 -0.40643 -0.47836 0.043354 0.0093723 -0.5574 0.18705 -0.31085 0.13066 0.099316 0.0092252 -0.40341 -0.019812 0.17784 -0.46403 -0.85155 -0.16879 -0.67688 -0.034644 -0.38434 -0.70926 0.46082 0.010778 0.34719 0.27142 -0.016369 0.39087 0.089788 -1.2783 -0.11267 0.14289 0.11598 0.16062 -0.26165 -0.24499 0.41897 0.011175 0.40602 0.11578 0.41971 -0.50895 0.37418 -0.32016 -0.46349 0.061835 -0.084262 0.42305 0.066257 0.3673 0.58354 0.1037 
08440F 0.18028 -0.5358 0.26419 0.19594 0.60421 0.87648 0.18674 0.059036 -0.90194 -0.14497 0.37022 0.038801 -0.07249 0.64029 -0.26328 -0.48941 0.12263 -0.21136 -0.58155 0.048882 0.12474 0.69042 -0.15229 0.090247 0.12754 0.034327 -1.1515 -0.39755 0.43414 -0.11577 -0.070498 -0.17347 -0.53899 0.085052 0.57752 -0.34762 -0.32244 -0.293 0.30387 0.19387 -0.042203 -0.48605 -0.50319 0.16151 0.17136 0.0048713 -1.1277 -0.18988 0.00025413 -0.059076 0.18212 -0.49383 -0.18782 0.84296 -0.22654 -0.041623 -0.7563 0.066919 -0.70495 0.18175 -0.016289 0.56682 -0.57162 0.69676 -0.4674 -0.16162 -0.16312 0.97037 -0.41726 0.21892 -0.41294 0.90651 0.082463 -0.14415 -0.17724 0.36233 0.25112 0.55281 -1.3493 0.21139 -0.09313 -0.23529 0.065097 -0.11425 -0.10034 0.12404 -0.79751 0.39218 0.028897 -0.66413 0.44166 -0.17284 0.4095 0.67725 0.21075 0.18309 -0.043413 0.010687 0.12327 0.32669 
01081X -0.57613 0.024871 0.26919 -0.53716 -0.42856 -0.5972 -0.15496 -0.019557 -0.21718 0.091722 -1.2706 0.43807 0.12836 0.861 0.67371 0.93569 1.377 0.39006 -1.4962 -0.13888 -0.19422 0.56613 -0.52006 -0.025331 0.091544 0.88901 -0.50372 -0.10975 0.66949 0.085826 -0.60438 0.52602 -0.4496 0.11586 0.57753 -0.23129 -0.29356 -0.6831 0.7274 -0.50605 0.29453 -0.35943 -0.75253 0.57716 -0.78989 0.004703 -0.26951 0.060201 -0.93787 -0.10402 0.54668 -0.072484 0.25007 0.14756 -0.50001 -0.24889 -0.32029 -0.53056 0.31013 -0.21573 -0.87897 -0.83016 0.27646 -0.030832 -0.3741 -1.1694 -1.0549 1.3712 0.16629 -0.23579 -1.5562 0.3411 0.71578 -0.4777 -0.082778 0.53046 0.64472 0.4641 -1.3519 0.63706 -1.4235 -0.19013 -1.1345 -0.53458 0.11869 0.11487 -0.71487 0.12588 0.4753 -0.64102 0.60966 -0.10925 0.8303 0.041604 0.91387 -0.56488 -0.69581 0.038218 0.4035 -0.5712 
08214H -0.2794 -0.44868 0.45517 -0.17073 -0.1895 -0.37247 0.061511 -0.23419 -0.42324 -0.10485 -0.86676 0.28784 0.013124 -0.19716 -0.4723 -0.26373 0.32988 0.095298 -0.68926 -0.19777 0.36008 0.75715 0.67089 0.55823 0.80444 -0.48903 -0.27336 -0.22344 -0.34516 -0.49748 -0.37236 0.24028 -0.22117 0.40584 -0.15975 0.76652 -0.47863 -1.2445 0.24317 -0.30144 0.065119 -1.1401 -0.58432 0.49849 0.41004 -0.15079 0.17254 -0.023103 0.35555 0.64057 0.51079 -0.34127 -0.14893 0.53833 -0.75793 -0.087157 -0.56152 0.4222 -0.41503 -0.22157 0.69419 -0.58176 -0.27003 0.17521 -0.40622 -0.13336 0.051502 0.91002 -0.63044 -1.0502 -0.82171 0.16061 -0.69832 -0.32745 0.32177 -0.32713 -0.47202 -0.68085 -0.55344 -0.49025 -0.37685 1.1344 -0.92378 -0.030062 0.33336 -0.087075 -1.574 -0.35238 0.18394 -0.23357 0.12272 -0.42852 -0.14877 1.0087 -0.31337 -0.5796 0.2263 0.64401 0.7591 -0.79749 
01215Y 0.054689 0.49807 0.68717 -0.15847 0.69613 0.43177 -0.73072 -1.0676 -0.25 -0.59038 0.52877 0.33085 0.63497 -0.12843 -0.45542 0.10829 -0.25741 0.085836 0.62717 -0.078589 0.26561 0.19093 0.079688 0.047594 0.64777 0.35392 -0.021588 -0.52118 0.049627 -0.43218 0.46377 0.11805 0.093355 0.18464 -0.36487 -0.27279 -0.59703 -0.21188 -1.2856 0.023147 -0.25206 -0.68031 -1.1014 0.27818 0.89445 0.43587 -0.77612 -0.15748 -0.73254 0.65767 -0.22456 -1.098 -0.15018 0.33998 -0.29701 0.2272 -0.36486 0.34617 0.45435 0.14631 -0.69433 -0.49915 0.4763 0.54339 0.56191 0.97879 -0.2278 -1.1352 -0.14279 0.24603 -0.41702 -0.25799 0.90458 0.09497 -0.70182 0.69285 -0.28572 0.01008 -0.56219 0.34384 -0.029609 -0.77111 -1.0596 -0.31571 0.15769 -0.76632 0.70576 0.047025 -0.58361 -0.64824 -0.2303 0.22349 -0.024642 -0.4019 -0.19096 0.44165 -0.21174 -0.13671 -0.3028 0.41335 
02012X -0.2897 -0.24093 0.7563 -0.31114 -0.050213 -0.45149 0.34806 -0.21081 -0.39553 -0.11179 -0.74144 0.59259 0.29642 -0.18285 -0.62546 -0.17665 0.50897 -0.083149 -0.40327 -0.31063 0.47482 0.47115 0.66557 0.55453 0.58999 -0.11763 -0.36338 -0.59006 -0.36603 -0.65281 -0.73667 0.58766 -0.56719 0.43324 -0.41912 0.49374 -0.57621 -1.4752 0.17519 -0.15819 0.19813 -1.1602 -0.49037 0.29355 0.58488 0.18826 -0.13248 0.044898 0.47004 0.74173 0.7826 0.036244 -0.15065 0.49051 -0.7812 0.03172 -0.99365 0.60765 -0.6053 -0.28204 0.48779 -0.26086 -0.1412 0.29486 -0.3936 -0.034911 -0.26041 1.0793 -0.40333 -1.117 -0.75223 0.31934 -0.83561 -0.59696 0.55689 -0.14754 -0.34274 -0.75204 -0.26726 -0.07963 -0.50952 1.0366 -1.2183 0.12047 0.16971 0.054624 -1.3192 -0.37552 0.30845 -0.34409 0.19956 -0.35164 -0.3604 0.80835 -0.48704 -0.7615 0.011027 0.64763 0.86435 -0.55979 
08288F 0.42403 -0.7284 0.031698 -0.096277 0.84128 0.96534 0.61486 -0.062235 -0.39039 0.99357 0.64209 -0.97712 1.2636 1.014 -0.62622 0.26095 -0.085096 -0.76863 0.40488 0.036362 1.176 0.43128 0.46931 0.22964 -1.5442 0.47162 0.4563 -0.18873 -0.16155 0.32288 0.68406 1.6415 -0.11883 0.34374 0.32431 -0.50933 0.4671 -1.2787 -1.2044 0.35773 -0.96578 -0.82916 -0.17598 -0.38978 0.9705 0.53601 -0.34127 0.46821 -1.362 0.6401 1.2916 0.20044 0.28202 -1.3629 -0.74156 0.26454 0.38567 0.19498 -1.3795 1.3289 -0.83534 -0.24096 0.098827 1.6077 0.2685 0.27955 0.10145 0.37035 -0.75268 0.29942 1.4911 0.99727 0.93603 1.2394 0.64248 -0.89175 -0.45368 -0.70132 -0.14821 0.41256 0.5361 0.73414 -0.16246 -0.27474 0.95124 0.39119 0.55921 1.3889 0.24122 1.3237 -0.76948 0.27921 -0.38755 0.21573 -0.71547 0.29518 -0.076889 -0.034351 0.10673 -0.39576 
02089Y 0.55695 0.079842 0.48318 -0.078508 0.3503 0.36157 -0.0095966 -0.92254 -0.14291 0.068987 0.7802 0.33802 0.066738 -0.22508 0.62289 -0.1174 0.069982 -0.33517 0.57433 -0.32766 0.48958 0.47532 0.14635 0.15284 0.62738 0.36536 -0.59777 -0.37502 0.47144 -0.39606 0.25844 0.1852 -0.81863 -0.90462 0.6777 -0.46053 -0.97351 -0.021734 -0.31366 0.21623 0.012734 -0.60631 -0.38842 0.30759 0.65737 0.66154 -0.82797 -0.59631 -0.28642 -0.0046596 -0.3186 -0.26961 0.093492 0.10191 -0.095073 0.69703 -0.13619 0.45257 0.23437 -0.39766 -0.21304 -0.0072415 0.073855 -0.3111 -0.064062 -0.03674 0.089119 -0.45462 0.066145 -0.11542 -0.03315 -0.36887 1.2389 -0.33289 0.1318 0.12344 -0.22724 -0.034857 -0.77054 0.014639 -0.31946 -0.2015 -0.83113 -0.52636 0.42163 -0.75747 0.45367 -0.042637 -0.064398 -0.38557 -0.12779 0.16899 0.1475 0.11272 -0.091669 0.65528 -0.31777 -0.44041 0.062772 1.0156 
08213G -0.17102 -0.41123 0.50126 -0.28476 -0.22532 -0.11686 0.54475 -0.1807 -0.54841 0.03772 -0.80872 0.46781 0.077349 -0.14878 -0.67658 -0.18535 0.28457 0.056338 -0.59571 -0.36722 0.48331 0.67013 0.46969 0.56111 0.7387 -0.17363 -0.31599 -0.17229 -0.40655 -0.68324 -0.45815 0.48918 -0.13995 0.36717 -0.078585 0.60513 -0.61385 -1.2235 -0.17182 -0.13422 0.13865 -0.62077 -0.90606 0.32938 0.2088 -0.087273 -0.13467 -0.19991 0.42481 0.66395 0.57794 -0.11323 -0.10556 0.51987 -0.77914 0.25127 -0.86618 0.59941 -0.63448 -0.3506 0.71221 -0.28565 -0.05304 0.43182 -0.32677 0.19981 -0.31317 0.97338 -0.45931 -1.2089 -0.95292 0.15892 -0.76835 -0.50548 0.47379 -0.30373 -0.54617 -0.76903 -0.14646 -0.36984 -0.48256 1.284 -1.2592 0.17416 0.43008 0.032699 -1.402 -0.19223 -0.13801 -0.31484 0.46019 -0.27793 -0.10171 0.86269 -0.55128 -0.64786 0.17717 0.52505 0.69943 -0.75932 
08472X 0.11521 -0.28255 -0.15771 0.23535 0.50194 0.82196 0.010606 0.11021 -0.95623 -0.042283 0.26618 0.031711 -0.17445 0.27238 -0.092668 -0.37996 -0.046105 -0.14695 -0.40517 -0.10031 -0.061559 0.93041 -0.25037 -0.11249 0.31529 -0.026622 -0.91697 -0.36058 0.25452 -0.35429 -0.14861 -0.047767 0.032618 0.46658 0.31654 -0.12923 -0.14945 -0.25432 0.21179 -0.046061 -0.16229 -0.12735 -0.79566 0.30166 0.31776 -0.14559 -0.95339 -0.062986 0.058176 0.16986 0.14787 -0.5169 -0.24174 0.84862 -0.40032 0.015904 -0.52413 -0.1609 -0.54229 0.42975 -0.070271 0.33947 -0.42156 0.77979 -0.44264 0.067238 -0.082269 0.48034 -0.46825 0.1427 -0.23423 0.96684 0.25844 -0.083731 -0.26125 0.30715 0.32995 0.48837 -1.0391 0.12722 -0.22381 -0.37028 -0.093844 -0.091366 -0.15447 -0.07898 -0.54118 0.49328 -0.018962 -0.52584 0.58975 0.148 0.5733 0.74783 0.39375 0.058297 0.022022 -0.14909 0.065539 0.28169 
02430X 1.2838 -0.15847 1.2918 0.12418 -0.13841 -0.5348 1.427 -0.71902 0.45281 -0.53712 -1.373 0.26415 0.69395 0.52594 1.2934 -0.022717 0.61666 1.172 -0.36219 -1.0961 -0.28861 1.0124 1.2746 0.92615 -0.20797 -0.67171 -0.132 0.3396 0.40835 0.67738 -0.091241 0.60661 -1.1239 -0.38611 -0.84449 -0.77244 -0.32257 -0.04583 2.765 -0.33191 0.24942 -0.26853 0.55274 0.34331 -0.31664 -0.48942 -0.11517 0.39657 -0.12555 0.18279 2.241 0.73888 0.2073 0.73957 -0.28586 -0.13188 -0.71583 -0.26232 -0.27269 0.74762 -0.44762 -0.93895 0.38406 -0.15846 -0.48999 -0.082124 -0.04186 0.070785 -0.5671 -0.42119 -1.3392 0.079705 -0.50127 0.34079 -0.44387 -0.53389 0.42821 -0.23536 -1.2432 0.76037 0.10916 -0.2281 -1.3042 0.22222 0.31424 -0.76775 -2.1973 -1.1753 -0.50226 -0.098118 -0.16563 -1.4994 0.41262 1.5589 1.1842 -0.5367 -0.79744 0.37173 -0.87172 -0.92133 
08405J -0.38559 -0.55793 0.17447 -0.16098 0.39641 0.34675 -0.11122 0.091747 -1.0465 0.02444 -0.53813 0.024718 -0.058066 0.55587 -0.78615 -0.40076 -0.24045 0.38421 -1.5003 -0.35327 0.61017 -0.37591 0.49776 -0.34817 -0.85837 -1.3089 -0.42207 0.45368 -0.40812 -0.026978 -0.30369 0.46339 -0.087657 0.016627 0.39454 -1.1455 0.21794 -0.5855 -0.034316 -0.079215 0.42824 0.57063 -1.0709 0.18768 -0.73724 -0.53601 0.04523 -0.084462 -0.80365 0.1788 -0.10982 0.68674 -0.98803 0.39828 -0.80959 -0.80496 -1.206 0.49587 -0.69631 0.066747 -1.0468 -0.64495 0.24921 -0.015826 0.24654 -0.12566 0.22618 0.98084 0.2618 -1.1591 -0.62168 0.93661 -1.0912 1.4162 -0.10073 1.0841 0.080314 -0.51508 -0.45361 0.90844 -0.52701 -0.25114 -0.13382 -0.61235 0.30332 -1.0079 -0.75342 -1.299 -0.78547 -0.50599 -0.92904 -0.62114 0.23333 0.72797 0.54593 0.28598 -0.40861 0.146 -0.47982 0.51068 
08008L 0.62896 -0.91203 -0.085688 -0.6156 -0.19715 0.41593 0.47057 -0.53164 -0.46982 -0.28848 -0.30041 0.21669 0.061186 1.0575 -0.061613 -0.30549 0.50238 0.14902 -0.17789 -0.29001 -0.82041 0.66762 0.24692 0.11588 0.77012 -0.1951 -0.021689 -0.11245 0.23612 0.060795 -0.29818 0.47891 -0.49186 -0.087804 0.36419 -0.81917 -0.74928 -0.71519 -0.051994 -0.22768 -0.40056 0.15683 -0.010696 0.19743 0.13872 0.21688 -0.51415 0.44565 -0.63119 0.087697 -0.26067 -0.38217 0.045183 0.081825 -0.92736 0.3687 -0.29997 0.067961 0.54466 -0.27807 -0.16063 -0.40236 0.032569 -0.14448 -0.88258 -0.3162 -0.53685 -0.084483 -0.48106 -0.80402 0.07607 0.44128 0.48941 0.2162 0.20473 0.30039 0.031725 -1.4793 -0.23576 0.1579 -0.039934 0.027436 -0.21769 -0.6592 -0.21025 -0.069339 0.22322 0.085854 0.22681 -0.7186 0.10084 -0.14005 -0.28909 0.27422 0.11076 0.55462 -0.34588 0.37223 0.34274 0.1896 
08220P 0.30745 -0.59809 0.21359 -0.62628 1.0246 -0.2131 0.22659 -0.6677 -0.5256 -0.47183 0.10981 -0.0017947 0.40282 0.48154 0.30924 0.029143 -0.15274 -0.10149 -0.67037 -0.52706 0.20141 0.078468 0.41206 -0.47895 0.29882 -0.042705 -0.22615 -0.4194 0.42776 -0.39804 0.43992 -0.07605 0.19624 -0.092318 0.41395 0.17882 -0.18238 -0.22701 -0.37134 0.83972 0.64607 0.32266 -0.23184 -0.3216 0.90963 0.36108 0.079533 0.37757 -0.14622 0.021185 -0.48651 -0.26719 0.96404 0.83478 -0.55146 0.41976 0.024456 0.13058 0.48851 0.021484 0.14341 -0.40859 -0.1954 0.53351 -0.38994 0.10643 0.31586 -0.22838 0.088575 -0.24257 0.30016 0.34837 0.16242 -0.080698 -0.21276 0.014309 -0.0572 0.27627 -0.089726 -0.1475 -0.36016 0.38534 -0.48399 0.12465 0.91869 -0.36354 0.36345 0.24656 -0.60598 0.45215 -0.4138 -0.33094 0.96161 -0.4687 0.093092 0.011495 -0.6509 -0.36402 0.01625 0.22287 
08173E -0.12476 -0.25585 0.63261 -0.06848 -0.34457 -0.55774 0.3456 -0.37748 -0.39813 0.06599 -0.95868 0.57716 0.297 -0.41506 -0.88672 -0.4465 0.72453 -0.1687 -0.8397 -0.19249 0.16917 0.41907 0.66824 0.54391 0.99046 -0.3394 -0.2334 -0.079979 -0.078579 -0.81672 -0.21763 0.55519 -0.54044 0.70124 -0.23511 0.71395 -0.73934 -1.3426 0.16918 -0.41175 0.22445 -1.3488 -0.61565 0.31766 0.14827 0.15097 0.046809 0.079322 0.37056 0.98184 0.51433 -0.079501 0.15034 0.49168 -0.826 0.48932 -0.86309 0.14576 -0.27689 -0.33746 0.4408 -0.48932 -0.35961 0.27953 -0.62445 -0.18653 0.11871 0.96687 -0.62573 -1.0593 -0.86277 -0.11662 -0.80212 -0.22147 0.31602 -0.17649 -0.57932 -0.90441 -0.54548 0.014694 -0.52961 1.1762 -1.1212 0.13441 0.40106 -0.26274 -1.3246 -0.21082 0.080001 -0.089606 0.18602 -0.28669 -0.2985 1.0709 -0.48597 -0.54046 -0.11882 0.54745 0.61283 -0.7382 
03051N -0.06128 -0.54863 0.55289 0.49165 -0.18861 0.24039 0.1907 -0.67379 -0.50746 0.37144 -1.1213 0.22711 0.092206 0.49468 -0.51807 -0.18662 1.1118 0.013168 -1.3261 0.57283 0.41243 0.19851 0.52957 0.30905 -0.48383 -1.0872 -0.82475 0.13258 0.53231 -0.67078 -0.44088 0.97621 -0.55534 -0.38028 1.4461 -1.0147 -0.38484 0.069815 0.41063 -0.1362 0.96436 -0.72563 0.093029 0.10959 -0.47074 -0.47924 -1.0266 -0.076819 -0.44829 0.33551 0.094254 -0.19053 -0.15321 1.1995 -0.91211 -0.76773 -1.1248 -0.061464 0.051025 0.32201 -1.2055 -0.48594 0.6675 -0.26253 -0.67345 -0.061378 -0.22466 0.44323 -0.0017953 -0.79795 -0.43369 0.93731 -0.89791 0.52485 -0.16412 0.7982 0.11082 -0.28488 -0.11326 0.27089 -0.91666 0.79278 -0.16317 0.018138 0.65663 -1.176 -0.35336 -0.97043 -0.27913 0.38999 -1.1528 -0.97198 0.5086 0.38507 0.27818 0.94116 0.25898 -0.25834 -1.2655 0.46857 
08247C -0.06494 -0.13158 0.1123 0.2498 0.0063932 0.36656 0.13462 -0.21765 -0.69276 0.18204 -0.36949 -0.080927 0.54519 0.31282 -0.54354 -0.034576 0.1779 0.080735 -1.3899 -0.040964 0.31314 -0.034285 0.60358 -0.2768 -0.57367 -0.8855 -0.3723 -0.041148 0.17836 -0.12225 -0.28685 0.49158 -0.17133 -0.039313 0.80337 -0.80141 -0.36346 -0.54371 0.085045 -0.26903 0.43332 0.21562 -0.39958 0.05681 -0.51714 -0.4546 -0.71261 -0.20387 -0.77385 0.25272 -0.31945 0.48284 -0.35506 1.019 -1.0806 -0.40308 -0.32424 0.33503 -0.64359 -0.11289 -0.7444 -0.22777 0.98896 0.10659 -0.79166 -0.30363 0.062938 0.55691 0.012167 -0.13333 -0.30851 0.72429 -0.46006 0.62519 -0.081759 0.77094 0.43239 -0.41885 -0.45259 0.55766 -0.5557 -0.077566 0.28153 -0.24347 0.42041 -0.77822 -0.36373 -0.16949 -0.45725 0.084031 -0.62165 -1.0269 0.49688 0.29231 -0.13926 0.15219 -0.41286 -0.37655 -0.079334 0.22376 
08511Y -0.030196 -0.019592 -0.16689 -0.36228 0.43442 1.0117 0.88502 0.23345 -0.72305 -0.34701 0.2633 0.34559 0.54339 0.5185 0.73336 -0.5725 0.25493 -0.018318 -0.35806 0.43254 -0.32793 0.47702 -0.20519 -0.40003 0.47663 0.024889 -0.48131 -0.52073 0.57856 -0.46901 -0.76983 0.63113 -0.28715 0.15262 0.7224 -0.46766 -0.16349 -0.21309 -0.9199 -0.0041214 0.55533 0.39218 -0.28606 0.16221 0.1129 0.66223 -0.63192 0.25086 -0.10705 0.027856 -0.17354 -0.043249 -0.72323 0.88906 -1.3705 0.71892 0.055252 1.2601 -0.088848 -0.003091 -0.38982 0.30996 0.31328 0.76196 -0.85918 -0.62582 -0.50655 1.093 0.013959 -0.336 0.082405 0.44567 0.26119 -0.25172 0.76845 -0.061966 0.0066568 -0.35271 0.12481 0.052381 -0.4093 0.13133 -0.52803 -0.34066 -0.30859 -0.26709 0.069563 0.25607 -0.1168 0.11878 -0.17265 -0.053348 0.020568 0.23346 0.45761 -0.047492 -0.39901 -0.12898 0.55595 -0.42108 
08215J -0.14171 -0.16368 1.009 -0.14539 -0.23357 -0.77485 0.24115 0.048501 -0.50117 -0.24565 -1.1264 0.3424 0.11552 -0.23994 -0.5705 -0.62314 0.56329 0.14817 -1.0429 -0.37268 0.076135 0.38588 0.80438 0.56094 0.95529 -0.4097 0.068827 0.066326 -0.34083 -0.55095 -0.11679 -0.061801 -0.14199 0.47793 -0.029958 0.93238 -0.55207 -1.1934 0.42231 -0.23527 0.17568 -1.1018 -0.91638 0.38918 0.18925 0.24089 0.25946 0.43991 0.3896 0.96219 0.61049 -0.30522 0.3717 0.24511 -0.77755 0.076921 -0.70032 -0.00051451 0.026151 -0.29668 0.4076 -0.57599 -0.058691 0.36291 -0.50733 -0.40138 -0.12578 1.1886 -0.59851 -1.0247 -0.71196 0.28611 -0.79316 -0.086069 0.33683 0.28584 -0.26509 -0.93524 -0.74203 -0.35845 -0.22318 1.0573 -1.1188 0.21858 0.57274 -0.2803 -1.3466 -0.17521 -0.012949 -0.10338 0.19538 -0.28136 -0.19378 1.1784 -0.45007 -0.41391 0.22211 0.90625 0.65838 -0.86642 
03162K 0.489 0.72276 0.70305 0.11916 0.96954 0.43326 -1.188 -1.3574 -0.16763 0.33335 0.81997 0.361 -0.33046 0.309 0.38859 -0.63473 -0.10162 -0.87671 0.20497 -0.10212 -0.13733 0.96981 0.47222 0.95637 1.0994 -0.086475 -0.35536 -0.18077 -0.089524 -0.49191 0.9474 -0.56512 -0.040832 -0.68127 0.12866 -0.39947 -0.95426 -0.59801 -0.99839 0.5499 -0.17496 -0.12735 -1.0218 0.38772 1.2085 0.77322 -1.3412 -0.2646 -0.98151 0.72278 -0.92088 -1.0284 0.60052 -0.06609 0.63627 1.4278 -0.7664 0.098048 -0.090656 0.58185 -0.62785 -0.42244 -0.034032 0.66051 0.50369 0.91886 0.42906 -0.84976 -0.010342 0.15422 0.022817 -0.19727 1.1583 0.21036 -0.10534 -0.069534 0.29505 0.89415 -0.32398 -0.40557 0.48148 -0.24898 -0.16209 -0.53942 -0.13548 -0.85517 -0.038709 -0.036782 -0.80981 -0.52588 -0.24982 0.86917 0.46257 -0.19707 -0.52432 0.59566 -0.49726 -0.084711 -0.69254 1.4393 
03119E -0.012235 -0.26896 0.41045 -0.27127 0.093161 0.87512 -0.077449 -0.6258 0.27301 0.063727 0.16382 0.26927 0.49815 -0.61159 -0.0061964 0.15347 0.20125 0.34204 0.38726 -0.30668 0.21141 0.32374 0.15459 0.056036 0.14994 0.44542 -0.37367 -0.46277 0.34394 -0.25749 0.076062 -0.43335 -0.074564 -0.29636 -0.16426 -0.06132 -0.57239 0.48286 -0.14968 0.00022726 0.82884 0.11967 -0.094643 0.25276 0.93088 -0.1481 -0.3002 -0.40934 -0.23555 0.36156 0.01161 -0.51121 -0.26709 0.17675 -0.55574 -0.08626 -0.39126 0.40588 0.17131 0.25863 -0.34551 -0.35336 0.8174 -0.13202 -0.077271 0.29209 -0.48266 -0.0027115 -0.29807 -0.042372 0.19313 -0.62453 0.36624 0.040457 -0.05395 0.51306 -0.38472 -0.19135 -0.14807 -0.2322 0.32517 -0.095584 -0.026425 -0.51326 0.14488 -0.35865 0.51628 0.51858 -0.16714 -0.12096 -0.092194 0.030474 0.60902 0.38036 0.24177 -0.19192 -0.11975 -0.68912 -0.32477 0.33143 
02236Q 0.31356 -0.38425 0.34409 -0.14844 0.905 -0.13736 0.77942 -0.28301 -0.10599 -0.23162 0.45889 -0.09174 0.14437 0.72767 0.051844 -0.10055 0.13679 -0.066346 -0.41166 -0.44355 0.61002 -0.4734 0.89451 -0.38351 0.76759 -0.33989 -0.55547 -0.75072 0.22804 -0.19153 -0.074288 0.069724 -0.44192 -0.56598 0.83754 0.52226 -0.32027 -0.075303 -0.60654 0.9264 0.37836 0.48809 0.056296 -0.30028 0.29284 0.26934 0.03152 0.017866 -0.39938 0.13774 -0.1283 -0.077498 0.42603 1.3357 -0.49586 -0.083218 0.46808 -0.021616 0.32547 -0.10073 -0.15005 -0.63786 -0.055796 0.26549 -0.066661 -0.25449 -0.34032 0.17873 -0.15563 -0.41395 -0.30188 0.2244 0.058765 -0.12069 -0.030658 -0.0025247 0.28154 0.034698 -0.079307 0.23872 -0.27711 0.41551 -0.66524 -0.0063496 0.52553 -0.36055 0.48284 0.31092 0.35751 0.58905 0.072485 -0.44496 0.6667 -0.50139 -0.032233 -0.26485 -0.12148 0.43501 0.067835 0.033766 
08449Q -0.12957 -0.75627 0.34742 -0.047328 0.38386 0.19673 0.23663 -0.52828 -0.67481 0.33522 -0.98636 0.83661 -0.12054 0.3877 -0.94654 -0.88379 0.2684 0.4342 -2.0444 -0.27141 0.16204 -0.031073 0.91424 0.041259 -0.52988 -1.1343 -0.6531 0.39786 0.018552 -0.21356 -0.21127 0.79913 0.25527 -0.29119 0.46628 -1.2492 -0.36895 -0.18387 0.046368 -0.25455 0.56709 0.7269 -0.73179 -0.011135 -0.65994 -0.89235 -0.28179 -0.13342 -0.91943 0.38094 -0.19266 0.25012 -0.85746 0.35327 -0.78869 -0.5795 -0.4309 -0.011921 -0.0609 0.16174 -0.98881 -0.93415 0.38866 0.086466 0.094736 -0.21306 -0.13095 1.1629 0.097352 -0.98208 -0.54791 1.1107 -1.3386 1.225 -0.041757 0.79483 0.010722 -0.32821 -0.72512 0.51037 -0.64979 0.02634 -0.48008 -0.48167 0.33261 -0.95055 -0.47096 -1.4853 -0.86048 -0.79844 -0.96042 -0.89311 0.55398 0.7118 0.11442 -0.061255 -0.30884 -0.087447 -0.70088 0.76582 
01978D 0.10508 -0.68547 0.22284 -0.73526 -0.0021542 0.42243 0.28776 -0.94573 -0.23442 0.31312 -0.62314 0.28888 0.29256 1.0989 0.062805 -0.4106 0.50355 0.64112 0.31537 0.17722 -0.88129 0.46325 0.044022 0.29636 0.53717 0.11353 0.041615 -0.13529 0.1928 0.066479 -1.0123 1.0439 -1.1159 -0.526 0.0079508 -1.0332 -0.71991 -0.48208 -0.12603 0.36055 -0.17524 -0.10113 0.40873 -0.064987 0.0035284 0.046986 -0.58356 0.025436 -0.56098 0.10014 -0.11105 -0.32103 0.31478 -0.12197 -0.64889 0.40741 -0.5782 0.40733 0.084694 -0.15512 -0.38196 -0.5034 0.42453 -0.23045 -0.72734 -0.28679 -0.75187 -0.23525 -0.29735 -0.82678 -0.19493 0.32852 0.17238 -0.14928 0.50914 0.41056 0.26329 -1.1795 -0.21483 0.32347 -0.041128 -0.51556 -0.48804 -0.53283 -0.063951 -0.18295 0.17004 -0.13676 0.34905 -0.30578 -0.0046378 -0.56497 -0.83399 0.055015 -0.22427 0.25413 -0.30548 0.34061 0.36896 0.0028372 
02242B 0.04474 -0.52145 0.03697 -0.86942 1.1144 -0.28064 -0.20328 -0.87856 -0.33507 -0.169 -0.12448 0.25286 0.59357 0.76983 0.1772 0.22905 -0.26022 0.20868 -0.90809 -0.85836 0.33397 0.017339 0.55926 -0.31199 -0.075656 -0.46006 -0.17683 -0.63108 0.15485 -0.089221 0.38558 0.058621 -0.21017 -0.038308 0.33477 0.39723 -0.46699 -0.15138 -0.08448 0.85723 0.60663 0.46868 -0.27448 -0.57962 0.79201 0.3966 -0.074849 0.36584 -0.36469 0.11544 -0.28777 -0.042007 1.0026 0.95866 -0.31846 0.61615 -0.12866 -0.3038 0.34699 0.42882 0.33477 -0.37498 -0.31914 0.57036 -0.21485 0.24561 0.10457 -0.174 0.086868 0.020312 0.19436 0.067456 -0.088196 -0.15588 -0.031288 -0.19149 0.079214 0.21847 -0.18618 0.29039 -0.48291 0.42733 -0.66814 0.044175 0.57437 -0.053307 0.1825 0.3655 -0.58466 0.29107 -0.17817 -0.077192 0.87593 -0.35572 0.17826 -0.098131 -0.6681 -0.32427 -0.06792 0.0079541 
08358X 0.82733 -0.032466 0.18894 -0.062071 -1.1174 -0.39285 -0.20615 0.48384 -1.3021 -1.4168 -0.32997 0.78658 0.77705 0.31032 -0.57013 -0.63297 1.1669 -0.29151 -0.78026 -0.2139 -0.5557 -0.56232 0.86107 -0.90657 0.89076 -0.35685 -0.26833 0.31427 0.85547 -0.3662 -0.58312 0.7938 -0.67851 0.26459 0.60072 -0.55529 -0.17031 0.15933 1.2327 0.29913 0.42657 0.00037764 -0.33849 -0.2719 -0.29036 1.1697 -0.17404 0.39635 -0.47599 0.018088 0.93233 -0.0080183 -0.38204 0.61377 -1.0264 -0.0093982 -1.5195 -0.82078 -0.019572 -0.40115 -0.62698 -0.16438 -0.36041 0.30249 -1.2189 -1.2144 -0.25692 0.90099 -0.15209 0.13407 -0.026229 -0.24486 -0.35962 -0.47704 0.3429 -0.196 0.20325 0.14131 -0.74925 0.70224 -0.98803 -0.18229 -0.94875 -0.7177 0.23803 0.021902 -0.91942 0.32052 0.28933 -0.013677 -0.87097 0.15398 0.11293 0.62481 0.11223 0.61411 -0.088112 0.080662 0.31332 0.087199 
08243W 1.4157 0.20269 -0.81201 0.012716 -0.54191 1.0033 0.41861 0.77178 -0.61496 0.11239 -0.64205 1.1555 0.17098 1.0524 0.29129 -0.22025 0.35054 -1.5548 -0.56056 0.74314 -0.40863 1.0843 -0.44705 -1.1543 0.023635 -0.9105 0.96777 0.44951 0.013375 -0.16632 -0.21431 1.0256 0.14714 0.16903 -0.52466 -0.59547 0.2582 -1.2395 0.61211 -0.29729 1.2596 1.7804 0.95635 0.050114 0.89449 -0.67176 -0.959 -1.2787 1.1096 -0.32745 1.6215 0.36046 -0.23614 0.69754 -0.63224 0.56139 -0.56066 1.2778 0.75877 -0.335 -0.64761 0.13056 0.78156 0.030412 -0.11886 -0.48706 -0.72885 1.7199 0.84159 -0.87308 0.98455 0.69752 -1.3642 -1.3247 -0.34097 0.022999 0.042891 0.64459 -0.94484 0.79574 -0.90231 1.431 -1.0166 -0.1626 -1.1749 0.029619 -0.40103 0.86496 -0.70942 -1.1161 -0.30449 -0.94808 -0.80422 -0.97753 -0.50222 -0.61173 -0.80994 0.11514 -0.21252 -0.8002 
08248D -0.13732 -0.35128 -0.065841 -0.087611 -0.067208 0.22268 0.28563 -0.7057 -1.0459 0.37896 -0.91512 -0.097937 0.16281 0.97777 -0.29874 -0.26164 0.43219 0.13531 -1.2758 0.26692 0.41028 0.0070844 0.66142 0.10158 -0.58522 -1.2256 -0.53516 0.15294 -0.24671 -0.077435 -0.13192 0.81876 -0.33554 -0.045127 0.81593 -0.7104 0.10402 -0.39194 0.3364 -0.38647 0.60877 -0.11496 -0.31495 0.28344 -0.4524 -0.68199 -0.44926 -0.16284 -0.34301 -0.25708 0.40838 0.61905 -0.6465 0.84634 -1.0651 -0.70174 -1.0284 0.23009 -0.42667 -0.11236 -1.0239 -0.27982 0.62247 -0.41755 -0.35255 -0.18819 0.36546 0.91753 0.072003 -0.64487 -0.77937 0.95946 -0.50017 0.45484 -0.18719 0.97211 0.25702 -0.62712 -0.04908 0.3614 -0.65448 0.46251 0.22985 0.046631 0.35564 -0.76254 -0.48858 -0.3861 -0.67802 -0.094478 -0.64878 -0.73353 0.49572 0.84498 0.29352 0.39174 -0.23744 -0.2962 -0.38554 0.29094 
02237R 0.18057 -0.76234 0.29174 -0.4399 0.71606 -0.056553 0.18059 -0.91154 0.13554 -0.10782 -0.26917 -0.18246 0.58927 1.174 -0.056858 -0.64964 -0.71676 -0.0661 -0.33281 -0.0056976 -0.0684 0.028826 0.075786 0.041191 -0.018642 -0.067352 0.22772 -0.22148 0.38311 -0.21749 0.8675 -0.23435 -0.15535 -0.10966 0.49761 -0.18383 -0.59385 -0.45131 -0.28792 0.81833 0.41841 0.59003 -0.46333 -0.025284 0.9861 0.35423 -0.093417 0.61389 -0.14674 0.12588 -0.46279 -0.3209 1.0229 0.16547 -0.33071 0.78921 -0.28561 0.15459 0.0031174 0.12228 0.26652 -0.39286 -0.2236 0.28684 -0.65486 0.24304 0.2411 -0.39828 0.63878 0.19244 -0.1422 0.1482 -0.41422 0.062189 -0.25088 -0.028935 0.16493 0.45798 -0.63417 -0.26598 -0.69143 0.086626 -0.6305 0.30393 1.0655 -0.075502 0.22594 -0.085115 -0.94568 0.186 -0.64842 -0.43114 0.5944 -0.12303 0.55669 0.052203 -0.88562 -0.2862 -0.30727 0.46902 
01946K 0.47448 0.32308 0.87105 0.60641 -0.73461 0.044581 0.083733 -0.51822 -0.86076 0.36104 -0.56462 -0.4837 0.65406 0.40819 -0.47926 0.10319 0.86044 -0.063177 -1.2671 0.031349 0.30906 -0.24779 0.94439 -0.15391 -0.0058688 -1.844 -0.31073 0.23597 0.51506 -0.35361 -0.32402 0.30241 -0.27596 -0.061921 1.2175 -1.0124 -0.21626 -0.51475 0.59337 -0.51573 0.61443 -0.60331 -0.35958 0.13436 -1.105 -0.17438 -0.42055 0.24078 -0.55682 -0.38736 -0.16078 0.21933 -0.019438 0.57908 -1.6449 -0.36573 -1.0823 -0.044192 -0.13527 -0.10291 -1.1885 -0.26944 0.67252 -0.20836 -0.77678 -0.2827 -0.29683 0.73159 -0.14154 -1.0843 -0.24482 0.35424 -0.48393 0.51369 0.30577 1.1727 0.6331 -0.16767 -0.13888 0.91896 -0.45896 -0.28377 0.71697 -0.21057 0.66746 -1.4384 -0.17779 -0.29233 -0.39055 0.25224 -0.65994 -0.88071 0.95516 0.29642 0.41989 -0.0056083 -0.6122 0.13385 0.23419 0.48652 
01889K -0.10806 0.34758 0.74047 0.039462 0.38923 0.25124 -0.12713 -0.84744 0.62786 0.8362 0.25074 -0.30164 0.70446 -0.53775 -0.73564 0.28815 -0.10572 0.10749 0.061805 -0.34875 0.41707 0.21946 0.46267 -0.042141 -0.16036 0.9777 -0.51146 -0.26059 -0.10868 0.080844 0.43071 0.35383 0.066915 -0.0132 -0.30288 -0.27882 -0.58763 0.22826 -0.26219 0.28022 0.33048 0.069184 -0.066933 -0.057864 0.85896 -0.11098 -0.13531 -0.035559 -0.17564 0.4122 -0.017094 -0.43655 -0.59733 -0.034541 -0.35576 -0.15752 -0.47935 0.39956 -0.24636 0.54661 -0.057528 -0.53759 0.50576 0.34618 -0.047093 0.25089 0.15931 -0.10995 -0.44005 -0.12286 0.37251 -0.25778 0.60214 -0.044245 -0.19291 0.3446 -0.69588 -0.37056 0.19354 0.41032 0.39272 -0.54156 0.086686 -0.61737 -0.017653 -0.14074 0.31402 0.41302 0.064644 -0.13037 -0.010026 0.042622 0.49333 0.39585 0.23063 0.061111 -0.19079 -0.73091 -0.56312 -0.18271 
03133X -0.21052 0.018353 0.43012 -0.48586 0.95588 0.92489 -0.55952 -0.90681 -0.65168 0.053587 1.014 0.19273 0.22034 -0.36985 0.2731 -0.1333 0.010633 -0.60547 0.28055 0.085612 0.18809 0.37605 0.1681 0.17188 0.92263 0.34395 -0.43257 -0.07696 0.10929 -0.73886 0.62629 0.27424 -0.93695 -0.40897 0.16677 -0.67091 -0.74301 -0.50266 -0.83928 0.1554 -0.095137 -0.10037 -0.51054 0.47874 0.51179 1.1667 -1.0867 -1.0495 -0.64818 0.84064 -0.011582 -0.54024 0.11154 0.36564 0.23377 1.015 -0.5807 0.16656 0.42613 0.36435 0.079426 -0.17614 0.73591 -0.15772 0.27441 -0.39566 0.62568 -0.21244 -0.13519 0.025205 -0.16974 0.1217 0.93676 -0.40261 0.067125 0.09998 -0.43857 0.29459 -0.42762 0.49474 -0.090577 -0.49903 -0.62892 -0.67576 0.25968 -0.93021 0.17786 0.89642 -0.42553 -0.70205 -0.40515 0.6991 -0.29717 0.52473 -0.559 0.11648 -0.087154 -0.2024 -0.48287 0.57896 
02412Y 0.51279 -0.95319 1.2712 0.76386 -1.6511 0.89758 0.33072 -0.47447 -0.88169 -0.58304 -0.75008 1.2766 1.7031 0.21835 -0.21386 -0.20672 0.13873 -0.19963 0.67114 0.072225 0.54959 0.18251 1.5607 1.0585 0.46239 0.76393 -0.14917 -0.30539 1.7387 -0.32141 -0.95846 0.69653 -0.74911 -0.72924 0.79974 -0.87803 0.39313 0.034578 0.97869 0.88304 -0.38458 -0.93607 0.36571 0.43751 -0.3454 0.625 -0.1276 -0.020609 -0.16717 1.1056 -0.55305 0.32974 -0.74808 -0.30066 -0.90775 0.092746 -0.72526 0.37843 0.52101 -0.059702 -0.37019 -0.61622 -0.9489 -0.014056 -0.58067 -0.84404 -0.92542 0.5059 -0.58651 -0.80733 -0.26652 -0.69574 -1.5107 -0.97201 1.2341 0.22078 -0.67566 0.032222 -1.2082 0.35668 0.050373 -0.072386 -1.5497 -0.69669 0.63956 -0.62112 1.2025 -0.048123 -0.2005 0.23778 -0.4897 -0.25952 -0.21228 0.88999 -0.85569 0.6555 -0.16343 0.57557 0.21713 0.38999 
08197K 0.2314 -0.42449 0.78264 0.16031 -0.4536 -0.28438 0.52267 0.33228 -0.40671 0.011232 -0.72864 0.7269 0.21549 -0.8125 -0.81584 -0.61964 1.0396 -0.44685 -0.51177 -0.15571 0.15533 0.33629 0.76361 0.40635 1.0789 -0.32674 0.2847 -0.13633 -0.051108 -0.61997 -0.47512 0.24143 -0.33064 0.66541 0.15479 1.0222 -0.32429 -1.3439 0.37168 -0.13832 0.5187 -1.3976 -0.88727 0.33887 0.41751 0.17281 0.18154 0.1799 0.49136 0.88146 0.78269 -0.23561 0.023709 0.58464 -1.2937 0.11585 -0.86652 0.32928 0.30714 -0.64946 0.4711 -0.7971 -0.27157 0.17964 -0.7142 -0.33135 -0.20655 1.2256 -0.31166 -1.3109 -0.96884 0.10469 -0.84847 -0.33593 0.46963 -0.21792 -0.60819 -0.91768 -0.59965 0.064102 -0.25866 1.2806 -1.0511 0.26393 0.4314 0.054013 -1.2009 -0.27537 0.19857 -0.02337 -0.091368 -0.2669 -0.14128 0.73982 -0.44318 -0.34188 -0.12008 0.54984 1.0836 -0.48157 
08600P 0.66142 -0.5497 -0.34553 -0.18388 -0.21278 0.61919 -0.18394 -0.0093429 -0.37078 0.032892 0.35495 0.12522 -0.31662 1.0638 -0.001043 0.058075 0.16963 0.38055 -0.44692 -0.20577 -0.28561 0.96899 0.075889 -0.48484 0.32386 -0.042467 -0.081131 0.32633 0.2682 0.18103 -0.46197 0.13101 -0.17292 0.17129 0.1583 -0.31724 -0.66731 -0.56428 0.11256 -0.26894 -0.4727 0.42738 -0.40427 0.4283 0.36679 0.75025 -0.4674 0.19596 -0.8544 -0.31591 -0.50818 -0.33886 -0.48802 0.026391 -0.5258 0.20904 -0.34008 0.047077 0.26066 0.17919 -0.6601 -0.099991 0.11026 -0.21793 -0.91463 0.053506 0.00019738 0.10491 -0.25426 -0.74376 0.10724 0.094225 0.18048 -0.079987 -0.10568 -0.19607 -0.43839 -1.4249 -0.19676 0.085903 -0.24868 -0.2857 -0.12912 0.01558 0.015053 -0.42414 0.22785 0.15211 0.14557 -0.4528 0.32833 -0.2138 -0.20498 0.43288 0.2163 0.65058 0.35734 0.21846 0.48412 -0.2098 
02011W -0.24033 0.032104 0.67586 -0.42218 -0.11217 -0.45334 0.30126 -0.053697 -0.58211 -0.38673 -0.65061 0.60059 0.33873 -0.1391 -0.69924 -0.123 0.58565 -0.020222 -0.26499 -0.70636 0.5492 0.58465 0.13543 0.53684 0.47314 0.10346 -0.211 -0.40363 -0.23787 -0.53469 -1.0827 0.51133 -0.27327 -0.0081782 0.062375 0.60899 -0.38414 -1.0157 -0.061332 -0.070802 -0.0024224 -0.75617 -0.37974 -0.024071 0.71555 -0.2022 -0.38576 -0.01859 0.56258 0.8474 0.60265 0.0051035 -0.25344 0.6813 -1.0072 0.27634 -1.0915 0.81574 -0.92705 -0.1884 0.65658 -0.2261 0.1953 0.054687 -0.2957 -0.08083 -0.26196 1.282 -0.44313 -0.99604 -0.99236 0.21462 -0.92362 -1.0318 0.88145 -0.2278 -0.44689 -0.854 -0.05709 0.24042 -0.71222 1.042 -1.0616 0.081395 0.49056 0.36532 -1.1859 -0.45158 0.3551 -0.46192 0.21555 -0.68912 -0.1265 0.58144 -0.62346 -0.77532 -0.10758 0.40905 1.0297 -0.42485 
08254K 0.12146 -0.21817 0.38135 -0.025147 0.13064 0.16033 -0.26076 -0.49105 0.41454 0.41893 0.51203 -0.32776 0.67965 -0.63638 -0.42186 0.31937 0.32942 -0.07552 0.2915 0.052161 0.49642 0.28185 0.46231 -0.14397 -0.17154 0.4654 -0.34558 -0.40826 -0.012858 0.22401 0.47863 0.25951 0.32103 0.36381 -0.0090331 -0.44572 -0.41379 -0.076282 -0.52806 0.20798 0.32586 0.078355 -0.28357 -0.15792 1.0376 -0.014282 -0.3035 -0.072835 -0.24232 0.32583 -0.40364 -0.60368 -0.67114 -0.4677 -0.81035 -0.14608 -0.067138 0.42139 -0.32395 0.75447 -0.43374 -0.60457 0.38871 0.30847 0.0021589 0.32793 0.076911 0.021881 -0.79629 0.41984 0.63693 0.024987 0.77895 0.28563 -0.2709 0.16858 -0.70041 -0.51377 0.14438 0.12892 0.51481 -0.23901 0.025648 -0.24666 0.24131 0.11178 0.63544 0.83616 -0.35012 0.021767 -0.22553 0.026993 0.25929 0.48515 0.24334 0.64788 -0.4129 -0.58029 -0.69916 -0.20954 
08471W 0.32378 -0.33014 0.0010017 0.12236 0.43482 0.57151 0.077675 0.16777 -0.91499 -0.057661 0.44309 0.26802 0.11029 0.39425 -0.21833 -0.24981 0.1973 -0.22913 -0.43564 -0.35633 0.3096 0.75467 -0.18402 -0.33359 0.12131 0.12391 -0.74736 -0.47134 0.41021 -0.53847 -0.25712 0.034105 -0.3863 0.077881 0.60133 -0.091761 -0.053217 -0.25877 0.082916 0.090315 -0.028289 0.13313 -0.51263 0.27498 -0.19135 0.23894 -0.81774 -0.23067 -0.1408 -0.2766 0.18386 -0.14411 -0.29316 0.52717 -0.48071 0.34734 -0.46539 0.0014715 -0.70422 0.0021207 0.19322 0.48415 -0.32092 0.29022 -0.86655 -0.44897 -0.30792 0.57256 -0.30525 0.0045906 -0.49442 0.71526 0.19895 -0.47355 0.2596 0.069582 0.21959 0.47697 -0.68479 0.218 -0.40473 -0.19831 -0.21215 -0.4332 0.19018 0.22459 -0.43532 0.42026 0.00097769 -0.5435 0.46423 -0.31261 0.45929 0.63716 0.10899 0.059447 -0.0042039 -0.1799 -0.030633 0.12998 
02751T 0.28064 0.38397 -0.25114 0.26995 -1.0973 0.070987 0.15975 0.38553 -0.19314 -0.25938 -0.62604 0.8016 0.71148 0.86881 0.18526 -0.64765 1.017 -0.30932 -0.51484 -0.4928 -0.46373 0.31706 0.30948 -0.17593 -0.35739 -0.52369 -0.46663 -0.61603 0.24751 0.35975 -0.13491 0.91701 -0.79364 0.361 -0.1095 0.268 -0.32446 0.12428 0.084835 0.21863 0.46398 -0.30787 0.65684 -0.066892 -0.043848 -0.014221 -0.71319 -0.11132 -0.90234 0.19276 0.18518 -0.99749 -0.18138 1.0069 -0.84498 -0.28999 -0.68737 -0.034037 1.0873 -0.59408 0.27817 -0.64808 0.19919 1.3451 -1.0032 -0.79131 -0.77806 0.013861 -0.0087702 0.26288 -0.23955 0.021044 -0.018726 -1.0454 0.93523 -0.00018241 0.45436 -0.60362 -1.4482 0.32443 -0.39935 -0.028478 -0.24291 0.047805 0.34543 -0.26649 -0.16997 0.10773 0.32311 -0.6311 0.45593 -0.81715 0.3969 1.2399 0.2093 -0.51321 -0.34976 0.34415 0.34826 -0.81902 
08202Q 0.33402 0.18797 0.29882 -0.45838 -0.90598 0.14912 -0.04369 -0.4518 -1.157 -0.69111 -0.55272 0.40489 0.90535 0.54349 -0.3021 0.027717 0.806 0.35693 -0.39076 -0.31816 -0.18096 -0.34348 0.47228 -0.082121 0.86539 0.10997 -0.095188 -0.2979 -0.066101 -0.15793 -0.51588 0.79448 -0.66787 0.10313 0.39242 -0.84751 -0.47235 0.53606 0.87606 -0.016278 0.26188 0.24699 0.20483 -0.11966 -0.22184 0.56483 -0.38861 0.30296 -0.25983 -0.097777 0.47017 -0.078471 -0.33776 0.68195 -0.94369 -0.096053 -1.0894 -0.33257 0.14358 -0.11256 -0.28441 0.13232 0.045855 0.43374 -1.3836 -0.54174 -0.6734 0.66379 -0.26837 -0.26823 -0.33498 -0.070982 -0.091161 -0.56385 0.55663 -0.10142 0.22991 -0.053285 -0.34253 0.70815 -0.8516 0.26377 -0.81056 -0.47735 -0.19512 -0.14904 -0.97947 -0.37195 0.75749 -0.17676 -0.35919 -0.21878 -0.080227 0.80342 0.055218 0.11904 -0.30964 0.31408 0.059239 0.22649 
08432T 0.81102 -1.4204 0.9208 -0.43813 -0.47206 -0.77465 -0.37658 -0.16143 0.35544 0.77848 -0.27616 -0.27046 0.89311 0.040255 -0.62192 -0.20923 0.56496 -1.327 0.034997 1.3392 0.23079 0.99435 0.076918 -0.043344 -0.74923 0.44193 -0.5185 -0.60071 0.31064 -0.22113 -0.25796 0.97491 -0.090606 1.9392 0.77057 -0.56122 -0.90219 -0.13765 -0.40122 -0.094309 0.62444 0.84758 -0.59785 -0.21757 0.56507 0.2825 -0.79921 0.032483 -0.39784 0.63465 -0.088649 0.84713 -0.28033 0.47709 -1.2561 0.68287 1.0429 0.16051 -1.2398 0.98535 -0.72954 0.03476 -0.73679 0.34102 0.66566 0.07006 0.54143 -0.13382 -1.2302 1.0081 0.16774 0.40868 0.21165 0.4098 0.15429 -0.090122 -0.8686 -1.125 -0.63217 0.37184 0.29238 0.091484 -0.089663 -0.20959 -0.31131 0.28373 1.123 0.51825 0.057689 0.76914 -0.011705 0.58303 -0.29975 0.60422 0.63995 0.80235 -1.2919 0.2641 -0.085654 -1.083 
02752W 0.21466 0.52804 -0.15271 0.13311 -1.1455 -0.2647 0.030909 0.27021 -0.27586 -0.21963 -1.1836 1.2255 0.41329 1.3722 0.63445 -0.39486 0.72225 0.085453 -0.88174 -0.27392 -0.24835 0.64811 0.032702 0.11636 -0.36591 -0.39279 -0.48804 -0.6815 -0.45172 0.76545 0.30945 0.63328 -0.50156 0.33927 -0.48292 0.56662 -0.52283 0.010639 0.92645 0.41243 0.52793 0.029091 0.29215 -0.087686 0.098916 -0.011894 -0.5693 0.2501 -0.67128 0.32933 0.41318 -0.83214 -0.073251 1.1709 -0.98193 -0.68539 -0.56793 -0.43829 0.76265 -0.017211 -0.060696 -1.0945 -0.0014648 1.6584 -0.31091 -1.0395 -0.60905 0.49938 -0.20911 0.23604 0.1649 0.30648 -0.35746 -0.37405 0.31353 -0.29627 1.0146 -0.75827 -1.2827 0.44699 -0.18269 0.004828 0.10835 0.035214 0.61134 -0.053676 -0.39769 -0.16625 0.22313 -0.69653 0.57056 -0.48682 0.53251 0.96103 0.28869 -0.72822 -0.46619 0.88042 0.011811 -1.1962 
01558B 0.72639 -0.36751 0.85424 0.85534 0.11615 0.67009 0.25479 -0.59259 -1.0012 -0.031315 -1.6929 1.2301 0.56373 0.065738 -0.65127 -0.60555 1.2023 -0.15563 -0.72725 -0.30651 0.099978 -1.0793 0.45945 -0.075227 1.5116 0.012979 -0.032215 -0.27719 0.85801 -0.44773 -0.71267 1.4133 -1.2643 0.61247 0.75869 -1.0173 -0.16067 -0.14051 1.8158 0.49014 0.18093 -0.91764 0.77592 0.025576 -0.41265 0.8643 -0.5981 -0.35298 -0.25299 0.030046 0.43002 0.68169 0.17243 0.21426 -1.4701 0.50583 -0.26138 -0.26508 -0.30101 0.42359 -0.78487 0.31163 0.24605 0.56919 -1.0205 -1.6154 -0.16459 0.55003 0.033216 0.044771 -0.61848 -0.1673 -0.54267 -0.34472 1.28 0.50918 -0.10808 -0.90358 -1.1041 0.57178 0.14274 0.1006 -0.98101 0.065153 0.43334 -0.61585 -0.69858 0.6952 -0.14528 -0.28373 -0.2178 -1.2593 0.37107 0.34448 -0.22487 0.38247 -0.3254 0.44678 0.1763 0.63011 
02241Y 0.66992 -0.90407 -0.3015 -0.81801 0.20885 0.47412 -0.13652 -0.23773 -0.72461 0.099081 -0.394 0.30758 -0.20217 1.1922 -0.062947 -0.10525 -0.023237 0.39404 -0.22529 -0.069182 -1.1191 0.73569 0.37289 0.38243 0.37881 -0.09944 -0.26467 0.29464 0.42487 -0.010008 -0.43631 0.83277 -0.75167 -0.11276 0.35623 -0.55612 -0.66963 -0.76664 -0.042876 -0.2339 -0.51373 0.13118 -0.028931 0.26056 0.30624 0.17417 -0.67266 -0.21149 -0.98919 -0.11944 -0.36975 -0.66918 0.07513 0.024112 -0.31243 0.39099 -0.31551 0.029468 0.36209 -0.078156 -0.49919 -0.28132 0.28396 -0.1193 -0.61089 -0.073376 0.086817 0.029859 -0.45617 -0.41164 -0.16192 0.49975 0.14133 0.36003 -0.10792 0.27267 0.30488 -1.352 -0.34967 0.18743 0.27636 -0.13934 0.28401 -0.68114 -0.1302 -0.20828 -0.031931 0.65948 -0.15704 -0.32748 0.11259 -0.46469 -0.59619 0.11953 0.059496 0.2684 0.32446 0.66185 0.39587 -0.54707 
02449X -0.43246 -0.046302 0.57983 0.17861 -1.2353 0.36404 -0.60771 -1.1631 -0.1208 0.34634 -2.3087 -0.14055 0.416 0.24182 -0.83732 -0.28997 1.0473 0.53088 -1.7975 0.63692 -0.2173 -0.30213 0.90718 -0.74289 0.043688 -0.37121 -0.83575 -0.70277 -0.58513 1.3217 0.7667 0.38937 0.42953 -0.77441 0.55155 0.17182 -0.052823 0.6636 0.71161 0.11658 -0.21267 -0.26944 0.13994 -0.25012 -0.64668 0.0051284 -0.47307 -0.43554 -0.13258 0.38625 0.2043 -0.50568 0.47858 -0.37384 -2.1073 0.57028 -0.53425 -1.5249 0.14347 0.86638 -0.040061 -1.1976 -0.89443 0.54318 -0.025849 -0.53855 -1.4511 0.92538 -0.56546 -0.18586 -0.84907 0.089902 -1.3783 -1.0691 -0.46713 0.89029 0.84983 -0.79024 -0.1104 0.10407 -1.5666 1.8777 -0.79884 -0.52917 -0.64721 -0.61752 -0.63572 -0.23865 0.30974 -1.2668 1.028 -0.78069 -1.1263 0.95984 0.17188 -0.70868 -0.034158 0.067506 0.8161 0.30737 
01300K 0.16389 -0.46381 0.43125 -0.22368 0.91122 0.38845 -0.27406 -0.59956 -0.5482 0.36936 0.050798 0.095498 -0.073028 0.12812 -0.23531 -0.22348 0.0098689 0.12021 -0.22058 -0.40596 0.015153 0.56771 0.085159 -0.033311 -0.082523 -0.021799 -0.66412 -0.45624 -0.16935 -0.041307 -0.46983 -0.41841 -0.27757 0.146 -0.19916 -0.7145 -0.20004 -0.020439 0.25843 0.60958 -0.23689 -0.43996 -0.16892 0.22946 0.46116 -0.2876 -0.97688 -0.069763 -0.0039849 0.44311 0.17518 -0.72181 -0.31511 0.59246 0.050513 0.16013 -0.47149 -0.16459 -0.80907 0.18896 -0.17723 0.33949 -0.47877 0.83686 -0.38431 0.024358 -0.33505 0.50942 -0.44078 0.12179 -0.44737 0.95801 0.29191 -0.22037 -0.29275 0.56244 0.56216 0.56978 -0.91013 0.41291 -0.45818 -0.64494 0.31052 0.090482 -0.13082 0.068339 -0.41852 0.0054872 -0.14341 -0.60305 0.66396 0.25097 -0.11427 0.6383 0.29859 -0.34951 -0.088995 0.19692 -0.022425 0.37497 
08470T 0.18823 0.032005 0.5617 0.11506 -0.66993 -0.25395 0.74101 -0.50739 -1.2557 -0.059214 -1.0267 -0.33043 0.078691 0.33988 -0.33246 -0.16771 0.8971 0.50961 -1.7482 0.38791 -0.27831 -0.79711 0.34029 0.3281 -0.42074 -1.9305 -0.035203 0.46062 0.06266 -0.5469 -0.022533 0.12444 -0.31942 0.56615 0.92033 -1.0176 -0.027921 -0.30705 0.88685 -0.7147 0.26633 -0.52639 -0.42109 -0.0072288 -0.65704 -0.21189 -0.044453 0.12873 -0.45165 -0.40355 -0.18005 0.47928 -0.28115 0.68481 -1.3292 -0.3234 -1.471 -0.14147 -0.40324 -0.048332 -1.1731 -0.51592 0.13882 -0.020191 -1.1403 -0.39117 -0.0030406 1.1791 0.41077 -1.0151 -0.29687 0.60322 -0.57448 1.2985 -0.66379 1.1828 0.47313 -0.53463 -0.40675 0.95987 -0.69935 0.31329 0.41252 0.17072 1.0286 -1.769 -0.64877 -0.035155 -0.57359 -0.31549 -0.30244 -0.61414 0.68624 0.72795 0.6389 -0.15913 -0.67414 -0.17671 -0.55114 0.53162 
08302Y 0.22918 -0.55588 -0.58478 -0.77701 0.743 -1.3793 0.13849 -1.4663 0.038118 -0.79337 1.1943 0.71339 -0.051704 0.77181 0.53352 0.12258 -0.31259 -0.15594 -1.5698 -0.75747 0.080238 0.62233 1.7523 0.49006 0.076011 -0.3482 0.60317 0.59807 0.89515 -0.76965 1.1791 -0.47633 -0.10987 -0.59549 0.10653 0.46749 -0.44745 0.15119 0.59731 0.89956 0.099634 0.34719 -1.0133 -0.64237 1.1613 1.2033 -0.28971 0.24931 -0.7188 0.80874 -1.2902 -0.16625 0.98208 0.64227 -0.22253 0.39837 0.68045 0.13707 0.76332 -0.45142 -0.038674 -0.49882 -0.82488 0.60171 -0.25348 0.78657 0.1966 -0.51378 -0.39613 -0.42573 0.41507 0.34385 0.62407 0.3984 -1.1854 0.16944 0.031114 0.74538 0.26314 -0.60743 -0.84034 0.96041 0.00298 0.55521 1.3736 -0.53937 -0.29905 -0.044323 -1.2317 0.4967 0.63356 0.21694 0.22626 -0.014752 0.072779 -0.26252 -0.90416 -1.057 -0.11581 0.18853 
08601Q 0.45918 -0.2235 -0.17198 -0.011005 0.19809 0.021536 0.1271 0.14845 -0.69034 -0.025181 0.57112 -0.1457 0.21784 0.52399 0.3499 0.017155 -0.25435 0.17745 -0.36983 0.18756 -0.17415 0.57691 0.31268 -0.14636 0.57011 0.21426 -0.13882 -0.23396 0.093186 -0.096182 0.3172 0.077343 -0.12397 0.16104 0.45636 -0.14365 -0.61755 -0.6495 -0.34873 0.053054 -0.25394 0.56358 -0.74055 0.013002 0.16792 0.15382 -0.13323 -0.14847 -0.45193 0.35324 -0.21225 -0.62216 -0.30567 0.17332 -0.20998 0.084967 -0.2193 -0.010812 -0.039159 -0.12782 -0.61335 0.0077321 0.55351 0.08808 -0.88937 0.27599 0.18925 0.032468 -0.10273 -0.11799 0.0059699 -0.54053 0.17766 -0.028574 -0.25088 -0.25858 -0.40647 -1.2754 -0.31118 0.11316 0.17541 -0.26055 -0.2602 -0.44529 0.065545 -0.41767 0.046435 1.0003 -0.4013 -0.8308 -0.32963 0.29027 0.56451 0.082961 0.17029 0.36313 0.10901 -0.060665 -0.075456 0.48594 
08404H -0.42205 -0.23945 -0.54958 -0.062303 0.42331 0.22428 0.12018 0.0098107 -0.8027 0.24124 -0.099406 0.39165 0.38662 0.61252 -0.70032 -0.42299 -0.32044 0.15604 -1.4773 -0.41422 0.49651 0.086778 0.36469 -0.43919 -0.40398 -1.0908 -0.30795 -0.15626 -0.12985 0.13317 -0.19166 0.80388 0.15021 -0.10349 0.43726 -0.98454 0.1096 -0.4615 -0.33373 0.071475 0.35529 0.5166 -0.34671 0.49498 -0.21283 -0.49826 -0.37812 -0.61417 -0.96852 0.067736 -0.45266 0.31225 -0.54431 0.81741 -0.84019 -0.18286 -0.61925 0.66996 -0.56092 0.077834 -0.59486 0.25038 0.87363 0.082636 -0.23618 -0.09783 0.15219 0.51103 0.25991 -0.5663 -0.19379 0.77726 -0.59971 0.79085 -0.0084359 0.62565 0.013352 -0.31327 -0.76045 0.48899 -0.74419 -0.54491 0.11647 0.018506 0.095488 -0.91367 -0.28471 -0.64074 -0.81212 -0.2242 -0.66617 -0.74651 0.52773 0.48996 0.24002 0.11678 -0.46715 0.0062227 -0.10757 0.32511 
02834E 0.11044 -0.46454 0.56633 -0.2454 -0.34772 -0.17868 0.69785 -0.032619 -0.48937 -0.34671 -0.7728 0.85479 0.41336 -0.47679 -0.67144 -0.42296 0.61307 -0.29988 -0.60137 0.10039 0.037985 0.53543 0.64068 0.7321 0.62877 -0.33377 -0.33075 -0.12435 -0.19253 -0.5853 -0.67727 0.5548 -0.45806 0.12005 0.1385 0.72695 -0.093383 -1.0063 0.42544 0.059196 -0.08369 -0.99916 -0.34798 0.18116 0.80114 -0.024981 -0.24288 0.078978 0.29948 0.25335 0.31012 0.074235 -0.15526 0.36112 -1.0183 0.20351 -0.80065 0.24143 -0.53211 -0.12967 0.42183 -0.51782 0.040481 0.42911 -0.61641 -0.46815 -0.23715 1.0127 -0.087006 -1.1268 -0.85696 0.074645 -0.77786 -0.66343 0.43912 -0.18835 -0.51845 -0.95373 -0.18877 -0.022021 -0.54932 0.82419 -0.5077 -0.13121 0.53979 0.012714 -1.3761 -0.13084 -0.027364 0.10864 -0.088442 -0.25512 -0.092066 0.60768 -0.51885 -0.49833 -0.17715 0.15905 0.9131 -0.7992 
03050M 0.16694 -0.30439 0.51384 0.74902 -0.49177 0.17053 0.36253 -0.68825 -0.47802 -0.039218 -0.28604 0.561 0.68154 0.11274 -0.32907 -0.58555 0.94525 -0.3153 -1.3226 0.51204 0.34476 0.15888 0.97856 0.34288 -0.13897 -0.87676 -0.10975 -0.37607 0.60141 -0.0054386 -0.3797 0.62335 -0.40661 -0.52736 1.6214 -1.2951 -0.66375 0.093172 -0.041251 -0.46622 0.82811 -0.16082 0.11266 0.35246 -0.048871 -0.60545 -0.78934 -0.39977 -0.95701 -0.44548 -0.0041879 0.10123 -0.13137 0.86944 -1.0242 -0.23083 -0.59877 0.37639 -0.10045 -0.053936 -0.57288 -0.19887 0.987 -0.052109 -1.1051 -0.32781 -0.36847 -0.11642 0.34233 -0.17063 -0.18462 0.69635 -0.35761 0.37545 0.23619 0.91223 0.038384 -0.16511 -0.48006 0.3654 -0.56548 0.75724 0.26413 0.0051621 0.61405 -0.9839 0.25731 -0.46427 -0.26913 0.15447 -0.76553 -1.215 0.90788 0.59655 -0.33148 0.1607 -0.0091134 -0.47576 -0.83992 0.70181 
02367N 0.39696 0.91946 0.25708 0.20316 -0.68581 0.44954 0.32203 0.026508 -0.56054 0.38405 -1.1576 0.91235 0.42201 1.6179 0.77149 -0.76071 0.17988 0.0071655 -0.90237 0.031399 -0.45088 1.0108 0.23007 0.50618 -0.40023 -0.22092 -0.70896 -0.54747 -0.011524 0.51298 0.059291 0.67324 -0.31292 0.15801 -0.57518 -0.070245 -0.53896 -0.056326 0.31274 0.47333 -0.2765 -0.40396 0.86466 -0.56786 -0.71508 -0.15303 -0.34106 -0.017185 -0.67628 0.54082 0.64248 -0.57598 0.11706 0.94354 -0.65774 0.21557 -0.92489 -0.090839 0.33916 0.16693 0.59175 -0.96187 0.24381 1.9141 0.066092 -0.17348 -0.18734 0.40374 0.14972 0.30173 -0.0041603 0.3134 -0.2085 -0.202 0.29115 0.17195 1.0741 -0.49906 -0.90096 0.61482 -0.60124 0.26053 0.089556 0.14859 0.41268 0.33118 -0.18203 -0.3714 0.20436 -0.9286 1.0614 -1.0266 0.28466 0.64054 0.49327 -1.621 -0.61271 0.74541 0.050792 -0.9257 
03117C -0.07844 -0.27391 0.27001 -0.25508 0.63 0.52424 0.39872 -0.34378 -0.74695 0.15493 0.33286 0.0029103 0.80249 0.40394 -0.29531 -0.13206 0.20631 0.55337 0.12211 -0.19534 -0.072295 0.93723 -0.26386 -0.79788 -0.1151 0.59049 -0.65928 -0.38812 0.53504 -0.36579 -0.75776 0.58822 -0.65504 -0.10225 0.58551 -0.34356 -0.084229 -0.46446 -0.06697 -0.87254 0.35182 0.65189 -0.0049025 -0.13753 -0.69027 0.08896 -0.78642 -0.73491 -0.39679 -0.69629 -0.63634 0.46703 -0.28434 1.076 -0.69348 0.3107 -0.58531 0.42535 -0.34645 -0.66599 0.15724 0.51477 -0.18417 0.6118 -0.49295 0.041222 -0.05329 0.054682 0.1843 -0.227 -0.46654 -0.12879 0.23968 -0.83868 0.43051 0.13741 0.080699 -0.64259 0.0086551 0.066801 -0.13805 -0.049344 -0.26031 0.21027 0.29447 0.4576 0.15367 -0.11934 -0.061312 -0.23897 0.53184 -0.50073 0.62581 0.25983 -0.74712 0.26118 0.06865 0.13864 0.42154 0.2975 
01434L 0.2378 -0.41694 0.026827 -0.3608 1.177 -0.42413 -0.17738 -0.83678 0.10757 -0.22759 -0.27754 -0.096625 0.37211 0.77699 0.21647 0.12192 -0.50543 0.084883 -0.57024 -0.95561 0.21879 0.23414 0.28574 -0.85722 0.23739 -0.098661 0.13695 -0.5622 -0.12482 -0.51001 0.16156 -0.035581 -0.12757 0.081588 -0.11595 0.20141 0.23046 -0.42476 -0.79609 1.1766 -0.12894 0.63605 -0.38395 -0.20212 0.76924 0.17417 -0.10339 0.57428 -0.4153 -0.026874 -0.12908 -0.2767 0.74025 0.95011 0.39746 0.29207 0.15784 -0.042131 0.21614 0.42428 -0.12401 -0.73096 -0.40283 0.12647 -0.41083 -0.091681 0.42148 -0.41303 -0.08209 -0.24194 -0.21649 0.321 0.19155 0.14422 -0.048213 0.10241 0.33386 0.31467 -0.16943 -0.056716 -0.18536 0.65887 -0.1105 0.52131 0.49594 -0.80001 -0.0076382 0.13518 -1.0798 0.29739 0.087976 0.14468 0.68359 -0.33746 0.20847 0.082939 -0.95275 0.32992 -0.34481 0.3672 
01241H 0.12992 0.47625 -0.22343 0.18139 -0.74555 -0.28173 0.032134 0.38534 -0.6909 0.22437 -0.51826 0.63422 1.2005 1.439 0.63851 0.55077 1.131 -0.33652 0.20148 0.291 0.0071858 0.91695 -0.49306 0.44908 -1.2128 0.34069 -0.7545 -0.69479 -0.076985 0.71777 -0.30765 0.68813 -0.33225 0.42786 -0.071673 -0.12224 0.22571 0.28315 -0.21647 0.00062455 0.21064 -0.22591 0.074185 0.35513 0.43288 -0.14946 -0.6327 0.23283 -0.76344 0.35802 -0.29038 -0.57459 -0.0067199 0.54539 -0.63204 0.30057 -0.29239 0.17775 0.67181 0.18314 0.083951 -0.38616 0.3219 1.0601 -0.19845 -0.76298 -0.58553 0.31586 -0.1105 0.48635 -0.52871 0.53454 -0.18561 -1.2519 0.69492 -0.032729 0.80331 -0.58029 -1.2664 0.9951 -0.79679 -0.051605 -0.079626 0.10714 0.44871 0.2235 -0.34433 0.38073 0.33728 -0.63032 0.63713 -0.96591 0.42078 0.88551 -0.02666 -1.1927 -1.0464 0.61953 0.32529 -1.2972 
01369C -0.29727 0.74858 -0.093885 0.079241 0.16838 0.79909 -0.59701 -0.92856 -0.59733 0.10349 -1.2318 -0.32996 0.52495 1.6466 -0.085746 -0.095301 0.3695 -0.11499 -0.73219 0.17668 0.56381 -0.30961 0.37639 -0.1294 -1.497 -0.86265 -0.57411 -0.57708 0.16924 0.037594 -1.4581 0.48463 -0.30525 -0.39021 0.49028 -0.98681 -0.82516 -0.57894 0.30761 -0.10833 0.27065 -0.50726 -0.31724 0.24303 -0.65482 -0.93781 -0.89714 -0.66743 -0.16151 -0.1875 -0.078918 0.55789 -0.48452 0.91705 -1.6865 -0.16273 -1.2218 0.17691 -0.73029 0.67132 -0.86755 -0.89774 0.71522 -1.3753 -0.56441 0.076592 -0.11692 0.93735 -0.027066 -0.56892 -0.93028 0.81889 -0.74959 1.1061 -0.67964 0.86741 0.59877 -0.034669 0.52841 1.2825 0.01078 0.3795 0.17145 0.45626 0.87811 -1.029 -1.2087 0.044109 -0.68546 -0.054321 -0.5109 -0.77254 0.49038 0.25525 -0.17421 0.27306 -0.26492 -0.0097979 -0.11008 0.70223 
08301X 0.46327 -0.12142 -0.13587 -1.5521 0.49456 -0.21551 -0.25756 0.010273 -0.72554 0.033166 0.69697 0.34808 -0.60117 -0.092168 -0.06296 -0.76122 0.0024317 -0.37668 -1.1689 -1.0966 -0.18423 0.77649 0.61789 -0.20834 0.22507 -0.70254 0.4744 -0.16618 -0.53526 -0.52026 1.6858 -0.25797 -0.068606 -0.26245 0.40287 0.15133 0.41772 0.030261 -0.26421 0.9942 -0.0035376 0.61675 -0.078007 -0.15394 0.36459 0.80911 -0.1585 -0.2606 0.018325 0.12814 -0.4657 -1.3664 1.1782 1.363 -0.8776 0.53849 0.75356 -0.4377 0.27491 0.32416 -0.73388 -0.39735 -0.27364 -0.13256 0.097721 0.46833 0.0744 -1.1387 0.19772 -0.05229 0.29198 -0.45735 -0.22894 0.049105 0.024414 0.00040959 0.41142 0.59495 -0.5738 -0.24027 0.17167 0.82556 -0.35615 -0.26483 0.70321 0.26156 -0.41592 0.36207 -1.5837 0.64065 -0.43588 -0.45343 0.39104 -0.12571 0.047327 0.8326 -1.081 0.55344 0.0094355 0.28565 
01509K 0.68644 0.12623 -0.74584 -0.086594 0.60794 0.57213 0.34315 -0.29869 0.11038 -0.66696 -0.25946 0.94889 1.0537 0.55768 -0.94524 0.31493 0.012592 -0.54135 -0.46622 -0.27543 -0.20936 0.22699 -0.10078 -0.0059844 0.086829 0.88517 -0.38433 0.58599 0.24572 -0.093734 -0.56355 0.42621 -0.17286 -0.01404 0.50699 -0.41794 -0.21148 0.027473 -0.099073 -0.29828 0.69188 -0.081623 -0.10995 -0.077482 0.27612 -0.30356 -0.84302 -0.84006 -0.40664 -1.1345 -0.072367 0.38046 -0.83121 0.33633 -0.14836 0.73529 -1.3302 1.3868 -0.75703 -0.78617 -0.082173 0.52406 0.38348 0.32724 -0.6154 -0.60906 -0.5145 -0.039969 0.39096 -0.63655 -0.004931 -0.13523 -0.11303 -1.0022 0.29411 0.11801 -0.23425 -0.28212 -0.41397 0.7459 -0.67275 0.97419 -0.49598 -0.56455 -0.63437 -0.6786 -0.53427 0.50494 0.49036 -0.47892 0.42197 -0.56978 -0.10022 0.44136 0.40412 -0.25209 -0.1457 -0.28044 -0.3698 -0.43004 
08519J 0.65932 -1.1263 0.88558 -0.52328 -0.29465 -1.0401 -0.1748 -0.085131 0.26674 0.36359 0.27085 -0.25389 0.91862 0.017693 -0.65018 0.0097442 0.66086 -1.2838 0.14902 1.4053 0.6485 0.92455 -0.11082 -0.1142 -0.6968 0.31999 -0.49537 -0.44659 0.37331 -0.20425 -0.51504 1.2732 0.19462 1.8652 0.9549 -0.54486 -0.5321 -0.72011 -0.18039 -0.099124 0.72126 0.93729 -0.71936 -0.1407 0.61223 0.52009 -0.87734 -0.44389 -0.24742 0.78366 0.23708 0.9035 0.016445 0.026765 -0.71198 0.50762 0.77094 0.05336 -1.1025 0.93538 -0.99604 0.017374 -0.46452 0.47229 0.53058 0.36145 0.52163 -0.65263 -1.318 1.1318 0.31718 0.81418 0.61316 0.12592 0.20541 -0.29945 -0.52109 -0.74028 -0.19103 0.27208 0.55078 0.26435 -0.19198 -0.060836 -0.060976 0.14857 1.2973 0.51194 0.9049 0.97877 -0.16092 0.63721 -0.51857 1.0844 0.44216 0.7986 -1.2807 0.097566 -0.1772 -0.8434 
08431R 0.76248 -1.2046 0.68071 -0.040138 -0.014758 -0.61087 -0.33719 0.055367 0.2273 0.33104 0.39964 -0.1571 0.98337 0.48157 -0.85866 -0.33201 0.75607 -0.60629 -0.065645 1.0816 0.38342 0.70172 -0.13441 -0.0053438 -0.49401 0.17277 -0.51782 -0.081655 -0.090588 0.085643 -0.54804 0.75114 -0.047007 1.2871 0.26321 -0.5833 -0.52138 -0.43214 -0.69862 -0.17827 0.52389 0.67882 -0.43506 -0.18438 0.51238 0.34468 -0.50146 -0.3613 -0.13576 0.66885 -0.062043 0.42047 -0.1441 0.5347 -0.96626 0.75548 0.53018 -0.15064 -0.64758 0.66536 -0.44093 0.13389 -0.33474 0.055902 0.33459 0.13607 0.33114 -0.068119 -0.87705 0.60263 0.089092 0.59054 -0.10907 0.14767 -0.15172 -0.20821 -0.57851 -0.64666 0.10067 0.61742 -0.0062454 0.2131 -0.32096 0.10398 -0.15037 0.065586 0.98029 0.77739 0.21815 0.54902 0.094852 0.12067 -0.059215 0.74225 0.41666 0.48928 -0.95444 0.2948 -0.26201 -0.63614 
08508T 0.93413 -0.62691 -0.54797 -0.20358 0.034117 0.64145 -0.0041775 -0.006834 -0.42187 0.060644 0.38276 -0.018194 -0.032131 0.79942 -0.043765 -0.4272 0.13337 0.23301 -0.33454 -0.33847 -0.43826 0.52119 0.081019 0.1454 0.29945 -0.2759 0.12226 -0.18061 -0.043366 -0.4031 -0.13737 0.33049 -0.34658 0.65016 0.73368 -0.39498 -0.72663 -1.104 -0.21628 0.10813 -0.42153 0.53932 -0.63102 -0.036375 0.13944 0.19917 -0.093332 0.0052623 -0.73766 0.077029 -0.64594 -0.55887 0.063453 -0.27953 -0.25616 0.48969 -0.32104 -0.082136 0.39203 0.058862 -0.50245 0.0017798 0.6003 0.12416 -0.79035 -0.1751 -0.42796 0.18268 -0.64016 -0.36764 -0.15247 0.018378 0.41646 -0.1046 -0.28307 -0.0038096 0.097685 -1.6851 -0.14757 0.17405 -0.39435 -0.035277 -0.092371 -0.27262 -0.47062 -0.10294 -0.14728 0.084298 -0.1234 -0.27836 0.19666 -0.050895 0.22983 0.11988 0.14152 0.73359 -0.084418 0.32078 -0.099867 0.10997 
02843P -0.00085386 -1.2436 0.1801 -1.1157 -1.8022 0.45549 1.4373 0.015505 -1.3142 -0.55224 -1.3377 0.10545 1.1443 -0.20443 0.87769 0.051168 1.4114 -2.132 1.4337 -0.59278 1.0128 0.041922 -0.073609 1.8691 0.49616 -0.15002 -1.2929 -1.3669 2.2727 1.0566 -1.7396 0.45359 -1.3612 -0.74649 0.77744 -1.2968 0.24885 0.78505 0.80422 1.6387 -0.70843 -0.85383 -0.93009 0.3725 -0.44001 1.2068 0.57959 -0.36803 0.79098 0.24245 0.1343 0.48409 -0.20967 0.62578 -1.4388 1.2362 -0.7896 -1.1095 0.79165 0.062661 -0.44219 -0.43047 0.34905 0.10074 -0.38958 -0.40621 -1.1037 0.88896 0.28135 0.10128 0.9681 0.94437 -2.5284 -1.3713 0.40588 1.4131 -0.63802 -0.56871 -0.19309 -0.92188 0.98093 -0.14787 -0.40526 -0.43305 0.47722 -1.6958 0.44352 1.1859 0.25697 -0.84499 -1.5682 -1.7244 0.94696 -0.57885 -1.4349 -0.57298 1.0399 -0.63302 -0.35279 -1.1486 
02001H 1.3797 -2.0991 -0.01455 1.0073 0.41108 0.13869 0.97179 -0.50842 -0.14752 1.0767 0.13777 -0.45932 1.309 0.033159 -0.0034139 0.66033 0.28065 -2.1592 1.5758 0.67062 -1.0225 0.50365 0.33415 0.35176 -0.10704 1.6162 -0.083855 -0.54801 0.80063 1.2583 -0.044822 1.8723 1.2966 3.0875 2.0245 -1.1847 -1.0449 -1.0801 -1.2269 0.7357 -0.34286 -0.12472 0.38496 0.37662 0.75754 -0.17253 -0.63911 -0.22199 -1.1531 0.24818 0.059353 0.78541 -0.1584 -0.59387 -0.95382 0.52852 1.1356 0.6187 -2.149 1.2124 0.51019 -0.72027 -0.23735 0.4571 0.47333 -0.68433 -0.9735 0.23095 -2.3564 1.2486 2.0811 0.69496 1.1676 0.52174 0.75736 -0.78844 -0.46305 0.17098 0.91521 0.2318 0.33235 0.057328 -0.4807 -0.54385 1.5625 1.2623 0.75726 1.0689 -0.056219 1.8602 -1.8167 0.55339 -1.2302 1.7919 -1.0929 0.86646 -1.5007 -1.1759 -0.014206 0.65213 
02723H 0.6598 0.6686 0.50557 -0.28604 0.5865 0.21846 -0.79098 -1.5303 -0.3978 0.30587 0.88427 0.18893 -0.052145 -0.16109 0.50797 -0.60973 -0.21634 -0.30514 0.79446 -0.24319 0.3853 0.73627 0.063902 0.024764 0.92318 0.27684 -0.57308 -0.24429 0.084158 -0.19094 0.53523 -0.023542 -0.93662 -0.87269 0.53311 -0.35533 -0.78286 -0.62361 -0.59614 -0.21327 -0.36098 -0.67392 -0.94533 0.33533 0.58263 0.73942 -1.2037 -0.37036 -0.47406 0.11162 -0.1272 -0.48377 0.050776 0.043434 0.40364 1.359 -0.12019 0.25721 0.17036 0.14095 -0.2801 -0.070227 0.24636 -0.14837 0.52539 0.044739 0.64947 -0.60896 -0.052422 -0.086124 0.066727 0.16256 1.1536 -0.050711 -0.086057 0.36284 -0.19377 0.37377 -0.92864 0.33435 -0.60098 -0.302 -0.60005 -0.4027 0.32473 -0.82927 0.70516 0.51921 0.027125 -1.175 -0.21583 -0.12459 -0.16327 -0.018039 -0.0025847 0.16877 -0.11406 -0.80004 -0.13544 0.74009 
02893G 0.17964 0.22833 0.6371 0.10152 0.61633 0.23606 -0.51007 -0.75534 -0.46481 0.059856 0.49219 0.093097 0.48558 -0.39193 0.20988 0.32953 -0.22586 -0.026032 0.2769 -0.31279 0.088827 0.6601 0.26013 -0.30228 0.53056 0.12402 -0.6025 -0.088237 -0.14533 -0.021719 0.15076 0.3348 -0.098029 -0.29095 0.24163 -0.25602 -0.61357 -0.096652 -0.55117 0.13152 -0.17519 -0.15295 -0.97135 0.32876 0.18159 0.064494 -0.96801 -0.69693 -0.026863 -0.12031 0.16424 -0.68443 -0.64423 0.27645 0.066942 0.66669 -0.52588 0.14845 0.39253 -0.16888 -0.35668 0.027062 0.50592 1.0014 -0.10095 0.009249 0.037391 -0.41709 0.62656 -0.43154 -0.40933 -0.58631 0.69452 -0.63045 0.19651 0.11549 -0.43056 0.048332 -0.16215 0.48525 -0.17499 -0.38156 -0.7412 -0.76889 0.0064693 -0.55556 0.53262 0.50465 0.044827 -0.84348 -0.10488 -0.29591 0.59356 -0.0035289 -0.27838 0.21882 0.037572 -0.40305 0.15081 0.026945 
08016X -0.1416 -0.35979 0.42589 0.12399 0.16996 0.015655 0.012313 -0.74138 0.47955 1.0803 0.75755 -0.35951 0.65956 -0.21492 -0.63899 0.31066 -0.17708 -0.26595 0.45419 -0.037067 0.33477 0.40038 0.57057 -0.10966 -0.11809 0.47191 -0.51848 -0.06693 -0.10126 -0.25566 0.099172 0.759 0.0079262 0.68443 -0.013184 -0.28781 -0.51025 -0.15934 -0.67657 0.0039102 0.061018 0.27908 0.33607 -0.049578 0.76234 0.22004 -0.3178 -0.19483 -0.533 0.54385 -0.097115 -0.47458 -0.54322 0.029135 -0.95133 0.043496 0.0091705 0.30159 -0.47974 0.52045 -0.23866 -0.027641 0.062083 0.44901 0.043582 0.066576 -0.018958 -0.095362 -0.46383 -0.10124 0.67822 0.12643 0.4612 0.10373 -0.33348 -0.32281 -0.9081 -0.42024 0.15662 0.33068 0.28913 -0.56364 0.14464 0.13802 -0.1427 0.22118 0.77896 0.7859 -0.30904 0.24199 -0.33064 -0.24769 0.49998 0.77886 -0.088556 0.59405 -0.59316 -0.59849 -0.067021 -0.1084 
02604C -0.23337 0.28512 0.47514 -0.060294 -0.42762 -0.39889 -0.70246 -0.45737 -0.69237 0.2131 -2.2257 0.52 0.83226 0.27878 0.21124 0.097785 0.534 0.55596 0.10723 -0.041708 0.27012 0.30245 0.089616 0.64445 0.20947 0.45583 0.25245 -0.93633 0.14903 -0.12642 -0.29719 1.0626 -0.34325 0.081028 -0.4659 -0.66596 0.0069863 -0.092859 0.76745 0.96249 -0.13912 -0.65076 0.049553 -0.72628 -0.25318 -0.49881 -0.85605 0.57903 0.37115 0.0018813 0.15894 0.22318 -0.6583 0.14327 -1.5124 -0.054734 -0.69049 -0.47315 -0.14186 0.012727 -1.111 -0.27904 0.34776 0.67395 -0.40069 -0.7661 -0.39588 0.8718 -0.1193 -0.43778 -0.26064 -0.33375 -0.56966 -0.056738 0.016926 0.16753 0.32496 -0.8164 -0.54051 0.82252 -0.36624 0.5786 -0.31088 -0.41759 0.76706 -0.61893 -0.7479 -0.41703 -0.1014 -0.59338 -0.3772 -0.69296 -0.41201 0.83819 -0.085429 -0.52825 -0.51151 0.47658 -0.017491 -1.0821 
01313D 0.92137 0.11955 -0.049391 0.88262 -0.79281 -0.70137 -0.37184 0.44677 -0.52101 0.017484 -0.65956 0.71682 1.058 1.3277 0.61657 -0.46391 1.1583 -0.48982 -0.68036 -0.079204 -0.66174 -0.019352 -0.024778 0.15667 -0.14858 -0.18908 -0.74328 -0.11802 0.44359 0.26903 0.23016 0.21623 -0.48936 0.54327 0.20855 -0.11116 -0.15138 0.027564 0.76256 -0.36361 0.32407 -0.22431 0.4275 -0.018211 -0.28255 -0.17549 -0.37607 0.82838 -0.97876 0.16658 0.58142 -0.64395 0.36645 0.28258 -0.71243 -0.62014 -0.47944 -0.21185 0.91411 -0.62533 0.091366 -0.8636 0.20471 1.1683 -0.81072 -1.6069 -0.95976 0.39462 -0.25999 0.27649 0.097994 0.068656 0.60103 -0.50919 0.77293 0.096563 0.86487 -1.2628 -1.8307 0.96862 -0.8281 -0.10687 -0.44374 0.088273 0.65727 0.18156 -0.38691 0.89406 0.07402 -0.22631 0.57345 -0.65555 -0.12113 0.74074 0.2877 -0.11264 -0.66903 0.57529 0.66985 -1.253 
01324Q -0.1283 0.13984 0.45335 -0.30101 -0.64538 -0.86907 0.021416 0.040812 -0.2508 -0.043497 -1.0512 0.67519 0.62395 0.30432 0.46148 0.62014 1.4935 0.037257 -1.1031 0.022201 -0.033591 0.067494 -0.14672 -0.16043 0.4767 0.56832 -0.25966 -0.073208 1.4245 -0.28998 -0.69499 0.69006 -1.101 -0.024101 0.88593 -0.028852 -0.26845 -0.37275 0.87259 -0.65107 0.52378 -0.82644 -0.21429 0.37811 -0.41884 -0.11213 -0.10004 0.32696 -1.0753 -0.12358 0.31997 -0.067471 0.74698 -0.26904 -0.80201 0.23054 -0.41048 -0.50463 0.9272 -0.61597 -0.78071 -0.59749 0.16158 -0.062827 -0.67385 -1.6468 -1.4356 0.82373 -0.073036 -0.31989 -1.297 -0.014777 0.34804 -0.71247 0.226 0.86691 0.61155 0.40585 -1.6219 1.0497 -1.2287 -0.50615 -1.1974 -0.28286 0.1937 -0.1969 -0.33964 0.29581 0.27277 -0.79026 0.64577 -0.44938 1.1003 -0.21016 0.65071 -0.16814 -0.38127 0.10135 0.65023 -0.21316 
02209G -0.72705 -0.70941 0.69649 0.67461 -2.1396 0.34145 -0.053189 0.061804 -1.0653 -1.5401 -1.8358 -0.12812 0.37456 1.1469 -0.94192 0.1274 1.0141 0.47164 0.43049 -0.14735 0.41946 -0.20051 1.3905 1.8479 0.53297 1.3017 0.20573 -1.4173 0.79074 -1.1077 -1.2912 -0.028814 -1.498 -0.75737 1.4389 -0.4694 0.12489 0.80269 0.25676 1.4444 -1.0687 -0.18507 0.9735 0.80456 -0.16913 0.088617 0.30286 0.3079 -0.6386 1.286 0.61283 0.32143 -0.39501 2.0101 -1.0407 1.7827 -0.322 0.078211 0.52875 0.2889 -1.4564 0.95619 -0.22939 -0.53661 -0.58153 -0.41287 -1.7906 1.5804 -0.38065 0.68726 0.82057 0.089001 -0.76092 -2.3033 0.53302 -0.19619 -0.66417 -0.59609 -0.12545 0.94746 -0.7659 0.41341 0.01369 0.71279 0.2163 -1.1866 0.82794 0.68893 -0.94327 -0.065131 -0.63189 -1.1805 -0.016468 1.382 -0.49117 -0.35536 0.55786 -0.81936 -0.78418 -0.22051 
02852D -0.21493 0.034467 0.86148 -0.25966 0.58092 0.42039 -0.18687 -0.25435 0.39445 0.7577 0.12951 -0.41938 0.30497 0.61303 0.14017 0.4563 -0.31659 0.86457 -0.29793 0.5986 0.34317 0.68395 0.44695 0.12609 0.016904 -0.28221 -0.23425 0.36334 -0.47565 0.90368 -0.077333 -0.10868 0.16502 0.23816 -0.39361 -0.24507 -0.36656 0.0024407 -0.69752 0.32831 -0.17589 -0.31004 -0.28012 0.29646 0.11832 0.143 -0.1087 0.25254 -0.30222 -0.15299 -0.58074 -0.34797 0.21638 0.37722 -0.060139 -0.1783 0.0027104 0.079111 -0.052762 0.32758 0.25206 -0.18653 0.21158 0.61059 -0.16518 0.45541 0.23243 0.10451 -0.35509 0.2102 -0.14766 -0.33561 0.047815 0.21859 0.49245 0.36753 -0.72897 0.50285 -0.55192 0.35358 0.26907 -0.060047 0.11204 0.39647 0.29405 -0.27659 0.021614 -0.23614 0.22916 -0.13515 0.11371 0.026666 -0.073364 -0.2166 -0.17155 0.067507 -0.12529 0.20197 -0.48185 -0.13573 
02458J -0.25774 -0.071798 0.26305 -0.1522 -0.00313 -0.16109 -0.23039 -0.45822 -0.90396 -0.19348 -1.4319 0.15142 0.78567 0.54983 -0.50305 0.42686 1.0427 0.59412 -1.5604 0.030757 0.77773 -0.19379 0.18753 0.27753 -1.0775 -1.2855 -0.32477 0.5205 0.042991 -0.18903 -0.22064 0.51676 -0.36774 -0.53065 1.1595 -1.1286 -0.35195 -0.61525 0.096358 0.043841 0.26589 -0.91959 -0.17595 -0.24203 -0.47418 -0.067783 -0.64009 0.32577 0.25983 -0.31986 0.0048475 0.77754 -0.16133 1.9731 -0.98389 0.047176 -1.0473 -0.50882 -0.36499 0.22451 -0.86105 -0.66471 0.82859 -0.05424 -0.15949 -0.61745 -0.162 1.2519 -0.3386 -1.6474 -0.75758 0.68044 -0.79788 0.55626 -0.66206 1.0993 0.52903 -0.94922 -0.12107 0.91299 -0.73863 0.25262 1.0141 0.080597 0.30947 -1.4158 -0.41567 -0.59605 -0.60726 -0.51158 -0.75805 -1.0351 0.53077 0.31345 -0.0010365 0.88326 -0.45597 0.24156 -0.83488 0.82224 
08562P 0.12273 -0.24067 -0.27973 0.45535 0.70105 0.64961 -0.079448 0.15492 -0.82494 -0.028889 0.48561 -0.12508 -0.16966 0.30888 -0.23216 -0.35596 -0.10977 0.17735 -0.16094 -0.43103 -0.24194 1.0593 0.17642 -0.11518 0.078137 0.53801 -0.65979 -0.28884 0.15395 0.058864 0.46472 -0.42604 0.11039 0.4723 -0.031811 0.085521 -0.00364 -0.35742 0.08457 -0.28496 -0.18704 -0.08782 -0.73607 0.1054 0.10168 -0.16098 -0.96692 -0.021068 0.09624 0.14897 -0.21155 -0.30061 -0.48255 0.90483 -0.42368 0.18005 -0.54267 0.1786 -0.59103 -0.14022 -0.37113 0.38804 -0.42484 0.51032 -0.78792 -0.055324 0.16118 0.35837 -0.41659 0.30559 -0.38893 0.77602 0.43547 0.0033959 -0.51988 0.42162 0.4595 0.16835 -0.98886 0.048413 -0.14916 -0.3428 -0.17236 -0.33744 -0.63925 -0.24833 -0.39282 0.30148 -0.20352 -0.55408 0.45914 0.43405 0.51855 0.76202 0.23737 0.033924 -0.3712 -0.16639 -0.038404 0.41526 
01312C 1.0099 0.12706 0.15042 1.186 -1.2591 -0.56777 -0.29072 0.36508 -0.43025 -0.13756 -0.47484 0.41316 1.2891 0.94723 0.57279 -0.20558 1.2053 -0.74635 -0.75765 -0.41023 0.10519 0.0053872 -0.051414 -0.42116 -0.1835 -0.046207 -0.06114 0.013281 1.1863 0.59941 0.12685 0.73068 -0.81338 0.39554 0.52006 0.2306 -0.52319 -0.064911 0.023357 -0.3824 0.42559 0.12919 0.87504 0.36535 -0.18031 0.25819 -0.35914 0.84875 -1.0947 0.14772 0.36727 -0.55517 0.21844 0.25302 -1.0122 -0.29737 -0.24239 0.46133 0.82322 -0.45332 -0.27775 -0.68366 -0.078447 1.2603 -0.85679 -1.473 -1.0678 0.29745 -0.55834 0.54868 0.23709 -0.22102 0.32308 -0.80289 0.77907 0.41002 0.2723 -0.74236 -1.8328 0.78156 -0.66079 -0.20526 -0.2501 0.2285 0.71216 -0.33704 -0.59227 0.64578 -0.011625 -0.27201 -0.041214 -0.36243 0.12964 0.84851 0.40032 -0.20273 -0.39313 0.57486 0.68088 -1.1152 
EP 0.57379 -0.074218 -1.2449 0.63774 -0.27983 0.20341 0.97205 -2.697 0.79949 1.8441 1.6043 0.6097 -0.7043 -0.2318 -0.09616 -0.70603 -1.4608 0.093314 0.051951 0.14425 -0.11736 -0.3208 -0.13112 -1.5049 -1.9135 1.553 1.5073 0.81326 0.78635 0.054869 -1.069 1.6553 1.8624 0.12763 -1.1236 -0.86879 0.27984 1.0288 -1.1911 0.57703 0.14915 -2.2046 1.7657 -2.2217 -1.2672 1.155 1.2826 -1.3633 0.16587 0.35302 2.4226 -1.8351 -2.1676 0.037085 0.11121 -0.24689 0.84648 -1.0201 -1.7146 -0.88849 -1.679 -0.39701 0.75339 0.54711 -1 -0.7235 1.9714 0.72733 -0.22072 -0.48542 -1.9453 -0.63193 1.2932 -0.61625 -0.75895 0.29624 -2.8976 0.20407 -0.16114 -0.52005 -0.092573 0.90216 0.82436 -0.036285 0.32925 -2.1829 0.16969 0.74209 2.5912 -1.3652 0.26537 1.171 0.49317 -1.3243 0.11217 -0.37813 -0.050599 -0.49296 -1.0677 -0.82116 
02366M -0.26372 1.0862 0.83608 0.065989 -0.59091 0.55315 0.19874 0.38966 -0.65565 0.0040281 -1.1556 0.68099 0.67774 1.1759 0.60722 -0.65216 0.73232 0.11268 -0.11688 -0.19807 -0.38658 0.6228 -0.16546 0.12213 -0.35615 -0.39426 -0.99087 -0.50361 -0.40997 0.26233 -0.38531 0.65864 -0.48687 -0.24066 -0.2874 0.0064278 -0.251 0.36123 0.062556 0.3224 -0.3731 0.32113 0.62025 -0.45798 -0.56634 -0.66288 -0.3535 -0.84427 -0.75683 0.46821 0.47837 -0.10053 -0.53839 1.2495 -0.99565 0.61889 -0.71426 0.30679 -0.31931 0.29017 0.99765 -0.94358 0.49239 1.1565 -0.63136 -0.11186 -0.077833 -0.076549 0.38541 -0.28477 -0.33259 0.080301 0.22901 -0.68368 0.65768 0.073305 0.18437 -0.17284 -1.7741 1.0032 -0.52773 0.83984 0.50295 -0.23989 0.16121 0.17966 -0.20074 -0.14935 -0.18687 -0.85881 0.53869 -0.66862 0.56159 0.50691 0.69043 -1.021 -0.0055191 0.42152 0.25139 -1.332 
08513C 0.31657 -0.13548 -0.065941 -0.50997 0.41564 -0.26356 -0.1991 -0.60781 -0.42377 -0.58097 0.86007 0.33853 -0.44703 0.27614 0.26924 -0.33054 -0.33723 -0.65109 -0.62514 -0.71478 -0.17118 0.58613 0.28591 -0.16774 0.60644 -0.094241 -0.17774 -0.39227 0.42927 -0.50899 1.2347 -0.43204 -0.029387 -0.37862 0.42745 0.19329 -0.32538 -0.0076966 -0.51094 0.86503 -0.15688 0.52807 -0.45868 -0.49255 0.74063 0.71578 -0.34342 -0.24507 -0.091062 0.34733 -0.67041 -0.77111 0.80874 0.34422 -0.36063 0.63903 0.36034 -0.14826 0.62165 -0.1621 -0.29203 -0.6261 -0.13551 -0.2148 -0.10673 0.23252 0.39314 -0.77269 0.21713 -0.12986 0.26115 0.043813 0.69475 0.032796 -0.47755 -0.11718 0.050135 0.4964 -0.29291 -0.20239 -0.31979 0.33302 -0.39649 -0.025327 0.93946 -0.64049 0.31297 0.60086 -0.90293 0.40955 -0.39727 -0.15148 0.42035 -0.3221 -0.034577 -0.025543 -0.66105 0.034128 -0.30991 0.65329 
08504N -0.51183 -1.0561 -0.10805 -0.25201 0.67005 0.78445 -0.11549 0.12579 -1.0781 0.15116 -0.71455 0.067815 -0.011414 0.46896 -0.41502 -0.50444 -0.092902 0.51827 -1.322 -0.31137 0.25267 -0.37837 0.93767 -0.40189 -0.62571 -0.96533 -0.55777 0.6395 -0.29427 -0.61124 -0.13686 0.19562 0.12557 -0.005777 0.80498 -0.87958 -0.11262 -0.9473 -0.23676 -0.19451 0.21106 0.46836 -1.2336 0.11857 -0.53077 -0.62907 0.089803 -0.27692 -0.4798 0.2869 -0.34344 0.93236 -1.1857 0.5423 -1.2968 -0.13573 -0.98494 0.13655 -0.24139 0.049339 -1.0417 -0.51009 -0.028406 0.013873 0.62886 -0.65219 0.10647 1.0997 0.10713 -1.1167 -0.67877 0.21787 -0.7027 1.4779 0.011202 0.79055 -0.16562 -0.57048 -0.44994 0.63985 -0.8207 -0.39103 0.31222 -0.43397 0.20386 -0.7931 -0.5693 -1.0139 -0.41526 -0.96119 -0.54975 -0.59436 0.26115 0.63074 0.80063 0.18274 -0.77739 0.24884 -1.0464 0.56306 
08611F 0.33766 0.551 0.41038 -0.065444 0.66147 0.50821 -0.078181 -0.71343 -1.6324 -0.48759 0.025486 0.85965 0.70683 -0.60856 0.25129 0.51966 -0.43422 0.28937 0.80989 0.090156 0.46591 0.4175 0.018027 0.31528 0.92472 0.87279 -0.43157 -0.79701 0.049461 -0.35675 0.67857 0.34944 0.26238 -0.39155 -0.58103 -0.048157 -0.75848 -0.41953 -0.55976 -0.10825 0.1796 -0.13109 -0.81487 0.28205 0.72819 0.24887 -0.28415 -0.50035 -0.58682 0.27302 0.045232 -1.2164 -0.44384 0.2154 -0.56008 0.74399 0.43145 0.46716 0.22228 -0.48358 -0.72067 0.24673 0.087477 0.30071 0.0087315 0.68052 -0.17495 -0.49943 -0.18318 0.14786 0.0074867 0.26624 0.93006 0.29014 -0.10456 0.54036 0.04209 -0.2383 -0.72692 -0.42726 0.0063526 -0.62814 -1.3185 -0.33884 0.1197 -1.1232 0.97423 -0.32705 -0.73327 -0.45383 -0.69702 -0.049415 0.37404 -0.023042 -0.12335 0.18954 -0.24977 -0.61412 -0.16696 0.97264 
08534E 0.22565 0.37851 -0.52431 0.33597 -1.2036 0.19219 0.53486 -0.016519 -0.90219 -0.50202 -0.67667 1.2466 0.29879 1.6594 0.45869 -0.43909 0.76095 -0.14119 -0.4929 0.22196 -0.48113 0.82697 0.21382 0.25985 -0.13405 -0.3119 -0.46733 -0.80202 -0.39242 0.80488 0.98409 0.1393 -0.42941 1.6039 -0.30951 0.17704 -0.12479 0.013124 0.31371 0.1561 0.70712 -0.19588 0.62828 0.01456 0.0085642 0.27532 -0.13068 -0.045903 -0.73277 -0.30428 0.60653 -0.91476 -0.8978 1.0124 -0.49487 -0.39628 -1.137 -0.4471 1.6782 0.02637 0.11673 -0.81429 -0.15316 1.4945 -0.57444 -0.59696 0.61892 0.21736 -0.006363 -0.24708 -0.017706 -0.011659 0.027519 -0.36509 0.27006 0.132 0.6875 -0.85157 -0.81164 0.052678 -0.32833 0.39951 -0.06284 0.10065 0.34083 0.054762 -0.1631 -0.27421 0.034763 -0.97732 0.61792 -0.63098 1.07 1.4166 0.46524 -1.3021 -0.33086 0.55326 -0.23744 -0.92152 
02360F -0.48215 0.58899 0.14843 -0.0071625 -0.056972 0.82649 -0.26321 0.75783 0.98679 0.9161 1.0367 0.39124 0.52592 0.31592 -0.88666 -0.3632 -0.3292 -0.030282 0.35857 -0.16157 -0.47131 -0.46199 -0.26298 -0.14247 0.14846 -0.14453 0.35441 -0.38643 -0.3048 -0.21174 -0.75381 0.096671 0.47544 0.80102 0.9037 0.099379 0.37795 0.55479 0.17141 0.41813 -0.54285 0.34441 0.064962 0.64512 0.58584 0.17164 -1.1299 -0.7532 0.65425 -1.6781 0.37732 1.2968 -1.123 -0.2845 -0.047749 -0.071791 -0.14356 -0.081408 0.37009 -0.36983 0.22392 -0.41 1.0616 0.67499 0.34608 0.25577 -0.7377 -0.26597 -0.40929 -0.986 0.57585 -0.37492 0.38876 0.26025 0.18522 0.18066 -0.5708 0.47881 0.28224 0.18527 -1.0611 0.13441 -0.80961 0.60355 -0.071822 -1.4603 0.3235 0.18112 0.12681 -0.35314 0.80978 -0.35522 0.41385 -0.18445 -0.65982 -0.38912 -0.17143 -1.4058 -0.10568 -0.46486 
01394J 0.41182 -0.51053 0.20374 0.16054 0.9848 0.14728 -0.42649 -0.053409 1.5695 0.65072 1.1755 0.2306 -0.096851 0.21639 -0.53463 -0.35349 -0.048334 0.56429 0.65305 0.14341 0.4054 0.35203 1.287 0.2719 -0.15337 -0.38976 0.39821 0.18252 -0.56869 -0.21144 0.94387 0.34298 0.78905 0.3081 -1.2131 -0.98811 -0.38217 0.52979 -1.094 0.16882 -0.037095 0.20126 -0.47533 0.84888 1.3215 -0.22351 0.39846 0.63353 -0.051484 0.736 -0.29439 -0.89778 -0.056659 0.1511 -0.81032 0.3485 -0.6255 0.099278 -1.1081 0.48168 0.391 -0.41313 1.2781 0.33506 0.73071 0.48458 -0.49492 -0.78144 -0.3506 0.0066108 -0.13524 -0.1589 0.88088 -0.081749 -0.45835 0.74786 -0.35037 0.55103 0.6302 -0.60859 -0.3546 -0.2812 0.20596 -0.71874 1.0579 -0.45119 0.42183 0.62993 -0.85108 0.1317 0.21192 0.99633 0.10155 -0.4754 0.078006 0.37257 0.26484 -0.045529 -0.52059 -0.16088 
01906H 0.052789 0.51028 0.19569 0.28518 -0.78877 -0.034419 0.38663 0.034587 -0.63363 0.067898 -0.95971 0.64122 0.69557 1.0587 0.025151 -0.54189 0.46654 -0.026105 0.070039 -0.46951 -0.18196 0.64641 -0.23052 -0.30385 -0.42353 0.17698 -0.32218 -0.019847 0.34081 0.54643 -0.40211 0.54133 -0.78721 0.2375 -0.016567 0.42044 -0.84178 -0.25589 0.060291 0.027405 0.3341 0.43739 0.63196 0.13683 0.091701 -0.42151 -0.55452 0.027486 -0.98737 0.089582 0.028505 -0.97685 -0.15949 1.0052 -0.95311 0.15754 -0.63373 -0.14216 0.85432 -0.62738 0.40204 -0.10156 0.4866 1.9937 0.18575 -0.83726 -0.48056 0.063455 -0.21015 -0.14129 -0.37604 0.16639 -0.53759 -0.18054 0.093925 0.56588 0.96859 -0.52472 -1.3552 0.61674 -0.59053 -0.092593 -0.34896 -0.37676 0.21 0.12681 -1.0264 0.0735 0.83062 -0.45519 0.10257 -0.89343 0.49723 0.62029 0.3496 -0.48942 -0.27696 0.53174 0.46883 -0.28883 
08401E -0.36216 -0.69259 -0.35138 -0.40157 0.43508 0.53461 -0.47029 -0.28043 -1.2578 -0.15833 -1.0379 0.49234 -0.04393 0.76214 -0.63053 -0.89917 -0.80427 0.13556 -1.3256 -0.52192 0.87889 0.21697 -0.03275 0.40795 -0.59256 -1.0468 -0.11819 0.52284 -0.14199 0.47943 0.25471 0.63675 -0.43301 0.12736 0.86954 -1.1391 0.13362 -0.089174 0.036667 -0.094857 0.30429 0.21867 -0.64081 -0.54757 -0.55223 -1.1523 -0.10493 -0.25265 0.035906 0.60953 -0.10585 0.18404 -0.69865 0.40938 -1.2425 -0.55816 -0.69676 0.65466 -0.49696 0.4343 -0.78402 -0.88532 -0.11395 -0.11746 0.037111 -0.26852 -0.16805 1.6645 1.0569 -0.49038 -1.21 0.3969 -1.0175 1.916 -0.33532 1.0738 0.010163 -0.98084 -0.70372 0.92296 -1.1139 -0.78024 -0.1348 -0.16545 0.30584 -1.1666 -0.59337 -1.2569 -0.70986 -0.61408 -0.073922 -0.78312 0.040327 0.13 0.405 0.92039 -0.1933 0.035039 -0.68761 0.36167 
08355R 0.34093 0.16359 -0.18247 0.55633 -0.076453 0.24848 -0.019977 -0.30747 -0.85961 0.34042 -0.51556 0.32722 0.64683 0.64442 -0.49174 -0.16842 0.19303 0.23932 -1.0882 -0.19152 0.34703 0.052684 -0.13561 0.25061 -0.52902 -1.0091 -0.3562 0.12135 0.19161 0.23233 -0.13212 0.70456 0.23905 0.2539 1.5346 -0.65364 -0.17797 -0.60734 -0.22792 -0.29721 0.73532 0.12304 -0.6622 -0.015173 -0.33643 -0.62599 -0.55397 -0.47078 -0.35024 0.14401 -0.52639 -0.14245 -0.91257 0.52006 -1.4457 -0.20943 -0.69499 0.0048484 -0.55155 -0.084452 -0.96089 0.041538 1.1775 -0.12101 -0.62446 0.051883 0.50073 0.13971 0.096278 -0.21384 -0.37482 0.64523 -0.015667 0.28403 -0.20338 0.1498 0.21511 -0.3774 -0.21192 1.0003 -0.60277 -0.095405 0.48329 -0.14724 0.18288 -1.1751 -0.4926 0.084417 -0.062376 -0.013919 0.15192 -0.35994 0.89992 0.25742 -0.025696 0.16722 -0.83502 0.52224 -0.35973 0.3034 
01760P 0.078553 -0.1296 0.3369 0.012369 0.26114 0.28018 -0.30035 -0.51133 0.32319 1.2926 0.55314 -0.22444 0.72191 -0.33663 -0.5925 0.13513 -0.24762 -0.29524 0.63417 0.18502 0.20087 0.35527 0.37337 -0.011145 -0.21621 0.56461 -0.31961 0.045878 -0.24249 0.044629 -0.29068 0.91129 -0.063876 0.72469 0.0069131 -0.43091 -0.40974 -0.10438 -0.71992 -0.18589 0.1182 0.21288 0.40874 0.087874 0.71854 0.39429 -0.39495 -0.2873 -0.48809 0.59961 0.033837 -0.47244 -0.44685 -0.28526 -0.59766 -0.128 0.22637 0.085551 -0.54432 0.4398 -0.1143 0.028892 0.13411 0.40501 -0.012008 -0.071393 -0.0040394 -0.31029 -0.29741 -0.22553 0.49565 -0.090745 0.33573 -0.25138 -0.00059431 -0.2549 -1.177 -0.54947 0.44196 0.52366 0.30876 -0.50718 0.00079743 0.071642 -0.10297 -0.091936 0.51676 0.81443 0.10429 0.010561 -0.3246 -0.085624 0.51316 0.66856 -0.13773 0.32579 -0.14211 -0.49182 -0.46172 0.05819 
08356T -0.58648 -0.33736 0.0051161 -0.09354 0.15117 -0.2927 -0.13016 -0.75925 -0.8158 0.16732 -0.7116 0.18514 0.23589 0.34122 -0.24057 -0.24506 0.30439 0.13129 -0.97811 -0.22823 -0.0025045 -0.036652 -0.15125 -0.40119 -1.0886 -0.80801 -0.95508 0.45646 -0.57963 -0.82202 0.48248 0.59445 -0.62958 0.46402 1.071 -0.91856 0.6478 -0.67621 0.20127 -0.33827 0.48497 0.0099242 -0.96399 0.29748 -0.24849 -0.62551 -0.74172 -0.070202 -0.81093 -0.032661 0.5879 -0.08057 -0.49524 0.89278 -1.2857 -0.30936 -0.71701 -0.21557 -0.34336 -0.024678 -0.60024 -0.09911 0.83867 0.1353 -0.76551 -0.20271 0.50056 0.91747 0.44489 -0.73082 -0.61241 0.54408 -0.29804 0.97242 -0.37632 0.57156 0.22054 -0.81107 0.47419 0.63028 -1.1515 -0.04979 0.61825 0.18463 0.49492 -1.2055 -0.5474 -0.37215 -0.15573 -0.36726 -0.3243 -0.19892 0.27152 0.16271 0.15356 -0.064986 -0.051878 0.37349 -0.3751 0.206 
01917X -0.048237 -1.1514 1.0314 0.25134 0.64804 0.94472 0.53644 0.35592 -0.0061594 -0.56462 0.77425 0.16862 0.45176 0.2248 -0.033883 -1.4869 1.1547 -0.55026 1.4888 0.55694 -0.065981 0.90231 -0.13155 -0.29646 -0.66598 0.78381 0.15167 -1.5761 1.3113 0.19467 -0.20241 0.48337 -0.33071 0.97802 -0.45795 -0.72966 -0.38006 -0.67592 -1.4086 -0.7156 -0.19714 -0.033896 -0.46491 -1.0543 -0.2854 -0.46812 -1.5711 1.1917 0.64415 -0.43396 -0.015217 1.0737 -0.32689 0.35519 -1.4927 -0.13649 1.0737 0.95942 -1.4454 -0.75126 -1.1645 0.12459 -0.80708 0.63977 -0.71432 0.37851 0.090056 0.046969 -0.35016 0.32091 1.334 -0.56817 -0.41425 -0.9733 -0.5881 0.50582 0.54378 -0.62905 -0.48271 -0.45025 0.12361 -0.033391 -0.51157 0.69212 0.5144 0.24757 1.2239 0.83964 -0.29312 0.20029 -0.19906 0.70548 -0.33968 0.82433 -0.1453 1.2354 -0.54775 -0.64426 1.164 0.048852 
08297Q 0.11963 -0.099541 -0.039821 -0.32342 -0.061176 0.64301 -0.10084 -0.727 -1.0301 -0.071951 -0.6565 -0.256 -0.14297 0.54341 -0.043391 -0.167 0.84609 0.521 -1.0513 -0.0096584 0.26309 0.27866 0.63787 0.1038 -0.93331 -0.92141 -0.075036 -0.041177 -0.11507 -0.52909 -0.12354 0.47179 -0.58236 0.32728 0.98273 -0.20575 -0.052176 -0.42869 -0.35977 -0.21146 0.54413 -0.25392 -0.67948 0.054733 -0.68679 0.011621 -0.22459 0.05345 -0.078884 0.11453 0.040358 0.52161 -0.59698 0.797 -0.72831 -0.80452 -1.6452 0.011934 -0.17198 -0.20053 -0.81757 0.19771 0.42219 -0.090998 -0.010172 -0.2854 0.29583 0.86274 -0.16493 -0.84692 -0.42631 1.3593 -0.60787 0.59176 -0.237 0.99521 0.38403 -0.72368 -0.024917 0.44131 -0.85197 0.30439 0.20846 -0.39686 0.67153 -0.59668 -0.17746 -0.62194 -0.1617 -0.58677 -0.91408 -1.0757 0.49885 0.39646 0.75216 -0.031444 0.21742 -0.11221 -0.93819 0.092668 
08626B 0.99386 -0.37242 0.51153 0.76951 0.56876 0.43087 0.65844 -0.085753 -0.45253 0.63241 0.54523 -0.97495 2.009 0.99238 -0.16857 -0.25256 1.3819 -1.0836 0.30159 0.19567 0.29729 0.68322 0.69694 -0.028128 -0.20386 0.46384 -0.57317 0.19313 -0.21816 -0.39894 -0.43062 1.7533 -0.18634 1.7939 0.87516 0.25187 0.68875 -0.64424 -0.99692 -0.54846 -0.68726 1.2422 -0.22837 -0.87593 1.466 0.27804 -0.71935 0.017827 -1.1511 0.1058 -0.5801 -0.37567 -1.3786 -1.5633 -1.973 0.27625 0.4237 -0.0090995 -1.2739 1.053 -0.55402 0.34999 -0.52029 0.47869 -0.30409 -0.76974 0.58168 0.68477 -1.194 0.32203 0.7853 -0.062975 0.068578 0.21726 -0.53993 -0.84847 -0.79953 -0.78029 -1.1248 0.36167 -0.063353 0.6604 0.25413 0.25483 0.93372 0.79123 1.3833 1.9694 0.079226 0.60435 -1.403 0.41857 -0.44979 1.5577 -1.0282 1.3581 -0.78342 -0.1983 -0.33356 -0.48926 
01453L 0.23412 0.37349 0.46382 0.18341 -0.057895 -0.15148 -0.23701 -0.27189 -0.81697 -0.72062 -1.2658 0.46173 0.18553 0.33462 0.04641 -0.057596 0.90935 0.78861 -1.4849 -0.32463 -0.61069 0.30528 0.73322 0.066074 -0.095489 -0.43539 0.24143 0.40561 -0.40352 0.50006 -0.3493 0.2852 -0.32374 0.36367 0.042164 -0.74635 0.35678 -0.10762 1.3637 0.1167 0.3505 -1.1334 -0.65236 0.031975 -0.47844 -0.086024 -0.31357 0.67522 0.082925 1.0454 0.37842 0.10801 0.22082 0.38411 -0.3111 -0.22499 -0.68499 -0.73717 -0.057471 0.80192 0.01105 -0.90571 -0.38162 0.54034 -0.43831 -0.044287 -0.097379 0.5974 -0.53193 -0.6731 -0.90408 -0.18623 -1.1126 -0.094461 -0.10291 0.97725 0.58557 -0.34297 -1.0527 0.42483 -0.40613 0.48022 -1.0016 -0.042024 -0.098355 -0.4832 -1.7654 0.10419 0.024868 -0.34064 0.072076 -0.80896 0.20274 0.66079 0.436 -0.47021 0.12205 0.20856 0.81932 -0.71803 
08346G 0.81529 -1.0259 0.11098 -0.030967 0.14018 -0.40698 0.2093 -0.33032 -0.30412 0.19475 -0.095617 -0.95623 0.92171 0.048554 -0.94207 0.5263 1.6439 -1.4094 0.62029 1.2613 -0.26092 1.0221 0.31112 0.40751 -0.869 -0.7353 0.055656 -0.26145 -0.11367 -0.51563 -1.058 1.7773 -0.31757 1.5575 0.75618 0.53357 -0.36051 -0.099363 -0.099517 0.52855 0.18993 1.2601 -0.78275 -0.17794 0.64858 -0.36822 -0.3142 -0.31475 -0.77469 0.47687 0.34833 1.2589 -0.45063 -0.70523 -1.0382 0.72145 0.58086 0.54293 -1.1116 0.33642 -1.1148 -0.58193 -0.0040858 1.2549 1.206 -0.61405 0.89374 -0.75074 -0.7975 1.7293 -0.35622 1.2683 0.38017 -0.28042 0.55495 -0.01385 -0.3104 0.22499 -0.045427 0.14939 0.88125 0.13416 -0.35455 -0.2376 0.037446 0.20158 1.4344 0.80304 0.12507 0.81401 0.30084 0.45404 -1.253 1.0471 0.23267 0.91383 -1.0415 0.0092593 0.72693 -0.66863 
01945J 0.7463 -0.0045518 0.84737 0.74004 -1.0553 0.023271 0.44987 -0.34167 -0.68396 -0.38491 -0.017846 -0.023697 0.88546 -0.16944 -0.64186 0.13077 0.47462 0.01071 -1.2587 0.34773 0.47165 -0.6233 1.0657 -0.80003 -0.13733 -1.4097 -0.22276 -0.19291 0.45821 -0.067529 -0.7081 0.55017 -0.73126 -0.28713 0.69804 -0.90904 -0.42051 -0.63904 0.6095 -0.49767 0.36059 -0.4479 0.35293 0.03584 -0.35666 -0.29953 -0.44559 -0.55976 -0.8895 0.056851 -0.53866 0.45579 0.26617 0.23794 -1.7808 -0.23413 -1.1553 0.33311 -0.40471 -0.38169 -0.88426 -0.44719 0.62022 0.00045039 -1.5153 -0.29004 -0.70505 -0.16779 0.61071 0.025383 -0.18792 0.32503 -0.24687 0.60994 0.35182 1.1262 0.10991 -0.2134 -0.54288 0.94425 -0.37539 -0.10944 0.31279 0.29654 0.30522 -1.9457 -0.087361 0.083481 -0.29651 -0.017815 -0.63422 -0.97685 0.98531 0.30038 -0.31982 -0.086484 -0.6782 -0.35006 0.2094 0.50677 
01169M 0.16496 -0.28549 0.36667 -0.090718 0.26916 0.24978 -0.31721 -0.66238 0.39311 0.6008 0.87788 -0.40203 0.65451 -0.36608 -0.56311 0.20143 0.13091 0.015827 0.45717 -0.015582 0.42809 0.69161 0.53666 -0.24406 -0.20343 0.50671 -0.51544 -0.10665 0.052284 -0.0023638 0.14714 0.49515 0.0010338 0.26384 0.14052 -0.36412 -0.45169 -0.1176 -0.85536 0.18426 0.16988 0.15138 -0.049 0.0041334 0.57891 0.059749 -0.24199 -0.11787 -0.17671 0.23253 -0.23342 -0.44679 -0.40139 -0.3184 -0.7381 0.21746 -0.12392 0.14789 -0.11309 0.26825 -0.33242 -0.5354 0.52789 0.35949 -0.1033 0.085962 0.097227 -0.053042 -0.6012 0.24364 0.64878 0.082385 0.51543 -0.28618 -0.096409 0.29502 -0.94961 -0.3283 0.16257 0.30242 0.3427 -0.27923 0.012233 -0.32365 -0.084333 -0.063488 0.50232 0.86343 -0.026364 -0.086131 0.0058887 -0.37044 0.47433 0.47432 -0.084229 0.46482 0.14107 -0.45446 -0.41254 -0.24765 
02418G 0.48739 -0.34741 0.27964 -0.057581 1.1139 0.63659 -0.13738 -1.1043 -0.83609 -0.060147 0.046747 -0.14639 0.65577 -0.17215 0.073047 -0.053135 -0.29369 0.68656 0.67932 0.16612 0.19209 0.50474 0.048002 -0.62931 0.029591 0.19435 -0.7782 0.034509 0.2384 -0.8145 0.36575 -0.95365 -0.40683 -0.39042 -0.10724 0.45486 -0.4241 -0.35708 -0.43601 0.47381 -0.11196 -0.089956 -0.59837 -0.31106 0.24749 0.16514 -1.0593 0.11902 -0.1246 0.13479 -0.11928 -0.613 0.32782 0.60702 -0.10437 0.57166 -0.55708 0.73908 0.37204 -0.11828 -0.3777 -0.81577 0.098908 0.65874 -0.42994 -0.56578 0.062084 -0.17401 -0.41478 0.09595 -0.488 0.15674 -0.23531 0.07482 0.17971 -0.30111 0.77258 -0.3206 -0.53118 0.6944 0.15222 0.47387 -0.8317 0.36032 0.19361 -0.53572 -0.12973 -0.24314 -0.28342 -0.4231 -0.041315 0.22855 0.37653 -0.65838 -0.58434 0.14869 -0.98295 0.14601 0.019439 0.6477 
02457H 0.11735 -0.2483 -0.5585 0.8332 0.49429 -0.094809 0.16883 -0.39707 -0.82821 -0.64681 -1.169 0.38576 0.58536 -0.028392 -0.028179 -0.26187 1.0624 1.0165 -1.26 0.18002 0.72447 -0.68574 0.75774 0.32725 -0.75618 -0.49267 -0.63214 -0.13936 0.36554 0.12606 -0.7208 0.85641 -0.14663 -0.59183 1.8096 -0.81984 -0.83878 -0.24732 -0.26786 0.47073 0.46517 -0.89192 0.42015 0.44252 -0.62104 -0.36142 -0.14259 -0.3212 -0.02417 -0.43869 -0.22336 0.68432 -0.8273 1.6354 -1.4227 -0.21623 -1.1235 -0.29717 -0.3851 0.72904 -0.64525 -0.75592 0.85768 -0.26319 -0.45311 -0.29108 -0.35027 0.89879 -0.085379 -0.66845 -0.36908 0.38135 -0.35404 0.84789 0.28206 1.1495 0.86231 -0.30207 -0.24511 0.6852 -0.16942 -0.2993 0.88755 0.09038 -0.47841 -0.93744 -0.12948 0.19746 -0.7883 -0.42472 -0.67864 -0.94242 0.3026 0.049062 -0.49579 0.40918 -0.8352 0.40486 -0.30006 0.10936 
08238N 1.5669 -1.2318 0.79889 0.34963 -0.39717 0.46838 0.56391 0.69583 0.2409 0.19401 1.2733 0.1479 1.5539 1.2187 -0.055329 -0.59082 0.46522 -1.2361 1.2794 0.90205 1.5115 -0.89232 0.6829 -0.50269 -1.2042 0.29022 -1.3248 -0.13885 0.34689 -1.8642 -0.64367 2.1647 -1.4347 0.36875 0.69935 0.11526 0.84834 -0.41235 -0.81719 -0.33926 -0.61362 0.9541 -1.1734 -1.3287 3.7625 0.12648 -0.99285 0.62316 -0.40098 1.2778 0.98095 0.084804 -0.35079 -1.0797 -3.0006 -0.068239 0.93326 0.20287 -1.8389 1.6669 -1.3588 0.62329 -0.90694 0.11469 0.70526 0.10614 0.28131 -0.51269 -2.1336 0.13513 0.15486 0.12544 0.61107 -0.32389 0.51297 -0.32839 -0.74428 -1.1518 -1.029 0.8501 0.70432 1.3833 -0.30919 1.7754 -0.07989 0.81996 3.229 1.7378 0.78242 1.177 -0.75949 -0.82406 -0.87701 0.3288 -0.14479 1.4858 -0.020044 -0.32021 -0.1623 -0.30964 
08313M -0.52257 0.11265 0.7653 0.47633 -0.37706 -0.58273 0.13338 0.094088 -0.88195 0.027791 -1.3261 0.50507 -0.12499 -0.24084 -0.72516 -0.5907 0.38727 0.046592 -0.60842 -0.35779 -0.02985 0.27897 0.97353 0.84245 1.3815 -0.42379 0.24213 0.095362 -0.025347 -0.49032 -0.18134 0.36348 -0.57702 0.6409 0.12079 0.94446 -0.48311 -1.237 0.070821 -0.15453 0.15975 -1.5583 -0.83432 0.58063 0.22338 0.11779 0.19577 0.069587 0.33284 0.6008 0.44483 -0.16537 0.22878 0.38708 -1.4476 0.61155 -1.0179 -0.14338 -0.31795 -0.37685 0.40952 -0.54173 -0.057075 0.73905 -0.27957 -0.58029 0.20033 1.4552 -0.44737 -0.77128 -0.96401 -0.10368 -1.0354 -0.14381 0.29667 -0.057678 -0.65598 -0.78013 -0.59905 0.025843 -0.73613 0.87557 -0.99718 -0.097075 0.43573 -0.17516 -1.4366 0.02398 -0.11683 0.14494 0.26208 -0.074622 0.075642 0.56 -0.45737 -0.49826 0.094741 0.91169 1.0503 -0.785 
01207M 0.46674 0.038037 0.66571 0.53538 0.48234 0.088313 -0.92308 -1.0706 0.0055081 -0.64785 1.1399 -0.14407 -0.022302 -0.70469 0.22233 0.49723 0.095232 -0.46447 0.50571 0.58316 0.64582 0.19788 0.10936 -0.4145 1.0307 0.86017 -0.89387 -0.26622 -0.17244 0.12884 0.94819 -0.44705 0.15187 -0.6446 -0.11489 -0.16189 -1.0483 -0.051143 -0.89741 0.55242 -0.4778 -0.24355 -1.699 0.073072 0.89515 0.041871 -0.21467 -1.0276 0.23837 -0.35438 0.28278 -1.3343 0.076401 0.25317 0.44266 0.13422 0.33628 0.28901 0.40253 0.30623 -0.37434 -0.19595 0.45421 0.28391 0.24372 0.6096 -0.12427 -0.60785 0.62412 -0.09881 0.22413 -0.97281 0.80053 -0.12121 -0.29181 0.48182 0.079351 0.58952 -0.12243 -0.15989 0.45299 -0.45291 -0.71213 -0.42797 0.62351 -0.27235 1.0462 0.65894 -0.00035329 -0.93349 -0.13563 0.12025 0.63708 -0.45358 -0.34647 1.2726 0.56095 -0.5663 0.10628 1.3208 
02922T 0.064726 -0.51539 0.71099 -0.20196 0.22338 0.83386 -0.080554 -0.10614 0.15804 -0.36843 0.7123 0.18508 -0.027016 -0.47603 0.60343 0.57499 0.034299 -0.087365 -0.12088 -0.068049 0.067836 0.48663 0.0666 -0.18655 0.31007 0.16166 -0.3383 -0.28469 0.05594 -0.41499 -0.20235 -0.31869 0.19995 -0.51303 -0.18608 0.1268 -0.27853 0.75026 -0.38813 0.29624 0.78065 0.33222 0.59751 0.16862 0.67304 0.11409 -0.08083 -0.94745 -0.23064 -0.14855 -0.22816 -0.47404 0.002406 0.56624 -0.31033 0.15288 -0.51468 0.46485 0.26997 -0.23326 -0.39242 0.078297 0.49152 -0.0093954 -0.30222 0.21025 -0.81948 0.049194 0.33509 -0.28231 -0.38463 -0.25455 0.41156 -0.052648 0.47155 0.16865 -0.12856 -0.41096 0.047841 -0.20486 -0.2086 -0.10497 -0.68086 0.041339 0.25191 -0.26747 0.35731 -0.050748 0.3238 0.11405 -0.073108 -0.31518 0.60633 0.47104 -0.27807 0.029902 -0.092125 -0.48515 0.17192 0.69726 
08523N 0.33563 0.34998 0.069616 0.31865 0.21334 0.56834 0.048682 -0.94206 -1.194 -0.62486 0.22983 0.6926 0.22335 -0.63781 -0.20483 0.065282 0.08026 0.32658 1.1673 0.12344 0.55504 0.46808 -0.049983 0.21151 1.1278 0.17527 -0.54929 -0.77144 0.0967 -0.16116 0.70676 -0.00071018 0.34749 -0.4258 -0.50837 -0.40759 -0.83797 -0.66733 -0.819 -0.20167 0.27014 -0.13386 -1.2886 0.52299 0.576 0.25034 -0.61256 -0.65802 -0.47992 0.13795 -0.46116 -1.1332 0.069734 0.56007 -0.56275 0.7118 0.04278 0.85472 0.25055 -0.52671 -0.49743 0.047559 -0.072046 0.22918 -0.28811 0.16811 -0.61558 -0.79198 -0.57751 -0.41822 -0.21563 0.099816 1.2835 -0.30667 -0.44504 0.50216 0.092495 -0.12739 -0.91765 0.28019 0.56086 -0.10545 -0.99354 -0.56361 0.012338 -0.96642 0.76206 -0.13897 -0.34553 -0.010659 -0.37419 -0.20774 0.16355 -0.079301 0.1273 0.33136 -0.39448 -0.5547 -0.11344 0.90986 
01801T 1.1815 -0.018246 0.95045 0.21849 -0.21162 -0.28668 0.98773 -0.55695 0.46417 -0.16742 -1.5882 0.39405 0.36859 0.79419 1.0574 0.072621 0.76619 1.6622 -0.25434 -1.132 -0.33624 0.81409 1.2747 0.86575 0.29796 -0.64 -0.0894 0.73791 0.11614 0.77614 -0.10495 0.56058 -0.88643 0.12753 -1.1591 -0.67769 -0.35939 -0.050947 3.1011 -0.15586 0.29462 -0.43184 0.053101 -0.080001 -0.094037 -0.76863 0.14449 -0.32056 -0.30034 0.44526 2.0247 0.80468 0.2256 0.5121 -0.1527 0.025672 -0.49429 -1.2254 -0.20008 0.93049 -0.38404 -1.0097 0.24494 -0.15722 -0.11564 0.083056 -0.028705 0.048403 -0.56348 -0.64732 -1.5296 -0.012924 -0.30493 0.55707 -0.51163 -0.29686 0.30215 -0.52864 -1.2086 0.8472 0.057783 0.069446 -1.2514 0.61258 -0.10552 -0.69031 -1.9335 -1.08 -0.4362 0.086661 -0.29702 -1.5116 0.93322 1.8824 1.3345 -0.79433 -0.48822 0.4321 -1.0437 -1.1484 
01325R -0.45014 0.12847 0.43591 -1.3072 -0.75538 -1.028 -0.49762 0.085551 -0.55137 -0.04379 -1.4739 0.84141 0.49365 0.98676 0.88432 1.1784 1.3361 0.52659 -1.1852 -0.11811 -0.37135 0.53439 -0.90859 0.23213 -0.16249 0.61115 -0.34007 -0.10632 0.39407 -0.257 -0.91028 0.23087 -0.61015 0.06713 0.14242 -0.011181 -0.23821 -0.61092 1.1119 -0.62198 0.07569 -0.77428 -0.57102 0.41575 -0.71094 -0.41446 -0.35853 0.14802 -0.56841 0.27998 0.27899 0.70656 0.16942 0.17694 -0.32635 -0.26297 -0.71126 -0.99061 0.45759 -0.39043 -1.1539 -0.79832 0.1023 -0.0024781 -0.36186 -1.2345 -1.1794 1.3648 0.0072064 -0.47694 -1.7453 0.6591 0.23475 -0.14711 0.0015872 0.80519 0.99984 0.51519 -1.1279 1.1871 -1.6383 -0.22539 -1.1847 -0.30588 0.30497 0.17658 -0.75875 0.1825 0.30386 -0.92156 1.1122 -0.36098 0.71014 -0.023275 1.1276 -0.48134 -0.41958 0.54995 0.34474 -0.44054 
01279H 0.42049 0.597 -0.20944 -0.64107 -0.1116 1.1515 0.52026 0.96233 0.38312 -1.2182 -1.2464 1.2548 0.30288 0.97927 -0.25696 -0.45143 0.088531 -0.64636 -0.81276 1.9271 -0.23038 -0.23957 -0.17087 -0.017715 0.54086 0.086122 0.063941 -0.18092 0.24049 -0.35616 -0.93234 1.5818 -0.62022 0.17009 0.8127 0.27006 0.52488 -0.52608 0.99161 0.74309 0.27314 1.2944 0.26416 -0.81588 0.36016 -0.17073 -1.56 -1.0775 -0.0532 -0.64516 0.47672 0.8419 -0.97235 0.19347 1.0886 0.98198 0.12333 1.026 -0.035971 -1.4143 -0.15521 -0.0062754 1.0965 -0.42752 -0.1727 0.34242 -1.6192 0.27722 -1.0958 -0.99544 -0.26329 -0.64809 -0.64862 0.032282 -0.042861 1.9638 0.285 -0.53922 0.1598 0.63416 -1.5536 0.16441 -0.43613 0.40235 -0.99362 -0.031481 -1.5291 -0.20993 0.83427 -0.66315 0.1878 0.037618 1.4877 0.30748 -0.72655 -2.0184 -1.3874 0.038161 -0.36462 -0.82498 
08521L -0.37958 -0.073623 0.79145 0.27971 -0.64229 -0.85655 -0.42998 -0.11845 -1.1519 -0.42667 -1.4829 -0.14858 -0.098111 -0.5589 -0.68312 -0.69493 1.178 0.29383 -1.2017 -0.8282 -0.63721 0.30539 1.0243 1.2317 1.4655 -0.54124 0.20803 0.84706 0.15439 -0.5929 0.55191 0.098778 -0.4264 0.8353 -0.301 1.458 -0.5223 -1.1384 0.39825 -0.48136 0.1145 -1.4587 -1.0279 1.0335 0.095232 0.061289 0.09886 0.067577 0.21439 0.88033 0.77769 -0.043227 0.4327 0.23927 -1.1254 0.20978 -0.95131 0.18067 0.20652 -0.30208 0.30034 -1.0661 -0.13687 0.72975 -0.41317 -0.09574 0.15804 1.1571 -0.62562 -0.61567 -1.0463 0.06593 -0.8538 -0.19396 -0.14035 0.10207 -0.9206 -0.93221 -0.95943 -0.024499 -0.45198 0.95345 -1.043 -0.020945 0.61452 -0.10272 -1.9209 -0.079598 0.14247 -0.30291 -0.21166 -0.12791 0.12615 0.89872 -0.99519 0.047372 -0.24444 0.84771 0.78726 -1.039 
DT -0.13182 0.98067 -0.7425 0.13225 0.71681 0.46952 -0.99836 1.4131 0.44144 0.93268 -0.76286 0.69058 -1.0785 -1.0842 -2.4299 0.75869 0.21019 -0.070418 -0.59907 0.85875 -0.27401 -0.09589 1.0789 0.74811 -2.4263 0.13092 -0.18153 -0.56656 0.24551 0.095867 0.23599 -2.2892 0.18912 -0.99649 -0.39322 -1.0001 -0.81821 -0.44972 1.1592 -0.72954 -1.0122 -0.058356 -0.21419 -0.94237 0.33754 0.82208 1.6408 0.87385 -0.60899 0.23432 1.4611 -0.99853 -0.93778 -0.32884 -0.32475 1.5302 -0.34804 0.056096 0.46574 -0.5863 0.13221 -1.2743 -1.1815 -0.52486 0.062747 -0.64545 0.49489 0.26566 1.6534 0.051218 -0.75676 -0.41794 0.64348 -0.66978 0.58496 0.90621 0.057131 -0.55404 0.25899 -0.0793 0.88225 -1.5177 1.2459 0.64943 -0.052114 0.97229 0.38981 1.1008 -0.26719 2.2872 -1.8664 -0.60318 0.24118 -2.2488 0.095637 -1.0115 1.2087 1.1163 0.24373 0.13531 
01970Q -0.40673 0.22218 0.86369 0.079354 -0.47389 0.64171 -0.12779 -1.2917 -0.58211 0.59103 -1.0564 -0.15985 0.13081 1.6059 -0.73271 0.30777 0.58481 0.58465 -1.0133 -0.0098879 -0.23954 -0.11033 -0.20283 0.093175 -0.73111 -1.5448 -0.51817 0.55718 -0.35121 -0.40565 0.017137 0.39824 -0.65816 -0.27689 0.75133 -0.91514 -0.0509 -0.55882 0.46323 0.063282 0.61392 -0.73503 -1.4671 -0.46911 -0.55477 -1.4316 -1.2092 -0.30331 0.10277 0.069734 -0.043714 0.4697 -0.31114 1.3979 -0.65816 -0.51621 -0.99927 -0.087518 -0.48055 -0.011922 -0.98728 0.30942 0.55467 -1.048 -0.4885 -0.065628 -0.11152 0.89771 -0.21841 -0.26844 -0.50531 1.0882 -0.38065 0.92607 0.18295 1.3315 0.34471 -0.069143 0.43527 0.4993 -1.1658 0.38927 0.28268 -0.35372 0.87065 -1.1499 -0.68656 -0.33364 -0.1528 -0.20355 -1.1667 -1.3963 0.15012 0.56433 0.14721 0.050659 -0.018468 -0.098241 -0.52902 0.03654 
4.0 1.1091 0.98241 -0.016927 0.15683 0.9953 0.17307 -0.52799 0.6591 0.8469 -0.021416 -0.76819 -0.633 -0.974 -1.6691 -1.7401 0.32159 0.1662 0.71624 -1.2443 0.08958 -0.44896 -1.0423 0.024458 1.793 -1.0389 -1.2352 0.74853 -1.0411 0.222 1.2021 0.33717 -1.8863 -0.37274 1.8135 -1.4845 -0.94163 -0.77098 0.44099 -1.116 -0.26356 -0.79182 0.38278 0.43259 -0.19493 1.1778 0.00057474 1.5905 0.22983 -0.53884 0.96745 0.95393 0.008788 -0.11425 -0.051155 0.14965 -0.78722 -0.76806 0.77556 1.4153 -0.11473 -0.17517 -0.55972 -1.1704 -1.3194 -0.27571 -0.54567 -1.4538 -0.34756 2.0875 -0.28231 0.065148 1.297 0.83622 -1.8551 1.4503 0.45987 -0.26536 0.21938 -0.35294 -0.88682 -0.69089 -1.2277 0.24875 1.8162 -0.42804 0.36339 -0.063426 -0.45806 0.86541 0.7415 -2.4095 0.16751 -0.65976 -1.4777 0.73113 0.11739 0.57939 -0.88019 -0.35921 0.060533 
02793B -0.60294 0.12503 0.69781 0.53311 -0.069152 0.66284 -0.83254 -0.68667 -0.74539 0.67737 -1.0698 -0.83929 0.33085 1.3102 -0.21767 0.70179 0.97 0.54524 -0.66545 -0.073666 1.1219 -0.21457 0.29224 0.5923 -0.26698 -1.3048 0.14657 0.44649 -0.12331 -0.4202 -0.11861 0.25897 -0.70556 -0.42096 1.1279 -1.5257 0.84853 -0.93518 0.35613 -0.9971 0.56632 -0.3277 -0.38806 -0.6544 -0.41514 -0.0047667 -1.2126 0.26079 0.1425 -0.6098 0.47389 0.60452 -0.075713 1.6738 -0.74036 0.13033 -1.4962 0.51108 -0.865 0.21583 -0.74505 -0.12476 0.4235 -0.28588 -0.37828 -0.47052 -0.056774 1.0449 -0.025993 -0.60398 -0.36695 1.2503 -1.02 1.0615 -0.18915 1.4016 0.16345 0.024016 0.08573 -0.45496 -0.97658 -0.24232 0.18686 -0.19426 1.1645 -1.7146 -0.068349 -0.68847 0.67117 -0.092899 -0.52366 -1.5024 0.37275 0.67053 0.22349 0.76224 -0.57022 0.7307 -0.55933 0.039094 
