375 13
73909 -2.5375 0.58467 0.080192 -0.74868 -0.57532 1.0259 0.14241 0.26139 1.77 1.3636 -0.72034 1.2998 0.068498 
66515 -0.59109 0.82564 0.029911 -0.52603 -1.2953 1.1585 -0.72845 0.099571 0.55491 -0.67439 -1.1525 0.87797 -0.88566 
116 0.050448 0.30091 0.34527 0.74002 -2.1807 1.1704 -1.5585 -1.3452 0.17875 -0.077344 0.44418 -1.2454 1.4205 
65070 -1.1294 1.2286 0.39388 0.14116 0.15338 1.0346 -0.59024 -0.16112 0.13678 0.39111 0.038594 1.1583 0.10877 
49318 0.1106 1.1477 0.2182 -0.15688 -0.65259 0.23021 0.41125 -0.78016 0.2597 0.10755 0.18751 0.30868 0.26844 
</s> -0.1277 0.29135 0.53565 0.056036 -0.17108 0.46568 -0.09767 -0.82508 1.0369 0.22447 -0.12671 1.1862 -0.060685 
17603 0.46318 1.2148 -0.007027 0.060016 -0.47902 -0.00087715 0.32152 -0.78761 0.11646 -0.31526 0.60841 -0.25093 0.58488 
57712 0.12397 1.1109 -0.18768 -0.042744 -0.15297 0.54035 0.3259 -0.69657 0.075636 -0.040097 0.13194 0.68088 0.25258 
21214 0.16553 1.3871 0.14798 -0.0076596 -0.55388 0.074111 0.58667 -0.97684 -0.057897 -0.25988 0.21615 -0.11717 0.57208 
51303 -0.028022 0.93861 0.22275 0.12955 -0.38462 0.28607 0.70466 -0.85789 0.47026 0.21356 0.44189 0.20229 0.35456 
73907 0.34833 0.83433 0.57929 -0.62939 -0.2335 -0.21617 -0.20042 -0.86084 1.1771 0.38704 -0.45531 1.6748 -0.36719 
65099 -0.24976 0.56873 0.47385 -0.4997 -0.56539 0.59135 0.1956 -0.54934 0.57255 -0.16578 0.1199 0.94618 0.13568 
57715 -0.35673 0.95218 0.94294 -0.71817 -0.6172 0.54715 0.61308 -0.11466 0.6407 0.25663 -0.076074 0.1628 0.10818 
65120 -2.0614 1.0632 -0.13141 1.4729 -0.58592 0.85093 0.49169 -1.2355 0.84619 -1.2826 1.2897 1.7563 -2.4649 
69333 -0.59906 0.52762 0.78992 0.49443 -0.097777 0.31723 -0.69581 -0.69914 1.0213 0.1801 -0.45423 1.3908 0.30834 
105 -0.065511 1.6164 -0.3534 -0.6146 -0.24501 -0.03908 -0.36558 -1.1791 -0.29531 -0.038736 0.47951 -0.53068 0.6581 
65060 -0.33894 1.0766 0.35568 0.090767 -0.42591 -0.17585 -0.17261 -0.94086 0.61219 0.24893 -0.14714 0.67829 0.44729 
22030 0.01781 1.2742 0.54882 -0.088134 -0.72652 0.096312 0.6429 -1.0353 -0.046063 -0.37768 0.47213 0.3332 0.76099 
11700 -0.30694 0.81772 -0.59841 -0.42838 -0.70656 0.63677 0.10687 -1.5156 -0.16401 -0.61611 0.78688 -0.28815 0.36184 
110 -0.92581 1.2832 -0.13252 -0.58213 -0.30805 0.32827 0.24765 -1.3606 -0.11723 -0.9093 0.3574 -0.93237 -0.027713 
23 0.87649 1.0733 -0.65183 -0.42786 -0.33912 0.21014 0.1674 -0.74303 0.2395 -0.0025643 -0.02183 -0.12227 0.4126 
58503 -0.35792 0.82091 -0.32877 0.44858 -0.90173 2.0421 -0.30958 0.66297 0.22898 -0.13677 -0.15276 0.21742 0.33338 
22002 0.097284 1.2996 0.48265 -0.15118 -1.1236 0.081672 1.3373 -0.80775 0.35839 0.17777 0.59604 -0.17264 0.76739 
22035 -0.29572 1.0761 0.39699 -0.062504 -1.1957 0.27779 1.5124 -1.0567 0.22803 -0.23679 -0.015778 -0.018517 1.0779 
73915 0.36925 -0.040589 0.070573 0.40318 0.14397 0.13052 -0.16475 -0.68618 1.6627 -0.44694 -0.61353 1.8046 -0.38343 
55244 0.04463 0.22607 0.055687 -0.55674 -0.62992 1.4551 0.38969 -1.7327 0.093334 -0.53417 -0.34493 0.28344 -0.4995 
69478 0.96023 1.346 0.60929 -0.52898 -0.97849 -1.4195 0.24751 -2.0887 2.0772 1.0999 -0.55015 2.0989 -0.61392 
104 -0.037708 1.1041 -0.9212 -0.70502 -0.16525 0.83992 0.55095 -0.6217 0.072894 -0.34496 0.17382 -0.88121 0.13201 
33 -0.90858 0.80889 -1.6119 -1.119 -2.1125 0.37787 -1.0382 -2.3265 1.0874 -0.22999 0.72051 -1.827 -0.5693 
65105 0.21624 0.93673 -0.27889 -0.22896 -0.17702 0.76597 -0.16197 -0.25406 0.69019 0.6985 0.017402 1.0427 -0.28497 
65123 -1.0798 0.56091 0.47567 -0.019282 -1.5601 1.7979 -0.096809 -0.24255 0.25701 -0.55372 -0.54263 1.1711 -0.22312 
22012 -0.37623 1.9042 1.0317 -0.19051 -2.7258 0.27411 1.5228 -0.69567 -0.37553 -0.95741 0.71351 -0.15069 1.0676 
13709 0.93165 1.8079 0.04241 -0.80766 -0.73083 -1.6678 0.74703 -2.2152 1.4506 0.87392 0.34587 0.67859 -0.17276 
22025 -0.64938 1.4829 0.090782 0.20084 -2.428 0.15252 2.0762 -1.2486 -0.0094072 -0.60984 0.61683 0.12735 1.4243 
65096 0.39543 1.0756 -0.28154 -0.29597 0.095098 0.38689 -0.37499 -0.439 0.46436 0.42472 -0.23635 1.1666 0.016627 
73910 -1.6827 0.34011 3.032 -0.40266 -1.6644 -0.054212 -0.3535 -2.1357 2.2329 0.32636 -0.543 1.5943 -0.32223 
65090 0.66383 1.1451 0.35526 -0.83792 -1.7559 -0.72323 0.63873 -1.8524 1.1004 0.30386 -0.36499 1.1633 -0.44055 
69306 -0.36071 -0.11011 0.6229 -0.43731 0.14841 1.5926 -0.44522 -0.68093 0.8955 -0.10462 -0.85709 1.4434 -0.046069 
119 -0.27101 0.9352 0.20738 -0.062169 -1.813 -0.57833 0.69784 -0.86204 0.75392 -2.0144 0.90815 -0.21397 0.16422 
69384 0.45344 1.2821 1.1358 -0.32617 -0.99996 -1.4515 0.42931 -2.4356 2.0459 1.0541 0.31707 1.723 -0.49176 
66518 -2.5346 0.24929 0.2963 0.50569 -0.47661 3.5335 -0.45743 0.24422 0.35374 -0.24545 -0.38952 2.1575 0.17514 
18222 0.28346 2.2244 0.61605 -1.1177 -1.3008 0.2116 1.0206 -1.0601 -1.1803 -0.80751 -0.11217 0.20018 1.528 
69321 -0.70061 0.14545 -0.12785 0.84992 0.94402 -0.63542 -0.32908 -0.52053 2.4565 0.23654 -0.8327 0.98644 1.0922 
13876 -1.347 1.2223 -1.0058 2.7015 -3.7027 2.6873 2.1692 -1.6356 0.43764 -3.2673 2.6636 -1.0029 4.2322 
57521 0.21541 -0.23227 -0.69757 -0.73585 -1.1744 -0.1477 -0.42201 -1.279 1.6772 -0.2348 1.0738 0.82666 0.11831 
36 0.79163 0.91067 -0.51586 -0.24966 -0.16091 0.37877 -0.32797 -0.82342 0.30007 0.10817 0.95249 -0.5401 0.57791 
69387 1.3596 2.4564 -0.26293 0.41758 0.18505 -1.7696 -0.023635 -1.8384 1.403 1.4329 -0.20751 1.7832 0.15309 
66509 0.84006 0.60324 0.45238 -0.88001 0.55672 -0.19782 -0.057597 -2.016 0.50815 -0.082334 -0.79172 0.68514 0.51113 
66716 -1.2237 -0.43244 0.17825 0.00093092 -0.93548 2.2872 -1.2995 -0.24122 1.368 -0.32414 -1.1028 1.7967 -0.65467 
53 1.6481 2.2327 -0.41444 -0.43383 -0.4012 -0.96032 0.49047 -0.9555 1.3218 1.4879 0.19792 0.48642 -0.36904 
65126 -2.2454 1.0053 0.1343 0.0044354 -0.71341 2.2549 -1.1437 -0.17785 -0.22765 -0.45611 -0.87031 1.3476 0.71103 
66500 -1.7453 -0.08719 0.66436 -1.0396 0.49718 1.6995 -0.94759 -1.156 0.74461 -0.8659 -1.6775 0.9816 0.55463 
66512 0.53845 0.52657 -0.28214 -0.15338 -0.010229 1.2076 0.40215 -1.5183 -0.049692 0.14847 -0.78238 1.4377 1.1216 
69354 -1.0314 0.25093 0.054511 -0.58717 -0.033781 0.73931 -1.3153 -0.94353 1.4332 0.12125 -2.4769 2.1949 0.038726 
65129 -2.0459 0.46155 0.26134 -0.40968 -1.3904 2.676 -0.21703 -0.34748 -0.099545 -0.97734 -0.33599 2.1929 -0.27808 
22040 0.38492 0.40096 -0.33861 -0.36037 -0.054845 0.18433 0.40086 -1.0969 1.0656 0.66856 0.49883 0.64051 0.56045 
40 0.50817 1.0403 0.24248 0.32812 0.066119 -0.02098 -1.009 -2.0707 0.52217 -0.87083 0.75652 -1.9951 -0.49094 
73903 -0.19319 0.2714 1.9973 0.28676 0.87467 0.049539 0.54862 1.2431 3.3236 -0.018912 0.7915 1.6386 0.29001 
13706 -0.16834 1.3451 -0.030309 -0.34148 -0.46727 -0.11357 -0.07091 -0.82262 0.14216 -1.1655 0.94185 -1.0954 0.74472 
72823 -0.26761 0.72046 1.2123 -0.045345 0.61487 0.032139 -0.23881 1.0832 1.9483 -0.22077 0.9304 1.2186 -0.41562 
55113 -0.1743 0.97184 -0.189 -0.9992 -0.021042 3.0729 0.97572 -0.13218 -0.72756 -0.91855 -0.72222 -0.3565 -0.55044 
66611 -1.5118 0.35525 -0.19866 0.33466 0.010537 1.4704 -1.0856 -1.2097 0.53195 -0.40785 -1.4866 2.4402 -0.0029751 
13873 -2.2294 3.5877 -0.79275 -0.12341 -3.6811 1.0388 -0.11653 1.3965 0.72781 -3.6292 1.8599 -1.1073 3.0533 
66566 -2.509 1.3236 -0.11834 0.91739 -1.3057 2.4264 -1.2937 1.5225 0.0094951 -1.6224 -0.37331 3.3625 1.0546 
66519 -1.6701 0.21857 -0.044156 -0.053864 0.0016958 2.676 -0.33529 -1.3465 -0.45667 -1.5506 0.39806 2.4435 -0.58739 
89 0.29322 1.8335 0.093413 -0.40622 1.5982 1.1864 -0.73249 -2.0915 -0.2468 0.86338 0.72837 -1.5138 -0.051257 
66596 -1.7943 -0.35012 0.13086 -0.42337 0.7882 2.853 -1.355 -1.5129 1.0716 -0.69914 -2.4753 1.0973 -0.38287 
18225 -1.0561 2.5264 1.6648 1.7403 -0.64096 -1.1337 2.1744 -0.80809 0.44361 -0.88676 0.41741 0.3127 1.7421 
24 0.13219 1.0605 -0.36782 -0.50516 0.15989 0.075587 -0.26057 -1.3557 0.34476 -0.36815 0.42211 -1.2014 0.35441 
50 -0.24624 0.946 0.66185 0.34417 -0.51445 -0.10655 -0.652 -3.0846 0.69147 -0.99866 1.4201 -2.0542 -0.52905 
66719 -1.7583 -0.063955 0.41808 0.17359 0.6271 2.5729 -1.3514 0.87906 2.2977 -1.3681 -2.4087 1.743 0.4624 
65111 -0.42783 0.82678 0.68517 0.21204 -0.32853 -0.36904 0.37686 -2.1039 0.65672 0.17392 -1.089 1.0684 0.78081 
13870 -2.1218 2.5903 -0.81259 1.0234 -2.8562 1.1563 0.46246 -0.11865 -0.38051 -2.7529 2.2193 -1.6775 2.4255 
69390 1.5618 1.7867 -0.0036895 -0.62308 0.40533 -0.86906 0.62182 0.22605 1.9384 1.1343 -0.10156 1.6184 0.30224 
61348 0.56846 0.57403 -0.2022 -0.6421 -0.5234 2.7797 0.40457 0.28964 -0.2391 -0.66316 -0.75767 1.8955 0.020924 
11712 1.5883 2.0055 -0.39238 -1.3252 0.46835 3.9381 0.82603 -1.4859 -1.1353 -0.82726 -0.11936 -1.9319 -0.030151 
66608 -2.1189 0.038669 0.22303 0.022618 0.50495 2.0699 -2.029 -0.62097 1.8456 -0.23347 -3.3077 0.7123 0.90214 
90 -0.59776 2.1886 -0.94486 -0.42464 0.52756 1.187 -2.0389 -1.5189 0.7509 0.55477 2.3085 -1.2073 -2.0239 
22020 -0.14181 1.2288 -0.61038 -0.20548 -2.3888 0.34628 0.96278 0.32728 0.29778 -2.3462 0.26762 0.51975 2.1238 
72816 -0.66812 0.66877 0.18019 0.17097 0.31103 -1.3995 -0.40257 -0.4012 3.07 -0.84706 0.59257 0.35434 -1.4616 
66602 -1.8028 0.71002 -0.33344 0.47015 1.5057 3.575 -1.6679 -1.0118 0.45557 -0.12623 -2.6979 0.64572 -0.72088 
22001 0.71862 2.1882 0.47016 0.099874 -0.018759 -0.015043 3.0353 -1.433 -0.69061 -0.80428 0.72992 0.34897 1.9373 
13103 -0.097853 1.0332 -0.37081 -0.22661 0.18844 0.17597 0.44498 -0.79957 0.50219 -0.28627 0.21899 0.046989 0.18167 
830 -0.49804 0.65908 0.073413 -0.90568 -0.51712 1.1703 -0.037782 -2.8283 -0.06288 -0.54593 0.17759 -1.1698 -0.73497 
36800 0.025606 1.2913 -0.38056 -1.5098 -0.095073 0.33287 -0.15805 -1.4214 0.14513 0.42749 0.0095874 0.51359 -0.58177 
57350 -1.6304 -0.17277 1.4554 -0.44731 -0.75806 1.0689 -1.3762 -0.73655 0.81761 -1.0416 1.0318 0.25717 -0.44787 
50124 1.64 1.1595 -0.6779 0.099704 -0.65647 0.15285 0.72565 0.27901 2.1446 1.6138 0.50638 1.0336 0.33005 
37 0.39317 0.87391 -0.28575 -0.30355 -0.19034 -0.091737 0.44355 -0.78319 0.8391 0.32663 0.57907 0.8719 0.61532 
52 1.8064 2.0355 -0.51413 -0.40386 -0.90869 -1.3405 -0.12274 -1.4763 2.0439 1.227 -0.078204 1.2928 -0.50673 
21402 -0.40374 0.57813 -0.52663 -0.81943 -0.63472 0.11689 -0.28302 -1.3121 1.5195 -0.32995 1.8716 -0.92986 -1.4339 
11702 -0.66005 0.37551 0.2726 -1.3156 1.5575 1.0725 -0.65932 -0.33061 0.59642 -1.5181 0.65369 -0.70072 0.79023 
66800 -2.6414 -0.17278 0.98173 0.50881 0.75447 1.1082 -1.79 -0.095203 2.6529 -1.6903 0.021526 1.7626 -0.82904 
58903 -1.4397 0.83248 0.25263 -1.3427 1.7542 0.81606 -1.0305 -1.4429 0.49321 -0.98913 -0.71558 0.21515 -0.68272 
3 0.92583 1.3929 0.18991 -0.13602 -0.028447 0.6828 0.4305 0.17062 0.082092 0.059776 0.36601 0.016138 0.48011 
69318 -1.5599 -0.11419 0.9043 0.59871 1.0984 2.5839 -1.7015 0.092537 1.9581 -1.2253 -1.1866 3.5282 -0.66144 
61307 0.12887 1.3064 -0.55806 -0.87705 -0.15725 3.8377 -0.38977 -1.6565 -1.0175 0.36015 -1.1283 -0.28097 0.08273 
69303 0.84591 1.2771 0.12598 0.36542 -0.29956 -0.72034 -0.0879 -0.41675 1.1036 -0.34873 -0.30242 2.0814 1.0272 
18216 -0.50802 3.0526 1.4452 -0.46895 -0.5414 -1.7339 1.1969 -0.1957 0.54179 -0.32482 1.069 0.087695 1.9195 
66503 -1.0619 0.28615 0.37424 -0.98422 0.50339 1.901 -0.25873 -0.60847 0.28967 -0.57299 -1.1483 0.99605 0.099152 
60506 -0.22686 2.6092 -1.071 1.6005 -0.57488 1.2328 -1.5279 1.0086 -0.10976 -0.78336 -2.3211 -0.20688 -0.58411 
66551 -0.62211 -0.20718 0.26507 -0.26057 -0.10988 2.9786 -0.078852 -1.8011 0.046504 -0.75288 -0.57207 0.54889 -1.5447 
47930 1.0039 1.6135 0.017071 -0.60665 1.2264 -0.56358 -0.41299 -0.36969 0.4634 -1.0554 0.31622 -0.27404 2.1818 
66695 0.035789 0.059778 0.92237 0.12255 2.6922 2.7365 -0.52653 -0.053646 2.2714 -0.11942 -3.6505 0.70966 1.9412 
66614 -0.90663 -0.12796 0.77906 -0.81245 1.8161 1.7564 -0.79193 0.29941 2.3342 -1.9103 -2.5489 0.79318 1.518 
11701 0.32588 1.4505 0.42278 -0.66752 0.43149 1.2749 -0.9604 0.6494 -0.0371 -0.74297 0.3044 -0.53531 -0.08035 
66569 -2.7823 0.9516 -0.64621 1.9083 -1.3577 3.1649 -1.5268 1.7895 1.4737 -1.733 -1.341 3.8896 0.74276 
69345 -1.9839 0.058406 0.51569 0.53901 0.068341 1.5505 -1.9945 0.43935 2.1756 -2.2954 0.3711 1.935 -1.1555 
51300 0.11696 1.2546 -0.162 -0.66389 -1.4802 0.23136 0.80251 -0.32879 -0.03437 -0.6515 0.19106 0.14542 1.9868 
56619 3.2511 0.84303 -0.58753 -1.147 1.6564 1.5669 -0.35912 1.4269 2.4795 0.82745 0.51182 0.18554 1.4143 
57509 -0.94589 0.065393 -0.28562 -0.17683 1.5957 1.7393 -1.6284 -0.87377 1.2183 0.46264 0.48782 -1.2693 0.51647 
66506 0.032431 1.3943 -0.46807 0.048818 0.72166 0.2354 -0.56698 -0.72604 -0.01661 -0.23224 -0.82442 1.4988 0.64208 
66563 -1.1723 -0.75466 0.14896 0.33375 0.32627 2.2898 -0.12299 -0.82071 1.4289 -1.156 -0.40818 3.3256 -0.4131 
66536 -1.857 0.92527 -0.051538 -0.50736 -0.64927 2.5581 -1.0454 -0.8298 -0.23383 0.21111 -0.50555 0.90017 -0.52729 
69357 -0.055036 -0.55393 0.55034 -0.45077 0.73814 1.2675 0.95181 0.32234 2.2009 -0.75355 0.24438 3.4586 -0.27388 
21200 0.30114 4.3031 -1.336 1.039 -0.84528 0.72423 -0.33992 1.2088 -1.0135 -1.4191 -1.1989 -2.4449 0.029949 
57527 -0.68658 1.3834 -0.24619 0.89205 -1.3211 0.16701 0.11698 -1.7812 0.66734 0.89643 0.66385 -0.42018 0.47165 
69402 1.6816 1.7621 0.86372 -0.41251 -0.36584 -0.94685 -0.26167 -1.6164 1.2426 1.1941 -0.22663 1.8067 -0.54517 
55274 -0.99933 0.53792 0.89829 -1.0003 -1.6887 1.7572 0.39484 -1.3024 -0.51948 -2.1302 1.9784 0.42737 -0.23662 
21210 0.82001 0.76497 -0.7866 -1.5926 -0.96652 -0.29009 0.051675 -0.60093 2.4642 1.4615 -0.20784 0.24736 0.025493 
66764 -2.7859 0.67516 1.8697 0.18933 0.6421 1.9915 -2.7255 -0.30536 1.5916 -0.76782 -0.75916 1.6364 -1.1544 
55114 -1.8434 1.128 0.64228 -1.1433 -0.0095925 0.91871 -0.36864 -1.2378 0.52757 0.24566 1.1003 -0.4028 -0.29636 
55036 -0.34036 0.37003 -0.086863 -0.00022179 -0.66339 -0.15884 0.74096 -0.40552 1.4155 -0.25363 -0.18513 0.39522 0.79331 
66656 1.1188 0.22812 0.25504 -1.1319 0.79712 1.2169 0.10726 -0.12251 0.7399 -0.033256 0.51247 0.96459 0.19256 
11603 0.79076 1.4789 0.178 -0.45434 0.31349 1.5848 1.176 -2.1564 -0.88374 0.2445 0.71065 -0.10602 -0.0047788 
72824 0.77516 0.14364 0.82441 -0.92528 1.3255 1.43 -0.83008 0.62823 2.3777 0.16178 0.51061 1.6511 -1.1114 
55038 -0.082944 1.3738 -0.58021 -0.41709 1.4798 0.77735 -0.58567 -0.0034565 0.019568 -0.80095 -0.8516 -0.40068 0.49079 
66599 -0.80499 -0.30423 -1.3041 1.4999 0.45457 2.0156 -0.86971 0.19773 1.8705 -0.53249 -1.074 0.44857 0.14312 
66650 -0.19265 -0.29333 0.45756 -0.80283 0.99588 0.51991 -0.022908 0.40291 2.0372 -0.97691 -1.581 0.68585 1.511 
58100 0.61375 0.05895 0.31748 -0.41842 0.38687 0.66328 0.36386 -0.51376 1.0598 -0.3125 -0.45987 0.52581 0.28547 
32090 -0.037417 0.8265 0.21772 -0.98359 0.87243 2.289 1.0402 1.9876 1.5863 -3.3681 0.76093 0.94636 0.1233 
73921 1.645 0.62293 1.1589 -0.29491 0.73348 -0.7042 -0.62837 1.0394 3.254 0.030447 -0.57029 1.0649 0.37387 
44 1.7348 1.0241 -1.1377 -1.9747 0.012544 0.688 -1.2534 -0.55981 0.9693 -0.60937 1.2947 -1.9569 0.89973 
1 1.123 0.78169 -0.040068 -1.1227 0.27029 1.061 -0.94438 -2.2761 0.28393 -0.56594 1.3942 -2.8634 -0.09654 
61421 1.7994 0.16683 -1.0552 0.6599 -0.53282 0.97518 -0.66592 0.57996 2.1819 0.78233 0.39908 1.1944 1.3728 
13815 -1.3566 3.0501 -0.95812 -0.5217 -0.8192 2.121 0.46009 0.093745 -0.40978 -3.8735 1.4629 -3.1805 3.0052 
22014 0.13464 2.166 0.69226 0.14889 -1.2889 0.47801 -0.1574 0.10778 -0.8071 -1.1546 0.70857 0.33824 1.5705 
60509 0.12076 1.1219 0.73216 0.91097 0.18643 0.65456 -0.44286 -0.95608 -0.27394 -0.22585 -0.93578 0.63968 2.1466 
56307 -0.33567 0.53678 -0.70084 -0.63344 0.6843 1.6548 -0.63874 0.02412 -0.14232 -0.64066 0.4766 -0.19835 0.55827 
30473 1.1804 1.3295 -0.53261 -0.56386 1.2482 2.6067 -0.16657 2.103 1.7816 -3.9907 1.869 -0.75122 0.58053 
87 0.57089 1.9337 -1.1967 -0.66433 -0.24877 2.0248 -0.21217 -0.095356 -0.5526 -0.062067 0.27471 -0.90861 -0.75342 
47960 0.77741 1.3458 -0.14443 -0.62853 0.36412 1.3535 1.0089 -1.4903 -0.45182 -0.39716 -0.056293 0.17065 -0.11162 
73905 -0.13181 0.65194 -0.18047 1.454 0.75455 0.28522 0.03468 0.88161 3.5482 -1.268 -0.23338 -0.0081238 -1.0968 
59925 -1.3329 1.6456 0.47068 -1.9417 -1.0283 4.1618 -1.0168 0.43569 -1.3663 -1.5145 -0.42844 0.94801 -0.30454 
47048 0.72236 2.8697 -0.65563 1.8928 0.45676 1.0263 -0.79113 -0.22443 0.08312 -0.14781 -0.69337 -2.1939 0.0083351 
20740 1.2428 1.634 -0.61472 -0.63712 1.3013 1.1484 0.45653 1.2562 2.1259 -3.7818 2.1906 -1.5651 1.3976 
71106 0.23127 -0.20476 0.61199 0.99543 1.5427 2.7708 0.12149 0.81802 3.4544 -2.2927 -2.8348 0.22893 1.1792 
58106 -0.87171 1.3272 -0.43223 0.8354 0.43645 0.67326 -0.37248 -1.0297 0.13509 0.06333 -1.2282 -0.47699 -0.68234 
56223 -0.3751 0.38467 -0.8204 -0.73454 0.40509 0.78799 -0.74273 -1.6618 0.2974 -0.76051 0.15001 -0.93233 1.3235 
69481 0.13979 0.89542 -0.10461 0.27043 0.51124 0.25456 -0.3143 -1.2507 1.0873 1.2314 -1.1906 0.79529 0.097755 
38218 -0.63591 1.7949 0.20655 -1.4018 0.32821 2.9 0.078837 -0.91705 -1.1065 -1.8305 0.45245 -1.3168 -0.33693 
71097 -0.94817 -0.12189 0.20248 1.0843 1.2227 2.7312 0.9984 0.41449 2.3356 -0.95712 -3.4517 0.38796 0.41832 
71119 -0.85229 -0.21278 0.404 1.5648 1.9733 2.4318 0.50018 1.1196 3.592 -1.9278 -2.8577 0.20144 -0.073145 
91 0.17056 1.7036 0.05311 -1.481 1.6218 0.15212 -1.5615 -1.9124 0.82713 0.60165 0.64735 -1.1183 -0.1432 
31265 0.84321 2.3022 -1.1636 0.54214 -0.064432 1.6614 1.2635 1.1147 0.79238 -1.2454 0.9572 -1.953 -0.5224 
18270 -0.20419 1.3645 -0.070811 0.58134 -0.60147 0.67923 0.49056 -0.60166 0.011151 -0.057257 0.20394 -0.097916 0.44309 
21212 0.17995 1.2289 0.39246 0.40041 -1.3708 -0.71433 -0.0291 -1.1213 1.3273 0.73335 0.25772 0.40877 -0.048184 
66572 -2.2836 0.44252 1.0675 1.1053 -2.0998 1.0677 -1.1568 1.1292 1.4597 -0.53391 0.011356 2.01 2.1373 
66655 0.81685 1.172 0.067244 0.3955 -0.38396 0.20868 0.23488 -0.91496 0.75132 0.75418 0.27245 0.26453 0.063384 
54 0.91272 1.0307 0.30503 -0.49361 0.21055 0.22784 -0.92891 -1.0395 0.84891 0.79254 0.74156 -1.5227 -0.0079029 
25015 0.17867 0.61465 0.1025 -1.4252 0.66941 0.62439 0.13524 -1.2436 0.50358 0.15672 0.087413 -0.79936 -0.1105 
66722 -0.7895 -0.45607 0.64689 0.24484 1.2181 1.9509 -1.853 0.43618 2.5353 -1.5645 -1.197 1.0468 0.80807 
47927 0.070521 -0.38246 -0.052937 -0.99375 0.56602 1.1415 -1.4872 -0.95833 1.6162 -1.4221 0.15429 -1.7541 0.94592 
59 0.22714 1.0205 -0.018137 -0.076784 -0.2692 -0.0091436 0.13886 -1.0916 0.57569 0.15691 0.27554 0.1369 0.27127 
66632 -1.3575 0.19158 0.35388 0.1297 0.10434 2.1296 -1.0702 -0.18937 0.5614 -1.0327 -1.1389 1.8273 -0.039316 
60503 1.9124 0.44708 -0.85401 -0.9126 0.43454 0.26953 -0.22923 0.33879 2.9379 0.91778 0.97041 0.34368 0.48888 
832 0.33161 0.81236 0.32534 -0.44611 -0.20817 0.40427 0.16121 -1.9739 0.18034 -0.34314 0.26821 -0.2791 -0.5955 
55116 0.8408 1.7135 -0.54696 -0.99597 0.23529 1.9728 1.1067 -1.3151 -0.94579 0.48005 -0.44825 -0.32411 0.93303 
11506 0.24686 1.6988 0.086978 -0.37012 -0.34015 1.1567 -0.18937 -0.15877 -0.66786 -0.76206 -0.33927 -0.28947 1.1895 
22015 -0.74244 1.813 -0.4358 -0.0070834 -3.5801 1.0257 1.384 0.94645 0.24175 -2.4797 1.2835 0.16216 1.8569 
66653 -0.72514 0.56829 0.024438 0.87908 1.3172 1.6649 -0.71849 -0.93612 0.14701 -1.4585 -0.90049 1.8082 0.62562 
69360 -1.4616 -0.48551 1.1065 -0.39068 0.36535 1.9493 -1.7723 -0.062336 2.9672 -0.51121 -0.62829 3.5007 -1.0362 
56507 -0.41931 0.71879 -0.64149 0.23119 1.5971 1.8853 -1.7718 -0.31458 0.37167 -0.51407 -1.1879 0.4437 0.097603 
66560 -1.8187 0.57627 -0.33848 0.68643 -0.54351 2.3277 -1.9286 -0.22619 0.96207 -0.076919 -0.79206 1.4425 -0.049859 
56001 -0.45993 0.73818 0.20328 -0.43801 1.7673 0.85046 -1.2803 -0.59249 0.31517 -0.25155 0.084287 -0.075058 0.16103 
511 0.97486 1.4117 -0.39822 -0.61232 0.16074 0.40019 0.035736 0.05729 0.63939 -0.30168 0.1588 -0.95623 0.89477 
66803 -1.9545 0.63479 0.63334 0.55217 0.31616 1.6894 -1.6363 1.074 1.8708 -1.963 -0.13367 2.2756 -0.67149 
11312 1.1208 1.1511 -1.3586 -0.45891 1.2663 1.2491 0.42156 -0.51596 2.6426 0.25392 2.2804 -1.8275 0.47816 
19 1.0263 1.914 -0.013586 -0.49438 0.045426 1.0326 0.87351 -0.76526 -0.52843 -0.12122 -0.2699 -0.43198 2.0447 
66584 -0.64237 0.46088 0.26686 -0.86398 1.5042 2.326 -1.172 -0.1303 1.634 -0.28764 -3.1075 0.070763 1.0685 
11327 1.9538 3.2222 -1.1449 0.36538 -1.1 3.7886 0.77291 2.052 2.3794 1.6977 1.1097 -1.3025 1.4353 
41764 1.069 0.66608 -1.1391 -0.23595 0.13402 0.27262 1.6197 -0.19649 3.6339 0.48777 2.4294 -0.12536 0.84456 
12306 0.69169 1.4438 -0.73862 -0.56997 -0.16293 2.4041 0.77151 0.28179 0.012322 -1.5908 0.33401 -1.9655 0.86802 
71057 0.0036845 -0.0032089 -0.22541 -0.384 0.6254 2.3201 -1.4472 0.92751 2.8614 -0.32512 -0.58562 2.9823 -0.016313 
69309 -0.038404 0.19573 0.27552 -0.1672 0.73808 0.80623 -0.00065184 0.47042 1.8107 -0.48426 0.026401 1.1867 -0.17664 
65144 -1.0653 0.60319 -0.10254 0.67039 -1.0092 1.4082 -0.32622 0.094681 0.31436 -0.95448 -0.088164 1.3522 0.39025 
73901 0.51607 0.45353 -0.29349 0.65328 0.86733 0.85269 0.40305 0.48071 1.49 -1.174 0.033913 -0.80509 0.77583 
55039 -0.12757 0.53305 -0.11674 0.017657 -0.14368 0.67 -0.13525 -1.0719 0.51613 -0.17076 -0.40738 0.17724 0.0061751 
56007 -0.6704 1.5656 0.47857 -0.37316 -0.99887 0.556 0.18916 -0.43008 -0.046494 -0.99827 1.0635 -0.24528 -0.16147 
30032 -0.80799 0.42816 -1.119 -1.4232 1.7654 1.2806 -1.2439 -0.42188 1.2115 -0.76841 0.16203 -0.76548 0.16008 
69324 -0.025915 0.46259 -0.077962 0.060119 0.59317 0.56136 -0.06726 0.41344 1.7114 0.0031746 -0.22072 1.1397 -0.0024802 
304 -0.1906 1.1254 0.2772 -0.15727 -0.72529 -0.12609 0.31845 -0.90405 0.60737 0.023271 0.19404 0.24146 0.20791 
306 -0.0084782 0.6931 0.1366 -0.25717 -0.39066 0.7032 -0.047359 -0.98204 0.3441 -0.17193 -0.032038 -0.3863 0.1836 
30071 -0.072572 1.3033 0.40396 -0.040212 -0.97386 -0.18194 0.41704 -0.68678 1.0489 0.70899 -0.24492 0.69415 -0.22021 
55246 0.0003551 0.6571 0.09135 -0.087045 -0.21209 0.35341 -0.13273 -1.0808 0.61822 -0.1787 0.072579 0.50253 0.032477 
65114 -0.78296 0.81157 -0.19751 -0.11762 -0.62417 1.48 -0.024701 -0.080449 -0.10253 -0.86574 -0.16119 0.73083 0.79394 
13888 -0.4345 2.0418 -0.64519 0.18624 -0.69477 1.7444 -0.036681 1.4346 1.2205 -3.0491 1.2904 -0.66813 1.8818 
55117 0.29206 1.0971 -0.3522 -0.45663 0.094934 3.0309 0.45895 0.23004 -0.49318 -1.346 0.28794 -0.89712 0.79216 
10907 1.2218 1.0616 -0.20062 -0.70137 0.30928 0.19388 -0.14467 -0.81179 0.94487 0.16974 0.41639 -0.33136 -0.10743 
71109 -0.49457 -0.018889 1.5485 1.0048 1.1718 1.9376 -0.32891 0.9272 2.7064 -1.1421 -1.2106 1.0378 -0.061935 
11602 -0.51215 0.34158 -0.37663 -0.74733 0.35556 0.88956 -0.36539 -1.1577 0.85728 -0.59234 0.056199 -0.13677 -0.11688 
71113 -0.25864 -0.075075 0.21732 0.73504 0.63106 1.449 0.11876 0.23427 0.94308 -1.0798 -1.1379 0.37006 0.57209 
72830 -0.26328 0.49873 0.083466 -0.29359 0.84605 0.23325 -0.12029 -0.03319 1.7322 -0.44552 0.98131 0.22539 -0.54897 
39126 0.089305 0.97766 0.24077 0.32784 -0.82205 -0.36798 0.19185 -0.94313 0.90962 0.03707 0.16817 0.257 0.42625 
56409 0.27866 0.31434 0.063991 -0.37015 1.1683 1.1582 -1.0952 -1.2503 1.0985 -0.97771 0.63988 -1.6621 1.2867 
59751 -0.016914 0.46247 0.13487 -0.25505 0.60623 1.0631 -0.90892 -0.59802 0.92355 -0.99057 0.40839 -0.82652 1.119 
20810 -0.74258 1.3665 0.52466 -0.94808 0.3008 0.9732 -0.1843 1.2752 1.4874 -2.4499 1.6332 0.15074 -0.5593 
61446 0.049044 0.35463 0.021198 -0.2691 0.84173 1.0978 -0.71305 -0.31282 0.78507 -1.0006 0.25132 -0.29019 0.75455 
36812 -0.28111 0.93825 -0.22134 -0.10032 0.59022 0.83588 0.36697 0.064074 0.60099 -1.4066 0.066146 -1.1579 0.73851 
73913 0.69103 0.8511 -0.060602 -0.16865 0.13046 -0.0016273 -0.065489 -0.69327 0.88926 0.47533 -0.15061 0.46751 -0.22176 
65102 0.096504 0.90361 -0.10195 -0.22106 -0.088116 0.45466 0.11575 -0.70866 0.45196 0.10509 -0.2439 0.36397 0.38197 
18274 -1.1686 1.4368 0.61995 0.17621 -1.4226 -0.39682 0.30025 -0.29225 0.093138 -0.19483 0.21157 -0.039689 0.76752 
66698 0.094881 0.56234 0.15665 0.47635 0.4536 0.83199 -0.63419 -0.97731 0.54008 -0.14911 -0.22594 0.58453 0.10251 
22045 0.15293 1.1288 0.254 -0.25859 -0.46193 0.60654 0.47059 -1.0771 0.41721 0.694 -0.11734 0.06835 -0.106 
10918 -0.13244 1.1381 -0.1775 -0.45242 -0.1524 0.0098673 0.4874 -0.79191 0.37755 -0.46469 0.28742 0.18518 0.3286 
10900 0.15556 0.84675 0.2723 0.045432 -0.50433 0.091826 0.047367 -0.72813 0.91329 0.41117 0.060293 0.59493 -0.067632 
11600 -0.28916 1.0993 -0.4174 0.08619 -0.4448 1.3357 0.2911 0.67203 0.4117 -1.7553 0.59392 -1.2902 1.0944 
69475 0.9401 0.82615 0.041315 -0.79477 0.63877 -0.34851 -0.065322 -0.075719 2.1546 0.78192 -0.45356 0.87225 -0.045531 
13882 -0.62593 1.5572 -0.39211 0.58571 -1.6506 1.0795 0.15426 1.1953 0.64226 -1.9929 0.6156 0.1927 1.9777 
13755 0.52168 0.61121 -0.0088102 0.11534 0.089906 -0.21175 -0.13312 -0.66748 1.2572 0.028256 -0.27422 0.38694 0.19617 
71059 -0.11708 -0.089255 -0.24998 0.38577 0.74054 1.3065 -0.33584 1.13 1.9452 -1.0731 0.25244 0.68531 -0.026146 
57721 0.13878 0.88982 0.18006 -0.2363 -0.15728 0.62178 -0.069852 -1.4334 0.24642 -0.16651 0.1708 0.014212 -0.035403 
65093 0.20066 0.99586 -0.096064 -0.13755 -0.068807 0.47212 0.1139 -0.48973 0.50179 -0.038395 -0.071453 0.4874 -0.054668 
55276 0.99588 1.8149 -0.38635 -0.18661 0.024652 1.4316 1.1408 -1.0714 0.15053 0.42812 -0.46633 -0.15926 -0.28963 
66752 -0.72417 0.030947 0.49107 -0.25991 0.4449 1.687 0.042617 -0.58071 0.94028 -0.41664 -1.4578 0.49819 0.18818 
21230 2.0285 1.4147 0.34046 -0.44859 0.525 -0.16353 -0.33036 0.16916 1.0411 -0.05287 0.27258 -0.017693 0.79118 
173 0.32737 1.3283 -0.090839 -0.043502 0.66769 0.076944 0.4347 -0.3572 0.73449 0.34955 0.31921 -0.16666 0.34377 
66669 -0.7439 -0.15386 -0.10491 0.94287 0.021223 0.7263 0.020272 -0.36434 1.5263 -0.43696 -0.95302 -0.32204 0.61379 
63609 0.14845 0.32593 -0.10678 -0.35058 0.27497 2.0075 -0.071592 0.62435 0.41017 -1.1616 0.031439 0.5924 0.11728 
55032 0.79038 1.1575 0.016568 0.15164 0.24581 -0.010959 -0.022435 -1.3603 0.74883 0.61369 0.46915 0.48996 -0.17524 
66773 0.2034 0.2163 0.10215 -0.66246 1.4867 1.4334 -0.43674 0.36962 1.432 -0.18231 -1.3043 0.26209 0.02815 
71101 0.036019 0.50956 -0.17333 1.1975 1.1857 2.4574 0.62444 0.14774 2.6427 -1.2445 -2.2461 -0.35346 0.6031 
22050 0.32451 0.97517 -0.24107 -0.44422 0.0061221 1.518 0.59954 -0.77371 -0.097108 -0.11505 -0.20478 -0.12927 -0.34565 
71099 -0.36647 0.26219 -0.26353 1.0281 1.1599 2.3873 0.27319 -0.24949 2.0626 -1.1165 -2.4155 -0.10148 0.40345 
193 0.66421 0.51046 0.27471 0.053499 0.57137 0.63269 0.17092 -0.34846 1.058 0.12846 0.32033 -0.47082 0.61267 
57703 0.2343 0.08254 -0.38742 -0.61371 0.39884 1.1897 -0.04255 -1.0802 1.0903 -0.73402 0.20284 -0.80876 -0.16137 
97 0.81153 1.266 -0.03269 -0.033421 0.039078 0.62863 0.6683 -0.79707 0.036129 0.12003 0.18603 0.068056 1.0492 
55808 -0.12025 0.27674 -0.15124 -0.59391 0.803 1.2956 -0.33467 -0.86705 0.75986 -0.53311 0.3472 -0.76841 0.119 
63427 0.12591 0.80553 0.0099449 0.12365 -0.16912 0.36741 -0.1443 -0.70256 0.60921 -0.053562 0.016339 0.26694 0.022131 
22007 0.75785 1.1963 -0.3366 -0.26534 -0.16704 -0.21965 0.041571 -0.66324 1.0787 0.2275 0.15351 0.45571 -0.1081 
21160 0.36551 1.8327 -0.37972 0.10695 0.15165 0.38532 -0.67492 -0.29353 0.46328 -0.27979 -0.44571 -0.86856 -0.10574 
20914 0.15792 1.1082 -0.17008 -0.046525 0.88255 1.2828 0.18858 0.51045 1.275 -1.1346 0.025959 -1.822 0.86868 
65087 -0.16437 0.34828 -0.065692 -0.20134 0.069066 1.7031 0.058813 0.59102 0.49344 -0.84345 -0.21232 0.67833 0.2988 
63421 0.34664 0.59782 -0.1077 -0.46576 0.65657 2.116 0.0053843 0.81845 0.86153 -1.4946 0.10455 0.62332 0.26493 
56022 0.83136 0.77625 -0.036884 -0.28536 0.065199 -0.057724 0.35158 -0.65836 0.83444 0.045303 -0.14286 0.21389 0.29988 
57963 0.93779 0.90269 0.035088 -0.29778 -0.057114 -0.22533 0.3782 -0.46861 0.8842 0.1795 -0.032052 0.44312 0.19582 
66623 0.53439 0.5235 0.32569 -0.37096 0.66728 0.30145 -0.22426 0.28259 1.5164 -0.021252 0.058453 0.046681 0.50802 
36863 0.22619 1.2523 0.09714 0.0020358 0.8971 1.6208 0.19912 0.94779 1.2499 -1.6542 -0.21558 -2.0552 0.95116 
61449 0.53104 0.65366 -0.058228 -0.50152 0.91053 2.0784 0.11028 1.2231 1.0348 -1.5816 0.33948 0.36337 0.21098 
10916 0.11125 0.73793 0.17029 -0.025452 -0.014299 0.33881 -0.02117 -0.62076 0.63571 0.078545 -0.011226 0.12403 0.037844 
30087 0.73566 1.2189 -0.23569 -0.24872 0.79064 1.7263 0.041675 0.69581 1.4393 -2.0305 0.528 -0.14432 0.42684 
30084 0.6379 1.2939 -0.31507 -0.23271 0.63668 1.4985 0.048788 0.65529 1.4361 -1.9428 0.73338 -0.3701 0.69582 
11503 0.33795 1.2031 0.23099 -0.4549 0.57863 0.92691 -0.59713 -0.1993 0.52351 -0.53625 0.44836 -0.7382 0.31449 
13885 0.080182 1.3853 -0.34578 0.16136 -0.28857 1.2247 -0.0176 0.81117 0.77533 -1.8492 0.77673 -0.66751 1.3369 
13842 -0.27703 1.392 -0.65098 0.089602 -0.66017 1.2423 -0.36256 0.068522 0.75981 -1.8036 0.696 -0.91511 1.3836 
37203 0.468 1.0568 -0.02437 0.088861 0.97488 1.3311 -0.1001 0.69792 1.1112 -1.3829 -0.16424 -1.7333 1.0924 
66701 0.35146 0.94956 0.26958 -0.23982 0.40067 0.89534 -0.52676 -0.40701 0.55562 -0.38213 0.23615 -0.097104 0.15927 
49818 0.046201 0.69375 0.065148 -0.026333 -0.75854 0.40891 0.31356 -0.70655 0.49023 -0.30176 0.15278 -0.035461 0.23215 
58700 0.10519 0.64035 0.33168 -0.3868 1.0121 1.2918 -0.23322 -0.31751 0.86323 -0.40207 -1.1329 -0.048714 0.44722 
55048 0.36302 0.95799 0.12031 -0.049664 -0.046471 0.21989 -0.089592 -0.62537 0.64076 0.30166 -0.19555 0.62163 0.27 
66590 -0.044819 0.49348 0.19327 -0.44084 0.77231 1.3488 -0.73776 -0.36725 1.4151 -0.28236 -1.4928 0.42265 0.36339 
66617 -0.2551 0.68023 0.21086 -0.7778 0.29793 1.3843 -1.5851 -0.26394 2.7387 -1.32 -2.2554 0.026673 1.4446 
15269 0.65261 0.89371 -0.34796 -0.35253 0.43163 0.62375 -0.060382 -0.16275 0.4529 -0.52113 0.33353 -0.23162 0.1836 
15500 0.81381 1.0426 -0.37581 -0.40163 0.53922 0.65725 0.096129 -0.15064 0.52712 -0.44589 0.51841 -0.27102 0.23533 
56226 0.13407 0.96543 -0.29159 0.32176 0.023976 0.51469 -0.31495 -1.0934 0.43413 0.23286 -0.15993 -0.41133 0.044771 
15518 0.64367 1.0294 -0.37385 -0.41795 0.44836 0.34574 -0.073044 -0.14942 0.61837 -0.41501 0.29836 0.0068938 -0.067985 
601 0.98152 0.93457 -0.38233 -0.25464 0.64592 0.64177 -0.21363 -0.17574 1.1777 -1.19 0.96614 -1.0219 0.47633 
13879 -0.38401 1.5795 -0.4263 0.50197 -0.99516 1.0546 0.040735 0.95506 0.56168 -1.7534 0.91896 -0.36488 1.601 
162 -0.4083 1.4681 -0.41081 0.0062672 -0.54321 0.61016 0.035784 0.089834 0.73808 -1.4383 0.78767 -0.78517 1.105 
55715 -0.13794 0.60106 0.010408 0.19269 -1.2898 0.73421 -0.03728 0.57563 0.86138 -1.1058 0.18452 0.56775 0.82804 
72846 0.4589 0.53146 0.5641 -0.77766 0.71707 1.0493 -0.32387 0.67773 2.4684 -0.048215 0.24031 1.1898 0.13829 
160 -0.4131 0.97345 -0.25734 -0.018282 -0.15939 0.56511 0.055669 -0.078057 0.41133 -1.0023 0.57589 -0.57946 0.74223 
11221 -0.19241 0.57092 -0.20592 -0.062092 -0.2114 0.43696 -0.15639 -0.3203 0.38181 -0.22204 0.21127 -0.15494 0.076707 
55816 0.40025 0.85427 -0.29928 0.31203 0.78488 1.6407 -1.533 -0.095559 0.68238 -0.88743 -0.6786 -0.19221 0.41761 
66578 -0.69448 0.54683 0.25038 0.72097 -0.29998 1.0695 -0.1998 0.0643 1.0091 -1.1698 -0.14971 1.3609 0.48448 
55118 -0.1763 0.5783 -0.072858 0.059227 -1.1637 0.67964 0.28222 0.75576 0.98299 -1.4132 0.18803 0.3137 1.3855 
39330 -0.25004 0.35831 -0.211 -0.44854 0.12854 1.1205 -0.31148 -0.24392 0.50367 -0.21721 -0.13271 0.6635 0.28614 
50375 0.0052378 0.9224 0.011197 -0.16896 -0.19277 0.19492 0.29158 -0.74658 0.41011 -0.20106 0.075723 0.087687 0.31408 
35 0.4816 1.4832 -0.14394 0.59024 0.28753 0.5248 -0.71248 -1.0639 0.47628 -0.35126 0.15747 -1.9415 -0.45273 
73912 -0.20841 0.21414 0.30256 -0.14338 0.22246 0.7177 -0.28479 -0.16261 0.87917 -0.26663 -0.16393 0.61195 -0.091779 
12321 -0.12308 0.24632 0.050367 -0.16639 0.045451 0.55218 -0.32945 -0.72707 0.79807 -0.046706 -0.30986 -0.017284 -0.24587 
71071 -0.35337 0.041007 -0.29162 -0.10685 0.75599 1.2973 -0.49365 0.65237 1.9431 -0.28451 0.49523 0.75888 -0.0017861 
31290 0.27963 0.82128 -0.11756 -0.057798 0.1746 0.7223 0.11919 0.57946 0.80741 -0.59379 0.13061 -0.38064 0.72906 
45203 0.12025 0.89926 -0.00061796 -0.11442 0.20887 0.65347 0.37811 0.41757 0.87155 -0.53066 0.35125 -0.3897 0.69335 
21220 0.87962 2.0861 -0.43702 0.097225 0.41138 0.29749 -0.82538 -0.21211 0.59166 -0.063058 -0.23226 -0.82162 -0.35002 
65136 -0.093686 0.45691 0.10422 0.16079 0.43857 0.80338 0.65874 0.025134 1.1161 -0.71692 -0.73206 -0.16709 0.34728 
65168 0.03064 0.26606 0.16892 0.27449 0.50828 1.0574 0.712 0.052875 1.2036 -0.91776 -0.81609 0.033875 0.40742 
11900 0.16015 0.78644 0.10458 0.10077 0.16882 1.2418 -0.12475 -0.39627 0.81205 -0.75769 -0.00081113 -1.4962 0.72952 
55828 -0.16376 0.58375 0.47713 -0.34587 -0.6814 0.62556 -0.76897 -1.3058 0.86185 0.17868 0.39713 -0.54875 -0.27234 
57 -0.25377 0.53962 -0.49378 -0.5695 0.6127 0.91731 -0.42029 -0.52697 0.69003 -0.49234 0.25249 -0.75652 0.20107 
73053 0.32688 0.82409 0.1144 0.42761 0.56534 0.62806 0.22289 0.32998 1.0881 -0.52902 -0.29992 -0.50855 0.27425 
66593 -0.22847 0.26781 0.75902 -0.089764 -0.6405 0.11573 -0.17375 -0.8207 0.93491 0.34759 -0.32318 0.50218 -0.091648 
14215 0.5652 0.95137 -0.0088083 -0.055071 0.10231 -0.064658 -0.077726 -0.88168 1.0082 0.38368 0.0089402 0.17425 -0.25415 
66672 0.46611 0.63735 0.30504 -0.26614 0.60059 0.35118 -0.25784 0.26456 1.758 0.13137 -0.092504 0.018565 0.40895 
31285 0.039166 1.0143 -0.25798 0.29035 0.37382 0.017773 -0.1377 0.01659 1.7449 -0.35732 0.32028 0.16591 -0.28758 
25 0.070005 0.55542 -0.018176 -0.73276 0.25473 0.62703 0.03086 -0.33695 0.49811 -0.052679 -0.61069 -0.31032 0.32413 
56501 -0.50842 0.3676 -0.30502 0.67294 -0.65111 0.75282 -0.01949 0.29978 0.11921 -1.0505 0.17095 0.41534 1.0169 
66776 0.11589 0.39127 0.1527 -0.2614 1.0874 1.2561 -0.53866 0.057824 1.5984 -0.44127 -1.4739 -0.058217 0.59378 
66557 -0.48988 0.59919 -0.19057 -0.17716 0.29758 1.8493 -1.0085 -0.7153 0.73861 0.41803 -0.44503 -0.063025 -0.75285 
58500 -0.41375 0.80102 -0.21718 0.35382 -0.34534 0.47404 -0.89877 -0.74192 0.41425 -0.15713 -0.035598 0.065571 -0.10661 
51 -0.66919 0.69222 -0.21912 -0.27036 -0.46412 0.36721 -0.14982 -0.82418 0.32868 -0.82114 0.78925 -1.1821 0.26369 
702 0.044961 1.239 -0.20073 -0.71519 0.44181 0.93523 0.10519 -0.018743 1.0122 -1.6134 0.74972 -0.36005 0.39605 
38256 -0.29944 1.2665 -0.49247 -0.2012 -0.024477 2.0706 -0.10884 0.35755 -0.41197 -1.5509 0.090298 -0.75247 0.67471 
13839 -0.82767 0.50807 -0.19586 -0.41555 -0.39463 0.95477 0.22224 -0.19367 0.45525 -0.82883 0.38534 -0.25675 0.35187 
63659 -0.14176 0.80434 0.28716 0.006337 0.072751 0.17426 0.15471 -0.34657 0.55175 0.062221 0.0065466 0.31305 0.1608 
11240 0.098036 0.65225 0.027989 -0.03271 0.051567 0.47544 -0.14382 -0.87952 0.44463 -0.072187 0.13562 0.18054 0.33658 
50115 -0.060761 1.8045 -0.2151 0.83007 0.040744 0.73013 -0.32662 -0.22523 0.30878 -0.54533 -0.60132 -0.51539 0.32533 
48203 1.5808 1.3819 -0.10109 -0.14124 0.67262 0.29187 -0.3638 0.26983 1.6199 -0.21359 0.17551 -0.3707 0.97633 
66626 1.1157 0.82798 -0.066696 -0.11943 0.41119 0.28502 -0.44133 0.37638 1.2944 -0.20463 0.029291 -0.064552 0.81083 
55238 -0.05799 1.6843 -0.49663 0.91274 0.36409 0.76813 -0.72313 -0.36496 0.67275 -0.064874 -0.61483 -0.75515 -0.052466 
66725 0.58364 1.0092 0.33706 0.026225 0.51562 1.4165 -0.061376 -0.18633 0.40685 -0.16904 -0.038512 0.37278 0.18534 
38246 -0.19746 1.3676 -0.56059 -0.12375 -0.2628 1.8804 0.016981 0.38662 -0.30634 -1.5384 0.33169 -1.1962 0.91021 
65135 -0.6122 0.25126 -0.32778 -1.0044 -0.36182 1.353 -0.48965 0.42209 0.90743 -0.55198 -0.029024 1.4895 -0.70523 
66680 0.7266 0.89594 -0.2698 -1.2932 0.89473 1.2023 -0.425 0.19378 1.89 -0.60758 0.07636 1.3922 -0.42303 
11721 -0.27396 0.91884 0.0099501 -0.63155 0.19432 0.09193 0.3067 -0.58555 0.59755 -0.60799 0.23411 0.08851 0.015882 
63009 0.01246 0.40271 -0.095849 -0.09422 0.9069 0.52272 -0.41431 -0.30643 0.95443 -0.23456 -1.1672 -0.33391 0.55988 
66575 0.026236 0.68194 -0.020712 -0.097248 0.060357 0.52189 -0.045581 -0.40808 0.49299 -0.031318 -0.11282 0.28228 0.16755 
21382 -0.055873 0.54421 -0.08463 -0.0078096 -0.066711 0.22804 0.063808 -0.46784 0.433 -0.16003 0.064707 0.15574 0.25395 
14203 0.072121 0.75121 0.07873 -0.10438 -0.17559 0.37256 -0.10925 -0.54366 0.5059 -0.095661 0.069736 0.046499 0.22232 
72847 -0.001345 0.38629 0.22552 -0.1188 0.35417 0.41239 -0.14514 -0.0056615 1.2979 -0.31155 0.44952 0.20447 0.14367 
21110 -0.11993 1.031 -0.059469 -0.29306 0.41771 0.65807 0.098566 -0.58276 0.16253 -0.54975 0.073937 0.38136 0.50931 
47507 0.15817 0.3565 0.21267 0.0051666 0.33452 0.49793 -0.21698 -0.8549 0.91796 0.059441 -0.31827 0.49474 0.00021932 
49330 0.40898 0.56424 -0.19242 0.040036 -0.040148 1.0994 0.56371 0.16318 0.47724 -0.55816 -0.18271 -0.20123 0.049135 
49336 0.19566 0.57159 -0.18125 0.36628 -0.066482 0.77386 0.45753 -0.53963 0.68526 -0.54562 -0.17813 0.10412 -0.23881 
21460 -0.26591 0.73112 0.061609 0.014227 -0.010192 0.28393 0.57476 -0.16713 0.67716 -0.34472 0.38837 -0.27272 0.29843 
47918 -0.0092434 0.73819 -0.10988 0.15198 -0.1643 0.014938 0.43351 -0.11106 0.82977 -0.27105 0.49349 -0.37677 0.1353 
11012 0.055212 0.45309 -0.22166 -0.41982 0.60907 1.3689 -0.057449 0.24833 0.60034 -0.89182 -0.076389 -0.85598 0.62017 
18350 0.090517 0.24352 -0.27375 -0.2109 0.70388 1.2916 -0.15527 0.28984 1.0907 -0.86732 -0.21968 -1.0048 0.61787 
18352 -0.19586 0.3826 -0.10756 -0.11448 0.71889 1.333 -0.27899 0.35263 0.69117 -0.91473 -0.20926 -0.69996 0.68353 
66812 -0.51729 0.39836 0.13073 0.13554 0.38914 0.67685 -0.98644 0.21981 1.4283 -0.22819 -0.20517 0.54641 0.23316 
11709 -0.11842 0.91289 0.41346 -0.13642 -0.63288 -0.34675 0.3085 -0.83762 0.67094 0.17145 0.25594 0.60322 0.23502 
21400 0.20793 0.81407 -0.24001 -0.051475 -0.031223 0.45103 -0.077831 -0.40284 0.76267 0.055832 -0.059388 0.21656 0.060263 
65078 -0.66886 0.50265 0.021459 -0.21613 0.35437 0.78411 -0.63283 -0.29072 0.70521 -0.40802 -0.4937 0.060313 -0.15026 
66713 0.0095458 0.42291 0.42082 -0.30157 0.26863 0.034172 -0.067834 0.047158 1.7985 0.36548 -0.20018 0.38902 0.29838 
66542 1.0698 1.222 0.26228 -0.31947 0.0028514 -0.28212 0.0087324 -0.54447 1.1425 0.2385 -0.23184 0.88013 0.043481 
37011 0.26018 0.96509 -0.038146 -0.12866 0.033011 0.39851 0.14193 -0.54318 0.29481 -0.099103 -0.015815 0.43844 0.27989 
47372 -0.19078 0.37017 -0.46842 -0.27122 -0.14413 0.59472 -0.43002 -0.5977 0.84939 -0.72329 0.098954 0.065366 0.23878 
57515 0.97617 0.68097 -0.1469 -0.67026 0.60009 0.63978 -0.30494 -0.7727 1.268 -0.07466 0.42879 -0.44507 -0.26455 
161 -0.2228 1.1793 -0.62885 -0.18197 -0.40796 0.98708 -0.020469 0.31822 0.15827 -1.4599 0.50474 -1.3449 0.92373 
30192 1.385 0.73476 -0.45295 -0.52219 0.34671 0.82805 -0.65795 0.19175 1.2921 -0.20421 0.040279 -0.20186 0.71317 
66767 -0.14232 0.37668 0.41927 0.14437 -0.061166 0.46142 -0.052104 -0.63666 0.90411 -0.38254 -0.13022 0.9178 -0.36594 
69363 0.42048 0.53672 0.2163 0.13024 0.078594 1.6654 0.063583 -0.13076 0.18279 -0.8702 0.10321 -0.082067 0.11971 
48 -0.026036 0.78784 -0.064603 -0.028061 -0.16984 0.10414 -0.011163 -0.71163 0.75006 -0.117 0.11741 0.22347 0.18614 
66641 0.10459 0.2826 0.24331 -0.22156 0.98134 1.4226 -0.50301 0.42139 1.2403 -0.47315 -1.1664 -0.10477 0.24923 
72836 0.098553 0.57971 0.41494 -0.25803 0.82392 0.61965 -0.24572 0.26795 1.5113 -0.37624 -0.082544 0.23441 -0.19492 
69444 0.17028 0.63411 -0.12416 0.38838 -0.087463 -0.14001 -0.18545 -0.54475 1.2573 -0.02089 -0.089906 0.96357 0.3975 
42788 0.088568 0.82963 -0.048643 0.16466 -0.10627 0.19377 0.11572 -0.46045 0.52404 -0.067059 0.0268 0.097652 0.3268 
21195 -0.01145 0.49035 -0.14392 -0.2 0.24871 0.85454 0.17 0.13013 0.41411 -0.54332 -0.11793 -0.1793 0.2143 
30023 0.16451 0.50446 -0.057406 0.082303 0.22705 0.82961 0.060827 -0.11392 0.25937 -0.48579 -0.06927 -0.37709 0.31845 
58103 -0.11442 0.60732 -0.12 -0.079779 0.060061 0.6156 0.11299 -0.015001 0.45599 -0.22031 0.14806 -0.043337 0.14092 
56301 1.5395 0.92261 -0.42176 -0.43845 0.49862 0.83962 -0.59465 0.55782 1.6086 -0.35327 0.13094 0.0024447 0.72376 
57921 -0.53712 0.52902 -0.30956 -0.33194 1.0134 0.85192 -1.1643 0.078528 0.67942 -0.11516 -0.27659 0.26532 -0.13337 
71153 0.37706 1.0384 0.068459 0.63602 0.628 1.3962 0.301 -0.16075 2.1072 -0.85294 -0.82039 -0.36748 0.60204 
73055 0.49579 0.85945 0.25492 0.60192 0.58215 0.79612 0.31178 0.45744 1.2834 -0.83729 -0.31052 -0.66806 0.29246 
66605 -0.46014 0.58059 -0.013231 0.21659 0.42188 0.77378 -0.55854 -0.64282 0.71096 -0.30937 -0.66843 0.53764 -0.16325 
47519 0.98826 0.56423 0.070467 -0.29865 -0.30494 -0.23792 0.33978 -0.66782 2.1129 0.29741 1.0092 1.0204 -0.035631 
69375 -0.046609 0.45022 0.084587 0.054624 0.12523 0.3236 -0.16585 -0.18407 0.68365 -0.2263 -0.0065147 0.54353 -0.001078 
32093 0.42699 1.1677 0.092739 -0.11593 0.36635 0.27724 -0.16205 0.16332 0.96825 -0.49525 0.20678 0.51044 0.18499 
66704 0.067989 0.16854 0.23172 -0.26028 0.91714 0.6247 0.053974 0.13316 0.7195 -0.7786 -1.2905 -0.0016624 0.70572 
835 -0.15197 0.96627 0.088524 -0.48273 0.44273 0.57105 -0.13616 -0.76269 0.76223 -0.82193 0.42489 -0.44234 0.59599 
69336 -0.25171 0.6886 0.41815 0.019261 0.83115 0.61692 -0.36213 -0.26231 1.0913 -0.52515 -0.16579 0.74396 -0.17793 
20920 0.17096 2.086 -0.50967 0.70107 0.032816 1.043 -0.28533 -0.1901 0.42821 -0.5884 -0.30635 -1.0449 0.33716 
30631 -0.063762 2.0316 -0.39651 0.70948 -0.0093942 0.97781 -0.34725 -0.26559 0.30626 -0.54667 -0.69561 -0.85457 0.041103 
2 0.10695 0.73526 -0.0023714 -0.13275 -0.13386 0.42298 0.1429 -0.52831 0.45448 -0.063992 0.033118 0.035826 0.34898 
31280 -0.06867 1.1216 -0.25301 0.29663 0.2864 0.18751 -0.13249 -0.14877 1.8133 -0.32635 0.30554 -0.0099977 -0.062805 
58109 0.28481 1.0131 -0.33968 -0.051224 -0.020857 0.99524 0.25647 0.10834 0.23178 -0.97154 0.36424 -1.0137 0.40597 
43 0.008372 0.50549 0.13087 -0.24068 -0.0035599 0.42393 -0.0068646 -0.57045 0.69394 -0.11878 -0.18265 0.50205 0.16031 
66659 -0.74365 0.63948 0.014763 0.64671 -0.49579 0.93352 -0.33549 -0.11789 0.86602 -0.69178 0.061643 1.446 0.15055 
66692 -0.10749 0.64426 0.12005 0.14139 0.094177 0.50865 -0.28216 -0.84705 0.56788 -0.16507 -0.17936 0.39395 -0.022536 
47906 -0.43308 0.90119 0.35948 -0.108 -0.54326 -0.036814 0.42049 -0.75206 0.56077 -0.29831 0.3277 0.62113 0.15034 
49327 -0.16197 1.6275 -0.27188 0.85045 -0.20927 0.51444 -0.027597 0.69597 -0.43334 -0.60869 -0.42008 0.046168 0.47502 
21990 0.40403 1.5384 -0.48961 -0.30422 -0.038147 0.9153 0.60055 0.052288 0.92045 -0.97203 0.066825 -1.4812 -0.2351 
31270 0.23921 1.6943 -0.76439 -0.096844 1.1883 1.6731 1.3351 0.91822 1.9342 -1.8416 -0.4162 -1.6025 -1.6932 
61473 -0.5765 0.12783 0.96163 -0.085714 -0.19024 1.2215 0.12277 -0.10807 0.73718 0.65028 -0.56299 0.28271 -0.10933 
72817 -0.26573 0.65326 -0.021794 0.57674 0.72943 0.1751 -0.40291 0.25823 1.834 -1.1048 0.28703 0.50884 -0.97921 
22070 0.33683 0.44754 -0.12134 -0.19959 -0.20381 0.44894 0.048492 -0.56481 1.1054 0.15515 -0.065194 0.36267 0.19467 
