658 13
RR_n -0.26999 -0.086337 1.0342 -1.1652 -0.91884 -0.096268 0.65696 -2.6214 -3.5064 2.3305 2.388 0.68898 2.3855 
RR_p1 2.4416 -1.6851 -0.66667 0.025759 0.87515 -1.6493 -2.6724 -1.3962 2.0852 -0.14457 0.30819 -0.73737 0.45268 
HR_p1 1.4707 -1.097 -0.16035 0.019282 -0.023678 -0.66365 -1.172 -2.2982 0.059566 0.81154 0.54808 -0.069148 1.0079 
BP_n -0.17368 -2.2884 -0.44331 0.52566 0.39778 -0.51847 -0.86824 -0.87954 0.23555 -1.0183 1.3636 -0.065422 2.8094 
HR_n 0.90196 -0.85759 -0.32183 -0.16609 0.49382 -0.51068 -1.0006 -1.4351 -0.11118 1.2424 1.0832 0.099169 0.43131 
RR_m1 1.703 -2.2448 -0.75563 0.067405 0.98894 -1.0144 -1.7086 -0.55171 1.6987 -0.035717 0.7789 0.22685 -0.41648 
BP_m1 -0.40102 -1.1886 0.52498 0.90959 1.703 -1.6094 -1.3894 -2.5063 -1.2057 -0.66557 1.0041 0.57473 -0.69593 
HR_p2 2.3739 -1.3416 0.37401 -0.82927 0.11656 -1.1118 -1.6697 -2.4111 -0.32307 1.2261 0.13021 0.14479 0.38997 
BT_n 0.13242 -0.56227 -0.083203 0.54695 0.55225 -0.68951 -0.94942 -1.1154 0.4354 0.71023 0.85624 0.13194 0.80564 
RR_p2 2.005 -1.6574 -0.8983 0.073876 0.04911 -1.83 -0.70537 -3.0788 -1.4881 0.81665 1.1071 0.20173 0.50376 
BT_p1 0.34172 -0.50033 -0.27861 0.10883 0.40406 -0.41116 -0.90826 -1.3913 0.24434 1.162 0.6245 -0.19547 1.0317 
BT_m1 -0.38689 -0.32635 0.32597 0.71099 0.94445 -0.93483 -0.73398 -0.66832 0.05596 0.77478 0.81087 0.38797 0.84578 
GC_n -0.90885 0.24529 -0.29588 0.53053 0.94982 0.20069 -0.67964 -0.76134 1.005 1.7092 -0.0010734 -0.5788 1.1897 
PotassiumChloride -0.42467 0.36146 0.4932 -0.52808 -0.78761 0.048809 -0.20293 -1.2178 1.0942 -0.74004 0.97458 0.038272 -0.57249 
GC_m2 1.7188 -1.6223 -0.73755 -0.56361 0.064865 0.13367 -1.1417 -1.3313 0.19117 1.4148 1.2285 0.57583 -0.0074835 
Furosemide 0.18501 0.12241 -0.34692 -0.76997 0.54063 -0.83183 -1.3867 -0.83769 -0.094669 -1.1275 2.0155 -1.0044 0.59368 
RR_m2 3.0453 -2.9259 0.30359 0.15366 0.19622 -1.837 -0.17879 -1.8022 0.31909 0.37837 1.6876 1.1069 -0.030519 
BT_m2 -0.38077 -0.50244 0.12442 0.82354 0.96566 -0.98711 -0.77568 -0.28316 0.18747 0.018665 0.92046 0.52294 0.67587 
</s> -1.0764 0.31807 -0.0084672 -1.0085 -0.33356 0.43709 0.99771 0.78835 0.73464 -0.33252 -0.31555 0.39537 -0.81522 
GC_m1 0.087478 0.29299 -0.87692 0.47649 0.37759 0.34241 -0.86154 -1.5533 0.67185 2.3375 0.36879 -0.12577 0.25233 
BP_m2 -0.86542 -2.3987 -0.050094 1.306 1.0553 -1.3013 -1.0283 -1.6448 -0.37749 -1.6373 0.94293 0.4585 1.5517 
SodiumChloride0.9%Flush -1.4818 1.0692 -0.53264 -0.55144 0.083764 1.7396 0.053001 0.4859 0.61287 -0.48027 -0.35258 0.032576 -0.60822 
D5W 1.595 -0.12483 0.98917 0.32059 -1.0869 -2.2979 1.2398 -1.4048 0.77876 -1.6807 2.7038 0.51171 -0.34533 
HR_p3 2.2105 -1.0623 0.99643 -0.59896 -0.56761 -0.97755 -1.6128 -3.9759 -0.55254 0.037771 0.43632 -0.27194 1.0267 
Insulin -0.47666 0.0099256 -0.6491 -1.1776 -0.33333 0.19254 0.27958 0.63675 0.64959 -0.1972 0.33895 -0.35696 0.40009 
NS 1.1354 -0.46922 1.5697 -0.6037 -1.2885 -1.3507 2.0785 -1.8451 1.0318 -0.084685 0.30984 0.32678 -0.71593 
MagnesiumSulfate -0.97329 0.41893 1.143 -0.57095 -1.3437 -0.053199 0.33911 -1.0542 1.4337 -0.68145 0.13078 0.66528 -0.88895 
Iso-OsmoticDextrose -0.52134 -1.68 -0.87372 -1.5584 -2.4126 -1.8851 0.36223 -1.0145 0.19722 -1.6463 -0.23757 0.30667 0.52639 
GC_m3 2.3211 -2.454 -0.1808 -1.2566 -0.46545 0.24661 -1.1753 -1.1458 -0.11715 0.39324 2.3608 1.3375 -0.47859 
Acetaminophen -1.8399 0.00074907 -0.40755 -1.604 0.19494 2.1979 0.99198 0.79146 0.87769 -1.5306 0.44385 -0.58186 -0.91812 
0.9%SodiumChloride 1.1332 1.097 -0.1142 1.5186 -1.3227 3.1392 -2.6781 -0.13242 -1.1326 -1.2655 -2.1721 4.0691 0.24143 
OTHER -0.16367 0.36524 -0.61752 -0.61212 -0.012928 -0.86285 0.93699 0.63833 -0.35582 0.42022 -1.0514 -0.10101 0.39591 
SW 0.47627 0.22409 1.4777 -0.19901 -1.3971 -0.14778 0.57496 -1.2746 1.2519 -0.66395 0.55934 1.0753 -0.84989 
Metoprolol 1.8959 0.56897 0.76392 0.26267 1.5003 -0.3777 2.1982 -1.1425 1.8745 0.55484 3.2649 -2.0685 -0.021801 
VENT -0.66664 -0.83527 0.034826 -0.65057 1.7024 1.2861 -0.82742 -0.46109 0.16738 0.85476 1.0897 -0.63806 0.42905 
UO_m1 0.93579 -0.76725 -0.31635 -0.26072 0.7541 -0.33013 -1.3684 -1.8289 -0.068846 1.1622 1.097 -0.4066 0.66621 
DocusateSodium -2.3077 0.00045437 -0.67558 -1.3713 0.75865 2.8849 1.2018 1.63 1.3306 -1.9195 1.095 -0.70866 -0.85214 
Heparin -0.30139 0.90136 -0.94724 -0.93903 -1.3088 0.16451 0.39662 -0.0068913 0.36532 -0.082863 -0.63048 0.050301 -0.057938 
MetoprololTartrate 0.8352 2.1766 -0.64575 0.83947 0.59608 3.6435 -3.6391 -0.041456 -1.1952 -1.2523 0.38688 1.4211 0.72509 
5%Dextrose 1.7882 1.3258 -0.38893 2.019 -1.5338 1.959 -3.3199 -0.54993 -1.9992 -3.1687 -0.791 4.0413 0.68599 
CalciumGluconate -0.45188 -0.61446 1.5125 -1.1137 -2.3222 0.12828 0.8518 0.012089 1.4816 -1.4064 0.40406 2.2028 -1.183 
Lorazepam 0.81626 0.81589 -0.27779 -1.4606 -0.61387 -0.38928 -0.30392 -1.4702 0.27608 1.4599 -0.65875 -0.58131 -0.69393 
MorphineSulfate -0.96818 0.1327 1.4339 -1.8247 -0.93475 0.72755 1.2791 0.75053 1.417 -0.82368 0.88392 0.43805 -0.66575 
Vancomycin 1.055 -0.085184 -0.51246 1.0981 -1.179 0.98329 -1.3607 -0.60655 -1.5188 -3.1746 -1.7223 2.3009 0.99351 
UO_n 1.5497 -0.8497 -0.39093 -0.21988 0.45584 -0.034574 -1.0859 -1.9207 0.45211 1.3519 0.81641 -0.55639 0.74433 
UO_m2 0.52724 -0.98412 -0.14548 0.2149 0.46207 -0.93416 -1.1659 -1.5933 0.0060161 0.54108 0.9322 -0.032179 0.99311 
Pantoprazole -2.0315 1.5156 -0.39792 -0.5733 0.86914 -0.56776 0.8843 0.81395 -0.0061124 -0.13252 -0.34725 -0.46162 -1.1235 
Bisacodyl -1.7007 -0.37224 -1.6512 -1.5091 1.0278 2.6492 0.81119 0.6101 0.26574 -1.043 1.1149 -1.523 -0.17825 
FentanylCitrate 2.2163 -1.1397 -0.093169 -2.4407 -2.5811 -2.3307 -0.82096 -1.1694 -0.51709 -0.2124 -0.10272 1.6536 -1.1352 
Aspirin -1.4984 0.76812 -0.33842 -1.8313 -0.20055 0.88343 0.50632 1.3072 0.1319 -2.56 1.9795 0.21972 -1.707 
Propofol 2.1218 -1.1644 0.88599 -2.9509 -2.4934 0.51572 0.08201 -0.35518 -0.57681 -1.2974 1.2499 2.6671 -2.4087 
LR 0.31969 -1.3074 2.0631 -2.0172 -1.4891 0.96249 0.14922 -0.91756 0.35754 -1.4446 -0.054528 1.7913 -1.5463 
Oxycodone-Acetaminophen -2.8614 -0.95703 0.92411 -1.624 1.3922 3.1322 1.5225 1.7037 1.9322 -1.9703 2.5404 -0.1858 -1.5371 
Warfarin -1.5333 0.90491 -0.50913 0.23805 1.4511 -0.21058 -1.3711 -0.6035 -0.48194 -1.4124 1.9372 -1.4367 1.6638 
AspirinEC -4.0328 -1.2796 0.039338 -2.7025 2.2311 3.4114 0.94686 2.6021 1.0895 -3.3566 3.7651 -0.78461 -1.5356 
Senna -0.84296 1.2945 -2.3161 -0.72108 -0.081464 1.4632 1.167 0.6136 -0.045515 -0.64875 -1.5575 -1.0323 -0.1313 
Dextrose50% -2.1114 -0.37142 -0.8569 -1.619 -0.57054 2.6945 -0.38668 3.0371 0.65899 -3.5315 -0.00065998 1.8128 -1.1498 
BP_p1 1.8113 -1.1357 -0.52063 -0.093151 0.24863 -1.4619 -1.5402 -1.4847 0.29928 1.8236 1.3779 0.57617 0.12352 
HeparinSodium -0.49017 0.74463 0.20042 -0.046589 -0.86387 -1.4812 -1.0387 -0.93998 0.77618 -1.4191 2.0484 -0.23755 0.98956 
HYDROmorphone(Dilaudid) -0.11693 0.42352 0.92139 -1.0295 0.1736 3.621 -1.5442 0.63428 -0.22133 0.4563 -2.3093 1.6451 0.13586 
Ranitidine -3.4975 -1.8608 0.30887 -3.0137 1.5645 3.6343 0.49725 2.2357 0.84101 -2.9137 4.1895 0.17855 -1.9451 
Vial -0.099961 0.41943 0.049727 -0.20743 -1.3731 -2.9826 0.40038 0.95315 1.6817 -0.68368 -1.883 1.8619 -2.0712 
Albuterol0.083%NebSoln 1.3407 2.0097 0.24498 -1.4976 1.032 -0.00051539 -1.0174 0.55868 -1.1238 -1.662 -0.86371 -1.6777 1.4167 
VancomycinHCl 2.9457 -1.7696 2.0807 1.8232 1.0843 -2.0672 5.4474 -1.7324 1.7857 -1.118 2.332 -0.62342 -0.096448 
Famotidine 1.5536 0.6247 -0.65022 -2.3404 -2.6514 2.1526 -0.14835 -0.15708 1.7101 1.0056 -1.7085 0.48453 -0.50754 
DocusateSodium(Liquid) 0.31238 -0.82196 -0.13403 -2.4461 -1.0591 1.9467 0.86182 0.99939 0.01992 -2.4489 1.4489 1.2037 -2.0111 
MilkofMagnesia -3.5475 -1.8788 -1.2347 -2.6545 2.8862 4.6139 0.41214 2.9193 0.6665 -3.0991 3.0662 -1.2291 -1.0089 
Neutra-Phos -0.35019 0.84903 -0.38737 0.8263 -0.66973 -0.3546 -0.70424 -2.4022 0.56676 0.54226 -1.8706 -0.1289 0.42879 
IpratropiumBromideNeb 0.8974 1.3983 -0.5071 -2.2997 0.74669 -1.5531 -1.5568 0.011348 -0.037067 -1.8846 -1.0097 -2.8156 1.1111 
Metoclopramide -1.0746 -1.3818 1.2478 -1.8713 0.21948 1.4729 0.91488 1.7401 1.2767 -2.1485 1.7449 1.4624 -2.053 
Levofloxacin 1.4775 0.22819 -0.37913 -0.26746 -0.69935 -2.4879 1.791 -1.1851 1.2993 -1.4671 -1.2369 -1.8442 0.68793 
Atorvastatin -2.6433 1.0654 -1.0607 -1.5508 1.6085 1.7188 1.2337 1.7774 0.45265 -2.2931 2.5487 -1.7484 -0.89952 
Ondansetron -2.1774 1.1852 -0.013001 -0.35128 -0.39027 1.7281 0.13534 1.4449 1.0754 0.53167 -1.5315 0.97977 0.021639 
Haloperidol 2.109 1.0418 -0.96274 -1.2411 -0.10153 -0.96231 -0.64688 -2.1211 -0.48293 1.7563 0.4403 -1.0267 -0.84066 
Bag -0.50832 1.7613 0.70145 2.2664 -1.0823 3.7847 -2.6405 0.52049 -0.25351 -2.7324 -2.1589 4.3468 0.31326 
HydrALAzine 1.4273 2.8796 -1.7123 -0.31346 -1.0586 2.4609 -2.6144 1.316 0.096391 1.2337 1.7144 1.7449 -0.1395 
RR_p3 3.1478 -1.5766 0.58439 -0.48943 0.30588 -1.8073 -1.0727 -2.6226 -0.46485 0.88014 1.0603 -0.31369 1.2634 
Nitroglycerin -1.7896 0.11909 1.3429 -2.4989 -0.9864 0.28208 -0.15247 2.1274 1.9122 -2.9486 4.5471 1.905 -2.7596 
PotassiumPhosphate 0.12692 0.17937 0.95458 -0.75981 -2.2914 0.020375 -0.71691 -2.7796 1.3682 0.68844 -2.0149 0.77659 -0.48455 
PantoprazoleSodium -0.10509 0.673 1.0239 -1.3475 -1.6402 -2.2741 2.8363 -0.23117 -0.11384 0.2583 -0.31635 1.3083 -1.983 
Lisinopril -1.7408 3.0901 -2.1674 -0.26848 0.93805 0.62437 -1.2604 0.38259 1.124 0.87316 1.616 -1.8289 -0.093755 
BM_p1 -0.49888 0.49021 -0.69487 1.4385 1.375 2.3165 -2.6681 0.57167 -0.78844 -0.63373 -0.14021 1.734 0.83783 
InsulinHumanRegular -1.1725 -0.41271 1.8564 -2.0631 -1.8747 0.89624 0.96581 1.7688 1.4115 -3.0462 1.2761 2.3749 -1.688 
ChlorhexidineGluconate0.12%OralRinse 1.983 0.23138 0.55165 -2.0293 -2.2936 2.8328 -1.1445 1.1996 -0.66757 -3.9436 -0.44297 3.5705 -2.2008 
Midazolam 3.3458 0.36375 0.50173 -0.33919 -1.8836 -0.027806 -1.9386 -1.2317 -2.4706 -1.8212 -0.86765 3.3939 -0.74759 
D51/2NS -0.059923 0.97549 1.2101 -0.75179 -1.3365 -1.0676 -0.33771 -0.72105 1.1098 1.4701 -2.4422 0.86271 -0.065564 
Glucagon -0.90273 2.2818 -1.1352 0.48967 0.027776 6.0674 -0.36178 3.5986 -1.8635 -2.2711 -1.1924 3.0289 0.80486 
HeparinFlush(10units/ml) -0.58986 1.3323 -0.65257 1.9053 0.9519 2.1637 -2.2529 0.80261 -1.4308 -0.88017 -2.5444 1.8654 1.9945 
Iso-OsmoticSodiumChloride 1.4884 -0.37994 -0.34934 -3.3867 -4.2546 0.87329 0.81271 0.46104 1.29 1.4224 -1.6881 1.8737 -0.33764 
Captopril -0.19622 1.8133 -0.43504 0.31867 0.97903 -0.73282 0.45299 -1.2907 0.39235 -0.027135 4.1133 -1.8089 0.38309 
BM_n -1.0111 0.57347 -0.36557 1.4306 0.78806 1.6204 -2.0357 -0.10455 -0.66935 0.44876 -1.0865 1.7268 0.83047 
Syringe -1.1756 -2.3471 1.5633 -2.1008 -0.49722 0.61751 -0.0075245 1.468 0.60295 -3.5843 1.483 3.4712 -3.8034 
Glycopyrrolate -2.1738 -2.3574 3.5519 -4.812 -1.0101 2.0934 0.65728 2.2856 0.87767 -4.337 4.3348 3.9327 -4.3206 
0.9%SodiumChloride(MiniBagPlus) 0.89902 2.6059 1.1047 0.4832 -4.1328 3.295 0.32928 -2.0495 -7.0872 -2.1339 -1.813 3.7388 6.1005 
UO_m3 -0.60179 -0.82311 0.016892 1.4795 1.1135 -1.8473 -1.0794 -0.39531 -0.029523 0.2272 0.33687 0.78543 1.534 
Amiodarone 0.30933 0.99958 -0.41674 0.50116 -0.20895 3.204 -3.3078 -2.4164 -1.2059 -5.4592 3.0843 -0.28074 1.6951 
CefazoLIN -0.82896 -0.32888 0.65566 -1.6491 -0.71559 5.1943 -1.1833 1.4368 1.3659 -1.8024 1.0607 2.8131 -2.3613 
Neostigmine -1.6958 -4.3511 2.1977 -4.3279 0.090399 2.5581 -0.68459 3.1026 4.2081 -5.7125 3.7083 3.7597 -6.3964 
Ketorolac -2.7964 -1.8995 1.3488 -3.3282 1.7168 3.777 -0.56494 0.87316 0.74951 -1.6751 2.0318 -0.29933 -1.417 
BM_p2 -0.25178 0.54683 0.022004 0.91768 1.55 2.5148 -2.9225 0.67353 -1.1525 -0.92599 -0.013773 1.5539 1.2383 
LevothyroxineSodium -1.103 0.55378 -1.0768 -1.3464 0.96175 0.1685 1.1211 1.5039 -0.38047 -1.5247 -0.73264 -0.88157 -0.71726 
SodiumBicarbonate -0.14896 0.42843 1.061 0.02419 -1.8844 -3.0842 -0.008787 0.15808 0.40475 -1.3869 0.44943 1.8704 0.37361 
Diltiazem 0.99385 1.7943 0.20857 -0.67459 -0.46281 -1.3029 -2.1972 -1.9214 -0.14076 -0.55368 1.1911 -1.105 1.1393 
Multivitamins -1.6023 1.4595 -1.8945 -1.7834 1.1525 0.55295 1.194 -0.95643 -1.7811 0.35034 -1.2753 -0.52914 -4.3669 
Simvastatin -2.1586 1.1919 -1.4976 -1.677 1.6675 3.0956 -0.43486 2.5556 -0.80699 -2.9268 1.1338 -0.38636 -1.035 
Phenylephrine 0.82561 -0.95216 1.9895 -1.034 -1.6744 2.8146 -1.4563 0.37878 -0.35488 -4.7592 1.2893 3.961 -1.3935 
SterileWater 0.13751 0.68209 0.54398 1.4793 -1.6753 2.9925 -2.3328 0.23958 -0.77348 -2.7307 -0.075253 4.5868 -0.063145 
AmiodaroneHCl 2.2751 -0.47766 2.3518 1.2513 1.5713 0.62635 3.7347 -3.2936 1.6349 -2.3472 5.9563 -2.7149 1.5285 
OxycoDONE(ImmediateRelease) -1.44 1.6855 -0.41143 1.0693 0.79033 2.7472 -1.1232 0.72998 0.3071 0.8045 -3.8518 0.73591 1.4126 
HeparinFlushCVL(100units/ml) 1.6467 0.10606 1.3636 -0.76033 -0.55949 -1.5966 2.7896 -0.87121 1.1919 -0.15883 -0.32973 -0.52114 -0.63498 
Dextrose5% 1.6028 -0.32912 0.29079 -0.8675 -2.2261 -2.9324 2.6548 -1.822 0.24369 -1.0691 -1.028 -0.54738 0.82251 
PhenytoinSodium 0.46908 -2.0282 -3.5388 -1.7406 -3.7295 0.537 0.59245 -2.0297 2.1722 4.5417 0.25086 2.1141 -2.6151 
PredniSONE 0.58615 2.3594 0.0086919 0.39275 1.4756 0.36899 -1.6929 2.2838 -0.87032 -0.28923 -2.6757 0.023755 2.9973 
Lactulose -0.81876 0.21032 -0.69467 0.60809 0.90194 -2.561 0.027505 -1.0863 -1.2573 -0.31814 -1.6672 0.23905 -0.93021 
FoLICAcid 0.058661 3.6896 -0.21927 -0.86804 0.39037 3.2524 0.145 -2.0015 -3.8961 0.18792 -1.6077 2.1699 -5.2836 
Diazepam 0.30563 1.6057 -0.28251 -1.1024 0.17634 0.3975 -0.87914 -2.5479 -0.17853 2.3589 -2.2534 -0.13466 -2.7607 
MidazolamHCl 3.3921 -1.1768 2.9502 0.28022 0.14473 -2.4674 4.5516 -1.8737 0.9106 -0.32414 2.8365 0.62118 -1.7387 
Meperidine -1.5522 -2.3873 3.4467 -3.5393 -1.0036 1.6132 2.111 1.4395 1.5209 -3.0223 2.9715 2.691 -3.2646 
Phytonadione -0.51466 0.1701 0.36194 0.71039 -1.1363 -3.032 0.43614 -1.484 0.34892 -0.24048 -0.79995 1.1096 -0.4899 
Norepinephrine 0.85729 -2.7958 0.67391 -0.78615 -2.7236 -2.9168 1.173 -1.9621 -0.45392 -3.7421 0.49403 2.1102 -0.50431 
InfluenzaVirusVaccine -1.2179 2.2132 -1.3537 -0.67102 -1.319 3.031 -0.030143 1.7711 0.34159 -2.6652 -1.846 1.4748 -1.3367 
Sucralfate -0.85666 -1.6831 3.3184 -1.5855 1.2773 0.45281 2.8223 1.2218 2.3739 -3.3311 3.4307 1.8958 -4.838 
MetRONIDAZOLE(FLagyl) 0.36115 0.43533 -0.39 0.37657 -2.1671 -1.5888 -0.57329 -1.3212 -0.58201 -2.1175 -3.4209 1.399 0.65244 
PhenylephrineHCl 2.2873 -2.9794 3.5323 -0.026828 0.51058 0.14574 5.1625 -0.40757 3.0805 -1.5614 5.6225 1.3617 -1.9065 
PotassiumChl20mEq/1000mLD51/2NS 0.21211 0.15321 1.3232 -2.2038 -1.3799 1.4382 -0.51975 -1.7469 1.6405 1.7605 -1.8656 -0.086856 -0.35884 
ZolpidemTartrate -1.8853 1.4916 0.7229 0.46555 1.7332 -0.84833 1.5425 -0.38191 0.87141 0.23381 -0.22466 -1.8784 0.50844 
Piperacillin-TazobactamNa 2.3802 -1.5186 0.00056538 0.060272 -1.1791 -2.9116 1.5006 -1.0782 0.83192 -1.5985 -0.99655 0.1758 0.28039 
IpratropiumBromideMDI 2.4116 -0.50124 -0.71746 -4.9464 -1.1131 -3.0425 -1.3887 -0.27917 -1.7376 -2.2604 -0.34587 -1.5864 -0.03638 
Dexamethasone 0.057669 -0.87896 -1.8807 -0.73403 -2.4456 1.0575 0.50654 0.023108 2.3238 2.6658 -0.5518 1.2454 0.32987 
Hydromorphone 1.0535 -1.1904 2.666 -0.32112 1.8199 0.10989 4.3259 -0.61501 2.7024 1.4663 1.0773 -1.648 0.12335 
CefePIME 3.0129 -1.4095 -4.3466 2.1661 -0.36488 -2.4235 -4.1005 -0.092979 1.6596 -3.8653 -4.5887 1.5195 -0.85476 
Albuterol 5.056 0.034465 1.4589 -1.8011 1.3296 -1.1235 3.1368 -0.61733 0.012418 -2.4234 1.3118 -2.7379 -0.15583 
Amlodipine -0.77666 3.1056 -2.4334 -1.1065 0.33336 -0.13329 -1.3594 2.3153 0.27261 1.8858 1.8577 -0.47212 0.00647 
Soln. 4.0717 -1.2151 1.8621 -3.3422 -5.0295 1.0896 1.8119 -0.53294 3.4527 -0.0053035 3.9261 0.7458 2.2274 
Soln 3.7003 -0.55692 -0.35922 -1.4624 -3.0636 0.35114 -2.8594 -0.46872 -2.1223 -1.8734 -1.77 4.3504 -0.73993 
CalciumCarbonate -2.4706 1.8805 -1.4098 0.35256 1.8505 -0.76045 1.7488 1.3943 -0.93713 0.3304 -2.0063 -0.68648 -0.43273 
PneumococcalVacPolyvalent -1.9679 1.9013 -1.742 -1.2211 -1.1277 3.0314 -0.27763 1.9246 0.54655 -3.0293 -0.52164 1.0621 -1.6201 
Thiamine 1.5852 2.2566 -1.3275 0.6662 1.7129 2.5721 -2.5439 -1.1992 -1.2641 0.69677 -3.3326 3.1897 -6.8249 
1/2NS -0.54531 2.32 0.73415 0.048603 -1.4312 -1.4452 0.47195 -0.063206 1.4389 -0.22405 -1.0562 0.38568 -0.043167 
CiprofloxacinHCl -1.1163 0.78698 -1.0519 0.6694 0.014225 -0.32456 -0.36289 -0.46608 -0.052505 -0.80369 -1.2463 0.041021 0.38847 
Metronidazole 2.7142 -0.95217 0.91992 0.90551 -0.18461 -2.9779 5.5931 -2.2954 1.4796 -0.22892 0.28312 -1.2637 -0.16871 
Piperacillin-Tazobactam 2.5566 -0.89089 -1.6384 1.9509 -1.1264 0.13978 -3.5117 0.39269 -0.06808 -3.8425 -4.2937 3.5546 0.46944 
NS(MiniBagPlus) -0.42671 1.3343 3.2825 -2.6373 -5.1345 -0.41488 4.2492 -3.4341 -6.1292 -0.39983 -0.45612 0.97604 5.9315 
D5W(EXCELBAG) -0.2835 -1.0404 1.5572 -2.3069 1.8998 -3.4354 -1.7302 -1.8614 -0.91579 -1.9821 5.2415 -0.60531 -2.5582 
Labetalol 1.8992 2.8953 -2.3592 -0.22713 -1.5818 1.4816 -2.7964 1.1129 0.067509 2.7437 0.17761 2.3299 -0.42064 
Tacrolimus 0.02926 0.65306 2.1214 -0.96952 -0.31219 -3.4014 -1.0803 3.124 0.59607 2.5606 -0.47519 1.7611 3.5612 
Phenytoin 1.5664 -0.39732 -3.1912 -0.41568 -1.6863 1.7214 1.8599 -1.8115 2.3509 3.6431 0.31001 -0.32635 -1.4817 
Albuterol-Ipratropium 1.2756 -0.83801 0.1396 -3.2056 1.3036 -0.34304 0.15442 0.88053 -1.0344 -3.0099 1.8102 -1.6205 -0.65052 
MethylPREDNISoloneSodiumSucc 2.262 1.753 1.6055 -1.5885 -0.86433 -1.592 -1.8545 2.5999 -0.44877 -0.13943 -2.2583 1.0912 3.1183 
HydralazineHCl 3.4282 1.3239 -0.1743 1.7741 1.2595 -1.6927 4.3999 0.02703 2.7567 3.4941 5.5278 -0.99139 -0.15884 
MagnesiumOxide -1.2312 1.9568 0.23077 2.0955 1.2424 -0.64775 1.8678 -2.134 1.3058 0.76488 0.42875 -1.6439 0.1608 
CeftriaXONE 1.036 2.2602 -1.2408 2.0765 -1.1931 0.45297 0.22976 -0.5749 -1.3743 -2.1696 -3.0573 1.7394 0.13193 
Ibuprofen -1.9743 -0.6574 0.1049 -1.1112 1.3634 2.1584 1.6049 -1.1009 0.84072 -0.22938 -0.41542 -2.1547 -0.001997 
Acetylcysteine20% 0.22466 1.3904 1.0503 -0.30853 -1.0614 -2.4984 -0.18403 -1.0584 0.59721 -1.2146 0.42857 -0.51205 1.0317 
Gabapentin -1.5647 0.32903 -1.3243 -1.541 1.5289 0.78759 1.1692 1.4606 -0.989 -0.042259 -2.8976 -1.165 0.073362 
Fluconazole 1.1087 -1.2683 1.5283 -0.78914 -1.0086 -2.7928 0.50287 0.21421 0.080212 0.26503 -1.5317 1.0969 1.905 
HydrocortisoneNaSucc. 0.16038 -2.1724 1.5442 -0.2553 -0.26235 -2.3356 1.5817 -0.47939 -0.596 -1.7694 -0.82642 1.5732 -0.58752 
NitroprussideSodium 0.18752 -0.69901 0.64986 -2.16 -1.8126 0.86645 1.6892 1.4793 4.4632 0.3446 5.9874 2.024 -3.5394 
AlbuterolInhaler 4.3716 1.3552 -0.63874 -0.53233 0.19008 2.7777 -2.7462 1.1783 -2.8668 -4.1329 -1.7155 1.6869 0.57916 
LeVETiracetam 1.5963 -0.058203 -3.874 0.8725 -1.9474 3.7817 -1.1296 -0.012877 -0.45726 1.6211 -1.9497 3.0195 -0.13013 
Omeprazole -1.8454 2.618 -2.117 0.27743 1.5719 3.7129 -0.99199 2.6846 -1.8375 -2.2944 -2.6172 0.94084 -0.18334 
NS(GlassBottle) 5.7437 -0.25869 -1.9598 0.50017 -2.4732 1.642 4.5012 -2.9395 3.8593 3.0259 2.0714 -0.44559 -1.5965 
Digoxin -0.66646 1.1124 -0.77261 0.48148 0.39157 -1.3535 -0.57684 -1.6885 -0.54202 -1.71 1.5928 -1.0383 0.30603 
Meropenem 2.8726 -3.7691 -2.6448 1.2549 0.12761 -4.598 -2.601 0.37734 2.4533 -2.2557 -4.5597 1.4863 -0.48765 
ClopidogrelBisulfate -1.5714 1.4751 1.111 0.34813 2.0229 0.71927 4.0784 0.45852 2.1625 -2.05 4.351 -2.0868 -0.85747 
CiprofloxacinIV 0.9071 -0.23857 -0.50605 0.26067 -2.4997 -0.011201 -2.5649 -1.4715 -1.5625 -2.1638 -2.4205 3.2019 0.55109 
DiphenhydrAMINE 0.21385 0.96082 0.76351 -0.048064 0.24106 1.9516 -0.75266 1.7791 0.49278 0.21338 -3.5572 1.3391 1.1136 
QuetiapineFumarate 1.3504 1.0856 -2.2429 -1.0943 0.47194 -0.18085 -1.5475 -1.5591 -1.8992 0.77666 -1.713 -1.0222 -0.20303 
BM_p3 0.13055 0.057275 -0.14471 0.45298 1.3096 2.3058 -3.1913 0.47851 -1.3999 -1.301 0.60259 1.3754 1.5163 
Albumin5%(25g/500mL) 0.16708 -1.8763 1.3631 -0.69296 0.66655 2.3838 -3.2587 1.1206 -2.0264 -4.6229 1.4373 3.8585 -0.68995 
SodiumPhosphate 0.32792 -0.34009 0.74091 -0.58434 -2.2212 0.34391 -1.2406 -1.8872 1.4761 0.34109 -1.7265 1.4782 -0.22207 
MiconazolePowder2% 0.93274 -1.0154 -1.5511 -0.46492 0.29948 -1.9762 0.35424 -0.43367 -0.94711 -0.56644 -0.55546 -0.69556 0.86251 
Prednisone 2.0603 1.0637 1.7916 1.1202 3.5307 -2.9349 3.8606 0.83804 1.5466 1.1064 0.70681 -2.6242 1.1494 
Albumin25%(12.5g/50mL) 0.89388 -0.85155 1.5553 0.84583 0.51175 -0.67052 -3.4611 -0.89174 -2.7423 -2.4407 -1.1233 3.5537 0.35154 
traZODONE -0.82143 2.8039 -0.98819 1.9431 2.0094 1.4776 -1.9111 0.18027 -1.4805 -0.90497 -2.3566 0.16452 1.1545 
Azithromycin 0.3691 1.6671 -1.3597 -1.007 -0.70505 -2.685 0.018093 -0.34696 -0.37743 -1.752 -2.5185 -1.6557 1.0134 
Carvedilol -1.1776 2.3162 -1.3375 1.1313 1.7536 -0.31313 -1.4091 0.34258 -0.43388 -1.6153 2.5605 -0.761 0.22534 
LactatedRingers 0.17276 0.081008 1.0856 0.12636 -1.0951 4.8002 -2.0206 0.61074 -1.9779 -2.0722 -1.8442 4.7913 -0.23205 
FerrousSulfate -1.4697 0.24402 -2.4834 0.2722 2.7243 -0.84633 2.037 0.79929 -0.91739 -0.50854 -0.90534 -1.2561 -1.8882 
TraMADOL(Ultram) -2.1712 0.74078 -1.3131 0.36511 3.1175 4.6757 -2.3579 1.4223 -1.6919 -2.6874 0.47938 0.22221 0.32582 
Propofol(Generic) 4.0926 -3.2 2.2395 0.023202 0.76761 -0.97165 6.1882 -0.73035 1.7313 0.65564 5.8077 1.6347 -2.9038 
FluticasonePropionate110mcg 1.3634 0.10142 0.27895 -3.7063 2.4929 -0.0093069 0.11376 1.5542 -1.3164 -3.3209 1.1512 -3.1022 0.23348 
Cefazolin 1.4997 -2.0998 2.6641 -0.18652 1.1747 1.9748 5.6981 0.099514 4.5114 0.46565 3.4851 -0.25752 -2.0968 
Humulin-RInsulin 2.2707 -1.6603 2.8547 0.68808 0.30934 -1.2852 5.8858 0.17046 3.1794 -0.53993 4.5539 0.76308 -1.1989 
EnoxaparinSodium -0.77323 0.574 0.27155 -0.65657 -0.051254 0.54299 0.086049 -1.5271 0.87074 0.1358 -1.1014 -1.3483 0.66333 
Clopidogrel -1.5609 3.1773 -1.3378 0.65414 0.38644 3.0566 -1.2254 2.2537 -0.34347 -3.5357 0.75336 0.92485 -0.16214 
NystatinOralSuspension 1.5903 -0.43624 -1.1701 -0.54268 -0.06973 -1.2523 -0.13807 0.071169 -0.6465 -0.164 -0.29627 -0.12309 0.86732 
PotassiumChloride(Powder) 1.5709 1.9663 -1.4104 1.9456 -0.60345 2.5951 -3.9276 -1.8434 -1.9281 -0.79274 -2.0478 2.2902 1.138 
LansoprazoleOralDisintegratingTab 2.0048 0.79569 -1.8926 -0.74714 -0.06756 -0.3943 -1.0041 -0.24697 -2.0006 -0.97216 -1.0491 0.045833 -0.087005 
PotassiumChl20mEq/1000mLNS -0.15306 -0.37713 -2.6205 -0.50265 -2.5374 3.4205 0.13947 -0.78493 3.0205 3.458 -0.85433 1.4619 -1.1629 
Olanzapine(DisintegratingTablet) 1.9007 2.1971 -1.6954 0.033792 -0.6087 -0.91594 -1.8424 -2.3023 -1.086 0.92179 -1.152 -0.42933 0.083051 
ThiamineHCl 2.8416 0.20732 -0.10658 -0.9452 3.769 -1.0616 2.5528 -1.3071 2.6868 2.7176 -0.99992 -1.1148 -8.1166 
DiphenhydramineHCl 0.28001 -1.1927 2.0855 0.98617 4.0752 0.81347 6.3461 0.25096 2.265 0.51224 3.4249 -2.5578 0.12582 
LabetalolHCl 2.994 1.0444 -1.013 0.58976 -0.50181 -1.2361 3.0985 -0.014894 3.225 3.1973 4.1342 -0.55186 -0.37603 
BP_m3 0.97643 -1.7964 -0.12784 0.030532 -0.20547 -0.50878 -1.245 -1.5662 -0.49175 -0.27184 0.97252 1.1698 0.48292 
VitaminD -2.1665 1.9611 -2.9087 0.60301 2.5598 0.66974 1.4866 2.4358 -1.7253 -1.6515 -3.2978 -0.54327 -0.98373 
AlbuterolNebSoln 4.0172 0.91802 2.174 0.53975 3.3773 -0.97408 5.7754 -0.53986 0.66807 0.039715 3.7437 -3.4611 1.1191 
Milrinone -0.24838 -1.9167 0.94803 -0.51969 0.31883 -1.573 -1.7384 -0.61372 0.11948 -4.6966 5.9305 1.2242 -0.7337 
Acetaminophen(Liquid) 1.9052 -1.6482 -1.2946 -2.2781 -1.5703 -0.64836 -0.34179 -1.7296 -0.7934 0.50104 -0.99041 0.075449 -0.093368 
LidocaineJelly2%(Urojet) -0.8022 1.8441 -0.70156 0.61111 -0.74775 -0.48517 -1.3047 -0.59399 -0.29818 -0.277 -1.3344 1.0217 -0.081953 
FolicAcid 2.4548 3.6564 2.6618 -0.70699 2.0835 0.77739 8.2242 -2.8812 -1.5088 3.369 2.7154 -1.6724 -4.4426 
DolasetronMesylate -0.42967 0.94131 1.8552 0.58459 0.89791 -0.44457 4.5545 -0.064692 3.0558 1.3662 -0.33861 -1.4053 -0.089701 
Prochlorperazine -3.0696 1.7606 0.21966 -0.1804 -0.40159 -0.15368 1.2095 1.1168 2.1674 1.5221 -2.954 0.0074803 0.12137 
Syringe(IVRoom) 2.714 1.517 2.5918 -3.5239 1.0958 -5.9577 0.62124 0.52344 1.6422 3.8892 0.0045407 -0.1534 -3.9734 
HydrALAZINEHCl 2.8421 1.9667 0.017701 0.036497 0.26868 -1.7004 1.8808 -0.15794 2.0648 1.9619 3.3886 -1.2329 -0.2955 
Atenolol -0.61925 2.5128 -1.8781 -0.29362 0.23399 1.1493 0.26729 0.63662 1.9467 1.4712 0.46194 -1.4982 -0.20235 
Cosyntropin 0.66699 -2.7851 0.91469 0.89912 -1.3412 -3.0682 2.9837 -2.4023 -0.52865 -2.6928 -1.4509 1.2505 0.4587 
Alteplase(CatheterClearance) 3.5196 0.71756 0.91089 1.8183 -0.091865 -3.2038 -2.5823 -0.79024 3.4354 -1.1129 -1.6641 -0.15134 1.3025 
PolyethyleneGlycol -0.90683 2.0659 -2.2633 2.3431 1.5864 3.0832 -1.4782 0.7297 -2.4063 -1.4197 -2.3282 1.0922 1.6233 
Clonazepam -0.20776 0.83437 -1.0498 -1.4233 1.7047 -0.15963 0.77655 -0.33406 -1.2327 0.33203 -2.3632 -2.3005 0.23157 
HeparinFlushPICC(100units/ml) 0.58133 0.71857 -0.40773 0.89639 0.90756 -1.9998 1.9421 -1.503 -0.35723 0.60742 -0.79417 -1.527 1.1138 
AcetaminophenIV 1.5969 0.6345 -0.075481 0.18504 -1.0449 5.384 -2.8345 0.425 -2.9147 -1.6886 -1.9854 4.473 0.43351 
NicotinePatch 0.26823 2.2208 -0.6418 -2.2349 0.6148 1.5518 -0.50284 -0.56634 -0.60638 0.7566 -2.408 -1.1785 -1.7023 
Dexmedetomidine 3.0836 -0.43349 -0.089422 -1.9734 -0.4614 3.0808 -4.3599 -0.46716 -2.5553 -2.035 1.039 3.1694 -1.6424 
AtropineSulfate -3.0801 3.9007 0.37083 0.32738 -1.728 -1.4634 0.7858 -0.099592 2.3002 -2.5378 2.6004 -0.64824 -0.011189 
SodiumPolystyreneSulfonate -0.9802 0.50526 -0.47104 0.58322 -0.33136 -3.4105 0.9381 1.5475 -0.56249 -0.70466 -0.35766 1.1806 0.75882 
Vasopressin 1.0303 -3.6284 1.0291 -0.22226 -1.9795 -3.2752 -0.041587 -1.5479 -0.75667 -5.3045 1.8105 2.9093 -0.46778 
Albumin5%(12.5g/250mL) 0.4193 -1.4597 1.4396 -0.65826 -0.22224 1.3993 -3.4453 -0.31262 -1.3911 -3.0173 0.77403 3.1101 -0.052583 
Epinephrine -0.52211 -2.8595 2.2541 -2.0545 -0.65147 -0.46204 0.18151 0.23242 -0.29851 -6.0791 5.4069 3.0684 -3.06 
Hydrochlorothiazide -0.7728 4.1226 -2.0485 -0.60726 0.42073 1.1368 -0.34284 1.077 1.856 2.4918 0.54957 -1.7768 -0.27912 
Mannitol20% 1.571 -3.4788 -5.348 0.41004 -2.0476 0.69811 0.99197 -0.29395 0.27313 3.3092 1.5228 5.1209 -5.1123 
LansoprazoleOralSuspension 3.5832 -0.71728 -0.00057231 0.1534 0.90827 -2.5059 4.0417 -1.7545 0.67596 0.70278 2.0462 -1.773 -0.26291 
Olanzapine 1.3889 1.5843 -2.0783 -0.35916 0.56563 -0.88303 -0.82717 -1.7464 -1.1339 1.1553 -0.82579 -1.3062 -0.3985 
Spironolactone -1.6113 2.332 -0.2785 1.9917 2.1753 -2.4169 -0.5067 -1.5877 -0.42393 -0.5825 -0.082583 -0.88565 -0.85984 
ArtificialTears 1.8504 -1.8345 -2.649 -1.5155 -1.2722 -0.83395 1.151 0.26627 -0.77018 -0.53655 0.46183 0.23893 0.19567 
MycophenolateMofetil 0.32423 0.61402 1.6628 -1.8117 0.020041 -4.1304 1.0167 5.4195 0.8023 2.8662 -1.0937 1.9566 2.7441 
Lidocaine1% 0.88495 0.57515 -0.19411 -0.65012 -1.3205 -1.1431 -0.93491 0.20293 -0.16271 0.12739 -1.0654 1.1001 0.75916 
FentanylPatch 1.3106 -0.61274 -0.1231 -1.4172 0.8502 -1.1494 0.64591 -0.92191 -0.72304 1.4494 -2.8602 -1.1126 0.40136 
D5NS 0.038126 0.5857 0.28047 -0.20895 -1.7692 -0.51428 0.11729 -1.2353 0.90188 1.1895 -2.3945 1.501 -1.0392 
5%Dextrose(EXCELBAG) -0.16218 2.1866 0.30901 -0.028736 1.2126 0.74901 -5.4271 -0.19247 -4.186 -3.0851 3.1635 3.1206 -0.87012 
PHENYLEPHrine 0.1482 -0.55334 0.6442 0.4965 -1.7158 4.6004 -2.8038 2.0502 -0.92912 -5.0689 0.38259 6.6577 -1.5265 
SodiumChlorideNasal -1.2376 1.6907 0.2871 -0.35642 1.1415 -0.19677 -0.27818 0.46588 -0.70635 -0.92971 -0.22325 -1.2708 1.6558 
MultivitaminIV -0.90319 0.77496 0.51675 -4.1378 -2.6384 -1.7057 -2.1912 -4.7139 -0.061136 3.0209 -1.9505 1.5967 -5.8369 
SarnaLotion -2.0294 0.82999 -0.26928 -0.50481 0.76541 -0.5083 -0.067546 0.6431 -0.38498 0.89525 -1.3631 -0.4541 1.1346 
Clindamycin 0.42096 -0.4296 -0.56375 -1.3518 -2.2505 -0.29802 1.6634 -1.4233 0.88896 -0.21383 -1.7812 -0.2412 -0.11142 
EpoetinAlfa -1.7728 -0.28985 -1.4132 1.4277 0.77963 -4.5542 2.2883 2.0206 -2.6288 2.2557 0.94478 2.7827 -0.00032574 
CitalopramHydrobromide -0.63349 1.0621 -1.7422 -1.1195 1.8219 0.10113 1.8586 1.0437 -0.83053 -0.55231 -1.6688 -1.7438 -1.1037 
Guaifenesin -0.4904 2.0996 -0.29732 -0.20653 1.551 -1.2547 -0.37448 -0.28897 -0.43045 -1.1754 -1.7384 -2.6828 2.2043 
traZODONEHCl 0.039848 1.612 0.011238 1.2695 2.6412 -1.1366 3.9548 -1.1621 1.1428 0.4 0.6331 -3.1032 -0.19737 
BM_p4 0.24781 -0.14743 -0.36792 0.38447 1.3356 1.7555 -2.9118 0.54071 -1.705 -1.519 0.46275 1.1459 1.8627 
Allopurinol -2.3983 1.8027 -1.7816 -0.065664 1.7193 -0.48522 0.96814 2.7223 -0.20359 -2.0251 -0.036419 -0.78298 -0.49728 
Acyclovir 0.73422 0.20377 -2.0736 -0.7941 -3.1693 -1.8962 1.8146 -0.027765 -0.81979 0.82877 -2.583 1.3458 0.39659 
NiCARdipineIV 2.0685 1.2752 -2.8711 -2.7306 -4.0753 3.5183 -2.7852 2.9231 3.2342 1.5298 3.1395 2.3314 0.11675 
Sulfameth/TrimethoprimDS -0.13221 1.2813 -0.57329 0.11119 0.5082 -1.7814 0.66352 1.1141 -0.36071 1.1243 -2.2745 -0.36415 1.569 
Methadone 2.5064 -0.076303 -0.035811 -0.89621 0.18454 0.92402 -2.2444 -0.95112 -2.3959 0.52942 -3.0149 1.6788 -0.20287 
MethylprednisoloneNaSucc. 6.4536 1.1718 5.5806 2.061 3.5609 -2.0978 7.888 1.2074 0.604 4.2397 1.8291 1.1493 -0.029503 
Lidocaine5%Patch -1.6687 1.0159 -0.87798 0.062039 1.839 1.07 -0.20477 0.57941 -1.5202 -0.85859 -3.4791 -0.55993 0.8402 
Gentamicin 0.25166 -8.0843 -6.257 -5.8036 -2.3608 -3.4292 -0.68439 1.6962 2.8625 -0.98822 -2.3279 -1.3113 -0.075614 
IsotonicSodiumChloride -1.8777 1.9532 2.3782 6.9783 -3.8179 3.0476 7.6465 -5.2158 -1.1785 0.36711 1.7356 4.8613 1.149 
AcetaZOLamideSodium 2.3692 0.25006 -0.41841 -0.83356 -0.78914 -0.38206 -3.7763 -2.1995 -2.0471 -1.0019 1.5042 0.7148 1.4944 
MetoprololSuccinateXL -1.6572 3.7032 -1.69 2.1116 1.8336 2.3378 -2.5564 0.9385 -0.42535 -0.56788 0.14923 0.21328 1.0614 
AscorbicAcid -3.6378 -0.85311 -1.617 -1.9369 3.6285 1.1329 4.2803 -1.5326 -5.5516 -1.3049 1.2055 -2.1601 -1.7969 
IsosorbideMononitrate(ExtendedRelease) -2.4338 3.8339 -1.7083 0.24367 1.1962 -0.99914 -0.65141 1.8887 0.57928 0.29725 2.7647 -1.1926 0.43829 
Aluminum-MagnesiumHydrox.-Simethicone -3.0191 2.6103 0.10845 0.65412 0.71287 -0.19044 0.13857 0.079199 1.4856 0.21643 -1.4478 -0.97559 0.29967 
CisatracuriumBesylate 3.2186 -3.0766 -0.33598 -2.1287 -3.739 -2.3132 -0.50725 -1.1577 -1.3013 -3.0331 2.2785 3.0544 -0.16674 
CalciumAcetate -1.2397 0.41782 -2.5081 0.77592 0.77732 -4.1049 1.8227 2.7658 -1.4383 0.6441 0.72624 0.95255 0.53453 
CloniDINE 1.9427 3.5013 -2.1101 -0.62452 0.31887 1.2649 -3.043 0.7373 -1.7642 2.6711 -0.4633 1.2615 -0.74685 
ArtificialTearOintment 3.4896 -2.0181 -1.8782 -1.5654 -2.7828 -0.1497 0.023564 0.191 -0.61769 -1.3947 0.16121 2.0508 -0.045533 
SodiumChloride 0.72889 -1.3645 -2.4378 1.4937 -3.1418 -0.10286 0.93578 -0.99929 0.89184 2.1176 0.95337 3.1637 0.31811 
NitroglycerinSL -2.7313 3.9195 0.067028 0.74214 0.32363 -0.9933 0.44131 1.1449 1.6031 -1.1095 0.93644 -0.80691 0.11496 
Simethicone -2.8344 1.3876 -0.25475 1.3245 1.6733 -0.69123 0.31707 -0.13915 0.33066 -0.041624 -1.5983 -0.88589 0.56668 
Linezolid 0.99679 -1.3945 0.22564 0.09215 -0.72283 -3.3391 0.58489 -0.9045 -1.1772 -0.95463 -1.9783 0.67225 1.7947 
Metolazone -0.55229 1.4501 -1.216 1.4205 0.72005 -2.937 -2.1657 0.33969 -1.0467 -2.0919 2.8321 0.20973 1.8016 
NORepinephrine 0.43269 -0.8257 -0.34217 0.93017 -2.6321 1.6808 -1.3218 0.21494 -2.921 -5.0783 -1.0311 5.3949 0.32122 
Valsartan -1.6821 3.6547 -1.6901 0.077633 0.4053 0.19119 -0.61048 1.3649 1.1523 0.92034 1.1392 -1.288 0.90251 
BT_p2 2.9634 -3.1139 0.4396 -0.32632 -0.95434 -1.256 0.20503 -3.5681 -0.76362 0.41322 -0.35176 0.89685 0.57764 
VecuroniumBromide 3.9719 -2.1902 -0.87487 -2.8082 -3.188 -1.4655 -1.1041 -1.9005 -0.57893 0.13559 1.6224 2.0485 -1.2608 
Ampicillin-Sulbactam 2.3834 -1.1021 -2.7161 0.34741 -0.59993 -2.2341 -2.8484 2.0918 4.7533 -1.5217 -5.3066 1.4174 -2.4094 
Tamsulosin -2.3155 2.2397 -1.6781 0.28886 1.9056 3.9462 -1.0152 1.8435 -1.6882 -2.3592 0.15605 0.43071 -0.25613 
Pravastatin -3.1452 1.3194 -1.0987 -0.99359 1.7902 2.1375 0.36753 2.8981 -0.24218 -2.2587 0.35585 -0.33167 -0.89931 
Golytely -1.4346 1.4315 0.58342 1.2494 0.30064 -2.4814 0.41061 -0.59986 0.8993 0.93228 -1.2339 0.69649 -0.93051 
Nephrocaps -3.1302 0.026635 -4.2444 0.1519 1.9369 -3.0817 2.1314 4.5513 -2.0323 -0.33759 0.060431 0.57041 -0.080007 
TiotropiumBromide -0.09133 2.6702 -0.41957 -2.8848 2.5111 0.2022 -1.4809 2.4091 -0.95139 -3.2062 -2.0493 -2.8025 0.27916 
VancomycinOralLiquid -0.29634 -0.84285 -0.78261 0.94171 -1.5863 -2.3222 -0.10614 -1.2963 -1.6254 -1.3105 -2.8423 1.6977 1.8118 
Sertraline -0.9529 1.9989 -1.6868 -0.95303 1.4888 1.4632 0.14925 2.048 -1.3996 -1.5958 -1.6002 -0.55464 -0.66423 
IsosorbideDinitrate -0.29623 3.5336 -1.7542 0.63492 0.49382 -2.9818 0.14204 1.023 0.51575 0.97981 3.3329 -1.1442 0.63667 
Cyanocobalamin -1.577 1.6379 -2.0118 -0.76686 2.106 -0.99789 1.1041 0.47766 -1.1209 0.0070634 -1.6392 -1.0227 -3.2311 
LosartanPotassium -1.6243 2.822 -2.1005 -0.091877 0.96082 -0.22017 -0.85242 1.3137 0.88587 0.36461 1.3466 -1.3314 0.12784 
AmpicillinSodium 0.85057 -2.451 -4.0913 1.0279 -1.898 -2.9579 0.45701 -0.77925 3.5609 -1.981 -2.9328 0.40902 -2.0962 
OxycoDONE-AcetaminophenElixir 2.0758 -0.26501 -0.66543 -2.0071 -0.59288 2.2989 -1.5043 -1.0698 -0.97442 0.48674 -1.1042 -0.11362 0.9048 
Alprazolam -1.0583 1.0621 0.068367 -1.3264 1.2447 1.0174 0.42598 -0.015703 0.25075 0.42691 -1.0246 -1.6605 0.045845 
Phenytoin(Suspension) 2.2108 -0.83901 -4.1475 -0.82507 -2.4639 1.434 0.0090707 -2.2847 0.8828 2.6916 0.073729 0.26517 -0.91133 
DopAmine 0.68571 -0.73891 1.0174 1.966 -0.37372 -3.7042 4.4758 -1.1821 1.3887 -2.2365 3.5399 0.11732 -0.03798 
ProtamineSulfate -1.6145 -2.511 2.2689 -2.3011 -0.18781 0.65226 0.52021 1.749 1.4335 -3.5164 4.2933 3.2622 -3.3596 
Levetiracetam 1.8779 0.17496 -2.3257 -0.11934 -1.1189 -0.38598 2.6713 -1.6209 1.1016 2.6285 -0.29644 -0.58865 -0.89189 
Ceftriaxone 3.2971 -0.12548 -0.13847 2.0976 0.37817 -2.6481 6.7904 -1.4254 1.7564 -0.7633 1.0083 -1.4585 -0.53416 
Oxycodone -0.1929 0.99414 0.82042 1.6333 2.4823 -1.7898 5.594 -0.29594 2.1147 1.53 -0.9234 -2.7203 0.55792 
ChlorothiazideSodium 0.40571 0.65265 -0.72977 0.9525 -0.043669 -3.7033 -1.9865 0.5374 -1.023 -2.5061 3.3382 1.2407 1.1932 
0.45%SodiumChloride -0.55092 2.8183 0.026467 1.4154 -1.2655 1.5659 -1.845 0.89062 -0.92582 -0.5764 -2.4375 3.3822 0.4914 
Sulfameth/TrimethoprimSS -0.27513 0.91136 0.38805 -1.1683 0.42151 -1.9624 1.0889 4.8151 -0.043526 1.4027 -2.6975 0.96306 2.9332 
MetFORMIN(Glucophage) -1.5479 1.6438 -1.5873 -0.46763 2.7907 6.1497 -1.8795 1.2819 -0.15282 -0.72575 1.8436 -1.339 1.2426 
RosuvastatinCalcium -2.7648 1.1779 -0.81899 -1.9613 2.0275 3.1601 -0.45935 2.692 -0.76929 -2.3438 1.24 -0.40149 -1.031 
BT_m3 0.43363 -2.0295 0.69768 -0.29152 -0.2108 0.2239 -1.2162 0.39768 0.54756 -0.589 1.6507 2.1511 0.21178 
Esmolol 0.58709 1.6613 0.68244 -1.0774 -2.2246 -1.2944 -1.3826 -1.6286 0.92302 -0.78241 2.8943 0.63136 -1.0451 
Hydrocodone-Acetaminophen -2.0691 0.62292 0.4067 -0.44618 1.3623 1.3813 0.90303 0.5895 1.3421 0.44237 -0.88497 -1.192 0.3626 
OctreotideAcetate -4.2772 -0.32414 3.4849 0.27658 0.36903 -5.5177 0.86182 -1.3107 -1.6774 0.23579 -4.2983 4.0382 -3.7488 
CyclosporineModified(Neoral) 3.0378 -0.88753 3.5725 0.016696 1.7889 -2.7087 3.7287 1.5835 1.2048 3.4135 3.2702 0.66371 2.9412 
Eptifibatide -4.0907 5.5157 1.5804 0.09215 -1.9909 -1.1267 0.82888 -0.37717 3.2245 -2.4222 3.3789 -0.93877 0.25082 
MupirocinNasalOintment2% -3.1145 -0.094108 -1.0851 -1.0504 1.5597 5.4058 -1.7756 3.4853 -1.1074 -5.1581 1.1561 2.4609 -1.5044 
OxycoDONELiquid 2.1594 0.019573 -0.71369 -0.36212 0.25042 2.1478 -2.2847 -0.8452 -1.7434 0.47819 -3.0104 1.0032 1.0386 
Latanoprost0.005%Ophth.Soln. -0.53244 0.017073 -4.1734 -0.52283 1.1916 0.68465 1.352 5.0768 0.0090718 -2.187 0.64783 0.22948 -0.43194 
Cepacol(Menthol) -1.9932 2.346 0.20933 0.70543 1.8327 2.1857 -1.5969 0.43817 -0.31086 -0.65364 -2.2989 -0.33077 1.167 
DiphenhydrAMINEHCl 0.35863 0.05498 2.125 -0.70714 0.50624 -0.87304 3.7103 0.21517 2.399 1.1885 -1.0976 -1.4572 0.85748 
Lansoprazole 1.7111 -0.18416 0.067093 0.040663 1.5261 -1.2553 4.0255 -0.87536 1.1309 0.94428 1.5954 -2.1498 -0.18614 
Ciprofloxacin 1.3354 -0.33023 1.2689 -0.25447 -1.8085 -3.1039 2.2626 -2.1881 -0.11884 -1.2958 -0.8278 0.47879 -0.24866 
MetoprololXL -1.2926 3.1875 -0.6369 2.5201 2.363 -0.99288 2.4254 -0.97534 2.5147 1.4768 3.1541 -2.5397 -0.12848 
Mirtazapine -1.3973 1.541 -2.4523 -0.78175 1.4372 -0.49791 1.3005 0.95077 -1.361 -0.6543 -2.9047 -1.3503 -0.82384 
DOPamine -1.3648 0.47377 -0.80579 0.60086 -2.4162 -1.941 -0.55513 -0.30204 -0.73832 -4.2206 1.0856 2.0106 0.4624 
Bupivacaine0.5% -0.83186 -0.95672 7.0189 -5.3482 1.4784 1.2342 -0.49501 -1.1174 1.8224 1.9927 -2.3505 -0.69444 -0.47975 
Succinylcholine 3.6776 2.0295 1.9992 -5.0753 -3.8449 -2.9024 -1.3234 -2.0122 -3.6147 0.74153 2.2504 2.1461 -1.8115 
UO_p1 2.3449 -1.6352 -0.54935 -0.02605 -1.616 -0.56277 -0.4735 -2.0983 0.61421 1.8855 0.91483 1.322 0.5557 
Fluticasone-SalmeterolDiskus(250/50) 0.15888 3.3478 -0.17927 -1.3912 2.5914 2.2997 -1.9223 3.046 -2.2666 -3.7633 -2.4057 -0.68924 0.5114 
Sevelamer -1.4481 0.24969 -2.684 1.7284 1.7136 -4.0006 2.8128 2.8144 -0.22179 0.56164 0.93381 0.22789 0.40322 
SodiumCITRATE4% -0.053254 -0.32935 -0.79545 3.0714 -1.0753 -1.8594 -2.5513 3.1381 -1.6034 -0.831 -0.31104 6.656 2.2036 
BM_m1 -0.67637 0.30738 0.018838 1.5303 0.43233 0.9076 -1.8506 -0.4793 -0.40984 0.11055 -1.7686 1.7718 0.84353 
Bupivacaine0.1% 1.6896 -1.7314 4.8658 -2.1881 3.5968 5.5879 -1.9137 1.4691 -2.6415 0.62368 -5.0858 3.9308 -1.1543 
PotassiumChl40mEq/1000mLD51/2NS -0.36983 1.6761 1.1047 -0.42286 -1.783 0.98842 0.35625 -2.5808 1.8281 1.6478 -2.8187 0.32605 -1.0769 
DesmopressinAcetate -0.11027 -0.70035 -0.20949 0.12967 -1.5771 -2.4832 0.75831 1.0924 -0.23839 0.93758 -0.20978 3.0706 -0.2601 
Prismasate(B22K4) 0.14987 -1.5399 1.9081 2.6366 -2.9034 -2.8824 -2.1893 0.95151 -0.41335 -2.2398 -0.20039 6.6684 3.1484 
OxycodoneSR(OxyconTIN) -1.6846 0.80077 -0.33175 0.37604 1.461 2.9154 0.06487 0.44221 -0.5532 0.67942 -4.4745 -0.20043 1.6762 
DexmedetomidineHCl 3.3427 -1.6083 2.0527 -1.8216 0.76689 -0.60312 0.7254 -1.6906 0.95216 -0.31316 4.2036 -0.18797 -1.9831 
FludrocortisoneAcetate -0.74045 -2.5447 -0.064891 0.87266 0.66598 -3.4988 3.038 -0.040261 -0.51098 -2.143 -1.7565 0.97949 -0.71501 
Ezetimibe -2.8755 0.7453 -1.4939 -2.3595 2.636 2.3463 0.22203 2.3052 -0.19387 -2.4407 1.7375 -1.8975 -1.4179 
Prismasate(B32K2) 0.51964 -1.9329 1.8183 2.0652 -2.4295 -3.8216 -0.94317 1.2637 0.014273 -2.3072 0.26847 5.641 2.4214 
MethadoneHCl 2.2502 -1.1982 1.1091 -0.8082 1.7316 -1.751 3.4893 -1.3927 -0.039309 2.0557 -1.0509 -1.4528 -0.37356 
Fluoxetine -0.18046 2.1547 -1.2767 -0.98264 1.5875 2.7818 -0.58052 1.9059 -1.834 -1.3646 -1.8943 -0.037478 -0.38511 
AcetazolamideSodium 4.2039 -1.486 1.7191 0.8789 1.7216 -2.5629 3.0225 -1.6442 0.8949 1.493 4.8689 -0.6335 0.59314 
Erythromycin0.5%OphthOint 1.3687 0.079777 -2.0622 -1.1028 -0.7526 -0.022026 0.99297 0.20085 -0.043778 0.466 0.034538 -0.24717 -0.50666 
Nesiritide 0.70368 0.32089 0.38331 2.27 1.6327 -3.736 1.6165 -1.2128 0.42428 -1.8088 5.7823 -0.48358 0.29005 
MontelukastSodium 0.19182 1.7856 -0.26702 -3.7633 3.0502 0.65004 0.42457 3.6444 -0.96672 -2.8655 -2.001 -3.1063 0.41938 
MethylprednisoloneNaSucc 2.989 1.0368 2.5067 -1.1379 0.088539 -3.7798 4.0888 1.456 1.2178 1.9163 0.52238 0.035737 0.08298 
PromethazineHCl -1.8006 0.73749 1.6204 0.21827 0.19667 -0.92492 3.9358 -0.21687 3.8769 1.5312 -1.2262 -1.163 -0.26918 
Acetaminophen-Caff-Butalbital -1.3402 0.48834 -2.1278 0.19885 -0.94341 4.6024 -0.42557 0.76036 2.5839 3.8821 -2.0643 1.3146 0.63945 
Hespan -0.72248 -3.3514 3.001 -1.2641 1.9364 -0.58803 1.0562 0.081866 1.1343 -1.9648 4.0706 0.63118 -1.0931 
Cephalexin -2.5102 0.77576 -1.4401 0.28329 0.95526 0.84695 -0.5915 -0.19779 1.3027 0.67064 1.01 -1.0307 0.5445 
GentamicinSulfate 0.37514 -2.2859 -0.41069 -0.21132 -2.1742 -0.98706 1.5671 -2.0169 -0.35605 -1.0231 -0.50452 1.1965 0.53884 
0.83%SodiumChloride 0.35585 2.9527 -4.0024 1.7235 -2.4468 5.126 -3.3334 1.5011 1.0561 1.1229 3.6666 6.0328 -3.5372 
MorphineSulfateIR -2.1733 0.84259 0.36415 0.18024 1.46 0.38959 0.64696 0.015161 -0.0050212 1.6838 -4.685 -0.66885 1.1739 
Nadolol -3.0266 1.5307 1.4305 1.8481 2.2798 -2.5989 0.028996 -1.6336 -0.74705 0.42038 -3.2238 1.1602 -2.807 
DiltiazemExtended-Release -0.88017 3.6454 -0.29498 -0.39271 1.1786 0.26067 -0.52959 0.98486 0.38655 0.69828 -0.20438 -1.6788 0.90496 
BM_p5 0.86691 0.26593 0.15413 0.6513 1.6387 1.0314 -3.0983 -0.45203 -2.4509 -1.5315 -0.51094 1.0229 1.7463 
SodiumChloride3%(Hypertonic) 1.8406 -1.5969 -2.8486 0.90628 -2.4243 -0.27063 -0.11046 -0.74136 1.4808 1.9741 0.42242 2.4548 -0.17548 
Neomycin-Polymyxin-Bacitracin -1.8258 -0.94514 -1.583 3.752 1.9498 -1.1894 -2.2085 4.1629 -2.5639 1.6326 -1.4336 6.6052 1.1947 
TacrolimusSuspension 1.7336 -0.1358 1.7726 -0.8274 -0.61205 -1.9771 -3.2446 2.2478 -0.53723 1.0739 -1.3389 3.0776 3.3445 
D10W 0.49537 -0.69442 0.1789 -0.48285 -1.6535 -1.5246 -0.036181 0.84701 0.78412 0.51424 -1.5351 2.4083 -0.2389 
ClonidineHCl 3.3234 1.238 -0.62731 -0.24401 1.1368 -2.7021 3.0517 -0.017467 1.3601 3.8996 2.6546 -1.6597 0.010006 
Midodrine -2.1406 -2.3027 -0.37391 2.8875 1.7055 -1.2465 -0.86542 0.14119 -2.0436 -1.5223 -2.542 3.3379 0.7469 
Finasteride -2.3747 0.78497 -3.0293 -1.6285 1.6103 1.0132 0.18954 2.5942 -0.11167 -2.7081 0.88508 -1.3382 -1.3789 
PNEUMOcoccalVacPolyvalent -1.1505 1.8602 -0.94729 0.69259 0.7722 0.79058 -0.39572 -0.34342 1.2591 0.78097 -0.89305 -1.0179 0.45057 
Nafcillin 1.3268 -0.60583 -1.3298 0.19271 -1.1542 0.64565 -0.7682 -1.1279 -0.24473 -1.0377 -1.7175 0.79292 0.65404 
Risperidone 0.51829 1.6864 -2.5701 -0.62277 1.4034 0.3324 1.5678 -0.48835 -1.2942 -0.34054 -1.8431 -2.2867 -0.78648 
Albumin25%(12.5gm) 1.5935 -2.9874 2.4046 2.2535 0.65712 -3.7686 3.8847 -1.6077 1.9058 1.784 2.3866 1.6574 0.2866 
GlyBURIDE -1.8948 0.66365 -1.8572 -1.5384 2.1132 3.2254 -1.0971 0.66998 0.58484 -1.0697 2.8724 -2.5069 0.428 
Fluticasone-Salmeterol(250/50) 1.0333 3.1189 0.64229 -2.885 2.699 -0.70995 1.3357 1.6875 -0.088026 -1.489 -0.98311 -4.2541 0.64927 
Etomidate 6.4975 0.71763 -1.084 -3.5494 -2.737 -3.3623 -1.1813 0.41088 -1.5405 -1.0379 1.8106 1.347 -1.2743 
Readi-Cat2(BariumSulfate2%Suspension) 1.2977 0.68913 -0.17221 1.4428 -1.643 0.99364 -2.5654 -0.46419 -1.3007 -0.86882 -3.1847 3.6415 1.1303 
FluticasonePropionateNASAL -0.73319 3.0531 -0.77842 -0.80848 2.4946 1.9423 -1.1652 3.1737 -1.517 -2.7765 -2.3712 -0.65012 0.5413 
Oxycodone-Acetaminophen(5mg-325mg) -2.6977 -0.9485 -0.1334 -0.80672 1.2196 5.7847 -1.5758 3.6687 -0.48469 -3.9321 0.61495 3.7108 -1.1976 
Citalopram -0.71736 1.8626 -2.3739 -0.32341 1.7843 3.3317 -0.54795 2.1346 -3.2915 -1.9316 -2.4292 1.0191 -0.67016 
HYDROmorphone -0.55167 -0.97735 2.1381 -2.6916 -0.52047 1.8494 -0.75228 -0.25697 0.84009 1.088 -2.6691 0.7436 -0.042373 
Oxycodone-AcetaminophenElixir 2.8428 -1.6192 0.55074 -0.60828 1.6973 -0.58787 3.1068 -1.9325 0.97635 1.8859 1.3166 -2.1807 0.38817 
Nimodipine 0.44888 -1.7121 -2.4283 -0.25291 -3.3211 2.3259 0.40831 -0.36095 2.9438 1.8002 0.97888 2.4675 -0.69384 
Bumetanide -0.65769 1.0458 -0.3825 1.1557 1.4241 -3.1802 -0.31468 -0.1504 -0.63943 -1.1851 2.6768 -0.39295 0.66252 
HeparinDwell(1000Units/mL) -1.4169 -0.12627 -3.3309 3.4797 1.9128 -2.5743 -2.707 3.2407 -3.1079 1.0472 -1.1565 5.0265 1.157 
PotassiumChl40mEq/1000mLNS -0.51639 1.5935 -0.53019 0.14494 -2.2203 1.1256 0.34163 -1.5451 2.2307 1.7755 -1.8763 1.2339 -1.6196 
Paroxetine 0.23655 1.2206 -1.7325 -0.77436 1.6839 2.2358 -0.48252 1.0225 -2.2562 -1.9193 -1.4 -0.21572 -0.72118 
Daptomycin -0.37844 -1.1497 0.73754 0.65962 -0.83398 -1.815 -0.1039 -0.24329 -2.229 -0.85194 -3.4162 2.6885 1.9227 
AluminumHydroxideSuspension -0.49112 -0.3026 -1.4479 1.2367 0.19024 -4.5645 1.0253 1.825 -0.60974 0.48778 1.207 1.4513 1.0754 
Aztreonam 1.1096 -0.6799 -0.2203 -0.065132 -1.4938 -2.9048 0.59545 -0.99553 -0.54635 -1.59 -2.3528 0.60468 1.0085 
NSEpiduralBag -1.5207 -2.6136 5.3813 -5.0679 1.2614 0.034441 1.438 -0.62235 0.16441 1.7558 -1.3431 -0.016381 -0.61858 
Metformin -0.72068 -0.14028 -0.19309 -0.006556 4.4751 1.8076 3.8177 0.61883 2.0384 0.23426 4.1534 -4.2196 1.2383 
Torsemide -1.753 2.7841 -1.4276 3.0837 2.3087 -0.14959 -2.9683 0.41215 -1.2569 -1.8205 0.75805 0.14001 2.5109 
Fexofenadine -1.7618 2.064 -0.40415 -1.5741 2.4065 0.36586 0.75453 2.9736 -0.13754 -0.96493 -2.2522 -1.9935 0.47518 
HeparinFlush(1000units/mL) -1.1913 0.76766 -0.31798 1.7221 -0.13163 -0.69247 -1.9093 3.3521 -1.6311 -0.48359 -1.5864 4.2626 2.7963 
Syringe(0.9%SodiumChloride) -0.56049 0.044911 -4.8514 2.1634 -3.2255 -0.0037335 -0.0007997 -0.85694 -5.4094 2.1499 -1.2356 3.6396 5.7047 
Benzonatate -1.0809 3.3366 0.014705 0.3288 1.6737 -0.72134 -0.93273 -0.25243 -0.58231 -1.3074 -2.7572 -2.5231 2.7659 
NIFEdipineCR -1.0859 4.8373 -2.3264 0.20708 0.46513 -0.84421 -0.75444 3.7274 0.91307 2.7118 0.083816 0.1585 0.68047 
Ceftazidime 2.5771 -1.9713 -0.0045477 2.2193 -0.067849 -3.6168 5.37 -2.5073 1.4909 -0.48433 1.6155 -0.5829 0.36636 
Colchicine -3.1043 1.4872 0.058411 0.27871 2.2839 0.71638 -0.22316 1.0952 -0.26977 -0.6955 0.58964 -0.66422 0.44649 
GlipiZIDE -2.5783 0.79513 -1.5959 -1.0073 2.3696 3.1623 -0.7954 1.1807 0.24426 -0.45233 1.9911 -2.0503 1.0775 
Erythromycin 0.33346 -0.50489 -0.10331 -0.010169 -1.0269 -1.7881 -0.5995 -1.1 -0.37517 0.51213 -1.1435 2.0355 -1.0268 
TobramycinSulfate 1.5474 -1.4728 -1.2456 -0.22313 -1.6303 -1.8778 -0.73238 -2.1154 -2.2103 -0.74154 -1.5669 1.0894 1.6235 
BuPROPion(SustainedRelease) -1.931 0.81359 -0.79328 -1.7423 2.5676 2.4268 0.69925 1.6854 -0.80068 -0.72183 -2.0842 -1.4916 -0.73409 
AlbuterolMDI 4.1389 0.81422 0.34466 -1.1412 0.36719 0.73304 -0.64841 0.48473 -1.4132 -3.2422 -1.1187 -0.080836 0.12267 
Rifaximin -2.1742 1.4398 0.75851 1.4592 1.8361 -2.6682 -0.095426 -1.0359 -3.0559 0.046816 -4.4278 2.3865 -2.4907 
CitrateDextrose3%(ACD-A)CRRT 0.7345 -1.237 1.6474 2.6918 -2.5575 -2.8881 -2.557 1.4653 -0.49285 -3.0306 0.19678 7.0741 2.8038 
PotassiumChl20mEq/1000mLD5NS -0.2409 0.26365 -0.55925 -0.51062 -1.8621 2.2175 0.36489 -1.5746 2.6639 3.5552 -1.5286 0.97457 -1.0901 
EnalaprilMaleate -0.65083 2.5707 -2.1984 -0.30157 0.085339 -0.56739 -0.066682 0.41799 0.9648 1.6395 1.9821 -1.2827 0.06565 
PotassiumChlorideReplacement(Oncology) -0.71708 1.7446 1.2039 1.431 -1.0606 0.335 -0.15098 -1.8803 0.84353 0.22175 -3.727 0.50649 1.5255 
Lidocaine -0.66442 1.0503 0.3876 0.24338 -0.82497 -1.355 -0.7533 -2.3419 -0.62193 -2.6976 3.391 0.68514 -1.3474 
HeparinFlush(100units/ml) -2.0706 0.52975 0.045533 0.62184 -0.30666 -0.51697 -1.0465 -0.39372 0.09493 0.16087 -3.9665 0.59958 2.2273 
BrimonidineTartrate0.15%Ophth. -0.34181 -0.25228 -3.9249 -1.5264 1.1472 0.15909 1.6203 5.2249 -0.23351 -1.1815 1.5399 -0.028282 -0.14127 
Oxazepam -2.7008 -0.484 0.29355 -0.11181 2.7468 1.4863 3.339 -0.25051 1.1975 -0.73068 3.0819 -2.5873 0.3382 
EpiduralBag -1.1141 0.96167 5.9846 -5.0582 0.62088 3.4904 -3.8585 -1.1058 0.17269 -0.8554 -3.3393 -0.22442 0.87877 
Acetaminophenw/Codeine -1.7964 0.49816 -0.6992 -0.13952 0.90778 1.294 1.4343 0.30833 1.7628 0.8858 0.53548 -1.2401 -0.12196 
SertralineHCl 0.91319 0.34543 -0.25379 0.38876 2.5569 -1.8242 4.2504 -0.033808 0.79095 -0.60535 1.5561 -2.805 -0.31564 
Sirolimus 0.8095 0.94409 0.55872 -0.094304 -0.30023 -2.94 1.2333 2.5402 0.95041 1.8047 -0.026653 0.8016 1.9849 
TuberculinProtein -1.0192 1.312 -0.92887 1.6084 0.21967 -1.4691 0.52454 -0.022828 -0.095995 1.062 -0.81007 0.89849 -0.052055 
Donepezil -1.2045 1.7955 -3.7114 -0.75348 0.84439 0.41757 1.2725 0.46214 -0.38731 -1.833 -1.0093 -1.8496 -1.9872 
CetylpyridiniumChl(Cepacol) -1.482 1.2661 1.4967 0.36473 1.6413 -0.43631 2.3502 -1.0791 1.7098 0.36814 0.48241 -2.4009 0.76468 
D5LR 0.0014679 -0.71379 1.7813 -1.3488 -1.3296 0.75122 -0.24689 -1.5273 1.2649 0.073504 -2.095 0.92094 -0.66877 
Calcitriol -2.1853 1.6808 -2.7771 0.48523 1.2371 -2.0716 1.96 3.8002 -1.9812 -0.36548 -0.55552 0.99632 -0.16167 
Argatroban 0.17293 -0.5278 -0.25081 0.75875 -0.73319 -2.4036 -0.99432 -1.4546 -0.43162 -1.1792 0.79283 0.82429 1.0997 
Baclofen -0.89527 0.078324 -1.9704 -0.88123 1.0841 1.1966 0.83189 -0.063379 -0.7679 0.39445 -4.0135 -1.2071 0.10489 
MorphineSR(MSContin) -0.86566 1.3416 0.59251 0.67759 1.9171 2.6931 -0.88918 0.034832 -0.49467 0.64441 -4.4451 -0.059487 1.4522 
CefTRIAXone 1.6508 0.418 0.0022529 0.84394 -0.15883 -2.4267 4.8677 -1.2608 1.7203 -0.97993 -0.82513 -1.7254 -0.22932 
HYDROmorphoneP.F. -1.5966 -1.5904 4.1846 -4.3714 1.3105 0.705 -1.7433 0.27807 -0.3429 1.2212 -2.6381 0.72704 0.36731 
PhenytoinSodiumExtended -0.38173 0.86908 -3.3683 1.0244 -0.89736 5.4604 -0.75372 0.31072 1.3324 2.962 -2.2399 2.0709 -0.24855 
HR_m1 -0.83727 -0.26442 -0.15814 1.2916 0.24475 -0.77876 -0.52881 -0.71257 0.52825 -0.33684 1.0567 0.54073 0.98855 
EscitalopramOxalate -1.2731 1.3695 -1.963 -1.6312 1.6849 1.1721 1.1445 0.88379 -0.2122 -0.78452 -1.2392 -2.3865 -0.85876 
VenlafaxineXR -1.0011 1.1011 -1.1367 -1.3989 2.0186 1.1027 1.5678 1.6517 0.21899 0.19974 -1.9101 -1.7899 -0.68277 
ZincSulfate 0.59062 -3.0114 -2.0891 1.0115 4.6202 -1.5065 4.4014 -2.0116 -3.1137 -2.0526 -2.0754 -1.8427 -2.5777 
Duloxetine -1.4374 1.4523 -1.413 -1.4965 1.92 1.6924 0.51513 1.7732 -1.6711 -0.79216 -3.2365 -0.91188 -0.61088 
Guaifenesin-Dextromethorphan -1.1249 2.6223 -0.23129 0.02887 1.3673 -1.4557 -0.29715 -0.77462 0.4748 -1.1371 -1.3751 -2.7692 1.1575 
ArtificialTearsPreserv.Free 1.3386 -1.0734 -2.7384 -0.27505 -0.45895 0.062339 0.26811 1.172 -1.2961 -1.6738 1.1291 1.2801 -0.20444 
Famotidine(IV) 3.3938 -0.5687 1.5964 -0.40277 -0.91212 -0.083758 5.7926 0.43478 3.8919 1.7933 0.57998 -0.24892 -0.55567 
MagnesiumCitrate -1.62 -0.16708 -0.3091 0.26653 0.12778 -0.50477 0.063678 -1.4193 0.53045 0.70999 -1.206 -0.076357 -0.073781 
TamsulosinHCl -0.98662 0.26374 -0.83926 0.11155 3.1729 0.59643 3.8656 1.1225 1.1469 -0.43459 2.0155 -2.8035 -0.13703 
AminoAcids4.25%W/Dextrose5% 4.4492 1.7038 3.9077 3.2545 1.1307 -1.4169 1.996 -4.953 -0.01767 0.66157 -1.6487 2.1878 -4.577 
Enalaprilat 1.8584 2.6779 -0.75335 -1.4641 -1.1689 -0.93397 -0.97496 -0.17231 0.78465 1.5777 3.1759 -0.37475 -0.54808 
NSEpiduralBag(0.9%NaCl) -0.61993 -3.1324 4.1217 -5.2009 1.5298 1.3055 1.455 -0.47138 0.55299 3.05 -3.1933 -0.98192 0.46345 
DOBUTamine -0.22614 -0.95175 0.22433 0.69286 -1.2969 -2.4361 0.14789 -1.23 -0.22276 -3.9528 2.4219 1.5815 -0.53333 
OndansetronODT -2.2275 2.0588 -0.21604 1.0221 0.70065 1.3301 -0.18902 0.51888 0.10798 0.77083 -3.3201 0.61451 0.60848 
IsosorbideMononitrate -1.7072 0.48067 -0.11203 -0.42279 1.3973 0.58526 1.4478 1.37 1.3895 -0.55892 4.08 -0.63408 -0.62369 
ValGANCIclovir 0.61143 0.93841 1.6918 -0.67127 0.23269 -0.22328 -1.5067 5.5844 -0.72234 0.73636 -3.2627 3.7387 4.2744 
Anti-ThymocyteGlobulin(Rabbit) 0.42687 0.41554 2.9102 -1.7905 -0.77769 -2.7106 -0.82637 4.7941 1.9864 1.8408 0.091595 2.6101 3.2546 
ValproateSodium 2.4345 -1.3485 -2.4421 -0.82766 -2.0579 0.28547 0.62269 -2.6774 0.87613 1.0905 -1.5581 0.17292 -1.3996 
Sulfameth/TrimethoprimSuspension 1.4818 -0.1202 1.6365 -1.606 -0.76631 -1.4656 0.065705 4.3673 1.1692 0.97907 -3.3346 2.587 2.4353 
BM_p6 0.39677 0.80809 -0.57252 1.0296 1.2013 0.30067 -2.7777 -0.038644 -1.3364 -1.2002 -0.83979 0.27363 2.4178 
Caspofungin 1.9613 -1.445 2.3906 -0.10769 -1.3431 -3.5651 1.0744 -1.3519 -0.065108 0.25377 -1.6637 1.3344 1.87 
Sulfameth/Trimethoprim 3.056 0.40717 0.3084 0.14696 -0.91135 -4.2436 2.4193 0.80124 -1.0797 0.5053 -1.7322 1.0615 1.3815 
DoxycyclineHyclate -0.12953 -0.17469 -0.99831 0.22961 -1.0591 -0.85147 0.80344 -0.26216 -0.044301 -0.74693 -2.2073 0.52912 0.82449 
Maalox/Diphenhydramine/Lidocaine -1.6782 2.4948 0.4218 0.90981 0.44629 -0.54875 0.17145 0.46106 0.28467 -0.13518 -2.089 0.13027 0.75283 
sevelamerCARBONATE -2.0107 1.3293 -2.7969 1.7509 1.1843 -0.46709 -0.95921 4.4893 -1.7566 -0.27404 -1.1504 3.2884 0.60317 
MycophenolateMofetilSuspension 1.5299 0.46063 2.046 -2.5505 -2.1062 -0.43688 -0.59296 5.1412 -0.25116 1.0266 -2.6945 3.8002 3.8602 
ScopolaminePatch 0.39433 -0.68798 -0.61278 -0.6701 -0.65623 0.36245 -0.43575 -0.73847 0.28542 0.87368 -1.5407 0.42268 0.5632 
Nicotine 0.59356 0.75052 0.19765 -0.483 2.1761 0.30862 3.6558 -1.04 2.2014 1.8905 1.103 -2.6576 -1.8006 
ValproicAcid 2.643 -0.85137 -3.3967 -0.80113 -0.87743 0.37211 1.5446 -1.7277 -1.1423 0.85461 -0.4948 -0.46288 -0.92892 
Albumin25%(12.5g) 0.13851 -1.6947 2.7587 0.61046 0.3705 -4.2145 1.8215 -2.0384 0.14541 -1.0502 -0.68107 0.55793 0.30803 
Loperamide -1.1254 1.4463 0.27918 1.7481 1.194 -0.10011 -0.75803 0.064599 -1.3736 0.26964 -3.0495 1.3037 1.2387 
traMADOL -1.7114 0.70477 0.70023 0.46493 3.1537 -0.72793 3.289 -0.45934 1.2728 -0.038179 1.0149 -3.0677 -0.10742 
Promethazine -0.81434 0.97567 0.65642 0.5105 -0.061856 3.3449 -0.54736 1.1714 1.2913 1.5665 -3.7709 2.1517 0.46577 
ParoxetineHCl 0.50634 0.44602 -0.14945 0.094561 3.1047 -0.35431 4.5276 0.020837 0.75541 0.5662 0.92429 -3.1508 -0.12299 
Glyburide -1.1784 0.10377 -0.66093 -0.22581 4.0714 0.77768 3.2116 -0.0075079 1.8522 0.17145 4.3526 -4.1569 0.46342 
NitroglycerinOintment2% 0.74045 3.6776 -0.9254 -0.16726 -1.3893 -2.09 -0.56425 0.87 0.52779 0.38902 0.99515 0.031452 0.47297 
Ranitidine(Liquid) 1.5688 -0.14221 -1.6048 -1.4342 -0.62633 0.86194 -1.2061 -0.33724 -0.88581 -1.7384 0.81399 -0.15396 0.16823 
AcetaZOLamide 1.7459 0.90048 -1.2981 0.80775 0.15497 0.44366 -2.6552 -1.5979 -1.4406 -0.89179 0.20871 0.48483 1.0625 
Filgrastim 0.1526 0.060803 1.5046 0.55697 -1.5347 -2.7846 2.0227 0.035264 -0.78032 1.0103 -2.7477 2.4368 1.199 
FluoxetineHCl -0.18233 0.2257 -0.12473 -0.52753 2.6479 -0.0084105 4.4539 0.36881 0.92525 -0.0066216 0.39108 -2.7219 -0.93169 
LidocaineViscous2% -1.2648 1.3181 1.0573 0.081542 0.33085 -1.8738 0.15622 -0.33266 0.23266 0.94662 -2.001 0.050044 0.35824 
BacitracinOintment 0.46285 -0.63721 -1.2866 -1.3979 -0.25062 0.72669 1.564 0.138 0.51228 0.93481 -0.45853 -0.6332 -0.16832 
IbuprofenSuspension 2.3256 -1.6032 -1.1663 -1.5404 -1.7361 0.27773 -0.9256 -2.3964 -0.75007 0.34582 -0.96907 0.51191 0.17933 
BuPROPion -0.23703 0.35321 -1.0744 -1.8243 1.9184 1.4808 0.23798 1.2764 -0.96309 -0.98136 -1.9999 -1.2753 -0.77321 
Amoxicillin-ClavulanicAcid -1.0845 1.9925 -0.1292 -0.028096 0.51486 0.4417 0.29301 0.11753 0.23658 1.1722 -1.5828 -0.90354 1.1527 
OxymetazolineHCl 2.0686 0.039063 0.1001 0.58247 1.1456 -2.2748 3.2261 -0.5732 0.54184 0.61021 0.3112 -1.51 0.40452 
Ursodiol -1.4066 0.24825 -0.4681 -0.45524 1.7228 -2.8168 1.3336 1.5573 -1.3648 0.33836 -3.0804 0.11241 -0.69628 
Carbidopa-Levodopa(25-100) -0.4007 0.19374 -2.0419 -1.056 0.93277 -0.41047 1.4526 1.1958 -0.55317 -1.4999 -0.89174 -1.0314 -0.97159 
Phosphorus -0.30488 0.9815 -1.1095 1.7948 -0.88965 3.3703 -2.1673 -1.8476 -0.60237 -0.3401 -2.6045 1.9995 0.82817 
ClonidineTTS1Patch 2.4841 0.83459 -0.32687 -1.1303 -0.10802 -1.2616 1.9535 -0.88853 1.048 4.2483 1.5079 -0.86613 -0.43581 
Oxybutynin -1.3606 1.1997 -2.2595 0.1716 0.52618 1.0423 0.91831 0.58224 0.15108 -0.90621 -1.3493 -1.0853 0.28973 
FerrousGluconate -2.4649 -1.666 -1.1708 0.52027 5.7983 1.0492 1.6372 -0.63716 -0.96278 -1.931 -0.014073 -2.7877 -1.6132 
VerapamilHCl 1.7383 2.3037 -0.82023 0.086143 0.38302 -1.2035 0.75462 -0.96875 0.85275 1.1298 1.4726 -2.1768 1.0019 
CalciumChloride -0.17072 -1.5425 1.7979 -0.54275 -1.3445 -2.1153 0.45236 -0.49095 0.23179 -2.9201 1.8067 2.0269 -0.68399 
Doxazosin -0.41899 2.5148 -1.9262 -0.92573 1.3566 1.0652 0.20304 3.3658 0.28807 -0.22552 1.3216 -0.97377 0.26626 
Micafungin 2.0032 -1.6069 -0.34695 1.5616 -1.153 -0.9895 -2.6377 0.37396 -0.8557 -1.5938 -4.4644 4.1471 1.5012 
MetoprololXL(ToprolXL) -1.0231 2.9899 -1.3197 1.1244 2.0762 -0.24268 0.45662 0.91813 0.61263 0.17711 1.0083 -1.4141 -0.051408 
Dorzolamide2%/Timolol0.5%Ophth. -0.53734 0.1728 -2.7713 -0.80454 1.0101 0.56908 2.3626 4.924 0.35911 -0.94012 0.48951 0.085088 0.18706 
Gemfibrozil -2.5992 0.94169 -1.4328 -1.55 2.5512 2.5699 1.322 2.4873 -0.15936 -1.7777 1.2361 -1.5679 -1.0765 
AMP -1.8586 0.027053 4.3391 2.3746 1.8525 -4.7346 0.98305 -1.4138 -0.71493 -1.3512 -3.9844 3.423 -2.8991 
Fosphenytoin 2.2807 -0.78307 -3.9633 0.67478 -2.8193 2.9476 -2.416 -1.7692 -0.33279 0.79308 -1.514 2.771 0.27012 
TimololMaleate0.5% -1.3321 -0.31284 -2.4976 -1.2847 0.60061 0.97917 1.6444 3.9698 0.17827 -0.70042 0.44439 0.21806 0.21291 
Oxycodone(SustainedRelease) -1.5034 -0.56102 0.35985 -0.26268 1.9566 -0.84704 3.9679 -0.0087553 2.1129 2.2849 -1.4201 -2.2267 0.53534 
Oxacillin 1.8535 -0.98952 0.17782 0.94146 0.52411 -1.5172 4.0198 -1.6682 1.8153 0.6102 1.1205 -0.90656 -0.72587 
Racepinephrine 2.4033 0.73178 0.13645 -2.0314 -1.0659 -0.24973 -1.3553 -0.15003 0.25288 0.60591 -0.45394 0.026523 0.30767 
AcetaZOLAMIDESodium 2.6727 -1.2098 1.0476 0.040553 0.32904 -2.6664 1.4775 -2.1492 1.2958 0.71546 2.4649 -0.96953 0.6593 
MultivitaminsW/minerals -1.07 1.5019 -1.6919 -0.46563 1.2802 0.54048 1.3257 0.046305 -1.3278 0.32567 -2.1665 -0.4919 -2.1235 
HydrOXYzine -1.32 0.91693 -0.035418 -0.10445 1.2593 0.77927 0.058916 1.5586 -0.78879 1.2052 -3.999 0.76397 0.72677 
CeftazIDIME 1.9402 -1.8951 -3.4525 1.7704 -0.88926 -1.7331 -0.061434 -0.049117 1.813 -2.0911 -3.1672 0.88331 -0.44272 
LaMOTrigine -0.34712 1.1829 -2.8847 -1.1292 0.35277 3.0009 0.90276 1.0467 -1.3147 0.30012 -3.1668 0.23137 -1.5328 
BM_p7 -0.046914 0.77165 -0.52128 0.98709 0.77594 0.62758 -1.2573 -0.36462 -0.36298 -0.68567 -0.91114 -0.14076 1.7049 
Unasyn 2.1107 -1.5062 1.5061 0.40955 0.14674 -2.9852 3.5394 1.1595 3.0305 1.3868 -0.58468 0.86169 -0.19114 
Ganciclovir 1.8269 -0.60316 1.4707 -1.1778 -0.98785 -3.7891 1.7701 3.1473 0.59356 1.2378 -1.0695 1.9459 2.4681 
Cefepime 2.1032 -1.9446 -1.1266 2.2152 0.26403 -5.1574 2.979 -1.3712 2.2861 0.17376 -1.4439 0.086302 -0.83466 
LansoprazoleOralSolution 2.4864 -1.1385 0.30649 0.20174 1.4158 -2.6491 4.3744 -0.59248 0.092404 0.69879 3.3385 -0.93325 -0.31478 
ChlorhexidineGluconate 2.3448 -1.1462 0.35859 -0.9344 0.28941 -1.2862 4.1682 -0.72574 1.6666 0.2881 -0.41056 -1.6636 -0.42789 
YellowCADDCassette -0.70414 -0.12132 4.8016 -3.3223 0.76893 4.2236 -3.937 0.127 -0.91407 0.024263 -4.558 2.6065 1.1067 
NaloxoneHCl 0.46153 -0.40063 0.55823 -0.22095 0.31526 -2.1711 2.609 -0.066646 0.28847 0.37072 -0.92626 -0.28924 0.10482 
HydromorphoneP.F. -1.5469 -3.4007 4.3703 -3.6516 2.4564 -0.59543 1.8256 -0.3503 1.6202 3.4443 -0.40765 -0.1614 -0.60391 
Lacri-LubeOint 4.8901 -3.3013 -0.13571 -0.38836 -0.6107 -1.3028 4.8124 -0.18203 1.1567 -0.081044 2.5805 0.32832 0.25156 
Venlafaxine 0.19641 0.48329 -0.892 -1.445 1.6333 0.85892 1.2592 0.43796 -0.2262 -0.22933 -1.5468 -1.6722 -1.1136 
PropoxypheneNap.-Apap(N-100) -2.0999 -0.54187 -0.53242 -0.582 2.4817 1.1265 1.1762 0.242 0.50962 -1.1259 2.1931 -2.2423 0.40873 
LoperamideHCl 0.07618 -0.28063 1.7958 1.2557 1.9754 -3.2725 2.8544 -1.4272 0.43525 1.6822 -0.069029 -0.73325 0.39108 
VerapamilSR -0.067698 2.4745 -0.82649 -0.85326 0.93172 0.73796 -0.21123 0.69551 0.72243 0.73051 0.25882 -1.8303 0.63465 
Alteplase 0.40752 0.021303 0.01597 0.067899 -1.0761 -1.4273 -0.025019 -0.058372 0.040765 0.83883 -0.51027 1.6016 0.22765 
Albumin5%(25g) 0.29383 -2.2994 3.2448 -0.3652 -0.0021626 -3.8158 1.1099 -1.4412 0.28544 -1.7097 1.154 0.9599 0.20575 
SalmeterolXinafoateDiskus(50mcg) 0.94381 1.4107 0.25402 -2.5213 2.7838 -1.3292 1.6708 1.6653 -0.12464 -1.3653 -0.16658 -3.4073 0.16669 
HeparinFlush(5000Units/mL) -0.1414 0.21683 -0.67947 1.4746 -0.19222 -2.6206 -1.3967 2.1742 -0.9651 -0.57678 -0.91601 2.8651 2.1264 
LactuloseEnema -0.27756 0.66408 0.35424 1.2183 0.13209 -1.3984 -2.017 -1.0012 -2.4568 -0.48183 -3.1625 2.9941 -0.39134 
Aluminum-MagnesiumHydroxide -1.9648 1.3559 0.11822 1.8872 2.6236 -1.2241 3.7674 -0.20525 1.9524 0.86667 1.7174 -1.9829 -0.32538 
PenicillinGPotassium 0.9368 -0.91855 -0.12009 0.45542 -0.54605 -0.76504 1.7355 -0.87289 0.39901 -0.57796 -0.2098 0.3191 0.27439 
Amitriptyline -1.1956 1.6393 -1.817 -0.74712 1.1913 2.4458 -0.095024 2.0638 -0.92799 -0.89449 -2.4679 -0.40139 0.38239 
Miconazole2%Cream 0.99452 -0.2224 -0.60653 0.064478 0.25838 -1.2743 1.0703 -0.17324 -0.804 -0.56999 -1.4781 -0.30309 1.002 
NitroglycerinOint.2% 1.2324 1.0629 -0.017281 0.34224 0.57813 -2.3882 2.6989 -0.35393 2.4064 2.5996 3.4087 -1.0665 -0.44372 
MethylprednisoloneSodiumSucc 2.7384 -0.62692 2.2098 -0.72818 1.5763 -2.9627 4.2396 1.254 0.78802 2.3427 1.8942 -0.40819 1.0678 
Xopenex 1.1782 2.3394 0.50286 -0.86871 1.3043 -1.1471 -1.1449 -0.27197 -1.1539 -1.3453 -1.041 -1.7925 1.3828 
PhenytoinInfatab 0.732 0.67198 -3.1273 0.60635 -0.93632 4.7353 -1.4032 0.045117 0.78854 2.058 -2.2687 1.5646 0.45677 
FishOil(Omega3) -2.4362 1.4615 -1.927 -0.71781 2.6464 3.2627 -0.19568 2.567 -1.5044 -1.9569 -0.40071 0.37765 -1.9134 
Naloxone 0.69268 0.29175 0.94329 -0.58462 -0.13591 1.4822 -1.6027 0.33705 -1.5292 -0.33156 -3.0296 2.3279 0.50364 
Aripiprazole 0.93702 1.4929 -2.1812 -1.5654 2.0489 0.96559 -0.021756 1.3335 -2.1566 -0.59234 -2.8252 -1.4142 -0.54686 
Acetylcysteine(IV) -0.29332 1.6043 0.99159 0.15849 -1.7569 -0.75101 -0.42988 -0.68517 0.27155 0.018113 -2.9736 2.3639 -0.99749 
XopenexNeb 0.53421 2.1381 -0.31261 0.027926 1.0991 0.89823 -3.0427 0.11944 -1.8875 -1.9944 -1.4537 -0.16957 2.1323 
ChlorasepticThroatSpray -0.5249 0.95571 0.94305 -0.17763 0.77364 1.8483 -2.3843 0.26982 -0.49803 0.48499 -2.9107 1.4063 0.7852 
NystatinCream 0.63622 0.22584 -0.72126 0.37642 0.23722 -2.0149 0.57145 -0.63524 -0.89814 -0.27397 -1.636 -0.1089 0.83669 
Voriconazole 1.4176 0.014238 -0.20707 -0.15237 -0.79671 -2.2666 0.62216 0.64262 -1.9738 0.50698 -3.2675 1.3218 2.2583 
Albumin5%(12.5gm) 1.8297 -2.4178 2.685 0.74988 -0.061488 -2.8151 2.9866 -0.75478 1.9882 0.76559 2.7663 1.4585 0.45144 
LidocaineJelly2% -0.27733 0.74589 0.48204 0.66308 0.87631 -2.5472 0.50134 -0.84996 -0.20713 0.38625 -1.2053 -0.17989 -0.26116 
DivalproexSodium 1.3515 0.051379 -2.7243 -0.96286 0.94872 -0.28229 3.7683 -0.87554 0.22973 1.0231 -1.002 -2.4137 -1.6901 
ValganciclovirHCl 2.1333 -0.21991 3.5763 -0.49639 0.92732 -4.1544 3.8275 3.3077 1.3831 2.8557 0.65313 1.2626 2.5696 
Imipenem-Cilastatin 2.5692 -1.6155 0.24893 0.61033 -0.57789 -3.7738 2.2979 -0.71903 1.2655 -0.23577 -1.3898 0.40121 0.031914 
ValGANCIclovirSuspension 1.8751 0.035153 2.8593 -1.7074 -1.3772 -2.6378 -1.125 4.1476 0.83837 1.2715 -2.8745 3.7331 3.2205 
CefpodoximeProxetil -0.95574 1.9921 -1.7051 1.335 0.96472 -0.43534 -0.073687 -0.63838 -0.55371 -0.13317 -1.125 -1.1083 1.2159 
Verapamil 0.053202 2.7665 -0.78239 0.5174 0.51626 1.2689 -2.4966 0.15669 -0.56977 0.30433 -0.47104 0.26047 1.2052 
PhenytoinSodium(IV) 2.8298 0.19118 -2.5136 -0.030759 -3.6197 4.0175 -1.8272 -0.60219 0.29211 0.76203 -0.96814 3.7077 -0.15774 
NIFEdipine -0.1951 3.3643 -1.5203 0.024405 -0.12556 -2.1887 -0.1851 2.2537 0.50836 2.6202 0.9483 0.22262 0.73212 
Tolterodine -1.8104 1.8122 -2.2679 -0.82411 1.2475 0.94636 1.1056 0.993 0.57746 -0.51755 -0.58881 -2.0258 -0.931 
AlendronateSodium -0.55093 0.84411 -0.16164 -0.040675 1.2891 -0.31848 0.91013 0.16375 -0.098743 0.39485 -0.079711 -1.0992 0.50151 
Amoxicillin -3.5682 1.3521 -1.8652 0.77877 1.5284 -2.7809 0.22605 0.28746 -0.12579 0.8945 0.029778 0.12537 -2.2164 
CalciumReplacement(Oncology) -0.64531 1.135 2.0421 1.3733 -1.6813 -0.39736 1.2186 -1.7332 1.0827 -0.62719 -4.5295 1.3429 0.69509 
MorphineSulfate(OralSoln.) -0.40653 1.4564 -0.48336 0.52751 0.82334 -0.30825 0.1285 -0.62657 -0.58473 1.4606 -2.7561 -0.84881 1.7414 
Dobutamine 0.43702 -1.6163 1.2231 0.71768 0.30478 -2.6052 3.0256 -0.93311 1.5619 -2.2323 4.9893 0.41009 -0.74052 
AmitriptylineHCl -1.1908 0.14267 -0.050116 -0.82296 2.5909 0.58218 3.5875 1.1084 0.3515 0.27908 -0.89423 -2.5159 0.37685 
Oxymetazoline 0.38004 1.138 -0.16588 0.37323 0.32958 0.22222 -1.2333 0.86656 -1.3053 -0.86197 -1.4961 0.99668 1.3985 
Guaifenesin-CODEINEPhosphate -0.57175 3.4904 -0.19845 0.66895 1.6035 -0.25608 -1.1055 0.080744 -1.1729 -1.4166 -2.81 -1.3863 1.6483 
Hydrocortisone -1.2003 -0.83936 -0.46101 1.25 0.55779 -0.95534 1.2214 0.72803 -0.19069 -0.44854 -1.912 0.97337 0.59656 
FerrousSulfate(Liquid) 1.1268 0.061903 -2.0401 -0.44758 1.0428 -1.809 0.85578 -0.25138 -2.394 -0.52368 -1.033 -0.27997 -1.257 
Ambisome 1.3945 -1.4616 1.3248 -0.13763 -1.58 -3.4507 2.0869 -0.57394 -0.18082 0.17219 -1.2625 1.4609 1.3497 
RosiglitazoneMaleate -1.9579 0.85478 -1.0515 -0.24887 3.1031 0.79007 1.7938 1.4325 1.3794 -0.72488 3.3928 -3.1167 0.7123 
Pregabalin -0.79567 1.6574 -1.3671 0.21261 1.4273 2.1261 0.17361 1.9359 -1.2765 -0.8507 -4.0841 0.18457 0.97284 
Multivitamin12 1.5816 -0.80713 1.3837 -1.8219 -0.1457 -2.2229 2.208 -2.3783 1.0085 2.6052 0.50842 -0.66273 -1.7929 
Nortriptyline -1.1125 0.63652 -1.3303 -2.1651 1.8641 1.0182 1.0315 2.0815 -0.40504 0.15183 -2.1175 -1.85 -0.068998 
CodeineSulfate -0.44919 1.6304 -0.4399 1.0715 0.61434 0.33337 0.15633 -0.21155 0.47078 0.31854 -0.96945 -0.59041 1.3127 
EPINEPHrine -0.89722 -0.97185 0.1199 -1.1707 -1.1788 1.6046 -2.0988 1.7169 -1.4946 -5.6947 1.9419 4.7582 -1.6127 
PHENObarbital 1.4247 -0.66739 -2.4297 0.47983 -1.6479 1.4266 0.27575 -2.0086 -0.27357 0.5665 -1.542 0.98773 -0.10917 
Glipizide -1.5624 0.034078 0.059507 0.16115 4.0593 -0.61137 2.2773 0.43618 0.77788 0.75034 3.9403 -2.4674 0.099797 
IpratropiumBromide 1.7652 -0.22345 0.14822 -2.2508 1.5388 -2.5493 3.0242 0.82207 0.16041 0.23073 1.9062 -2.5094 0.28002 
Terazosin -1.3227 2.5473 -2.1409 -0.42756 1.4642 2.0552 -1.0828 2.6198 -0.53521 -1.4802 0.47617 -0.24447 -0.098321 
Oxcarbazepine 0.33385 0.49484 -2.1053 -0.72652 0.28588 1.0324 1.2948 0.9218 -0.15649 0.8491 -1.8969 -0.32626 -0.6078 
NystatinOralSusp. 2.8722 -1.3349 0.69194 0.011288 1.3896 -2.0668 3.4556 -0.66586 0.61712 0.61786 1.7481 -1.2212 0.38597 
Adenosine -0.11415 0.9601 0.53099 -0.092224 -1.5488 -2.2388 -1.4479 -2.5308 0.14507 -1.2265 1.9313 0.49499 -0.23155 
Sotalol -1.6164 1.9527 -0.80278 0.80669 0.77265 1.4731 -1.0863 0.048457 -0.42681 -1.6261 -0.33233 -0.035663 0.36467 
CefTAZidime 0.86305 -0.70125 -3.1327 2.0758 -0.99717 -0.16229 -2.0354 0.6217 -0.060767 -1.1479 -3.5944 2.394 1.4796 
LaMIVudine -0.029361 1.2457 0.53661 0.15935 0.44763 -0.76476 0.22352 2.6612 -1.2336 0.068474 -3.4761 2.0816 0.82889 
Methylnaltrexone 1.2425 0.60855 -0.090239 0.051086 -0.56017 0.97585 -2.5854 -0.49887 -1.5733 -0.24443 -2.4374 2.0886 0.91483 
Carbamazepine -0.04171 0.15776 -1.6003 -0.67281 0.17006 0.75619 1.5385 0.08014 0.25007 0.7896 -1.2524 -0.66981 -0.69872 
BenztropineMesylate 0.94247 1.5532 -1.5409 -1.195 0.84552 0.43251 0.99718 -0.52125 -0.49389 1.0446 -2.3394 -1.5993 -1.154 
Normocarb 1.0675 -2.7233 1.3204 2.344 -3.3677 -3.6263 0.57371 -0.80871 3.6729 -0.58203 1.7564 4.5023 0.25485 
Fluticasone-Salmeterol(100/50) -0.074653 1.415 -0.61791 -1.6998 1.8433 -0.82673 1.907 1.1099 0.46428 -0.81639 -0.80818 -3.0774 -0.13914 
ClonidinePatch0.3mg/24hr 1.0009 2.4189 -1.5825 -0.275 0.18105 0.22077 -2.921 1.6402 -0.97344 2.164 -0.26147 1.944 -0.055512 
Psyllium -1.9809 1.6097 -1.0809 1.0285 1.5362 0.26618 0.12664 0.30725 0.10925 0.15987 0.29823 -0.91413 0.70688 
Mucinex -0.0071987 1.797 -0.26601 -0.24121 1.7443 0.42937 -0.72519 0.45185 -1.3409 -1.4104 -1.1938 -1.2681 1.4443 
MoviPrep -2.1057 1.6674 0.26714 0.96141 0.72472 0.20697 -1.5937 0.36694 -0.72831 -0.10647 -1.9109 1.8029 -0.38219 
Doxercalciferol -2.3986 -0.41994 -1.6737 2.1092 0.96642 -2.3517 -0.53431 3.1326 -0.47114 0.90912 -0.93086 3.1175 1.2867 
BusPIRone 0.31714 1.1388 -1.7013 -1.2747 2.1697 1.5002 0.92218 0.48733 -1.0234 -0.58914 -2.3036 -1.6941 -1.5197 
sevelamerHYDROCHLORIDE -1.4188 1.6373 -2.2596 0.90234 1.6981 -1.2962 -0.43114 4.1106 -1.6588 -0.19046 -1.4898 1.5549 0.63764 
Albumin5%(12.5g) 0.42398 -2.6633 2.47 -0.65744 0.62356 -2.2966 1.1703 -1.9647 0.47127 -1.5961 1.0599 -0.080452 -0.043751 
Topiramate(Topamax) -0.10739 1.2226 -2.229 -0.99755 1.2149 2.5892 0.67768 0.74099 -0.98585 0.48322 -4.1388 -0.55035 -1.0521 
Ketamine 2.2621 -1.3347 1.8947 -2.5377 0.90006 1.885 -1.8414 -1.1682 -1.9688 1.1044 -4.7442 1.5769 -0.74338 
Fluticasone-SalmeterolDiskus(100/50) -0.93129 1.2085 -0.79375 -1.6995 1.7621 2.0737 -0.92094 2.3291 -1.5205 -2.2924 -1.5012 -0.4326 0.20873 
ClonidinePatch0.1mg/24hr 1.4006 2.2059 -0.81436 -1.4172 -0.52989 1.3249 -2.4818 0.49585 -1.289 1.8363 -1.3251 1.5793 -0.29014 
PhenasepticThroatSpray 0.38213 -0.26363 0.81449 -0.76824 0.23026 -1.071 1.491 -0.95868 1.0617 1.0101 -0.6824 -0.94979 0.2658 
BM_m3 -0.046707 0.61789 -0.18384 0.52203 0.054888 0.63067 -1.4875 -0.10577 -0.40385 0.16503 -1.2734 1.1201 0.97716 
Heparin(CRRTMachinePriming) -0.44225 -0.91283 1.427 1.3488 -2.193 -1.2059 -1.5492 2.3999 -0.0039845 -2.2002 -0.027867 6.5348 1.5905 
Cyclobenzaprine -1.5952 0.80679 -0.4151 -0.56352 0.99886 2.7442 -0.94151 0.59352 -0.18007 -0.19902 -2.7144 0.25566 0.10253 
D5W(GlassBottle) 1.7146 1.2223 -0.37999 -0.33499 -0.89577 -4.0489 1.2803 1.4881 -0.05069 1.8225 2.7023 1.6188 -0.14499 
AmlodipineBesylate 0.27879 0.63125 -1.0231 0.44467 2.4371 -2.3812 2.5167 1.3851 1.7217 1.9381 3.4052 -1.3206 -0.69357 
Azathioprine -0.45631 1.2204 0.49507 -0.43669 1.3062 -1.9464 1.05 3.4882 -0.44878 0.50141 -1.6727 0.44947 1.0863 
FleetPhospho-Soda 0.47433 -0.43629 0.098781 0.36605 0.49747 -1.0934 2.2558 -1.6023 0.50263 0.94245 -0.51754 -0.65266 -0.28943 
Fluticasone-SalmeterolDiskus(500/50) -0.019174 1.9944 -1.1465 -0.85311 1.7514 1.6481 -1.3751 2.3655 -1.4872 -3.1485 -2.1142 -0.732 1.2398 
PyridostigmineBromide 0.27751 0.25491 1.2265 -0.97231 0.80221 -1.4118 -0.024525 1.8079 0.18263 1.0485 -0.48531 0.38996 0.95334 
Indomethacin -2.0609 1.1376 0.15078 0.3557 2.3621 0.9676 -0.29644 -0.14997 0.36183 0.47362 -0.11491 -0.85301 -0.645 
PolysaccharideIronComplex -1.3548 -1.7138 -1.0866 1.0473 4.6169 0.43036 3.7691 -1.0141 0.56565 -0.1951 1.2578 -2.962 -0.87333 
Oseltamivir 0.63553 1.6722 -2.1211 -0.65522 -1.5927 -0.62265 -0.25449 0.63758 -1.129 -2.9366 -3.0067 0.10564 1.0452 
Tricor -2.2774 0.48047 -0.49371 -1.2055 2.4258 2.1945 0.30129 1.4937 -0.030092 -0.62034 1.0012 -1.0009 -0.76409 
Lidocaine2% -0.2098 0.55474 0.82541 0.10887 -0.68625 -0.50848 -0.20717 -0.71747 -0.56324 -0.6117 -1.6287 1.2248 0.33488 
CycloSPORINE(Sandimmune) 2.2546 1.9104 -0.82006 0.47747 -1.4008 -2.827 -0.67681 2.2391 0.43041 -0.66035 0.56514 1.139 1.7785 
PhenazopyridineHCl -1.083 1.2744 -0.36502 0.81342 0.63363 -0.99762 2.2671 -1.0113 1.4523 0.36335 -0.45142 -1.9389 0.53108 
Epinephrine1:1000 -0.82213 0.36888 0.7663 -1.9682 -0.59334 0.057903 1.06 2.7176 0.98213 0.91095 -2.9358 0.019762 2.5812 
Clarithromycin -2.4454 1.2999 -0.017708 2.1871 2.8803 -1.9297 1.3868 -0.12149 -1.2128 0.74687 -0.39523 1.1684 -3.1876 
Quinapril -1.2295 2.1105 -0.79159 -0.66175 1.0645 0.50856 0.5968 0.81373 1.1068 1.1658 1.176 -1.3499 -0.40052 
FondaparinuxSodium -0.56414 0.083121 0.21925 -0.12935 0.047642 -0.39412 -0.18023 -0.71465 -0.32877 -0.22404 -1.4536 0.31977 0.16394 
Gastroview(DiatrizoateMeglumine&Sodium) 0.35521 -0.06012 0.60077 0.2453 -1.481 1.1954 -2.5883 -0.99174 -1.5379 -1.1066 -2.992 3.0724 1.2887 
Propranolol 0.21002 1.3535 -0.19241 0.942 1.4332 1.4106 -1.405 -0.62411 -1.0552 0.22717 -1.9246 0.55325 0.060178 
Hydroxyurea -0.75275 0.64033 -0.22679 -0.22073 0.20468 -0.74396 1.0618 0.87519 0.41495 -0.28006 -1.1217 -0.090406 0.019348 
CeftAZIDime 1.7301 -1.6597 0.44095 -0.5189 -0.032964 -2.4027 3.5019 -1.2028 1.1608 0.0328 -0.30318 -1.154 0.24487 
MorphineSulfateSR -1.0908 0.62855 0.91456 0.42797 2.1003 -0.8911 3.6573 -0.055579 1.2406 1.4441 -1.5137 -1.84 0.37682 
Tizanidine -0.9107 0.38018 -0.77654 -0.48302 1.354 3.0126 -0.46853 0.98222 -0.50067 0.54426 -3.2332 0.19081 0.40164 
TerazosinHCl -1.3848 0.59494 -1.6918 -0.22523 2.4608 -0.45478 2.4998 1.7862 1.6032 0.35188 1.2548 -2.4455 -0.22793 
MidodrineHCl -1.3001 -1.7286 1.2356 1.0373 1.8307 -3.0027 2.4752 -0.34472 1.1296 0.67065 -0.87931 0.022078 0.10435 
AscorbicAcid(Liquid) 0.78369 0.20091 -1.0771 -0.8777 2.0191 -1.2814 2.5103 -1.3293 -4.5948 -1.0084 -0.47917 -1.3121 -0.56483 
ClonidinePatch0.2mg/24hr 1.6699 2.1362 -1.3664 -0.92986 -0.33092 1.5629 -2.4651 0.85696 -1.7856 1.8405 -1.1179 1.772 0.007192 
Divalproex(DELayedRelease) 0.18883 1.4424 -2.4188 -0.30195 0.049002 2.4755 0.18435 -0.33813 -1.4238 0.35707 -3.6588 0.26063 -0.60778 
Cholestyramine -0.79736 1.2171 -0.23708 1.0974 0.80585 -0.83076 0.56286 -0.24526 -1.061 -0.108 -1.5834 0.38455 -0.059071 
Methimazole -1.1935 0.64791 -1.187 -0.19443 0.72143 0.64491 0.56879 0.83877 0.20023 -0.6125 -0.2341 -0.73564 0.35583 
PioglitazoneHCl -1.3821 0.48306 -0.76331 -0.18837 3.1387 1.1319 2.0003 1.1993 1.5971 0.754 2.1394 -2.6284 0.3742 
NiacinSR -2.2612 1.2591 -1.1739 -1.2679 1.8113 2.3781 -0.38309 2.183 -0.51754 -2.0566 0.38803 -0.55109 -0.41993 
Rifampin -0.31425 -0.55029 -0.79451 -0.017098 -0.73907 -0.36254 0.47412 0.14412 -0.63078 -0.82625 -0.26961 0.87162 0.78528 
PotassiumChl40mEq/1000mLD5W -0.55874 1.6581 0.25194 0.084455 -1.0107 -0.15586 -0.39106 -1.5419 0.20398 0.45422 -1.8444 0.44286 -0.02532 
Qvar 1.6708 0.0028135 0.12353 -2.4622 0.24225 -0.45658 -0.62628 1.0346 -2.0816 -3.1576 0.57111 0.40222 -0.56416 
Desitin 0.82703 1.1756 0.8465 1.6337 1.6102 -2.4307 2.2758 -0.76899 -0.37048 0.48984 0.47355 -0.9057 0.75438 
HeparinFlushPort(10units/ml) -0.47419 0.37584 0.50491 -0.17603 0.57192 -1.4939 2.2784 0.01468 1.215 0.80197 -1.3101 -1.2316 0.70182 
Mirapex -0.88317 -0.027558 -0.72267 -0.18782 1.5071 0.075679 1.7909 0.22129 -0.25981 -1.0624 -0.75366 -1.406 0.11255 
PropranololHCl -0.60231 1.5327 -0.24155 0.53092 1.5747 -1.3896 2.4758 -0.64056 0.27669 1.0661 -1.2487 -1.0725 -1.4516 
PrednisoLONEAcetate1%Ophth.Susp. -0.063216 0.8277 -2.0204 -0.47612 0.86497 1.1533 0.89011 3.1844 -0.54941 -1.1262 -1.3546 0.018296 0.8375 
Lanthanum -0.59239 0.32022 -1.6426 0.25065 1.013 -1.774 1.2127 2.8371 -1.7478 0.3762 0.13738 1.1451 0.42248 
ChlorproMAZINE 0.57368 0.45297 -0.48489 -0.49438 -0.32768 0.99954 -0.28227 -0.82527 0.46278 0.47209 -1.2501 -0.17641 -0.0078281 
Nystatin 0.51412 0.36461 -0.79642 0.4928 0.4745 -0.22831 -0.24217 -0.15016 -1.0276 -0.34788 -1.4379 0.16325 0.88019 
TimololMaleate0.25% -1.1684 0.5283 -1.8962 -0.65025 0.74921 0.57379 1.697 2.812 0.75258 -0.55364 0.60123 -0.39254 -0.15764 
NystatinOintment 0.91001 0.11643 -0.59486 0.44553 1.1823 -1.4851 1.7932 -0.55301 0.0079658 0.55317 0.063541 -1.2143 0.57987 
MupirocinCream2% -0.49744 -0.14228 -0.31594 0.22939 0.66182 -0.45912 1.4075 0.65983 0.25686 -0.93967 -0.91024 -0.052837 -0.26024 
Namenda -0.46497 1.0767 -3.0599 0.010607 0.6075 0.64429 1.1259 -0.22714 -0.76664 -1.3335 -1.3941 -1.0415 -0.8989 
Cinacalcet -1.6788 0.64443 -2.3412 0.66684 1.3464 -0.82421 -0.067499 4.3949 -1.7896 -1.0322 -1.1828 2.0534 0.6007 
NicardipineHClIV 1.9089 -0.86072 -0.90379 -0.34456 -1.5369 -0.14795 2.1881 -0.75058 3.3456 2.6717 2.4471 0.28825 -0.49424 
PotassiumChl40mEq/1000mLD5NS -0.69563 0.95217 -0.19918 -0.322 -0.95065 0.93735 0.656 -1.0734 1.8437 2.1234 -2.4953 0.52773 -1.5566 
Syringe(NS) 1.9149 -1.2972 1.7646 -2.3128 0.45467 0.81181 -1.5259 -0.68872 -1.7501 1.8277 -2.7886 1.7061 -0.059398 
Guaifenesin-CodeinePhosphate -0.56178 2.1861 0.15233 1.0067 1.8914 -2.6057 1.7362 -0.42506 1.1977 -0.3635 -0.035163 -2.752 1.2727 
LithiumCarbonate -0.12043 0.60878 -1.0111 -0.81632 0.91996 0.75961 0.49688 0.54645 -0.22354 -0.4931 -1.2073 -0.81904 -0.36184 
LeVETiracetamOralSolution 2.0154 0.10221 -2.778 0.37988 -1.0838 2.1714 -1.4211 -0.41484 -0.82564 1.3136 -1.1091 2.0482 0.12914 
Ciprofloxacin0.3%OphthSoln 0.31536 0.33064 -1.5405 -0.069964 -0.78833 1.2419 0.61881 0.84531 0.26457 0.91779 -1.3124 0.86124 0.4326 
Dorzolamide2%Ophth.Soln. -0.44936 0.46112 -2.3503 -1.4312 0.97109 0.1422 1.345 3.7768 0.5484 -1.383 0.8048 -0.71908 -0.2492 
FatEmulsion20% 0.65488 -0.39703 0.83159 0.58137 0.56676 -1.8803 -0.34871 -2.0294 0.71493 1.5317 0.5219 0.3327 -0.23567 
HydroxychloroquineSulfate -1.0413 1.6948 -1.3345 -0.64669 1.005 0.59593 0.5297 1.927 -0.80918 -0.60924 -1.3063 -0.4735 0.38175 
GlipiZIDEXL -1.4203 1.1024 -1.6161 0.083406 1.9905 1.6173 -0.073679 1.2397 0.37702 -0.2271 0.709 -1.3192 0.74843 
Phenobarbital 1.9795 -0.82138 -0.39272 -0.35416 -0.43863 -1.6148 2.1139 -1.5994 1.2223 1.7384 0.25891 0.024934 -1.3113 
RiTONAvir -0.5211 1.3531 -0.6169 -0.80476 -0.083559 0.63524 0.43397 1.6187 -1.5392 -0.42793 -3.0454 0.8135 0.54838 
HeparinFlushCRRT(5000Units/mL) -0.29168 -1.0279 0.77727 1.3227 -1.4796 -3.7042 0.84403 0.78488 0.16403 -0.78052 0.53364 3.1432 0.96208 
SilverSulfadiazine1%Cream -0.38183 -0.21855 0.35041 -0.394 -0.20866 -0.072005 1.0906 -0.11973 0.013489 -0.64667 -0.54629 0.046155 0.69506 
ClotrimazoleCream 0.10506 0.86983 -0.70162 -0.58712 0.68414 -0.23218 0.29433 0.40605 -0.66376 -0.50077 -0.98424 -0.76156 0.4937 
Papain2.5%Solution 2.3134 -0.13089 0.45343 -0.0073926 0.29917 -2.2516 0.43282 -0.80716 0.0029719 1.0963 0.083587 -0.098272 0.987 
Acetazolamide 1.6713 -0.34385 0.24465 0.17061 1.2433 -1.9861 1.0602 -1.3855 0.74402 1.6266 2.6204 -1.2139 0.68605 
MagnesiumSulfateReplacement(Oncology) -0.9446 1.4398 1.4835 0.89736 -1.4648 -0.80834 2.1907 -2.2296 2.0808 0.6777 -3.9822 -0.23164 0.46553 
MesalamineDR -1.4771 1.0748 -0.04288 -0.56904 1.6738 0.69289 0.63014 0.91111 0.33958 -0.82529 -1.0313 -1.1152 -0.37849 
Lamivudine 0.39104 0.21049 0.61236 -0.35374 1.077 -2.1071 3.3725 1.4747 0.48961 1.48 -0.82611 -0.5274 0.25584 
Albumin5% 0.050782 -1.2579 1.0583 0.062349 -0.83906 0.0024315 -1.9138 -0.037935 -1.0698 -1.5177 -1.4788 3.3848 0.5329 
AtovaquoneSuspension 0.10993 1.1885 -0.34001 0.34229 0.48568 -1.8807 0.32604 1.1837 -0.61795 -0.069541 -3.0203 0.43737 0.782 
Heparin(IABP) -0.98795 0.6005 0.062262 -0.23477 -0.94005 -0.38382 -1.2178 -0.36082 -0.086592 -3.0604 1.4115 1.6934 -1.4962 
Dipyridamole-Aspirin -1.0182 0.65416 -1.1945 -0.68972 0.32853 -0.093292 0.96814 0.4893 0.74772 -0.47461 0.35661 -0.89797 -0.52286 
Mannitol 2.9938 -1.0689 -1.5261 -1.0022 -2.2562 0.28619 2.2755 0.34508 2.0275 1.4234 1.5748 1.4337 -0.98957 
Paricalcitol -1.9956 -0.0062438 -2.3358 2.0001 0.42612 -1.76 0.047139 2.4459 -0.66792 0.47061 -1.1392 2.3431 1.553 
OLANZapine(DisintegratingTablet) 0.2313 0.87471 -0.14383 0.40882 0.12147 1.1136 -2.5232 -0.54219 -1.0617 0.19463 -1.4018 1.7177 0.16688 
Amikacin 0.69923 -1.2697 0.75818 -0.11534 -0.5393 -1.2488 -0.92946 -1.3165 -0.89176 -0.51108 -1.3401 1.1562 1.4137 
Zonisamide 0.29844 0.54911 -2.5768 -0.48151 -0.46424 2.2045 1.1225 0.098933 0.31771 0.98475 -2.2767 -0.19735 -0.7296 
CycloSPORINE(Neoral)MODIFIED -0.070367 1.3064 0.32539 0.54625 0.52311 -0.83981 -0.75655 2.4157 -1.146 0.7086 -1.7646 2.177 1.5102 
Diphenoxylate-Atropine -1.0774 0.56411 -0.12323 0.1918 0.59577 -0.12236 1.2383 -0.56544 -0.032685 0.79127 -1.8198 -0.51244 0.31563 
Ropinirole -0.97331 1.0766 -1.2639 -0.79219 1.1678 1.3415 -0.51653 1.3898 -1.6424 -1.353 -1.4149 0.11237 -0.0077602 
FentanylPCA -0.45338 -0.031985 1.653 -0.81868 0.48493 0.12531 0.85661 0.028293 0.7806 1.3543 -1.5652 0.18276 -0.077871 
AdvairDiskus -0.14715 0.79498 0.080453 -1.8909 2.4093 -0.35727 0.82506 1.2224 -0.0047729 -0.53326 -0.42479 -2.7208 0.83671 
Clotrimazole -0.40609 0.49064 -0.084324 0.029892 0.23126 -1.424 1.9437 0.84678 -0.091144 0.39316 -2.2891 -0.15739 0.80951 
CycloSPORINEModified(Neoral) 0.82557 -0.14823 1.2055 -0.39215 0.39951 -2.9932 1.5519 1.0014 0.69715 1.1899 0.15817 0.56405 0.55475 
