1286 13
OTHER -0.44865 0.13031 0.61057 0.45989 0.57972 -0.017198 -0.61995 0.063465 0.70421 0.69249 -0.4853 -0.19439 0.13856 
</s> 0.89713 0.17174 -0.25159 -0.74056 0.56186 1.7771 0.40163 2.2642 0.61077 -0.43903 0.49726 -0.60056 0.90222 
4019 1.0415 0.36417 -0.40273 0.40406 0.1381 -0.37158 0.038757 0.97212 -0.56224 0.18966 -1.0147 0.92753 0.27706 
4280 0.97594 0.26148 -0.92608 0.41244 -0.62305 -1.6385 1.5589 -0.82248 0.029504 -1.2008 -0.42713 0.76253 -0.94256 
3893 -0.93004 -1.0815 0.90077 -0.97905 0.6708 1.5118 0.95574 1.9998 1.4752 -1.7026 0.55727 -0.33537 0.30716 
41401 1.5415 0.86888 -1.618 0.75774 0.59141 -1.0996 0.93782 0.10138 -0.91716 -0.91275 0.13295 1.2428 -0.14245 
42731 1.4906 0.74563 -0.029175 0.10041 -0.41627 -1.9074 0.84635 -0.27242 -0.41427 -0.41583 -0.79957 0.078696 -1.0172 
5849 -0.69514 1.4161 -0.49404 0.054307 -1.8605 -1.826 0.82373 -1.6557 0.40646 0.040193 -0.0088544 1.5967 -0.20704 
25000 1.0625 0.010255 -0.4415 0.59266 0.17626 -0.89254 0.88663 0.55294 -0.27581 -0.050437 -0.55203 0.37408 -0.26829 
2724 2.1546 0.31178 0.058673 1.2714 1.1181 -0.92473 0.72986 0.6158 -0.63474 0.077728 -0.09969 1.7827 -0.56716 
9604 -0.61986 -0.77534 0.2155 -0.46977 -0.55992 2.2288 1.1929 1.8494 1.2779 -1.2696 -0.37805 -1.0031 0.59685 
966 -0.68226 -1.5914 1.8454 -1.1795 0.19579 1.566 0.95125 2.8224 1.3434 -1.3436 -0.53027 -1.9192 1.4261 
9904 -0.081546 0.21448 -0.21988 -2.0627 1.0421 0.84961 0.77565 2.5425 1.1622 -1.4734 1.4161 -1.1545 0.37137 
5990 -0.58581 0.37363 0.47498 -0.038555 -1.4741 -1.5244 0.56242 -1.2648 0.2636 -0.3225 -0.94235 1.0926 0.28453 
51881 -1.1728 0.76819 -0.38601 0.64531 -2.8621 -0.66024 1.294 -2.1223 0.12062 -0.29095 -1.6657 0.25373 0.23376 
9671 0.17822 -0.85316 -0.099169 0.098725 -0.32336 2.3668 1.2687 1.6378 1.1087 -1.0095 -0.44187 -0.67581 0.55936 
53081 0.76294 0.34032 -0.41994 0.89816 1.3269 -0.13051 0.2557 0.83928 -0.51438 0.13388 -0.54877 1.5671 -0.89732 
3961 3.5874 2.2286 -1.942 -0.56943 2.2977 0.93209 -0.45396 2.007 -0.30556 -2.6105 0.5 -0.87047 0.078044 
311 0.079913 -0.74931 0.28657 0.72637 0.93441 0.79135 -0.29417 1.0808 0.91515 -0.24004 -0.92974 0.53809 -0.10449 
2859 0.41912 0.072787 0.10412 0.29363 0.60285 0.43216 0.48006 0.34782 0.50636 -0.11985 -0.23049 1.1925 -0.66152 
2720 1.571 0.34007 -0.74882 0.25919 0.6074 -0.45243 0.42071 0.78839 -0.86538 -0.86088 -0.44629 0.74448 0.61907 
9672 -0.81151 -1.0897 1.1801 -0.33011 -0.030208 1.8862 0.64542 1.8931 1.0854 -1.6327 -0.80137 -1.8259 1.0199 
2449 1.0361 -0.24458 0.33515 0.349 0.63204 -0.54203 0.66353 0.6011 0.21933 -0.17163 -0.94958 1.0162 -1.2125 
8856 2.7343 1.5248 -1.3733 0.14657 1.0519 1.6028 2.0979 1.8855 -0.61898 -2.0802 2.4703 -1.0902 1.3661 
3995 -0.47266 -1.5639 -0.50636 -0.73519 2.928 1.2734 2.709 -0.03349 2.2179 -2.5605 1.9661 -0.64862 -0.7867 
486 -0.59865 0.88706 -0.36851 0.17158 -1.4567 -0.93858 0.91077 -1.9267 -0.24629 -0.54616 -1.22 0.51735 -0.26369 
2851 -0.68198 1.3577 -1.0535 -0.32334 -0.46141 -3.0954 -0.032626 -0.45101 0.37296 1.4912 0.061854 0.37954 -0.17464 
496 0.35407 -0.042412 -0.58703 0.98863 -0.50751 -1.5392 0.77951 -0.13175 -0.49901 -0.20428 -1.1421 0.32149 0.10019 
2762 -1.333 0.9079 -0.1995 0.72725 -1.2536 -0.76167 0.88879 -1.5055 0.30092 0.5139 -0.5629 1.2035 -0.68751 
3615 3.4402 2.2581 -2.2996 0.053323 2.1025 0.58724 -0.44304 2.1369 -0.87449 -2.5304 0.79538 0.39164 0.82674 
V5861 2.2267 -0.65853 0.99414 0.047658 1.5272 -1.2111 1.6389 0.70168 0.35641 0.18959 -0.36056 0.28772 -1.6677 
3891 -0.1976 -0.95929 0.64173 -0.75084 -0.18951 2.1178 1.1839 2.0793 1.7704 -1.3986 0.2054 -0.97618 0.52189 
40391 -1.1987 0.19685 -1.7219 0.0988 1.1288 -2.0564 1.8673 -3.4756 0.47498 -1.7964 0.75717 0.81746 -0.39727 
5856 -1.2531 0.072754 -1.3526 0.16559 1.8543 -1.9157 1.8732 -4.7503 1.0047 -1.4243 0.24588 0.79282 -1.3272 
3051 0.69688 -0.040984 -1.1812 1.8184 1.5453 0.94218 0.26436 0.57844 -0.16908 1.3182 -0.57553 0.31987 0.061558 
412 1.7533 -0.10049 -0.38189 1.1971 1.1819 -1.3158 1.024 0.90234 -0.57286 -0.7938 0.011715 1.3646 -0.62794 
8872 1.6902 0.34411 -0.097871 -1.4207 1.4296 1.3587 0.68044 1.6887 0.85984 -2.8338 0.66453 -2.1285 -0.071016 
5070 -1.1725 0.33201 -0.30985 0.028197 -3.1596 -0.68258 0.48313 -1.2274 0.70697 0.1104 -1.8315 0.13194 1.2279 
5859 1.5759 0.39451 -0.20304 0.33584 0.10622 -2.1961 1.3788 0.01364 -0.14257 0.36946 -0.097815 2.0316 -1.2684 
40390 2.2997 0.28442 0.44944 0.69857 0.812 -2.6327 1.5782 -0.30361 0.043403 0.66125 0.26784 2.6707 -1.5443 
99592 -1.5894 0.47467 2.1648 0.063389 -1.8815 -1.2566 1.3286 -1.2699 0.68845 -0.3454 -0.25001 1.1932 -0.51563 
2875 -0.018297 0.61797 0.16571 -0.57976 0.43268 -0.56491 0.80489 -1.0314 1.0348 1.3929 0.11631 0.45926 -1.1546 
9915 -3.4312 -0.50682 1.4163 -1.42 0.94775 1.2424 0.60535 3.4859 1.0995 -1.0636 0.56401 -1.1881 0.25444 
3722 2.8184 1.5949 -1.291 0.8121 1.5766 0.68464 1.459 1.5856 -0.97988 -1.3325 2.2945 -0.31045 1.5023 
V5867 0.59869 -0.8693 -0.25923 1.1171 2.3864 -0.91653 0.63278 0.44641 0.61402 -0.73361 0.5817 3.0421 -0.50459 
32723 0.99876 -0.27484 -0.12118 1.5419 1.6098 -0.34354 0.23755 0.31236 0.30721 -0.31945 -1.5503 1.6582 -2.3828 
2761 -0.81897 1.1395 -0.038029 -0.02625 -0.84407 -1.1373 0.25384 -2.1203 0.59253 1.0918 -0.57598 1.0467 -0.35386 
4513 -0.77384 -0.77975 -0.77828 -2.3722 1.0199 0.11613 1.5717 3.4118 2.0042 0.69887 0.76646 0.11743 -0.30628 
41071 0.51344 1.9094 -1.6295 -0.14431 -1.8927 -2.1957 1.4849 -1.1628 -1.3272 -1.19 0.54153 0.93017 1.1124 
0389 -2.3868 1.2809 1.132 -0.075229 -3.3522 -1.7189 1.1965 -1.8559 0.003368 -0.56075 -0.64543 1.2615 0.23108 
4240 1.587 1.3212 -1.4498 0.23319 -0.14919 -1.0066 1.0964 0.066607 -0.50021 -0.70159 -0.44576 0.28268 -1.2458 
V4581 1.6354 -0.7486 -0.1412 0.14214 0.82482 -2.4815 0.79985 1.2267 0.32539 -1.3158 -0.32845 0.53379 -0.67715 
5119 -0.93604 1.6939 0.025763 -0.25632 -0.91031 -1.3894 -0.19588 -1.4101 -0.62745 0.75073 -1.3901 -0.79071 -0.48946 
V4582 1.9443 0.010988 -0.46251 0.90832 1.6678 -1.5601 0.88666 0.86483 -0.63476 -0.71384 0.19743 1.1121 -0.64381 
3324 -0.80123 -0.87403 1.7164 -0.94445 0.82358 2.7344 0.39746 1.9483 0.71275 -1.5888 -1.3594 -1.8196 0.32899 
V1582 2.0253 -0.11021 0.41295 0.25178 2.8753 0.14928 0.52854 1.7641 -1.0275 0.32194 -0.6396 0.80778 -0.69766 
49390 0.29731 0.18288 -0.85705 0.1414 1.6462 0.64107 -0.39042 0.23095 0.10317 0.094298 -0.98268 1.5374 -0.4381 
3723 2.0971 1.3935 -1.7436 0.32325 0.53566 1.0744 2.185 1.3795 -0.54153 -1.8045 2.0572 -1.0572 1.0675 
2767 0.1978 0.099533 0.045552 0.88263 1.4315 -0.87385 1.4809 -1.8309 1.0176 -0.09877 0.73167 1.338 -1.7504 
4168 1.8297 0.52407 -0.34999 0.29737 0.52767 -0.76441 1.5045 0.082904 0.076517 -0.51693 -0.73929 1.1513 -2.8304 
4241 2.3473 1.6558 -1.1862 -0.39671 0.13302 -1.9375 -0.061735 0.07343 -0.75353 0.15389 -1.2041 -0.12452 -0.80905 
42789 1.0335 0.14283 0.32376 1.0462 0.16839 0.2221 0.61702 0.29914 0.30373 0.20086 -0.50024 0.71618 -0.70718 
3572 0.56775 -0.71453 -1.3322 -0.23105 2.2203 -1.9743 0.36952 -0.20925 1.739 -2.5676 0.95636 3.4373 -0.13985 
9971 0.94155 2.8356 -0.95032 0.17107 0.44265 -1.4519 -0.18994 -0.52608 -1.714 -0.95742 0.35755 -1.2389 -0.31707 
4254 0.24736 0.47072 -1.3769 0.92554 -0.24655 -1.2865 2.2859 -2.4418 0.070621 -0.45407 -0.10601 -0.26409 -0.97594 
28521 0.53218 -0.58398 0.10927 0.57376 2.8574 -0.91915 1.9057 -1.2454 1.2408 -1.4362 1.0622 1.8561 -2.4494 
5180 -0.83822 1.0518 -0.093491 1.0842 -0.481 -1.4897 -0.63209 -0.82236 -0.80806 0.53608 -1.7125 -0.26236 -0.2293 
4589 0.10927 -0.18822 0.24131 0.43255 -0.16631 -0.09652 1.0383 0.24517 0.78091 0.40042 -1.0271 1.1949 -1.4082 
45829 1.4029 0.97565 0.15617 1.3792 1.9213 -0.91612 -0.36922 0.090018 -0.65893 -0.059456 -0.1541 0.35985 -1.2776 
78039 -0.28534 -0.26872 -0.41411 0.053076 -0.58859 0.55251 0.12009 -1.3213 0.78603 0.089131 -1.2839 0.80076 1.3266 
2760 -0.97805 0.11262 0.37092 0.17465 -2.1525 -1.8887 0.29077 -1.4021 0.90532 0.98675 -1.9309 1.068 -0.054682 
V1251 1.2665 -1.3699 1.7446 1.4403 2.3462 0.14331 1.7301 0.5831 0.10566 -0.0023141 -0.51806 0.96237 -1.4809 
5185 -1.3214 1.6017 0.14178 -0.23646 -1.5284 -2.1244 -0.3618 0.60391 -1.1821 0.078551 -1.0867 -2.1745 0.68564 
78552 -2.215 1.3248 2.1366 0.0047121 -3.4574 -1.6636 1.7948 -2.0864 0.26358 -0.5779 -0.45172 1.3263 -0.17228 
8853 2.2604 2.2309 -2.5825 0.020954 0.73072 1.7448 1.0547 1.9393 -0.88369 -2.4589 1.8128 -1.0454 1.9592 
2749 1.6494 0.26697 -0.081262 0.49493 1.1358 -1.2248 1.0251 0.59704 -0.31465 0.0077867 -0.12244 1.2716 -1.2164 
07054 -2.1424 0.20621 -1.7658 1.0057 0.96939 0.43359 1.1048 -1.9164 1.4979 1.9674 0.26685 0.10433 0.26923 
9907 -0.041479 0.25883 0.21741 -3.2872 1.3147 1.9668 0.64961 2.6447 1.9902 -0.79514 1.1642 -1.767 0.40762 
73300 1.4889 0.10483 0.963 0.43427 0.15701 -0.069833 0.3923 1.1732 -0.25097 0.086172 -1.2991 1.6532 -0.87404 
5845 -1.7243 2.3755 0.2743 -0.54465 -1.8785 -1.8431 0.5621 -2.6043 -0.36713 -0.32564 0.21626 -0.31235 0.29155 
2765 -2.2408 1.5297 -1.464 -0.27743 -2.023 0.49702 0.014372 0.28165 0.51493 -1.6869 -0.14128 1.3509 0.46266 
7907 -1.7094 0.12005 -0.17721 -0.33544 -0.15117 -1.9998 0.0070092 -2.7781 1.075 -0.022941 -1.3336 -0.70301 -0.31471 
3895 -1.2053 -1.4884 0.71178 -1.3794 2.9301 0.76354 2.569 0.25976 2.1141 -2.7728 1.9737 -0.72843 -1.1952 
9390 0.36703 -0.9803 0.052699 0.24674 0.2002 2.8148 2.4033 2.2089 0.46261 -2.7742 -0.84147 0.59706 -1.2629 
5363 -1.4065 -0.42499 -3.3266 -1.348 2.3004 -0.20154 -0.1675 -0.58637 2.6854 -2.7407 -0.60378 4.5122 0.024309 
3612 3.048 2.4125 -1.9664 -0.70161 1.7784 0.61896 -0.4342 1.73 -1.0747 -2.0655 0.74383 0.42349 0.79372 
4271 0.92132 1.6716 -0.90807 1.3709 -1.3545 -2.1995 1.291 -1.2914 -0.7921 -0.20123 0.24607 -0.59688 -0.069006 
0331 -0.46709 -1.3831 1.5438 -1.2037 0.74546 3.2668 0.92617 0.23183 1.9491 -0.45395 -0.22196 0.73833 2.0619 
49121 0.29855 0.033113 -0.4778 2.2815 -2.6966 0.013579 2.4669 -0.24472 -1.1051 -0.3829 -2.8005 1.7443 -0.53765 
99811 -0.67117 2.6296 -0.99892 -0.085723 1.0153 -2.7334 -0.36263 -1.2853 -1.3965 0.34579 0.15147 -1.6459 -1.0555 
E8798 -0.11994 -1.3299 1.3425 0.33998 2.5996 -0.84833 0.30187 0.017928 0.46118 1.0038 -1.2032 -0.8722 -0.81199 
30000 0.92456 -0.14381 -0.12888 1.8948 1.2456 1.4727 0.71124 0.99161 -0.30367 1.0806 -1.2629 0.93369 -0.95464 
4311 0.59018 -1.4688 1.8869 -0.6255 -0.39661 2.2067 0.080645 2.1172 1.5401 -1.6892 -1.3577 -1.645 2.2995 
27651 -0.52491 0.55931 0.38588 0.26121 -0.029309 -0.59558 0.42635 -0.34155 0.40704 1.2077 -0.36347 2.9728 -0.66394 
9920 1.5795 2.0052 -1.4274 0.71872 -0.11096 1.8305 3.1517 1.8522 -0.57436 -1.4564 3.6102 -0.78367 2.7834 
4111 1.9459 2.6658 -2.5717 0.6037 1.125 -1.4223 -0.14719 0.067504 -2.1908 -1.0712 0.46461 0.81207 0.47475 
27800 1.577 0.28866 -0.36315 1.5923 1.3963 0.016457 -0.18527 0.77412 -0.32191 -0.02865 -1.0509 1.0756 -1.1097 
3491 -0.43905 0.30214 1.0952 -1.6804 0.88919 2.0296 0.48752 1.9698 0.95837 -1.1751 -0.071552 -2.492 -0.70807 
4439 0.94714 -0.57473 -0.31383 0.47982 1.5192 -1.3555 1.0923 0.79286 -0.17127 -0.85044 0.33566 0.92904 -0.26076 
42832 0.36712 0.32827 -0.59373 0.50061 -0.76204 -2.812 1.117 -1.5103 0.10764 -0.39765 -1.432 1.8632 -1.7056 
25060 0.48515 -0.69475 -0.83316 -0.13318 1.6566 -2.8936 0.58722 -0.30843 1.0693 -2.0301 0.76611 2.859 -0.40789 
36201 0.17173 -0.32619 -0.89013 -0.22125 3.5196 -1.7229 0.51761 0.11076 1.65 -2.6778 2.1116 4.0893 -0.72698 
00845 -1.6913 0.13204 0.72328 -0.48231 -1.5336 -2.166 0.48188 -1.3003 0.3375 -0.011626 -1.1818 0.67822 0.28028 
0040 2.0976 -0.036494 0.40089 0.45734 2.9132 0.35123 3.528 1.2522 -0.49793 -0.21732 3.7942 -0.95251 2.7427 
3004 0.61842 -0.53979 -0.15566 2.8223 1.7666 0.90132 0.76966 0.27299 0.73274 1.0875 -0.34547 1.3687 -0.94127 
2809 0.72258 -0.16765 -0.29321 1.1348 0.69708 0.078204 0.99721 0.48723 0.55618 0.26758 -0.72631 1.6102 -1.6536 
28529 -0.28515 -1.1118 1.2717 1.3561 0.80966 0.35301 1.0772 0.14491 1.07 -0.074976 -0.87223 1.7391 -1.5265 
2768 -0.48519 0.16777 0.69781 0.64439 0.36825 0.59297 0.36597 0.071797 1.1509 1.7935 -0.39227 1.7761 -0.9808 
27652 -0.16662 0.52711 0.79994 0.80916 -0.12647 -0.84899 0.34631 -0.144 0.55326 0.89638 -0.095414 2.1128 -0.92855 
2930 -0.0051655 0.81282 0.91211 0.83805 -0.91789 -1.7761 -0.13641 -1.1221 0.24561 1.0339 -0.99273 0.33195 -0.37671 
5789 -1.3909 0.86413 -1.8614 -0.94675 -1.0304 -2.3957 1.4203 -0.44952 0.28911 1.1698 0.19947 1.0382 0.063835 
42833 0.7 0.81104 -0.56388 0.50086 -1.7884 -2.4187 1.8255 -1.6133 -0.40018 -1.1851 -1.8475 2.0483 -1.9678 
3613 3.1331 2.0103 -1.867 0.058381 2.0479 0.22358 -0.31352 1.5174 -0.91333 -2.2011 0.958 0.50289 0.83114 
41400 1.3905 -0.77642 -0.029996 0.70065 0.33398 -2.7595 0.89272 1.04 0.52575 -0.79819 -0.88958 0.67125 -1.1574 
99662 -3.1792 -0.45803 -0.080386 -0.11003 -0.6841 -1.7101 1.7438 -3.1727 0.61058 -2.1768 -0.56593 -1.2612 0.26533 
25061 -1.2632 1.1757 -2.4829 -2.0939 0.89654 0.49704 0.13231 -0.83567 1.4389 -4.5573 0.44093 3.3804 -0.12915 
99591 -1.5339 -0.07408 1.7468 0.013614 -1.1055 -2.1415 1.2663 -1.7821 0.77988 0.21168 -0.6477 1.2957 -0.38294 
5491 -2.5783 -0.078888 1.7121 -2.0537 1.891 0.57266 1.2016 2.35 2.2928 0.78665 1.4834 -1.1081 -1.5641 
3404 -0.33351 0.70856 0.64457 -0.88415 1.003 2.5856 -0.6093 2.6427 0.57882 -1.1825 -0.87963 -3.674 0.34864 
3897 0.79009 -1.5761 2.7326 0.047172 2.2005 1.5107 1.0543 2.3724 2.0433 0.011239 0.37706 0.053768 -1.157 
27801 0.16721 -0.23222 -0.52174 1.9871 1.0852 -1.0725 -0.32092 0.58456 0.30062 -1.4052 -1.8117 1.8637 -2.4977 
5715 -1.7104 1.2801 -1.4704 -0.99795 1.5984 -0.55367 0.40435 -1.661 1.3463 3.1582 0.42002 0.1429 -0.86824 
3521 3.7871 1.8405 -1.1244 -0.91655 1.9595 -0.13896 -0.58605 1.6597 -0.34633 -1.0105 -0.30008 -1.0062 -0.41702 
2639 -1.9066 0.78312 0.96754 -0.43579 -1.1139 -1.8116 -0.16718 -1.9077 0.42636 1.7384 -1.3216 0.18423 0.40831 
5712 -1.8353 1.7177 -1.4006 -1.2386 0.066433 -0.95316 0.51866 -1.3212 2.7477 4.2656 0.53774 -0.36677 -0.59976 
60000 2.118 0.50314 0.51098 0.43105 0.76147 -1.0647 0.65429 1.3401 -0.77867 0.72908 -0.54584 0.95312 -0.80908 
99812 -0.44217 1.888 0.095201 0.44051 0.80625 -2.3007 0.21422 -1.8268 -1.3581 0.039408 0.80554 -1.0317 0.30412 
79902 0.65925 0.15958 0.85233 0.97495 0.52918 -0.37849 0.20049 -0.33004 0.2558 1.5052 -1.6996 1.5815 -1.651 
70703 -0.45361 -0.57766 3.3832 0.41435 -0.97216 -3.8316 0.21086 -0.79978 1.4191 -0.60138 -0.93122 1.3035 -0.85448 
25040 0.16775 -0.58407 -1.3568 -0.022877 1.8946 -2.5987 1.8735 -1.2039 1.0916 -2.051 1.5055 1.4988 -0.9229 
99859 -2.2944 2.4523 0.95918 0.75295 -0.25991 -3.8663 -2.0085 -1.2756 -0.97867 -0.94957 -0.36994 -0.12331 0.17941 
E8788 0.33058 0.45037 1.0023 0.80225 2.2232 -1.4664 -1.2209 1.107 -0.84197 0.67993 -0.9244 -0.36049 -0.62454 
78791 0.0016145 0.085032 1.6271 -0.028684 1.6099 0.63279 0.70146 -0.47025 0.73143 0.70515 -0.07808 2.1545 -1.6838 
42823 1.2702 1.2507 -1.0272 1.1723 -1.6885 -3.0371 2.1475 -2.8722 0.075923 0.12266 -0.5406 0.83743 -1.2375 
42732 1.0261 1.4964 -0.84106 0.40277 -0.77377 -2.1418 0.85496 -1.5903 -0.51104 -0.11983 -1.0313 -0.38997 -1.216 
E8782 1.0817 0.85023 -0.28676 0.71491 3.3585 -2.3105 -1.0688 0.33452 -0.84994 -0.46804 0.030554 -0.50751 -1.1009 
29181 -0.93341 1.2029 -2.4331 1.9072 -1.4477 0.96801 0.83388 -1.4843 1.6367 4.069 -1.1015 -0.011037 1.2125 
8841 1.319 -1.4534 0.014835 -0.55224 1.9017 2.1616 1.2918 1.0876 -0.42577 0.34114 -0.89514 -0.95389 4.5873 
2800 -0.28823 0.3383 -1.2928 -1.0271 -0.37209 -1.9124 1.0491 0.39852 0.94234 1.324 -0.13876 0.53169 -0.46516 
V4501 2.6726 -0.084083 0.21307 -0.17229 0.09696 -1.9226 1.1904 1.3815 0.27159 -0.65139 -0.49453 0.25212 -1.1015 
5723 -2.5291 1.5084 -1.0891 -2.0986 1.3177 -2.0763 0.57194 -1.992 1.916 4.3846 -0.34811 0.23154 -1.2432 
42822 0.83179 0.44693 -0.71256 1.545 -0.4261 -3.3435 1.1998 -1.7326 0.59414 -0.12189 -0.060847 1.0902 -1.3188 
42830 -0.2616 0.14013 -1.081 -0.15707 -1.1888 -1.4286 1.2707 -0.9177 0.20599 -1.8625 -0.99698 0.7453 -0.74755 
0066 2.4132 1.0574 0.40706 2.2007 1.3232 0.14334 3.4591 0.17014 -1.4331 0.30644 3.117 0.93354 1.2231 
3322 -1.1999 -0.82993 0.39436 -0.47848 0.78838 2.22 -0.26517 2.367 0.20263 -2.5005 -2.4187 -2.0483 0.30226 
58381 -0.7303 -0.21432 -0.9519 -0.13723 3.1456 -0.84296 0.73229 -0.81444 1.4055 -2.4727 1.5156 2.9381 -1.2011 
V1046 2.0411 0.16872 1.1639 -0.33401 0.35427 -1.4857 0.78923 2.0288 -0.82891 0.29432 -0.41446 0.71065 -0.13505 
3606 1.7136 1.2258 -0.55786 1.8535 -0.25912 1.1036 3.4518 0.87038 -0.88134 -0.86642 3.2411 -0.45268 2.4298 
V5865 0.14338 -0.42946 2.2186 0.34649 1.4251 0.80577 1.3389 0.74727 -0.77985 -0.16866 -1.3241 1.7223 -2.1169 
V1581 0.24822 -1.3416 -2.0064 1.282 1.9051 1.4389 1.0893 -0.2689 2.3744 0.10662 -0.21751 2.3448 -0.42479 
9905 -0.3298 1.6576 0.058623 -3.9184 2.1678 2.7237 -0.074893 2.1288 1.1063 -0.088456 1.5445 -1.7753 1.1089 
34590 0.43694 -1.8438 0.70734 0.68223 1.4198 -0.39272 1.0911 -1.3253 1.7774 1.5392 -1.3527 1.421 -0.42392 
2763 -0.98136 0.53227 -0.14207 1.4981 -1.3605 -1.3621 0.4619 -1.5761 0.010388 1.0459 -2.1139 0.68146 -0.83601 
5601 -2.1332 2.1009 0.12923 0.99192 -0.37933 -2.1545 -0.8961 -0.58633 -0.65382 1.449 -0.55854 -0.084673 -0.84626 
V103 1.5136 0.59054 1.3053 -0.069049 0.53899 0.11101 0.30771 1.4634 -1.2949 0.46056 -1.179 1.1263 -0.28686 
3607 2.0801 1.0758 -1.0935 1.7911 0.59506 0.62679 3.835 0.75782 -0.56362 -0.94754 3.3792 0.29789 1.5557 
0414 0.28167 -0.17737 0.76493 -0.29218 -0.35373 -1.013 0.47678 0.15082 0.98209 0.4948 -0.70455 1.3037 -0.61088 
4139 2.1917 1.5361 -1.2627 0.52096 1.1086 -1.3801 -0.023152 0.6718 -1.3945 -1.1351 -0.16147 0.9889 -0.038966 
5770 -3.1188 1.7853 -1.0005 0.27942 -2.0272 -0.7705 1.2212 -0.91231 -0.31308 1.7041 -0.5889 -0.034861 -0.13163 
3323 -0.82449 -0.8424 0.30212 -0.60866 0.64514 2.2624 0.13506 2.2813 0.4736 -2.4891 -2.2087 -2.1685 0.031294 
E8497 0.92605 -0.65122 1.0273 1.2172 2.5711 -1.0707 -0.52998 0.60124 0.37832 1.3259 -1.1992 -0.64312 -0.94948 
8964 -0.28612 1.0378 -0.73407 -1.3081 0.17822 1.7827 2.1789 2.293 0.49546 -2.7569 1.9948 -2.8424 0.002025 
07070 -1.782 -0.69905 -2.2931 1.0958 1.9597 -0.2463 0.8982 -2.3825 1.5742 1.4033 -0.1571 0.62017 0.49865 
99681 -2.9751 1.4401 -0.48445 -0.75492 1.1319 -1.1744 1.3143 -3.9695 -0.43102 -2.1686 0.98767 1.9195 -0.67958 
79092 1.8465 -0.5643 0.77664 -0.59122 1.3804 -1.2573 1.2481 0.43553 1.3965 0.70697 -0.61415 0.67937 -2.4089 
78820 1.2287 0.60455 1.0157 0.46831 -0.49844 -0.88442 -0.22598 0.62674 -0.0099418 0.28661 -0.39258 0.8566 0.23145 
V1254 2.6388 -0.94855 1.2498 0.89204 1.7528 -0.87345 1.1275 1.4238 0.024165 0.74445 -0.36879 1.0655 -0.31801 
7100 -0.53772 1.113 0.13354 1.4788 2.5606 0.96753 2.0261 -3.9448 1.278 -0.71631 -0.41446 0.411 -4.3815 
3601 0.9961 2.0578 -2.3613 0.83547 -1.163 0.39961 2.6632 1.175 -0.97003 -2.0033 2.1328 -0.86438 2.0118 
40301 -0.81696 1.3292 -3.035 0.44987 3.1865 2.2982 2.3636 -5.8778 2.7011 -2.983 0.82276 1.6023 -2.6365 
33829 0.067175 -0.88881 0.63948 3.6738 2.6924 0.91887 1.0621 0.9976 0.87175 0.83705 -0.33586 2.5754 -2.4627 
25013 -2.3758 0.48071 -2.4318 1.7081 0.82807 -0.74615 -0.6357 -1.9626 2.228 -0.32632 0.23137 5.4935 0.77949 
25011 -2.4515 3.0622 -3.4847 -0.34636 -1.3094 1.5147 -1.1624 0.16303 1.5194 -2.9289 0.66054 4.964 1.6072 
78959 -2.3994 2.2729 0.57656 -0.46276 0.44608 -2.6224 0.30138 -3.283 1.3481 3.7912 -0.066181 0.12474 -2.2551 
4523 -0.21984 -0.89805 -0.70839 -2.2137 1.0238 -0.95791 2.6628 4.2372 1.1822 0.85385 0.87655 0.12951 -0.7073 
5939 0.46556 0.5039 -2.0017 -0.71449 0.057403 0.14614 0.49548 0.9369 0.12072 -1.8367 -0.18771 0.81901 0.46303 
30500 -0.013764 0.27193 -1.5021 1.3021 0.22055 0.76544 -0.46052 -0.057521 1.9995 1.5078 0.020864 -0.56727 1.2228 
3611 3.6914 2.2227 -2.0508 -0.9215 1.598 0.5707 0.052903 1.4481 -0.579 -1.8226 0.35314 -0.61783 0.21882 
4148 1.8527 -0.098564 -0.7162 1.2151 -0.23589 -2.1255 2.057 1.0337 0.49036 -1.0822 0.44837 -0.17793 -1.3027 
56400 0.60826 -0.49159 1.6822 1.3709 1.9215 0.90923 0.34943 0.53077 1.012 0.772 -0.34668 1.9407 -1.6097 
6826 -0.33095 0.98586 -0.41879 0.015686 -1.2486 -2.29 -0.035678 -2.1112 0.60137 -1.4145 -0.62619 1.1227 -0.23239 
56210 0.96974 0.24725 -0.57064 -0.15237 0.90936 -2.1418 1.0183 2.8143 0.07382 1.738 -0.22485 1.8285 -1.8012 
48241 -2.1024 0.2232 -0.068621 0.228 -3.3827 -0.75444 0.54559 -1.1189 0.68226 -1.3603 -2.1437 -1.1191 1.0353 
49320 0.25654 0.10261 -0.34132 1.0696 0.32113 -0.62664 0.47271 -0.002541 -0.67016 -0.35783 -1.6963 1.3686 -1.2821 
V4511 0.66997 -1.4015 0.37771 1.136 3.6595 -1.1631 2.0984 -1.7302 0.93669 -0.85571 0.43881 2.0841 -2.4792 
71590 2.4996 0.16467 0.5632 0.96986 1.1237 -0.11395 0.8592 1.7348 -0.35604 1.0441 -0.62667 1.3671 -0.87618 
9982 -0.97849 2.5807 -0.20813 1.2514 0.32936 -2.467 -0.13323 -0.45563 -2.1589 0.52037 0.61822 -1.7742 0.11879 
2869 -1.4718 1.6404 0.11744 -0.47692 -0.20536 -1.4232 0.56959 -1.7854 0.64529 1.6012 0.054615 -0.81672 -1.3613 
25041 -1.945 1.9743 -2.3569 -1.8329 0.38319 -0.19386 0.35949 -1.4271 1.6444 -4.4228 1.9409 2.5344 0.060375 
V090 -0.63808 -1.7551 0.90885 -0.086444 0.25454 -0.56769 0.57709 -0.23501 1.475 -2.2208 -1.4941 -0.1755 -0.57578 
9974 -3.2731 2.795 0.013771 0.46023 -0.22375 -3.2682 -1.1434 0.17289 -1.2514 1.0627 -0.2961 0.03551 -0.81769 
8855 1.6292 2.0058 -1.2811 -0.69575 0.78982 0.68358 3.0217 1.3542 -0.92096 -1.5922 3.2964 -1.063 0.95482 
431 1.6332 -0.27922 0.52898 -0.51853 -0.91373 -0.033124 0.47614 -2.8134 -0.36701 0.63691 -3.1494 0.47776 3.2486 
V4502 2.6734 -0.65048 -0.16811 1.6211 0.44528 -2.0166 2.149 1.5553 0.52097 -0.77365 0.1159 0.039015 -1.5595 
3950 -0.28852 -1.5814 -0.49846 0.027053 3.8079 -2.2633 2.3325 0.71234 -0.69707 -0.52914 1.8772 -1.5426 2.4762 
3761 2.1406 2.2971 -1.483 0.19965 -0.13903 0.94756 1.3935 1.2085 -1.4608 -2.4412 1.5834 -1.3231 1.6853 
51882 -1.2757 0.50306 -0.60195 -0.03196 -1.3102 -0.029317 1.3373 -1.4533 -0.16441 -0.40798 -1.351 -0.3571 -0.33345 
2948 2.287 -0.53873 0.9516 0.051147 -1.0466 -1.3278 1.13 0.64156 0.97322 0.67102 -1.3529 1.3939 -0.21902 
51889 1.0823 -0.73741 0.65534 1.9294 0.97194 0.19744 1.1649 0.5324 -0.41321 0.32312 -1.5797 1.251 -1.0152 
0045 1.2672 -0.024543 -0.22344 0.86027 2.2293 0.83752 3.7725 1.3825 -0.27562 -0.093452 4.1536 -0.65318 3.1833 
04111 -0.1574 -0.64201 1.1024 0.82539 1.1301 -1.3769 -0.56661 -1.558 1.4486 -0.80033 -0.87736 -0.038039 -0.67589 
0014 -2.6035 -0.99121 2.8711 -1.5806 1.2274 0.69284 1.0043 1.7905 1.7457 -2.1395 0.94545 -1.4294 -0.0055766 
28860 1.1925 0.039275 0.55014 1.5516 1.0636 0.60185 0.8134 0.28539 0.14136 2.1824 -0.93399 2.6814 -1.1694 
3970 1.7838 1.6527 -1.9076 -1.6631 -1.0428 -1.5663 2.0299 -0.17146 0.61596 -0.52592 -0.039296 0.40033 -2.006 
E8889 2.121 0.20796 -0.36893 0.98729 -0.92982 -0.31636 -1.0167 -0.036852 2.9591 0.98421 -0.57614 0.41921 0.70401 
41519 -0.69724 1.2563 1.0728 1.1646 -1.5339 -0.62346 0.69979 -1.5309 -1.2972 1.4742 -1.5283 -0.39493 0.67974 
78057 0.31666 0.0031529 -0.8724 0.79349 0.28797 0.53253 0.57235 1.0062 -0.5183 -2.2928 -1.5103 0.79568 -1.2402 
3371 -1.7687 1.4205 -3.0825 -2.0537 1.6568 0.26299 -0.27514 -1.7098 1.9528 -3.9533 0.10898 3.5598 -0.3075 
V440 -0.83275 -4.007 1.5341 1.3347 0.082493 -1.3818 2.3487 1.5902 1.1558 -1.0813 -3.0253 0.66953 -0.32045 
5121 -0.35854 2.0202 -0.21317 -0.053162 -0.40389 -1.2853 -0.89262 -0.92372 -1.6489 -0.13359 -2.1153 -1.4731 -0.33171 
25063 -1.8882 -0.69738 -3.0385 1.3713 2.535 -1.3699 0.10318 -1.9693 3.2654 -1.225 0.33867 5.2383 -0.18387 
30391 -0.81071 -0.30649 -1.6163 0.92093 0.55257 0.79318 0.83675 -0.0715 1.5978 3.6041 -0.7941 0.39597 0.38918 
4275 0.42104 1.8921 -0.40597 1.6529 -2.1849 -1.8488 0.99221 -1.8575 -0.4073 -0.8342 0.060028 -2.4352 0.46793 
78551 0.67267 2.8238 -1.0036 0.69943 -2.5888 -2.0259 1.9795 -2.0751 -1.2412 -0.9443 1.224 -1.0584 1.1426 
V4365 2.0328 0.35778 0.60133 1.1585 1.3386 -0.65565 -0.058894 2.0205 -0.36362 0.55804 -0.31225 0.54385 -0.66258 
5781 -1.1378 0.63088 -0.81865 -0.21776 -0.40705 -2.5305 1.6087 -0.85223 0.16338 1.7583 0.046069 0.71368 -0.71911 
4538 -1.9977 -0.053957 0.24286 -0.64144 -0.51244 -1.5528 0.84588 -1.9659 -0.24007 0.08201 -1.1401 -1.2482 0.98573 
9962 1.5548 0.23491 0.5171 -0.087596 -0.30991 1.4271 1.6044 1.6086 0.28974 -2.5504 0.095605 -2.8976 0.22505 
387 -0.52064 -0.89296 2.8565 0.7075 0.74712 0.45268 0.27278 1.8006 0.89512 1.3751 0.20137 -2.1894 2.0519 
5459 -3.9238 0.23947 1.0127 1.4491 2.3519 -0.050283 -0.45873 4.451 -0.3313 0.3322 0.13451 -0.66277 -0.76321 
43310 2.8399 -0.056711 -1.6404 0.22056 1.8123 -2.4325 0.73104 0.15756 -1.3845 -0.11402 -0.69413 1.1747 1.4525 
570 -2.0492 2.4276 0.039424 -0.4191 -2.4081 -0.45928 0.51593 -2.4608 0.42816 1.1037 0.83322 -0.54063 1.3124 
51884 -1.01 -0.6272 0.39039 2.3625 -3.4222 -1.7016 2.0126 -1.205 -0.83622 -1.3522 -4.8596 1.35 -1.0343 
8847 -0.75355 -0.21748 0.52916 -1.9975 2.3058 -0.75608 1.6041 3.9624 1.0097 1.5662 2.4579 -2.2844 1.5067 
4516 -1.4075 -0.91499 -0.44808 -2.2182 1.9463 1.1623 1.8563 3.6654 1.5172 0.45623 0.80422 1.7058 -0.73325 
V4364 2.1687 -0.010823 1.2543 0.81066 0.7601 -0.99068 -0.35603 1.7968 0.074008 0.033891 -0.92119 0.64231 -0.67514 
0017 -0.28118 -0.29167 1.1395 -1.0702 -0.22337 2.0534 2.3993 1.8762 1.0583 -2.7239 1.2975 -1.0797 -0.19896 
8842 2.0447 -0.65334 -0.56584 -0.06277 2.2731 -1.1732 1.1075 2.9675 1.0696 -1.3694 2.21 -2.7222 2.2308 
3659 2.1943 0.0047768 0.88917 0.30044 0.88749 -0.75981 0.98663 1.1637 -0.34202 -0.27546 -0.31378 2.4247 -0.66648 
E8780 -1.4602 0.0071128 0.89437 -1.0807 4.0372 -1.0071 2.1621 -2.0842 -0.17127 -0.072416 1.6341 1.4898 -1.8583 
3485 1.2475 0.5925 1.4433 0.32411 -0.55724 0.032006 -0.95772 -2.7686 -0.27525 3.2003 -3.4033 0.60371 3.3362 
E9320 -0.91942 -0.46453 1.1969 0.44544 2.5377 2.7893 3.2801 0.56412 -1.773 1.8802 -1.7205 1.3124 -2.3882 
V1005 1.4275 0.54044 1.6531 -0.44602 0.59596 -1.1961 0.28994 1.8622 -0.88048 0.131 -0.22603 0.43332 -0.25388 
4443 -0.11271 -0.33743 -1.1076 -2.4585 0.5175 -0.24364 2.9202 3.7012 1.364 1.1412 1.5431 0.32176 -0.37477 
5853 2.1982 0.62698 0.57089 0.81294 0.23697 -2.7047 1.3729 -0.33709 0.75205 0.98096 0.34071 2.9949 -2.0437 
E9342 1.8945 -0.92107 0.8389 -0.65946 1.0976 -2.2334 1.5706 0.66199 1.1091 0.84974 -0.52261 -0.48705 -1.467 
V433 1.4008 -0.45576 0.18604 -0.75342 0.75341 -2.4186 1.281 0.99856 0.89191 -0.07149 -0.13176 -0.94356 -1.0505 
04104 -0.017488 -0.31555 1.9438 -0.18731 1.0744 -1.4964 0.1055 -0.46502 1.332 1.4317 -1.0204 0.22279 -1.8875 
2766 -0.73168 0.45349 -0.15608 -0.066195 0.92228 -0.30249 -0.1552 -0.88194 0.41709 0.23926 -0.87218 0.26146 -1.0161 
2874 -0.53099 0.93795 0.17536 -1.0213 -0.27363 0.10492 0.56997 -1.3719 0.6832 0.76157 -0.34182 0.10857 -0.68185 
042 -2.1978 0.41192 -1.541 -0.37353 -0.058604 0.83856 1.4281 -3.1742 1.1673 0.97194 -0.41316 0.031255 0.61266 
99674 -1.6335 0.27296 0.037532 -0.29107 0.48146 -3.1516 0.80738 -2.3036 -1.3367 0.17179 -0.7404 -0.87863 1.1568 
1120 -1.2872 0.097756 1.2697 -0.40089 -0.71929 -0.62195 0.72639 -2.253 -0.40309 1.316 -2.111 0.96439 0.78696 
51919 -0.34435 -1.4702 0.47892 1.6221 1.3033 -0.54117 -0.20894 -0.035791 -0.80876 -0.51764 -4.7571 0.8024 -1.588 
4011 0.042367 0.042844 1.191 0.4544 0.92142 1.0523 -0.023394 1.114 -0.11256 1.1589 -1.567 0.72749 -0.91293 
9910 0.3013 -1.7392 1.0149 -1.0843 1.9179 0.94332 2.6273 0.6464 0.013126 -0.52665 0.64633 -1.9742 2.5673 
E8781 2.6001 0.54696 0.85129 1.1856 2.2668 -1.4393 -0.52717 -0.29216 0.38286 0.23065 -0.24821 -0.8415 -1.3531 
4233 0.10224 1.4822 -0.37505 -1.9564 0.78191 0.069977 1.297 -0.079146 0.65758 2.3622 0.49467 -1.8186 -1.1498 
5771 -2.6903 -0.048074 -1.3192 1.582 1.3231 -0.98755 0.78905 -0.54737 0.070481 2.043 0.16209 0.67395 0.17121 
V173 2.3414 1.5572 -2.0185 0.58986 3.1472 1.0203 0.66936 1.4058 -1.5406 0.1666 0.84671 0.30044 0.34545 
5533 1.0431 0.4227 -0.5602 -0.11819 0.55561 -0.51711 -0.024355 2.1185 0.075734 1.6555 -1.4602 1.6328 -1.2743 
7140 0.80857 0.68479 0.63346 0.91515 1.3101 -0.72798 -0.20959 -0.149 -0.50967 0.38129 -0.42892 1.5742 -0.77338 
7850 -0.75137 0.068971 0.80554 1.715 0.73065 1.1769 -0.22002 0.65371 0.79339 1.5214 -0.8888 1.4524 -0.95427 
29680 -0.073834 -0.64883 -0.66006 1.8658 1.006 0.66011 0.17237 0.22207 1.0935 1.6644 -1.7541 1.1506 -1.0249 
5722 -2.8479 2.4695 -0.98453 -2.4076 -1.4767 -1.3441 0.65558 -3.1348 2.9386 3.6367 0.19434 -0.61544 -0.025381 
30301 -0.54732 0.72176 -2.4067 2.6327 -0.46062 2.4765 1.2421 -0.47991 2.7593 4.178 -0.7434 0.18335 0.26951 
34690 -0.031568 -0.33597 -0.80564 0.70835 2.4484 1.8528 -0.33192 0.39929 0.19471 0.82482 -1.2672 2.366 -0.14334 
V4986 2.4949 -0.74283 3.4322 0.80912 0.99407 -0.62203 0.98031 1.8262 0.62676 1.6388 -1.0267 2.2218 -1.3191 
7242 0.72986 -0.11118 -0.56929 1.925 0.61297 1.5508 1.5556 1.8287 -0.78757 1.1521 -0.84553 2.6951 -0.44097 
25050 0.63027 -0.42863 -1.0567 -1.1486 3.2987 -3.4391 0.70733 -0.90769 0.67016 -1.9737 1.2757 3.1782 -0.59496 
34982 -0.6271 0.88336 0.69989 0.50402 -1.6009 -2.066 0.21678 -3.5172 0.48033 0.90611 -1.2712 1.4776 0.74783 
34830 -0.64886 -0.2481 1.1864 0.2149 -1.185 -1.2905 0.33955 -3.157 0.72478 1.8462 -2.1281 1.16 1.3858 
25051 -0.3831 1.4556 -1.3678 -2.3078 2.0042 -0.34127 0.033453 -1.419 0.97238 -3.8812 1.2964 3.2809 -0.48141 
4414 1.3747 0.58863 -0.39087 0.42948 0.22277 -2.7014 0.37808 1.2599 -1.0614 0.6777 -0.52481 -0.15443 0.29253 
0413 -0.4931 -0.7953 1.9252 0.34093 0.81844 -2.1119 0.70046 -0.073554 0.97469 0.15043 -0.04217 1.7627 -1.247 
V441 0.27055 -3.8356 2.5296 0.6474 -0.26852 -1.3854 1.7294 2.5164 1.2216 -1.1323 -3.2946 1.6951 0.19756 
3721 1.4233 1.4566 -0.065053 -0.0023156 0.93085 1.5371 3.3986 1.0151 -0.27672 -0.30056 1.72 -2.6622 -1.8192 
5761 -2.668 2.085 1.2101 -1.1187 -2.1543 -2.5937 2.6209 -0.067744 -1.5633 2.6951 -0.81399 0.92407 -1.2963 
E8859 2.6254 0.26256 0.19329 0.83936 -0.41552 -0.97041 -1.7482 0.69683 2.3671 1.4881 -1.1865 0.42781 0.58365 
V153 1.6923 0.60835 3.2541 -0.2224 1.7838 0.25286 -0.41414 2.5918 -1.615 1.2859 -1.464 0.94122 -0.017915 
V600 -0.18768 -0.175 -2.8175 3.4441 1.0501 3.2625 1.7956 0.25308 2.8426 3.1949 -0.60443 -0.28859 0.82431 
30390 -0.85201 0.39955 -1.2398 0.26191 -0.10032 0.36504 0.57414 -0.28626 1.6155 3.1379 -0.08987 -0.43222 0.51079 
03811 -2.1515 0.69434 1.1408 -1.0287 -1.4507 -1.7781 1.1059 -4.4321 1.4631 -2.656 -0.30072 -0.8426 0.32811 
V462 1.7204 -0.63709 0.71782 1.8813 0.47502 0.23757 1.8805 1.9536 -0.8948 -0.40492 -2.4852 3.3282 -2.6097 
70715 0.091379 -0.14029 -0.73425 0.69168 0.24456 -2.9096 0.013633 -1.4384 1.7189 -2.4559 1.1196 2.6571 1.079 
8622 -0.93859 -0.58266 0.96342 -0.069385 1.8359 -1.053 -2.1191 0.82671 2.7678 -3.1795 1.08 -0.17521 1.4711 
9605 -0.60932 -1.1162 0.82766 -0.99591 1.1989 3.1141 -0.07091 2.9715 0.023405 -2.8164 -3.2043 -1.5859 0.26551 
53550 -0.20332 -0.80805 -1.6343 -0.57094 0.78866 -0.71489 1.1002 2.2723 0.91601 1.3639 -0.41009 3.2319 -0.21267 
6930 0.57635 0.10255 3.5747 -1.2416 1.1069 0.21174 -0.1752 -1.6155 1.2968 0.95857 -1.4795 0.66491 -1.3409 
78009 1.1962 -0.32352 0.54626 1.8721 0.35984 0.43308 -0.056733 0.19146 1.1752 1.038 -1.204 0.71387 -0.38744 
4928 0.76808 0.36016 -0.4629 0.10882 -0.0077064 -0.56903 0.56623 0.39408 -1.0651 0.82958 -1.6786 0.61114 -0.18331 
7455 1.6446 1.0768 -0.3919 -1.7795 -0.41041 -0.17222 0.97213 -1.892 -0.57557 -0.2703 -1.8309 0.47862 -0.28834 
8659 0.48242 -0.18392 1.2134 1.0023 0.93676 2.5131 -1.6025 2.1865 3.7951 0.01942 0.19687 -2.1752 1.954 
9961 0.2199 1.0555 0.21868 -0.76532 0.078978 -0.12704 0.75733 0.027554 -0.027411 -1.6386 0.28575 -2.2486 -0.5963 
V4589 1.6544 -1.1464 0.80126 0.98088 2.883 1.3383 1.8326 2.2683 0.016085 0.46347 -0.30844 1.2376 -1.2883 
8848 1.1889 -2.0607 -0.4695 -0.034901 3.0699 -1.3568 1.124 2.4115 1.6488 -2.8781 2.4666 -1.2741 4.1634 
7895 -3.3843 2.1829 -2.0309 -2.169 -0.85241 -0.52605 0.81513 -0.73604 0.83772 1.3466 0.55135 -1.4767 -0.14669 
2753 -0.01944 -0.13849 1.7265 1.3813 1.6584 1.1565 1.0245 -0.9678 2.235 1.1289 0.552 2.9285 -2.3104 
2841 -1.4624 0.80923 0.56919 -0.039314 0.34887 0.14255 1.5447 -3.2805 1.0202 2.594 -0.48926 1.3848 -1.2744 
5997 0.4949 0.99298 0.20215 -0.0058137 -2.0326 -0.64243 1.1261 -0.077654 -0.20328 0.080477 0.23309 -0.37833 0.97846 
8852 1.6765 1.8466 -1.3378 -0.18658 -0.27527 0.66367 3.9692 1.0805 -0.59609 -1.2791 3.415 -0.59538 1.0401 
25043 -1.2255 -0.58278 -2.6581 1.3997 2.7634 -1.6543 0.70141 -3.1731 3.9692 -1.1494 1.1762 4.3871 -0.75045 
0159 1.3676 0.043747 2.1924 0.1245 1.605 2.5763 -1.3176 1.1573 -0.80925 1.1753 -2.5094 1.2673 3.3227 
5569 -1.9418 1.7577 0.46661 -1.0315 1.7392 -0.38272 0.39643 -0.86019 -0.68384 -0.48314 1.279 0.98596 -1.1385 
9607 -1.4713 -0.50847 -0.10389 -1.1654 0.42706 1.7954 0.81015 3.2617 1.5253 -0.34334 0.68527 -0.23617 0.39 
3845 2.825 1.7962 -1.8401 -1.5985 2.4309 0.085977 -1.6102 1.5251 0.47799 -0.19316 -1.4895 -3.8313 0.15203 
30560 -0.57483 -0.074721 -2.7152 2.1142 0.21905 1.1965 1.2105 -1.4111 2.033 1.1129 0.86635 0.38057 1.4683 
25002 -0.18949 -0.30252 -0.22506 1.2003 -0.28874 -1.1171 1.1521 0.21367 0.29523 1.0024 -0.71862 1.0766 -0.53723 
70714 -0.33419 0.32163 -0.66669 -0.17842 -1.5038 -1.9848 0.30074 -1.6744 1.6706 -3.2622 0.62101 1.7214 1.5023 
43411 1.6782 0.53015 -0.14575 -1.1826 -1.3046 -2.4357 1.3738 -3.3276 -0.82249 1.0696 -2.0257 -0.97006 2.6283 
43491 0.97037 0.5157 -0.40062 -1.1534 -1.4823 -1.2276 0.26444 -2.1757 -0.53117 0.69881 -1.9428 -0.53681 3.1936 
4239 0.054574 2.3537 0.12788 0.57636 0.62437 0.29781 1.3113 -2.5545 -0.98149 0.021744 -0.28287 -0.86483 -2.4903 
8604 -0.73956 -0.77649 0.23461 0.30206 1.1099 -0.12934 -0.64067 1.0295 2.638 -1.6213 0.95788 -1.7385 1.0154 
1985 0.10089 3.4522 3.1956 -0.01553 -0.4132 0.35407 -0.79412 -1.8025 -3.0942 1.6614 -1.7998 0.94691 0.91047 
4260 3.3646 2.2681 0.010193 0.69623 -1.2214 -2.3945 1.1775 -2.2102 -0.066098 -1.08 0.23056 -0.60931 -0.8757 
V420 -1.597 1.6454 -0.018797 -0.29752 1.283 -0.69393 -0.35725 -2.7429 -0.40826 -2.2636 0.36597 2.0065 -0.5818 
99731 -0.80864 0.3259 0.84661 2.0638 -1.7313 -3.0867 -0.537 -3.7561 0.50842 2.6398 -3.7181 -0.12827 0.6382 
78720 1.5681 -1.4344 2.4024 0.45452 0.23341 -1.224 0.26986 0.44448 0.46837 1.3264 -2.0088 2.249 0.94801 
43889 2.6672 -2.5059 1.3209 0.95729 1.3633 -1.2663 1.8742 -1.1375 0.54588 0.012051 -1.8014 2.3922 0.57347 
45621 -2.2913 1.0334 -1.329 -2.1843 1.6951 -2.8659 0.95545 -1.6862 2.2115 4.5378 -0.6352 0.11418 -1.6139 
3522 3.8608 1.9804 -1.4636 -0.92368 2.2665 0.26689 -0.67769 0.86316 0.55347 -0.41353 -0.67422 -2.1546 -1.064 
3990 -0.37772 -1.4206 -0.25588 -0.96214 3.3054 -1.7769 2.7695 1.9476 -1.3902 -0.85451 1.9501 -2.5684 4.265 
45981 1.9617 -0.11114 0.62134 0.94339 -0.23268 -1.2504 0.8469 0.63073 1.2065 -0.89027 -0.53882 2.0938 -2.0273 
25080 1.0824 -0.91298 0.47938 0.49784 1.3421 -1.9712 0.47885 -1.2814 1.5888 -1.4429 -0.30718 2.2764 -1.0994 
1983 1.1523 2.9517 3.4435 0.18517 -0.95133 1.1368 -1.0429 -1.3692 -3.5035 1.7575 -3.6952 1.3278 2.5942 
49322 0.068889 0.40479 -0.62037 1.9067 -2.2292 -0.037517 1.9676 -0.7331 -0.25462 -0.23947 -3.0879 2.3205 -2.225 
41402 2.368 1.6943 -1.8703 1.4232 -0.54476 -2.5092 1.8091 -0.91672 -1.3 -1.135 0.76664 0.2442 0.50546 
07032 -1.6596 0.41284 -2.8071 1.2817 0.19552 0.61991 1.8199 -2.1886 1.0269 1.35 0.10716 -0.14161 0.53936 
430 0.090652 -0.34131 -0.50753 -0.40966 0.54525 0.36554 0.54191 -2.4468 -1.2429 1.9317 -2.4996 0.27263 3.7875 
03842 -2.0457 1.9057 2.242 -1.0852 -3.3371 -1.8306 2.4055 -1.8619 -0.23975 -0.7135 0.30242 2.969 -0.51155 
4639 -2.4506 0.59557 0.86286 -0.82995 1.4308 0.82792 -1.0073 4.7686 0.1642 -0.90108 -0.73128 -2.5026 -0.20122 
4160 0.0030676 1.4574 -2.054 -0.34676 -0.36537 -0.61275 1.8252 -0.504 -0.97255 -1.136 -0.16257 -0.036633 -1.1591 
2764 -0.69555 0.64412 0.19284 1.1509 -1.5234 -1.4059 0.56237 -1.791 0.12613 0.086669 -1.8334 1.7946 -1.197 
5780 -1.7688 1.5422 -1.3909 -0.59035 -0.2623 -1.118 0.63878 -1.4765 0.52722 1.4443 0.59605 1.5829 0.29285 
0417 -0.53916 -1.726 1.9942 1.1628 0.66061 -2.3205 -0.21173 -0.3231 1.1101 -0.44921 -1.6037 0.8973 -0.28674 
3963 2.0328 2.0475 -1.9269 -2.1665 -0.44178 -1.1196 1.0057 0.17134 -0.081823 -1.1092 -0.04106 -0.16158 -0.79312 
78659 -0.15687 0.49078 -1.029 1.9321 1.7314 1.7788 1.2072 -0.23584 0.45555 0.33473 -0.36788 2.7232 -2.1696 
41011 1.0842 2.4376 -2.1256 1.5634 -1.2526 -0.44065 2.1081 -1.654 -1.4542 -0.11791 1.4487 0.49074 1.2979 
6822 -2.3077 1.2063 0.68301 0.90981 -0.09543 -2.9468 -1.2835 -1.0983 -0.39061 -1.0739 -0.88782 0.22424 -0.58357 
E9331 0.014103 1.6795 3.7654 -1.9539 2.2638 1.5714 0.32046 -1.3383 -0.60085 2.0725 -0.85777 2.1405 -1.7233 
3320 1.1416 -0.13177 1.2884 0.20917 -1.5578 -0.93474 0.27528 1.7254 0.48959 0.028791 -1.7545 1.0097 -0.61072 
4210 -0.14798 1.734 0.12997 -2.4728 -0.78258 -1.8374 0.36276 -4.5478 0.9548 -1.7894 -0.77268 -2.1213 0.26532 
3569 1.5374 -0.098035 0.37647 0.81642 1.1464 -0.13411 0.391 0.2324 0.2255 0.68079 -0.62719 1.2711 -0.71648 
42820 0.32933 0.88105 -1.541 0.95765 -0.96204 -1.752 1.7317 -1.2826 -0.10062 -0.23127 0.83588 -0.40851 0.36527 
41041 1.2503 2.7411 -1.417 1.5002 -1.1109 -0.66809 1.4569 -1.0031 -1.8666 0.14532 1.3956 0.11349 1.3705 
2536 0.26666 0.65256 1.5362 0.53341 -1.6338 0.17517 -0.084943 -1.6762 -0.088022 1.2547 -2.1798 0.66067 0.86756 
4412 2.2589 1.8606 -1.5123 -0.5127 1.0168 -0.75764 -0.88963 -0.076417 -0.37051 0.88171 -1.7276 -1.4889 -0.50613 
515 0.3044 0.24793 0.48622 -0.30346 0.025182 -1.5169 1.1456 -0.45243 -1.4172 -0.62954 -1.8908 1.4904 -1.1451 
9975 -0.24391 2.1577 0.0044864 -0.31829 0.35114 -2.6202 -0.96199 -0.10432 -1.4973 -0.75093 0.31737 -0.0056438 0.48301 
99672 1.5404 2.4806 -2.1299 1.4147 -0.21749 -2.3501 1.4598 -1.5515 -1.5105 -1.0177 1.6899 -0.0057673 1.1871 
4821 -2.3625 -0.681 1.0201 0.53828 -2.5364 -1.9809 0.87632 -0.84992 -0.20409 -1.2345 -2.9635 -1.1826 1.0064 
2867 -2.7135 1.5665 -0.22502 -1.3424 -0.71463 -1.2933 0.49294 -2.7574 1.0913 2.7131 -0.33895 -1.005 0.17779 
5122 -2.7529 1.6091 0.4235 -0.76459 2.0667 0.65619 -0.65186 3.7575 -0.99602 0.86206 -0.059958 -1.6158 -0.93409 
5187 -1.1462 0.52891 1.6523 -1.7739 0.63601 -0.054725 2.2174 3.2565 -0.61585 1.7343 -0.23438 -1.5695 -1.5097 
V707 2.5928 1.1253 -0.25532 0.45436 2.3485 0.10019 -0.050791 1.3039 -0.74357 0.3682 0.36205 0.91825 -0.20706 
44020 2.0115 -1.2931 -0.062425 1.7484 2.1625 -3.0618 1.1942 0.18846 0.3192 -0.81196 0.44784 0.9328 -0.2526 
5059 -4.1361 1.7527 0.3689 -2.2723 4.5716 1.0355 0.70099 0.00086832 -0.45654 2.291 2.0186 -0.84013 0.074337 
V4975 1.3085 -2.2828 0.79861 0.88258 3.6131 -0.66147 2.0458 -0.56368 1.5075 -3.0149 1.0688 2.1383 -1.067 
135 -1.775 -0.78224 -1.0585 -2.159 1.3619 -0.88893 1.8589 -2.3409 -0.02888 -0.86937 -1.5037 1.3966 -0.71936 
4010 -0.9272 0.66881 -3.0205 -1.1684 -0.37823 0.82381 0.7747 -1.8544 1.4833 -0.63108 -0.87623 2.8106 1.0004 
3321 -1.0521 -3.2382 1.3729 -0.022193 0.99479 1.2876 1.1015 2.6092 1.0032 -3.3883 -3.1557 -0.88404 0.67002 
42821 1.1396 1.7291 -0.71479 1.1067 -1.7535 -1.3754 1.562 -2.4128 -1.0155 0.47394 0.086839 0.012897 0.94541 
3772 4.9636 1.6189 1.3712 -0.078941 -1.375 -0.25038 0.85987 1.7349 2.2575 -2.5313 0.36397 -1.4146 -1.5303 
3783 4.4439 2.4121 1.1919 0.77694 -0.74557 0.08603 0.50898 1.1997 1.9804 -2.3542 0.99893 -2.1327 -2.0381 
7806 -0.25491 0.52387 -0.15561 -1.2994 1.8025 1.1955 -0.27555 -0.82177 0.06076 -0.049984 -0.58888 0.16482 0.19824 
V1011 1.0754 -0.17444 1.0599 0.49961 0.6171 -0.21403 0.61301 0.89969 -2.0603 -0.33443 -2.0222 0.5342 0.38332 
V422 1.7798 -0.19804 0.46023 -0.13216 0.13144 -1.7142 1.3197 0.13752 -0.023062 -0.2341 -0.9975 -0.66871 -0.99016 
5680 -2.9199 1.0261 1.0916 1.4959 2.4968 -2.2469 -1.2667 1.3398 -1.2788 1.5941 -0.66947 1.1487 -1.5508 
9925 -0.69435 0.89634 4.4523 -2.6679 1.5478 3.895 0.74569 0.25537 0.61891 0.32927 -0.58673 -0.057186 -0.62761 
70722 0.79184 -1.4198 4.4348 0.77982 0.7145 -3.4745 0.043016 0.87722 1.3932 -0.14723 -0.57386 2.2648 -0.82078 
7904 0.4549 -0.16983 1.6452 0.58325 1.2547 1.2749 1.0862 -0.019925 1.1933 1.9846 -0.10537 1.4835 -1.4031 
42831 0.44313 1.4452 -0.41296 -0.062722 -1.8189 -1.1422 1.2481 -1.8183 -0.51766 -0.32075 -1.1069 0.61532 -0.73211 
7245 0.40317 -0.12847 -0.31695 2.3515 1.5391 1.2021 0.7895 1.1958 0.23763 1.3539 -0.18458 2.043 -1.0458 
0013 0.086737 0.87223 -1.5514 -1.1917 -1.1586 0.52446 2.1673 1.6029 0.59003 -3.9212 1.2244 -2.2753 -0.24143 
1970 -0.72484 2.6334 2.6819 -0.6083 -0.086206 0.46758 0.23985 -1.5282 -3.4677 1.2302 -1.8164 1.6644 1.0836 
E8809 1.7948 0.24977 0.54324 1.3198 -1.4565 -0.16515 -1.3645 0.042365 2.499 2.162 -1.8702 -0.39199 1.5275 
51883 -1.5594 -2.1796 0.42768 1.1366 -1.3691 -3.2233 1.9297 -0.33695 -0.13315 -0.98688 -4.4397 1.4316 -1.2276 
V1083 2.2527 0.76163 1.1025 0.095029 2.2088 -0.037169 -0.081679 2.1231 -1.0295 1.4001 -0.72691 0.79146 -0.90834 
9973 -1.0265 2.3839 -1.0748 -0.45677 -0.36627 -1.5111 -1.3693 -0.49185 -1.7203 -1.3046 -1.0813 -1.9644 0.95086 
29410 2.5112 0.44581 1.9787 -1.4 -2.2529 -2.1732 -0.67019 2.2788 1.888 0.81801 -1.0357 2.8288 0.84026 
3484 1.485 0.47506 0.48086 0.13324 -0.49519 -0.22751 -1.4756 -2.5212 0.28337 2.071 -3.6545 0.69873 2.8791 
99673 -1.5481 -0.25392 -2.5467 0.56472 2.3365 -2.1915 2.0563 -4.8216 0.49983 -0.95971 0.56635 -0.99386 0.26287 
3734 3.3466 0.42449 -0.062227 3.0406 -0.15731 -0.56038 2.3736 1.7039 0.58643 -1.8763 0.27454 -2.4262 -1.907 
7802 1.9381 0.74062 -0.65787 0.52661 0.19779 -0.60681 -0.10391 0.15629 1.3525 1.398 0.33887 0.91575 -0.12542 
0093 -4.0876 1.7373 0.3782 -2.1743 5.4679 2.4355 0.54853 0.84935 0.38254 1.1636 2.5008 -1.3312 -0.45614 
3726 2.9048 0.55783 0.13992 2.8909 0.20936 0.10217 1.8183 1.0068 0.39151 -3.5576 0.47915 -3.4244 -1.1226 
39891 1.9163 2.5466 -2.2798 -2.5224 -1.2746 -2.3077 1.6596 -0.57708 -0.31484 -0.41252 -0.66969 -1.2316 -1.2636 
3778 3.1094 1.6067 0.83054 0.24576 -1.1294 1.6193 1.7937 1.3948 1.2385 -2.0447 1.7635 -2.2384 0.26189 
43820 0.38362 -1.4553 0.11497 -0.78458 -0.61891 -1.5778 1.1246 -1.7015 0.73993 -0.33346 -1.9538 1.2274 1.0588 
53789 -1.3777 0.25806 -0.72902 -2.0064 3.0047 -0.90793 0.45794 0.17029 2.917 4.7234 -0.028395 1.679 -1.9405 
03849 -3.0474 0.62105 1.7446 -1.0794 -2.584 -1.6185 2.0748 -1.7899 0.40209 -0.99751 0.0021268 1.2434 0.18795 
5011 -3.0475 0.96533 0.72079 -3.2043 2.4424 1.4403 1.7138 1.9114 0.11678 0.98579 1.2305 -2.3923 -0.24799 
E8498 -0.67337 -0.99796 0.43448 0.96069 2.8127 -1.3976 0.47897 -0.61677 0.46003 1.3282 -0.66922 -0.31117 -1.2947 
E8790 2.5359 1.9193 -0.4381 2.1071 1.7221 -1.0752 1.9808 0.13612 -1.8371 0.64423 2.3858 -0.31041 0.48019 
2554 -2.4356 0.35659 0.56036 -1.2029 -1.7104 0.94918 1.6509 -1.5875 0.1567 -2.3897 -1.5867 1.267 -0.44017 
7843 2.7225 -1.0226 1.2083 -0.77736 0.21847 -0.81399 1.0393 -1.6076 -0.13697 1.526 -2.43 0.33304 2.9625 
4562 -3.5817 -0.085533 0.61377 1.6922 1.9633 -1.2397 -0.64647 3.453 0.45128 -0.15481 0.95128 -0.27625 -0.096328 
45620 -3.0541 2.4856 -2.5646 -3.119 -0.41256 -0.68492 0.90625 -1.9101 2.5406 4.116 0.41123 0.61526 0.56926 
V451 -0.66967 -1.3818 -0.87039 0.7842 3.1276 0.052871 3.1122 -2.6679 1.0093 -1.3514 0.88076 0.23153 -1.1394 
04119 -0.34606 -0.99433 0.56187 0.98744 1.7634 -1.0631 -0.29966 -1.6755 2.3588 -0.50682 -0.46706 0.46106 -1.0114 
7863 -0.20306 0.34807 -0.43251 -0.1696 -0.065364 0.28507 1.0677 -2.5231 -1.3089 -0.92836 -2.5413 0.11075 -0.28181 
9929 0.040296 -0.51727 -0.018917 -0.98739 1.7122 0.77251 1.4917 2.5578 0.31691 0.49293 1.3448 -2.1225 1.7193 
3314 -0.43317 -0.65279 0.50454 0.62124 -0.62845 -0.093458 -0.18016 -2.4014 -1.0639 1.2242 -3.2379 0.89385 4.3555 
370 1.153 1.958 1.8613 -0.92378 1.5909 2.4779 2.622 1.0162 -1.0468 0.026455 0.88073 -3.1029 -2.2428 
30501 0.16477 0.55582 -1.8766 0.75137 0.037061 0.87557 0.24615 0.074448 1.0705 2.1604 -0.36452 0.11061 0.71417 
3310 2.2615 -0.1262 2.1129 1.5589 -3.4398 -1.2891 1.8545 1.8241 1.2959 0.60907 0.0096279 1.7618 0.86914 
27541 -0.35587 0.42901 1.4391 1.04 1.291 0.5803 0.72446 -0.38938 1.625 1.4563 0.97321 1.5643 -1.8113 
V1052 0.68896 0.89486 2.0355 -0.47808 2.5196 -0.47893 0.56792 -0.4492 -1.837 -0.7384 0.40428 0.98479 -0.53456 
42843 1.2663 1.5805 -1.2394 0.85277 -1.7458 -3.0963 1.4501 -2.8014 0.6994 -0.84419 0.47396 0.8946 -0.72868 
3441 -1.7257 -0.95669 2.6804 4.2986 -1.9329 -1.8562 0.90969 -1.3642 1.3382 0.24852 -0.95465 1.9787 0.15252 
3614 3.0128 2.0596 -1.3024 0.1143 1.5421 0.62501 0.021631 1.4027 -1.2462 -2.0618 0.76823 0.086102 0.75863 
78559 -1.6476 1.5158 -0.41498 -0.79938 -2.0426 -2.1461 0.68885 -0.89244 0.37519 0.71945 0.41037 -0.15441 0.56468 
5570 -3.572 2.1001 -0.4314 0.50936 -1.7947 -3.6491 0.41932 -0.65936 -0.91459 0.89529 -0.0053689 -0.31379 0.24122 
42741 1.9746 2.9584 -1.4568 2.3736 -1.9084 -1.5651 1.039 -2.0159 -0.88458 -0.9099 0.7476 -1.5866 0.81584 
1977 -1.4107 3.348 2.3518 -1.0941 -1.1623 -0.15374 0.18572 -0.55719 -3.3157 2.6284 -1.5149 1.3256 0.90562 
73390 1.474 0.55486 0.97903 0.43266 1.6911 -0.25425 -0.21727 0.66036 0.55463 1.1484 -0.30121 1.6095 -1.589 
0131 2.9711 -0.42862 1.4459 -0.91724 -0.21214 1.0925 -1.2314 1.5217 2.4343 1.3611 -2.1309 0.37987 2.081 
591 -1.3339 2.2633 3.0478 0.26407 -1.7499 -1.515 0.25057 -0.38012 -0.062086 0.6127 1.4659 2.6328 0.26342 
1122 -1.4697 -0.24043 1.1868 -0.073409 -0.54151 -2.2208 0.047236 -1.5068 0.66153 -0.55639 -1.2395 1.1033 -0.21256 
0046 1.9281 0.25541 0.73298 1.6595 1.5712 0.93647 4.7002 1.6453 -0.84685 -0.5351 4.4618 0.11498 2.6573 
9359 -0.80397 -1.1879 1.7627 -1.1531 2.6905 1.4495 -1.4646 2.5637 1.5969 -1.6224 -0.13242 -1.3652 2.4106 
2113 -0.44043 0.10111 -1.1125 -1.003 0.77348 -2.9152 1.8171 2.2896 0.46384 2.0592 0.19202 1.5325 -1.7302 
0380 -2.0707 1.3051 2.0454 -0.66115 -2.2523 -2.1157 0.95675 -2.9998 0.41492 -0.50961 -0.21868 0.54996 0.32124 
29590 0.25393 -0.58316 -1.4224 2.1213 -1.0776 0.89339 1.2456 0.81867 0.53681 0.12427 -2.5324 2.2057 -0.96625 
3512 3.4259 2.3931 -1.3575 -1.1565 0.98845 1.0792 -0.22775 1.0518 -0.22284 -1.4495 -0.50626 -0.84235 -0.7997 
2910 -1.0982 1.2717 -2.0595 2.1726 -0.92595 0.20895 -0.072335 -1.6228 1.0266 3.2943 -0.66877 -1.7577 1.7681 
99702 2.1126 0.76527 -0.43991 -0.95965 -0.37719 -3.0578 -0.034329 -1.8767 -2.1262 -0.20289 -2.0735 -1.4045 3.5462 
9462 0.52518 -0.037298 -1.1181 0.90956 0.58171 3.6099 0.74319 1.4164 2.8559 3.1473 -0.22254 -0.12994 0.67649 
25053 -0.14329 -0.95468 -2.4901 0.42385 2.9473 -1.4154 0.65873 -1.9017 3.7223 -1.5875 1.2216 4.6839 -0.26534 
9723 -1.2834 -3.6053 1.4612 0.32337 1.4011 0.93168 0.64178 2.8107 1.7093 -3.9651 -3.6445 -0.35122 -0.060355 
V08 -1.0278 0.13615 -0.9387 1.2304 1.3488 0.50329 1.0223 -1.556 0.54101 1.2214 0.33575 0.13217 0.15123 
7291 0.58621 0.49651 -0.37318 0.71718 1.5419 0.91672 0.1635 0.37269 -0.65661 0.72934 -1.1494 1.3462 -0.99568 
4525 -1.5298 -0.08958 0.63918 -2.0337 1.3116 0.36416 2.2841 3.4996 0.88026 0.44291 1.5873 0.7139 -1.2818 
56212 0.30379 0.96786 -1.2138 -1.0868 -1.2592 -3.6168 1.2662 1.3619 -0.052884 1.3876 -0.21079 1.5593 -0.55303 
4580 0.086797 0.52563 -0.33621 -0.92482 0.29206 0.23853 -0.51644 0.44021 1.1918 0.5158 -0.59206 2.8317 -0.48771 
29281 -0.4322 1.5665 -0.60823 2.5995 -0.28742 -0.13037 -1.0935 -2.0481 0.18122 0.75008 -0.67252 0.014505 0.076597 
585 -2.3566 0.53238 -2.3039 -0.4036 -0.92735 0.43744 2.2198 -1.329 0.87146 -1.9213 1.0029 -0.96204 0.45517 
59654 0.34347 -1.2132 1.8012 0.54448 -0.1766 -0.55669 -0.04489 -0.2244 1.8863 -1.315 -1.0002 4.8061 0.34537 
78701 -0.11404 0.80426 0.68465 0.62489 2.1278 2.0964 0.3972 -0.88677 0.78862 1.4621 -0.1355 2.528 -1.7693 
V1082 1.7511 1.2683 1.2834 -0.12536 0.43901 0.54181 -0.1724 1.3171 -1.2746 1.2488 -0.69326 0.58492 0.61295 
99931 -2.016 -0.53688 2.5511 0.79477 0.47196 -2.8461 0.47247 -4.0469 1.4068 0.78129 -1.2931 0.053008 -0.57076 
3979 -0.10841 -0.57121 1.1486 -0.16321 2.7529 -0.89537 0.46504 2.0066 0.63999 1.7211 1.2261 -1.8669 1.0707 
E9478 0.98229 0.42845 0.81026 0.161 2.144 -0.82341 1.2146 -0.69909 -0.40562 0.75453 1.3347 1.0559 -0.39227 
3142 0.032372 -1.0332 1.1065 -0.095598 0.64909 2.3721 0.17248 1.9394 0.57559 -1.7136 -2.3411 -1.4701 0.13728 
0390 -0.63249 0.77194 0.96307 0.76404 2.1253 1.9368 -2.1672 3.914 -0.0069726 -0.71473 -0.87805 -2.0789 0.51868 
4373 0.49073 -0.87741 -0.81453 0.51955 2.1776 -0.031487 0.67207 -0.64932 -1.3301 1.467 -1.7891 -0.0087423 3.0394 
3962 2.7005 1.9199 -1.0947 -1.0329 -0.5561 -2.3476 1.1598 -0.47918 -0.84359 -0.27771 -0.46334 -0.63847 -0.75299 
V1588 3.5064 -0.94174 2.3249 0.74198 1.2876 0.42774 -0.2695 1.1746 1.6823 1.1379 -1.1438 1.1874 -0.0064772 
56409 1.3949 -0.33196 1.0256 1.5166 1.0537 -0.45057 -0.44067 0.48558 0.90114 0.81677 -1.054 2.2974 -0.97549 
42781 2.7316 1.1257 1.1442 0.18522 -1.0949 -2.1267 0.58404 0.10399 0.34038 0.080749 -0.46202 -0.41829 -1.3015 
70705 0.44283 -0.058208 2.9859 0.54937 -1.0458 -3.3984 0.27699 -0.73889 1.1336 -0.28184 -0.28932 0.7267 -0.9234 
57420 -0.15956 -0.076261 0.78702 0.22042 1.3329 -0.63452 0.74677 0.82895 0.5653 1.9847 0.10182 0.84322 -1.0938 
58281 -1.0852 2.6219 -0.85917 0.79629 2.7762 3.122 4.1277 -6.8714 1.8404 -1.3581 -0.071334 -0.59237 -5.5463 
8605 -1.1102 -1.8568 2.0539 -0.59694 2.7384 1.407 1.738 -0.47819 1.9165 -1.7729 0.70421 -1.0141 -0.10319 
340 -0.58835 -0.41321 2.0586 0.87422 -2.1328 -0.889 -0.12893 -0.21964 1.375 -0.0091955 -1.6252 3.691 0.63362 
34290 2.5873 -0.55888 0.37696 -0.7711 -0.50805 -0.50774 1.1931 -2.1962 -0.10412 1.4463 -2.3766 0.078491 2.8282 
3523 3.5871 1.9397 -1.053 -1.3344 1.2174 0.22313 0.20927 1.444 -0.31978 -1.3747 -0.82554 -1.8066 -1.2292 
4223 0.55328 1.2667 -1.1512 -1.6861 0.077191 1.3353 -0.66541 1.6459 -0.16429 -3.1236 -0.90217 -1.785 0.64677 
30981 -0.17071 -0.00086722 -1.9692 2.6426 1.7365 1.5256 0.10611 0.64118 0.75215 1.475 -0.31488 1.2502 -0.31811 
04185 0.25193 -0.4183 1.2133 0.54681 1.228 -2.1642 -0.97967 -0.44871 1.441 1.3047 -0.63901 0.88823 -0.59 
8191 0.45678 -0.39824 1.0528 -0.083108 0.77407 1.3371 0.76752 1.351 2.3271 -1.2368 1.4121 -0.50669 -0.27324 
3972 0.3544 -1.5836 0.22982 0.048384 2.8737 1.2606 0.26106 0.42457 -0.41905 1.2065 -1.2144 0.40182 4.2592 
5412 -3.4546 1.2456 0.73155 -0.42035 3.7815 -0.24635 -0.88413 2.5947 0.43842 -0.48336 2.0344 -2.2489 -0.54359 
5184 -1.152 1.4059 0.47902 0.42471 -0.63975 -1.2494 0.23658 -1.7377 -0.51226 0.83382 -1.0151 0.14091 -0.73551 
27650 -0.034055 -0.047211 0.18996 -0.037164 -0.19771 -0.30395 0.34131 0.26222 1.4088 0.90241 -0.83178 2.3946 -1.1583 
34839 -0.50686 0.081029 0.60188 -0.28823 -0.73577 -0.22806 0.63826 -3.0331 0.53982 0.89033 -1.5842 1.1516 0.70007 
4251 1.5836 1.8104 -1.3521 0.71362 0.85163 0.8345 2.0942 -2.8028 -0.059305 -1.1736 -0.8386 -0.52907 -3.3159 
5854 1.1164 1.0935 -0.55955 0.36316 -0.48369 -3.7985 1.2935 -1.8614 0.24095 1.1766 -0.53692 2.7298 -1.7783 
7847 0.91786 -0.31275 0.084751 -0.72912 1.5882 -0.15556 1.3052 -0.43387 0.58951 0.8298 -0.15271 -0.29871 -0.96006 
5718 -0.57108 0.5959 -0.49761 0.27307 2.3809 -0.88548 -0.45989 -0.21312 1.298 2.6079 0.18799 1.0928 -1.5996 
30401 -1.8685 0.75898 -2.3139 2.2091 0.55759 0.80418 0.19931 -3.3292 0.46907 1.6189 -0.41894 -0.057546 1.0391 
4321 1.2705 0.22192 1.025 -0.75952 -0.65348 -0.46775 -0.1561 -2.4188 0.2036 1.1104 -1.943 0.11992 2.2331 
0041 1.6788 -0.89864 1.3758 1.0457 2.4552 0.13926 3.8703 1.3601 0.12013 -1.1171 3.7026 -1.3032 2.9629 
7840 1.5757 -0.57148 -0.15302 0.87943 2.7622 2.4939 0.2421 -1.7118 0.82348 0.52952 -1.5189 1.9026 -0.16902 
25001 -0.42608 0.47078 -1.7538 0.28817 0.38782 0.38798 0.082099 -0.30929 -0.436 -1.7457 -0.49391 0.3318 0.387 
3929 0.96554 -0.66327 -0.27467 1.0731 2.1332 -3.4233 -0.99719 1.5005 1.0742 -3.1679 1.5883 -1.2142 2.7938 
5307 -2.7402 0.85163 -2.8176 -1.9553 -0.72211 -0.88502 0.76777 -0.49541 1.529 0.073592 0.49804 2.9799 0.93203 
44024 -0.55095 0.18494 -1.6246 0.71964 -0.70981 -4.2533 0.68638 -3.335 1.2161 -3.0227 1.16 0.86485 2.3153 
9960 1.2593 -0.56487 1.2439 0.86417 0.70319 2.3143 1.8298 2.5453 1.5641 -2.2085 1.4032 -2.4784 0.089126 
60001 2.2204 0.43105 1.5881 0.83544 -0.80005 -0.66381 0.86741 1.4847 0.073024 0.18697 -0.18319 2.8038 -0.34368 
8162 -0.047355 1.6036 4.6116 2.654 2.2611 3.4773 -1.2011 -0.22218 1.6025 -2.8228 1.7556 -2.1334 2.0397 
27669 0.60944 0.67593 1.3099 0.64081 2.461 -1.5137 -1.0114 -0.29918 0.47629 2.0955 -0.40284 0.7216 -1.6839 
5711 -1.8606 0.86691 -0.54579 0.31701 -0.43113 1.1829 1.1941 -0.42906 3.3125 5.6421 -0.056108 0.76 -0.5577 
5559 -1.7568 0.44034 1.1066 0.98279 -0.38562 -1.3948 0.8525 -0.23332 -0.25429 0.30301 -0.77435 1.2178 -1.6812 
85221 3.0394 0.611 0.13463 0.50027 -1.5423 -1.1606 -1.5791 -1.5356 2.2315 2.2904 -2.9233 0.49815 1.7541 
4319 -3.0224 -0.097365 1.3385 -0.80185 1.2273 0.72917 -1.4176 3.671 1.3704 -1.1451 -0.60302 -1.6752 0.49452 
E8490 1.1855 -0.75531 -0.068327 1.6106 0.13913 0.17944 -0.28736 -0.3724 2.3737 1.2375 -0.98904 0.33738 0.20115 
4588 1.0564 0.17389 -0.35231 1.4374 -0.47878 0.32708 1.1551 -0.75957 0.81649 0.51896 -0.8743 0.93515 -1.1484 
4131 -0.73789 0.76464 3.7514 -2.8248 1.7293 3.9911 0.9744 -0.32233 1.6985 0.43113 -0.24619 -0.18615 -0.91477 
2752 -0.33641 0.87266 1.311 0.96636 0.31049 1.5241 -0.0027915 0.27222 1.5094 2.3661 0.14607 2.07 -1.0181 
403 -1.5157 1.5184 0.15591 1.0365 1.1987 1.3604 -1.8801 3.7595 -2.3433 -1.006 -2.5316 -1.7222 0.12006 
45341 -0.46934 1.1137 1.5551 1.5554 -0.62739 -1.1325 0.40423 -2.3793 -1.1738 2.2949 -1.0474 0.33051 1.5106 
E9289 2.169 -0.48592 1.6965 1.7382 0.54822 0.69595 1.0617 0.26413 2.3246 1.7677 -0.20193 -0.24887 -1.111 
73313 -0.11023 1.4801 1.7719 2.1915 -0.89821 -1.6441 -0.0066662 -3.0514 -1.2804 1.2539 -2.4194 0.98949 -0.76049 
79029 0.95559 0.76881 1.1241 0.66354 1.1461 1.6062 1.0668 0.22127 -0.18091 1.5899 -0.18236 1.0387 -1.2267 
8163 0.02005 1.5514 5.7155 1.9686 3.1475 3.3913 -1.8914 0.48606 2.118 -2.0865 1.096 -2.7786 1.6384 
022 -0.13879 -1.3839 1.0752 -0.68542 0.68418 2.4947 -0.11056 0.40542 0.52061 0.81876 -2.0737 -0.74916 4.946 
V1051 1.4608 0.53259 1.6107 -0.30103 0.69487 -1.4763 0.73366 1.7316 -1.2935 -0.050747 -0.068564 1.0451 -0.32863 
20280 -0.31404 0.99422 0.65552 -1.1467 -0.71714 -0.17138 0.89111 -1.7881 -0.90494 0.18685 -2.0009 -0.43654 -0.43079 
72888 -0.73544 0.98111 -0.5309 1.74 -2.2892 -0.51201 -0.23573 -2.4353 1.7414 1.7166 -0.76637 1.4522 1.2517 
2848 -2.4987 1.1328 -0.18583 -2.9315 -0.7597 0.43556 1.5442 -2.439 0.7331 0.97353 -0.78963 -0.39279 -0.083716 
8857 2.2254 1.5503 -1.2257 -0.021169 0.41808 1.6363 2.1401 1.7367 -0.76897 -2.5221 2.3588 -1.7954 1.9648 
4573 -2.2767 0.86198 0.62232 1.0621 0.93142 -1.8549 -0.0030891 4.4917 -0.94697 -1.1797 1.3122 -0.85374 -0.46926 
2518 -1.5914 0.4273 1.4607 0.48483 -0.15203 2.6392 3.3161 -0.71666 -1.6246 0.92531 -1.1386 1.2554 -1.1609 
53085 0.44851 0.49575 -0.34258 -0.24858 1.7251 -0.79611 0.10122 1.9531 -0.40038 1.7225 -0.67346 1.1781 -1.1371 
8628 -0.25743 -1.5024 2.2156 0.41639 1.0535 0.2119 -0.0115 2.4874 3.2174 -3.4133 1.8216 -0.80366 0.77374 
V8741 2.0764 0.88351 3.8879 0.25712 2.9402 0.78227 0.14635 2.8001 -2.0773 2.5487 -1.3037 1.4528 -0.68469 
86121 -1.2044 1.7164 0.34121 2.4185 -1.5726 -0.70492 -3.2455 0.58793 2.5783 1.6213 -1.6887 -2.4707 2.2783 
5768 -1.9516 0.39593 1.8923 -0.49197 1.6608 -1.1795 0.21431 0.35379 -0.22048 3.5914 -1.0285 -0.12494 -1.2453 
78060 0.30492 -0.396 1.2366 1.3452 1.8942 1.0313 0.30765 -1.1487 0.68636 2.4884 -1.005 1.976 -0.40109 
30393 -1.4505 0.3606 -0.23316 0.12452 2.7065 -0.30038 0.060474 -0.37576 0.81523 3.5475 0.049395 0.49669 -1.0791 
78052 1.3562 0.23503 0.30531 2.0936 1.6362 0.59854 0.9549 1.3683 -0.10849 1.9026 0.1371 1.463 -1.1508 
V1259 1.523 -0.40744 -0.17651 -1.5482 1.3525 -0.0085739 0.48028 1.0132 0.16189 -0.2035 -0.86884 0.041356 0.28348 
5762 -3.7936 1.9382 0.64722 -1.8024 -0.26231 -2.4379 1.1934 0.1996 -1.9588 3.4866 -1.0157 0.60579 -0.1864 
70707 0.54717 -1.3144 3.2236 1.3185 -0.78568 -4.5451 0.20833 -0.1599 1.9484 -1.3887 -0.4438 1.6015 -0.14056 
5191 -1.2024 -0.47134 -0.026348 0.25498 -0.80266 -0.39837 0.58885 0.23463 -2.1317 -3.864 -4.2308 0.27569 0.12346 
3409 -0.86313 0.87913 1.4996 -1.3035 0.67629 1.8761 -0.011133 2.2531 0.75574 -1.5852 -0.46568 -4.1722 -0.70555 
E8786 -1.4097 1.8702 1.4735 1.6479 1.5875 -0.7846 -1.8977 2.0681 -1.9585 0.50937 -1.2616 0.51843 -1.3643 
2409 -2.0348 1.9312 -0.73739 2.0512 -0.30941 3.1454 -1.5049 1.0989 -0.23681 -0.81935 -0.4515 5.2149 2.2978 
48283 -1.4617 0.6876 0.68112 0.37663 -2.2357 -1.3913 -0.60505 -1.8166 -0.045627 -0.53786 -2.7569 -1.2399 0.64736 
8611 -0.24671 -0.10764 2.448 -2.2523 1.54 2.8188 1.6043 -0.21435 1.8592 -1.3829 1.09 -0.70764 -0.25277 
53140 -1.0309 1.1744 -1.6059 -1.8874 -1.3286 -2.2542 1.7131 0.10784 0.067704 0.7214 0.42783 1.3206 0.12084 
5724 -4.497 3.7964 0.69044 -2.7502 -1.1801 -2.2596 0.10135 -3.2289 2.1135 2.6542 1.2856 -0.91106 -0.14254 
8968 1.1608 1.6745 -1.8278 -1.3384 1.338 1.9102 0.72919 2.7533 -0.15175 -2.2231 1.4111 -2.4314 0.64718 
79001 0.20591 0.99108 0.067349 0.49751 0.28959 -1.8926 -0.04966 -0.81104 -0.1998 2.247 -0.4368 -0.13662 0.049238 
34831 -0.88981 1.0443 0.6516 0.37544 -1.828 -2.3413 -0.19035 -2.4554 0.87677 0.65289 -0.90129 1.7402 0.15135 
99664 -0.56999 0.0050568 2.5653 0.28045 -3.3833 -1.4746 1.3326 -1.5984 1.2371 0.064284 -1.5824 3.0585 0.45896 
19889 -0.5496 3.7096 1.9794 -0.11054 0.32708 -0.018153 -1.0619 -0.59467 -3.7964 1.3476 -1.5663 -0.2533 0.43576 
41072 1.6016 0.18236 -0.34109 -0.26032 0.16454 -1.5659 1.288 0.36854 -0.0098781 -1.5921 0.41059 1.5124 -0.59018 
3964 3.1596 1.8631 -1.9299 0.0012237 2.2479 2.5945 0.45293 3.2071 -0.46284 -2.2393 1.1898 -1.9984 0.84908 
9972 0.5449 1.9946 -0.061496 0.26589 1.1888 -3.1406 -0.025677 -2.9742 -1.7119 -0.43705 0.90104 -1.8395 1.8099 
5110 -1.7396 0.077206 0.90026 -1.6336 0.8347 0.20545 1.2668 2.5961 -0.93964 1.0104 -1.4848 -1.7655 -1.1161 
0309 0.95797 0.51122 3.7307 1.4138 2.1573 1.6437 -1.668 -1.2548 0.95367 -1.5361 0.3319 -0.1543 1.712 
3949 -0.6528 -1.4648 -0.28761 0.057027 4.1194 -2.9236 0.50957 0.79779 1.0559 -2.2963 1.9782 -2.2659 1.2535 
4400 2.6065 0.64387 -0.63027 -0.27723 1.2248 -2.3891 0.53807 1.2421 -0.72817 0.53944 -0.23691 -0.19569 0.13007 
30590 -0.92924 -0.026361 -3.1958 2.0461 0.96951 1.9406 1.0256 -0.90839 1.7666 1.316 0.067582 -0.28909 0.65031 
E8791 -0.33862 -2.1784 1.1118 1.0077 4.8226 -0.68514 2.2676 -3.777 1.8654 -1.32 0.24495 -0.15959 -2.0518 
8600 -1.1931 2.1033 0.094909 2.5542 -1.7846 -0.92514 -3.1175 0.078903 2.2918 2.2077 -2.2861 -2.4564 2.0703 
319 -0.93262 -1.7747 2.1543 1.0708 -0.31417 0.43994 0.73627 -0.32039 0.74733 -0.23807 -3.1082 1.4437 -0.75786 
7070 -2.2545 -0.070914 -0.72249 -0.39227 -2.6118 -0.17219 0.2455 -0.050421 1.6165 -2.6504 -0.15281 -0.95534 2.1553 
6961 1.6598 0.82766 0.68143 0.37028 0.87575 0.8252 0.22598 0.71966 0.039943 1.0142 -0.15541 0.78142 -0.73092 
53240 -0.74719 1.2378 -1.2428 -1.9958 -1.6152 -2.9412 1.6081 -0.3749 0.87609 1.0674 0.77312 1.3575 0.13931 
5498 -0.40809 -0.74731 -0.23301 -0.97714 3.3705 1.7638 1.5273 -0.061823 1.9187 -3.1744 2.1346 1.3658 -0.53663 
7464 2.901 3.1329 -1.8228 0.034204 0.93116 -0.49979 -1.1496 -1.4904 -0.61703 0.89943 -1.2512 -1.3319 -0.55962 
5411 -2.6899 0.53594 0.43025 0.25935 1.2421 0.63707 -0.89509 2.536 1.0043 -0.17546 1.0597 -1.6459 0.026353 
7779 0.16164 1.8119 3.9027 3.0454 2.9151 2.2805 -2.6796 -0.3348 1.5663 -1.083 0.92188 -1.4109 1.4159 
7821 0.30709 -0.073877 1.2869 0.60146 1.7065 1.7531 1.3237 -0.59429 0.73388 1.0331 -0.5683 0.94259 -2.1181 
53019 -0.77282 -0.37948 -1.3732 -2.032 1.2254 -0.85751 0.65697 1.4163 0.89283 3.2073 -1.1394 3.3634 -0.1102 
78830 1.7473 -0.41532 1.8389 1.432 0.35991 -0.0031423 0.070464 1.0076 0.85887 0.96357 -0.32428 2.1594 0.16534 
56211 -2.7539 1.5053 1.564 0.72316 -0.4384 -1.8131 -0.012984 0.50253 -1.5863 -0.39716 0.19411 1.2285 -0.20884 
8730 1.4897 0.42486 -0.076484 2.2478 -0.53963 0.12192 -1.7641 0.56861 3.096 2.5837 -1.4231 -0.93961 1.2441 
8960 3.1231 1.8434 -1.5255 -2.0006 2.7051 1.7858 -0.19877 2.5034 -0.81667 -1.9028 0.27172 -1.5287 0.77734 
56722 -4.493 2.4422 3.0756 0.94705 -1.4726 -3.8588 -1.1165 -1.2427 -0.47288 1.7951 -1.0328 0.7597 -0.3767 
2662 0.95594 -0.0098021 0.40998 0.76678 -0.677 0.23665 0.84232 0.57318 0.47664 0.83767 -0.52563 1.9197 0.30795 
41091 -0.35921 2.1387 -2.1061 -0.18005 -1.5296 -1.7257 0.19248 -0.56475 -1.1232 -1.6989 0.57531 -0.42465 1.5858 
4582 -0.60767 1.0326 -0.95954 0.26829 0.5351 -0.48271 0.26 1.2984 -1.1203 -1.3208 0.83595 -0.6731 1.1415 
71690 1.8216 -0.25713 -0.69063 1.1091 2.3868 -0.4513 -0.93579 1.9922 -0.42849 0.66775 -1.8472 2.383 -0.56743 
7935 1.5928 0.14658 -0.03373 0.8238 -0.29664 -0.5473 -1.2979 1.5584 3.3497 -0.12985 0.66572 -1.0133 1.2704 
1550 -2.5412 3.0399 -0.7918 -1.5619 0.98211 -0.79042 -0.28929 -2.0324 -0.66473 4.4709 0.3704 -0.11337 0.84477 
25541 -1.3228 0.29818 1.9786 0.59591 -0.44464 -0.96512 1.7562 -3.7605 -0.53871 0.94896 -1.5 1.3834 -0.74188 
8451 -0.75387 2.3168 5.2473 1.2633 2.7521 4.4175 -1.2428 0.10679 1.8692 -3.4272 1.2082 -3.3143 2.0781 
3727 3.9544 0.43614 0.62258 3.5999 0.77426 0.42382 2.5207 2.314 0.44245 -2.6591 -0.15655 -3.9494 -2.3457 
V1272 2.1615 0.20565 0.24909 -0.52673 2.7026 0.33313 0.72666 2.8229 0.068057 1.4594 -0.12281 1.1073 -1.5744 
1623 -0.069141 2.3804 0.60223 0.35846 -0.80848 0.35974 -0.6868 -0.82179 -3.6234 0.36054 -3.5459 -0.47497 0.99621 
33394 1.691 0.11908 -0.18507 0.71185 1.3555 0.3938 1.0838 -0.24199 -0.12286 -0.23709 -0.33916 1.0029 -1.1162 
58881 -0.1223 0.45346 -0.88715 1.5443 1.5306 -2.409 2.5734 -2.7649 0.011214 -0.38261 0.71404 1.6024 -2.7404 
3794 2.6089 1.0068 -1.0913 2.2278 -0.85736 0.3864 2.2821 0.42717 0.26878 -2.1858 1.1135 -2.3586 0.14239 
5523 -2.2565 1.0156 1.112 -1.5299 2.7227 1.6651 0.88445 0.03174 0.17281 -1.2979 1.5302 -0.92759 -1.5514 
185 1.389 1.7311 0.44194 0.21229 -0.55819 -0.76141 -0.39122 1.1015 -0.6065 1.6525 -0.24618 1.1769 0.13828 
04112 -0.039922 -1.3394 1.8214 1.7995 1.7485 -1.1481 -0.23616 -0.74998 1.2704 0.53772 -1.699 0.49406 -1.6423 
8754 -4.7017 0.53923 1.4484 -3.3622 2.264 1.0541 2.0245 2.751 0.12402 1.1951 0.89432 -1.8898 0.17674 
7823 -0.0055745 -0.2516 1.4102 -0.04484 2.3506 0.25978 0.15837 0.090984 0.55353 1.4762 -0.96012 1.1387 -2.0062 
4142 3.6149 2.2158 -1.668 1.8075 1.2085 -1.4575 1.1596 -0.13764 -1.6996 0.80504 1.1875 2.1119 0.40841 
E9308 0.60611 -0.78968 3.3049 -0.87239 2.0234 0.51046 -0.27178 -0.22206 1.8436 0.66228 -1.3782 0.71325 -2.0033 
56081 -3.826 1.649 -0.65391 0.89901 -0.48043 -3.1295 -0.77919 -0.37621 -1.1042 0.80061 -0.71464 0.42074 -0.13731 
V4611 -1.8305 -2.2174 0.44908 1.3152 -1.0527 -3.4276 0.24386 -0.92308 1.0458 -0.080423 -5.2418 -0.30425 -0.98515 
8054 -0.56194 1.9206 -0.49627 2.563 -1.2926 -1.5778 -2.8503 -0.86295 2.4415 1.9388 -1.1449 -1.4493 1.2244 
V4983 -0.85809 0.9607 -0.64882 -0.84413 3.7996 -0.91633 0.84751 -1.7378 1.6854 2.2158 1.47 0.94568 -2.1784 
44023 1.2825 -0.68013 -0.46142 0.8335 0.34301 -4.1086 0.70064 -0.57936 1.1232 -3.0784 0.8966 1.8537 0.57171 
28522 0.2231 1.4453 3.5241 -1.105 0.91319 1.1447 -0.50781 0.012057 -0.86804 1.4926 -1.5788 2.0307 -1.0784 
27542 -0.60026 -0.58661 1.8254 0.7446 0.86123 1.2515 1.1698 -1.4071 0.64582 0.12487 -1.1753 1.5477 -1.5119 
7856 -0.5431 -0.24758 0.79791 0.75491 0.39047 1.687 0.53339 0.057066 -0.45247 0.50813 -2.272 0.57148 -0.99828 
53010 -1.0079 0.12079 -1.8557 -1.3465 1.3063 -0.69307 0.073545 1.243 1.2774 2.3274 -0.09383 3.7101 -0.10891 
99832 -2.0499 1.7584 0.62119 0.35998 0.43224 -3.1014 -1.7815 -1.6775 -1.039 -1.6211 -0.65707 -0.52059 0.54866 
4524 -0.93426 -0.45284 -0.064266 -1.1261 1.5419 -0.060329 1.1058 4.3269 1.9246 0.024179 1.4651 0.13291 -0.85241 
8105 1.7253 2.2703 3.6955 3.553 2.8386 0.6733 -3.3597 -0.99276 0.80767 0.4507 0.20117 0.039564 0.6262 
V4586 -0.16745 0.3388 -0.21125 2.0854 1.8893 0.025702 -1.0695 1.2962 1.162 1.7618 -1.2771 0.83435 -2.7002 
0353 0.10678 0.75008 4.1937 3.8317 1.9063 1.3372 -2.1032 -0.64328 2.4712 0.77544 0.52142 -1.3351 1.1271 
5609 -2.6599 1.5617 -0.015223 -0.25534 -1.1264 -1.8283 0.11235 -0.26267 -1.0283 0.81548 -0.42698 0.71496 0.19054 
7936 -0.31829 -0.50787 1.0739 1.8342 2.293 0.47562 -2.967 1.5198 4.4206 -0.011757 0.21941 -1.9931 2.0604 
30550 -0.062461 -0.095221 -1.2571 2.895 1.0386 1.1516 -0.13408 -1.0026 2.4854 1.8135 -0.074017 -0.80063 1.0967 
24200 -0.20264 -0.46263 -3.6289 0.12278 3.341 0.98834 -2.1246 -0.99301 3.2248 0.46951 -1.5937 5.2897 1.302 
29570 -0.26723 -0.80181 -0.85245 1.5785 0.16757 -0.42236 1.1557 -0.9782 0.37453 0.082712 -1.522 0.77327 -0.59139 
V5866 2.8239 -0.027396 -0.044063 0.90962 1.1935 -0.59015 0.75285 1.848 0.48475 -0.37616 0.30535 1.2571 -0.62089 
3733 3.8935 1.9293 -1.1927 -0.50872 1.0079 0.76858 0.14299 1.8914 -0.20151 -1.8546 -1.2983 -2.3651 -1.3684 
E8796 1.5422 -1.0131 3.0025 1.6741 -0.94051 -1.0747 1.5346 1.2967 1.9089 0.98642 0.33424 2.1148 -0.16584 
99682 -4.6586 3.2386 -0.17007 -2.1282 1.033 -1.925 1.0067 -3.6641 -1.0678 2.6541 1.1022 -1.0175 0.63053 
04186 -0.44057 -0.49256 -1.6736 -0.98118 -0.043569 -1.7568 1.4275 2.0524 1.4121 1.9405 -0.39727 3.0347 -0.23434 
452 -3.6221 3.2963 0.010779 -1.8182 -0.33413 -2.127 0.54356 -2.1202 -0.25559 4.197 0.36396 -0.23346 0.020961 
25062 0.78168 0.080278 0.48829 1.8995 1.2947 -2.4198 -0.36943 -1.3895 1.9932 -1.3169 1.9194 4.4694 0.19844 
4550 0.63644 -0.33111 -1.807 -0.21278 2.0245 -2.8057 1.7913 3.248 1.3652 3.0972 0.17896 2.8114 -2.3319 
E9352 0.81453 0.42956 1.1899 3.0674 1.9894 1.1936 -0.93068 0.086078 0.34439 0.44407 -1.0179 1.0417 -1.666 
4568 -2.2856 0.86662 -1.0072 -1.4004 2.9102 -1.6506 0.91654 -0.41533 1.2424 4.8637 0.39342 0.48637 -1.1728 
0416 0.85075 -1.2149 1.8334 0.58213 -0.26893 -2.2809 0.66715 0.3262 1.6288 -0.31915 -0.79799 1.5143 -0.47729 
4430 -0.13829 1.0927 -0.48702 -0.83301 3.1009 1.352 0.46853 -0.85576 -0.3922 0.65123 -0.48193 -0.071682 -2.1589 
4829 -0.58434 1.4286 0.8207 0.1998 -1.8623 -0.6271 2.0957 -1.7869 -0.76276 0.69371 -1.059 0.52136 -1.197 
4263 2.9212 0.6108 -0.27108 1.3288 -0.21808 -0.39056 1.1903 1.1066 -0.21921 -0.27529 -0.31909 0.89913 -0.71761 
7905 1.2684 -1.3543 0.58819 1.6333 1.1795 1.0477 1.1723 0.43941 1.4227 0.58961 -0.34431 1.0229 -0.29972 
78097 1.0363 -0.7218 0.67235 2.6991 0.83492 0.64678 0.40074 -1.3999 1.5236 1.1351 -1.0522 2.4347 -0.73732 
43330 3.8383 0.30151 -1.2558 -0.098597 2.4218 -2.7239 0.52668 0.50949 -1.3044 0.003577 -0.43159 1.1696 1.4497 
9331 -1.4934 -2.4732 1.5036 1.1738 -0.15481 -1.693 -0.058345 0.83559 1.3011 0.52309 -3.843 0.32743 -0.79157 
V180 0.59803 -1.1332 -1.7984 0.44065 5.4752 1.5937 0.19689 1.4567 -0.014887 -0.20906 0.14761 1.3335 0.18134 
5589 -1.4384 0.45092 0.33062 -0.49745 0.92609 0.49255 0.35733 -0.45254 0.95984 0.49375 0.072549 2.3637 -1.178 
87342 1.0721 0.10026 0.088375 2.7139 -0.3543 0.63765 -1.316 0.40439 3.964 2.2315 -0.67578 -0.65682 1.1086 
23871 -0.45327 -0.30739 1.8508 0.86492 1.5226 -0.18388 -0.40159 0.85035 1.3283 2.7573 -0.19058 1.4256 -0.39241 
3524 3.6427 2.0459 -1.5088 -1.7127 2.155 1.3009 0.31752 0.087903 0.11119 -1.322 -0.56829 -1.5661 -1.2854 
E915 -0.94357 -2.2763 0.75261 2.513 1.1119 0.018581 0.47839 1.5025 1.3932 1.1271 -2.785 -0.037593 -1.5076 
5672 -6.6602 2.3953 -0.51564 -1.5597 -1.4285 -1.2767 -0.50882 -0.74269 -0.025711 -1.8978 0.5044 -1.0207 0.88504 
4820 -2.6328 0.37403 0.71039 -0.021694 -2.6505 -2.3049 0.32453 -1.6539 -0.55338 -0.82767 -2.4515 -1.6264 1.2403 
0212 1.3655 -0.49312 2.5917 -0.051773 2.0644 2.3733 -2.365 1.651 0.07267 1.1005 -3.2154 0.16185 3.8639 
5188 -0.89681 1.3365 1.5689 -1.547 -0.71995 -0.29157 2.0261 3.6377 -0.9638 0.76263 -0.48811 -1.4513 -2.3008 
8052 -0.71365 1.9049 0.07259 2.5118 -2.1423 -1.5965 -3.1411 -1.2946 2.4645 1.1746 -2.1035 -1.5459 1.39 
44101 0.81242 2.4058 -1.0454 -0.62806 -0.93045 -1.5846 -1.0485 -0.82166 -0.9447 0.81982 -1.8104 -1.9954 0.49182 
9744 2.1481 1.5488 -0.75601 -0.11225 0.23532 2.564 1.253 2.545 -0.45515 -3.2547 2.2658 -2.2126 2.7871 
07030 -2.253 0.17339 -2.0302 -0.051171 0.80995 0.73277 1.3345 -2.4887 0.47893 1.2993 -1.1002 -0.50365 0.045145 
3453 -0.69209 0.0065118 0.94974 -0.32393 -1.6651 -0.22855 0.11516 -2.0021 0.569 1.0612 -1.8431 0.77042 2.0562 
5772 -3.7262 0.89604 -0.14689 1.1055 -1.107 -1.9553 0.4148 -0.19505 -0.34946 3.1385 -1.3523 0.46653 -0.24161 
4401 1.4842 -0.069357 -1.392 0.57008 1.2121 -2.285 1.5273 0.55957 -1.1728 -0.5535 0.25066 0.30064 0.63255 
78900 -0.56294 -0.94128 -0.62424 1.1777 2.4469 1.1286 1.7815 -1.0969 2.8136 0.59207 -0.33441 2.5416 -3.7139 
5641 0.9223 1.0079 0.24126 0.83148 1.7733 -0.28034 -0.38238 1.2184 -0.56855 0.71359 -0.32654 2.4091 -1.3183 
53551 -1.5486 0.84794 -3.2483 -1.3623 -1.0086 -1.2987 0.70684 -0.23751 0.64177 -0.28583 -0.81748 2.7394 0.28853 
44021 1.823 0.70963 -1.8306 0.4402 1.5039 -2.4989 0.70452 0.81031 -1.9404 -1.0724 0.0049292 0.1798 0.89154 
2967 -1.0858 -0.67784 -1.589 1.4567 -1.0256 1.3813 0.58292 0.38252 0.99931 -1.1396 -1.3208 -0.17562 0.91408 
3533 3.8762 2.0937 -1.8643 -1.0897 1.8486 0.37067 -0.065112 1.4846 -0.42144 -1.9114 -0.54115 -1.179 -0.84167 
5793 -4.8844 0.32566 3.0532 -0.33605 0.088801 -1.8171 1.2853 -1.3552 -0.45091 0.62531 0.14153 0.79337 0.018906 
3481 -0.96245 -0.17412 0.096304 1.4707 -2.5706 -1.4865 0.77963 -1.2348 0.79736 0.62354 -1.334 -1.4983 1.43 
V442 -1.4026 -0.81335 2.5415 0.54599 1.3782 -0.58818 0.86742 1.7361 -0.17747 0.12125 -0.56626 2.0061 -1.5608 
415 -3.2429 0.83109 0.45162 0.28107 2.2279 0.72575 -1.1795 1.5027 0.94212 1.7563 1.1019 -2.1408 0.8481 
725 1.7217 0.84744 0.68761 0.47792 0.25456 -1.3648 0.10465 1.3907 -1.3312 -0.21808 -1.0795 1.0927 -0.60614 
42842 0.68099 1.082 -1.1728 -0.13692 0.46401 -2.5184 1.3689 -2.698 0.31207 -0.20391 0.47035 0.94534 -0.74091 
3694 1.0689 -0.44143 0.39785 -0.037979 1.3342 -1.2702 -0.13531 0.91804 0.90848 -1.0013 -0.028615 2.2227 -0.62288 
2252 2.0865 -0.26254 1.1105 0.23958 1.2515 -0.0035652 -0.7749 -0.39937 -0.61472 1.3895 -2.9037 1.4356 1.1984 
6823 -0.62215 0.8877 -0.63549 0.72766 -0.45805 -1.0539 -0.32932 -2.4811 0.53578 -0.60871 -0.20701 -0.56958 0.8 
49392 -0.56406 0.81902 -1.0113 1.1691 -1.2908 1.3449 1.3792 -1.0163 -0.037527 -0.3311 -1.819 1.5583 -1.2558 
8669 -1.1887 -0.62522 0.77168 0.38793 3.0929 -0.36884 -3.6213 1.5208 3.0316 -1.9253 -0.582 -0.52709 1.5517 
25012 -1.1968 0.6484 -0.25668 1.4861 -0.96169 -1.421 0.094551 -2.0147 1.6282 1.1296 0.423 3.5716 0.83147 
7885 0.51795 1.1268 1.1212 0.48338 1.3766 -1.601 -1.2751 0.55354 -0.29308 0.59186 0.043979 0.63773 -0.68543 
2440 0.65931 -0.36291 1.0602 0.8849 0.024343 0.6346 1.4065 1.6397 -1.3652 -0.57977 -1.4201 2.0843 -0.80013 
99889 -0.98456 1.1993 -0.80875 0.092958 2.3066 -1.3016 -1.9568 -0.67119 -1.1979 -0.31222 -0.93849 -1.2178 1.0717 
59970 2.4317 -0.18312 1.5496 0.59842 0.040245 -1.4542 1.0705 0.77242 1.8216 2.1937 0.012318 0.94654 -1.0187 
9914 -1.0908 -0.38208 2.2206 -1.2659 2.2283 3.2025 1.4864 1.2268 0.97648 0.033287 0.49497 0.24159 -0.68854 
7994 -2.0205 0.95191 0.90317 -0.29463 -1.059 -1.4753 -0.35528 -2.1523 0.3584 1.0711 -2.2214 1.6569 -0.82586 
V1301 1.0888 0.46472 0.030245 -0.047984 2.2588 0.68565 0.20569 1.7055 -0.08728 0.97386 0.35819 0.25494 -0.29002 
4592 -2.2672 0.088967 0.40179 0.54705 2.5372 -0.53106 2.0737 -3.0172 -1.5499 0.75186 -1.1381 -2.4476 -1.1426 
7906 0.39021 -0.23764 0.2083 0.82774 1.2605 1.4185 0.045795 1.1039 2.271 0.48809 0.30136 -0.093149 -1.0208 
V454 1.7399 -0.22238 2.5899 2.0998 2.1695 0.070455 -0.98521 1.7078 0.84866 0.25657 0.27433 1.1309 -0.16526 
1628 -0.2748 1.9617 1.3801 0.35329 -1.0986 0.29481 -0.56347 -1.0521 -2.8496 0.56323 -3.191 0.38426 0.66764 
3605 0.65157 1.9549 -1.5954 0.70606 -1.0606 1.0085 2.6002 0.54807 -0.81441 -2.2989 2.3413 -1.1551 1.5062 
E8120 0.55513 0.70431 0.16574 2.1823 -0.57216 -0.37195 -2.1005 1.1393 2.3983 1.6006 -0.68466 -1.4346 1.3218 
4242 1.2105 1.4479 0.025142 0.37872 0.10259 -0.69746 0.042065 1.267 -1.0844 0.098938 -1.3852 -0.67319 -1.8137 
71536 1.3914 0.55533 -0.49867 1.2823 1.0054 -0.85785 0.073116 0.81533 -0.18035 0.86377 -1.6432 1.5199 -2.1628 
5728 -2.8862 0.056381 0.3004 -1.9338 2.4356 -1.0684 0.92488 -1.2258 1.0665 3.1092 -0.84802 -0.070333 -1.9216 
6827 -0.13033 0.36999 -0.58366 1.6793 -0.69505 -3.6502 -0.17737 -2.8578 2.3651 -2.0326 1.6589 2.1084 1.879 
2866 -2.0882 1.8897 1.0329 -1.2909 -2.34 -0.56316 0.7164 -2.2829 0.67792 -0.053826 0.30243 -1.7362 1.1326 
V641 0.97206 0.14893 -0.66113 -0.69167 1.1866 -0.72708 1.152 -0.25133 0.134 0.39422 -0.22438 -0.74596 -0.75225 
56981 -4.964 1.0395 2.5851 2.2354 -1.0693 -2.8926 -0.47289 0.25002 -1.0917 -0.057702 -0.81981 0.47691 0.060944 
8670 1.3222 1.871 1.6296 1.0892 -3.655 -1.5582 0.85805 -0.88986 1.1358 2.4242 -0.098852 0.89403 0.34985 
5920 0.26698 1.0643 2.1068 0.42163 -0.88111 -0.56068 0.10573 0.90226 0.41965 -0.051876 1.0146 3.4107 0.26234 
5168 -1.5978 -0.61483 -0.78156 -0.33633 -0.53714 -1.7801 2.7212 -2.4186 0.087696 -1.0836 -2.2863 -0.78729 -1.6995 
3844 0.13476 0.73687 -0.23927 -0.14111 1.1758 -1.9373 -0.79888 2.5654 -1.1502 -1.5321 -0.19919 -2.9425 1.1049 
8382 0.30283 0.3545 1.9875 -1.3764 2.6732 -1.1803 -4.0006 1.2555 1.0091 -4.0368 -1.5906 -1.176 1.5417 
78829 1.5564 0.55265 2.1893 0.90896 -0.15704 -0.73474 -0.073092 0.9542 0.28926 1.2229 -0.32749 1.2135 -0.56858 
V1087 0.64124 -0.89982 1.4492 0.57051 0.43494 0.89063 1.3216 2.1261 -1.7649 -1.9506 -2.5739 1.4753 -0.60543 
9341 -1.2842 -0.56353 1.243 1.8522 0.20131 -0.33588 -1.1851 -0.10222 -0.47724 0.197 -3.34 -1.4249 0.39538 
0088 -0.30301 0.92321 -1.1912 1.2954 0.070595 0.33596 1.0665 -0.52038 1.0666 0.31498 0.43788 3.4009 -1.4491 
23875 1.2406 0.48609 1.3895 -1.0832 0.12048 -1.7417 1.4639 -1.2571 0.96511 1.738 -0.5553 1.2678 -1.6726 
V443 0.59635 -0.79293 3.2375 0.46619 0.64475 -0.90419 1.2918 1.6785 0.20025 0.35889 -0.035455 0.79777 -0.9808 
72989 3.3777 -1.3494 1.2795 -0.16281 1.4977 -0.50076 0.64597 -0.68468 0.51616 1.0106 -1.6792 1.3732 1.1031 
9656 -1.5596 -1.2189 0.79583 -0.51743 0.44221 3.055 0.41455 1.8955 0.91765 -2.7908 -2.3069 -2.0281 0.59519 
7921 1.4318 -0.11939 -0.2244 0.60724 0.41492 0.33408 0.97451 0.92342 0.98506 0.089156 0.065593 1.2201 -0.83506 
E912 -0.2331 -2.3954 3.525 3.4556 1.1236 0.45166 0.70947 1.7574 0.009716 -0.14746 -3.56 -1.4023 -1.1778 
261 -2.6747 0.89494 0.94908 -0.25434 -1.6027 -2.9503 0.60616 -2.9224 0.75866 1.4033 -0.88534 1.0462 -0.0070186 
43811 1.6958 -2.1044 1.2225 -1.5304 0.087435 -1.4424 1.3377 -0.025266 0.95884 -0.40184 -1.9667 1.6102 0.90172 
3403 2.3535 2.6376 -1.0301 -1.5752 2.2115 1.0041 -1.6871 1.9417 -0.24544 -2.0899 -0.063048 -3.3859 0.4805 
8051 0.28646 1.9348 3.2286 1.8642 1.8688 2.0758 -1.6571 -1.4829 1.314 -2.2726 1.3163 -0.62249 0.88327 
8020 0.3758 0.61009 -0.20955 2.2013 -1.261 0.30061 -2.158 0.0065492 3.3824 2.0783 -2.0023 -1.7161 2.4818 
8082 -0.040533 2.7405 -0.94199 2.238 -1.525 -1.605 -3.1617 -0.20624 3.0084 1.526 -0.48279 -1.2485 0.77559 
4940 0.58577 -0.11518 1.1052 0.92994 -0.12514 0.32567 1.1385 0.17042 -0.77678 0.34245 -2.5126 0.90901 -1.8107 
28800 -0.61535 1.3579 3.3637 -1.2178 1.2101 1.3734 0.22466 -2.644 1.052 2.5248 -1.3777 1.7221 -2.0601 
V1006 -0.069682 -0.43212 3.0319 2.0792 0.83253 -1.4989 1.7568 1.3321 -0.66554 0.93261 0.58215 1.1093 -0.80743 
29620 -1.7491 0.028317 -1.1988 0.22567 0.66763 1.0654 -0.32518 -1.2448 1.5165 0.78689 -1.0317 1.6385 -0.0024739 
28981 -0.4289 1.1386 0.379 1.0841 0.92489 -1.5328 1.0077 -2.9416 -1.3198 0.97225 -1.0401 0.20056 -1.1863 
9229 -0.56982 0.0064998 4.1334 -2.2521 1.1319 3.1896 0.23981 1.285 0.45288 0.40186 -1.5295 0.54077 -0.046164 
56983 -5.1223 3.2004 1.7749 0.89754 -1.5845 -3.3744 -0.51763 -0.43304 -1.623 -0.13875 -0.049332 -0.0066411 0.1321 
71941 1.1501 -0.20257 0.64452 1.5601 0.17097 1.7215 1.0829 1.6521 0.071343 0.87172 -0.54858 1.5353 -0.15412 
481 -1.1424 1.2566 0.33173 0.26987 -3.1443 1.4336 1.7342 -1.7081 0.19061 0.60854 -1.6328 -0.88469 0.29871 
99659 -3.3 0.24414 0.74888 0.020044 -0.45822 -1.8481 0.07804 -0.91047 -1.2629 0.62574 -3.2584 0.11493 -1.1727 
51902 -1.7916 -0.63897 -0.087078 2.0273 -1.3057 -2.2467 -0.34791 -0.81656 -1.2307 -1.8149 -5.5164 -0.24631 -0.51288 
V427 -1.8876 1.0153 0.59045 -0.93542 0.16568 -1.99 1.1993 -1.7885 0.11892 1.186 1.0219 1.5171 -0.57838 
45182 1.5799 0.77132 0.076839 0.24914 0.61011 0.25948 -0.56485 -1.2917 -0.095918 0.12086 -1.6065 -0.75862 -0.10134 
E8792 0.19861 -0.18481 3.1274 -0.93013 2.3943 -1.2464 0.030745 1.6669 -1.3064 2.6934 -1.3333 1.4302 0.0091524 
3712 1.3416 1.991 1.72 -0.64074 1.5626 1.5315 0.53236 0.92433 -0.79064 -0.70186 -0.63482 -3.6944 -1.8248 
7295 0.52365 -0.74767 0.12179 1.9488 2.0146 0.78537 0.67637 0.4996 0.85352 0.45195 -0.49517 1.5647 -1.2216 
5303 -0.71169 -0.0068325 0.17186 -0.98223 0.19948 -1.0536 0.20717 1.9012 -0.62624 2.0405 -2.1533 1.367 -0.4389 
3899 2.7038 -0.18989 1.4468 -0.23733 1.4864 0.53907 0.52388 1.2531 0.76966 0.8557 -0.36184 1.7068 -0.4367 
9992 1.1377 2.2767 -0.91987 -0.36149 0.54152 0.41312 0.2427 -3.0874 -0.94696 -0.14654 -1.5469 -1.7309 -0.72642 
41511 -1.1157 1.5613 1.0109 1.2554 -0.578 -1.4691 -0.68878 -1.3177 -1.458 0.73379 -1.1234 -1.8857 1.2231 
41189 -0.2058 0.2812 0.0089999 0.25344 -0.59855 -3.3402 1.6766 -1.4475 0.0061939 0.63276 -0.33969 1.7738 -0.74912 
8024 0.10929 1.1065 -0.91706 1.5696 -1.2043 0.85618 -2.3531 -0.022655 2.8767 1.7032 -2.1905 -1.4982 2.636 
E8147 -0.54584 0.76426 -0.033656 2.0751 -0.77296 -0.15375 -2.4951 0.46665 2.6842 1.5705 -0.94781 -1.558 1.981 
99831 -0.99606 2.0212 0.66047 -0.23894 -0.1735 -4.3173 -1.7619 -1.4742 -1.3179 -1.3712 -1.5317 -1.1994 0.098243 
56881 -1.6197 1.8819 0.20385 0.48298 -0.27011 -2.8383 0.16282 -1.7063 -0.61643 2.4525 -0.12993 -1.4095 0.01073 
V0980 -0.83368 -1.6602 3.3506 -0.41556 2.3117 -0.84487 1.1264 -0.18145 0.7969 0.36449 -1.5588 0.29238 -2.1904 
V1204 1.7366 -1.5985 2.1978 1.7611 2.7718 -0.2182 0.17462 2.5173 0.53569 0.15776 -0.67507 2.6321 -0.83261 
V4579 1.5103 -0.19584 1.044 1.0757 3.0664 0.42203 0.19417 2.3032 -0.22623 2.2212 -0.30953 0.50909 -0.67397 
85220 2.1405 0.48439 -0.45772 0.21321 -2.0657 0.024826 -1.3543 -0.74498 2.3789 0.82469 -1.9977 0.17112 2.6665 
5855 -0.63907 1.2117 -0.82551 -0.40684 0.57613 -0.14738 2.2009 -3.2628 1.4892 -2.1412 0.44808 1.5867 -2.9284 
70709 0.058159 -1.1083 3.0639 0.97281 0.07781 -3.7076 -0.4338 -1.2766 2.4528 -1.2189 -0.48465 1.2285 -0.62372 
3931 0.020695 1.3191 -1.1703 0.49386 2.1463 0.095292 -0.92815 2.3905 -0.1343 -0.67023 1.3554 -3.6065 1.482 
9999 -0.64157 -1.6113 0.57363 0.066739 -0.13934 -0.92305 0.59381 -0.1186 0.65211 -0.2013 -2.1215 -0.00084237 0.34262 
9654 -2.9388 1.9563 -1.7865 1.0778 -1.5425 2.7222 0.10428 -2.3393 3.1845 2.1465 -0.51196 0.71564 0.62756 
1890 -0.72619 3.1848 0.88839 0.35525 -0.73468 -0.19718 -0.24132 -0.76796 -3.0245 0.51398 -0.82177 0.35772 0.46071 
72402 2.1484 0.3353 1.0993 1.735 0.83979 -1.4729 0.11114 0.21064 -0.99066 0.037777 -0.61825 0.93852 0.14545 
9694 -2.0939 1.0541 -2.5002 2.5366 -2.036 3.4469 0.44678 -1.9601 2.8868 1.399 -1.8732 0.85393 0.83342 
1962 -1.8817 3.995 0.36925 -0.57264 -0.28087 -0.69223 -1.2244 1.0603 -2.6458 2.5812 -0.67195 1.2445 0.1907 
9906 -0.82448 1.7482 1.4234 -3.9137 2.5685 2.7149 -0.36368 2.6228 1.6975 0.56961 1.4495 -2.7925 0.97852 
48242 -1.5766 -0.4325 1.4202 2.7954 -3.2028 -2.3588 1.0233 -1.7854 0.18736 0.52211 -2.8918 1.5101 0.54745 
5198 -2.9826 -0.53835 1.0728 -1.6183 1.7258 1.2381 1.5326 2.3125 -0.45816 0.70046 -1.1151 -0.6247 -0.62986 
36250 3.4464 0.87701 1.2442 -0.76463 1.0641 -0.69254 0.30317 1.8145 -0.37048 1.2042 -0.91008 1.2715 -0.83857 
V1302 2.4648 -1.8746 3.0294 1.8379 1.7331 0.26453 1.1796 3.4124 0.86883 0.43167 -0.80063 2.307 -0.64305 
07044 -2.8885 2.579 -0.83063 -2.1376 -0.35399 -0.012276 0.86584 -2.5566 2.3375 2.7636 0.0291 -0.56604 -1.9322 
1976 -2.6522 4.0008 1.6827 -0.9823 -0.80026 -0.58666 -1.4487 -0.056478 -2.7504 2.4428 -1.3178 1.2416 0.38219 
V0254 0.29626 -1.6584 0.67354 2.6542 1.9108 -0.19283 1.1091 1.0339 1.1335 -0.090357 -0.30643 1.845 -1.928 
78321 -0.21241 0.50034 0.83442 0.53731 1.1754 0.68671 -0.3044 1.9347 0.4869 1.8608 -0.90475 1.1795 -1.7927 
5118 -1.1503 2.4319 -0.50665 -1.1087 -1.5324 -0.26291 0.26749 -0.48133 -0.83238 -0.1511 -1.4705 -2.771 -0.86081 
3571 3.6569 1.896 -2.0003 -2.2048 1.94 1.7953 0.31587 0.72725 -0.21717 -1.3736 -1.2533 -1.3316 -0.4609 
E8160 0.51076 0.96564 0.36111 1.7732 -0.42887 0.2576 -2.3516 0.76344 2.7088 1.3574 -0.79349 -1.1436 1.4151 
4432 -0.021485 -0.59639 2.2317 -2.0368 -1.1936 1.2813 0.18249 1.1628 0.80254 -1.1492 -1.4357 -0.39234 2.0225 
2410 0.88243 -0.60006 0.97096 -0.020703 1.416 0.39855 -0.30695 0.71971 0.74182 1.5788 -1.5364 2.3982 0.16048 
3229 -1.2668 0.053572 0.09227 -1.0871 0.10209 1.0686 -0.86395 -1.0081 -0.67684 -1.1392 -2.8344 -1.0232 1.8099 
V5869 1.442 0.1769 1.9897 -0.15782 2.2644 1.6545 1.0111 0.4666 -0.24783 0.23468 -0.21964 1.8893 -1.2936 
78609 -0.057498 -0.36157 -0.19626 2.1077 1.4925 -0.20406 0.44585 -0.049789 -0.34703 1.0121 -1.4478 1.4935 -1.0735 
4270 0.43611 0.8055 -0.23027 1.1262 -0.73836 -1.8796 0.83304 -0.91719 -0.46966 1.2359 -0.53306 -0.39788 0.081478 
4786 -0.0056162 -1.7548 0.9459 2.0725 1.1243 -0.15785 -0.37474 -0.18978 -0.0091387 -0.79078 -4.2024 0.081814 -0.6958 
E9290 -1.3585 -3.3244 3.2336 4.9475 -0.089073 1.0024 2.38 0.99586 2.8335 1.006 -0.82448 1.9641 0.39651 
V4987 1.1787 -0.68173 1.8594 1.7142 1.124 0.77645 -0.35637 0.66651 1.2523 2.3227 -1.1935 0.38557 -0.069281 
56089 -2.5251 2.6885 1.2961 0.52818 -0.73847 -1.7157 -1.3734 -0.82945 -1.6169 0.93479 -0.79611 0.89142 0.33807 
28850 -0.36388 -0.67228 0.11383 -0.72688 1.6016 0.22861 0.96652 -0.42967 1.6756 2.242 -0.59222 2.1466 -0.96145 
8849 0.83443 -0.976 1.1026 -0.61996 3.6874 0.47955 1.5173 0.72906 1.5005 -0.89007 2.5277 -2.6257 1.7184 
8851 -0.40342 -1.4677 3.1826 -0.47667 2.9304 1.7916 2.0053 1.3522 0.81519 0.66833 0.95993 -3.4048 1.3746 
99685 -2.475 0.1602 1.7198 -1.633 -0.50555 -0.11482 2.8723 -4.251 -0.15173 1.817 -3.1983 -1.3754 -1.015 
7210 2.2062 0.35835 0.87531 1.2109 0.10634 0.31045 -0.42609 0.14506 0.40995 1.0576 -1.4193 0.69596 0.15815 
V550 -1.0374 -2.5948 0.9024 0.1141 0.0044463 -1.2562 0.55938 0.55806 0.87468 -2.3804 -3.62 1.6027 -0.97146 
5531 -1.7142 1.5019 -0.50052 -0.0028354 1.3678 -1.2692 -1.0971 1.1384 0.75345 0.2118 0.74285 1.3367 -1.7275 
25081 -1.4004 0.33186 -0.7108 0.10249 1.3311 0.57297 0.055797 -2.3494 1.9837 -3.6822 0.85366 2.9359 0.27905 
8674 -0.050607 0.21924 1.2599 -0.36797 2.1611 -0.80912 -3.661 1.9615 1.305 -3.6138 -1.4181 -1.1931 1.7424 
8028 0.22704 0.72033 -0.59439 1.9377 -1.0022 -0.040947 -2.406 0.10242 2.8138 2.134 -2.5707 -1.7481 2.2003 
3241 -1.281 1.6719 2.1627 1.2991 -1.4516 -2.1389 -1.4391 -4.1904 0.61378 -2.0783 -1.1564 -0.71253 0.69279 
4561 -2.3063 1.518 -1.7029 -0.11107 1.7347 -1.1035 -0.73124 -0.65414 1.5547 3.8918 0.083571 0.079595 -1.0524 
03819 -2.5153 -0.30494 0.35207 -0.58763 -1.6136 -1.3565 1.3637 -2.312 0.79985 -1.1896 -0.51272 0.1845 1.166 
4660 -0.29389 -0.29515 -0.62628 -0.26543 0.049046 0.86825 0.97214 -0.068976 -0.26755 -1.0137 -2.2282 0.94407 -0.62139 
2920 -1.9533 0.76502 -1.493 2.8998 -0.46663 1.7293 0.52118 -2.7949 0.98787 2.3214 -1.1345 -0.72328 0.86309 
51189 -0.40752 2.065 0.031885 0.20974 -0.10236 -1.7282 -0.33774 -2.2763 -0.26005 1.6402 -1.5516 -1.2306 -1.7669 
0388 -3.4503 1.276 1.5111 -0.96847 -2.2391 -1.7622 0.58286 -2.6174 0.30834 -0.70119 -0.32538 -0.045829 0.47358 
E9503 -1.2953 0.54544 -1.627 2.8369 -1.1302 3.8805 0.25659 0.16597 2.8515 1.7499 -1.5191 1.392 0.80229 
1961 -0.48771 3.0126 1.5422 0.50108 -0.42926 0.60552 -1.0701 -0.53937 -3.7094 0.91111 -4.0332 0.23443 -0.040541 
04149 1.2668 -0.64975 2.3226 1.0558 1.5819 -1.6395 0.020392 0.68902 0.32573 1.3916 -0.56793 1.8024 -0.80675 
78079 1.644 -1.3158 0.4568 0.31805 0.70209 1.1493 1.3515 -0.18269 0.81654 0.79887 -2.0966 1.0768 -0.56431 
3558 1.5381 0.30031 1.0763 0.48586 1.7671 -0.061787 0.97265 -0.079102 -0.0059613 1.3381 0.13805 1.1639 -1.2289 
57410 -3.087 2.1845 -0.43727 -0.44458 -0.1088 -1.6535 -0.2346 0.39907 -1.6923 0.94278 -1.1691 0.064521 -1.1115 
0061 3.0933 -0.43581 -1.0448 -0.58337 2.9777 -1.4443 1.4605 1.6276 -1.4054 0.84468 0.6496 1.7124 4.2455 
E9394 1.165 0.04268 0.3873 3.1434 0.98939 1.4916 0.26465 0.31308 0.79544 2.0088 -0.52531 0.50067 -0.35466 
25083 -1.6216 -0.73882 -1.6257 0.67898 2.0648 0.6104 0.29802 -4.1648 3.3011 -1.8717 -0.27901 4.1382 0.18633 
70712 0.07486 -0.07233 -0.51347 -0.81203 -1.4369 -2.7278 1.3805 -1.7037 1.5233 -1.9275 -0.97834 1.7718 -1.1489 
3179 -0.60203 -0.9021 0.87488 1.5207 1.7826 0.79359 -1.3384 2.0192 -0.90786 -3.6515 -4.3772 0.61543 -0.86385 
53540 -0.46142 0.23888 -2.2427 -0.65391 0.22325 -0.4289 1.8506 1.6799 0.98753 2.041 0.2549 2.9748 -0.6773 
53783 0.016067 1.1495 -2.6302 -1.4912 -0.56207 -3.3097 2.3995 -0.63146 1.0257 -0.00046541 1.0016 1.0516 -1.5362 
79431 1.1586 -0.85017 -0.38154 1.4684 1.3055 0.87411 1.1911 0.39034 0.95487 0.36464 -0.086999 2.2415 -0.23583 
3003 -0.50744 0.094325 -0.76919 2.0681 -0.32661 2.14 0.72788 0.18102 1.9844 2.4511 -0.94281 1.0468 0.5473 
7837 -0.64277 -0.26717 1.9984 0.11858 0.090058 -0.23208 -0.32885 0.080394 1.3997 1.4892 -1.3694 2.9692 -0.96884 
9634 -1.3942 -0.0075856 -1.2547 -2.405 -0.21878 0.83483 1.4505 3.0305 1.8512 0.34251 1.3646 -0.55119 0.98868 
04109 0.6378 0.21901 0.4606 -1.1319 1.1014 -0.92878 -0.39818 -1.281 1.4195 0.32649 -0.88906 -0.10852 -0.96952 
4471 0.20795 0.21255 -0.15516 0.086573 1.4433 -2.4156 1.8641 0.43848 -2.0573 0.28092 0.79545 -0.79582 0.89225 
1125 -3.7715 0.75468 2.1553 -0.6545 -1.8198 -2.1551 0.64896 -1.8412 0.64922 -0.60055 -0.30562 -0.89938 0.79698 
8103 0.98704 0.99955 4.0449 3.8949 0.98518 1.699 -2.0444 -0.86605 1.5233 0.078588 -0.32425 -0.56991 1.2029 
8080 -1.1057 2.6449 -0.49343 2.3008 -2.2057 -1.855 -3.0578 0.17397 2.5875 1.428 -0.98916 -1.6806 1.4519 
8102 1.0798 0.51025 2.8971 3.6704 1.1883 1.0444 -2.2682 -1.6303 1.2079 -0.84106 -0.29727 -0.051868 1.5233 
4370 2.1113 -1.4831 0.93379 -0.55057 -0.7387 -1.2942 -0.38633 1.1815 2.0499 0.71529 -2.1979 3.4155 1.6811 
44422 0.27674 1.3594 -0.63257 0.93219 0.37312 -4.1946 -0.054131 -2.124 -0.72896 -0.46214 0.87446 -1.0893 1.9179 
9951 2.7797 0.55311 0.5275 0.87412 0.099101 2.1097 1.005 -2.2927 1.456 -0.67763 -2.3216 1.8122 -2.1226 
514 -0.62644 0.53577 -0.020734 1.116 -0.43827 -0.54337 0.97418 -1.2458 -0.95923 0.78006 -1.3313 1.1355 -0.52384 
598 -1.541 1.3906 2.7444 -0.7926 -0.32291 0.31482 -0.15853 3.5248 0.8047 -1.072 2.472 1.249 0.61999 
25042 0.24485 -0.24929 -0.71649 1.273 1.0365 -2.5259 0.43445 -2.8569 2.5641 -0.75272 1.3679 2.9622 0.086748 
78061 0.23441 1.2192 5.1724 -0.6761 1.5221 0.95866 -0.23855 -2.2292 1.4564 3.6558 -1.6987 1.991 -2.0165 
7872 1.0909 0.18167 0.19499 -0.7063 -1.1235 0.63166 -0.4521 0.75593 0.34284 -0.76944 -1.9448 0.56596 0.84405 
5109 -2.0049 2.06 0.65263 -0.41022 -1.9546 0.072858 -0.76492 -1.9974 0.12143 0.37137 -3.0491 -2.1042 -0.99286 
4543 0.1884 -0.098421 -0.75241 -1.7678 1.4586 -1.7348 2.3815 3.5943 0.4042 0.96822 1.3375 0.40052 -0.74055 
73730 0.48489 0.78597 1.6794 1.3913 0.70024 0.029176 -0.72845 0.8648 -0.68017 0.025023 -1.943 1.0479 -1.8605 
78650 0.43628 0.35179 -0.63199 1.9464 1.0961 1.2087 1.4548 -0.43601 1.4152 0.84831 0.56225 1.7909 -1.9031 
53190 -0.090784 -0.41209 -1.262 -0.051864 0.65391 -0.65696 1.3903 1.3873 1.4003 2.2183 0.16149 1.7606 -0.77396 
V4283 -1.9653 1.7341 0.45655 -0.63321 0.29498 -1.9246 -0.34687 -3.0608 -0.32664 -3.8573 -0.054039 2.842 -0.8625 
11284 -1.9347 0.49897 -0.7859 -1.3094 0.1478 -1.8011 0.74381 -2.3258 0.32415 1.5258 -0.43086 2.0283 0.51717 
V4573 1.2161 0.319 2.3692 0.12809 3.0777 -0.22345 0.15807 0.15575 -1.5752 0.04222 -0.041499 0.91276 -0.26991 
4590 -0.89401 -0.21204 -0.85969 -0.71095 -0.32839 -0.89096 1.5453 -0.6266 0.77199 0.47121 -0.66176 -2.0933 -0.16911 
V667 1.143 -0.89141 2.7814 0.35588 0.51852 -0.029669 0.46696 0.93737 0.6055 1.938 -1.5617 1.3507 -0.33011 
E8700 -0.92439 1.5536 0.8077 1.5066 2.5353 -1.3544 -1.5471 1.231 -1.1707 1.5275 -0.24508 -0.40117 -1.3274 
920 1.8778 -0.06336 0.41578 1.7055 -0.44995 0.3205 -1.07 0.021163 3.1162 1.7969 -0.9667 0.058196 0.81108 
30001 -0.26141 -0.045891 -0.65015 2.368 1.8648 1.8974 -0.37983 0.8821 0.3244 1.1409 -0.79512 3.709 -0.11181 
59971 2.0317 1.1488 2.6109 1.4717 0.17224 -0.81935 0.3576 1.1245 0.22423 1.9318 0.61965 0.84892 -0.79742 
4552 -0.20563 -0.01696 -1.001 -0.52108 0.81538 -1.2712 1.0916 0.13042 2.0877 1.9431 0.013549 1.0915 -1.7884 
V1271 1.5637 0.067426 0.15233 0.42884 3.0234 0.079873 0.73071 2.2245 -0.19112 1.2304 0.33861 1.0418 -1.0845 
9072 -2.6974 -2.5252 3.6108 5.2383 -1.4541 -0.92495 2.3796 -0.76427 3.3602 0.75109 -0.40397 2.3781 0.15605 
7078 -0.16951 -1.4674 1.8832 -0.26562 1.1225 -0.95157 0.39295 -0.33883 1.4672 -1.1436 -0.90966 0.93736 -0.95075 
56985 -0.69319 0.52728 -3.4702 -0.096384 -1.0477 -3.1076 2.3031 -0.23908 0.57091 1.1078 0.27986 0.44011 -0.11679 
8452 0.30424 2.3163 4.2589 0.65312 3.0814 2.4707 -2.1846 0.37045 1.5001 -2.3544 0.98191 -2.4726 1.5636 
80701 -0.62491 1.4004 0.016527 1.3617 -0.85668 -0.4522 -2.4945 -0.13795 2.3528 1.9227 -1.3395 -1.7574 1.0986 
9749 -1.0165 -1.7183 1.8334 -1.2426 2.5299 0.9621 1.3391 0.1788 2.2546 -1.9476 0.8169 0.1527 -0.51895 
4576 -2.5502 0.52195 1.364 0.75899 0.96116 -1.0731 -1.2725 4.1121 -0.31825 -1.0746 0.36374 0.76493 0.10517 
72400 2.6482 -0.31194 0.68395 1.3211 0.75003 -0.99042 1.3471 1.724 -0.49503 0.85841 -0.6036 2.341 -0.64136 
E9300 -0.031641 -0.37369 3.5318 -1.1943 2.0059 0.75255 -0.29285 -1.2147 1.8555 0.045037 -1.0878 0.49613 -1.7209 
V453 -0.60587 0.22371 0.6212 0.12602 0.99234 0.67417 0.41134 0.88378 -0.41272 0.068242 -1.0922 0.9627 -1.4995 
0063 3.3569 -0.54405 -0.64864 -0.34758 4.6662 0.083223 2.6676 0.40552 -1.4294 0.99645 0.70491 -2.0564 3.7808 
5503 -0.64282 0.60749 3.5447 -0.4098 -0.37945 0.44775 0.42009 2.6571 1.6996 -0.76051 2.135 2.2534 0.55496 
03843 -3.5366 0.57971 1.4227 -1.0252 -2.8088 -1.6361 1.5261 -1.7276 0.40483 -1.5637 -0.66464 -0.16786 0.59245 
3942 0.77947 -0.8826 -1.6399 -0.98967 3.2908 -1.1972 1.7052 -0.83069 0.71779 -2.3637 0.98127 -1.2887 -0.089371 
5738 -0.40878 0.21388 0.34356 0.43781 1.6177 -0.46676 -0.5128 1.1325 0.21413 2.0478 -0.44705 0.082839 -0.61747 
5732 -0.44517 1.2347 2.3572 -0.2062 -0.92476 0.64475 -0.10081 3.4268 0.99671 -0.88002 1.9828 -0.11146 0.61741 
3451 -1.1084 0.72425 0.81351 -1.0454 -0.23838 1.4982 -0.34023 2.2202 -0.17246 -1.0389 -2.8217 -3.7188 -0.964 
99661 -0.11934 2.5916 0.42777 -1.2358 -1.5523 -2.4685 0.34635 -4.126 0.39298 -2.105 -0.29034 -2.3273 -0.24107 
4739 0.0072565 -0.3065 -0.11728 -0.1625 0.92674 1.258 0.43688 -0.24121 0.62632 0.42339 -1.0028 0.85505 -0.32563 
7812 2.118 -0.75211 0.87569 1.0493 1.0965 1.1217 0.011352 0.29122 1.1819 1.7363 -1.3414 0.81164 0.56369 
45821 0.72951 -0.78097 0.010904 0.81475 2.2269 -0.26956 2.2739 -2.9615 1.463 -1.6282 0.59916 -0.45861 -1.3358 
70723 -0.37235 0.063061 2.9435 1.4886 -0.91953 -3.7744 -0.40094 -2.7219 0.42164 -0.069696 -2.0896 1.5242 -0.21419 
70719 -0.20351 0.41769 -0.34767 0.4689 -0.95441 -3.5377 0.088336 -1.8646 0.70481 -1.3825 -1.0381 1.545 -0.76307 
391 -2.24 0.46128 -1.0504 -3.1996 1.848 0.8769 1.1911 0.83078 2.797 2.3315 1.3685 -1.3129 0.19031 
5419 -3.3715 1.3551 0.94281 -0.36523 2.074 0.11509 -1.7487 2.4424 0.98277 0.44474 1.0664 -2.08 0.48568 
V6284 -1.8811 0.43816 -1.8393 2.161 -0.1459 -0.081889 -0.12679 -1.5925 1.4413 2.2248 -0.68532 1.3375 0.72937 
33818 -0.49576 1.0639 1.3023 1.8325 3.0641 -1.0343 -2.0978 0.88812 -0.65399 1.045 -0.20296 0.97572 -0.97629 
5750 -1.7712 1.4807 1.0755 -0.62424 -2.397 -2.4083 1.4343 0.079191 -1.1333 0.32192 -0.74935 0.17327 -0.45801 
9986 -3.3934 2.0228 0.97094 0.40172 0.22232 -3.633 -1.2373 -0.86078 -1.4188 -0.47715 -0.50958 -0.8118 0.18147 
71596 1.1621 -0.099115 -0.20978 1.294 1.2396 -1.3476 0.83344 0.80128 -0.55225 0.47378 0.14679 1.2412 -0.047101 
51851 0.034666 2.2229 0.017323 1.181 -0.73691 -3.148 -1.4919 -1.9338 -1.5271 0.93875 -1.5554 -0.7004 1.4732 
11289 -2.7943 0.31695 1.2847 0.68659 0.21856 -1.5545 0.3124 -2.5959 0.54915 0.4408 -0.41126 -0.21096 -0.2087 
9702 -1.8707 -2.5091 2.3011 -1.7721 0.083793 -0.038303 1.1104 3.1373 2.0894 -2.1403 -1.7105 -0.84354 -0.10967 
4621 -3.4078 1.1942 0.47737 0.064822 0.81943 -0.022492 -0.0059592 4.4119 0.16774 -2.2858 1.8968 0.14135 -0.45097 
4593 -1.9996 0.98849 0.18712 1.6582 0.0017708 -1.33 -0.024362 5.4169 0.46142 -1.1489 1.736 -1.3689 -0.45592 
1121 -0.86123 -0.25009 0.9328 0.84663 1.2526 0.83401 -0.83728 0.24674 0.92486 1.0422 -1.2312 3.9764 0.205 
8845 0.30344 -0.078446 -0.32102 -0.83044 2.4707 0.34981 1.8692 1.1706 0.57283 -0.33186 3.0809 -2.1723 2.0786 
2819 0.66485 -0.31695 0.36414 0.14531 -0.32571 0.82427 0.93533 0.66528 1.8464 2.0737 -0.47162 1.3324 -0.35956 
4423 1.6404 0.76348 0.41127 0.24859 2.6334 -3.0191 0.42249 -1.1355 -1.3848 -0.33201 1.1427 -1.0578 0.95088 
42090 0.2862 2.3985 0.39902 -0.45589 -0.29497 -0.68103 0.32861 -1.4172 -1.6647 0.70274 -1.6702 -2.436 -1.0037 
544 -3.0621 1.8671 1.4023 0.63122 1.3347 0.2219 -1.7114 4.5563 -0.81139 0.046057 0.080165 -0.41489 0.020697 
E9500 -2.1618 0.75482 -0.92717 2.2307 -0.86579 3.8086 0.56544 -1.266 3.0955 1.6632 -0.59509 1.1484 0.34123 
4264 2.5413 0.53542 -0.1157 0.51928 0.50918 -0.5059 1.198 0.77253 -0.054058 -0.1568 0.30118 0.65982 -0.5082 
E8499 -0.034545 -0.27426 -0.16314 1.324 1.8605 0.69643 -0.24155 -0.85252 1.8297 1.1213 -0.1471 -0.71604 -0.43845 
V0259 -1.4706 -2.9238 1.4931 1.7826 1.6274 0.0067092 2.0646 0.41801 0.57478 -1.7837 -2.0906 1.4644 -1.7538 
51909 -1.4225 -1.2154 0.12588 0.55417 -0.90511 -2.3005 -0.010394 -0.24846 -0.51582 -1.4144 -4.434 0.19289 -0.19862 
2740 0.24687 0.49449 0.091553 -0.5963 -0.053175 -0.18258 0.64111 0.33366 0.084942 -1.6613 0.34517 0.025209 -0.31122 
6929 1.4677 0.37258 0.71589 0.2924 1.0708 1.3649 0.20501 0.49255 0.38638 0.62689 -0.114 1.461 -0.30282 
56969 -3.7566 2.1888 1.2134 0.18551 -0.84712 -3.0269 -0.85762 0.097118 -0.74705 0.36806 -0.93005 1.1214 -0.86568 
72889 0.908 -0.57944 0.94011 1.0666 -0.54451 -0.99261 0.21343 -0.50224 0.90723 -0.4791 -0.73315 -0.012573 0.6387 
25200 0.50647 0.45777 1.0375 0.093352 1.6779 1.2853 1.6185 0.22578 0.96276 -0.074925 0.13339 1.5281 -3.1158 
20410 0.72836 1.3751 1.2968 -0.53776 -0.6097 -0.50365 1.3554 -1.9868 -1.0177 0.37593 -0.95151 0.11199 -0.76399 
78194 3.592 -0.9096 1.2909 -0.045008 1.172 -0.24657 1.1172 -0.88145 -0.36989 1.512 -2.0373 1.2564 2.566 
53560 -0.19501 -0.17317 -1.3981 -0.2125 0.83444 -1.7458 0.78248 2.047 1.4718 2.8575 0.23327 2.3235 -0.65817 
7824 -1.2687 1.531 1.1576 -0.53447 0.26734 -1.0652 0.023727 -1.9523 1.326 2.7412 -0.662 0.70109 -1.8591 
53390 0.78736 0.071465 -1.0493 0.51658 0.97944 0.19754 0.29162 0.61378 0.22088 0.62769 -0.5481 1.869 -0.28547 
31401 -0.036742 0.42127 -0.62462 2.6066 0.74841 2.0758 -0.17154 0.52876 1.4303 2.8693 -0.3777 1.3218 0.2607 
7761 1.469 0.76312 0.19347 -1.0856 2.3152 -2.045 -3.6247 2.1661 0.51385 -5.297 -2.0546 -1.6438 0.43616 
20300 0.49279 1.2596 1.7214 -0.036507 -1.0951 -0.82926 0.66411 -3.0166 -0.49474 -0.076785 -1.5138 1.1683 -0.403 
9980 0.46028 2.7688 -1.4436 0.36994 -0.2489 -2.9914 -0.58719 -0.52349 -1.4367 0.30904 -0.16961 -1.3859 -0.041078 
20500 -1.7675 2.146 2.0442 -1.5211 -1.3904 0.19454 2.5545 -3.7571 -0.90652 0.92625 -0.71712 -1.2011 -0.35907 
56723 -3.3919 2.2071 0.1317 -1.0655 0.12299 -1.5914 0.32306 -3.5328 2.1606 2.7205 0.21782 -0.58481 -1.0982 
V1042 0.27628 0.086785 1.8268 -0.37073 0.83819 -0.15659 0.31484 1.8067 -1.1822 0.78562 -0.47407 1.2281 0.61213 
3201 -0.94713 -0.67246 1.2692 -0.20774 1.3588 2.9213 0.023801 0.72601 -1.1691 -1.6487 -3.6093 -0.23645 0.1314 
5733 -0.9415 0.52127 0.58568 0.12225 -0.086801 0.50959 0.15849 -1.5427 1.4853 1.2642 -0.46792 0.67873 -0.70294 
8345 -0.39213 -0.60253 1.7581 0.66831 3.2552 -0.31199 -2.7157 0.15023 3.925 -2.0465 1.1686 -0.77606 2.1581 
78702 1.1916 0.50118 0.62196 1.0585 2.1468 1.7311 0.40311 -0.82939 0.2274 1.131 -0.74209 1.0947 -1.4042 
E9426 2.3835 -0.75932 0.4235 2.0356 1.7918 1.0812 1.3959 -1.1542 2.213 -0.73784 -0.42319 0.84463 -2.2939 
27803 0.32086 -0.01633 -0.86809 2.9999 -1.5761 -2.1696 1.4289 -0.91338 -0.39739 -0.44737 -3.8217 3.0619 -2.3779 
2883 0.63245 -1.0465 0.98509 0.15872 1.7844 0.49474 0.74412 -0.98822 1.4976 0.18337 -1.5021 1.2959 -1.6479 
57451 -1.5608 1.8537 0.35177 -0.39208 -1.9076 -1.5814 2.258 0.21599 -1.4535 2.0275 -0.61335 0.37777 -1.3024 
4542 -0.61906 -0.59779 -0.19989 -1.6717 0.99543 -0.61046 2.044 4.4383 1.2693 0.90324 0.6415 1.2408 -1.0198 
7213 0.95133 1.4941 0.8393 2.271 1.1157 -0.71914 -1.404 0.61829 -0.45438 1.0286 -0.14097 1.6862 -0.93893 
25082 0.52176 -0.15498 0.2412 1.6326 1.2413 -2.063 -0.35663 -1.7164 2.2388 0.20708 0.66101 2.9284 -0.41705 
5852 1.1534 0.14201 0.73852 0.48407 -0.050982 -2.2127 1.1554 0.15902 0.47124 0.73174 0.53305 2.3823 -0.41731 
7932 0.047614 -0.16151 1.0067 1.6049 1.5653 0.81372 -2.1545 1.5406 3.3812 0.57409 -0.097151 -2.0856 1.972 
5101 -0.63782 -0.10241 1.9214 -0.80749 -0.13939 0.028964 1.6123 4.0183 -0.42703 -0.39875 -0.23379 -0.56625 -0.83575 
9921 -0.25946 -0.72036 0.40241 -1.4262 2.4678 2.2033 -0.11666 2.2044 1.769 -1.1518 0.41348 -1.0726 0.75302 
56729 -4.1503 2.7858 1.5116 0.021502 -1.6787 -3.1089 -0.34605 -1.4228 -0.6632 0.54823 0.12218 0.51586 0.0077513 
5012 -4.1647 2.2086 0.6016 -1.1828 1.7156 0.41978 -0.48113 2.7282 -0.31962 1.2908 0.76612 -2.68 0.60875 
3669 2.6983 -0.2995 0.74126 0.53379 2.0176 -0.50119 0.57915 1.0778 0.23319 -0.31996 -0.10036 2.2293 -0.62076 
78909 -0.63294 1.3572 -0.10714 1.3458 2.4455 2.8563 2.4475 -2.0378 1.0896 0.80984 0.25237 2.7185 -4.6702 
55321 -2.8805 0.92668 0.89529 0.25488 2.0034 -2.286 -0.91205 1.1237 -1.3684 -0.1422 -0.62961 0.71572 -1.4248 
4632 -1.368 -0.99938 0.90447 -1.0735 0.093618 0.84007 -0.30147 2.444 1.345 -0.64751 -0.84058 -1.437 1.0835 
78722 1.4578 -1.5813 1.5511 0.65453 0.91604 -0.83934 0.61751 0.75709 0.2498 1.9696 -1.9659 1.7256 0.60905 
2689 1.1542 -0.25229 0.61503 0.91948 1.4713 -0.11025 0.26862 1.2757 0.47723 0.91651 -0.21 1.7996 -0.98319 
E8495 0.28769 0.32814 -0.55467 2.222 0.2065 0.12642 -1.9314 1.0828 2.5933 1.6289 -1.0762 -1.2251 1.165 
57511 -2.4075 1.3893 0.44372 -0.10667 0.72265 -0.91592 0.216 1.4273 -1.4361 1.4654 -0.38013 -0.22914 -1.0724 
0139 1.4046 -0.65524 1.6127 -1.2128 0.49529 1.5762 -0.83307 0.18094 0.94462 0.62168 -2.4151 -1.0015 3.348 
5551 -1.7367 2.4007 0.86924 0.9145 0.78557 -0.36522 -0.76404 1.2616 -1.3266 0.34208 0.94929 -0.39903 -0.22669 
28419 -1.3499 1.7726 1.5727 0.46622 0.15066 -1.105 0.59434 -3.5767 0.21894 3.856 -0.51467 0.43342 -0.28361 
4591 -4.1365 0.020317 1.3026 0.76537 2.3664 -0.55695 -0.46397 3.9011 0.23862 -0.010761 1.2689 -1.273 0.96497 
2939 1.1841 1.2641 -0.31598 0.5892 0.29169 -1.386 -1.5199 -0.16711 -0.88038 -0.33518 -1.2044 0.32363 0.77628 
V8801 2.7158 -0.18711 1.9808 0.68898 3.2836 -0.26848 0.43128 3.2849 -0.81763 1.4035 -0.19556 1.3602 -0.38259 
42611 1.9426 0.22769 -0.41325 -0.038906 0.56063 -0.86153 1.0217 -0.023462 0.32637 -0.13512 -0.29063 -0.37627 -0.74139 
V1255 1.6243 -0.71121 3.2095 0.84668 1.8652 -0.67572 0.87191 1.2543 -0.64471 1.0258 -1.646 0.96536 -1.5801 
4611 -2.3374 0.11849 1.6011 0.40972 1.4682 -1.8106 -1.2732 4.39 0.3488 -1.9455 0.72821 0.25671 0.10691 
3079 1.1055 -0.92286 0.51776 1.8156 1.133 0.89878 0.04663 0.33515 1.2984 1.9027 -1.2099 0.41778 0.24556 
5571 -2.1033 0.60443 -0.62222 0.090061 -0.064002 -2.4249 0.61309 0.27233 -1.2232 -0.27479 0.093067 0.42836 0.45261 
E9429 2.6356 0.28113 1.0777 1.2427 0.34822 1.3085 1.008 -1.2695 0.8867 -0.46363 -1.2717 2.7016 -1.7428 
72887 2.7762 -2.5439 1.4252 1.4077 1.5903 -1.198 1.1861 -0.28642 0.97061 1.1675 -2.4339 1.5879 0.86808 
07051 -2.8023 0.82082 -2.7098 -0.25973 0.23723 1.1258 -0.15354 -1.5339 1.263 -0.45734 0.75439 -0.54138 2.0599 
3559 0.60158 0.035722 -0.78354 0.56661 1.4083 0.36393 0.55392 0.33072 0.27029 0.66027 -0.34558 2.6164 -0.34396 
28803 -0.062717 0.98937 4.0144 -1.5111 1.1202 0.48036 0.19019 -2.6383 0.7575 2.0173 -2.0532 1.3321 -1.7591 
59010 -2.156 1.4354 1.8006 -0.37165 -1.8547 -1.0692 0.69941 -0.73805 1.0532 0.10934 0.90065 3.2815 -0.25285 
4823 -2.5063 -0.27241 0.0017851 -0.56486 1.7221 -0.8391 0.14498 4.3361 2.0607 -0.71128 1.8748 -1.0929 -0.20001 
E9323 0.46744 -1.4224 -0.10381 0.44831 2.5592 -0.18157 0.41271 -1.721 1.8589 -0.61018 -0.61273 3.0555 -0.30634 
E9359 0.24193 0.7137 -1.7915 -0.42285 0.11819 -0.70907 0.80756 1.343 1.3903 2.5035 0.082637 1.6184 -0.80637 
78062 1.379 0.7469 0.49879 1.1142 2.2148 0.22086 -1.3091 0.41149 -0.36778 1.4279 -0.93737 0.88893 0.062884 
42613 2.3628 1.3441 0.29256 0.54937 -0.23908 -0.89245 0.79466 -0.46862 -0.55683 -0.98301 0.18705 -0.14712 -0.46631 
99739 -0.84299 1.7211 -0.055909 1.3621 0.66585 -2.257 -1.8507 -1.0985 -1.3229 0.40838 -2.3817 -0.55194 -1.0092 
0239 0.66639 -1.4107 1.683 0.021172 0.87183 2.2083 -0.027691 0.3433 0.63902 0.64036 -2.1031 -0.81866 4.1771 
