2194 100
PotassiumChloride -0.33149 1.6262 1.6379 -0.90205 -0.77664 -0.9249 0.41748 -2.3205 -0.87849 0.26612 -1.2794 -1.0005 0.039861 1.5324 -0.38449 -0.7113 -0.29086 -0.23387 0.38129 -0.25273 1.1372 0.13671 0.94929 0.56297 0.73952 0.52979 0.98853 -0.10539 0.71469 1.0565 -0.74316 0.031387 1.6304 0.32864 -0.62579 0.094293 1.0306 -0.12335 -0.94096 -0.21543 -0.67947 -0.12466 0.061148 0.25115 -0.061752 -0.054859 0.11414 -0.94169 1.0201 -0.57249 0.7639 0.87259 0.28204 1.2301 0.49361 -0.49636 -1.2208 -0.45105 1.973 -0.44687 0.52051 0.43661 -0.17524 -0.90442 -0.38351 1.2522 -0.59701 -0.70152 0.10949 0.97893 -0.39084 0.41537 -0.88867 0.94855 -0.63989 0.21652 0.085026 1.5642 0.42025 -1.2522 0.62025 -0.057944 1.2346 0.23354 -0.25114 0.10202 0.80325 -0.89146 1.0552 -0.19694 0.57381 0.038497 0.091946 0.71935 0.27664 0.62528 0.81208 0.1374 0.83056 -0.083114 
Insulin -0.6442 0.10707 1.6599 -0.68267 0.82811 -0.15373 0.62203 0.1033 -0.83785 -0.20407 -0.36119 -1.0713 0.20718 0.38106 -0.11591 -0.61344 0.35164 -1.1939 -0.025909 -0.15471 0.75649 -0.89821 0.10579 0.36035 -0.67518 -0.30346 -0.13092 0.0023669 0.59442 -0.91295 -0.12664 -0.34663 -0.012425 0.79082 0.16843 0.41396 -0.0701 0.96607 0.10468 -0.76904 0.52845 -0.30616 -0.4512 -0.62839 -0.70102 -0.38563 -0.27599 -0.84102 0.032501 0.90489 -0.31257 0.38736 0.41143 0.52436 0.49761 -0.71564 1.0645 -0.10812 0.98081 -0.65873 1.0323 0.63898 0.74439 -1.0444 0.17588 0.1766 0.098253 -1.0505 -0.19714 -0.4101 0.75007 -0.42562 0.82182 -0.013244 -1.062 -0.37789 -0.76942 -0.050232 -0.96713 0.052708 0.2476 -0.97691 0.3157 0.91179 0.78987 -0.031995 -0.37148 -0.93667 -0.079725 -0.84932 0.20901 0.72353 -1.5123 -0.74771 0.57376 -0.80229 1.1128 -0.14993 -0.16869 -1.3461 
D5W 0.46738 0.15786 0.29809 -1.5603 1.8699 -0.86262 0.63943 -0.86994 -1.2036 -0.61463 -1.8781 -0.51075 0.70135 -0.41018 0.15976 -0.23359 1.5824 0.099011 0.64018 0.33909 0.59513 -0.65975 0.7939 -1.5581 0.019862 1.0605 -0.16789 -1.155 -1.0025 0.76123 0.40397 0.087658 0.31956 0.10637 -0.79358 -0.14519 -0.11141 -0.1648 0.84716 -1.9863 0.16664 1.1661 0.52466 -0.35387 -0.81239 1.2516 0.43454 1.0049 0.2113 0.35115 0.38691 -0.73345 1.3878 -0.30049 -0.95857 0.25158 0.55432 -0.40035 0.065719 0.28787 1.6754 0.76542 -1.2413 -0.63925 -1.7287 -0.39444 -2.2007 0.125 -1.8527 -1.3907 1.0908 -0.3302 0.44211 -1.4419 -1.7861 -0.13421 1.7535 -0.35467 -0.43097 -1.836 1.4747 0.12594 0.20062 0.57437 -0.82411 -1.2723 -1.5143 2.1138 -0.0087553 0.83498 -1.3504 0.43319 0.61807 0.75102 0.73542 -0.74132 0.001144 0.25256 0.89638 0.047105 
Furosemide -0.84575 0.58617 -0.58239 -1.2516 1.6595 -0.17699 1.343 -0.81242 -0.79861 0.27434 -1.1022 1.0029 -0.14381 1.9321 -0.52843 -0.43393 -0.21448 -1.4846 0.12283 0.96539 1.6082 -0.3868 0.21995 0.64985 -0.22007 0.19356 -0.22673 0.43979 -0.36117 0.77302 0.98331 0.02569 1.3633 0.8042 -0.5038 1.1059 -0.89098 0.072061 0.20016 -0.044233 0.51812 0.30023 -0.17245 0.4616 -0.74303 0.32916 1.2874 0.1799 1.1522 1.2187 -1.1507 1.4474 0.33052 -0.17068 1.0901 0.77872 -0.64241 0.013209 -0.24685 -0.57766 -0.23161 -0.14322 -0.81659 0.20242 -0.91803 -0.015522 -0.44201 0.00023498 -0.27601 -0.2112 1.142 -0.10496 0.33281 -0.036535 0.23594 -0.8432 0.15014 -0.12812 -0.86579 0.50959 0.2355 0.065001 2.4799 -1.0176 -0.61003 -0.069375 -0.96664 -0.068662 -1.4651 -0.55207 -0.67231 -0.88777 -0.032057 -0.16765 0.074872 0.20053 0.088575 -0.28621 -0.74534 -0.32862 
0.9%SodiumChloride -0.90193 0.21791 -1.1787 0.47323 -0.53977 -0.12168 0.97945 -0.62875 1.0582 0.07856 -1.0225 -0.1862 -2.2634 -0.014507 1.3668 -2.254 -0.7738 1.6238 -1.9677 1.392 -0.60162 1.2839 -0.66603 -0.32481 -1.2396 0.66873 -0.38362 1.0588 0.48079 2.7849 -0.57175 -0.7472 -0.77691 -1.3656 -0.6178 0.60568 0.19423 -0.58307 0.57086 -0.87121 -2.8206 0.63723 0.20206 2.6069 -1.8899 -2.0284 -1.473 -1.3581 0.051286 -0.66887 -0.64163 0.42022 0.5302 -0.84901 -1.12 -0.55221 -0.081661 0.47513 0.4973 0.72843 0.55119 0.54488 0.18314 -1.493 1.0043 0.1362 0.72024 0.12925 -1.1401 -0.038061 -1.9124 0.74591 1.1114 0.39027 -0.50403 -0.31629 -0.16439 -0.10114 -0.53071 2.0247 -0.41296 1.3694 -0.028521 1.356 2.0432 -0.63344 -1.6655 0.82105 0.40797 0.52928 1.8331 1.2022 -0.7367 -0.28811 1.177 0.11479 -1.1555 -2.8694 -1.0724 0.32874 
NS 0.37619 0.69992 -0.73904 0.83691 0.87182 -0.90273 -0.051842 -0.74232 -0.79904 0.1736 -1.1728 0.66819 1.2303 -0.01372 0.8763 -0.25441 -0.097825 -2.9752 -0.64343 0.32003 0.52268 0.54533 0.38322 -2.4601 1.5356 1.3982 -1.5405 0.69218 1.2646 0.41395 -0.95798 -0.57365 0.12494 0.49986 -1.3576 0.11958 -1.3726 -0.014844 1.4302 0.57025 -1.0403 -0.93568 0.46446 -0.0048344 -0.59005 0.18931 -1.0461 -1.0703 -0.2783 -1.7844 0.36772 -0.22873 0.90748 -1.0827 -0.65285 1.2903 -1.3529 -0.4587 0.64115 0.7297 0.38744 0.50481 -0.35846 -1.2075 -1.2573 -0.62931 0.19272 -0.69609 -1.7256 0.77196 1.1616 0.4114 1.0818 -0.46082 -1.7442 -0.54945 0.78638 -1.1435 -0.93967 -1.0497 0.76479 0.3065 -0.14952 0.9479 0.16697 -1.5799 -0.42744 -0.31189 -0.11963 0.97876 0.23057 0.90186 -0.29842 -0.39788 0.81645 0.92579 -0.93329 0.079983 -0.24515 -0.59631 
MagnesiumSulfate -0.16192 0.53751 0.44067 -0.18648 0.42825 -0.21325 -0.34176 -1.0169 0.016949 -1.1866 -1.4372 -1.0505 1.2805 -0.33029 0.035477 0.59714 -0.27821 0.45395 0.37404 0.17677 -0.39209 -0.94646 -0.15096 -0.74876 0.20795 0.82531 1.288 1.3218 0.46845 -0.011481 0.031684 0.045087 0.65438 0.22368 -0.66271 0.14635 1.0138 -0.014109 0.049905 -1.6378 0.78934 0.14972 0.69942 0.77561 -0.82129 -1.0018 0.81781 0.23512 0.67593 -0.2103 -0.033117 1.4807 -0.013695 0.41234 -0.52476 0.336 0.4931 1.4829 1.3123 -0.48406 -0.55541 0.17694 -0.15146 -1.1393 -0.1746 1.5567 -0.87931 0.19363 0.28578 2.3978 0.39884 1.0887 1.0566 -0.17073 -0.11451 0.83813 0.539 -0.92447 -0.50457 0.63599 0.35386 0.081341 1.204 -0.3758 0.47056 -1.0086 0.12073 -0.83636 -0.60586 -0.24153 0.060788 0.21803 -1.1786 -0.63998 0.3582 0.16454 0.52963 0.16373 0.68462 -0.30101 
Iso-OsmoticDextrose 0.0037776 0.48414 -1.1123 -0.29903 1.0569 -0.69905 0.73558 -1.9046 -0.01614 -1.1547 -1.5724 0.039505 -0.58352 0.56343 0.41652 0.68706 1.3929 -1.1494 -0.36835 1.0572 0.43879 0.44951 -0.28397 0.26202 -0.22252 0.044429 -0.46898 0.60322 0.35614 -1.0718 0.063923 1.2023 1.0498 -0.68116 -1.4781 0.22434 0.4615 0.81584 -0.36574 -1.049 -0.29622 0.85842 -0.094026 -0.6098 0.61446 1.049 0.11578 0.94773 0.9337 -0.74348 -0.0074743 0.70379 2.0053 -0.048451 0.1582 0.043862 0.097875 -0.19207 0.75155 -0.42102 0.672 0.9656 -0.73584 -0.67909 -0.63053 -0.33119 -0.57564 -1.1893 -1.9312 0.96653 -1.7016 0.13646 0.01593 0.33053 -0.45476 1.252 -1.1007 -0.59551 -1.2781 -0.23378 -0.50296 0.38338 1.0503 0.22648 0.90571 0.97932 -0.19159 -2.1043 -0.86307 -0.25603 -0.86288 1.0016 -1.2848 0.32876 0.089657 0.60867 0.93068 -1.1353 -0.3209 -0.017354 
SodiumChloride0.9%Flush -0.067783 -0.075341 0.095147 -0.090533 -0.18936 -0.30362 0.29554 -1.4954 -0.43818 -0.27973 -0.59807 -0.44657 -0.50845 -0.23886 -0.11574 0.27016 -0.21981 0.85295 0.72765 0.52331 0.19096 -0.86026 0.47265 -0.072517 0.3307 0.14189 -0.021312 0.55691 0.012443 -0.035566 -0.56753 0.022913 0.46079 -0.10984 -0.50255 0.23174 0.82469 0.46248 0.41457 0.096325 -0.21272 -0.1008 0.087012 0.044719 -0.38019 -0.81886 -0.61331 -0.066392 0.57878 -0.31718 0.62028 0.77661 0.43658 0.46674 0.39131 0.73619 -0.8139 0.061928 0.085061 -0.26905 -0.44282 -1.088 0.49984 -0.52717 0.94643 0.98403 0.22954 -0.5386 -1.3219 0.45536 0.14939 -0.60514 0.49831 0.56302 -0.6942 0.029242 -0.05142 -0.30378 -0.27092 0.75677 0.1228 0.29 0.27203 -0.17097 -0.30701 1.0069 -0.4437 -0.091993 0.0018224 -0.29703 -0.68869 -0.22804 -0.36414 0.092608 0.80839 -0.82402 -0.056569 -0.73702 0.47824 -0.8569 
Acetaminophen 0.30851 0.28941 0.47707 0.2291 0.34464 -0.19305 0.10374 -0.54555 -0.47798 -0.7206 -0.34308 0.15375 -0.89585 -0.11865 -0.010305 -0.039826 0.015709 0.90867 0.057939 0.11932 0.73702 -0.58683 0.78813 -0.12061 -0.60988 0.23963 -0.38992 0.93864 0.4105 -0.10554 -0.96563 0.40142 0.72939 0.094167 0.0029287 1.0479 0.43657 0.60191 0.20691 -0.56714 0.16508 0.69241 -0.36546 0.96269 0.23118 0.21745 -0.37644 0.12503 -0.19037 -0.84527 -0.2927 0.90302 0.055779 -0.014447 0.78787 0.064295 -0.40912 0.13953 0.65435 -0.86653 0.56212 -0.24386 -0.11483 -0.38789 -0.12729 0.017713 0.43401 -0.41621 -1.625 0.6567 0.20426 -0.74299 1.3688 0.82625 -0.93517 0.45805 -0.20907 0.035516 -1.2767 0.60501 0.23265 -0.19849 -0.05765 -0.82868 -1.0488 -0.08794 0.59709 0.45379 -0.29252 0.44985 -0.78986 -0.18812 -0.28879 -0.3825 0.19471 -0.23822 0.10102 0.15693 0.3372 -0.94623 
Metoprolol -0.061065 1.2392 -0.33072 0.044092 2.4228 -0.72131 0.84308 -0.22904 0.34218 -0.30248 0.34805 1.0756 2.2917 0.14399 0.37121 -1.1257 0.23319 -1.9358 1.7085 0.11505 1.6384 -0.9713 0.1827 -1.7986 0.49793 -0.10269 0.69632 -0.0031928 -0.64241 0.10412 0.95901 0.11605 0.99548 0.97344 -0.2205 -0.83009 -0.13548 0.10697 0.82062 -1.1187 -0.50132 0.75512 -0.95484 0.049945 1.8623 0.68393 -1.3519 1.6499 0.040183 -0.50972 1.6828 0.22954 -1.0052 0.47617 -0.72575 1.0769 -1.5123 -0.47828 0.55047 1.7827 1.266 -1.0048 0.32854 -0.8221 0.76359 -1.9184 0.21821 -0.58644 -0.51093 -0.27673 2.6365 -0.808 1.0018 -0.54369 -1.8737 1.1107 1.4733 0.25373 -2.1124 -1.5106 0.52393 -0.19136 -1.8015 -1.1174 -0.063636 -0.70327 -0.61621 -0.51989 -0.4377 -0.95837 0.39869 -0.023675 0.65352 -0.73662 -0.43432 0.18549 0.34058 1.5678 0.93819 0.041033 
5%Dextrose -0.31924 0.42013 -0.96026 0.67145 -0.9239 -0.56793 1.1311 0.7036 0.29417 -1.467 -2.0194 -0.18244 -1.2324 -1.0797 0.33511 -1.9024 -0.33933 1.3192 -0.48694 2.3648 -0.37451 -1.328 1.9489 1.3209 -0.48504 1.4075 1.0071 0.65926 -0.53504 2.6796 -0.0073362 1.0671 0.20103 -0.69733 -1.2123 1.627 -0.71243 1.1456 1.4293 -0.31646 -1.4907 2.7365 0.90061 0.4946 -1.4759 -0.20966 -0.7063 1.3932 0.61299 1.3641 -0.95451 0.39281 -0.11781 0.22849 -0.61684 -2.1086 0.56796 0.44051 -0.18443 -0.79585 -0.047267 0.56756 -0.85405 -0.59672 -0.65211 0.91721 -0.57935 1.5539 -2.5467 -0.54131 -2.2393 1.8866 -0.45126 -0.98599 -1.4746 -1.3097 0.025552 0.33962 0.63466 1.1995 0.71812 0.26698 -1.1563 1.1041 1.4879 0.58961 0.015495 1.1186 0.24679 -0.48507 0.30442 2.0772 0.94309 0.76742 1.4181 -1.865 -0.28731 -1.1442 -1.2892 -0.38223 
SW -0.84319 -0.53278 -0.31907 1.291 1.1209 0.15793 0.75912 -0.15376 0.51066 -0.024223 -0.84592 -0.10377 0.10824 0.125 -0.096645 -0.10555 0.38632 0.24347 -0.47599 0.42385 0.31113 0.5078 -0.27447 -1.2073 0.36807 0.72166 -0.95012 0.19207 -0.32759 1.2502 -0.88994 0.98681 -1.4792 1.159 -1.5968 -0.16575 -0.55605 0.29808 0.43453 -0.36163 1.0861 0.32345 1.9393 -0.736 0.29748 0.83443 -0.30321 0.22707 1.1844 -1.2277 -0.97749 0.54756 0.41054 -0.37597 0.93063 1.1547 -0.2845 -0.22988 -0.45199 -0.84653 1.015 0.19763 -0.6864 -1.7247 -0.62754 0.43403 -0.48615 -1.0412 -1.6805 0.22498 0.5938 0.88745 1.0233 0.52251 -0.25356 -0.49749 1.1491 1.7676 -1.0486 -0.26016 0.55433 -0.91699 -1.0651 -0.61972 1.0126 0.0045085 -0.27168 -0.13368 -1.0143 -1.0683 -0.44784 -1.605 -0.44526 0.20152 1.2071 1.1062 -0.23597 0.69359 -0.1049 -1.615 
MorphineSulfate -0.42141 0.86576 0.35476 0.41951 -0.070171 -0.64489 0.40768 -0.81648 -0.18562 -0.93326 -0.4815 0.21132 -0.13689 -0.65732 -0.32878 -0.69356 0.31641 1.0755 -1.2798 -0.041951 0.53151 -0.24565 0.22529 0.085108 0.13127 0.94132 0.65875 0.9026 0.0039457 -0.50319 -0.63626 0.4092 0.88203 -0.15029 -0.19341 0.63256 -0.4523 0.42459 -0.17769 -1.5723 0.93042 0.073002 -0.18791 0.33282 -0.36363 0.53797 0.64808 -0.46038 0.3615 -0.49055 -0.22156 0.48427 -0.29676 -0.75484 0.93857 1.4473 -0.080521 -0.27307 0.45905 -1.4224 0.47495 -0.83195 -0.27578 -0.14204 -0.33098 -0.67534 -0.51426 -0.59074 -1.21 0.44359 -0.10678 -0.43202 1.1876 0.53708 -0.46795 0.43636 -1.1004 -0.073069 -0.47731 -0.77377 1.2114 -0.080103 0.015092 -0.51867 -0.61515 -0.20738 -0.25138 -0.48203 -0.44262 -0.13392 -0.87571 0.32565 0.05386 -1.0653 1.1726 -0.058547 -0.90055 -0.10946 1.8201 -1.0678 
MetoprololTartrate -0.97428 1.0054 -0.055046 1.5731 0.86267 1.1106 1.6816 -0.47148 0.50206 -0.045512 -0.17102 0.18932 -0.6153 0.99223 -0.41733 -2.8851 -0.097967 1.4952 -0.44051 2.3813 0.05634 -1.0455 0.38385 0.063935 -0.27676 1.964 2.1966 0.49158 -0.08922 1.2102 -0.44276 -0.76296 0.9396 -0.28301 0.58885 1.0088 0.41445 1.6707 0.28851 -1.8333 -1.2321 1.2477 -0.34656 0.0072164 1.13 -0.35829 -0.24935 0.61638 0.49395 -0.18214 0.28385 0.96781 -1.1315 0.60112 0.73925 -0.7252 0.0043018 0.26389 -1.3415 1.6459 0.098602 -0.63145 1.5913 -0.21976 2.2623 1.181 0.26655 1.7679 -1.1181 -0.37934 -1.02 0.2077 -0.66641 0.098283 -0.021295 0.19779 0.47016 0.71121 -1.0449 1.6197 1.0307 0.69066 -1.5156 0.82815 2.3691 0.32626 -0.40578 -0.66931 -0.5753 -2.6674 2.1597 0.07403 -0.052036 0.10045 0.44693 -0.51969 -0.1426 -0.66056 0.070622 0.62836 
Lorazepam -0.75865 0.97245 -0.17269 0.56767 -0.32854 -0.74487 -0.40637 -0.14519 -0.43195 0.36745 -0.025112 -0.24223 -0.73859 0.32227 0.014218 0.91798 0.17815 -1.1287 0.19868 -0.471 0.82183 1.006 0.22374 0.44395 -0.29768 1.3114 -0.59321 1.3704 -0.78179 0.18759 -0.16359 0.94275 0.66719 -1.0464 -0.14255 -0.13166 0.12884 0.13174 -0.30711 -1.2035 0.59096 -0.066524 0.49648 0.31637 0.58661 0.12238 -0.24245 0.1913 -0.32059 0.667 -0.69023 1.4732 -0.11271 -0.33244 0.052269 0.85877 0.3326 -0.97588 0.6753 -0.33314 -0.38499 0.36609 -0.89714 -0.76485 -0.15714 0.092266 0.56131 0.12662 -0.14631 0.30491 1.3156 -0.41688 0.46024 0.020103 0.19614 0.27479 0.031698 0.9331 0.026621 0.24066 0.85917 0.065889 -0.47211 0.32331 0.39838 -0.51074 0.46919 -0.50049 -0.73456 0.46427 -0.053032 -0.31998 0.2715 0.73952 0.18588 -0.45563 -0.24403 -0.27676 0.70187 -0.79306 
CalciumGluconate 0.021029 0.31766 0.95281 -0.42627 0.017392 -0.69617 0.77209 -0.59719 1.239 -0.3069 -2.0066 0.39249 -0.49299 -0.49983 -0.24366 -0.19465 -0.0086305 0.61253 -1.0114 0.79593 0.29974 -0.67878 0.18532 -0.92417 1.1832 0.029253 0.024729 0.34658 0.25299 0.57077 -0.22488 0.51932 0.89853 -0.14652 -1.6168 -0.35888 -0.91727 0.73926 0.60398 -0.5614 -0.047093 0.54679 0.97886 0.23577 0.30814 0.94412 -0.99989 -0.61889 1.4163 -0.076064 0.1494 1.6567 1.0709 1.0467 0.036697 0.12047 -0.28229 0.61722 -0.065048 -0.31155 1.3742 0.90135 -1.2601 -1.1421 -0.26901 1.7761 -0.33326 -0.45591 0.15826 0.02251 -0.54206 -0.16365 1.4964 -0.79112 1.5679 0.070752 0.40542 0.41159 -1.0107 1.2861 1.3367 -1.4733 -0.023178 -0.71693 -0.4592 -0.061941 0.052307 -1.4389 -0.24337 -0.026788 -0.26487 0.63505 -0.77186 0.707 1.0637 -0.42635 -0.073763 0.73897 0.8241 -0.92919 
Heparin -0.46664 0.013811 0.23484 -0.09954 -0.71318 -0.82211 -0.33291 -0.60383 -0.19575 -0.020778 -0.37627 -0.13456 -0.28881 -0.26414 -0.1305 -0.2747 0.96366 -0.16014 -0.21398 -0.31936 0.30325 -0.34305 0.10445 0.17636 0.58858 0.50586 -0.65745 0.60568 -0.15249 0.27823 0.26862 -0.11852 0.38423 -0.59272 -0.45967 -0.4386 0.25722 0.4287 -0.43444 0.096018 0.30431 -0.39528 -0.16435 -0.61161 -0.070009 -0.4978 -0.0092098 0.76942 0.77469 -0.010604 0.15277 0.69919 0.60213 0.73842 -0.33997 -0.4618 -0.21013 -0.7979 0.39258 0.01653 0.0018065 -0.23776 0.28066 -1.4287 0.47415 0.60587 0.37943 -0.021641 -1.0229 0.06108 0.74751 -0.37149 -0.016325 -0.24072 -0.21646 0.45137 -0.40546 0.089029 -0.47406 1.4208 0.12132 0.23071 0.46577 -0.20213 -0.38873 0.22495 -0.22079 -0.29974 -0.47148 -0.42339 -0.0016775 0.92596 -0.70567 0.22919 1.1682 0.74975 -0.83598 -0.28472 0.35858 -0.51604 
DocusateSodium -0.42181 -0.22874 1.7187 0.33302 1.0483 0.25828 0.59566 -0.50246 -1.1718 -1.3138 -0.14585 0.98823 -0.20931 -0.037886 -0.18299 -0.14094 -0.33838 0.54911 0.2298 -0.73853 0.1704 -0.32071 0.60383 -0.072776 0.2172 0.19985 -0.33407 0.62375 -0.23409 0.09389 -0.42095 -0.63163 -0.083425 -0.47821 -0.75475 1.4674 1.2539 0.68651 0.22538 -0.73527 -0.41639 0.25285 -0.8318 0.81989 0.017918 -0.34355 -1.3078 -1.0263 0.26555 0.69817 -0.23788 1.0762 0.42893 0.33781 0.3743 0.23815 -0.4947 0.1859 -0.34439 -0.99039 0.28213 -1.3047 0.23245 0.1545 -0.28547 0.29536 0.66936 -0.72506 -1.353 0.8408 0.14809 -0.04541 0.18331 -0.22124 -0.77011 0.54721 -0.72396 0.44297 -0.38376 0.15293 -0.11514 -0.35909 0.17935 -0.19783 -0.78495 0.19161 0.52766 -0.10639 -0.98054 0.0042759 -1.3315 -0.13615 -0.63117 -0.20505 -0.14262 0.34388 -0.52899 0.0096553 0.36105 0.22881 
Vancomycin 0.38901 -0.10448 -0.32114 1.0629 -0.9652 1.3466 0.051784 -0.44789 -1.2785 -1.082 -0.093479 -0.5002 -1.8051 1.3102 -0.5185 -1.5879 -0.06309 0.99801 -0.25284 1.837 0.61231 0.41869 -1.5922 -0.19983 1.4947 0.48556 0.91877 0.42519 0.69576 1.9901 -0.55748 -1.3154 0.47159 0.013697 0.41612 0.32082 -0.74525 2.4042 -0.34773 -1.1917 0.47637 0.10211 0.58201 0.37142 -0.31558 -1.0655 -0.70338 -0.48839 0.90151 -0.14203 0.13347 0.064367 1.177 -1.0927 0.34423 -0.39083 0.41156 0.52208 -0.078658 -1.1895 -0.78081 -0.17395 -0.20029 -1.5586 0.46293 0.47046 0.49325 1.0013 -0.33994 -0.099865 -1.2631 -0.4537 0.82528 1.2665 -0.93096 -0.61033 -0.86405 0.54684 0.1997 1.7751 2.0577 1.0081 -0.20928 0.38951 0.027206 0.9866 -0.39626 1.261 0.68204 -1.1771 1.4754 -0.20151 0.96869 0.54567 1.6736 0.1965 -1.6496 0.1319 -1.7452 -0.46875 
Bisacodyl -0.027367 -0.055136 0.50414 -0.077665 0.81429 -0.86505 0.39737 0.35066 -1.305 -0.13615 0.11354 0.48098 -0.12973 -0.15399 -0.18931 0.69091 0.4719 -0.24194 -0.4017 -0.23074 0.766 -0.97261 0.69806 0.46589 0.65205 0.41748 -0.45034 0.13552 -0.19847 -0.58686 0.40883 -0.049077 -0.67149 -0.37911 -0.4558 0.6914 -0.097617 0.85164 -0.25188 -0.97785 0.030937 0.15175 -0.35541 0.35802 -0.7506 -0.32407 0.052178 -0.34673 1.0382 -0.050517 0.54591 1.1272 -0.096204 0.505 0.40165 -0.1981 -0.31976 -0.072318 0.043332 -0.93334 -0.41948 -1.6547 0.77765 -1.1843 -0.092978 0.099013 0.85863 -0.42669 -1.0517 0.83048 0.25505 -0.64526 -0.36864 0.16792 -0.1371 0.69031 -0.086587 0.44367 -1.475 0.3967 0.055595 -0.17823 0.24259 -0.66853 -1.0719 -0.56711 -0.54749 0.10078 -0.6028 -1.0063 -0.048228 0.13959 0.3422 0.66255 -0.17491 -0.98766 0.2751 -0.30657 -0.78796 -0.54841 
Warfarin -1.4524 0.71058 0.15081 -1.5836 0.17246 0.72919 0.0054794 0.21671 -1.5588 -0.74991 -0.20228 0.97386 0.38357 0.53695 -0.57144 -0.21586 0.18547 -0.59872 -0.52949 0.0030656 0.30019 -1.0028 1.9591 0.09152 -0.43169 -0.50509 -0.6278 0.54585 -0.85604 0.94206 0.68274 -1.4746 0.19732 -0.087904 -0.061952 -1.3209 0.13215 1.0575 -1.6894 0.82546 0.013751 0.93628 -0.37909 0.61352 0.55692 -0.34905 -0.10384 0.9977 -0.011942 -0.18766 -1.5021 1.1928 0.064482 -0.86989 1.2704 -0.062363 0.28777 0.71101 -0.021766 -0.4795 -1.6209 -0.65588 -0.35836 -1.0261 0.74355 -1.0383 0.89777 -0.66395 -1.7226 -0.59728 1.0477 0.37827 -1.2167 0.52747 -1.4698 0.41621 0.030967 1.7072 0.30303 -0.19007 0.57574 -0.89952 1.1588 -0.2405 -1.181 0.78938 -1.3636 -0.6056 -0.12166 -1.4452 0.24942 0.17707 -1.0335 -1.3315 -0.25445 0.80309 0.4202 1.224 0.04217 0.28095 
</s> -1.199 -0.54637 0.18703 -1.4124 0.3045 0.58461 0.40732 1.1766 0.75185 -0.16374 0.015356 0.9575 -0.43154 1.6399 -0.39101 1.0137 1.1276 -1.0481 0.54091 -0.42414 -0.050377 0.14875 0.10461 0.35502 -1.3057 -0.33401 0.13291 0.15895 -0.49027 -0.10796 0.7022 -0.81673 -0.10404 -0.19466 0.56198 0.46172 0.95742 0.30099 -0.19981 0.29348 -1.1949 -0.056656 -0.053044 0.82516 0.49298 0.033195 0.7976 0.051608 0.63443 -0.91626 -0.32153 0.005903 -0.99475 -0.024669 -0.53347 0.87266 -0.2067 -0.50292 0.64706 -0.53975 -0.96776 -1.4814 0.80135 1.2849 -0.15756 0.39205 -0.0088179 -0.40822 0.17044 0.46674 0.20697 0.46702 -0.12206 0.78059 -0.55888 0.60051 0.25715 0.82187 -0.060361 -0.5992 0.12639 0.73753 0.088078 0.38927 -0.659 -0.32047 1.6934 -0.22521 0.5537 -0.78119 0.15555 0.034296 -0.25635 0.47617 -0.82396 -0.29464 0.30184 -0.39117 -0.38039 -0.64067 
HeparinSodium 0.014723 0.80557 0.72919 0.62471 0.24792 1.9508 0.51356 -0.57691 -0.60054 -0.57581 -0.57223 0.029976 0.31102 1.858 -0.88004 0.36319 -0.4517 -1.3861 -0.92924 0.73942 0.84758 0.30457 -0.53645 0.21647 0.079352 -0.8397 0.68436 0.9867 -0.10409 -1.1614 -0.016677 -1.0139 1.6341 0.67749 0.20005 1.2834 0.12035 -0.22316 -1.1251 -0.90162 -0.95795 -1.4537 0.54968 -0.13673 0.15373 0.81128 -0.076979 -0.30515 1.6024 0.60846 0.26435 1.4443 -0.60845 -0.80041 0.29953 1.9446 -1.3516 0.19985 0.12751 -0.43134 0.12084 -0.046184 0.87843 -0.36456 0.37452 1.4455 0.19116 -2.0599 0.084368 0.088248 0.33574 0.19084 -0.80622 2.2398 -0.067302 0.21341 0.57746 -0.92495 -0.91755 0.046649 0.24056 -0.54694 -0.31352 -0.74053 0.046652 0.84436 0.96658 -0.27273 -1.652 0.062777 0.6775 -0.50512 -1.7598 -0.65243 0.018063 0.16328 -1.0291 0.28079 -0.83831 -0.60233 
HYDROmorphone(Dilaudid) -1.1963 1.1485 -0.63998 1.1201 -0.45786 -0.33038 0.21928 -0.66723 -0.16047 -0.83559 -1.5859 0.21736 -1.6703 0.021823 -1.4574 0.24941 1.053 0.70185 -2.3653 0.6606 -0.427 -0.25131 0.4384 0.098519 0.21907 2.0159 1.8038 0.31155 -0.3341 -0.1629 -0.53645 -1.2696 -0.8308 0.52305 0.78524 0.028579 0.3519 0.61332 -0.66279 -0.44431 0.39126 1.9425 0.02671 0.12163 -1.0109 -0.61702 -2.5151 -1.4495 0.14629 -0.49618 1.7091 -0.053733 -0.068463 -0.88689 0.44872 1.5905 0.42726 0.70747 -0.17331 -0.59189 -0.24796 -0.55904 0.17855 -0.63393 1.2342 0.68096 -0.39522 0.52678 -0.5546 0.87594 -0.49595 -0.58956 0.38692 -0.50814 0.035736 -0.26583 -0.76786 0.7971 -0.40983 0.82803 1.0177 1.0521 0.15615 -0.27476 0.056011 1.1294 0.72708 0.62308 0.43801 -1.1333 -0.069677 0.82713 -0.46572 0.10902 0.6118 -0.85789 0.98476 -1.8625 -0.86067 -0.012194 
LR -0.6267 0.66201 0.27942 0.27248 -0.51466 1.3312 -0.59801 -1.2209 -0.73894 -1.8833 -0.6132 0.56994 -0.62483 -1.3192 0.56185 -0.1002 0.099913 -0.11882 -1.5085 0.28751 0.24143 -0.35071 -0.23929 -0.90686 1.0045 0.94825 -0.12493 -0.97891 0.16048 1.6762 0.21677 0.13329 1.4063 -0.25947 -1.1084 -0.57699 -0.42212 0.80164 -0.4084 -1.1401 -0.21881 1.4853 1.934 -1.0225 -0.58712 -0.88684 -0.41841 -1.25 0.56095 -1.992 -0.52075 0.38357 0.75601 0.30862 1.4213 1.2469 -2.316 1.1096 -0.020922 -0.25702 0.27175 0.14413 -1.9213 -1.2755 -0.24869 0.15627 -1.1571 -0.00068298 -1.2031 0.59304 0.1333 -0.53625 1.2934 0.81659 -1.0614 -0.30191 1.142 -0.85958 -1.3368 0.80394 0.89053 -0.56557 0.96862 -0.70827 -0.13383 -1.6069 -0.93702 -1.0517 0.66578 -0.32937 -1.2434 -0.44695 -0.34791 0.36648 0.36464 -0.87487 0.62493 0.27059 -0.33365 -0.44069 
Propofol -0.41707 0.18913 0.82586 1.4204 0.32311 -0.35121 0.90603 -1.7199 -0.07076 -1.1433 -1.3349 -0.035201 -2.2876 -2.1497 2.041 -0.13811 0.86747 0.7277 -0.39516 1.02 0.35253 -1.9889 1.2982 -1.1269 0.78874 -0.75454 -0.13839 0.31555 1.232 0.91475 -0.82779 -0.16407 1.344 0.65499 -1.5256 0.094901 -0.74765 0.79536 -0.22047 -2.0269 -0.51678 0.54707 0.93077 0.37668 -0.12457 0.03645 -0.95666 -0.6287 1.2174 -0.34666 0.1832 1.3809 1.986 -0.2113 0.89258 1.2782 -0.48875 0.72212 -0.1127 -0.6215 1.0937 -0.1928 0.17809 -1.7086 0.4853 0.16999 0.21507 -0.88951 0.66459 0.77043 0.36649 0.33966 1.3231 0.81574 -0.5843 -0.5417 -0.10539 -1.1001 0.55679 0.72563 -0.28579 -0.34318 -0.2436 -0.016825 -0.12257 -0.21064 -0.14428 0.54698 -0.99387 -0.53431 -1.1946 -0.25127 1.0528 1.6715 1.6793 -0.19318 0.40241 0.10016 0.92817 0.69524 
Pantoprazole -0.60669 -0.40328 0.2012 -0.54915 0.1508 -0.91386 0.86816 0.92767 -1.4776 -0.31355 -0.66174 -0.58736 -0.66095 0.024026 -0.32357 0.33027 0.22871 0.29257 0.57885 -0.64715 0.089006 0.37426 -0.34793 -0.75234 0.0024731 0.83122 0.5848 0.29227 -1.1048 -0.40881 -0.49186 -0.68159 0.25477 0.45925 -0.050034 0.28205 0.95954 0.64008 0.13861 0.55572 0.50257 -0.20031 -0.1247 0.27231 -0.45852 -0.62046 -0.4678 0.5071 -0.0028205 0.95382 0.28935 0.55968 0.91056 0.54919 0.48437 -0.21494 -0.66021 -0.23729 0.47135 -0.086161 -0.44606 0.27268 -0.022017 0.26258 0.67391 0.50903 -0.02027 -0.29904 -1.1341 0.2601 0.54397 -0.59585 0.2531 0.13154 -0.38717 0.33832 -0.14487 -0.76997 -0.57812 0.05154 -0.40065 -0.52018 0.43634 -0.16838 -0.77414 0.56908 0.2302 -1.3459 -0.66686 0.018342 -0.19699 0.52822 0.4813 -0.1429 1.0831 0.045162 0.0031783 -0.027869 0.42136 -0.54693 
FentanylCitrate -0.66214 1.0209 0.15097 0.52222 -0.93359 -1.5592 1.6308 -1.4091 0.034272 0.63189 -0.32434 -0.97889 0.21388 -1.4158 1.3816 1.7114 0.99389 -1.1972 -0.0049493 1.1297 0.52821 0.11519 -0.78651 -1.0042 0.62709 0.40926 0.18889 0.70837 0.36234 1.5824 -0.35488 -0.2096 0.45839 -0.0023788 -0.36537 -0.51867 -0.71576 0.15452 -0.33515 -1.4508 0.2712 -0.18313 0.24062 -0.69642 -0.31965 0.43659 0.75372 -0.80603 2.4171 -1.4637 0.49149 0.56904 1.1398 1.2129 -0.24794 -0.61113 -0.29908 1.1312 -0.34529 -0.66552 1.035 0.48161 -0.80957 -0.8113 -0.61749 -0.3121 -2.1465 -1.1663 -0.36546 -0.11339 0.2111 1.2722 0.055491 0.93997 0.68232 0.07468 0.2911 0.38029 -0.69042 1.1748 1.0376 -0.48107 0.46314 0.40001 -0.23047 -0.23624 0.29171 0.13911 -0.64491 -0.42996 0.11865 2.1588 -0.1288 0.32394 1.369 0.7662 -1.4275 -0.47643 0.31678 -0.52236 
Senna 0.13669 0.31444 0.01069 -0.69831 0.75081 -0.20542 0.69021 -0.51315 -0.76391 0.77967 0.43405 -1.4899 0.069535 0.22647 -0.23403 0.36937 1.6657 -0.28274 0.38047 0.070657 0.019577 0.069723 0.21368 1.7156 0.0057014 0.44918 0.90134 0.70982 0.11726 -0.16024 -0.3513 0.48015 0.076586 -1.3771 1.2157 0.56449 0.68981 0.48795 -0.37749 0.20197 0.25026 0.35286 -0.94487 0.92663 -0.57525 -0.42954 -0.30199 0.2839 0.48098 -0.32086 -0.16336 0.81276 -0.31381 0.26126 0.71839 -0.18458 0.20575 -0.033444 -0.48215 -0.3239 -0.25107 -0.62825 0.68877 -1.4064 0.24863 -0.1093 1.0378 -0.14085 -0.67634 -0.4494 0.15043 -1.4377 0.73405 1.0715 0.23863 -0.33522 0.46695 -0.39329 -0.62743 0.26432 -0.44157 0.043135 0.6275 -0.68773 -0.26692 0.034979 0.42555 -0.16229 -0.04034 -0.043433 0.13753 -0.47837 -0.56414 1.1382 0.41177 0.0022147 -0.39952 -0.86884 0.25874 -1.0717 
Aspirin 0.073467 -0.095131 0.27097 -0.56987 0.4589 0.66855 -0.39886 -0.64236 -0.82453 -0.8674 -0.17805 -0.48312 -0.42767 -0.24632 -0.29759 -1.2612 0.69455 0.58665 -0.38212 0.23717 0.069637 -0.51473 1.5148 -0.44112 0.3565 0.61689 0.25725 0.53356 -0.5967 0.030803 -0.80585 0.71566 1.1388 -0.093078 -1.1333 1.4315 0.83554 1.0796 -0.19555 -0.45513 0.36948 -0.024115 0.1328 -0.14324 0.32227 -0.35566 -0.62537 -0.060711 0.51831 0.16768 -0.10054 1.356 0.12754 0.4488 -0.13211 -0.19349 -0.47946 -0.023641 -0.4849 -0.22649 0.80498 -0.92341 0.028657 0.20246 -0.14095 0.21802 -0.064461 -0.40278 -1.3587 -0.02205 0.97299 -0.18993 0.83055 0.85991 -0.67171 -0.24946 -0.48323 -0.02825 -1.0255 0.46456 -0.26979 -1.0703 0.14387 -0.23227 -1.7764 -0.038687 -0.65044 0.22812 -0.25374 -0.38902 -0.76381 0.38252 -0.016179 -0.95061 0.5605 0.078703 -0.92083 -0.41474 0.89673 -0.17023 
Bag -1.274 0.1781 -1.0175 0.25582 0.30491 -0.3899 1.9495 0.36988 1.4239 -1.3807 -0.058707 0.7135 -2.6208 -0.035339 -0.17251 -1.646 -0.73384 2.6421 -1.0826 0.68621 -0.49626 0.044872 0.53359 1.9374 -1.4583 0.93005 -0.65588 -0.38429 -0.58365 2.4913 -1.8917 -0.46401 -1.1067 -1.1141 -2.0227 0.56731 -0.10248 -1.3724 0.3176 1.4103 -0.21006 1.4331 1.8816 0.95306 -0.9629 -2.172 -0.63913 0.11755 1.0941 -0.070472 -0.11961 -0.95844 -0.56304 0.75857 1.148 -1.1097 0.46624 -0.87472 1.283 0.43135 0.46128 -0.60899 0.35456 -0.5354 0.50475 2.1899 -0.28685 0.63123 -0.56104 -1.1572 -1.0407 0.84328 -0.2381 0.95151 1.1345 -1.1764 -0.030367 -0.18884 -0.98411 0.50908 1.2222 0.75134 -0.61486 0.45129 1.3518 1.3619 0.90668 0.36226 -1.3915 -1.2797 1.2417 -0.768 -0.42426 0.36431 1.8522 0.71276 -0.11774 -0.0674 -0.51337 -0.84474 
Vial 0.38817 -0.021072 0.24843 -0.55395 -0.78798 -0.60186 -0.28837 -0.88946 -1.0134 -0.95124 -0.0026549 -0.42696 -1.308 -0.27663 -0.69513 1.46 -2.0298 0.53693 0.7029 1.8756 -0.15882 0.1576 -0.20719 -0.78413 0.57155 1.1873 -0.27627 0.40134 1.8754 -0.12393 0.87101 0.54341 -0.94735 -0.90159 -1.1291 -0.4997 0.42861 1.9499 -0.3767 -1.6673 0.47101 -0.12107 -0.562 -0.039888 0.12603 0.32189 -1.4417 -1.3574 0.50783 -1.0947 0.41975 0.90621 0.084601 -0.18855 -0.19274 -0.20477 -0.56957 -0.1442 0.28671 -0.018755 1.5898 0.19108 0.13238 -0.67579 -0.79646 -0.38459 -0.99324 -0.65013 0.3691 -0.87301 1.0888 -0.43611 0.51479 0.35611 -0.72381 -1.3578 1.702 -0.99041 0.41284 0.61051 -0.76634 0.21582 0.99459 -0.24952 1.0619 0.63021 -0.21977 -0.78834 0.78019 -0.10484 -1.2852 1.1213 -0.44968 0.92849 1.461 0.60283 -0.62998 -0.94813 0.58493 -1.289 
VancomycinHCl 1.285 -0.56665 0.33064 -0.73254 1.0545 -0.61674 0.3342 -0.76818 -0.029844 -1.3094 0.89045 -0.43935 2.019 0.5112 1.19 -0.99231 -1.4356 -1.2711 0.020408 -0.52051 2.0804 1.1363 -1.4579 -1.5367 1.5519 -1.6417 0.040491 -0.12724 -0.36671 0.74567 0.7775 0.24611 0.39644 1.4743 0.28435 -0.78448 -1.1866 1.477 0.28121 -1.003 0.5069 -0.57291 0.12461 -0.34116 0.50201 0.29273 -0.98979 -0.33489 0.66889 0.26356 0.40159 -0.25898 -0.27236 -0.76391 -2.0002 0.53756 0.11776 0.70984 1.0754 0.062101 -0.015354 -0.72543 -1.2125 -0.68911 -2.5906 -0.55263 0.54643 0.57011 0.028287 -0.70608 1.0788 -0.28677 2.2263 -0.44607 -0.37466 0.20458 0.58707 -0.91013 -0.10323 -2.4936 0.8955 -0.8379 0.028883 -0.52406 -1.8805 -0.10684 -0.83953 1.1172 0.67569 0.82291 0.50398 0.29541 1.5347 -0.63622 0.16433 0.26394 -1.1131 2.8813 1.0512 -1.0552 
Albuterol0.083%NebSoln -0.28579 -0.62235 -1.0717 -0.75043 1.0219 0.15411 -0.040297 -0.31953 -0.93123 0.28146 -0.22641 0.56525 -0.55411 1.0014 0.040722 0.39388 1.1284 -0.67386 0.88324 0.68471 1.2986 -0.22761 -0.4186 0.22887 0.027618 0.94139 -0.93717 0.66319 1.3497 0.9467 -1.0981 0.37594 0.74398 -0.67958 -0.2625 1.0077 1.602 0.4877 -1.6931 -2.0012 -0.023182 -0.4413 0.86161 -0.46899 -0.96558 -1.0106 -0.35827 0.85479 -0.053616 -0.13733 -0.08829 0.65808 1.2562 1.1272 0.1175 0.25853 -0.0917 -0.91897 -0.53592 0.33064 -0.76016 -1.8024 -1.0318 -0.81315 0.72261 -1.1833 -0.029143 -0.17505 -0.2942 0.16164 0.32773 -0.67605 -0.19418 0.5333 -0.57392 -0.48688 -0.25971 -0.86243 0.10006 0.44621 0.44521 -0.85415 0.94099 -0.79829 1.2797 1.4904 0.32377 -0.7665 0.86377 -1.3845 -0.55469 0.62251 -0.27729 -0.79441 0.46408 -1.5586 -0.38658 0.24123 0.11668 -0.67661 
Dextrose50% 1.003 -0.71787 0.44563 -0.63438 -0.55775 1.2586 0.44499 -1.3701 -0.6461 -0.41483 -1.2958 -0.09034 -0.49997 -0.56811 0.16242 -0.62991 -0.57044 1.8713 -1.2493 2.502 -0.012141 -1.1698 1.0104 0.85003 0.2347 0.70602 -0.5135 -0.71697 -0.40982 0.39237 -0.54513 0.95342 0.55497 0.94928 -0.98237 0.58944 0.30437 -0.16638 0.32639 -0.75839 -1.1394 1.5908 -0.37192 0.48054 -1.0838 -0.15017 -0.96785 -0.86564 1.8409 -0.45215 0.33516 0.76607 -0.2028 1.3565 0.46432 -0.50552 -0.84725 -0.42583 0.87437 -1.2333 0.61423 -0.92188 0.23569 0.14475 -0.41813 -0.15158 0.38798 0.15739 -0.33648 0.32795 -0.8611 -0.67304 0.98328 0.077686 0.14222 0.91269 0.57574 -0.53019 -0.65327 0.79195 -0.54513 -0.93602 -0.51515 1.2796 -0.28813 0.073719 -0.28847 -1.135 -1.5949 -0.20027 -0.40161 -0.31181 -0.33201 -0.69493 -0.28218 0.58837 -0.6217 -0.080224 0.87268 -0.55366 
Oxycodone-Acetaminophen 0.73508 0.076242 1.4109 0.35456 1.3363 0.57058 0.11812 -0.40928 -1.596 -0.20733 -0.38016 -0.016648 -0.19356 -0.30558 -0.50595 0.04299 -0.55823 1.218 -0.38622 -0.75717 -0.17942 -1.5867 0.6696 -1.0116 -0.18913 0.95207 -0.56704 -0.081981 -0.38744 -0.28128 -0.29481 -0.5299 0.84393 -0.0056232 -0.0016184 0.48554 1.5349 -0.38405 0.73405 -0.40258 -0.41151 1.2562 -0.31623 0.80154 0.21884 -0.81051 -1.79 -0.58265 0.24162 -0.57269 -0.23144 0.41303 -0.22781 0.56807 0.67463 2.2587 -0.30371 -0.19624 -1.226 -0.27686 0.22527 -0.7184 0.40357 0.007565 -0.18171 0.79662 1.0167 -0.32026 -0.80789 0.60497 -0.15534 0.8139 1.216 0.40892 -0.76298 0.66236 0.33397 0.58855 -0.95153 -0.53012 0.15211 -0.34952 -0.78066 -1.3289 -2.0683 -0.32821 -0.59825 0.20941 -1.2716 -0.42224 -1.9244 0.033092 -1.2267 -1.3792 -0.33036 -0.011954 0.026854 0.68582 0.048707 -0.23138 
Ondansetron -0.59616 -0.048655 1.4975 -0.7605 -1.0408 -0.90286 0.17086 -0.50274 -0.11645 -0.49466 -0.088138 0.22953 -0.48081 -0.031218 -0.9726 -0.18555 0.39528 1.4991 -0.17558 -0.35307 -0.25301 -0.52218 -0.34005 0.095659 1.059 0.76588 0.19053 0.61189 -0.62016 -0.67049 -0.50455 -0.77829 0.0065597 -0.2031 -0.34044 0.09323 1.1945 0.64105 1.6099 0.29421 -0.41716 0.59363 -0.19548 0.71343 -0.50184 -0.66906 -0.030952 -0.22011 0.05031 -0.040813 -0.4441 -0.27533 -1.4672 -0.69467 0.58011 0.49788 0.72719 -0.26909 -0.57248 0.21371 -0.377 0.35152 -0.36081 -0.43606 0.23029 0.73967 0.78489 -1.0114 -0.43618 -0.029265 -0.014726 -0.42087 0.030318 0.067005 -0.56761 0.095173 -0.17489 -0.19673 -0.90874 0.35279 0.30548 0.34849 0.1312 0.14313 0.59914 -0.89921 1.2221 -0.58102 -0.84643 0.085201 0.0060966 0.23932 0.47771 0.28617 0.21015 -0.30712 -0.092356 -0.87314 0.18145 -1.0673 
Levofloxacin 0.33562 0.21721 -0.60895 -0.077789 -0.57307 -1.075 0.12836 -1.4431 0.28078 -1.5843 -0.40002 1.01 -0.20072 1.1915 0.76631 0.96886 1.1654 -1.1642 0.91119 -1.3809 0.56606 -0.4511 0.41741 0.40552 0.83848 0.8646 -0.35708 0.5392 0.21192 -0.61945 0.918 1.4505 -0.51512 -0.38945 -0.10478 -0.28782 0.03652 -0.054285 -0.74775 -1.2895 1.3108 -0.72295 0.23715 0.16906 -1.2902 0.75705 0.22572 0.81233 0.67468 1.0297 -0.22968 -1.1313 0.807 -0.80272 -0.48203 -0.27983 -0.35381 -0.45439 0.082995 1.3416 0.50072 -0.67419 -0.65464 -0.48528 -0.088053 -0.50101 0.64586 -0.31294 -0.36443 -0.67579 0.49602 0.8088 0.41953 1.2885 -1.0403 0.98638 0.13326 -0.067536 -0.5874 -0.23554 0.8562 0.23925 0.73854 -1.1602 0.033256 0.21379 -0.23167 -1.6624 -0.29131 -0.55621 -0.030484 0.4269 0.096414 0.41947 -0.10209 0.95413 -0.66339 1.3014 0.46087 -1.2024 
Haloperidol -1.0136 0.37532 -0.6118 -0.55669 0.13553 0.008354 1.2913 -0.84219 -1.0792 0.47028 -1.3608 0.25064 0.77179 0.53482 0.67588 0.65013 -0.026669 -1.2366 0.7519 0.093088 0.75636 0.35162 -0.081 -1.3987 1.2829 0.95775 -0.17342 0.98652 -0.19825 0.97515 0.053256 0.47071 0.78598 0.57067 0.18034 -0.76882 1.1473 -0.91674 -1.7385 -0.73985 0.49775 0.24907 -1.1024 -0.81204 0.79985 -0.37928 1.4282 -0.07799 0.80622 0.49419 -0.61287 0.5662 0.65464 -0.057427 -0.36512 1.4407 0.54395 -0.27549 0.8673 -1.2611 0.27967 1.3886 0.33525 -0.044231 -0.092402 0.28931 0.85506 -0.6971 0.16632 0.91778 0.48656 0.50986 -0.80902 0.46075 -1.506 -0.26418 -1.4517 -0.082695 -0.3989 0.28469 0.59224 0.42057 -0.98574 -0.50561 0.56063 -0.57486 -0.10339 -0.41705 -0.21715 -0.334 0.48645 0.15745 -0.25899 0.42902 0.25695 -0.72868 0.2894 -0.24145 0.30985 -0.70149 
Ranitidine 1.5337 -0.075861 2.9673 0.82865 1.9997 1.4446 2.348 0.47394 -1.0574 -0.62172 1.1554 0.28924 -1.8698 -0.55269 -0.71251 -1.0928 -0.15652 0.57231 -0.24018 0.14793 0.16489 -1.8896 1.811 -1.9893 -1.8507 2.1466 0.32123 0.054939 1.0825 -0.023225 -0.16399 -0.33318 1.3737 0.59034 -0.66442 2.1263 1.4499 -0.043055 -0.53185 0.9264 0.25875 1.9812 -0.48022 -0.39262 0.10584 -1.1272 -1.6822 -0.37152 0.18758 0.9373 -0.055984 1.1434 0.22879 0.80226 0.16252 1.8818 -0.20777 0.10777 -1.6034 -1.6186 0.40988 -0.47019 -0.33238 -0.32653 0.95052 0.19641 -1.014 0.62767 -0.29098 0.03245 -1.5515 0.96383 0.11469 0.29317 0.69823 2.0715 1.213 -0.58358 -0.17655 -0.69913 -0.11184 -0.12543 -0.099826 -0.9824 -3.6816 -0.44751 0.17246 -0.72134 -1.6285 0.64387 -1.4282 0.63591 -0.2613 -1.6896 1.0901 0.058948 -1.1462 0.50981 1.0649 -0.66873 
AspirinEC 1.927 -0.9662 2.4611 -1.2122 2.453 1.6203 0.5792 0.10371 -1.1214 0.2758 0.68341 -0.10574 -0.77954 -0.25036 0.023565 -0.73191 0.16961 1.1637 -0.88545 0.12662 0.39646 -0.80725 2.7706 -0.95936 -0.57513 0.1458 0.12929 0.74123 -0.21263 0.54928 0.10645 -0.10688 2.6338 0.23029 -0.10076 1.1133 2.584 -0.13537 0.021401 -0.11551 0.025818 1.2885 1.1458 -0.21261 0.31377 -0.051444 -1.3716 0.16106 0.47496 0.34665 -1.2199 1.1897 -0.6586 -0.11068 1.3107 0.90701 -0.43703 -0.30583 -1.5448 -1.102 1.7632 -2.5924 0.25031 -0.0040141 0.0090442 0.68809 0.23863 -0.39546 -0.59356 -0.016229 0.31791 0.5328 0.10337 -0.58952 -0.7631 -0.2393 -0.026138 -0.26079 -1.5526 -0.23587 -0.51117 -0.46362 0.25141 -0.14715 -3.1899 -0.72002 0.4297 -0.2209 -1.1069 -0.33692 -0.78729 0.76145 -0.44527 -2.4159 0.13543 0.98663 -0.82499 -0.59827 0.2555 0.27458 
IpratropiumBromideNeb -1.467 0.57699 0.057602 0.37103 -0.19903 -0.23742 0.40305 -0.90392 -0.69912 0.57424 -0.55885 -0.025008 -1.3148 0.58894 0.64013 -0.65887 0.29267 -1.5948 0.45447 0.92957 0.83425 0.90418 0.64985 0.38977 1.1067 1.0951 0.46906 1.606 -0.64189 -0.31258 0.3986 -0.47347 0.4612 -0.76708 -0.16544 0.3285 0.03599 -0.59077 -0.61742 -1.7155 1.2972 -0.52779 -0.05586 -0.81908 -0.55779 -0.20023 0.62893 2.0297 0.29227 1.2573 -0.8905 -1.169 0.89234 1.3228 0.63591 -1.1174 -0.83053 -0.030184 0.033745 -0.72332 -0.17498 -0.61715 0.99821 -0.48875 -1.2876 -0.38899 1.2899 -1.3131 0.22364 -0.36852 0.98199 -0.69208 0.92261 0.37755 -0.8171 0.36521 0.25369 0.29644 0.13956 0.093786 -0.59732 -0.44892 0.58382 -0.26805 -0.58317 -0.052821 -0.48354 -1.3818 0.12553 -0.82061 0.3029 0.92287 -0.59729 -0.00099496 -0.54593 0.59305 -0.43132 0.16525 0.56549 -0.25148 
Lisinopril 0.12856 0.30451 -0.20887 -0.59746 1.0689 1.1338 -0.072227 -0.29817 -1.861 0.0090748 -0.446 0.029944 0.14845 1.3908 -0.048171 -1.0022 1.4959 0.12386 0.51585 -1.6363 0.84275 -0.45574 0.38301 -0.17321 0.3019 -0.77783 0.088471 0.7067 -0.45075 -1.3651 0.33768 0.1171 -0.086315 -0.54081 -0.17856 0.53522 1.3092 -0.65352 -0.61072 0.3638 -0.054303 -0.27833 -0.069126 0.41895 -0.25572 -0.21871 -0.37282 0.38158 -0.053754 0.27251 -0.18249 0.84849 -0.14818 0.76081 -0.21348 -0.25083 0.54621 0.073723 -0.42269 0.059193 0.089473 -1.1385 0.68524 0.29558 0.076637 1.0732 1.0786 -0.090222 -0.45058 0.27863 1.0148 0.1014 -0.27429 -0.048577 -0.413 -0.57067 1.1044 1.2912 0.039098 1.0187 0.51506 -0.94791 -0.079685 -0.73744 -0.93021 0.11889 -0.2771 -0.64424 -0.23934 -0.25605 0.17347 0.21087 -0.27945 -0.47346 0.64873 -0.49551 0.12365 -1.1905 0.2289 -0.62622 
SodiumBicarbonate 0.12927 0.003378 -0.10699 0.46479 0.10426 0.30757 -0.753 -1.1715 -0.26662 -0.30374 0.15806 -0.66147 0.79539 1.0855 -0.084418 0.33315 -0.034888 1.9813 -0.11521 -0.66201 0.2431 -0.25243 -1.8109 0.80312 0.25832 -0.49471 -0.3059 0.9534 1.3759 -0.7795 0.94283 -1.1846 1.2179 0.81227 -1.4434 0.064453 -1.1964 1.086 0.349 0.081232 0.71903 -0.66043 0.60877 0.18826 0.1743 0.051721 -0.7715 -0.11436 2.0915 0.069869 0.4726 0.81408 1.2649 -0.11 1.1302 0.019349 -1.5018 -1.401 1.1542 -0.029595 1.6567 1.2657 -0.91461 -1.0177 -0.079053 0.49404 -0.45538 -0.56179 -1.018 -0.51666 -0.51605 0.1481 0.61262 -0.6166 -0.83792 -1.5855 0.12521 -0.91632 0.024808 0.25418 0.31364 -0.8364 -0.47485 0.50499 0.86929 -0.66747 -0.03023 -0.52103 -0.67724 0.69199 0.24243 1.3679 -0.060569 -0.37038 0.29415 1.4921 -1.3296 0.3061 0.13344 0.85838 
Famotidine -0.80946 0.40049 0.55772 1.717 -1.3055 -0.35811 1.1852 0.068523 -0.12264 0.45472 0.1627 -0.12567 0.57567 -0.8159 0.9074 0.029656 0.39017 -0.36322 -0.73459 0.33948 -0.30048 -0.5401 -0.44408 0.28078 -0.016101 0.80429 -0.13625 1.5337 0.84208 1.2136 0.022058 0.56731 -1.0359 0.21409 -0.81234 0.14471 0.51779 -0.40921 0.60025 -0.22916 -0.35769 0.18978 0.35216 -0.13313 -0.13652 -1.0605 0.49963 -0.5806 -0.2635 -0.037991 0.14863 1.0264 0.26793 0.6156 -1.1354 0.82594 0.036993 -0.79998 -0.52614 -0.40798 0.89839 1.5876 -0.13452 -1.7349 0.10515 1.9139 -0.13478 -0.6168 -0.66831 0.22463 -0.2769 -0.78505 0.99357 0.36987 -0.52068 1.1747 0.42465 -1.2758 -0.20793 1.0337 0.6198 -0.60877 1.4463 -0.48023 -0.82174 0.60511 0.065079 -0.49383 0.35778 -0.85535 0.24795 0.42254 0.24952 2.1925 0.7715 0.80185 0.10232 -1.1947 1.1047 -1.0438 
Neutra-Phos -1.4646 1.0364 -0.45514 -0.072192 1.5328 -1.0969 0.27046 0.098705 0.72446 -0.73457 -1.4092 -0.50366 0.15559 1.1899 -0.19982 0.37671 0.26244 -0.84268 0.30912 0.23997 -0.28902 0.88267 -0.17975 0.64824 0.40411 -0.26644 -0.73025 0.6076 0.71051 1.026 -0.066516 -0.42161 -0.32124 0.42948 -0.36477 -0.39009 0.94176 0.27566 -0.78722 -0.063655 -0.29974 -0.32421 0.53949 0.19207 -0.22186 -0.1345 0.28963 0.93583 0.48119 -0.13522 -0.36119 -0.16005 -0.40598 -0.10533 0.43367 0.019279 0.90828 0.45365 1.0319 -0.6441 -0.49458 0.3387 -0.67246 -0.84442 -0.012655 1.1388 0.17102 -0.64923 -0.17461 0.81382 0.43431 0.7255 0.93652 0.51604 0.1048 -0.36311 0.59647 0.44335 -0.65734 0.075955 0.2754 -0.88117 0.80732 -0.093888 0.67536 0.62012 0.22194 -1.2949 0.48499 -0.19505 0.16085 -0.76053 -0.58504 1.3071 0.69415 -0.19084 -0.40172 -0.34231 -0.0017677 -0.62691 
PotassiumPhosphate -0.99853 0.12625 -0.42505 0.18535 -0.98454 -0.60311 0.84757 -0.36891 0.84816 0.23779 -0.44561 -0.44176 0.034011 0.25194 0.018486 1.1247 0.47933 0.047534 -0.12259 -0.36944 -0.51169 1.0791 -0.051248 0.10281 0.78416 1.1203 -0.13431 1.2433 1.3824 2.2323 -0.55621 0.37611 -0.14348 0.6358 -1.224 -1.343 1.0749 0.10258 0.060839 -0.5555 0.86395 -0.16399 0.23373 -0.55591 0.42575 -0.22792 1.0387 0.32541 1.0926 -0.77045 1.067 0.84664 0.45059 0.12762 1.0516 -0.22837 0.088213 1.0084 1.5215 -0.19316 -0.21929 -0.22652 -0.62465 -1.9549 -0.36716 1.5887 -0.64489 0.056032 0.11828 1.4723 -0.76372 0.034406 1.0559 0.30681 0.94551 0.46881 0.79444 -0.082287 -0.11603 0.67759 0.91306 0.48142 0.79973 -0.10408 0.42147 -0.9003 0.25027 -0.65292 -0.73016 -1.7028 0.75324 -0.61701 -1.4573 1.2292 0.47372 0.23428 0.5014 0.036329 0.78186 -0.79297 
PantoprazoleSodium 0.18855 -0.57075 -0.63023 0.61291 0.13293 -1.6123 1.0923 0.52797 -1.0586 -0.13829 -0.12469 -0.93667 0.034574 -0.13406 1.2026 -0.44551 1.1513 -0.48337 -0.27537 -0.88869 1.1115 0.46118 -0.67281 -0.62513 1.6596 0.75649 0.75515 0.42953 -0.43938 0.21456 -0.21746 0.373 0.010267 0.50434 -0.99437 -0.91472 -0.081185 -0.14975 0.43986 -0.6454 0.1453 -0.35004 1.0836 -0.3452 -0.90883 0.44639 1.085 0.24961 0.030751 -1.0856 1.1863 0.27205 1.2699 0.27918 0.7834 0.9606 -0.9871 1.0504 0.3792 0.10526 0.24905 1.0372 -1.1126 -0.8761 0.38248 0.30264 -0.50723 -1.1223 -1.3688 -0.27107 1.0148 -0.73141 1.0505 -0.62762 -1.1668 0.29785 0.4003 -0.85796 -0.5611 -0.84458 0.47175 -0.85802 -0.62762 0.41014 -0.92401 -0.26934 0.69057 -1.4776 -0.92707 0.20515 -0.92986 0.63617 1.8456 -0.22917 0.88444 0.2099 -0.10192 0.66167 -0.16749 -0.66665 
Atorvastatin 1.3662 0.07454 1.3418 -1.5586 0.35671 0.52495 0.58804 0.38199 -0.52055 -0.20053 -0.56601 -0.061553 0.7163 -0.31107 -0.19654 -0.77416 0.52573 0.63905 -0.49875 -0.33493 0.10682 -0.66273 0.72462 -0.3725 -0.39231 -0.47936 0.25037 0.81417 -0.079792 -0.55815 -0.95449 -1.1454 0.5817 0.50053 -0.56935 1.6712 1.3293 -0.82139 -0.73213 -0.4899 0.2386 -0.16488 -0.028726 -1.3118 0.44346 0.45895 -1.4064 -0.20313 -0.016814 0.5165 -0.44776 1.3261 1.0226 0.80493 0.53319 0.47511 0.1483 0.36795 -0.91543 0.021778 0.078922 -2.0095 0.87642 -0.025241 0.23931 0.37518 -0.040443 0.078651 -2.0511 0.19875 0.51601 -1.3036 -0.75042 -0.2088 -1.5996 -0.27509 0.0044024 -0.16152 0.11589 0.63866 -0.33281 -0.3051 0.096319 -0.65665 -1.148 -0.73025 -0.38918 -1.2099 -0.96285 0.52552 -0.69426 -0.60963 -1.1283 0.20419 -0.33296 -0.18749 -1.0872 0.45035 0.013333 -0.48923 
Nitroglycerin 1.8999 -0.79715 1.8581 -0.52071 -0.0023981 2.0169 2.2948 -0.011447 -1.1748 0.10348 1.0188 -1.1946 -1.2268 -0.55505 0.80666 -1.9807 0.45632 1.7195 -0.82589 -0.017798 1.3242 -1.3151 2.6275 -0.67041 -0.16814 1.9013 -0.092783 1.1167 1.2144 1.157 -0.36206 0.30385 2.8682 0.7959 -1.647 0.61835 0.48957 -0.46485 0.58571 0.28471 -0.048601 0.73128 -0.15282 0.39496 2.1169 0.11691 -1.0371 -0.045472 0.62887 0.80414 -0.17625 2.7218 0.11952 0.098575 0.16272 0.5623 -0.52656 0.029459 -0.98421 -0.35716 2.8464 -0.62129 -0.56968 0.52115 -0.44683 0.37499 0.20706 0.39628 -0.72532 2.2543 -0.27849 0.090845 0.53804 -0.084404 -0.65521 -1.0294 -0.26762 0.0026687 -0.18917 -1.0673 0.040945 -0.14319 -0.039398 -0.947 -1.876 -0.1189 -0.53261 -0.10324 -1.5785 -0.98133 -1.9026 0.0058101 -1.4791 -2.3179 0.67842 0.094947 0.4172 0.95965 1.1947 0.27932 
HydrALAzine -0.035006 0.9181 0.5076 -1.197 -0.25447 1.6196 1.0808 0.57903 -1.4765 -0.099337 -1.671 -0.15881 -0.78579 -0.22952 0.088327 -2.3093 1.548 1.0173 0.5918 0.76184 0.11383 -0.33806 0.40993 1.9464 1.044 0.77914 -0.012683 1.7464 -0.32207 0.16916 -0.18018 -0.0054996 -0.69257 1.6371 -1.1908 1.4798 -0.28305 0.45393 -0.43489 -1.4072 -1.5361 0.97823 -0.26776 -0.88886 0.25864 -1.3708 -0.73722 -0.69985 0.16389 -0.58653 0.91474 -0.1275 0.84528 -1.3064 1.239 1.1038 0.88738 0.17624 -0.78246 0.14434 0.93119 0.066555 0.208 0.47598 0.88875 1.5535 0.19522 0.80561 0.4098 0.21004 1.2367 0.22865 0.64572 0.59917 -0.81225 -0.8339 -1.0364 1.9209 0.22204 1.3118 0.64529 0.66302 -0.23926 -0.19711 0.11864 0.62626 1.2986 0.60393 -0.17865 -1.0921 0.46176 0.25134 -0.42318 0.56144 1.086 -0.027725 0.19998 -1.5271 -0.65928 -0.26253 
Diltiazem -1.5353 1.6978 -0.78161 -0.39453 -0.78768 0.35142 0.63358 0.6902 0.13375 -0.45508 -0.13496 0.6108 0.096767 2.4732 -0.83267 -0.04016 0.64821 -1.1171 -0.92703 0.33243 1.262 0.12692 -0.15598 -0.56005 0.70702 0.40632 -1.3951 -0.077027 1.0063 -0.23078 0.01638 -0.93599 -0.36173 0.70594 -1.2489 0.58104 1.6993 0.73497 -0.14892 -2.0405 0.067527 0.094659 -0.040104 -0.79115 0.66532 -1.045 0.42129 1.1978 0.71666 -0.51296 -1.5895 1.2013 1.1661 0.9427 0.271 0.26621 0.013271 0.24884 0.42459 0.098216 0.0060017 1.457 0.14844 -0.65995 -1.5579 -0.20896 0.66533 -1.6762 0.61525 0.50702 0.90574 0.674 -0.36671 0.39966 -0.26406 -0.3162 0.82101 0.1071 0.36617 1.009 -0.099114 0.67985 0.76576 -0.99941 -0.074246 1.1536 0.59576 -0.72856 -0.070482 -0.82444 0.37188 0.37536 0.28711 -0.13713 0.79774 0.55051 -0.85924 1.0656 0.094522 -0.21445 
D51/2NS -0.65855 0.2989 -0.5266 -0.72859 -1.0983 -0.92959 -0.17003 0.078604 -0.68165 -0.36412 -0.89142 0.29484 -0.46612 0.15719 0.67308 0.63342 0.47569 -0.57973 -0.5927 -0.94702 0.58051 -0.15272 -0.41544 -0.35483 0.38042 0.84725 0.8656 0.80243 0.13013 0.57999 0.87947 -0.58236 0.05866 0.21959 0.60296 -0.50989 0.26931 0.45432 0.044604 -0.23414 -0.51097 -0.56055 -0.13649 -0.45697 0.16692 0.6629 -0.09548 -0.19685 0.47028 -0.3543 0.10567 0.70599 -0.34949 0.25491 1.4389 0.56936 -0.22452 -0.12152 0.72962 -0.045259 -0.60416 0.43592 -0.071665 -0.64356 0.52685 0.019539 -1.1658 0.2189 0.41957 0.19797 0.43205 -0.77118 0.82857 0.011823 -0.19051 -0.23779 1.0343 -1.1992 -0.28345 1.0329 0.36782 -0.70747 0.24928 -0.43897 0.24871 0.26104 0.53738 -1.0603 0.16889 -0.70467 -0.084475 -0.39038 -0.88122 0.34486 1.2153 0.28034 0.27938 -1.5424 -0.23335 -0.86452 
Metoclopramide 0.32374 0.12645 1.1897 -1.0693 0.87854 0.60762 1.4856 -0.47701 -0.47514 -0.864 -0.38256 -0.88319 -0.58763 -0.62676 -0.8616 -1.1087 -0.35762 0.45014 -0.84747 0.68266 0.39545 -0.74224 0.44414 -1.1713 0.34106 0.18781 0.44663 -0.057456 0.57771 0.38973 -0.60786 -0.1662 1.1669 0.088809 -0.95064 0.87552 -0.55203 1.131 0.38374 -1.0429 1.4086 1.4301 -0.28965 0.25748 0.14016 0.034046 -0.48676 -1.5662 1.0463 -0.096548 0.2683 0.27974 -0.41136 -0.62426 0.75804 1.4182 -0.78354 -0.11374 -0.35878 -0.97589 0.33257 -0.76826 -1.0314 -0.25464 0.31521 -0.31351 -0.10113 -0.6712 -0.63645 1.0832 -0.063225 0.71348 0.061941 -0.015583 -0.69994 0.1541 0.3314 -1.0758 -0.82562 -0.46753 0.16024 -0.4536 0.14371 -0.11341 -1.3804 -0.062475 -0.10893 -0.20034 -1.018 0.0070835 -1.0293 -0.62017 0.40265 -1.2546 0.18541 -0.65566 0.25445 -0.44113 0.84163 -0.072523 
Amiodarone 0.65978 -1.7583 0.43857 0.21847 0.70645 0.70997 -0.089016 -0.43905 -1.1488 -0.73021 -0.44497 1.1198 -1.9107 2.6714 -2.0944 -1.4172 0.89105 0.40684 -0.90114 2.3245 0.91441 -1.8272 0.62225 1.8078 0.95898 1.8276 -1.0129 1.4451 -1.5357 1.3672 0.17058 -1.4865 0.92475 -0.11866 -0.20257 1.742 0.48759 0.2713 -1.768 -0.60652 -0.12357 2.3862 0.70394 -1.0204 0.60126 0.43673 -0.83013 -0.60233 0.80865 -0.12677 -0.91036 1.6823 2.1415 0.47435 1.383 1.0001 -1.4497 2.033 -1.2834 -0.98094 1.33 0.2508 0.40256 -0.38036 -0.57236 0.28403 -0.14575 0.24155 -0.70228 -0.59109 0.46248 2.2966 0.31195 2.0526 -0.03915 -0.0442 0.42915 -0.013308 0.42196 0.33379 -0.41767 2.1883 0.45925 2.7916 0.5771 -0.085303 -1.6033 0.49236 1.5712 -2.0025 2.1561 0.52266 0.3895 -0.50791 0.37423 -1.1955 -0.0015806 0.69529 -0.38869 0.33706 
DocusateSodium(Liquid) 0.88154 -0.010653 1.2246 0.22264 0.89825 0.61808 1.3286 -2.0612 -0.55617 -1.4064 -0.15286 0.85529 -0.29994 -1.1433 0.19177 -0.47979 0.01631 1.0663 0.00096689 0.35113 0.016055 -0.11372 -0.3406 -0.96609 0.022822 0.5508 0.066373 -0.38512 0.22838 0.3613 -0.91384 0.22984 1.6162 -0.65948 -0.99937 1.8828 0.28394 0.36485 0.10151 -1.657 -0.1429 0.7019 -0.17415 0.45444 -0.10452 -0.0062041 -0.55837 -0.56074 0.74235 0.68374 -0.88143 1.3804 1.189 0.88666 1.3767 0.20923 -0.25244 0.32598 -0.21448 -0.78961 0.90597 -0.20798 0.22285 -0.0090011 -0.40282 0.025601 0.21899 -0.58809 -1.4822 1.2643 -0.1879 0.6489 1.2632 -0.31419 -0.93724 0.040679 -1.4145 -0.41018 -0.88777 -0.14629 0.14051 -0.06522 0.13901 -0.090361 -0.66057 0.29638 0.54063 0.40842 0.23883 -0.42626 -1.2773 -0.43618 0.053462 -0.16914 0.57423 0.84523 -0.33372 -0.069921 0.30875 -0.40549 
SterileWater -0.41283 -0.055408 -2.311 0.8238 -0.26192 0.75763 1.883 -0.51463 1.3909 0.12226 -1.162 0.99476 -1.3679 -0.45969 0.59213 -0.72894 -0.16371 2.6688 -1.0046 0.78468 0.071428 -0.58533 -0.036808 -0.34556 -0.98153 0.28692 -0.42572 1.0986 0.96095 0.65347 -1.1155 -0.04188 -0.48938 0.094794 -0.79858 -0.030307 0.28137 -0.40279 -0.46105 -0.69641 -0.14525 2.7768 0.72038 1.3215 -0.21669 -0.24871 0.69473 0.65728 1.4871 1.3126 -1.5363 0.172 -1.0419 -0.19247 -1.4803 -0.7649 -0.10393 0.77022 0.16925 -0.53848 0.4413 -0.36775 -0.15957 0.15424 -0.13808 0.33695 -0.60783 -1.0994 0.7193 -1.1196 -1.7614 3.0326 0.86999 0.4899 0.64161 -1.2932 1.0799 0.87501 -0.86879 0.54704 0.77386 -1.6987 -0.36067 1.4012 1.5221 -0.92519 -0.52658 -0.63005 -0.89487 0.12962 0.077333 -0.3635 -0.84837 1.3902 0.84923 0.22651 -0.26653 0.45926 -0.51849 -0.41583 
0.9%SodiumChloride(MiniBagPlus) -1.6088 1.4568 -1.6563 1.555 -2.056 -1.003 0.46147 -1.1474 0.77232 -1.3101 -1.1833 -1.0243 -2.7507 -0.64805 0.12869 -1.7554 0.73176 2.2298 -0.40939 1.7545 -1.5608 0.34381 -1.1725 1.4463 -0.013788 1.4935 0.5113 0.76525 1.7618 2.9445 1.8211 0.60066 -1.0943 -0.56247 -0.70601 -0.36667 0.49232 -0.69831 0.1158 0.25691 0.72381 0.41531 -1.1642 1.9771 0.27281 0.010872 0.58308 0.61273 -0.24057 1.2102 -2.315 0.84133 1.1445 1.4166 0.20723 0.022374 1.1927 -0.14397 0.46923 0.96437 -1.3842 -0.82997 0.90432 -0.98122 0.39567 -0.8303 -0.98649 -0.24955 -0.75431 -1.167 -3.0429 -0.09878 -0.13592 0.44896 0.84752 -1.2614 -0.33077 -0.85647 0.010242 0.419 0.60706 -0.94031 1.1619 1.6317 1.3487 1.3643 1.0149 1.5813 -1.5056 0.13536 4.0909 0.37476 -0.45324 -0.057067 1.1085 -1.0223 -0.97737 0.095593 -3.2939 -0.90033 
Midazolam 0.4611 0.074821 -0.68726 1.5905 -0.60145 0.57665 0.12315 -1.748 0.07673 -1.0388 -0.52257 -1.7443 -1.994 -0.27794 0.38798 -0.035512 1.2176 0.4014 -1.1369 1.6089 -0.4354 0.73248 -0.020033 -0.45664 1.1902 1.7482 0.64224 1.3655 0.65977 0.24023 -0.051121 1.3665 -0.17344 0.16795 -0.60885 0.9283 0.17431 0.85475 -0.87332 -1.3019 -0.062584 1.0082 1.6702 0.55517 0.33929 -0.28932 -0.17607 0.16324 1.9988 -0.18502 0.0016177 1.5055 2.1937 -0.33384 -0.098705 -0.55524 -0.47757 0.9909 -0.74779 -0.43212 0.16085 1.4244 -0.71657 -2.1103 0.5367 0.70624 -0.74896 0.98058 -0.25377 -0.62897 0.45505 -0.53502 0.93012 -0.2203 -0.3021 -1.8084 0.41279 0.34968 1.0322 1.4111 0.89789 0.46109 -0.25026 0.55222 2.1465 0.33736 0.87259 0.12624 -0.10247 -2.0725 0.91443 -0.19936 0.74615 1.0704 1.7188 0.17984 -0.37708 -0.52317 -0.62817 1.6547 
Syringe 1.0482 0.20613 2.8799 -0.53126 1.2751 0.56854 1.1675 -0.34459 1.3256 -0.16403 -0.88576 -1.4368 -2.334 -0.81067 0.53469 -1.5339 -1.0371 1.1607 -0.0037399 -1.0867 0.45267 -1.4048 0.82954 -1.5862 -0.0035085 0.98281 -0.22294 1.7527 1.0086 1.0714 -0.16615 2.2223 1.816 1.2073 -0.52269 1.5885 0.2532 1.0312 0.48556 -1.1448 1.4977 3.0048 1.5297 -0.13627 -0.7547 0.44108 -1.0639 -2.5158 0.77655 -1.4253 -0.58807 1.6751 1.1832 -0.55643 1.6605 0.21283 -1.629 -0.20142 0.50631 -0.41542 0.57956 -0.87934 1.0541 -0.30786 1.0707 0.29783 -0.29505 -0.67048 0.094802 0.93202 -1.1509 1.2345 0.088815 -0.77842 0.18915 1.4926 1.3042 -1.0086 -1.2056 -0.48938 -0.67254 -1.6907 -0.15777 0.92339 -0.66834 1.2027 -1.0566 -0.38211 -0.99652 0.83734 -2.0671 1.1379 0.48281 -1.432 0.20133 0.43173 -1.7478 1.7541 -0.66728 1.5583 
AmiodaroneHCl 1.5825 -1.6223 0.9755 0.33995 1.7511 -1.5476 -0.57369 -0.321 -0.14624 -0.53638 0.99688 0.10815 2.1061 1.8231 -0.48187 -0.79322 -0.16889 -1.7726 -0.73433 -0.88381 0.80306 -0.16854 0.48977 -0.67678 1.7035 -0.24179 -0.44815 1.3639 -1.1233 -0.16573 -0.20814 -0.47228 0.29642 -0.06584 0.063463 0.95736 -0.33003 -0.39407 -0.50787 0.49608 -0.73136 1.7199 -0.50113 -1.9839 1.4352 2.1454 -1.1078 1.138 1.4115 1.0427 0.027934 1.3968 0.79748 0.48875 0.48229 1.7833 -0.11445 1.856 0.40512 0.33443 2.0226 -1.4138 -0.74559 -0.74761 -2.7901 -0.68039 -1.3591 0.35572 -0.32491 -1.0248 1.2648 0.72687 -0.42338 0.92176 0.73558 0.53589 1.0278 -1.5737 -0.0084239 -3.1906 -0.84936 0.60532 0.054174 0.26842 -1.4647 -0.28461 -1.7129 0.77076 1.2326 -0.42603 1.8486 1.0244 0.41785 -1.7014 -0.94542 -1.2598 0.74228 2.8067 1.507 0.1023 
MilkofMagnesia -0.030903 -0.064151 2.4293 -1.3713 1.7655 1.1826 0.63736 -0.15021 -2.0791 -0.43991 -0.21718 0.77727 -1.1216 -0.018243 -1.2936 -0.9626 -0.044686 0.33873 -0.30181 -0.6685 0.62946 -1.6677 1.8474 -0.85067 -0.079327 0.1281 -1.0932 -0.32007 0.55154 0.97758 -1.0918 -0.38515 0.16773 -1.6045 1.1275 1.3463 2.6773 0.25201 -0.19799 -0.67712 1.6221 1.608 0.40916 0.79559 1.1999 -1.2539 -0.86232 -1.5561 0.94349 0.23401 0.12682 0.32599 -1.0868 0.55812 0.75748 1.8356 0.13937 0.89174 -0.87849 -1.1041 0.75979 -1.3013 0.42832 0.51183 0.65687 0.014869 1.4372 0.3843 -1.1087 -0.3521 -0.086499 -0.146 0.62613 0.89105 -0.02599 1.2604 -0.30544 -0.14908 -0.61343 -0.20308 -0.08828 -0.63543 0.0090535 -0.35651 -2.6105 -0.011057 0.20436 -0.062739 -1.5318 -0.87239 0.11357 0.76275 -1.5053 -1.3584 -0.18458 0.74373 0.46958 0.52893 0.15937 0.78634 
OxycoDONE(ImmediateRelease) -0.95102 -0.19871 -0.28508 -0.91184 0.35393 -0.15042 -0.37766 -0.73542 -0.38138 -0.74859 -0.74454 -0.15588 -1.7839 -0.21337 -0.38216 -0.14247 0.45316 0.25205 -0.64318 0.24477 -0.63247 -0.63403 -0.51871 0.35648 0.014218 1.0193 1.142 0.52274 -0.7002 -0.61497 -0.073845 -1.4563 -0.78249 -1.0189 0.81637 -0.093952 0.44256 0.59748 0.47891 0.70359 0.64872 0.22481 -0.11936 -0.061519 -0.61052 -1.7441 -2.0331 -0.049078 -0.12646 -0.42176 0.3615 -0.055249 -0.8867 -0.14719 0.66462 0.31634 0.76281 -0.45303 -0.02611 -1.1972 -1.4804 -0.7856 0.55614 -0.092062 1.4065 0.78818 -0.40569 -0.36727 0.49017 0.34513 -0.9179 -0.8103 -0.29967 0.26332 -0.21366 -1.0451 0.82325 1.415 -0.38641 1.6466 0.054597 1.6425 0.72927 0.091575 0.60356 0.36386 -0.25549 0.10663 0.35514 -0.73341 0.70832 -0.1816 0.1107 0.97528 -0.21708 -0.69373 -0.25407 -1.2178 -1.2528 -0.0066582 
LevothyroxineSodium -0.037552 0.043356 -0.024136 -0.098585 -0.31468 -0.55903 0.10905 -0.51533 -0.74612 0.024543 0.13677 -0.07109 0.033131 0.09508 -0.85828 0.030588 0.71032 0.23777 0.29876 0.099957 0.073369 0.13681 0.90678 0.08865 0.22079 -0.076186 -0.46 0.062242 -0.52222 -0.27042 -0.23135 0.060631 0.63974 -0.18803 0.045254 0.28102 0.17063 0.84866 -0.31707 -0.83195 0.95583 -0.1979 -0.098824 0.40845 -0.13957 -0.4951 -0.90381 -0.20735 0.30919 0.44821 -0.030017 0.75395 -0.54391 0.2243 0.70142 -0.38799 -0.085174 0.13829 -0.14237 0.34778 0.12335 -0.54798 0.24266 -0.30553 0.48835 0.11903 0.63242 -0.85189 -0.34859 -0.52872 0.19197 -0.41692 0.44557 0.19421 -0.45282 -0.0022184 -0.2759 -0.9397 -0.17354 0.51423 -0.51411 -0.92471 0.63474 0.25081 0.13242 -0.40605 -0.31565 0.044063 -0.096639 0.0073865 -1.1254 -0.43277 -0.19154 -0.32242 0.11158 -0.019718 -0.32499 -0.43325 -0.0668 -0.60051 
Hydromorphone 0.40712 1.0141 0.085108 -0.27377 0.60558 -1.4394 -0.71595 -1.6072 0.9842 -0.29726 0.19779 0.80388 1.5211 0.36358 0.8286 0.87777 -0.16851 -0.2022 -2.5693 -1.4058 0.94007 2.0458 -1.1202 -2.1082 -0.7249 -0.77439 -0.15899 0.2858 -0.94377 -1.2377 -0.015698 -0.2309 0.084317 0.71235 1.4062 -1.2926 -0.26383 -0.046231 1.0249 0.47722 1.8724 0.39918 -1.0009 -0.65589 0.34098 0.35583 -2.5664 -0.80936 -0.032008 -0.3231 1.1214 -0.20788 -0.10542 -1.314 0.09775 2.1184 -0.08888 0.65045 0.88843 -0.45942 -0.46743 -0.94814 -0.46692 0.21387 -1.5386 0.40108 -0.49463 0.36371 0.7098 -0.39724 1.2962 -0.0023377 0.96266 -0.44712 -1.5904 0.28256 0.38711 -1.1305 0.20758 -1.9462 -0.68029 -0.72444 0.4604 -2.5606 -0.71264 0.79505 -0.20239 1.034 -0.47892 0.25006 -0.40621 1.2381 0.40027 -0.92397 -1.6735 0.30346 1.9352 0.33915 0.89174 -0.58916 
InsulinHumanRegular 1.3585 -0.55476 1.297 0.05152 0.15447 0.97626 1.0327 -0.82732 0.83437 -1.5974 -0.3032 0.26118 0.25736 0.31283 -0.089821 0.48951 0.80077 2.0661 -0.68883 1.4177 -0.69345 -0.5887 1.0943 -1.744 0.74375 0.47249 0.14898 0.1607 0.14633 1.0176 0.12002 0.87881 1.4236 0.90348 -1.5153 0.12499 -1.0026 1.5939 0.25346 -0.75708 0.1994 1.4361 0.85414 0.09544 -0.95846 0.46332 -1.4896 -0.97079 1.7508 -1.06 -0.11138 0.54884 1.1568 1.2033 1.4998 0.58664 -0.66173 -0.15193 0.022705 -0.37338 1.2294 -1.0608 -1.4077 0.174 0.62072 0.41465 -0.022648 0.052643 -0.80276 0.10121 -0.64877 0.1504 1.5492 0.21697 -0.12016 -0.19673 0.41916 -1.3113 0.19697 -0.9097 -0.41993 -0.7058 -0.016433 -0.37385 -1.0389 0.43953 -0.31469 -0.46258 -2.4241 0.15819 -1.3535 -0.075266 0.063325 0.050625 1.1696 0.45525 -0.23065 -0.28243 0.28133 0.54604 
Captopril 0.26629 0.59607 0.26294 -1.053 1.3889 0.86385 -0.22862 -0.37365 -0.79408 0.31075 -1.1286 -0.3392 0.47974 2.4127 -0.0057099 -0.69314 0.6535 -2.0429 -0.030861 -0.61138 0.95761 -0.27428 0.55998 -1.1907 0.27229 -0.30592 0.10298 0.83152 -0.48967 0.11056 1.6758 0.51606 0.47932 -0.361 -1.2313 1.5044 0.74203 -0.21184 -0.81618 0.16417 -0.67907 0.89818 0.013456 0.34373 0.39112 -0.4593 1.0021 0.65714 0.26463 0.78462 -0.69684 0.6357 -0.50056 0.17023 0.32029 -0.034465 0.86421 -0.44236 0.017525 -0.47786 -0.027087 -0.67906 0.00071945 0.036731 -0.33824 -0.60656 0.49819 -1.1309 -0.73027 0.62803 1.9489 -0.56525 -0.73245 0.28163 -0.04147 -0.42134 0.85006 0.88877 -0.019351 -1.1546 1.4741 -0.35901 0.27747 -1.3203 -0.6026 -0.46164 0.25007 0.24802 0.3411 0.76713 0.083094 -0.27515 -0.39563 0.21075 1.0501 0.30273 -0.089016 0.50996 1.2655 -0.44721 
Iso-OsmoticSodiumChloride -1.9308 0.48117 -0.15981 -1.029 -0.84 -0.055353 -0.076848 -1.6256 1.64 -0.90049 -0.13307 1.0536 -0.84292 -0.38964 0.37512 1.0726 1.3579 0.38786 1.0935 -0.090351 -0.84045 1.1511 -0.34985 -0.10072 1.0332 1.528 -0.96166 0.6758 -0.2275 0.52379 -0.55805 -0.24986 0.4488 -0.99601 -0.6626 -1.2642 -0.059344 -0.12326 1.2041 -0.8338 -0.76157 1.2488 0.33472 -0.02147 -0.68177 -0.39318 1.1823 -0.7786 1.2366 -0.22685 1.367 0.9136 0.77411 1.2064 0.32856 0.91075 0.59443 -0.34761 0.52516 0.4817 0.76672 0.65689 -0.42377 -4.0671 -1.4111 1.6114 -0.090582 0.14446 0.31788 0.45299 0.31494 -0.60133 -0.66549 0.11345 0.96339 0.1695 0.82885 -0.47388 0.092402 0.90668 0.24206 -0.5073 -1.0774 -0.93624 0.26563 -0.76021 1.6199 0.10534 -0.67148 -0.08668 -0.67817 0.69581 -0.01834 -0.79399 1.118 0.0061961 -0.37678 -0.31078 -0.78288 -1.0066 
Glucagon -0.55261 -0.72151 -0.29043 1.1067 -1.0405 0.01214 2.1086 -0.39363 0.40229 -0.58679 -0.06222 0.023374 -1.2066 0.19895 -0.2186 -1.0355 1.1062 2.8218 -0.46345 0.13803 -0.95492 0.12528 0.55333 0.40981 -0.10654 -0.44723 -0.21743 1.4074 -0.19418 1.2628 -0.1786 -0.95062 0.4151 -1.4501 -1.4161 2.244 1.0129 0.46772 0.75932 0.3622 0.7338 0.70254 0.33805 1.399 -0.91515 -1.9355 -0.063871 -0.83939 0.58557 0.45467 -0.829 0.50699 -0.77325 1.3515 0.89763 -0.67206 -0.055315 -0.12161 -1.1374 1.0679 0.019214 -1.3256 0.69451 -0.16132 1.9435 2.4064 0.042648 0.6016 -0.76132 -1.3694 -1.2898 1.5409 0.1333 0.369 -0.41635 1.0856 -1.285 -0.59108 0.31398 0.80052 -0.9345 0.69314 -0.46729 -0.44808 0.22966 0.54764 0.64654 -0.17571 0.09533 -0.0050463 0.84453 0.4629 -0.87962 1.0758 0.83683 -1.1587 0.049467 -1.1946 -2.2514 0.33787 
ChlorhexidineGluconate0.12%OralRinse 1.2498 -0.71402 0.29555 1.0111 -0.64113 0.65406 1.9976 -1.8444 -0.28714 -1.3126 -1.1045 -0.89814 -1.2315 -1.0177 0.11881 -1.955 0.70209 2.0833 -0.59519 2.5626 -1.3862 0.56009 -0.13899 0.12839 -0.0053367 1.141 0.84445 0.37374 0.90877 2.34 -0.77497 0.75298 0.87026 0.50866 -0.67461 1.6169 -0.26396 1.4952 -0.21489 -0.81018 -0.50074 2.2207 1.5869 1.0193 -0.25671 -0.087371 -1.2399 -1.2054 0.60891 -0.29357 -0.66025 0.47343 1.9894 0.33412 0.79686 -0.44512 -1.158 1.63 -0.9549 0.06024 0.96319 0.29914 -0.18077 -1.4604 1.287 1.5842 0.35537 0.099776 -0.004997 0.92397 -0.41164 -0.58223 1.679 -0.026028 -0.57547 -0.2354 -0.72207 -0.027321 0.015624 0.70974 0.63532 0.99312 -0.010711 -0.10694 1.072 -0.57214 0.17016 0.56455 -1.3743 -0.50872 -0.6637 0.84271 -0.094259 -0.20403 0.7227 -0.6206 -0.87861 -0.55749 -0.42968 -0.42733 
Lactulose -0.10173 0.11558 -0.49474 -0.96025 1.1448 -1.0023 0.67879 -0.923 -1.1862 -0.15332 -2.0756 -0.49512 -0.41331 0.25979 1.4448 0.94193 -0.82564 -1.5857 -0.1754 -0.53036 0.36795 -0.14038 -1.4268 1.1858 0.84097 -0.067459 -0.72215 0.8612 -0.0010692 -0.16969 0.18474 -0.0038685 0.49492 -0.55391 -0.85124 -0.014737 -0.13306 0.08547 0.27643 0.041349 1.9019 -0.34036 -0.53939 2.5016 0.21384 -0.064179 0.25425 0.63692 0.55569 0.65314 0.9225 -0.16928 0.5149 -0.35377 1.2927 -0.30593 0.92071 0.019764 0.0061266 -1.5902 -1.107 -0.057842 -0.26844 0.6696 0.71843 -1.0816 0.69511 -0.85251 0.39461 -0.65879 0.63941 0.1386 -0.4058 -0.33547 -1.2357 0.57596 0.71935 0.71037 -0.16565 0.39029 -0.24535 0.021107 -0.15679 0.56142 0.1566 -0.51755 0.47262 -1.2741 0.37158 0.41723 0.41683 -0.59124 0.38341 0.57393 0.55284 -0.33271 -0.5123 -0.32944 0.018429 -0.63402 
PredniSONE -0.7312 -0.85221 -0.73761 -0.18419 -0.60166 -0.15145 -0.36435 0.86166 -0.92608 -0.095165 -0.1085 0.046404 -1.1838 0.91729 -0.87619 -1.3671 0.5728 0.55694 0.12244 0.39278 -1.2188 0.46814 -0.58943 0.78008 1.3242 0.64309 -0.022358 1.6368 0.085926 -0.31192 -0.45316 -0.7048 -0.18666 -0.084141 1.0276 1.5504 -0.43132 0.40393 -1.2843 -0.78345 0.04236 -0.57358 -0.076121 0.28041 -0.49277 -1.0262 -1.2199 1.785 -0.47133 -0.38501 -0.67477 -0.94616 0.18144 0.048195 0.9578 -0.58829 -0.38558 -0.30614 -0.96098 -0.32047 -1.0832 -0.53885 0.55058 -0.76749 1.2186 -1.194 -0.5196 0.81011 0.83479 -0.33886 -0.77969 -1.0529 0.034978 0.06083 -1.27 -0.92857 1.4978 0.49564 -0.27844 0.86457 0.50887 0.8243 0.82568 -0.69503 1.9345 1.6709 0.3174 0.32408 -0.9181 -0.49598 0.50166 0.027874 -0.57017 0.23388 -0.65306 -0.13528 0.43569 -0.41003 -0.75127 1.3133 
HeparinFlush(10units/ml) -0.41948 0.49868 -0.32618 -0.85452 0.5161 -0.35291 0.25508 -0.28688 0.22159 -0.49068 -1.15 -0.15579 -2.2543 0.69227 -0.89819 -0.6881 -0.20808 1.2279 -0.43604 1.6875 0.3764 -0.41179 0.42634 1.4065 -0.65326 0.33358 1.5225 1.2549 0.48549 1.5508 1.0736 -0.33784 -0.20504 0.93211 -0.025429 0.29146 -0.35469 1.4224 -0.46732 -0.79208 -0.41057 0.13533 0.12156 0.62508 -0.80003 -1.6833 -0.80937 0.72151 -0.63414 -1.1136 -0.074939 -0.38308 -0.50741 0.084032 0.2384 -0.14519 0.86355 -0.56125 -0.481 0.066757 -1.1551 -0.0069393 0.52345 -0.99468 1.2588 0.34776 0.46895 -0.52144 -1.6032 -0.33752 -1.4195 0.5287 0.88402 0.63695 0.40625 -0.29637 0.10994 0.36831 0.94271 0.68245 -0.092187 0.93626 -0.2197 0.047844 1.3519 0.68852 -0.3885 -0.35107 -0.19993 -0.53093 1.7233 -0.32735 -0.068494 0.78219 -0.22501 -0.32255 0.6657 -1.2141 -0.48988 -0.57297 
Tacrolimus -0.14403 0.76325 -0.86134 -0.50395 -0.22917 0.29916 -1.3511 -0.35924 0.46886 -0.44395 -2.1771 -0.79831 -0.045033 0.72528 0.38908 0.39117 -0.63066 -0.45819 -0.19977 -2.0977 0.11684 1.1671 -0.54481 0.46942 0.55823 1.0423 -0.97347 0.059049 -0.45768 -0.29092 0.91426 -1.689 3.8268 0.72139 -2.1966 -0.23446 -1.324 3.0332 -0.55977 0.56032 1.109 1.5073 -1.1075 0.12071 -2.3136 0.69177 1.2383 -0.65364 -1.1591 0.14501 0.60636 -1.0839 -1.928 2.1889 -0.54432 1.1657 0.53479 -0.64313 -0.30238 -0.35561 1.884 -0.84284 -0.89715 -0.027534 0.55313 -0.66207 -1.4181 -1.0799 -0.56343 -0.066919 -0.63373 -1.1847 -0.12569 0.18107 -2.0533 -0.29015 0.98124 -0.14641 0.39116 0.28934 -0.61761 0.0069043 -0.30618 1.4201 -1.0764 1.4237 -0.49978 -1.3774 -0.56964 -0.85638 1.4848 -1.0426 -1.5175 -0.22268 0.24704 0.58476 0.20736 0.31705 1.0037 -0.42867 
Phenylephrine 2.4935 -0.81675 1.9883 2.3824 0.69789 0.79991 0.069882 -2.0096 0.076874 0.74169 -1.0178 0.41496 -2.0211 -0.89151 0.27954 -2.6976 0.13381 2.2686 -1.0689 2.1497 0.28872 -0.92828 0.54614 -0.99545 0.64016 0.64477 1.1248 0.064977 0.14446 1.2875 -0.021305 0.12939 0.12797 0.40031 -1.0206 1.6235 -0.96417 2.4272 -2.6349 -1.7863 -0.38466 0.82472 2.0286 1.6025 0.15058 -0.091753 -0.43534 -0.93142 0.4896 -1.6321 0.90512 1.5339 1.2116 0.45617 2.5427 0.095346 -0.4682 1.3964 -1.7159 -1.2222 0.28018 1.4138 -1.2534 -2.1665 1.3915 1.7274 -1.179 0.3861 -0.78833 -0.47658 -0.55477 1.1374 0.8196 -0.20316 -0.16162 -0.27088 0.41224 -0.33878 -1.2178 0.20279 0.12608 2.354 -0.68262 0.5102 -1.393 -0.51731 0.08354 0.65915 -1.0884 -1.6487 -0.69003 0.10238 -1.3365 -0.96779 0.29407 -1.0039 -0.75328 0.78402 -2.4272 0.13439 
Phytonadione -0.27404 0.052008 -0.63967 -0.67456 -0.32737 -0.67006 -0.0025824 0.3518 -0.40194 -0.46971 -0.97495 -0.67858 -0.68005 1.2049 0.3523 0.99845 -0.7378 -0.33736 -0.16313 -0.36854 0.054918 0.73916 -0.40461 -0.30584 0.34507 0.071166 0.43426 0.34807 -0.051891 -0.64063 0.19563 0.027837 0.25427 -0.1905 -0.88639 -0.17741 0.39774 0.36566 0.45136 -0.41724 0.95541 -0.42393 0.38409 0.62681 0.065084 -0.21061 0.56908 0.28311 0.94535 -0.058855 0.55837 0.70885 1.2082 -0.34938 0.15551 0.17094 0.21027 0.16672 1.0988 -0.3629 0.11823 0.49921 -0.33296 -0.7986 0.035318 -0.02447 -0.37208 -0.98176 -0.95195 -0.75713 0.022064 -0.26118 0.081297 -0.16501 0.17141 0.033893 0.56475 0.5095 -0.66599 -0.73174 0.10495 0.4111 0.61439 -0.23066 0.88741 -0.44099 0.56649 -1.0928 -0.080942 0.074129 0.52956 -0.053023 -0.17726 0.22632 1.3825 0.29106 -1.325 0.37341 0.14809 -0.89541 
Dexamethasone -0.060568 0.73196 0.58738 -0.25645 -0.4514 0.5095 -0.23812 -0.56967 -0.1072 -0.12007 1.5076 0.78729 0.33441 -0.8267 1.1761 0.61448 0.68574 -0.13943 -0.14409 -0.16647 0.048704 1.2071 0.87206 1.0224 1.7691 1.9767 -0.90512 0.61408 -0.68617 0.15794 -1.3296 -0.14728 -1.1115 -0.72825 0.57269 0.22609 -0.012767 0.42354 1.0604 -0.28752 -0.9717 0.10044 -0.32303 0.23113 -0.3588 0.44983 1.117 -0.73409 0.063122 -0.58457 0.93818 1.1755 -0.75941 -0.92197 -0.40747 0.42492 1.8826 0.10763 0.39734 -0.30376 -0.11641 -0.68508 0.063419 -1.6397 -0.72512 -0.018416 0.30761 -1.1001 -1.1546 0.94016 -1.0744 -0.84373 1.3082 0.37302 -0.44776 -0.10367 1.403 0.54232 -0.40751 0.50366 0.19881 0.2058 0.49295 -0.91429 -0.28979 -0.57135 0.032076 -1.1689 0.3343 0.14618 0.76268 -1.4726 0.97919 1.1525 -0.99349 0.38472 1.5179 -0.27895 0.58141 -0.64835 
Multivitamins 0.78502 -0.10675 -0.51288 -0.61738 0.092567 -1.27 0.35398 0.0027563 -1.7705 0.34668 0.0086281 0.08434 0.26676 0.42108 0.60097 0.6833 -0.0060906 0.025992 0.80199 0.62193 -0.62302 0.42054 -0.11049 -0.29308 -0.79539 0.91572 0.5641 0.5058 -0.086479 -0.32595 0.061184 0.084102 0.4509 -0.79121 -0.643 -0.098088 1.1688 -0.80077 -0.82898 0.15989 1.3047 -0.58064 -0.85233 -0.080662 0.20046 -0.77945 -0.43138 0.059095 -0.14373 -0.041766 -0.20292 0.93629 -0.28361 0.42605 1.8859 -0.34694 -1.0336 0.21649 -0.094812 -0.49426 0.56691 -0.34251 1.6391 -0.99275 0.16338 0.74827 1.6788 0.25093 -0.30525 0.35726 0.094147 0.28791 -0.10949 -0.074855 0.26501 0.32814 -0.92545 0.13378 -1.0558 0.33258 -0.22378 -1.3922 0.17817 -0.12434 0.30233 -0.28257 0.0069171 -0.53047 0.28918 0.24903 -0.55115 -0.8017 -0.18343 1.1087 0.70378 -0.63444 -1.0395 -0.31374 0.34754 0.61721 
PhenytoinSodium -0.30928 0.42525 1.833 -0.33741 0.14965 -0.14027 1.244 -0.59698 -0.33692 0.64915 0.071281 0.62024 0.11802 -0.75474 0.96176 2.1079 1.9671 -0.36853 -0.029723 1.0234 -0.60646 0.41775 -0.85997 -0.37832 1.6338 -0.31676 -1.3465 1.397 -1.3086 0.72957 -0.46002 2.1336 -0.41208 -0.14241 0.077806 -0.43607 0.46484 0.24416 1.0654 1.1214 -0.72276 1.1364 0.064481 -0.29157 -0.59731 0.24359 1.8947 -0.064767 -0.033588 -0.58425 1.7126 2.6404 0.47872 -0.37023 0.1803 1.0037 0.8914 0.45756 0.98844 0.067705 2.1619 0.050902 1.3652 -1.1645 -0.090441 1.594 -0.26823 -0.66663 0.35908 1.43 -0.98505 0.56883 2.0808 0.23872 -1.1108 -0.85913 -0.61126 -0.33573 0.015282 -0.34695 1.2283 -0.90235 0.92061 -0.97505 -0.24648 -1.7285 0.32947 -0.92496 -0.51168 -2.2338 0.42074 -1.0918 1.4236 2.447 1.6138 0.57563 -0.15902 -0.032817 0.24504 -0.62659 
Diazepam 0.33557 0.37605 0.23387 -0.089616 0.048564 -1.2656 -0.1419 0.24702 0.50782 0.47336 0.065172 0.39622 -0.086577 0.54387 1.7163 0.17436 0.36571 -1.2981 0.95012 -0.78935 0.68574 0.51841 -0.60418 0.041157 -0.37523 1.7093 0.22165 0.37586 -0.32334 1.2379 -0.022801 0.68132 0.056435 0.47732 -0.3573 -1.6478 1.0496 -1.5977 -0.3106 -0.29334 1.4248 0.82291 -0.0064745 0.25327 -0.47767 -1.7743 0.2248 -0.095348 -0.10767 0.44906 1.053 1.1012 -0.13077 -0.51279 0.2244 0.73174 0.82625 0.28562 0.12574 -1.5441 -0.12448 -0.78284 0.62359 -0.43779 0.1314 0.63188 -0.38175 -0.90403 -0.63641 0.683 1.5266 0.086481 -0.17073 0.83061 0.87709 -1.0137 -0.75153 0.29655 -0.85705 1.6036 0.70496 0.53293 0.017798 -0.041494 0.32683 -0.34378 0.92473 -0.98761 0.76886 -0.47744 -0.77384 -0.17647 0.0032957 1.8367 0.31857 -1.1163 -0.46962 -0.81474 1.4942 0.14196 
InfluenzaVirusVaccine -0.28364 -1.1834 -0.68661 -0.21275 -0.38856 -0.043684 0.19459 -0.093761 -0.29673 -0.60992 -0.45496 0.059937 -0.76945 0.51009 -0.21637 -1.0536 0.71404 2.0667 -0.065961 0.48834 -0.17839 -0.83282 0.48032 -0.017211 -0.15805 1.0022 1.0592 0.73177 -0.025112 0.82379 -1.1145 -0.053202 -0.4381 0.04997 0.1531 1.2357 0.78077 0.30932 -0.05407 -0.014354 -0.26263 -0.067179 0.6854 0.38263 0.36861 -0.70315 -0.97723 -0.7212 0.65599 -0.62202 0.20044 1.2278 0.38664 0.50502 0.44815 -0.44481 0.27283 1.0088 -0.20688 0.085144 0.22087 -0.28049 0.44101 -0.052222 1.3102 1.4905 -0.10991 0.41987 -0.19619 0.69284 -0.49416 -1.122 1.1574 0.74144 -1.2342 0.24404 -0.49169 -0.20871 0.18197 1.2874 -0.33132 0.275 -0.0060216 0.033094 0.37818 -0.32421 -0.15967 0.28991 0.13349 -0.63234 -0.79428 0.30223 0.15525 0.0087116 0.58969 -0.53314 -0.88586 -1.109 -0.167 0.13158 
1/2NS 0.24108 -0.042328 -0.1656 -0.049151 -0.52193 -0.18122 -0.19769 0.28965 -0.28601 0.095169 -1.0334 -0.23713 -0.29186 0.74113 0.27526 -0.70526 0.82928 0.1472 0.17307 -0.69274 0.069111 -0.67583 -0.47109 0.025524 0.45561 0.9585 -0.022279 -0.27352 -0.75081 0.22233 0.54333 -0.58463 -0.37429 0.35519 0.030174 -0.28548 -0.51616 0.36495 -0.038686 0.83166 -0.10031 -1.32 0.26624 -0.84041 0.7243 1.2072 -0.21694 0.12742 0.66639 -0.33134 0.73821 -0.45133 -0.070998 0.79999 0.88556 0.25087 -0.87206 -0.16665 0.10354 0.020254 -0.0098903 0.23494 0.3621 0.061312 0.7343 0.25417 -1.5323 -0.034291 -1.0924 -0.21858 1.5289 -0.042688 1.5199 0.42347 -0.30127 -0.36604 1.416 -0.84063 0.34982 0.40321 0.38079 0.097065 -0.67277 -0.16158 0.28036 -0.0080969 0.26097 -0.47011 0.70002 0.086297 -1.026 0.20753 -1.2601 0.40905 0.18959 0.79425 -0.44186 -0.53061 -0.7583 0.28831 
Norepinephrine 0.83687 1.0772 0.94814 0.13107 -0.30169 -0.29642 0.058961 -1.9957 0.40327 -0.79997 -1.0699 -1.1986 0.47946 -0.48549 0.52686 0.27902 0.71949 -0.95233 -0.51754 1.319 -0.11266 -0.7291 -1.6799 -0.91756 1.167 0.55702 -0.0070706 0.10822 0.43771 0.62768 0.014483 0.11305 0.39871 0.094676 -1.2759 -0.23987 -1.6007 0.81954 -1.0366 -1.3549 0.81324 0.16473 2.0061 0.42864 0.63355 0.0851 0.2013 0.50719 1.5092 0.011258 0.75811 0.92157 1.8964 -0.10668 0.53017 -0.50193 -1.9528 -0.35853 -1.2211 0.14971 1.0755 1.0385 -0.15374 -2.3907 -0.083398 -0.49913 -1.0517 -1.1823 -1.2646 -1.3665 -1.0831 1.2075 2.0211 0.77467 -0.49458 -0.33473 -0.081121 -0.73374 -0.62997 -0.54723 0.26043 -0.22762 0.17135 0.68723 -0.32821 -0.94819 0.041377 -0.26874 -0.5862 0.57236 -1.143 -0.57624 0.64551 -0.53924 0.75521 1.9379 -0.7062 2.2075 -0.029821 -0.36245 
MetRONIDAZOLE(FLagyl) -0.30513 -0.36585 -1.0618 0.16686 -1.75 0.12256 -0.48162 -0.0038499 0.14482 -0.76503 -1.599 -1.136 -1.4018 0.59802 -0.67863 -0.32944 1.3806 -0.5533 0.036946 2.034 -0.36927 0.91443 -0.69713 0.84901 0.29028 0.73546 1.1691 -0.31727 0.082283 0.24951 0.60366 -1.0779 0.082495 -0.35853 0.3165 -0.55928 0.63551 1.0752 -0.17389 -0.99428 0.41796 -0.87254 0.59741 -0.55024 0.39369 0.087395 -0.56014 1.2626 0.22465 -0.86678 0.4909 0.43899 1.8757 -0.69526 0.4858 0.30974 -1.7077 0.82261 0.62578 -0.77426 0.080208 0.48994 -1.0066 -1.1388 1.4856 0.35203 -0.68943 0.60353 -0.60949 -0.36459 -0.50486 -0.00046437 0.98714 -0.52153 -0.65504 -0.32924 0.48815 0.35857 0.17395 1.9183 0.60223 0.69652 0.065495 0.052525 1.3115 0.49671 0.04975 0.0018109 -0.074125 -2.0373 0.42774 0.037591 0.60917 -0.82105 0.69315 -0.33759 -0.43668 -1.487 -1.9713 -1.9868 
Dextrose5% -1.0828 0.29505 0.5724 0.48032 0.003222 -0.22498 -0.69029 -0.32877 -0.38985 1.1188 -0.48034 -1.2162 1.1612 0.17442 1.2269 -0.44452 0.51267 -1.411 -0.34151 0.37625 -0.88582 2.601 -0.30776 -1.2403 0.29739 0.075564 0.16351 0.29978 0.73408 1.1905 0.21196 -0.91241 -0.18312 0.4411 -0.53974 -0.82448 -0.41794 0.57642 0.83539 -0.64611 0.010482 0.31094 0.092202 -1.2459 0.93894 -0.066248 0.17022 2.2196 1.2975 -0.40538 0.95949 0.38675 0.87552 1.2867 0.60605 -0.42235 -0.89569 -0.445 0.23019 -0.76752 0.51293 0.85559 -1.1064 -1.416 -1.9904 -0.63802 -0.65625 -1.9421 0.14394 -0.45327 0.15241 -1.5067 0.56366 0.25054 0.58143 -1.078 -0.62273 -2.1809 -0.83255 -0.30283 1.0489 -0.95488 0.74991 -0.60812 0.24194 0.22687 -0.11395 -1.4899 -0.0071014 -0.050234 -0.13114 0.84841 1.0945 1.1046 0.20793 0.68722 -0.09326 -0.055086 -0.23593 -0.013658 
Simvastatin 1.0213 0.23004 0.67512 -1.0752 -0.032881 0.92405 0.55879 0.14972 -0.42419 -0.51536 -0.2695 0.78033 -0.32667 -0.19411 -0.59841 -1.4071 0.92792 1.2631 -0.60663 -0.045743 -0.82519 -1.1291 1.3595 -0.4301 -0.58478 -0.089189 0.62447 0.71093 0.02373 0.15575 -0.78893 -1.2286 0.72336 0.1571 -0.51641 1.9062 1.37 -1.3207 -0.54376 -1.0395 0.10732 0.041677 -0.10176 -0.83995 -0.07615 -0.25219 -1.1983 -0.59343 -0.30266 -0.40054 -0.26342 1.2529 0.58084 0.70639 1.1505 -0.22016 -0.38454 0.89421 -1.1018 -0.081398 -0.36954 -1.3834 0.78364 -0.26127 0.88059 0.20568 -0.44252 0.6726 -2.4534 -0.35597 0.15319 -0.88865 -0.14802 -0.21486 -1.8172 -0.065359 -0.63825 0.15354 0.53305 0.92463 -0.33495 -0.27025 0.35548 -0.22869 -0.81259 -0.90037 -0.72009 -0.56935 -0.64951 -0.24775 0.010916 -0.51963 -1.1382 0.31437 0.12143 -0.68283 -1.1598 0.24165 -0.66611 -0.6312 
ZolpidemTartrate -0.28066 -0.87429 -0.13244 -0.36644 0.3777 -0.96489 -0.13237 0.42542 -0.57406 -0.81285 -0.11438 -0.23902 0.49413 0.56101 -0.57937 -0.15261 0.29047 -0.13491 0.095397 -1.0756 0.78851 -0.41555 0.39068 0.25989 -0.24672 -0.075384 0.45163 0.49415 -0.36831 -0.91997 0.095563 -1.1324 -0.050825 0.24168 0.44007 -0.15071 0.28345 -0.46585 -0.26811 0.60715 0.077193 -0.86525 -0.3603 -0.22147 0.13948 -0.26992 -0.23788 0.76142 0.34548 -0.11577 -0.26004 -0.43554 -1.2705 -0.40241 0.13214 0.83796 0.25632 -0.90832 -0.18357 -0.4611 -0.62375 -0.69178 0.41711 0.23347 0.24377 0.2341 0.40796 -1.0349 -1.1666 0.1092 0.83106 0.023401 -0.20283 0.19804 -0.12842 0.32895 0.30792 0.33109 -0.65119 0.21578 0.47559 -0.10066 1.1286 0.22714 -0.50542 -0.21124 0.52765 -0.4811 -0.51294 0.078331 -0.3783 0.41979 -0.081584 -0.74909 -0.27558 0.17809 -0.19067 0.38629 0.74637 -0.01898 
Piperacillin-TazobactamNa 0.17189 -0.004344 1.1807 0.34974 -0.0029686 0.39872 0.37399 -0.07319 -0.46535 -0.030445 -1.3175 0.35877 0.64523 -0.75943 0.43999 0.01521 0.077674 -1.8248 -0.65417 -0.081247 0.014442 0.067396 0.23083 -0.23777 1.4117 1.0309 0.22477 -0.021305 0.65475 0.40869 1.9893 -0.39939 0.089165 0.66535 1.2305 -0.71947 -0.53249 -0.15923 -0.073538 -1.4112 1.6307 -1.5001 -0.3902 -0.028606 -0.90789 0.72465 -0.066895 1.0138 0.57529 0.32727 0.99466 -0.061732 0.38648 1.0812 -0.35785 0.94341 -1.7555 -0.054738 0.15769 0.544 0.11227 0.95342 -1.0647 -2.4231 -0.18681 -0.74328 -0.57308 -2.0836 -0.53055 -1.3673 1.2959 0.76706 1.7092 -0.5129 -0.31188 -1.125 1.1357 -0.29367 0.74603 -1.3378 1.764 0.14419 -0.59097 -0.39438 0.97278 -0.71191 -0.60247 -0.13113 -0.24328 -0.51011 0.36015 -0.61833 0.71328 0.63127 0.11407 -0.031019 -1.4744 0.7295 -0.65286 -0.79998 
Ketorolac 0.43479 0.53583 2.7425 0.5148 1.1222 1.0365 1.0341 0.338 -0.026357 -1.3413 -0.10147 0.21768 -0.54236 -1.9704 -0.7319 -0.31993 -0.0043885 0.56104 0.048261 -0.72121 0.91504 -0.82491 1.4224 -0.5904 0.088552 0.61163 0.41225 0.36662 0.44927 1.1774 -1.0896 -1.0763 1.2191 -0.903 -0.54318 0.44831 2.3847 0.25167 -0.82313 -1.0577 0.6172 1.8946 0.44922 0.87607 -0.5978 -0.5376 -1.4546 -0.75502 0.1352 -0.49226 -0.58294 -0.38262 -0.77793 0.2208 1.6085 2.743 -0.62073 0.22788 -1.0598 -1.7523 0.89803 -0.61747 -0.3385 -0.10868 -0.57553 0.81046 1.1711 -0.6298 -0.62139 0.21984 -0.61906 0.14513 -0.41161 0.89201 0.16521 1.9826 0.54191 0.55711 -1.7609 -0.20568 0.080713 -0.09381 -0.59042 0.04186 -2.3445 -0.057772 0.1371 -0.18397 -1.1878 -0.061386 -1.2626 0.055415 -0.63231 -2.6095 -0.15738 -1.4057 0.37638 -0.65781 0.9139 0.17972 
PneumococcalVacPolyvalent 0.60131 -0.11077 0.23617 0.96374 -0.23405 0.51887 0.78541 -0.82338 -0.4335 -0.038608 -0.30926 -0.44844 -0.31002 -0.76382 -0.6686 -0.77424 0.72238 1.8172 0.22803 -0.19047 -1.0627 0.1061 1.3706 0.91634 -0.13376 0.72616 0.76944 0.20088 -0.65697 1.5696 -0.9105 -0.45045 -0.63574 -0.026098 -0.47023 1.4882 0.77865 0.42131 0.17818 -0.4869 -0.89652 0.42829 -0.34479 -0.087377 -0.76892 -0.84117 0.47077 -0.17569 -0.1169 0.91498 -0.49794 1.4967 -0.020048 0.90923 0.89072 -0.67672 -0.59073 0.26485 0.54275 0.67841 0.51461 -1.1043 1.1193 -0.28343 0.32655 0.91541 0.23007 -0.30757 -1.0103 -0.61102 -0.25236 0.32287 0.26962 0.14587 0.17139 -0.17104 -0.014975 -0.52242 -1.5236 1.173 -0.78455 -0.0022816 0.6065 -1.2271 -0.40254 -0.084838 -0.015444 -0.92458 0.52902 -0.022275 -0.75616 0.087017 -0.71036 -0.59295 1.0404 -0.2246 -0.3624 -0.44597 -0.55995 -0.71801 
CefazoLIN -0.48288 -0.67952 2.6861 0.70707 0.77807 1.3038 0.95093 -0.06021 -1.0324 -1.1466 0.86161 0.87947 -1.1102 -1.0535 -0.33905 -0.72018 -0.33204 1.7088 -0.97929 0.08831 -1.4379 -1.3767 0.32546 -0.28976 -0.43637 1.0712 0.83734 0.53031 0.026837 1.6065 -0.82369 -0.38588 0.23777 0.64429 -0.56092 0.98025 1.4013 1.1024 0.031313 -0.76485 0.29345 2.6171 1.0568 0.82762 -0.86095 -0.74507 -1.0018 -1.814 1.0763 -1.0193 1.6174 1.2459 -0.35099 0.4818 0.59534 0.95573 -0.78113 1.3324 -0.22624 0.12466 0.86659 -1.4544 0.048181 0.11544 0.18194 2.3638 0.73169 0.15659 0.90224 0.42996 -0.021986 -0.088389 1.5951 0.26165 -0.46573 0.83117 -0.060711 0.36979 -0.18383 1.0981 0.32359 0.669 -0.80654 -0.73246 -1.2432 0.88016 -0.31966 0.7715 -0.78309 0.13326 0.093139 -0.49915 -0.16614 0.74 1.9027 -1.2311 0.24604 0.25672 0.3026 -0.36342 
PotassiumChl20mEq/1000mLD51/2NS -1.4926 0.63828 0.22989 0.24716 -1.2112 -0.90919 -0.65308 -0.024903 -0.38599 -1.1099 -0.35166 0.78484 -0.64804 -0.56687 0.40209 0.041964 1.1331 -1.1261 -1.2836 -1.5722 0.60091 -0.58751 0.18339 -0.76335 0.70972 0.57722 0.76569 1.532 0.10471 1.8139 -0.16559 -0.86009 0.19031 0.56862 0.63646 -0.51759 0.98659 -0.039061 -0.12786 -0.7971 -0.00032604 1.2347 0.51163 -0.27216 -0.24821 0.65648 -0.2896 -0.55357 -0.13708 -1.5363 0.75527 0.17667 -0.27826 -0.51893 1.0727 1.4145 -0.69167 0.44813 1.194 0.15134 0.11274 -0.53595 0.55674 -0.96305 -0.3373 0.44865 -0.7063 0.65873 0.61935 0.8118 0.21542 -0.20594 0.26728 0.10001 0.077696 0.67188 1.0829 -1.0514 -0.18412 1.2168 -0.040796 -1.0885 0.4854 -0.59162 0.26829 -0.054963 0.56 -0.9306 0.54294 -1.2498 -0.24878 -0.46496 -0.35742 0.83936 0.95607 0.01275 1.2598 -1.1397 0.02901 -1.2364 
CefePIME -0.090205 1.3842 -0.13365 -0.55122 -0.60333 0.31822 -0.24425 0.44173 -0.50496 -0.63107 -0.98637 -0.23755 -0.88128 0.63055 0.058338 0.54854 0.38835 -0.92704 -0.71093 0.90541 -0.63078 1.2964 0.21535 1.1816 -0.66644 0.41876 1.0558 0.61003 -0.18691 1.3563 -0.60056 -0.15814 0.33827 -0.53391 0.89789 0.3148 -0.83598 0.27736 -0.098369 -1.8016 -0.35927 -0.25744 0.020633 0.24855 -1.7281 -1.3538 -0.00062237 1.4454 1.8449 0.73648 0.56427 -0.083344 0.90955 0.20906 -1.0044 -2.8519 -0.58512 -0.62945 -0.83122 -0.53358 0.87329 0.26182 -1.49 -0.79304 1.4501 0.3518 0.60036 -0.39331 0.29171 -0.21625 -0.87231 1.282 1.5141 0.25019 0.22805 -1.0222 -0.028428 -0.5888 0.72469 0.32673 1.0347 1.413 -0.61699 -1.3793 2.4147 0.78433 -0.71143 -1.0701 1.1507 -2.5824 -0.68665 -0.37746 0.69094 0.39164 -0.18482 0.33628 -1.2344 -1.4196 -1.2428 0.28691 
Piperacillin-Tazobactam -0.8513 1.286 -0.10874 0.23848 -1.3255 0.30092 0.2657 0.73152 0.95787 -0.48257 -1.5014 0.23217 -1.4039 -0.84877 0.52466 -0.90003 -0.32243 0.001821 -1.6857 1.0923 -0.725 0.64691 0.50866 1.5237 -0.41302 1.5358 1.2072 0.40696 1.1335 2.128 -0.18105 -0.78713 0.34328 -1.1853 0.87748 -0.01845 0.062982 -0.34719 0.67903 -0.21411 0.50573 0.11998 0.031525 1.6434 -1.7105 -1.5163 -0.56767 0.56179 1.4011 0.69414 0.56274 0.17022 0.92828 0.8957 -1.2984 -2.2016 -0.33046 -0.45891 -0.76762 0.23325 0.18329 -0.20972 -0.57843 -1.512 0.56338 1.2972 -0.79809 -0.2362 0.64762 -1.8051 -0.58664 1.6698 1.1443 0.49028 0.20747 -2.1657 0.011448 -0.68669 1.3591 0.6276 1.0402 0.21069 -1.1374 -0.40315 2.3504 0.28824 -0.38919 -0.67441 0.11148 -2.7896 0.85178 -0.46655 0.99367 -0.019516 0.77157 -0.88424 -2.6378 -1.1825 -1.6095 0.021499 
HeparinFlushCVL(100units/ml) 0.21499 -0.16141 -0.1675 0.15845 0.27184 -1.0146 1.2561 -1.4602 -0.54493 0.069698 -0.27262 -0.38623 1.2522 -0.57873 0.93375 0.5593 0.11491 -2.8848 0.615 -0.083558 0.7767 0.12019 -0.25801 -1.4572 1.487 0.027622 0.15366 1.0853 0.86616 0.097526 0.45042 0.5276 -0.38117 0.13723 -0.34378 -0.5611 -0.46677 0.12333 0.71946 -0.32374 0.36142 -0.36604 0.87237 -1.031 -0.38493 0.73959 -0.61581 0.97807 -0.59166 -1.1329 1.2357 -0.040344 0.33253 -0.13204 0.077353 1.8115 -1.6119 1.587 1.1517 1.6119 0.62491 -0.3311 -1.2126 -0.70471 -0.48839 -0.11273 -1.2501 -1.123 -0.60174 -0.96441 1.7149 -1.249 1.4737 -0.75514 -1.3695 0.73974 0.66685 -1.0486 0.1588 -0.98846 1.2334 0.082662 -0.35172 0.28709 -0.36681 0.094995 -0.53248 -0.30991 -0.57216 0.10818 -0.71147 0.89635 0.24105 0.70046 -0.42882 -0.45216 -0.2507 0.6893 -0.93476 0.10157 
Metronidazole 0.76227 -1.1557 -0.80578 -0.15559 -0.58077 -1.8539 -0.10813 -1.4019 1.1844 -0.38245 -0.071332 -1.4205 2.1635 -0.085563 0.17216 -0.44518 0.54131 -2.0187 -0.29793 -0.84152 1.127 2.6964 -1.1024 -0.99584 0.59524 -1.4641 -0.87919 -0.88622 -0.17557 -0.3431 2.0153 -0.64757 0.096898 0.55049 -0.20755 -1.7505 0.51151 0.32591 0.55529 -0.026912 0.70478 -1.0682 -0.81028 -2.1455 1.0155 -0.443 -0.76516 1.1452 0.024347 0.46041 0.93137 -0.50351 1.3665 -0.24866 -0.50901 0.6542 -0.91322 1.3227 1.7975 -0.28899 0.5116 -0.060312 -1.1608 -0.44456 -1.1581 -0.19254 -0.63016 0.12025 -0.24816 -0.92856 0.62688 -0.39057 1.2974 0.091916 -0.61658 1.1593 0.9868 -1.1543 -0.32209 -3.3516 -0.66618 -0.71101 -0.41538 -0.93038 0.22134 -0.40936 -1.0382 -0.18632 -0.34476 -0.057975 -0.58475 0.71357 1.4434 -0.84102 -0.97763 -0.33878 0.37614 1.2246 0.58094 -2.2679 
CalciumCarbonate -1.1743 -1.1147 0.16031 -1.3218 0.42146 -1.4942 -0.44807 0.23091 -1.1408 0.45254 -0.46737 -0.029669 0.51048 0.66474 0.25303 -0.62136 0.37421 0.46988 -0.018609 -0.56722 -0.36122 0.63629 1.32 0.26442 -0.047467 -0.40711 -0.11985 0.36484 0.12476 -1.2093 0.41132 -0.46095 0.025804 -0.87382 -0.56842 0.31007 0.052588 0.18998 -0.36575 1.0449 1.6061 -1.2234 -1.1332 -0.14769 -0.95478 -1.5367 -0.25889 0.91811 0.29495 -0.2296 0.13383 0.06081 -0.92553 -0.20844 0.042023 0.13891 0.16049 0.47432 0.10623 0.30119 -0.37579 -0.45635 1.4281 -0.91248 -0.65993 -1.3688 1.5269 -1.0773 -0.32149 0.85037 -0.24315 -0.5567 0.075997 0.27909 -0.053253 0.13961 0.62227 -0.52472 -0.16365 0.65446 -0.379 0.15584 0.16068 0.89372 1.2427 0.55538 0.54837 0.01672 -0.21309 -0.63626 -0.56133 -0.2985 -0.71179 0.44613 -0.52256 -0.1488 -0.56105 0.45724 -0.46129 -0.92052 
PhenylephrineHCl 2.1528 -0.11547 2.1757 0.64024 1.7247 -0.75063 1.6759 -1.3142 1.1985 0.94355 1.4258 0.21689 1.4723 -1.2162 0.93587 -1.5657 -0.90953 -0.28113 -0.3915 -0.83862 0.70765 0.068762 0.14553 -2.3789 1.1952 -0.69129 -0.1663 -1.1942 -0.47518 -1.2268 -0.22529 1.2817 0.41792 0.40635 -1.2549 0.1481 -1.1079 1.5819 -0.31264 -0.7806 -0.74728 0.60836 1.3668 0.26466 1.3089 -0.77368 -1.3097 -0.24264 0.78019 -0.38347 1.104 -0.475 0.22335 -1.724 0.085518 2.0887 -0.49344 1.8997 0.40194 -0.67058 1.3949 0.25613 -1.682 -1.1771 -0.62095 0.1984 -1.195 0.25861 -0.018682 -0.71824 0.94888 0.36141 0.99119 0.29615 -0.56116 -0.086271 0.03742 -1.9506 -1.5443 -4.8307 -0.57348 0.45326 -0.83895 -1.1742 -2.9382 -0.87642 -0.19317 0.2212 -0.35877 0.51452 -0.79782 0.8207 -0.49566 -2.0054 -1.3325 -0.3684 -1.714 2.3422 0.41529 -0.037908 
MagnesiumOxide -0.36096 0.047015 -0.51415 -0.73443 0.79263 0.32688 0.09212 1.0698 -0.25922 0.43145 -1.3862 -0.4271 0.77479 1.4086 -0.43873 0.12829 -0.50055 -0.40003 0.97979 -1.1016 1.2016 0.71801 0.193 -0.64853 -0.68215 -0.96034 0.32382 -0.1803 -0.29391 -0.12087 0.47778 -0.59895 -0.56254 0.40207 0.2161 -0.50559 0.43166 -0.091577 -0.38133 0.78658 0.34282 -1.1703 -0.43466 -0.15934 0.1277 -0.26131 -0.32261 1.1937 0.71093 0.40125 -0.055351 0.008356 -0.1877 -0.53405 -0.25604 0.70837 0.98308 -0.397 1.2183 -0.71821 -0.58199 -1.4003 0.66335 -0.15892 -0.55826 -0.51702 0.1121 0.092428 -0.81427 0.10664 0.47598 0.20445 -0.34258 0.2416 -0.16455 0.85591 0.81265 1.2169 -0.39591 0.13876 0.75222 -0.36349 1.7889 -0.21311 0.058547 -0.41335 0.60054 -0.63602 -0.64778 0.46401 0.039896 -0.80594 -0.54675 0.61934 0.014764 0.8431 0.48942 0.4292 0.3757 0.086415 
DiphenhydrAMINE -0.10215 0.66889 -0.20964 -0.43586 -1.1971 -1.3776 -1.2269 -0.26014 0.55094 -0.7731 -0.075978 0.90242 -0.5508 -0.78221 -0.29685 -1.2335 -0.18017 0.27375 -0.23959 0.59261 0.47463 1.2354 0.21591 1.2216 -0.67363 0.48308 1.8377 1.3127 -0.29122 -0.16701 -0.19 -1.4281 -0.4611 0.58795 0.12812 0.23209 -0.25721 1.2395 0.68151 -0.11662 0.16946 0.84175 0.94482 0.41379 -0.69932 -1.1159 -0.45655 -0.28849 -0.55647 -2.0904 -0.83033 -0.61982 -0.85156 0.30473 1.1586 1.4934 0.0016092 0.53056 -2.744 -0.20285 -0.28803 0.46585 -0.12775 0.30187 0.42564 1.0945 0.84183 0.28383 0.82328 0.65186 -0.78886 -2.0987 -0.20726 0.24954 -0.16903 -0.52351 0.25527 0.53892 0.075814 1.8643 1.138 1.7104 -0.040841 0.98057 1.297 1.4426 -0.024007 0.3446 0.070681 -0.58379 0.39369 0.85309 -0.2143 0.1727 0.63817 -0.20146 0.36543 -0.92146 -1.0662 -0.32806 
Glycopyrrolate 2.457 -0.96774 3.4579 0.33809 1.1352 0.80306 1.0527 -0.84446 1.3926 0.23581 1.7188 -0.13492 -2.206 -1.577 -0.41241 -1.3776 0.21601 2.7445 -1.5597 1.0046 0.85549 -2.2223 1.8106 -1.7666 -1.186 0.97093 -0.42247 1.2887 0.55272 1.7334 -0.62939 -0.19824 2.4047 -1.1896 -1.6362 2.0768 1.2341 -0.032986 -0.54524 -0.68437 1.5759 2.9017 -0.79611 0.24709 1.252 0.47451 -1.5799 -0.20412 -0.058072 -0.50762 1.0991 0.46613 0.65622 -0.29374 0.65368 1.1932 -1.2205 0.47387 0.26011 -1.5883 2.7748 -0.62327 -0.78808 0.15112 1.0847 0.99532 -0.15392 0.19142 -0.25298 1.6298 -0.55735 1.001 0.33279 -0.37858 -0.047709 -1.0839 1.3651 -0.19122 -1.0032 -1.9867 0.91402 -0.67826 0.53749 0.68893 -2.8679 -0.37464 -0.8865 -0.36888 -1.8112 0.77502 -2.2315 -0.33231 -0.41031 -2.7007 1.4789 0.44368 -0.5014 0.9639 -0.34667 -0.47956 
NS(MiniBagPlus) -0.88901 0.87333 -0.18872 1.9852 -0.20282 -0.58217 -0.16083 -1.5251 -1.0004 -1.5757 -0.51571 -1.437 -1.878 -0.23492 0.57343 -0.18411 2.2794 -1.0397 0.043062 1.58 -0.48216 -0.077845 -0.68314 -0.34347 1.9853 0.92745 -0.26423 0.30057 2.6577 1.3553 1.8496 0.58114 -1.8831 1.6413 -0.87511 -1.7256 -0.8041 0.87851 -0.88051 -0.089159 1.415 -1.1832 -1.0011 0.016246 1.1918 1.8682 -0.098243 -0.095631 -1.9518 -0.31084 -0.76859 0.24637 1.7886 1.5582 1.6613 2.4854 -0.83401 0.15769 0.75116 1.1265 -1.2392 -0.27227 0.10171 -1.2534 0.18737 -2.178 -1.9872 -0.72959 -1.0071 -0.61935 -0.17945 -1.1586 1.7761 -1.3687 -0.87776 -0.60791 0.46508 0.049103 -0.88211 -0.49787 1.3418 -0.32462 1.5102 1.6284 0.42979 0.61573 1.492 0.98269 -0.43229 1.754 1.9149 -0.10212 -1.7941 0.43522 1.424 -0.55034 -0.13885 1.7102 -2.1717 -0.9895 
MidazolamHCl 0.98291 -0.55938 -0.055765 0.97362 1.3837 -0.40744 0.15454 -1.7565 0.85791 -0.074423 0.095253 -1.6811 0.41132 -0.93159 1.1295 0.134 -1.045 -1.2791 -1.4066 -0.72746 1.5401 1.667 -1.4832 -3.1594 0.93801 -1.2817 -0.59531 -0.28851 -0.45873 -0.64832 1.4143 1.647 0.23172 0.81704 -1.4965 0.39992 -0.54345 -0.20509 0.26051 -0.91525 -0.34091 -0.4745 0.17022 -0.57684 1.2227 0.44112 -0.73836 0.22453 0.76863 0.35834 -0.45772 1.042 1.2471 -1.3176 -0.23902 0.75499 -1.3572 -0.11152 0.93378 0.53691 0.89881 0.67704 -1.9882 -0.91075 -0.6038 0.35203 0.56413 0.4994 -0.6597 0.091502 2.2018 -0.86054 1.3313 -0.077106 -0.5124 -0.26242 0.57285 -1.4131 0.74232 -3.3589 -0.7463 0.21846 0.10259 -1.0405 -0.12397 -0.44213 -0.16668 -0.097331 0.61562 0.052945 -0.099336 0.094396 1.3138 0.0063977 -0.42338 -0.29632 0.70998 2.5523 1.3326 0.36337 
Amlodipine -0.77926 0.27108 0.19032 -0.69841 -0.038589 1.4874 0.46871 0.69019 -1.8415 0.23469 0.44114 -0.32663 0.52231 1.4912 -0.21739 -0.26935 1.4578 0.76112 0.97549 -0.030797 0.31751 -1.2779 1.314 0.13601 0.72085 -0.39494 0.046962 0.044404 -0.89264 0.23012 0.17367 -0.33666 0.24186 0.72696 -0.4685 0.77302 0.042394 -0.6998 0.27129 -0.59345 0.38084 0.014989 -1.0282 -0.56545 -0.18695 -0.20464 -0.85478 0.050953 0.23163 0.4758 -0.73755 0.61764 0.27957 0.68573 0.0031449 -0.17545 1.6532 -0.80252 0.58801 0.39954 0.9611 -1.4253 0.87519 -0.0029649 0.93981 -0.14158 0.54341 -0.29337 -0.52394 0.75017 1.1128 -0.60585 -0.66173 0.30023 -0.65319 -0.37455 0.026892 0.17843 -0.65471 0.065263 0.098089 -0.39654 0.25185 0.093566 0.51409 1.2711 -0.46843 -1.172 -0.47944 -0.0056202 0.15748 0.49326 -0.58551 0.67542 -0.59314 0.096045 0.30301 -1.0108 -0.01339 -0.80747 
CiprofloxacinHCl -0.020861 -0.012765 -0.25744 -0.88683 0.45861 0.13272 0.0013449 -0.11733 -0.9162 -1.4585 -1.3244 -0.6674 -0.38186 1.4061 -0.4288 -0.17888 0.37219 -0.35214 0.37968 -0.75613 0.21772 -0.1457 0.18992 0.21028 -0.075498 -0.23958 0.38102 0.13949 -0.26205 0.44818 -0.27449 -0.998 0.23878 -0.14196 0.48461 0.1177 0.1058 -0.042967 -0.17143 -0.43296 0.8551 0.045859 0.13598 0.11869 0.085799 0.75527 -0.0035002 0.35544 0.86648 -0.086608 0.2521 -0.094187 -0.31054 -0.19111 0.33376 0.27941 0.69838 -0.30225 0.47911 0.079417 -0.53221 -0.14853 0.39928 -1.0013 0.84234 -0.39118 0.17764 -0.6573 -0.4827 -0.37544 -0.15632 0.60312 -0.05582 -0.45366 -0.87522 0.48136 -0.12996 0.61839 -0.53811 0.73335 -0.093154 0.6006 1.2479 0.024826 -0.12543 0.20487 -0.1168 -1.121 0.28286 -0.4923 -0.21975 -0.044433 0.017292 0.36884 1.3422 -0.054489 -0.48111 -0.10565 -0.58783 -0.42691 
Phenytoin -0.33911 0.63986 0.24572 0.023239 0.94139 -0.13755 0.15874 0.4709 -0.45668 0.15492 0.77752 0.098324 0.88036 0.11407 1.1431 -0.69956 1.1236 -1.5785 1.7583 -0.39753 0.18356 0.16313 0.054836 0.82847 0.22544 0.43055 -1.6886 -0.10009 0.04022 -0.15544 -0.72519 0.5633 -1.0388 -1.8733 -0.32813 -0.33908 0.4168 0.0044451 -0.55382 -0.69456 -0.076012 -0.30215 -1.0748 0.75583 0.39531 0.13205 1.8594 -1.1621 0.69667 -1.8278 1.8944 0.69055 0.30715 -0.59003 0.82969 2.3266 0.013333 0.20473 0.62304 0.38436 0.44731 0.32168 0.80176 -0.022585 -0.47162 2.1238 0.12438 -0.62315 -0.78117 1.0717 1.2197 -0.8097 1.2528 -0.074178 -0.94119 1.3627 0.23368 0.044902 1.0559 0.028756 1.097 -0.68785 -0.21742 0.060188 -0.19824 -0.5518 -0.46373 -0.13151 0.11919 -0.2543 0.61446 -0.64233 -0.026457 2.1877 0.27472 0.32501 0.7766 1.043 -0.74228 0.0034865 
FoLICAcid 1.0563 -1.9732 0.37723 0.81061 0.010001 -1.9973 -1.1267 -0.30892 -1.6623 -0.3185 -0.67818 -0.94344 -0.85967 1.285 2.6312 -0.28011 -0.4285 0.33177 0.36432 2.0399 -0.35184 0.6104 0.73284 0.039203 -2.02 1.8674 0.10606 0.023846 -0.79496 1.5145 0.52532 -0.91938 -1.7687 -0.30084 -0.17764 1.8291 0.94003 0.53975 -0.4272 0.77152 0.99945 0.83191 -0.497 0.10922 0.16851 -1.4072 -1.0467 -0.15237 -0.43708 -0.91371 0.59514 0.38118 1.1539 0.03911 0.54611 0.32091 -0.83219 1.8877 0.17493 1.2143 1.3914 0.4272 0.79474 -1.0617 2.356 1.0615 0.66394 -0.13977 -0.099791 0.70361 -0.18408 0.24387 1.2392 -0.36688 0.27161 -1.0945 -1.7466 1.6492 0.20315 2.5116 0.82608 0.65137 -0.72506 -0.87723 -0.38216 -0.34297 1.9919 -0.23798 -0.080567 -0.62741 0.057521 -0.97092 -0.28696 1.3212 1.0379 -2.3864 -1.2897 -0.65393 1.3263 0.079969 
Gabapentin -0.44888 -0.34566 0.24568 -0.7036 0.72027 -0.48733 -0.69283 -0.14077 -0.29 -1.4761 0.41451 -0.78053 -0.32177 -0.86884 0.75794 0.68847 0.32023 0.28002 0.25854 -0.98824 -0.1016 -0.11071 -0.10371 0.13224 0.65782 -0.066591 0.23447 0.74594 -0.31635 -0.73517 -0.94928 0.18125 0.27678 -0.47464 -0.30084 0.054873 0.24879 -0.05472 -0.1652 -0.76449 1.0928 -0.33597 -0.84693 -0.091063 -1.0266 -0.8651 -1.3926 0.40714 0.40173 0.16938 -0.051716 0.30598 -1.2551 0.31247 0.15407 0.35827 -0.098359 -1.385 -0.26775 -0.76559 -0.23405 -0.49526 0.74552 0.6268 0.40798 -0.6324 0.63457 0.026876 -0.72097 -0.26586 0.25606 -0.30364 -0.37765 0.27401 0.49571 0.91418 -1.4629 0.5529 -0.083723 0.11208 0.35264 -0.58028 0.80082 0.90819 -0.32634 -0.19472 0.43536 -0.3376 -0.22455 -0.15755 -0.40467 -1.3923 -0.56956 -0.03063 -0.76341 -0.74933 0.42827 -1.6925 -1.3299 -0.29767 
Prednisone 0.33766 -1.2523 -0.36408 -0.5569 1.9096 -1.9656 0.17732 0.4222 0.56818 0.87604 0.11946 0.40109 0.99236 0.62746 1.4155 -0.57945 -1.0656 -0.91676 0.81231 -1.8887 -0.003045 1.4736 -0.074062 -0.75772 0.75352 -1.7487 -0.53922 -0.45078 -0.65926 -0.97133 0.46243 -0.22233 -0.30558 -0.48879 1.9627 -0.27594 -0.40036 -0.58055 -0.6715 -0.65794 0.40919 -1.8347 -2.1501 -1.8593 0.62883 -0.53028 -0.64855 1.1131 0.31169 -0.32683 -0.1749 -1.006 -0.93114 -0.60662 -0.99714 0.20925 -0.74689 0.4446 1.2599 -0.11014 -0.1388 -0.68239 -1.181 -0.1533 -1.0926 -0.44191 0.84345 0.7813 0.68619 -0.60282 1.61 -1.5865 0.54406 -0.53425 -0.80834 0.21252 2.0308 -0.34054 -0.20233 -1.8107 -0.071749 -0.88341 1.1893 -1.3986 0.79271 0.59692 0.087684 0.44402 -0.95642 0.94187 0.38394 0.50649 -0.12652 -0.76282 -1.1283 0.48706 0.91598 1.9005 1.0453 0.56098 
Labetalol -0.55747 0.21776 0.64045 1.2609 -0.37035 1.4302 0.87023 -0.61374 -0.49523 0.97113 0.21122 -0.51478 -1.3335 -0.14985 0.37887 -0.80852 1.9726 0.047833 -0.14158 1.6776 -1.0745 1.1292 -0.64948 0.34863 0.2689 1.0505 0.51327 0.66358 0.44982 0.20547 0.66279 -0.18317 -0.23792 0.22951 -1.3231 1.3591 -0.28715 -0.041704 1.0247 -1.1519 -0.91885 -0.31145 -1.2473 -0.76712 -0.65652 -0.52154 -0.52897 -0.47433 0.88196 -0.65902 0.42256 0.82373 0.3636 -1.2229 -0.060843 0.54526 1.9391 0.082923 0.063645 0.15303 1.1263 -0.35713 -0.39239 0.58499 1.8763 1.2186 0.099972 0.16605 0.82449 1.3919 0.7564 -0.21232 -0.52913 1.3325 -0.52694 -0.19289 0.14075 0.82159 0.50692 1.7342 0.76953 1.426 -0.86941 -0.3888 0.99383 0.78516 -0.22612 -0.68349 0.39552 -0.30372 1.6966 0.76983 0.13579 1.1858 1.4937 -0.72801 0.46778 -0.84897 -1.386 -1.4993 
Fluconazole -0.0082115 0.29368 0.2371 0.47202 -0.6433 -0.80563 -0.79165 -0.14299 0.10338 -0.51065 -1.0894 -0.88266 0.15105 0.38729 0.42762 1.2218 -0.48093 -0.50129 -1.2804 -0.50619 -0.34029 0.65404 -0.71726 0.55808 0.47168 0.30871 0.10805 0.5368 -0.44761 0.61053 0.36867 -0.15789 0.17655 1.62 -0.50108 -1.1663 -0.54821 -0.1597 0.18014 -0.84481 1.1871 0.22906 -0.10231 -0.069223 0.50443 1.3156 0.68269 0.41467 0.062911 0.31035 -0.27611 -0.98782 -0.34477 -0.12192 -0.52347 -0.1702 -0.56979 0.047093 -0.44052 -0.034903 0.024428 1.2392 -1.5678 -0.64171 0.12659 -0.67023 -1.1129 -0.80766 0.69267 -0.27498 -1.2878 -0.049759 0.58755 -0.10138 -1.0412 0.35773 0.37453 -1.3208 -0.78113 -0.002326 1.3603 -0.35586 1.0277 0.24148 0.31275 0.69967 -1.5914 -0.50246 -0.31529 -1.1024 1.2932 0.58248 -0.50932 1.2699 0.76362 0.67001 0.2387 -0.67559 0.30219 -0.52969 
D5W(EXCELBAG) 0.40677 2.5143 1.1341 -0.21086 0.95361 1.6394 3.15 -0.7339 -1.5222 1.1818 -2.2451 1.045 1.3004 -1.19 0.05674 0.2083 0.29375 -1.3042 0.25627 0.59943 1.4813 0.33226 1.4932 -0.78304 -0.97201 0.51536 0.17724 -0.31684 0.53661 0.32151 0.43794 0.0088771 0.9248 0.61915 -2.8318 -0.6323 0.93316 1.6771 -0.17348 -1.2102 0.21995 -0.13133 2.0962 0.34917 0.72753 0.35293 0.40071 0.4458 -0.38925 -1.7769 -0.77538 -0.043192 0.38088 -2.1199 -0.44511 -0.75104 -1.8383 -0.019754 0.11799 -0.12875 0.33789 0.2445 -1.1581 -0.87798 -0.24662 -0.053809 0.55419 -1.7801 -0.4794 -1.6234 1.3779 -0.69323 -0.36166 -1.9674 -1.9986 0.35757 0.46961 -0.51283 -0.037398 -0.76026 2.0888 -1.0125 -0.032036 -2.1068 -1.7562 -0.12915 0.50962 0.57292 -2.3241 0.74038 -0.27482 -0.042739 -0.43138 -1.7331 0.29042 0.83363 -1.1123 1.8723 -0.32945 0.56677 
Digoxin -0.83343 0.30975 0.25259 -0.24469 0.24127 0.10085 0.5183 -0.23606 -0.6081 0.3504 -1.5613 -0.27689 0.10423 1.6223 -0.8519 -0.50556 0.35238 -0.74372 0.542 0.35052 0.14614 0.10865 1.0373 1.3101 0.23317 0.059531 0.34659 0.32335 -0.4934 0.097972 0.10359 0.035072 0.58477 0.33521 -0.86176 0.38151 1.6668 0.16862 -0.67184 -0.52871 0.2028 -0.56811 0.60786 -0.39015 0.69233 -0.12853 -0.32395 -0.13984 0.93955 0.3117 -0.46113 1.1105 0.88739 -0.030432 -0.46667 -0.37852 -0.58328 0.11244 0.80434 -0.65796 0.42169 -0.5112 -0.2132 0.61632 -1.5103 -0.32199 0.15621 -0.37973 -0.19722 -1.1587 0.13581 0.79803 -0.81956 -0.25543 -0.9502 0.51401 0.51089 -0.0058688 0.21203 -0.40337 0.99232 0.0082725 1.25 -0.12014 0.1412 -0.83269 0.029495 0.31449 -0.15057 -1.308 0.34891 -0.85333 -0.73026 -0.81257 0.99879 0.013433 -1.2007 0.82147 0.30609 -1.0594 
SodiumChloride 0.36408 0.1294 0.29541 0.25889 0.36419 0.52774 -0.08921 0.99082 -0.12331 1.2081 0.73383 1.3966 2.4754 -1.3627 -0.8091 0.4612 0.88246 -0.55859 -0.79562 1.8669 -1.8692 -0.34611 -1.0288 0.36652 -1.3159 0.18795 -1.4645 -0.9393 -1.5795 0.38411 0.54317 0.78855 0.13352 0.6019 -2.7703 -1.5401 -1.2877 -0.68909 -0.10971 0.067502 -1.0308 0.22341 0.30675 1.1279 -0.50431 0.32836 0.16554 0.13032 0.69556 -0.90549 0.25309 -0.26259 -0.068543 0.42276 1.2553 -0.59735 1.7716 0.064792 0.92268 -0.47549 -0.25937 -0.00062393 -0.0039707 -0.6073 0.85622 -1.049 0.37218 0.16392 2.1893 0.98922 -1.2547 1.2724 1.6632 0.90762 0.85877 0.52608 0.42668 -0.19967 1.2317 -1.2967 -0.60092 -0.58373 0.30122 0.71698 0.18327 -1.5921 1.1406 0.24723 1.0484 0.31074 -0.37136 0.77784 -0.33233 0.85101 0.75594 -0.62591 0.12637 -0.13547 0.099731 -0.71101 
Soln. 0.11522 1.6851 2.8709 0.61983 -1.2391 -0.032984 0.60602 0.59808 -0.72262 1.7021 -0.5799 0.36132 1.118 0.51423 0.86107 -0.39259 0.28407 0.55556 0.097994 -0.41518 -2.0517 0.0070433 -1.3102 -1.1178 0.34498 0.074587 -0.85005 0.38799 0.75912 -0.0073927 -1.2973 1.8509 -1.2149 -1.2886 -1.8978 -0.089346 -1.0025 -0.18279 0.44141 -0.69771 -1.6942 2.2176 0.7127 0.98637 0.51786 2.4713 0.79993 -0.18291 1.4736 -0.16687 1.073 1.3349 0.2016 0.65706 -0.93876 1.0131 -0.17423 1.7515 -0.77483 -1.4792 0.76872 0.51209 -1.3536 -1.2042 0.43723 0.59834 0.78819 0.68224 -2.2323 1.5457 0.88578 0.56278 1.6702 -0.10212 -0.68498 -0.92829 0.13094 -0.93696 -1.335 -1.9468 -0.042007 -1.0895 0.47678 -0.79313 -0.31083 0.020892 0.40328 0.84005 -1.6037 0.98088 -0.12797 -0.30666 0.90693 0.9976 0.55082 0.035342 -0.35197 0.93318 1.19 -0.62671 
Acetylcysteine20% 0.03807 1.0699 -0.32328 -0.50735 -0.68496 0.45639 0.026115 -0.57131 -0.23757 0.31284 -1.6583 -0.6676 -0.083197 0.77483 0.00071132 -0.4585 0.65025 -0.50303 -0.4555 -0.3426 1.0537 -0.67987 0.47399 -0.30557 0.27855 0.70994 0.51495 0.33654 -0.88722 0.16794 0.63376 -0.81721 -0.12746 -0.026343 -0.0014934 0.55945 0.059061 -0.22778 0.45168 -0.65375 0.082663 -0.80407 -0.029559 -0.66101 0.14177 0.78166 0.79137 1.7853 0.8029 0.3419 -0.29171 0.29179 -0.42501 0.55022 0.26798 -0.23682 -0.39906 0.077206 -0.40139 -0.022031 -0.35449 0.89833 0.30828 -0.86219 0.085522 -0.6411 -1.2663 -1.3126 -1.2367 1.0277 2.3547 -0.56326 1.2391 1.777 0.097797 -0.1884 0.37168 -0.40952 -0.29555 -1.7863 1.0914 -0.74099 0.11697 0.019686 -0.15212 0.27907 0.13562 -0.74099 0.38541 -0.41378 -0.2991 0.24263 -1.422 -0.29688 0.66047 0.47059 -0.64645 -0.29539 -0.73053 -0.37907 
Meropenem 0.12302 0.83316 -0.27002 -0.58095 -0.22255 -0.46341 -0.93046 0.65897 -0.35375 -0.89625 -1.4927 -0.98152 -0.68315 0.16505 0.56322 1.5214 -1.0322 -1.6223 -0.7081 -0.16267 -0.070339 1.2222 -0.16858 0.2628 -0.45694 0.55457 -0.64401 0.33587 -6.8347e-05 1.0636 -0.85673 -0.61669 1.0365 0.77317 0.95853 -0.2415 -1.3651 -0.38361 -0.42454 -1.7243 0.077311 -0.15401 -0.27218 -0.57245 -1.0415 0.014219 0.64638 0.97432 2.196 0.50672 0.99516 0.27754 0.1766 0.16059 -0.2821 -1.8223 -1.1054 -0.4129 -0.76261 -1.9501 1.3208 1.1409 -2.651 -0.61968 0.53489 0.086322 0.92503 -0.2663 0.91718 -0.9824 -1.1089 1.4658 0.96562 0.0055848 -0.22597 0.2451 -0.049355 -0.24329 0.67459 -0.14345 0.8382 0.77002 0.010324 0.097493 1.7595 0.95197 -1.0026 -0.72814 0.029539 -1.899 -1.059 -0.61253 0.34933 0.46305 0.0069026 0.85723 -1.0059 -0.73524 -1.0537 0.082463 
