1147 100
</s> 0.17907 -0.00049824 0.087848 0.023677 0.1052 0.29829 -0.19535 0.00090214 0.2486 0.30378 -0.29911 0.2047 -0.089615 0.18647 -0.12163 0.060051 -0.012754 -0.28223 -0.16788 -0.15059 0.10406 0.19094 0.083483 -0.019074 -0.33591 -0.13911 0.20594 -0.13336 -0.090382 0.33874 -0.028994 0.11848 -0.1249 -0.17743 -0.3689 0.0083834 -0.012706 -0.24905 -0.1571 0.07762 -0.22387 0.20884 0.14899 0.13314 0.31502 -0.11854 0.29657 -0.0069328 0.046891 0.23802 -0.19228 0.094461 -0.23144 0.2062 -0.18474 -0.23391 -0.21996 -0.053536 0.14674 0.09065 -0.031857 0.032822 0.24968 0.38461 -0.1275 0.13052 -0.19895 0.04873 -0.025158 0.01073 -0.050964 0.39123 0.1764 0.050889 -0.44965 0.17134 0.18345 -0.011021 0.40005 -0.1778 -0.026258 0.057809 0.22232 -0.076298 0.10059 -0.086503 0.14748 0.056195 -0.13902 -0.056618 0.1305 -0.036543 0.38476 -0.082133 0.031494 -0.35047 -0.34762 0.052768 -0.19063 -0.29098 
3893 0.16912 -0.0080243 -0.066515 -0.11368 0.18266 0.23718 -0.51451 0.16651 0.16635 0.18583 -0.24708 0.22558 -0.34181 0.019575 -0.020278 0.089275 0.061566 -0.25848 -0.30463 -0.1382 0.22293 0.12616 0.13374 0.093917 -0.24408 -0.11586 0.18527 -0.14491 -0.098449 0.23961 0.11885 0.15371 0.073429 -0.17883 -0.49393 -0.035506 -0.1778 -0.231 -0.037563 0.060333 -0.11784 0.3099 -0.017418 0.23661 0.55412 -0.1221 0.23897 -0.011757 0.13446 0.29736 -0.23658 -0.085147 -0.032888 0.32495 -0.18617 -0.1359 -0.3165 0.050279 0.013212 0.16268 -0.039997 -0.022505 0.37979 0.32482 -0.077478 0.088189 -0.081979 -0.12602 -0.13804 -0.22081 -0.03608 0.37706 0.071051 0.00071516 -0.32148 0.2497 0.17331 0.082539 0.27616 -0.044868 0.016193 -0.023342 0.218 0.098004 0.17406 0.0038506 0.10266 -0.00074148 -0.084358 -0.046404 0.02452 -0.070611 0.32137 -0.14327 -0.033543 -0.19855 -0.35471 -0.085251 -0.053452 -0.31783 
9604 -0.00056599 -0.1041 -0.028039 -0.098773 0.26902 0.2196 -0.66695 0.042314 0.28246 0.29763 -0.35206 0.21549 -0.2674 0.16748 -0.053313 0.017448 0.029554 -0.32983 -0.30989 -0.16957 0.34736 0.034969 0.17811 0.14432 -0.35055 -0.16472 0.26176 -0.20612 -0.12516 0.37363 0.094618 0.3185 0.12721 -0.071701 -0.57539 -0.23669 -0.14399 -0.21879 -0.029844 0.090124 -0.28202 0.39897 0.052665 0.087878 0.60125 -0.030982 0.39437 0.08206 0.045083 0.36309 -0.21329 -0.17694 0.071664 0.31877 -0.45411 -0.080343 -0.33576 -0.073485 0.021567 0.15142 -0.14092 0.11437 0.35287 0.5509 -0.23079 0.22768 -0.18634 -0.22375 -0.11692 -0.18067 0.076327 0.66613 0.20216 -0.099301 -0.54191 0.20008 0.10451 0.096425 0.4692 -0.36745 0.043247 -0.010115 0.17696 -0.051466 0.17718 -0.0031648 -0.11364 0.11861 -0.13525 -0.089601 0.091213 -0.17463 0.44442 -0.20207 0.077209 -0.16641 -0.34655 -0.045935 -0.023107 -0.29475 
966 0.044143 0.033565 -0.26329 -0.19626 0.16587 0.3501 -0.70122 0.077776 0.34516 0.32761 -0.29634 0.25575 -0.34336 0.26879 0.16932 0.041642 0.04905 -0.27747 -0.28257 -0.12813 0.2575 -0.0047132 0.11589 0.21946 -0.29622 -0.18878 0.36149 -0.10564 -0.1749 0.19319 0.20916 0.18543 0.11039 -0.06216 -0.53664 -0.116 -0.14078 -0.28345 -0.13302 0.14751 -0.16004 0.3864 0.050271 0.1217 0.71979 -0.154 0.37826 0.084567 0.092558 0.42722 -0.21895 -0.0317 -0.0059514 0.29845 -0.39685 -0.18185 -0.37414 0.073511 -0.1888 0.34551 -0.082384 0.094905 0.41505 0.49108 -0.24328 0.11031 -0.081103 -0.32425 -0.20411 -0.33742 0.056833 0.47958 0.04495 -0.055935 -0.24248 0.20075 0.044854 0.23723 0.38985 -0.1496 0.0077843 0.026508 0.24155 0.19775 0.38951 0.14076 -0.088988 0.20539 -0.19697 -0.12774 0.18972 -0.16278 0.37141 -0.23865 -0.14164 -0.15935 -0.3203 -0.13655 -0.12413 -0.38412 
9671 -0.016487 -0.10394 -0.0045366 -0.04295 0.29131 0.28537 -0.51301 -0.060982 0.21178 0.21338 -0.21096 0.11265 -0.16057 0.28515 0.020652 -0.02313 -0.039887 -0.31031 -0.23881 -0.10239 0.32008 0.11665 0.13193 0.010772 -0.37642 -0.14657 0.18006 -0.096204 -0.0094534 0.42444 0.067793 0.29471 0.082913 -0.049176 -0.43904 -0.14691 -0.13196 -0.25113 -0.11091 0.040912 -0.31789 0.23013 0.14921 0.15499 0.46183 -0.14792 0.39466 0.074226 0.058983 0.28098 -0.23649 -0.13215 0.0091771 0.27409 -0.35247 -0.090134 -0.36931 0.065005 -0.021868 0.16797 -0.06814 0.067379 0.22022 0.49418 -0.16433 0.20183 -0.13552 -0.21547 -0.20441 -0.13613 0.012039 0.5566 0.16495 0.077836 -0.49488 0.14498 0.017405 0.093975 0.41476 -0.31846 -0.056844 -0.018187 0.20748 0.081456 0.16908 0.022794 -0.040419 0.12995 -0.15968 -0.058756 0.18788 -0.12849 0.48254 -0.28911 -0.032229 -0.23189 -0.41621 -0.14206 -0.10872 -0.33444 
9904 0.2583 -0.041041 0.084039 -0.0084293 0.12249 0.19639 -0.23563 0.28853 0.039293 0.16565 -0.2926 0.27871 -0.28802 -0.068147 -0.1809 0.24689 -0.037004 -0.48558 -0.26568 -0.15902 0.06338 0.103 0.11093 -0.096484 -0.15182 0.036155 0.2419 -0.1861 -0.041048 0.27767 0.092978 0.064966 -0.032529 -0.2713 -0.39954 -0.021269 -0.056526 -0.19063 0.014829 -0.081282 -0.10348 0.049812 -0.11563 0.24295 0.41085 -0.06589 0.18938 -0.10381 0.16463 0.11497 -0.36402 -0.20195 -0.1629 0.45173 -0.0024557 -0.11936 -0.1793 -0.081373 0.12344 0.14705 -0.02557 -0.10463 0.32428 0.10939 -0.03535 0.00088814 -0.13768 0.052769 -0.0049481 -0.1281 -0.16135 0.28726 0.075002 -0.089793 -0.40402 0.32558 0.37419 0.034817 0.31596 0.048065 -0.0026161 -0.020743 0.23508 -0.11136 0.05907 -0.12387 0.20744 -0.16893 -0.015767 -0.038909 -0.0065285 -0.039442 0.21654 -0.07871 0.037868 -0.26801 -0.42673 -0.062551 -0.067395 -0.208 
3961 0.44608 -0.12216 0.75732 0.16027 -0.089633 0.56026 0.09443 0.1928 0.18641 0.3846 -0.34363 0.30752 -0.52163 -0.33807 -0.57304 0.20267 -0.21708 -0.46155 -0.54506 -0.25001 0.18348 0.59899 0.0086423 -0.27846 -0.64179 0.17346 0.14979 -0.041246 0.017652 0.72018 -0.4752 0.2742 -0.41356 -0.62828 -0.41456 0.34795 -0.13314 -0.38392 -0.20872 -0.077887 -0.1672 0.2911 0.25639 0.47755 0.46273 -0.65863 0.07932 -0.18806 0.15107 0.29416 -0.43221 -0.065027 -0.71064 0.23883 0.31734 -0.34211 -0.18621 -0.031345 0.63345 -0.32866 0.11799 -0.1801 0.40732 0.20344 0.44301 0.46215 -0.67401 0.72022 -0.0028853 0.44753 -0.71003 0.70783 0.50074 0.41617 -0.84223 0.45388 0.44677 -0.53903 0.63853 -0.27905 0.31396 0.18711 0.33465 -0.43828 0.29456 -0.52218 0.91954 0.035294 0.0004534 0.13421 -0.20382 0.084328 0.59947 0.16366 -0.090606 -0.77825 -0.84735 0.26863 -0.21278 -0.63489 
9672 0.015184 -0.030152 -0.19376 -0.19325 0.19966 0.3138 -0.63765 0.061529 0.29086 0.2779 -0.22428 0.19077 -0.41367 0.10802 0.089508 -0.0021359 0.043038 -0.24158 -0.36457 -0.12153 0.29006 0.029977 0.089517 0.18672 -0.298 -0.14793 0.22306 -0.10177 -0.089101 0.25208 0.1118 0.30042 0.11502 -0.13108 -0.48875 -0.051344 -0.19813 -0.34949 -0.017983 0.091405 -0.10436 0.46678 0.095193 0.15064 0.61765 -0.11333 0.26309 0.07755 0.046789 0.46655 -0.20806 -0.02411 0.013513 0.29148 -0.32947 -0.14882 -0.39286 0.10706 -0.088666 0.16524 -0.04694 0.0049367 0.39239 0.42463 -0.1313 0.17705 -0.16127 -0.20584 -0.19908 -0.22542 -0.061532 0.52691 0.057641 0.019136 -0.31884 0.16118 0.011132 0.089929 0.31923 -0.22259 0.058262 0.032112 0.23233 0.15623 0.27733 0.077698 -0.040839 0.15508 -0.15731 -0.052593 0.14965 -0.1453 0.29579 -0.20777 -0.061396 -0.13442 -0.32746 -0.18565 -0.07722 -0.40567 
9955 0.15604 0.029648 -0.13688 -0.16748 0.22692 0.32969 -0.50604 0.030389 0.35287 0.29606 -0.37808 0.19606 -0.1666 0.41447 0.14124 0.057491 0.046616 -0.25904 -0.061305 -0.16691 0.13612 -0.049827 0.1409 0.10835 -0.24918 -0.28425 0.42706 -0.14501 -0.16039 0.1415 0.17167 0.10885 0.024693 0.0057465 -0.54668 -0.07256 0.027863 -0.13911 -0.061784 0.28636 -0.27216 0.25615 0.049184 0.19942 0.67661 -0.12987 0.35368 0.17516 0.086309 0.381 -0.1759 0.065077 -0.13995 0.24113 -0.35899 -0.16252 -0.28769 -0.051901 -0.13233 0.33291 -0.13659 0.14595 0.3242 0.57179 -0.33347 0.042516 -0.030797 -0.32742 -0.18799 -0.32714 0.13536 0.43141 0.087287 -0.052049 -0.16952 0.29398 0.052807 0.26642 0.44028 -0.1092 -0.0065159 0.03278 0.18814 0.063602 0.4166 0.111 -0.087464 0.23455 -0.2662 -0.1115 0.19989 -0.15109 0.46452 -0.17899 -0.22505 -0.31685 -0.23749 -0.032083 -0.16973 -0.32646 
8856 0.216 -0.3055 0.76566 0.4006 0.12556 0.39611 -0.12181 0.011073 0.013176 0.29963 -0.34895 0.20158 -0.13922 -0.1046 -0.64725 0.14529 -0.28007 -0.68461 -0.45986 -0.2187 0.24383 0.56786 0.15576 -0.41646 -0.78306 0.11956 0.079207 -0.094266 0.1158 1.0013 -0.28869 0.48618 -0.24918 -0.46745 -0.42785 -0.12006 -0.068232 -0.39757 -0.28603 -0.26025 -0.39776 0.050117 0.23644 0.3716 0.1912 -0.35602 0.48759 -0.2092 0.15643 0.15606 -0.52801 -0.49092 -0.37038 0.44769 -0.14933 -0.19487 -0.24224 -0.092778 0.7025 -0.21976 -0.026409 -0.11097 0.23665 0.40132 0.14816 0.3912 -0.50345 0.65713 -0.014195 0.44623 -0.48268 0.81648 0.64063 0.30487 -1.2914 0.28967 0.52677 -0.33333 0.83569 -0.46148 0.12155 -0.015227 0.32309 -0.51694 -0.071283 -0.46891 0.62276 -0.16351 0.053778 -0.034133 -0.087869 -0.019842 0.84465 -0.20673 0.13808 -0.65062 -1.0706 0.17024 -0.14383 -0.37943 
3891 0.049708 -0.062456 -0.10153 -0.11624 0.18325 0.27235 -0.59705 0.13205 0.24892 0.29608 -0.30284 0.23225 -0.31789 0.14563 -0.014217 0.074076 -0.010665 -0.35137 -0.3223 -0.15835 0.28693 0.076678 0.18393 0.1375 -0.33723 -0.10821 0.25893 -0.16544 -0.088591 0.34635 0.1095 0.22624 0.15131 -0.19392 -0.53054 -0.16628 -0.15226 -0.24414 -0.047417 0.059835 -0.20079 0.34011 0.034476 0.094811 0.59902 -0.0065801 0.32303 0.0072374 0.076643 0.35173 -0.25764 -0.12659 0.015144 0.35057 -0.33549 -0.12154 -0.32522 0.056241 -0.013711 0.20254 -0.10949 0.045803 0.38491 0.45628 -0.16261 0.17761 -0.14894 -0.18393 -0.16486 -0.20167 0.030894 0.52922 0.098178 -0.054985 -0.45821 0.2214 0.07269 0.092765 0.39667 -0.21007 0.0092509 0.024357 0.1842 0.023126 0.22124 0.022653 -0.02966 0.064259 -0.096034 -0.076599 0.084731 -0.10282 0.37374 -0.18656 0.017739 -0.16662 -0.37735 -0.11659 -0.073821 -0.38643 
3615 0.46204 -0.13753 0.70813 0.29892 -0.064483 0.49974 0.13243 0.15132 0.11026 0.33184 -0.35198 0.29412 -0.35175 -0.26602 -0.57443 0.21478 -0.21443 -0.48667 -0.49911 -0.21495 0.13094 0.56291 0.0066 -0.3164 -0.6504 0.17577 0.11258 -0.058887 0.0018411 0.74378 -0.35973 0.29164 -0.42071 -0.62361 -0.34735 0.25324 -0.12206 -0.4172 -0.22045 -0.13306 -0.2069 0.22217 0.22828 0.47613 0.33655 -0.53349 0.087873 -0.18049 0.14683 0.2776 -0.47908 -0.11399 -0.64066 0.24594 0.26797 -0.28773 -0.19712 -0.039261 0.68359 -0.2921 0.091312 -0.19373 0.38969 0.26085 0.41424 0.36329 -0.60585 0.66527 0.014009 0.43997 -0.6092 0.6523 0.52571 0.40987 -0.92517 0.43876 0.49339 -0.49566 0.68745 -0.29384 0.24906 0.14316 0.28542 -0.41674 0.18099 -0.46515 0.87189 -0.033084 -0.041483 0.077047 -0.18607 0.10555 0.59224 0.10133 -0.039117 -0.71732 -0.88546 0.24662 -0.24801 -0.54417 
9915 0.14456 -0.025962 -0.36914 -0.26069 0.10691 0.38649 -0.73127 0.46901 0.33687 0.29515 -0.50654 0.337 -0.36491 0.2239 0.20378 0.36828 0.012356 -0.58982 -0.30677 -0.27458 0.16283 -0.14768 0.19507 0.18963 -0.11405 -0.13204 0.63274 -0.083205 -0.24493 0.13169 0.31773 -0.016745 0.16024 -0.21597 -0.74733 -0.19477 0.12634 -0.10557 0.072836 0.12125 -0.058853 0.1114 -0.20408 0.21752 0.81791 0.048911 0.33855 0.029707 0.24257 0.21607 -0.44759 -0.20294 -0.08059 0.70565 -0.29243 -0.16882 -0.17487 -0.077411 -0.31905 0.51733 -0.14609 0.11052 0.50024 0.35806 -0.41567 -0.060524 -0.0054549 -0.27481 -0.083771 -0.56902 -0.027602 0.43767 -0.20199 -0.37007 -0.18682 0.35259 0.26309 0.50726 0.45279 0.19014 -0.058025 -8.453e-05 0.27004 0.018749 0.46494 0.14966 -0.057147 -0.02917 -0.1568 -0.24045 0.13194 -0.17656 0.27505 -0.23713 -0.21236 -0.26214 -0.25774 -0.20332 -0.093576 -0.34266 
8872 0.15399 -0.1215 0.41709 0.041743 -0.010256 0.42263 -0.13145 0.18119 0.14529 0.28442 -0.23466 0.23417 -0.41181 -0.183 -0.308 0.10434 -0.065939 -0.35316 -0.45756 -0.27534 0.18464 0.26004 0.030821 -0.039988 -0.42876 0.11003 0.14764 -0.14235 0.054991 0.49002 -0.25557 0.27818 -0.14547 -0.4302 -0.40873 0.14613 -0.15535 -0.35214 -0.072962 -0.090887 -0.11847 0.23748 0.20333 0.30742 0.41404 -0.32226 0.031797 -0.065247 0.040206 0.31358 -0.30136 -0.091077 -0.37025 0.2572 0.10126 -0.23125 -0.21953 -0.018421 0.32405 -0.15967 0.0022173 -0.11908 0.37756 0.2278 0.25718 0.34199 -0.43244 0.34824 -0.047264 0.14171 -0.37727 0.62017 0.27465 0.21921 -0.63951 0.33663 0.29745 -0.3522 0.44344 -0.24203 0.13712 0.1421 0.23012 -0.27123 0.14599 -0.31873 0.4625 -0.04793 -0.041832 0.1034 -0.11122 0.017584 0.43561 0.075799 0.067014 -0.35035 -0.46474 0.12737 -0.073932 -0.442 
3722 0.2701 -0.33664 0.83525 0.496 0.104 0.28551 -0.056749 -0.0073132 -0.034836 0.27315 -0.28765 0.2121 -0.080147 -0.070724 -0.69946 0.21364 -0.34599 -0.67275 -0.44746 -0.14017 0.17446 0.64019 0.13335 -0.52295 -0.7382 0.1498 0.035625 -0.039048 0.098409 1.0337 -0.31803 0.46916 -0.31618 -0.45253 -0.3084 -0.17816 -0.0085725 -0.36872 -0.3716 -0.32954 -0.41264 -0.023006 0.17923 0.36461 0.086564 -0.39082 0.51123 -0.26895 0.23078 0.023818 -0.56973 -0.49161 -0.40227 0.47472 -0.19103 -0.16326 -0.22295 -0.11555 0.72919 -0.17374 0.006456 -0.11431 0.16563 0.357 0.13139 0.32453 -0.44685 0.6811 0.060864 0.4938 -0.56539 0.70852 0.69145 0.25747 -1.3023 0.21488 0.6044 -0.26485 0.8267 -0.38109 0.10937 -0.082517 0.28998 -0.51323 -0.069927 -0.45522 0.70677 -0.16081 0.095469 -0.074797 -0.050806 -0.0094969 0.79335 -0.29174 0.062494 -0.72955 -1.1397 0.18002 -0.12391 -0.26014 
3324 -0.18234 0.00017869 -0.2121 -0.26081 0.12625 0.50134 -0.89193 0.16363 0.35417 0.3625 -0.14815 0.19967 -0.61771 -0.0083564 0.2345 -0.1222 0.15159 -0.081721 -0.55288 -0.23683 0.4426 -0.084161 0.027828 0.38238 -0.27649 -0.1553 0.3138 -0.10304 -0.10117 0.16439 0.053438 0.47794 0.17751 -0.11829 -0.64642 -0.036576 -0.33343 -0.45012 -0.0044469 0.13535 0.069265 0.63645 0.16958 0.18108 0.84461 -0.3445 0.12336 0.26694 -0.067104 0.62115 -0.14527 0.0010247 0.01675 0.26658 -0.31699 -0.193 -0.45213 0.073174 -0.22032 0.11712 -0.036926 0.050394 0.6166 0.5232 0.10465 0.32292 -0.16512 -0.208 -0.2998 -0.2777 -0.12907 0.76648 0.012742 0.04687 -0.22606 0.15485 -0.012045 0.026507 0.33202 -0.29037 0.22682 0.11357 0.26158 0.13702 0.48154 -0.008831 -0.006279 0.28688 -0.20777 -0.059815 0.077556 -0.14863 0.45192 -0.12074 -0.14162 0.0039343 -0.20255 -0.11294 -0.021403 -0.53614 
3995 0.14048 -0.079171 0.076799 -0.053259 0.20349 0.23759 -0.40059 0.30333 0.0035587 0.12839 -0.26787 0.28387 -0.29043 -0.047796 -0.16973 0.2162 -0.045099 -0.5133 -0.32352 -0.2371 0.1888 0.11872 0.27455 -0.043659 -0.17755 0.054118 0.21186 -0.1881 0.071354 0.43148 0.12172 0.19052 0.12531 -0.27215 -0.54396 -0.16988 -0.077656 -0.1851 0.039817 -0.1699 -0.16061 0.065117 -0.086902 0.21741 0.4843 0.06209 0.29922 -0.085625 0.19469 0.097645 -0.33332 -0.34066 0.058734 0.4911 -0.16542 -0.075689 -0.22084 -0.043971 0.13344 0.13122 -0.10156 -0.12132 0.3045 0.17968 -0.1099 0.054957 -0.076226 0.0012267 -0.087278 -0.20868 -0.11527 0.41675 0.11745 -0.064654 -0.4986 0.319 0.31595 0.041461 0.32615 -0.058488 -0.049985 -0.029787 0.21593 -0.1506 0.001832 -0.093575 0.14061 -0.20763 0.15424 -0.011967 -0.033107 -0.0091217 0.39396 -0.14256 0.14994 -0.21696 -0.44521 -0.091741 0.10652 -0.20718 
4513 0.095469 -0.022224 -0.21872 -0.28779 0.09121 0.20743 -0.69742 0.57646 0.13727 0.1633 -0.41434 0.37625 -0.51806 -0.10764 0.10177 0.36877 -0.014688 -0.64137 -0.36837 -0.25633 0.14743 -0.059161 0.23129 0.035893 -0.045515 0.032243 0.46232 -0.14974 -0.11269 0.28835 0.32384 0.11658 0.1381 -0.26777 -0.67569 -0.25184 0.030493 -0.10507 0.20984 -0.032698 0.04278 0.0029752 -0.28326 0.14032 0.67511 0.21646 0.39326 -0.069755 0.18355 0.075226 -0.55629 -0.31305 0.05671 0.69759 -0.21767 -0.096041 -0.14777 -0.039115 -0.10391 0.34595 -0.13874 -0.041691 0.39563 0.063008 -0.23693 0.011823 -0.079121 -0.057568 -0.092496 -0.38629 -0.12173 0.35879 -0.19152 -0.34951 -0.30574 0.26673 0.31331 0.34852 0.26025 0.11567 0.043629 -0.02812 0.25032 -0.13636 0.2101 -0.023418 0.02884 -0.19985 -0.010884 -0.17224 0.010221 -0.098883 0.32338 -0.12697 -0.012799 -0.14737 -0.38391 -0.2522 -0.0083773 -0.29071 
9390 0.11269 0.030064 -0.13494 -0.18358 0.26707 0.3922 -0.5561 0.025316 0.38136 0.33142 -0.40726 0.21852 -0.22043 0.36918 0.10434 0.038423 0.050463 -0.32642 -0.16717 -0.21377 0.24964 -0.0012634 0.14109 0.15333 -0.30958 -0.27286 0.39921 -0.21078 -0.1566 0.21635 0.13587 0.15541 0.045907 -0.042885 -0.61248 -0.061204 -0.048745 -0.23301 -0.03744 0.23723 -0.25843 0.32773 0.086457 0.19367 0.68306 -0.13052 0.34863 0.19074 0.066635 0.43131 -0.19684 0.056829 -0.10401 0.26862 -0.35472 -0.21028 -0.35665 -0.041672 -0.072053 0.26206 -0.10787 0.13337 0.33978 0.57883 -0.3001 0.12227 -0.11535 -0.30302 -0.21201 -0.29286 0.11745 0.58567 0.091627 -0.041652 -0.33127 0.3143 0.093078 0.188 0.47145 -0.2308 -0.01657 0.034819 0.24774 0.07042 0.35136 0.044645 -0.086806 0.18919 -0.26218 -0.096748 0.194 -0.15048 0.47772 -0.17154 -0.099768 -0.28099 -0.25958 -0.042955 -0.17636 -0.36848 
3723 0.19052 -0.33543 0.72987 0.40211 0.13595 0.31193 -0.18352 0.025726 -0.0029748 0.24131 -0.29229 0.14433 -0.095526 -0.028221 -0.5877 0.15869 -0.27921 -0.63725 -0.44727 -0.21573 0.28577 0.57718 0.16845 -0.38789 -0.70972 0.095897 0.047287 -0.033817 0.084317 0.96234 -0.30633 0.47459 -0.19179 -0.40872 -0.40504 -0.17824 -0.075756 -0.33596 -0.30841 -0.27645 -0.3988 0.039005 0.21308 0.31466 0.14966 -0.36033 0.43981 -0.24097 0.16528 0.045111 -0.51061 -0.46721 -0.30308 0.44511 -0.17883 -0.14239 -0.20799 -0.11443 0.60493 -0.19146 -0.027885 -0.077535 0.16789 0.39866 0.10417 0.38063 -0.41059 0.56658 0.047808 0.41785 -0.47753 0.76859 0.60033 0.25349 -1.234 0.19823 0.47159 -0.24654 0.76684 -0.43724 0.081665 -0.043437 0.26236 -0.45304 -0.085255 -0.39629 0.53999 -0.16229 0.088127 -0.036175 -0.046807 -0.025843 0.74864 -0.26236 0.1306 -0.6063 -0.99442 0.16017 -0.078285 -0.29071 
9983 0.13662 0.018634 -0.18128 -0.17859 0.22717 0.4134 -0.57825 0.064194 0.42615 0.34461 -0.40126 0.22559 -0.21288 0.433 0.15252 0.096617 0.065361 -0.32567 -0.12667 -0.20037 0.19495 -0.037099 0.16052 0.16107 -0.25563 -0.29681 0.4341 -0.17026 -0.2118 0.1586 0.19693 0.096379 0.04298 -0.015211 -0.64498 -0.095501 0.0094841 -0.18694 -0.023627 0.28806 -0.27952 0.31476 0.034967 0.20626 0.75556 -0.075863 0.38706 0.16455 0.093718 0.41679 -0.20409 0.050308 -0.13162 0.30358 -0.41776 -0.20965 -0.31941 -0.047176 -0.15872 0.36097 -0.1461 0.16628 0.37275 0.6016 -0.36858 0.073275 -0.053247 -0.34768 -0.19675 -0.37637 0.12342 0.54744 0.057625 -0.084171 -0.25989 0.31354 0.075105 0.28071 0.46526 -0.16836 -0.013204 0.051297 0.23178 0.083845 0.40641 0.099734 -0.11758 0.2319 -0.28128 -0.15453 0.22265 -0.14511 0.48264 -0.20593 -0.18461 -0.31583 -0.24308 -0.079382 -0.21404 -0.37946 
5491 0.23574 0.047923 -0.41427 -0.25473 0.064899 0.23714 -0.87084 0.73856 0.13167 0.1408 -0.35631 0.42378 -0.60759 -0.079239 0.22155 0.51335 -0.0040678 -0.62547 -0.35909 -0.22206 0.091564 -0.16189 0.22998 0.07433 0.088962 -0.024105 0.5808 -0.020916 -0.24894 0.17747 0.50192 0.038428 0.1566 -0.28898 -0.75244 -0.29355 -0.018934 -0.11357 0.1782 -0.0037614 0.16348 -0.028357 -0.49904 0.23592 0.79561 0.12927 0.35312 -0.048997 0.4089 -0.041281 -0.66918 -0.36442 0.055613 0.84036 -0.21702 -0.06229 -0.17786 -0.031896 -0.26376 0.57737 -0.066266 -0.033795 0.61689 0.063645 -0.26373 -0.17873 0.096418 -0.22571 -0.063524 -0.62178 -0.18403 0.21834 -0.24759 -0.40578 -0.059414 0.34503 0.40016 0.56191 0.24873 0.31608 0.019523 -0.086727 0.30975 -0.01759 0.36017 0.16431 0.097835 -0.095372 -0.041934 -0.2123 -0.0112 -0.11868 0.23675 -0.2763 -0.2501 -0.23411 -0.39821 -0.31878 -0.0048333 -0.20522 
0331 0.059317 0.036105 -0.24466 -0.19635 0.23025 0.32797 -0.72931 0.0797 0.33004 0.29344 -0.34264 0.25154 -0.26579 0.22969 0.12342 0.051108 0.05142 -0.29973 -0.27563 -0.121 0.2397 -0.0087695 0.16759 0.19242 -0.30612 -0.21733 0.35585 -0.14319 -0.15145 0.22864 0.24466 0.21709 0.13297 -0.074482 -0.55494 -0.15573 -0.1239 -0.2733 -0.10057 0.19635 -0.19602 0.37394 0.034165 0.13764 0.72946 -0.060363 0.42859 0.097398 0.095395 0.38399 -0.18474 -0.0057655 0.023368 0.33985 -0.44758 -0.17083 -0.41278 0.078978 -0.16569 0.32821 -0.093562 0.057491 0.39917 0.51958 -0.30379 0.081939 -0.049998 -0.30853 -0.21363 -0.36672 0.091085 0.46859 0.041955 -0.094698 -0.2905 0.20095 0.079508 0.22754 0.37721 -0.15054 -0.013668 -0.0090757 0.21184 0.2164 0.30255 0.14766 -0.096028 0.18163 -0.22045 -0.1339 0.19635 -0.15716 0.4178 -0.28141 -0.14825 -0.20803 -0.35227 -0.17511 -0.10768 -0.40285 
640 0.10527 0.028573 -0.10089 -0.092389 0.15493 0.3145 -0.41201 0.018385 0.31466 0.24283 -0.27774 0.14236 -0.1139 0.34956 0.062327 0.072642 0.052773 -0.22504 -0.11126 -0.1358 0.14389 -0.0025454 0.079518 0.10441 -0.22576 -0.22151 0.28792 -0.097847 -0.15306 0.1247 0.10694 0.056206 0.0082278 0.013885 -0.42601 -0.074729 0.016532 -0.14371 -0.095669 0.1983 -0.21767 0.21189 0.045054 0.16852 0.51639 -0.11665 0.29014 0.1251 0.083392 0.25731 -0.1266 0.053367 -0.13218 0.19 -0.3088 -0.17108 -0.2399 -0.02805 -0.096271 0.26582 -0.060663 0.13451 0.26768 0.44146 -0.23158 0.062178 -0.060355 -0.22955 -0.13606 -0.24736 0.067872 0.39331 0.066647 -0.036956 -0.19662 0.19431 0.066832 0.17601 0.34256 -0.10806 -0.013103 0.008632 0.16036 0.068009 0.31956 0.079293 -0.049837 0.20109 -0.21104 -0.072763 0.16435 -0.11031 0.38093 -0.16763 -0.14594 -0.2609 -0.18098 -0.00079261 -0.1455 -0.22846 
8853 0.27264 -0.26007 0.7587 0.38912 0.078718 0.36466 -0.041106 -0.0022515 0.033244 0.27161 -0.26593 0.15906 -0.16148 -0.12737 -0.6076 0.15739 -0.26609 -0.53139 -0.40443 -0.19929 0.19187 0.58148 0.066037 -0.40184 -0.70142 0.116 0.053305 -0.035288 0.036248 0.90265 -0.35365 0.4238 -0.32163 -0.44207 -0.3361 -0.0026423 -0.076287 -0.38474 -0.28967 -0.20101 -0.32687 0.032977 0.25197 0.36884 0.11561 -0.48165 0.29546 -0.17996 0.14439 0.12533 -0.46002 -0.35406 -0.43293 0.30497 0.0063884 -0.19892 -0.14845 -0.096745 0.67994 -0.29043 0.055085 -0.11944 0.2183 0.32725 0.24275 0.40283 -0.46381 0.66531 0.054593 0.49011 -0.53892 0.74197 0.61124 0.36289 -1.1341 0.24156 0.48518 -0.36306 0.74746 -0.39938 0.14226 0.020707 0.25474 -0.46898 0.010863 -0.45232 0.68986 -0.10065 -0.0039993 0.016345 -0.096506 0.0028122 0.72826 -0.11295 0.078634 -0.68652 -0.93178 0.22186 -0.17758 -0.31691 
9907 0.20902 -0.036821 0.055058 -0.15932 0.070736 0.27636 -0.36866 0.46874 0.087022 0.19429 -0.37297 0.37742 -0.4976 -0.23146 -0.062623 0.27938 -0.058375 -0.59253 -0.37399 -0.22875 0.127 0.074136 0.17708 -0.034835 -0.090112 0.10282 0.27025 -0.17997 0.028678 0.33126 0.16014 0.1321 -0.0082711 -0.37428 -0.58185 -0.036622 -0.11511 -0.21343 0.20007 -0.04842 -0.043002 0.031607 -0.14887 0.24792 0.56401 0.048664 0.18292 -0.074418 0.2011 0.13768 -0.44155 -0.21514 -0.092448 0.51411 0.0081209 -0.11046 -0.20411 -0.047665 0.088289 0.16026 -0.025936 -0.15566 0.36879 -0.0065657 -0.0071711 0.049168 -0.19568 0.081592 -0.079356 -0.23022 -0.18438 0.33506 -0.031384 -0.084623 -0.34066 0.4049 0.33708 0.039102 0.2578 0.032703 0.021639 0.032079 0.26494 -0.17279 0.11445 -0.15672 0.2636 -0.17773 -0.015636 -0.050356 -0.12996 -0.043017 0.26883 0.037927 0.041911 -0.22898 -0.42743 -0.15002 -0.056558 -0.3312 
3612 0.35111 -0.17749 0.6874 0.29386 -0.0010651 0.42982 0.032186 0.08937 0.12762 0.35722 -0.25791 0.23818 -0.32784 -0.18885 -0.59432 0.15846 -0.20805 -0.42116 -0.43852 -0.23678 0.072483 0.48385 0.0018515 -0.29664 -0.65035 0.11092 0.084147 -0.14243 0.0429 0.68984 -0.39292 0.29023 -0.31841 -0.52784 -0.37465 0.19523 -0.13853 -0.41686 -0.22653 -0.13721 -0.2119 0.13327 0.17088 0.44574 0.19205 -0.41876 0.099594 -0.12567 0.16903 0.25155 -0.43878 -0.14814 -0.5782 0.28815 0.17888 -0.28372 -0.19008 -0.047474 0.66637 -0.26314 0.060544 -0.18237 0.3778 0.22701 0.41276 0.33398 -0.51583 0.65053 0.02054 0.38918 -0.52134 0.59091 0.5051 0.38442 -0.9107 0.39806 0.51324 -0.48827 0.67802 -0.20057 0.15043 0.10652 0.29375 -0.45254 0.096665 -0.4805 0.7408 -0.096897 -0.068571 0.08291 -0.099989 -0.001823 0.61654 0.050024 0.052209 -0.63839 -0.7584 0.2455 -0.22562 -0.35117 
3491 -0.073014 -0.089672 0.070362 -0.15784 0.08988 0.40975 -0.48041 0.24865 0.17435 0.24602 -0.23852 0.19978 -0.46444 -0.12613 0.024068 0.0061851 0.0045857 -0.28041 -0.42453 -0.26743 0.27667 0.026188 0.090373 0.17644 -0.18985 0.0076735 0.26324 -0.12924 0.030888 0.29511 -0.064942 0.31493 0.071152 -0.24754 -0.52223 -0.03682 -0.16285 -0.29633 0.087543 0.028342 -0.021335 0.21453 0.10818 0.19258 0.55901 -0.20341 0.076808 0.08977 0.011014 0.33863 -0.21389 -0.12126 -0.091074 0.33641 -0.072104 -0.15004 -0.24851 -0.032149 -0.06996 0.043733 -0.027144 0.035183 0.41254 0.25007 0.11163 0.28747 -0.23829 -0.0028674 -0.18267 -0.15814 -0.16961 0.599 0.017651 0.037669 -0.35119 0.27651 0.138 -0.045063 0.29068 -0.16196 0.13057 0.094425 0.23138 -0.061168 0.25939 -0.15569 0.11456 0.039768 -0.085831 -0.017319 -0.055059 -0.078069 0.36593 0.030607 0.015579 -0.075901 -0.23324 -0.0091253 -0.011447 -0.42052 
3895 0.0060593 -0.06806 0.012483 -0.093703 0.11397 0.18708 -0.53394 0.43748 -0.012455 0.17477 -0.37914 0.33567 -0.34961 -0.11409 -0.038766 0.29338 -0.025067 -0.59774 -0.39442 -0.25424 0.19355 0.047518 0.2619 0.0093118 -0.16506 0.063121 0.28597 -0.18684 0.087735 0.41347 0.12427 0.21197 0.2381 -0.24444 -0.56324 -0.27429 -0.0028033 -0.18005 0.10003 -0.16326 -0.094398 0.065105 -0.12386 0.1642 0.55038 0.13774 0.39007 -0.10893 0.21546 0.14119 -0.3598 -0.42547 0.1372 0.64334 -0.23449 -0.029158 -0.26391 -0.010034 0.017142 0.2691 -0.096518 -0.056162 0.31709 0.19953 -0.11571 0.026754 -0.080229 0.016327 -0.12167 -0.32628 -0.11131 0.43276 -0.092291 -0.18745 -0.53424 0.3001 0.32301 0.15151 0.28022 0.010168 -0.081535 -0.06436 0.2253 -0.13266 0.068491 -0.042524 0.11586 -0.20339 0.17173 -0.063121 -0.023408 -0.056119 0.41809 -0.16962 0.11242 -0.12063 -0.47183 -0.27225 0.14483 -0.28856 
311 0.036019 0.06313 -0.24375 -0.078543 0.038491 0.31495 -0.68381 0.038924 0.3205 0.31118 -0.0052659 0.13978 -0.44612 0.047865 0.15365 -0.071902 0.15985 0.10345 -0.35608 -0.074737 0.26633 0.019124 -0.041508 0.26263 -0.30235 -0.22714 0.22472 0.016775 -0.23661 0.058126 0.056182 0.3077 0.024014 -0.095599 -0.3361 0.028536 -0.31753 -0.40105 -0.19975 0.13631 0.098377 0.62777 0.15106 0.17152 0.58379 -0.40027 0.063694 0.14394 0.003917 0.48373 -0.118 0.11067 -0.097827 0.10063 -0.2655 -0.20364 -0.39502 0.13573 -0.14145 0.17525 0.091768 0.014191 0.57586 0.50707 0.051426 0.25885 -0.10501 -0.19444 -0.16175 -0.16124 -0.10316 0.42016 0.14229 0.12857 -0.072953 0.024376 -0.005809 0.018085 0.23537 -0.22311 0.18546 0.072837 0.19373 0.21877 0.41889 0.13167 0.051138 0.36427 -0.22977 -0.031362 0.12452 -0.113 0.31366 -0.20309 -0.27751 -0.14278 -0.22984 -0.04848 -0.10153 -0.36103 
9920 0.12738 -0.4296 0.81286 0.53737 0.22873 0.22306 -0.28953 -0.097046 -0.083913 0.23572 -0.32658 0.11229 0.071908 0.049195 -0.66516 0.15313 -0.38021 -0.77755 -0.44231 -0.12576 0.3092 0.64397 0.21289 -0.56073 -0.79731 0.083469 0.039518 0.024436 0.10342 1.1942 -0.21192 0.62664 -0.19633 -0.2936 -0.3565 -0.39574 0.017292 -0.36552 -0.36186 -0.35695 -0.51895 -0.085871 0.19064 0.27512 0.069982 -0.35197 0.76629 -0.25175 0.24295 -0.048605 -0.5763 -0.74111 -0.18052 0.56729 -0.45858 -0.073802 -0.2309 -0.16424 0.70319 -0.14052 -0.027878 -0.026457 0.077899 0.48335 -0.060527 0.38211 -0.34956 0.60924 0.031135 0.4924 -0.48247 0.88975 0.75143 0.20567 -1.5002 0.097573 0.59002 -0.13542 0.93943 -0.59194 0.069604 -0.19064 0.30183 -0.51935 -0.1405 -0.40963 0.50185 -0.17684 0.12024 -0.18484 -0.014786 -0.10959 0.95634 -0.48875 0.13853 -0.66395 -1.2812 0.092998 -0.10805 -0.22778 
3404 -0.069514 -0.080627 0.1077 -0.089277 -0.13157 0.341 -0.46952 0.24513 0.2521 0.23245 -0.019779 0.13153 -0.5059 -0.11426 -0.010736 0.018495 0.016564 -0.016407 -0.49 -0.21933 0.21522 0.010453 -0.071285 0.21941 -0.18393 0.00037132 0.21407 -0.0029139 -0.025404 0.18721 -0.18717 0.2311 0.030607 -0.24424 -0.44281 0.040563 -0.2222 -0.34374 -0.083074 0.076634 0.085904 0.29282 0.099881 0.14867 0.5442 -0.40571 -0.10916 0.071245 0.031417 0.25191 -0.12607 -0.025827 -0.25139 0.21695 -0.012654 -0.11077 -0.20316 0.045768 -0.098234 0.034721 0.052623 0.003326 0.57762 0.31609 0.32532 0.30048 -0.21923 0.042912 -0.1351 -0.10603 -0.33896 0.53922 0.11788 0.19488 -0.14708 0.17005 0.044558 -0.099056 0.26225 -0.089559 0.20858 0.090298 0.14774 -0.06658 0.46316 -0.079966 0.22786 0.26347 -0.13652 0.064835 -0.030423 -0.048798 0.22394 -0.0032742 -0.16665 -0.10674 -0.21638 0.099168 -0.079788 -0.36326 
3897 0.12079 0.00072813 -0.12119 -0.035446 0.042973 0.21913 -0.50132 0.22828 0.12887 0.11602 -0.11521 0.16673 -0.30915 -0.020998 0.043124 0.18132 0.019273 -0.18407 -0.27024 -0.10353 0.10274 0.033867 0.03706 0.048523 -0.12757 -0.072376 0.27516 0.048188 -0.15112 0.15427 0.11813 0.11935 0.0099288 -0.16027 -0.38642 -0.10882 -0.074473 -0.20301 -0.083252 0.025554 0.05975 0.142 -0.092094 0.20569 0.4089 -0.19152 0.18049 -0.0034128 0.16521 0.083825 -0.29576 -0.12879 -0.079608 0.39204 -0.13646 -0.11153 -0.19018 0.033887 -0.10374 0.25341 0.06075 -0.017497 0.41859 0.22285 -0.027648 0.023349 -0.02004 -0.049528 -0.07176 -0.21465 -0.18317 0.24872 0.029975 -0.054301 -0.15318 0.11076 0.24964 0.21856 0.24832 0.050092 0.07514 -0.066886 0.19904 0.082066 0.2544 0.063298 0.14195 0.086327 -0.084812 -0.082667 0.022366 -0.066782 0.26584 -0.23722 -0.23416 -0.232 -0.30387 -0.071624 -0.022187 -0.17563 
0040 0.064043 -0.31263 0.68427 0.52752 0.13122 -0.022196 -0.33033 -0.042526 -0.31038 0.17718 -0.15314 0.16662 0.26467 0.116 -0.56909 0.29905 -0.33587 -0.83437 -0.34366 -0.053985 0.17637 0.48095 0.2802 -0.56207 -0.62127 0.11885 -0.06477 -0.040814 0.22112 1.031 0.040584 0.48671 -0.056771 -0.090845 -0.26507 -0.71914 0.14839 -0.25734 -0.53387 -0.51695 -0.47914 -0.28103 0.12001 0.20915 0.10197 -0.037589 0.9902 -0.34011 0.29308 -0.24906 -0.49404 -0.9064 0.012099 0.73602 -0.78993 0.053547 -0.33104 -0.084778 0.5136 0.24697 -0.032396 -0.16044 0.12523 0.38392 -0.32487 0.13387 -0.10331 0.46225 -0.062621 0.23422 -0.40883 0.46015 0.66386 -0.10047 -1.3013 -0.07906 0.66728 0.088017 0.76517 -0.36917 -0.037518 -0.34448 0.20362 -0.43463 -0.24559 -0.19815 0.35339 -0.14887 0.36871 -0.27661 0.034812 -0.0917 0.92808 -0.77634 0.0037407 -0.59677 -1.309 0.013581 0.084264 -0.0080168 
8841 0.10735 0.04615 -0.036733 0.087772 0.087602 -0.097071 -0.52557 -0.23376 0.010686 0.17308 -0.0090427 0.21501 0.29814 0.12129 -0.18705 0.056061 -0.039845 -0.27061 -0.11488 0.13038 -0.02823 0.25995 0.21258 -0.14257 -0.62453 -0.13601 -0.015491 0.0066936 0.055746 0.47885 0.15309 0.34498 -0.086589 0.021531 -0.047166 -0.44217 -0.047964 -0.45329 -0.67953 0.060574 -0.27547 0.2787 0.31043 -0.13275 0.26747 0.05477 0.78497 -0.17579 0.030763 0.1567 -0.0022179 -0.12353 0.072197 0.16014 -0.86143 -0.14687 -0.43527 0.35809 0.091017 0.41241 0.039781 -0.21172 0.10574 0.41551 -0.36058 0.071937 -0.059823 0.13687 -0.12432 -0.053991 -0.070887 -0.024684 0.40599 -0.072076 -0.56454 -0.36457 0.098199 0.12743 0.39745 -0.16156 -0.067666 -0.27361 -0.039373 0.29404 0.12319 0.26228 -0.024629 0.29082 -0.0065663 -0.051249 0.25859 -0.039131 0.57715 -0.66587 -0.28172 -0.40178 -0.88506 -0.16719 -0.098707 -0.19366 
4311 0.057125 0.10332 -0.22905 -0.066596 0.12492 0.25448 -0.67809 -0.16012 0.29675 0.27113 0.0074796 0.12095 -0.29767 0.12049 0.12576 -0.14315 0.18111 0.13438 -0.28376 0.048079 0.22775 0.018176 -0.024329 0.20324 -0.32723 -0.28493 0.10961 -0.003472 -0.18943 0.06873 0.15778 0.2919 -0.018537 0.044172 -0.26754 -0.038595 -0.32936 -0.4433 -0.28963 0.1301 -0.013652 0.61872 0.18342 0.13994 0.5716 -0.40231 0.2038 0.16095 0.027346 0.50335 -0.025119 0.15804 -0.0028263 0.0018145 -0.40782 -0.1859 -0.48729 0.17109 -0.14614 0.17383 0.11238 -0.0065832 0.50102 0.50288 -0.032289 0.17701 -0.064073 -0.20985 -0.24452 -0.16614 -0.072067 0.34396 0.24097 0.12831 -0.049233 -0.0010617 0.022665 0.050051 0.24148 -0.24473 0.19556 0.0020912 0.18616 0.36573 0.35323 0.17117 -0.0053352 0.4456 -0.26819 -0.037667 0.18174 -0.14538 0.4063 -0.32281 -0.33637 -0.15556 -0.3169 -0.037677 -0.14233 -0.32268 
3613 0.30783 -0.18245 0.62374 0.29032 0.0084941 0.36839 -0.032996 0.045422 0.11132 0.30707 -0.19652 0.19008 -0.24995 -0.14997 -0.53606 0.14317 -0.18103 -0.3764 -0.40915 -0.17535 0.08537 0.46181 0.0094697 -0.29857 -0.61265 0.078931 0.062996 -0.072638 0.0082336 0.66799 -0.33219 0.30099 -0.31845 -0.45739 -0.30798 0.11224 -0.14039 -0.41005 -0.27926 -0.13011 -0.20724 0.10843 0.19044 0.3813 0.16111 -0.42889 0.13679 -0.12171 0.16865 0.19774 -0.37676 -0.15579 -0.50577 0.25868 0.09891 -0.23733 -0.19951 -0.025069 0.57017 -0.22726 0.087183 -0.14948 0.34249 0.24106 0.34433 0.30675 -0.44867 0.58145 0.020759 0.35869 -0.48226 0.54802 0.4875 0.36455 -0.84369 0.29635 0.45848 -0.39148 0.62876 -0.21567 0.1487 0.071056 0.25676 -0.37521 0.085609 -0.40394 0.6767 -0.057004 -0.067391 0.054658 -0.078174 -0.0084103 0.57574 -0.037257 -0.00082831 -0.60175 -0.73153 0.21785 -0.20256 -0.29446 
3521 0.33619 -0.11518 0.54588 0.21104 -0.083682 0.44122 -0.010811 0.13467 0.12148 0.29831 -0.18432 0.20705 -0.35848 -0.17965 -0.49155 0.15485 -0.0924 -0.30924 -0.44381 -0.22646 0.10142 0.40346 -0.056249 -0.19424 -0.54973 0.084684 0.096736 -0.089525 0.0053386 0.51116 -0.33143 0.25092 -0.30681 -0.4999 -0.34481 0.1927 -0.1703 -0.39316 -0.23596 -0.099366 -0.1047 0.19153 0.19498 0.42659 0.28028 -0.47367 -0.016049 -0.10502 0.099486 0.27105 -0.37081 -0.098742 -0.58144 0.21513 0.19842 -0.28145 -0.21651 -0.018462 0.50848 -0.18927 0.10557 -0.17137 0.44407 0.23084 0.40525 0.32739 -0.45972 0.51236 0.0091384 0.28435 -0.495 0.52374 0.43674 0.38044 -0.70246 0.37225 0.42934 -0.4346 0.56542 -0.18331 0.17904 0.10647 0.24904 -0.34689 0.17574 -0.38356 0.68822 -0.008472 -0.10057 0.12281 -0.13186 0.04982 0.52407 0.01949 -0.057471 -0.54222 -0.62785 0.28043 -0.17251 -0.38419 
0066 0.10902 -0.38343 0.74693 0.58133 0.24919 0.1278 -0.36039 -0.10525 -0.17899 0.1495 -0.23472 0.13777 0.21461 0.13083 -0.69349 0.22889 -0.39862 -0.88592 -0.34174 -0.065522 0.29715 0.61947 0.27875 -0.63699 -0.75695 0.036268 -0.015216 0.062568 0.082705 1.2157 -0.12545 0.64234 -0.19489 -0.18477 -0.33811 -0.59421 0.12351 -0.33993 -0.48707 -0.43662 -0.53132 -0.26701 0.17722 0.27788 -0.0015692 -0.29548 0.94479 -0.31055 0.28859 -0.14627 -0.63198 -0.92754 -0.029403 0.66131 -0.67886 -0.038013 -0.25408 -0.14465 0.62093 -0.010765 0.026338 -0.020448 0.029979 0.42722 -0.2542 0.29996 -0.24117 0.56507 0.020421 0.39177 -0.45137 0.80539 0.76767 0.060502 -1.4993 -0.021386 0.68455 0.035829 0.92111 -0.56592 0.03499 -0.26276 0.29922 -0.4965 -0.19447 -0.32681 0.45982 -0.22249 0.21178 -0.22647 0.069309 -0.11793 1.0358 -0.71135 0.046801 -0.68007 -1.3799 0.051352 -0.012121 -0.077992 
3322 -0.39215 -0.10426 0.00095049 -0.2123 -0.10504 0.56006 -0.85695 0.22967 0.36633 0.37571 0.034275 0.10195 -0.684 -0.098013 0.20639 -0.16189 0.16628 0.11597 -0.67444 -0.32724 0.44952 -0.13336 -0.038392 0.41854 -0.30521 -0.048828 0.33384 -0.015811 -0.094436 0.092206 -0.23044 0.54055 0.11555 -0.079211 -0.63215 -0.027942 -0.24154 -0.43104 -0.12125 0.1004 0.18413 0.6703 0.25509 0.15932 0.84821 -0.51695 -0.098072 0.3242 -0.19607 0.60212 -0.080796 -0.034593 -0.12085 0.23805 -0.24958 -0.16522 -0.31099 0.037681 -0.22967 0.020122 -0.041627 0.09306 0.73528 0.54778 0.3834 0.47022 -0.2444 0.0098139 -0.26859 -0.16375 -0.39033 0.87519 0.038106 0.09988 -0.19255 0.059966 -0.060532 -0.097564 0.35318 -0.34951 0.37121 0.18785 0.17075 -0.091635 0.67482 -0.098116 0.095808 0.4479 -0.18412 -0.02006 0.011262 -0.10407 0.49002 -0.030341 -0.23889 -0.02677 -0.058587 0.037026 0.03044 -0.55776 
3606 0.14683 -0.37646 0.73577 0.55027 0.24864 0.22782 -0.33438 -0.094266 -0.085629 0.19107 -0.25958 0.1283 0.10482 0.11333 -0.63783 0.18151 -0.36103 -0.76584 -0.3483 -0.09368 0.29108 0.59846 0.2307 -0.5607 -0.76153 0.053653 0.02939 0.037133 0.085874 1.1255 -0.14921 0.61837 -0.19418 -0.24484 -0.35654 -0.46693 0.053374 -0.37044 -0.37809 -0.35647 -0.50967 -0.15768 0.1844 0.26595 0.031539 -0.31715 0.78655 -0.24038 0.21165 -0.084794 -0.57774 -0.76661 -0.10807 0.5869 -0.52327 -0.079338 -0.24989 -0.17499 0.61402 -0.066847 -0.022586 -0.011071 0.035094 0.45506 -0.16654 0.32026 -0.29614 0.55744 0.048027 0.43376 -0.42526 0.83567 0.7259 0.13915 -1.4247 0.035847 0.61044 -0.014468 0.89274 -0.52672 0.044819 -0.22022 0.27611 -0.46109 -0.15483 -0.33102 0.45037 -0.17101 0.1197 -0.19268 0.044336 -0.12642 0.93682 -0.58342 0.090907 -0.65824 -1.2515 0.089837 -0.045065 -0.1128 
9905 0.20669 -0.010994 0.015447 -0.14872 0.049846 0.29199 -0.32185 0.48296 0.13405 0.25624 -0.40384 0.37982 -0.45649 -0.23007 -0.047356 0.21533 -0.07823 -0.54771 -0.3763 -0.20643 0.11185 0.085788 0.12873 0.036826 -0.13673 0.075026 0.3136 -0.15674 0.0050457 0.2485 0.10556 0.16151 -0.017912 -0.35986 -0.53559 0.055571 -0.091482 -0.18068 0.15162 -0.023539 -0.00060222 0.0697 -0.16922 0.25167 0.56796 -0.042682 0.13268 -0.067196 0.21047 0.18078 -0.39419 -0.16052 -0.18575 0.46556 0.050406 -0.15947 -0.13356 -0.035196 0.061843 0.10205 -0.038021 -0.10028 0.41603 0.0080455 0.077253 0.086687 -0.17693 0.089339 -0.010124 -0.21901 -0.21932 0.33245 -0.043753 -0.058549 -0.3409 0.40144 0.34217 -0.0041662 0.2726 0.11771 0.07505 0.053423 0.23611 -0.15799 0.1957 -0.16838 0.25722 -0.12227 -0.041224 -0.028378 -0.069576 -0.04263 0.27451 0.066618 -0.033052 -0.19929 -0.40364 -0.14931 -0.089313 -0.36659 
3607 0.10704 -0.40729 0.7843 0.62365 0.26354 0.16825 -0.37173 -0.099534 -0.16128 0.1751 -0.22815 0.12324 0.16422 0.10334 -0.66981 0.22891 -0.39467 -0.84897 -0.36323 -0.078482 0.27227 0.6235 0.25121 -0.63462 -0.75106 0.082672 0.037073 0.05554 0.085224 1.1868 -0.083037 0.63644 -0.19229 -0.20582 -0.33462 -0.57344 0.10115 -0.34825 -0.4238 -0.46165 -0.51307 -0.24229 0.11871 0.27087 0.021075 -0.30011 0.91645 -0.27257 0.26033 -0.18104 -0.64805 -0.90139 -0.075381 0.69863 -0.6311 -0.02484 -0.27319 -0.21065 0.64456 -0.017519 -0.021804 -0.033236 0.03131 0.44941 -0.21783 0.28237 -0.24359 0.58264 0.052644 0.41987 -0.4667 0.79034 0.76815 0.074309 -1.504 -0.012515 0.70072 0.042663 0.93465 -0.51462 0.043903 -0.27925 0.31369 -0.50977 -0.21122 -0.33917 0.45269 -0.18398 0.18276 -0.23933 0.053276 -0.13541 0.99877 -0.71994 0.056212 -0.66881 -1.3568 0.083445 -0.0085868 -0.036065 
3323 -0.32437 -0.050137 -0.15908 -0.23135 -0.040715 0.52158 -0.96859 0.2389 0.34055 0.3516 -0.024728 0.12458 -0.65307 -0.033369 0.24991 -0.10115 0.16148 0.044796 -0.62145 -0.27455 0.41375 -0.13868 0.0042509 0.41697 -0.26473 -0.11614 0.34292 -0.020394 -0.10064 0.086092 -0.10451 0.47208 0.15369 -0.090043 -0.65696 -0.085063 -0.23508 -0.44819 -0.13355 0.13379 0.15118 0.63072 0.19074 0.17878 0.86607 -0.43491 0.045135 0.27291 -0.10643 0.58689 -0.12455 -0.072606 -0.038841 0.33127 -0.34898 -0.1775 -0.37662 0.1049 -0.3092 0.17491 -0.030116 0.070489 0.73599 0.56414 0.20112 0.39439 -0.17889 -0.10549 -0.31418 -0.27519 -0.32722 0.78764 0.0082393 0.024639 -0.17011 0.053908 -0.021826 0.03216 0.3206 -0.27202 0.29134 0.11632 0.20404 0.039689 0.62657 0.016977 -0.0021792 0.42712 -0.17761 -0.065136 0.10075 -0.14879 0.49045 -0.17576 -0.28589 -0.056762 -0.15316 -0.067644 0.013588 -0.54298 
3601 0.13431 -0.39227 0.71996 0.45317 0.18739 0.22993 -0.23746 -0.069456 -0.026447 0.1997 -0.2876 0.079515 0.01219 0.034771 -0.58732 0.13243 -0.28081 -0.67136 -0.39089 -0.18006 0.3116 0.5726 0.14611 -0.43516 -0.71582 0.057301 0.032975 0.021628 0.043345 1.0388 -0.2002 0.50582 -0.21879 -0.32062 -0.36392 -0.29008 -0.035854 -0.3329 -0.35136 -0.28681 -0.448 -0.061893 0.24755 0.28962 0.042799 -0.39019 0.54996 -0.20766 0.21252 -0.013862 -0.56112 -0.54396 -0.22885 0.48039 -0.26239 -0.12413 -0.16484 -0.14088 0.59004 -0.19769 -0.017621 -0.028127 0.12194 0.44191 -0.00091863 0.36791 -0.3328 0.53837 0.061579 0.42298 -0.47642 0.81652 0.65952 0.24749 -1.2943 0.12043 0.45595 -0.14366 0.80045 -0.52797 0.083809 -0.093954 0.23294 -0.42426 -0.11073 -0.39767 0.49816 -0.16852 0.071135 -0.10232 -0.034182 -0.043912 0.82658 -0.30872 0.13309 -0.61983 -1.0371 0.13897 -0.10759 -0.21189 
8964 0.14294 -0.1892 0.27048 0.10177 0.021259 0.23727 -0.20424 0.24511 0.032747 0.18327 -0.24224 0.17894 -0.23456 -0.064876 -0.23589 0.21139 -0.12855 -0.50126 -0.34713 -0.22383 0.14873 0.21739 0.094453 -0.12359 -0.33819 0.079502 0.14983 -0.087016 0.0028686 0.48737 -0.0728 0.21092 -0.044373 -0.34982 -0.40026 -0.080657 -0.044584 -0.18985 -0.032675 -0.15945 -0.15132 -0.0098934 0.0050334 0.23816 0.27494 -0.13204 0.1876 -0.14953 0.14705 0.074164 -0.41848 -0.28533 -0.19926 0.41394 -0.0055628 -0.12204 -0.1165 -0.078975 0.23041 -0.01719 -0.024969 -0.074512 0.28461 0.18917 0.062263 0.18544 -0.22123 0.24379 0.021991 0.041193 -0.26798 0.47903 0.18999 0.039517 -0.61994 0.26929 0.32563 -0.04819 0.44854 -0.10887 0.019596 0.017016 0.21717 -0.25241 0.061232 -0.2147 0.29799 -0.18273 0.020226 -0.047865 -0.062213 -0.027846 0.36366 -0.075111 0.1018 -0.29611 -0.50361 0.033428 -0.061897 -0.24093 
3761 0.26208 -0.31718 0.73336 0.37366 0.095227 0.3427 -0.098935 0.021451 0.046326 0.30407 -0.339 0.19078 -0.17854 -0.064094 -0.61799 0.15974 -0.28251 -0.60591 -0.4605 -0.19607 0.26617 0.60215 0.12187 -0.35441 -0.72784 0.13191 0.073696 -0.05524 0.083044 0.94917 -0.33955 0.43762 -0.24859 -0.44217 -0.39867 -0.01851 -0.10536 -0.40558 -0.27825 -0.22993 -0.38752 0.089445 0.25412 0.33783 0.17752 -0.41909 0.36272 -0.18807 0.17584 0.17768 -0.49097 -0.39526 -0.40016 0.39691 -0.075449 -0.1569 -0.17555 -0.087147 0.649 -0.25653 -0.009785 -0.087648 0.22854 0.39085 0.22425 0.40323 -0.46658 0.60345 0.045074 0.48745 -0.51715 0.8112 0.57737 0.34935 -1.2155 0.27597 0.45067 -0.35504 0.77367 -0.444 0.11274 0.028001 0.2754 -0.49404 0.0098071 -0.43893 0.64907 -0.13574 0.048538 -0.0047596 -0.097498 -0.01619 0.68536 -0.11428 0.16842 -0.61946 -0.98828 0.17834 -0.16585 -0.36119 
3611 0.29769 -0.15964 0.62241 0.26222 -0.067658 0.36948 -0.013345 0.11206 0.090021 0.27655 -0.18761 0.20917 -0.28152 -0.17887 -0.53373 0.17371 -0.16946 -0.38037 -0.42625 -0.22382 0.083888 0.44225 -0.0047675 -0.27304 -0.59334 0.10563 0.08625 -0.070416 0.028091 0.63925 -0.37254 0.27438 -0.31588 -0.48862 -0.31598 0.13125 -0.10758 -0.38766 -0.26915 -0.14263 -0.17347 0.09889 0.19033 0.39256 0.18269 -0.45126 0.092228 -0.15058 0.15205 0.15534 -0.40737 -0.1621 -0.54524 0.27007 0.15047 -0.24537 -0.16133 -0.022408 0.54556 -0.19122 0.098679 -0.17454 0.37147 0.21165 0.35329 0.32601 -0.45399 0.58433 0.047973 0.33922 -0.5276 0.52369 0.47365 0.34833 -0.79542 0.31413 0.4503 -0.39608 0.57685 -0.19202 0.1433 0.082961 0.26723 -0.39635 0.10788 -0.4021 0.69364 -0.069641 -0.031296 0.089057 -0.10223 0.04238 0.54604 -0.014389 -0.0041789 -0.5857 -0.70499 0.23204 -0.16332 -0.32873 
0045 0.090269 -0.30049 0.66573 0.59534 0.13376 -0.0030617 -0.35913 -0.023629 -0.27213 0.15903 -0.16722 0.14844 0.30733 0.065742 -0.66978 0.33017 -0.29764 -0.79079 -0.31456 -0.035823 0.12811 0.51994 0.27177 -0.61842 -0.63821 0.072109 -0.029791 0.072628 0.13294 1.0636 -0.044456 0.48033 -0.1126 -0.15279 -0.26836 -0.6868 0.20955 -0.33633 -0.57092 -0.45319 -0.46193 -0.26424 0.13404 0.20745 0.054875 -0.12514 0.98402 -0.3834 0.29336 -0.27331 -0.54838 -0.91508 -0.0074372 0.68962 -0.77219 0.014382 -0.29515 -0.025647 0.52782 0.2115 0.050943 -0.1424 0.084072 0.3447 -0.31833 0.15425 -0.13403 0.54197 -0.031476 0.23707 -0.46088 0.46937 0.65632 -0.11038 -1.3345 -0.089359 0.67923 0.11037 0.81945 -0.33728 -0.051989 -0.34259 0.21126 -0.39248 -0.20105 -0.21628 0.42231 -0.15121 0.33844 -0.19927 0.099196 -0.05558 0.93762 -0.80864 -0.013714 -0.60283 -1.3036 -0.0215 0.053788 0.014761 
8855 0.18994 -0.31538 0.71835 0.44565 0.11033 0.25456 -0.13346 -0.011509 -0.055079 0.21505 -0.24077 0.12393 -0.020382 -0.052601 -0.59168 0.1719 -0.29181 -0.56519 -0.37622 -0.13945 0.17922 0.50662 0.11722 -0.43503 -0.63416 0.069537 0.026485 0.043416 0.066258 0.89823 -0.23073 0.43551 -0.26131 -0.31918 -0.26208 -0.17121 0.032182 -0.35206 -0.31362 -0.27583 -0.32573 -0.051357 0.1662 0.28913 0.074262 -0.37579 0.50078 -0.1956 0.22203 -0.029328 -0.50049 -0.51125 -0.28416 0.42115 -0.21209 -0.11419 -0.16047 -0.12794 0.60647 -0.17072 0.036481 -0.052817 0.18002 0.36198 0.10411 0.31916 -0.35501 0.57644 0.032771 0.44293 -0.45964 0.67709 0.57684 0.22128 -1.1214 0.16256 0.51072 -0.17801 0.74013 -0.39729 0.14033 -0.10014 0.27303 -0.40769 -0.055299 -0.3804 0.5488 -0.10562 0.070877 -0.088807 -0.053096 -0.042981 0.76622 -0.2798 0.060522 -0.6238 -0.99946 0.13378 -0.14013 -0.22385 
0017 0.035257 -0.12913 0.10164 -0.043659 0.19236 0.25998 -0.44709 0.18275 0.076059 0.18017 -0.25839 0.17726 -0.26679 -0.0094097 -0.099697 0.081909 -0.035621 -0.44666 -0.31518 -0.19317 0.25275 0.1085 0.18363 -0.036448 -0.26581 -0.012342 0.16873 -0.13732 0.0075561 0.42611 0.059156 0.26808 0.072695 -0.19334 -0.49635 -0.15859 -0.10033 -0.22205 0.034695 -0.07577 -0.16429 0.1258 0.041403 0.18483 0.43292 -0.079348 0.28833 -0.024829 0.062025 0.20904 -0.31894 -0.28336 -0.001296 0.41924 -0.21555 -0.085008 -0.24232 -0.074069 0.094525 0.084278 -0.060363 -0.024488 0.25312 0.24662 -0.09044 0.17267 -0.17313 0.03071 -0.11051 -0.11049 -0.12457 0.53216 0.1191 -0.046541 -0.54752 0.23376 0.22823 0.031861 0.37584 -0.21701 0.026942 -0.0048697 0.22837 -0.12883 0.055612 -0.13632 0.077363 -0.087961 -0.017851 -0.078385 -3.455e-05 -0.097175 0.40601 -0.14928 0.084315 -0.18534 -0.41198 -0.079742 0.011808 -0.27173 
9962 0.042864 -0.24305 0.39927 0.080198 0.050992 0.27311 -0.28116 0.22681 0.024706 0.12701 -0.19893 0.10438 -0.17764 -0.09176 -0.27957 0.15613 -0.12983 -0.45651 -0.34744 -0.26941 0.21081 0.25806 0.11221 -0.083767 -0.42276 0.059906 0.085403 -0.074292 0.042849 0.57408 -0.22686 0.28571 -0.026089 -0.37854 -0.44589 -0.14933 -0.069232 -0.2064 -0.11267 -0.11085 -0.22031 0.039346 0.16359 0.19244 0.24718 -0.19836 0.16867 -0.12654 0.098993 0.070439 -0.35376 -0.27538 -0.21224 0.34807 -0.011805 -0.095099 -0.13186 -0.070046 0.25174 -0.079869 -0.0082996 -0.10318 0.30447 0.25477 0.074531 0.30611 -0.29215 0.28519 -0.018122 0.072626 -0.27294 0.57392 0.27731 0.12898 -0.7217 0.21926 0.22353 -0.15117 0.46913 -0.25717 -0.0032905 0.037312 0.16172 -0.24911 0.0038706 -0.21693 0.28457 -0.12042 0.015506 0.040878 -0.089722 -0.017014 0.4299 -0.039486 0.13984 -0.33726 -0.47274 0.071101 -0.034594 -0.29041 
4523 0.14363 -0.052474 -0.072018 -0.07062 0.023881 0.16506 -0.4293 0.40527 0.059297 0.11998 -0.26983 0.24617 -0.30029 -0.064236 -0.0039516 0.31129 -0.048372 -0.48551 -0.29663 -0.17035 0.062899 0.032714 0.15506 -0.050718 -0.092213 0.040334 0.33478 -0.011677 -0.12254 0.25235 0.17956 0.077103 0.022264 -0.20033 -0.44818 -0.16856 0.049863 -0.11119 0.009519 -0.088194 0.02592 -0.051404 -0.15942 0.17421 0.42452 -0.031985 0.24988 -0.077367 0.17679 -0.024638 -0.45153 -0.30975 -0.065862 0.58565 -0.10001 -0.10513 -0.069046 -0.080577 -0.026986 0.26173 -0.010691 -0.061166 0.34033 0.060186 -0.10719 0.004402 -0.058499 0.07861 0.0085906 -0.21349 -0.20582 0.23476 -0.039851 -0.22537 -0.31378 0.17683 0.36832 0.24305 0.29065 0.10799 0.030608 -0.057565 0.20312 -0.11305 0.15187 -0.024534 0.14701 -0.13954 -0.038708 -0.15014 0.013389 -0.056276 0.27277 -0.17521 -0.10266 -0.26319 -0.40081 -0.095841 -0.013708 -0.1637 
8842 0.15182 -0.17336 0.46943 0.383 -0.039054 0.014121 -0.19699 0.15174 -0.24466 0.068356 -0.026647 0.1929 0.090882 0.048812 -0.49871 0.28819 -0.081858 -0.53727 -0.28388 -0.084131 0.061789 0.3153 0.17338 -0.34207 -0.44718 0.12915 -0.040956 -0.015039 0.10631 0.62507 -0.064458 0.26159 -0.034989 -0.19518 -0.19851 -0.37891 0.069528 -0.24894 -0.43115 -0.36324 -0.25146 -0.1535 0.073089 0.21321 0.13388 -0.15812 0.54033 -0.32256 0.18136 -0.13429 -0.43245 -0.63572 -0.058847 0.55406 -0.35619 -0.042099 -0.22019 -0.066189 0.34244 0.15687 0.072981 -0.21015 0.2649 0.22812 -0.072679 0.070533 -0.12472 0.3488 0.0058383 0.13941 -0.3613 0.27852 0.47164 -0.02075 -0.82032 0.027424 0.52465 -0.027789 0.45113 -0.16756 -0.017534 -0.16946 0.17291 -0.30355 -0.19688 -0.12207 0.40176 -0.1306 0.27618 -0.069093 0.032036 0.043214 0.55134 -0.54814 -0.013226 -0.42034 -0.87658 0.026242 0.10861 -0.0060028 
387 0.37121 0.15588 -0.28421 0.23089 0.029279 0.076187 -0.69108 -0.039516 0.2049 0.054976 0.28121 0.029337 -0.18604 0.16827 0.1433 0.063772 0.26537 0.31749 -0.10502 0.21516 0.068896 0.050082 -0.21174 -0.026786 -0.063844 -0.39244 0.14485 0.32034 -0.4486 -0.12034 0.32554 0.046208 -0.15542 0.10043 -0.098309 -0.033009 -0.30076 -0.33815 -0.41498 0.10549 0.19613 0.346 -0.090527 0.30446 0.3302 -0.67924 0.15059 0.11491 0.31058 0.048603 -0.23103 0.041364 -0.11925 0.15742 -0.20097 -0.11341 -0.32557 0.08887 -0.23151 0.43115 0.41079 0.008299 0.65901 0.43539 0.025748 -0.081443 0.24111 -0.3146 -0.027993 -0.18338 -0.21783 -0.032696 0.2524 0.11952 0.28655 -0.1117 0.2624 0.36629 0.13596 0.056129 0.24342 -0.20707 0.21561 0.50205 0.44016 0.30831 0.17785 0.55356 -0.33714 -0.070125 0.15924 -0.067929 0.26846 -0.55663 -0.77572 -0.41005 -0.40218 0.010511 -0.18791 0.051591 
9605 -0.46473 -0.076777 -0.10858 -0.2525 -0.076237 0.58018 -1.0714 0.28888 0.40844 0.40061 0.057497 0.12315 -0.77872 -0.062528 0.25752 -0.209 0.23575 0.15355 -0.72758 -0.34045 0.52051 -0.1836 -0.021896 0.5278 -0.34513 -0.11894 0.35569 -0.041674 -0.11085 0.064075 -0.20376 0.59276 0.1989 -0.056262 -0.73609 -0.053166 -0.32418 -0.49239 -0.13835 0.13035 0.19991 0.79924 0.29355 0.19505 0.99147 -0.54057 -0.056239 0.36103 -0.23321 0.739 -0.098145 -0.080555 -0.065481 0.31437 -0.3695 -0.18285 -0.44289 0.10294 -0.31434 0.089931 -0.060906 0.093525 0.86716 0.6332 0.38297 0.54021 -0.21554 -0.091326 -0.35406 -0.23116 -0.40218 0.98688 0.05276 0.073706 -0.19771 0.050843 -0.054928 -0.1071 0.36115 -0.42799 0.45136 0.17179 0.22677 -0.024077 0.71709 -0.045989 0.022232 0.53078 -0.20015 -0.023684 0.090125 -0.14707 0.62482 -0.12866 -0.32118 0.00012467 -0.042641 -0.0029845 0.02996 -0.65825 
3950 0.106 -0.14846 0.3064 0.28518 -0.080194 -0.10632 -0.39875 0.33382 -0.3738 0.015573 -0.080706 0.29929 0.17966 0.088624 -0.48174 0.46796 -0.14138 -0.74101 -0.20847 -0.08836 0.003367 0.22569 0.38103 -0.38093 -0.37517 0.14544 0.00077372 -0.03234 0.18114 0.69938 0.123 0.22758 0.15292 -0.17699 -0.26315 -0.62876 0.21629 -0.15102 -0.47875 -0.43803 -0.23671 -0.29724 -0.06938 0.15105 0.1949 0.15007 0.79239 -0.43131 0.31523 -0.26274 -0.5187 -0.87806 0.14859 0.83562 -0.65289 0.055411 -0.21619 0.046486 0.23925 0.46039 -0.00033811 -0.207 0.24039 0.14857 -0.33777 -0.081853 0.02801 0.24686 -0.057962 -0.12492 -0.26668 0.098438 0.28827 -0.30084 -0.86139 -0.039653 0.60455 0.19871 0.37102 -0.017044 -0.1348 -0.27173 0.17609 -0.3353 -0.24734 0.034121 0.2869 -0.21048 0.44899 -0.15177 0.043992 0.049019 0.6087 -0.77433 -0.022127 -0.38507 -0.98249 -0.15129 0.22854 0.073909 
0014 0.038446 -0.058102 -0.20035 -0.15276 0.030181 0.26199 -0.67832 0.48335 0.14792 0.18478 -0.27491 0.28356 -0.45466 -0.070882 0.11271 0.2979 0.025707 -0.39448 -0.42528 -0.25507 0.18857 -0.090991 0.14814 0.1565 -0.074479 0.0047972 0.40958 -0.044115 -0.13256 0.18347 0.17025 0.12082 0.19744 -0.24313 -0.59245 -0.20192 -0.025126 -0.17999 0.048005 -0.035714 0.086117 0.15242 -0.15977 0.17041 0.63433 -0.024468 0.21648 -0.015163 0.20643 0.13988 -0.40389 -0.27662 0.022457 0.64427 -0.17532 -0.092166 -0.17189 -0.02777 -0.1953 0.3434 -0.059549 -0.0082816 0.52411 0.22545 -0.12655 0.03122 -0.016326 -0.11282 -0.094985 -0.40354 -0.17681 0.3852 -0.14561 -0.24295 -0.20147 0.23613 0.26089 0.28875 0.2704 0.089662 0.050615 -0.043584 0.22489 -0.042685 0.29108 0.046258 0.078252 -0.058426 -0.005809 -0.1365 -0.010803 -0.096752 0.25539 -0.18728 -0.095751 -0.12133 -0.28865 -0.17286 0.058911 -0.27073 
8847 0.15212 -0.03542 -0.063372 0.012573 -0.07599 0.045241 -0.53349 0.59367 -0.086709 0.047381 -0.18252 0.2955 -0.22504 -0.046932 -0.08925 0.50666 -0.079867 -0.65178 -0.2491 -0.12431 -0.018391 0.016231 0.20761 -0.14539 -0.048788 0.14612 0.3059 0.00087446 -0.055683 0.33803 0.29468 0.033462 0.079107 -0.2838 -0.46087 -0.41009 0.1354 -0.044096 -0.10744 -0.15885 0.034983 -0.26434 -0.32661 0.12167 0.42421 0.1627 0.48079 -0.25139 0.32472 -0.24067 -0.59622 -0.56238 0.037346 0.81161 -0.33122 0.0001655 -0.057616 -0.010859 -0.033303 0.4579 -0.023383 -0.14232 0.34802 -0.0049508 -0.24187 -0.1442 0.063282 0.0568 0.0054617 -0.32245 -0.23343 0.04685 -0.024586 -0.38327 -0.38696 0.11142 0.47496 0.35045 0.23681 0.23294 -0.015315 -0.17252 0.19202 -0.21718 0.082088 0.072362 0.20872 -0.18928 0.18082 -0.16102 -0.021041 0.031618 0.3031 -0.40989 -0.15016 -0.28421 -0.61145 -0.17956 0.058889 -0.057905 
8659 0.40352 0.055602 -0.11349 0.34198 -0.004587 -0.011949 -0.54529 -0.036372 0.20334 0.060982 0.26753 0.037848 -0.16704 0.21862 -0.025098 0.14714 0.18071 0.34428 -0.17331 0.20285 0.1126 0.16278 -0.19608 -0.053476 -0.14765 -0.26697 0.041616 0.30821 -0.3522 -0.029101 0.11028 0.041283 -0.11992 0.029027 -0.071073 -0.019642 -0.31954 -0.33493 -0.50697 0.049343 0.078021 0.35828 -0.10822 0.26458 0.22683 -0.66394 0.06355 0.0078043 0.37522 -0.03974 -0.19273 0.014562 -0.20858 0.12786 -0.18203 -0.029592 -0.32388 0.15806 -0.1589 0.3962 0.40272 0.0087227 0.64359 0.51954 0.14059 -0.011242 0.18709 -0.31148 0.020548 -0.10437 -0.24523 -0.028917 0.36156 0.29596 0.1948 -0.087804 0.20253 0.21727 0.12508 0.037334 0.17792 -0.20352 0.13307 0.30835 0.40288 0.31697 0.2741 0.5391 -0.22653 0.036574 0.081303 -0.0018652 0.20381 -0.511 -0.6301 -0.42337 -0.4938 0.025299 -0.13857 0.027587 
9910 0.0056309 -0.077493 0.11924 0.081851 0.050172 0.069787 -0.44363 0.084203 -0.033292 0.1131 -0.13653 0.1629 0.017752 0.062733 -0.18103 0.14535 -0.082872 -0.40509 -0.21874 -0.058202 0.089125 0.15394 0.22151 -0.13701 -0.32233 -0.011213 0.072423 -0.021283 0.0541 0.45935 0.084705 0.28783 0.072071 -0.09418 -0.26847 -0.36723 0.010248 -0.20634 -0.26965 -0.1371 -0.16551 0.011898 0.048761 0.080352 0.28784 0.0091104 0.51517 -0.13205 0.15649 -0.0019599 -0.25153 -0.36782 0.099055 0.39496 -0.46321 -0.014703 -0.23806 0.057453 0.10091 0.25435 -0.020501 -0.10627 0.18316 0.2511 -0.20534 0.070305 -0.044663 0.093558 -0.094752 -0.090747 -0.14858 0.25972 0.22001 -0.092868 -0.53379 -0.014704 0.26759 0.10326 0.34312 -0.14127 -0.018706 -0.14884 0.10822 -0.049636 0.031606 0.022665 0.084276 0.024233 0.099488 -0.086526 0.087082 -0.04004 0.48349 -0.43013 -0.097591 -0.2414 -0.63054 -0.11648 0.056052 -0.11977 
8622 0.46048 -0.22084 0.11678 0.57807 -0.1999 -0.19976 -0.33854 0.077788 -0.010055 -0.094245 0.43246 0.028565 0.014076 0.20273 -0.3384 0.36622 0.21383 0.31585 -0.2979 0.11824 0.050059 0.19948 -0.22541 -0.13801 -0.1748 -0.0016157 -0.10825 0.30731 -0.29839 0.068147 -0.036492 -0.20376 -0.060567 -0.10248 0.043662 -0.15323 -0.18622 -0.33336 -0.82309 -0.20905 0.030766 0.24542 -0.034287 0.33827 0.15195 -0.75452 -0.056733 -0.21136 0.41818 -0.25057 -0.22692 -0.21043 -0.33894 0.32795 -0.15933 0.12234 -0.27046 0.12737 -0.12388 0.50275 0.36728 -0.10521 0.71688 0.54663 0.14673 -0.22786 0.3287 -0.13895 0.15644 -0.0088208 -0.45459 -0.20889 0.30129 0.291 0.041849 -0.13846 0.33057 0.28313 0.19409 0.2518 0.035146 -0.29898 0.098273 0.12436 0.22595 0.30733 0.54719 0.32904 0.14667 -0.015583 -0.017079 0.13805 0.005169 -0.71962 -0.48488 -0.45804 -0.53583 0.17281 0.030175 0.20745 
5459 0.097608 -0.15863 -0.4387 0.044866 -0.40368 0.19892 -0.78101 0.8925 0.18309 0.13517 -0.17093 0.1708 -0.46097 -0.11715 0.28018 0.73744 0.013517 -0.44067 -0.5322 -0.23328 -0.087667 -0.24767 -0.10181 0.19582 0.068746 0.09144 0.7336 0.3342 -0.5351 -0.081678 0.22823 -0.17084 0.077978 -0.41387 -0.51157 -0.35027 0.25994 -0.0038494 -0.10078 -0.10693 0.48891 -0.132 -0.44424 0.32852 0.52044 -0.24503 0.059055 -0.176 0.36909 -0.25427 -0.76029 -0.44831 -0.29721 1.1588 -0.035288 -0.086574 0.25156 -0.15463 -0.53874 0.66853 0.1163 0.063417 0.81941 0.11057 -0.12573 -0.22433 0.24728 0.090031 0.21381 -0.48122 -0.6471 0.15013 -0.37063 -0.52379 0.10943 0.084771 0.49794 0.77052 0.39903 0.66623 0.096809 -0.14447 0.20876 -0.078656 0.66377 0.27616 0.22643 -0.063749 -0.029961 -0.39532 0.0090572 -0.054163 -0.011572 -0.39055 -0.67713 -0.30532 -0.26116 -0.14795 -0.021824 -0.071478 
4443 0.12054 -0.0082065 -0.14254 -0.11899 0.035737 0.14815 -0.56021 0.43502 0.066665 0.11523 -0.24837 0.27627 -0.34154 -0.058942 0.01819 0.33833 -0.04759 -0.46548 -0.2929 -0.16988 0.082523 -0.0078925 0.17533 -0.04406 -0.069608 0.03567 0.3603 -0.0099304 -0.12172 0.25778 0.2176 0.077076 0.051258 -0.19729 -0.48511 -0.24143 0.03585 -0.11614 0.0054268 -0.041854 0.038174 -0.031177 -0.21305 0.15631 0.48774 0.046401 0.31643 -0.076392 0.21114 -0.013918 -0.47101 -0.31771 -0.018922 0.60954 -0.21934 -0.069679 -0.14324 -0.024735 -0.082294 0.35633 -0.033798 -0.060204 0.36808 0.082512 -0.1577 -0.035051 -0.029836 -0.00056128 -0.067453 -0.30167 -0.18533 0.20957 -0.051447 -0.25476 -0.26248 0.17022 0.33044 0.32553 0.22891 0.1173 0.025686 -0.0795 0.22458 -0.086706 0.17885 0.027307 0.11408 -0.10244 -0.0064047 -0.14018 0.013502 -0.051051 0.29638 -0.24487 -0.15064 -0.23959 -0.4203 -0.14901 0.0062311 -0.16044 
0159 0.14878 0.050975 -0.24247 0.0066352 -0.023616 0.11706 -0.60264 -0.010663 0.25178 0.14379 0.0065369 0.12377 -0.14836 0.035311 0.082382 0.0707 0.026803 0.074687 -0.2725 0.027127 0.025596 0.036418 -0.0064443 0.11762 -0.26984 -0.16206 0.20761 0.14594 -0.23308 0.093166 0.1681 0.13938 -0.054774 -0.084348 -0.1686 -0.15588 -0.1953 -0.32945 -0.36383 0.109 0.059997 0.34847 0.016974 0.12894 0.36923 -0.3403 0.26483 0.011643 0.19095 0.16782 -0.15081 0.082266 -0.11295 0.20592 -0.34231 -0.11453 -0.31727 0.16093 -0.16593 0.32985 0.16954 -0.036297 0.43899 0.36412 -0.085434 0.033848 0.065947 -0.12935 -0.067624 -0.19352 -0.18561 0.097204 0.1437 0.086399 0.013112 -0.10401 0.13623 0.21105 0.18212 0.032415 0.10416 -0.12162 0.11085 0.3222 0.33958 0.25846 0.11128 0.36397 -0.21742 -0.074536 0.1978 -0.053375 0.28031 -0.41895 -0.50042 -0.30702 -0.42899 -0.096898 -0.085025 -0.22039 
9960 0.033705 -0.13217 0.19846 0.10963 0.13337 0.18802 -0.30265 0.038609 0.025658 0.12094 -0.11934 0.09057 -0.091562 0.036686 -0.12536 0.063693 -0.043597 -0.3237 -0.21112 -0.089954 0.20457 0.16453 0.078471 -0.099138 -0.30503 -0.028577 0.067596 -0.028535 -0.0030448 0.40397 -0.006604 0.25675 -0.0231 -0.11768 -0.3054 -0.16389 -0.090752 -0.19779 -0.10469 -0.088966 -0.18669 0.050582 0.07551 0.19366 0.24254 -0.20366 0.27996 -0.034248 0.082966 0.09841 -0.27026 -0.26447 -0.049494 0.27765 -0.19082 -0.06107 -0.19522 -0.058587 0.12085 0.011075 0.018091 -0.010402 0.20039 0.25724 -0.026525 0.17214 -0.12057 0.091527 -0.073808 0.019771 -0.13794 0.4232 0.23803 0.029945 -0.49356 0.13407 0.21918 0.02289 0.38523 -0.23457 0.031402 -0.047626 0.18605 -0.084175 0.043644 -0.10484 0.14653 0.011111 -0.037807 -0.050997 0.012681 -0.054728 0.41804 -0.20782 -0.024477 -0.23157 -0.41862 0.0015596 -0.030073 -0.15603 
8848 0.28303 -0.25024 0.51266 0.64531 -0.036599 -0.21451 -0.20829 0.071708 -0.38727 -0.08801 0.18578 0.14574 0.28982 0.23363 -0.67405 0.47545 -0.045365 -0.40271 -0.18431 0.057484 0.050243 0.38671 0.1777 -0.49448 -0.41307 0.12802 -0.20755 0.10596 0.092876 0.62345 -0.026146 0.12392 0.049691 -0.087209 -0.023605 -0.52137 0.056803 -0.2529 -0.74655 -0.5056 -0.2801 -0.16948 0.042477 0.26277 0.0055121 -0.2852 0.62543 -0.43863 0.37021 -0.33394 -0.43255 -0.78176 -0.011178 0.62915 -0.56559 0.083902 -0.31768 0.02524 0.29804 0.42796 0.18123 -0.25875 0.31656 0.36314 -0.1605 -0.1326 0.10955 0.15889 0.042594 0.14101 -0.37164 0.017221 0.55137 0.019466 -0.76704 -0.1022 0.59698 0.12203 0.40095 -0.079534 -0.11201 -0.33777 0.14419 -0.27566 -0.23476 0.097824 0.48804 -0.021964 0.41058 -0.057757 0.016392 0.13635 0.52252 -0.92415 -0.1504 -0.51069 -1.0597 0.027167 0.21886 0.22229 
4516 0.095711 -0.033496 -0.1524 -0.074122 0.028503 0.19428 -0.58309 0.39093 0.10721 0.095257 -0.22575 0.22211 -0.32704 -0.037126 0.064625 0.30519 0.0072256 -0.34445 -0.31175 -0.18653 0.093901 -0.023155 0.11033 0.0045688 -0.071984 -0.02277 0.35441 0.0031633 -0.17224 0.19162 0.18852 0.08343 0.067052 -0.18887 -0.45675 -0.17851 0.0088821 -0.14289 0.00047973 -0.020471 0.064587 0.02019 -0.18498 0.18786 0.46178 -0.03303 0.26038 -0.043479 0.21718 0.010181 -0.42891 -0.25281 -0.046448 0.57532 -0.15999 -0.091464 -0.11367 -0.015455 -0.11282 0.32231 0.0030696 -0.028109 0.3996 0.14733 -0.14642 -0.00801 -0.019302 -0.033831 -0.046814 -0.27269 -0.18761 0.25979 -0.079118 -0.20034 -0.19922 0.15005 0.3121 0.30943 0.24887 0.099639 0.050037 -0.086009 0.19307 -0.019715 0.22832 0.031319 0.119 -0.04936 -0.057125 -0.12787 0.024337 -0.056272 0.26653 -0.22904 -0.18842 -0.21799 -0.34672 -0.12793 0.0040418 -0.19243 
3721 0.08419 -0.24221 0.55312 0.21089 0.081197 0.23865 -0.22729 0.12774 -0.067842 0.13677 -0.20033 0.16625 -0.083568 -0.062252 -0.404 0.15128 -0.20059 -0.55873 -0.3346 -0.20252 0.19702 0.37066 0.13283 -0.25259 -0.47124 0.065989 0.042083 -0.059551 0.1118 0.72909 -0.21632 0.38502 -0.095035 -0.3232 -0.34695 -0.23151 -0.03543 -0.28016 -0.1732 -0.1948 -0.33201 -0.070847 0.16572 0.22332 0.19313 -0.25242 0.36209 -0.16625 0.12531 -0.03289 -0.38208 -0.38916 -0.19086 0.42247 -0.16447 -0.08095 -0.17449 -0.088181 0.35099 -0.055319 0.029784 -0.078687 0.1995 0.26325 0.040184 0.33025 -0.26062 0.35763 -0.0080895 0.18431 -0.31625 0.61539 0.39677 0.13354 -0.8584 0.17462 0.38026 -0.13032 0.51456 -0.295 0.035447 -0.060595 0.19587 -0.29992 0.00086821 -0.27085 0.37275 -0.11489 0.052774 -0.0026564 -0.058675 -0.039022 0.60297 -0.18532 0.10818 -0.43059 -0.71981 0.091239 -0.0047095 -0.21538 
8852 0.13546 -0.3405 0.68852 0.48449 0.17275 0.15442 -0.19385 -0.068674 -0.11764 0.15088 -0.19754 0.10622 0.091516 0.012798 -0.58674 0.20505 -0.29857 -0.64712 -0.31231 -0.10402 0.19799 0.52142 0.15639 -0.50884 -0.64985 0.080302 -0.017883 0.018973 0.086934 0.97587 -0.16701 0.47546 -0.19187 -0.25862 -0.25405 -0.37905 0.058916 -0.30884 -0.36926 -0.35202 -0.43757 -0.15679 0.17057 0.2599 0.016574 -0.30289 0.64294 -0.24744 0.21381 -0.12116 -0.5076 -0.63447 -0.17862 0.48781 -0.36465 -0.066746 -0.18369 -0.12374 0.55249 -0.062922 0.021049 -0.061078 0.09597 0.36526 -0.086675 0.27862 -0.26094 0.53944 0.057252 0.38453 -0.44381 0.64216 0.63724 0.13464 -1.2226 0.040241 0.52142 -0.062259 0.75118 -0.40376 0.029275 -0.16405 0.23032 -0.40381 -0.12927 -0.31874 0.4768 -0.14419 0.13137 -0.13591 -0.0060389 -0.06271 0.7822 -0.43631 0.088051 -0.60459 -1.0456 0.10764 -0.066712 -0.097714 
9607 0.081172 -0.064996 -0.19238 -0.10479 -0.00012296 0.22218 -0.61248 0.35457 0.19361 0.17309 -0.19769 0.20466 -0.38516 0.015428 0.085711 0.24799 0.039995 -0.30596 -0.36756 -0.16413 0.13406 -0.043288 0.060283 0.12408 -0.10574 -0.052102 0.3643 0.0053174 -0.19508 0.13642 0.1639 0.069517 0.077907 -0.19111 -0.48787 -0.16758 -0.03296 -0.17886 -0.039228 0.00921 0.065157 0.17482 -0.12473 0.18054 0.55035 -0.11576 0.17644 -0.0071601 0.16031 0.11701 -0.37351 -0.19408 -0.075728 0.54409 -0.18132 -0.088018 -0.15177 -0.022985 -0.18225 0.33721 0.0035559 0.012343 0.48846 0.26078 -0.1043 0.01475 -0.022493 -0.09762 -0.051733 -0.28273 -0.19597 0.32749 -0.068218 -0.17196 -0.16239 0.14869 0.19934 0.2928 0.30618 0.097033 0.067914 -0.035057 0.1947 0.009192 0.33202 0.072651 0.064856 0.04234 -0.087646 -0.14545 0.057878 -0.077823 0.21275 -0.21703 -0.20215 -0.19652 -0.29514 -0.11782 -0.031647 -0.23953 
9925 7.1491e-05 0.0079482 -0.21441 -0.15256 0.16928 0.3617 -0.77446 0.34566 0.1552 0.10321 -0.27501 0.20517 -0.32851 -0.048466 0.13137 0.076681 0.048247 -0.23771 -0.42195 -0.1591 0.21201 -0.046546 0.085271 0.22009 -0.073894 -0.12668 0.37443 -0.065955 -0.076385 0.14644 0.13577 0.25367 0.15506 -0.14094 -0.5304 -0.093994 -0.10317 -0.31681 -0.036465 0.10025 0.096816 0.219 -0.076831 0.24135 0.6478 -0.21029 0.1957 0.12792 0.1581 0.17096 -0.22672 -0.12469 -0.0034829 0.55074 -0.18798 -0.11172 -0.27808 0.0050556 -0.30944 0.3028 -0.0087988 0.013348 0.51893 0.35437 -0.080358 0.065482 0.058858 -0.18487 -0.17166 -0.43966 -0.18299 0.41808 -0.084244 -0.089981 -0.16891 0.17465 0.29668 0.24701 0.21821 0.069915 0.11868 -0.11776 0.22038 0.21497 0.36436 0.10123 0.035949 0.13528 -0.13278 -0.1254 0.071673 -0.11822 0.34139 -0.24991 -0.30648 -0.13479 -0.29947 -0.19819 0.0474 -0.29801 
3845 0.26221 -0.13457 0.48904 0.14728 -0.11716 0.41362 -0.03455 0.23561 0.12092 0.27791 -0.15256 0.21236 -0.41961 -0.19334 -0.41378 0.1682 -0.079621 -0.29145 -0.49482 -0.22733 0.12571 0.35591 -0.065053 -0.09064 -0.4777 0.10756 0.12929 -0.060313 0.048855 0.42513 -0.36812 0.2052 -0.23747 -0.50036 -0.36999 0.21731 -0.17025 -0.37762 -0.18346 -0.091766 -0.060415 0.23386 0.16967 0.37792 0.33949 -0.47828 -0.088135 -0.097739 0.1185 0.26936 -0.34243 -0.064858 -0.54454 0.22388 0.22829 -0.24196 -0.2158 0.0026107 0.3753 -0.14047 0.13297 -0.1756 0.49519 0.19637 0.42335 0.30632 -0.44285 0.44834 -0.013364 0.19489 -0.49538 0.48599 0.34575 0.3435 -0.59405 0.37524 0.362 -0.39437 0.46383 -0.1208 0.16668 0.14291 0.24934 -0.32612 0.23178 -0.3153 0.6601 0.011101 -0.03333 0.14972 -0.14468 0.083895 0.43217 0.047081 -0.052239 -0.46011 -0.53403 0.22961 -0.10799 -0.41029 
3522 0.31869 -0.12061 0.50779 0.20625 -0.1098 0.39352 -0.011099 0.17908 0.10011 0.25804 -0.14039 0.16749 -0.33428 -0.20266 -0.43563 0.18617 -0.10569 -0.26396 -0.40548 -0.21539 0.08188 0.3781 -0.05265 -0.16853 -0.51804 0.095892 0.11067 -0.043823 -0.0025513 0.47142 -0.34542 0.21947 -0.31791 -0.50255 -0.30595 0.1736 -0.15037 -0.35782 -0.23464 -0.10253 -0.086112 0.1195 0.18227 0.40323 0.2326 -0.49269 -0.042667 -0.10462 0.13369 0.20184 -0.38123 -0.082392 -0.57543 0.21027 0.22598 -0.26714 -0.17805 0.0038127 0.44262 -0.1663 0.12508 -0.17282 0.45373 0.19364 0.41215 0.31587 -0.42273 0.51259 0.0079913 0.26893 -0.49024 0.46481 0.3929 0.36384 -0.6403 0.33445 0.41908 -0.37186 0.51719 -0.13952 0.17466 0.099788 0.23231 -0.31011 0.17265 -0.33919 0.65893 0.0063895 -0.083365 0.12005 -0.1123 0.061059 0.46981 0.010427 -0.094786 -0.53152 -0.56944 0.26178 -0.16503 -0.36434 
9929 0.073581 0.021459 -0.039074 0.010999 0.037151 0.11573 -0.4785 0.099472 0.046647 0.095338 -0.1265 0.18129 -0.05847 0.037444 -0.043174 0.12249 -0.025711 -0.30115 -0.17678 -0.05647 0.033481 0.095084 0.13792 -0.043445 -0.28512 -0.068547 0.14504 0.039171 -0.088067 0.30976 0.14284 0.19302 -0.014203 -0.10796 -0.26465 -0.27105 -0.053535 -0.20035 -0.24397 0.022507 -0.080292 0.027909 0.014372 0.10499 0.3021 -0.080252 0.40431 -0.045573 0.14493 0.020667 -0.27691 -0.19746 -0.0027633 0.32759 -0.31494 -0.09558 -0.20606 0.053208 -0.0014219 0.25217 0.052971 -0.10877 0.28014 0.20858 -0.15129 0.031034 -0.056054 0.047606 -0.11903 -0.13542 -0.10396 0.14974 0.19124 -0.083453 -0.3113 -0.0047187 0.24666 0.17001 0.28379 -0.032457 0.047308 -0.10212 0.12382 0.097557 0.097462 0.061226 0.08176 0.095282 -0.082825 -0.078654 0.1148 -0.045864 0.4247 -0.32175 -0.22751 -0.27291 -0.48063 -0.090101 -0.042507 -0.13541 
0131 0.13335 0.04442 -0.15316 -0.0054015 0.076734 0.17761 -0.54749 0.030558 0.21541 0.17602 -0.077205 0.12264 -0.22082 0.061335 0.05507 0.057933 0.035001 -0.04498 -0.22462 -0.010141 0.11066 0.053966 0.025008 0.079951 -0.24607 -0.1614 0.20264 0.057211 -0.19915 0.13595 0.13662 0.16687 -0.04802 -0.064687 -0.29021 -0.10314 -0.17337 -0.27394 -0.21582 0.095708 -0.026799 0.28245 0.0093494 0.1543 0.4195 -0.25537 0.25645 0.042867 0.14226 0.20048 -0.17873 0.013277 -0.06618 0.20935 -0.26284 -0.12351 -0.29575 0.10192 -0.095251 0.24158 0.099749 -0.0032836 0.38507 0.34689 -0.076872 0.071016 -0.027791 -0.11066 -0.11643 -0.16191 -0.11215 0.22053 0.13471 0.051787 -0.10682 0.034668 0.13475 0.15138 0.23216 -0.075982 0.074476 -0.06004 0.16341 0.20836 0.3125 0.13208 0.06907 0.25607 -0.20039 -0.075926 0.13781 -0.091385 0.3306 -0.29719 -0.33646 -0.2569 -0.35723 -0.070866 -0.094911 -0.22217 
5187 0.26227 0.16824 -0.32678 -0.19334 -0.095326 0.24687 -0.77364 0.71693 0.12862 0.10544 -0.20356 0.35227 -0.5648 -0.26634 0.11453 0.55205 -0.14977 -0.4519 -0.26612 -0.21339 0.038074 0.012538 0.21341 -0.080942 0.10977 0.086993 0.55696 0.17947 -0.24941 0.25275 0.30717 -0.009553 0.022138 -0.39952 -0.66356 -0.25861 0.053109 -0.044915 0.16889 0.14824 0.28465 -0.17163 -0.55984 0.2377 0.53331 0.26911 0.30685 -0.061914 0.60654 -0.098382 -0.75868 -0.30789 -0.021358 0.77754 -0.16175 -0.03044 -0.1028 0.095686 -0.066621 0.5325 -0.045445 -0.057104 0.60464 -0.10962 -0.2108 -0.13945 -0.0057019 0.037393 -0.18293 -0.52624 -0.22476 0.022167 -0.19129 -0.33743 -0.030568 0.36427 0.4187 0.51168 0.11117 0.29674 0.10329 -0.044091 0.28309 -0.13502 0.36649 0.038844 0.3112 -0.075059 -0.0095457 -0.15434 -0.23708 -0.039859 0.40511 -0.31777 -0.4306 -0.36949 -0.4296 -0.2506 -0.072601 -0.17806 
3321 -0.26334 0.00055212 -0.30811 -0.20554 -0.055922 0.45502 -1.1073 0.2306 0.36993 0.38853 -0.012973 0.12489 -0.69828 -0.016587 0.28707 -0.032298 0.2536 0.076805 -0.60653 -0.24774 0.41288 -0.1503 0.022313 0.43175 -0.25813 -0.18175 0.34404 0.028346 -0.22623 0.0055076 -0.018555 0.48479 0.18423 -0.023014 -0.66096 -0.11576 -0.26053 -0.42158 -0.20206 0.15333 0.22092 0.7868 0.16378 0.22048 0.95304 -0.38195 0.087783 0.30263 -0.074179 0.62103 -0.15082 -0.071823 0.01847 0.33016 -0.48497 -0.16031 -0.43723 0.14377 -0.33397 0.29778 -0.034857 0.056876 0.79896 0.62657 0.11084 0.3533 -0.080056 -0.18593 -0.3346 -0.33575 -0.28383 0.71243 0.013976 -0.018017 -0.11253 0.01382 -0.044102 0.10046 0.2884 -0.25634 0.32203 0.1085 0.1956 0.094413 0.63088 0.12391 -0.05173 0.46339 -0.14966 -0.086376 0.10929 -0.14199 0.54195 -0.2748 -0.34702 -0.063408 -0.12172 -0.094822 0.059336 -0.48137 
3990 0.096484 -0.17363 0.38281 0.39354 -0.057899 -0.060543 -0.37053 0.27887 -0.33653 0.036272 -0.079552 0.25318 0.18434 0.094923 -0.53671 0.47592 -0.16412 -0.73314 -0.24045 -0.098641 0.037108 0.29184 0.29962 -0.43047 -0.42661 0.20328 -0.022743 0.0057283 0.15671 0.69495 0.047487 0.25017 0.11036 -0.19439 -0.24013 -0.64766 0.21913 -0.19282 -0.4771 -0.46061 -0.21843 -0.31693 -0.030068 0.18747 0.16955 0.044765 0.78938 -0.39336 0.33215 -0.26973 -0.5431 -0.89409 0.072222 0.80323 -0.60668 0.040157 -0.22905 -0.018168 0.27239 0.40656 0.029418 -0.23828 0.24971 0.19332 -0.309 -0.033399 0.024955 0.30403 -0.060903 0.0065508 -0.32873 0.17405 0.39354 -0.19211 -0.84932 -0.031843 0.6292 0.14963 0.44585 -0.070016 -0.10322 -0.26191 0.15498 -0.40375 -0.19665 -0.017085 0.32714 -0.18936 0.41077 -0.19166 0.022828 0.027492 0.60943 -0.79251 -0.079916 -0.45036 -1.0728 -0.082413 0.19563 0.051127 
0309 0.46288 0.37908 -0.18363 0.31665 0.28818 0.35322 -0.60484 -0.36379 0.12472 0.029021 0.32724 -0.031957 -0.24593 -0.041248 0.30951 -0.20619 0.37893 0.35922 0.11495 0.30161 -0.015873 0.0029439 -0.31618 -0.22223 -0.11699 -0.60285 0.21091 0.36681 -0.61087 -0.13612 0.58306 0.21574 -0.64374 0.3425 -0.015353 0.15001 -0.36824 -0.54017 -0.34657 0.10526 0.3016 0.18024 -0.016908 0.60059 0.33073 -1.0951 0.35405 0.43206 0.15939 0.27246 -0.33643 0.15228 -0.164 -0.051353 -0.11953 -0.43087 -0.42874 -0.12684 -0.032344 0.11873 0.56159 0.00030566 0.48853 0.198 -0.0023786 -0.063008 0.13869 0.003883 -0.14818 0.0049778 -0.30151 0.14218 0.48695 0.11703 0.33052 -0.0037009 0.67291 0.46398 0.34546 -0.18811 0.48668 -0.18911 0.5103 0.69927 0.41119 -0.0054613 0.32333 0.63924 -0.66488 -0.2461 0.19543 -0.21808 0.77598 -0.55331 -1.1266 -0.56051 -0.38081 0.25112 -0.36791 0.18653 
022 0.091687 0.078119 -0.31749 -0.064479 0.054111 0.099035 -0.71867 -0.042837 0.23977 0.21159 -0.11244 0.21107 -0.1078 0.15534 0.084318 0.021617 0.01026 -0.096337 -0.26265 0.042491 0.10151 0.078274 0.10551 0.14378 -0.3969 -0.18877 0.18719 0.034604 -0.17048 0.21826 0.21778 0.22318 0.047415 -0.072512 -0.26847 -0.2404 -0.20677 -0.36524 -0.39695 0.17232 -0.091349 0.42271 0.1091 0.003591 0.5089 -0.13946 0.4066 -0.028988 0.12915 0.27016 -0.094235 0.055141 0.012618 0.20505 -0.53719 -0.1419 -0.38912 0.23396 -0.16802 0.38181 0.055439 -0.058459 0.39196 0.46865 -0.251 0.053655 -0.0055214 -0.19215 -0.16599 -0.24838 -0.020078 0.14614 0.14886 -0.0075647 -0.17992 -0.11346 0.0064348 0.19956 0.2477 -0.050238 0.0031295 -0.10762 0.097374 0.37168 0.32495 0.30764 -0.052394 0.32982 -0.17449 -0.080815 0.24261 -0.088577 0.33145 -0.43612 -0.33575 -0.26496 -0.51616 -0.1749 -0.12708 -0.29962 
3778 0.20277 -0.31565 0.64444 0.32146 0.15214 0.27185 -0.23526 0.016292 -0.061195 0.049157 -0.15552 0.0088531 -0.027454 -0.081251 -0.49053 0.11034 -0.11759 -0.49421 -0.30676 -0.19885 0.28043 0.47549 0.096028 -0.36581 -0.66214 0.0066393 -0.023757 -0.038763 0.027687 0.81914 -0.31529 0.48887 -0.19283 -0.41754 -0.42981 -0.24125 -0.1427 -0.30271 -0.29529 -0.13168 -0.38016 -0.087361 0.3066 0.32608 0.066959 -0.46969 0.34305 -0.19045 0.092406 0.021502 -0.40639 -0.39221 -0.32647 0.29787 -0.012682 -0.19915 -0.17925 -0.1542 0.49042 -0.18836 0.11608 -0.12596 0.24091 0.35164 0.053053 0.42123 -0.34197 0.45752 0.030332 0.28874 -0.43582 0.6541 0.62335 0.29811 -1.0134 0.15932 0.35067 -0.27966 0.64687 -0.4116 0.055588 -0.017677 0.24292 -0.34723 -0.10784 -0.35944 0.4797 -0.13075 -0.034412 0.080897 -0.074869 0.021552 0.7364 -0.19301 0.093684 -0.60092 -0.78544 0.19679 -0.10409 -0.2633 
4639 0.024419 -0.11292 -0.32333 -0.1464 -0.38631 0.33684 -0.82996 0.74134 0.22156 0.1407 -0.18942 0.16278 -0.54721 -0.075091 0.27718 0.53208 0.054132 -0.26193 -0.53326 -0.26733 0.001663 -0.19204 -0.08638 0.2975 0.093817 0.038113 0.65348 0.26665 -0.40798 -0.10168 0.13347 -0.06835 0.11292 -0.34507 -0.54822 -0.24208 0.11995 -0.13981 -0.069908 0.026845 0.44248 0.006373 -0.27854 0.1894 0.66407 -0.18519 0.040699 -0.086223 0.22469 0.0036482 -0.57648 -0.22394 -0.26123 0.82311 -0.1076 -0.1031 0.051335 -0.064935 -0.52296 0.55904 0.098171 0.092834 0.73592 0.13795 -0.034297 -0.076353 0.050788 -0.039681 0.053678 -0.45837 -0.52309 0.24476 -0.28252 -0.32906 0.17065 0.082739 0.26119 0.58122 0.28457 0.38447 0.18781 -0.036756 0.19767 0.04392 0.68264 0.17936 0.13081 0.076633 -0.054116 -0.25168 -0.029013 -0.060219 0.067313 -0.28813 -0.51942 -0.13397 -0.11325 -0.13089 -0.05885 -0.23152 
3783 0.33878 -0.27278 0.5558 0.27262 0.022308 0.26919 -0.22492 0.1235 0.0077193 -0.019984 -0.089553 -0.037514 -0.045774 -0.12948 -0.47179 0.12027 0.0024573 -0.33497 -0.33894 -0.22873 0.22425 0.41205 0.05057 -0.31296 -0.63522 -0.0094509 -0.03569 0.027398 0.040389 0.58276 -0.31731 0.4011 -0.14748 -0.56126 -0.47575 -0.15674 -0.21198 -0.23864 -0.37617 -0.12394 -0.21476 -0.10476 0.36556 0.33436 0.11034 -0.53752 0.17798 -0.14297 0.03894 0.0090305 -0.39722 -0.22942 -0.42106 0.2437 0.17015 -0.26636 -0.19139 -0.15041 0.40333 -0.19551 0.15041 -0.18136 0.38668 0.24917 0.13278 0.37497 -0.3752 0.40686 0.049765 0.14523 -0.48453 0.45281 0.56391 0.31496 -0.78085 0.17964 0.29404 -0.35218 0.45796 -0.26417 0.14368 0.080162 0.24388 -0.2817 -0.056854 -0.40904 0.51147 -0.048904 -0.11034 0.24695 -0.15293 0.12234 0.62632 -0.095978 -0.039752 -0.57152 -0.59184 0.29133 -0.090817 -0.33642 
5122 0.12217 -0.03326 -0.39091 -0.082283 -0.3252 0.28105 -0.7725 0.88687 0.15845 0.16351 -0.19816 0.2528 -0.58224 -0.23606 0.25783 0.62391 -0.054297 -0.44597 -0.44483 -0.3004 -0.057281 -0.16416 0.05278 0.11883 0.12562 0.085691 0.64662 0.25671 -0.35933 0.024475 0.29696 -0.071609 0.087312 -0.44584 -0.62991 -0.24738 0.1455 -0.029081 0.069645 -0.0031738 0.42103 -0.12054 -0.50562 0.2499 0.60709 -0.00035253 0.13051 -0.087026 0.458 -0.18504 -0.76186 -0.38832 -0.14948 0.94346 -0.051225 -0.05066 0.077112 -0.0039708 -0.35811 0.58088 0.002273 0.013889 0.73937 -0.021619 -0.13245 -0.20496 0.13303 0.0379 -0.001555 -0.55751 -0.42158 0.12231 -0.34743 -0.42085 0.11406 0.26968 0.4492 0.59589 0.23823 0.51311 0.13843 -0.075569 0.23239 -0.099365 0.56433 0.13947 0.24937 -0.020225 0.0072167 -0.27093 -0.15643 -0.027315 0.1611 -0.27349 -0.52368 -0.25267 -0.29691 -0.24641 -0.070892 -0.17863 
3772 0.15546 -0.24231 0.58344 0.18291 0.07827 0.28765 -0.23907 0.1818 -0.037164 -0.010893 -0.10434 -0.025859 -0.15504 -0.16076 -0.46798 0.13797 -0.054548 -0.42738 -0.3385 -0.2502 0.2311 0.47982 0.01785 -0.27306 -0.5628 0.018479 -0.038167 -0.042712 -0.058613 0.73337 -0.38376 0.41823 -0.2466 -0.49719 -0.46588 -0.14341 -0.23919 -0.34071 -0.25871 0.024464 -0.30403 -0.031698 0.31335 0.3751 0.050054 -0.60317 0.11721 -0.17474 0.087387 0.03962 -0.37572 -0.26055 -0.41846 0.23659 0.21517 -0.25282 -0.14501 -0.080739 0.4388 -0.10891 0.28396 -0.17573 0.34792 0.31448 0.15504 0.39095 -0.34091 0.40831 -0.006872 0.19638 -0.54169 0.61292 0.54151 0.38375 -0.78268 0.24606 0.28898 -0.32821 0.54219 -0.30637 0.020186 0.024118 0.18597 -0.3103 -0.0050744 -0.29184 0.58632 -0.1241 -0.082184 0.16871 -0.10694 0.088777 0.68663 -0.037644 0.0038441 -0.63386 -0.64761 0.19031 -0.094851 -0.31605 
5185 0.26353 0.20801 -0.33805 -0.18034 -0.17493 0.26731 -0.74389 0.73055 0.11025 0.058486 -0.10866 0.26672 -0.51314 -0.2864 0.10303 0.60284 -0.15643 -0.34022 -0.25107 -0.18426 0.020065 -0.024442 0.2004 -0.072995 0.16213 0.087503 0.53883 0.25976 -0.326 0.20402 0.25442 -0.078111 -0.010068 -0.37591 -0.61331 -0.22251 0.14143 -0.042058 0.14448 0.18058 0.33806 -0.17837 -0.55312 0.25858 0.44201 0.23044 0.25966 -0.070825 0.6172 -0.14002 -0.75511 -0.30704 -0.011798 0.80584 -0.10881 -0.049354 -0.048576 0.1466 -0.11294 0.56197 -0.02426 -0.081198 0.61259 -0.11757 -0.19823 -0.18897 0.039206 0.077441 -0.16894 -0.54391 -0.27135 -0.046913 -0.22872 -0.34109 0.0083112 0.30528 0.38512 0.58097 0.09161 0.35886 0.13909 -0.076732 0.30159 -0.10542 0.41228 0.099031 0.34455 -0.028478 0.013491 -0.18032 -0.21928 -0.01391 0.37725 -0.40039 -0.55099 -0.41244 -0.41667 -0.22763 -0.052934 -0.14366 
3734 0.086383 -0.39322 0.75008 0.27356 0.12323 0.23052 -0.45302 0.25268 -0.065066 -0.061074 0.030724 -0.070286 0.058447 -0.090281 -0.45193 0.16198 -0.10971 -0.39374 -0.29244 -0.38633 0.20904 0.45661 0.014728 -0.18234 -0.70128 -0.042634 -0.14515 0.035206 -0.073953 0.83397 -0.41406 0.40855 -0.094573 -0.59411 -0.45859 -0.29881 -0.17685 -0.34122 -0.50703 -0.042919 -0.37408 -0.16562 0.48181 0.32138 0.063359 -0.5631 0.097619 -0.19138 0.15706 -0.23241 -0.43267 -0.30223 -0.42619 0.2059 0.21798 -0.16065 -0.10323 -0.011939 0.37969 -0.19483 0.27672 -0.20293 0.46954 0.37567 0.22041 0.49089 -0.29777 0.37928 -0.024893 0.12771 -0.34498 0.62528 0.5218 0.40164 -0.81321 0.10172 0.25744 -0.23591 0.56599 -0.39363 -0.068825 0.02409 0.096882 -0.11605 -0.12541 -0.27911 0.43565 0.024288 -0.10516 0.20363 -0.11932 0.002833 0.67619 -0.11378 -0.030703 -0.70827 -0.56498 0.16273 0.013001 -0.22023 
4562 0.075878 -0.12428 -0.42922 0.0051048 -0.32443 0.19768 -0.76517 0.70893 0.22987 0.16793 -0.16516 0.15405 -0.41 -0.046396 0.25822 0.60082 0.075969 -0.3442 -0.47328 -0.16938 -0.0092077 -0.22292 -0.096301 0.18406 -0.0064105 -0.0042342 0.63468 0.26994 -0.48217 -0.086531 0.26636 -0.11436 0.083093 -0.30515 -0.48507 -0.32018 0.16739 -0.063011 -0.13592 -0.067309 0.3829 -0.0086257 -0.35002 0.26942 0.51599 -0.24086 0.07501 -0.1342 0.2954 -0.11473 -0.6272 -0.34875 -0.22256 0.94618 -0.11985 -0.11581 0.095694 -0.080759 -0.4938 0.60209 0.13188 0.055672 0.75707 0.18412 -0.14159 -0.17547 0.22026 -0.057668 0.12978 -0.45526 -0.49695 0.19063 -0.27559 -0.43368 0.11397 0.060158 0.41336 0.65242 0.36285 0.50063 0.090034 -0.11789 0.19509 0.013658 0.6177 0.28045 0.14858 0.0036422 -0.077905 -0.30485 0.051538 -0.073023 0.025797 -0.38593 -0.57633 -0.24638 -0.24295 -0.11883 -0.034614 -0.081507 
0046 0.076646 -0.29688 0.63757 0.53509 0.17079 0.084964 -0.33031 -0.016627 -0.20087 0.15089 -0.17523 0.12674 0.18513 0.084908 -0.60133 0.25173 -0.28792 -0.7081 -0.31587 -0.052701 0.18046 0.49592 0.23843 -0.53734 -0.59489 0.073106 0.021334 0.061695 0.086622 1.004 -0.080859 0.48339 -0.10523 -0.14869 -0.25969 -0.52313 0.13209 -0.29945 -0.44295 -0.40417 -0.39627 -0.20959 0.099358 0.23333 0.049122 -0.21625 0.82711 -0.28691 0.26807 -0.18553 -0.54079 -0.80525 -0.050356 0.62392 -0.61903 -0.011757 -0.24045 -0.073404 0.48809 0.075144 0.024427 -0.07638 0.081598 0.36047 -0.18805 0.1924 -0.14665 0.46889 -0.0016479 0.28289 -0.41636 0.57496 0.59992 -0.0088507 -1.2328 -0.010116 0.61564 0.052266 0.73858 -0.38125 -0.022858 -0.24352 0.25699 -0.40487 -0.13627 -0.24875 0.42869 -0.13155 0.23575 -0.19835 0.067932 -0.05007 0.86265 -0.67727 -0.0077429 -0.56585 -1.1592 0.017896 0.027067 0.0016099 
3614 0.2502 -0.16014 0.48855 0.23419 -0.019088 0.32031 -0.042174 0.096281 0.095596 0.24257 -0.16022 0.17432 -0.24437 -0.13771 -0.43382 0.14914 -0.1311 -0.29557 -0.36032 -0.1875 0.065981 0.37112 -0.00044407 -0.2128 -0.49266 0.071673 0.070235 -0.040419 -0.0057027 0.52883 -0.29079 0.22788 -0.24476 -0.40824 -0.29069 0.11124 -0.10224 -0.32927 -0.22261 -0.10774 -0.13923 0.10006 0.14136 0.32265 0.17352 -0.38146 0.077893 -0.11724 0.14848 0.16618 -0.33215 -0.13087 -0.43179 0.24443 0.10954 -0.20281 -0.15 -0.039893 0.44777 -0.1677 0.071248 -0.12886 0.33115 0.2034 0.30363 0.24342 -0.35773 0.46912 0.012638 0.26964 -0.41748 0.4518 0.37829 0.29722 -0.65914 0.25448 0.38174 -0.31377 0.51408 -0.15035 0.11412 0.071295 0.2169 -0.31274 0.10034 -0.33147 0.56171 -0.052871 -0.047803 0.05889 -0.085035 0.0013424 0.46081 -0.01414 0.0037853 -0.48873 -0.59718 0.1734 -0.14516 -0.26233 
3726 0.17167 -0.41236 0.79409 0.32659 0.055166 0.24163 -0.3958 0.24188 -0.11391 -0.08523 0.047038 -0.053307 0.025624 -0.17362 -0.43269 0.24083 -0.12252 -0.40487 -0.27329 -0.39256 0.25335 0.49402 0.046885 -0.25476 -0.68705 -0.010613 -0.10046 0.036274 -0.08343 0.81528 -0.48329 0.39283 -0.20901 -0.62018 -0.47681 -0.29585 -0.19013 -0.31437 -0.47933 -0.077018 -0.34975 -0.14926 0.4839 0.31144 0.024686 -0.57058 0.10841 -0.19334 0.17711 -0.1754 -0.44803 -0.32046 -0.4385 0.25442 0.20887 -0.17206 -0.092708 -0.066879 0.37728 -0.17725 0.27188 -0.24536 0.46332 0.37831 0.18344 0.5214 -0.32115 0.45846 0.066932 0.20761 -0.42455 0.61109 0.57841 0.37812 -0.89391 0.095634 0.27557 -0.29128 0.60083 -0.4042 -0.079255 -0.010062 0.12443 -0.18233 -0.10978 -0.2927 0.47263 -0.023374 -0.057755 0.19246 -0.1713 0.067708 0.62327 -0.12375 0.033072 -0.71528 -0.59964 0.22543 -0.073838 -0.23792 
370 0.03629 -0.20869 0.43167 0.10261 0.061317 0.25471 -0.34321 0.21212 -0.0093719 0.087233 -0.14554 0.11699 -0.13886 -0.09858 -0.27131 0.12437 -0.096821 -0.37466 -0.35243 -0.25912 0.20866 0.2133 0.056399 -0.093168 -0.37272 0.015397 0.061712 -0.05474 0.090491 0.56502 -0.23538 0.31006 -0.044403 -0.32626 -0.35338 -0.16289 -0.10239 -0.28712 -0.17652 -0.12962 -0.20207 -0.02801 0.18594 0.21055 0.29454 -0.30658 0.17423 -0.06703 0.15181 -0.000272 -0.28933 -0.26608 -0.2547 0.31362 -0.010879 -0.073564 -0.13314 -0.034123 0.15895 -0.045042 0.046983 -0.10942 0.35467 0.29389 0.16023 0.34176 -0.238 0.22233 -0.03339 0.072103 -0.2978 0.55524 0.28512 0.17096 -0.62304 0.19412 0.25636 -0.098486 0.41547 -0.21829 0.042238 -0.038642 0.16841 -0.13648 0.065885 -0.17282 0.282 0.013983 -0.049996 0.061272 -0.040265 -0.03618 0.47776 -0.12286 0.024625 -0.334 -0.46788 0.070314 -0.01602 -0.24207 
3512 0.2947 -0.13071 0.49601 0.23701 -0.06215 0.36117 -0.031563 0.12988 0.080097 0.23333 -0.1574 0.14402 -0.27354 -0.16799 -0.40937 0.16291 -0.11361 -0.27977 -0.37794 -0.17107 0.06506 0.3692 -0.052749 -0.2162 -0.48826 0.064671 0.10381 -0.028811 -0.038021 0.49748 -0.30135 0.20749 -0.29277 -0.44995 -0.27724 0.1491 -0.1255 -0.33585 -0.21452 -0.1058 -0.1023 0.11732 0.15059 0.35881 0.18147 -0.44053 0.028809 -0.10266 0.14571 0.1577 -0.34986 -0.10892 -0.50041 0.2313 0.19535 -0.23376 -0.14541 -0.023645 0.43819 -0.16674 0.11889 -0.15087 0.35798 0.18737 0.33777 0.27367 -0.38552 0.49807 0.03751 0.27689 -0.46453 0.47105 0.38481 0.30316 -0.63438 0.278 0.38976 -0.33135 0.51591 -0.14425 0.15186 0.080841 0.22352 -0.28607 0.13743 -0.30955 0.59799 -0.010011 -0.079447 0.074686 -0.10623 0.053527 0.46158 -0.011914 -0.085065 -0.52705 -0.56893 0.20585 -0.17212 -0.30061 
3979 0.10176 0.017475 -0.054263 0.068308 0.013482 0.06232 -0.48174 0.25895 -0.084307 0.05445 -0.050019 0.20733 -0.12073 -0.010363 -0.0021121 0.19454 0.018931 -0.34976 -0.19308 -0.037524 0.020229 0.013773 0.13218 -0.097924 -0.12349 -0.047928 0.18587 0.053031 -0.10661 0.24026 0.25122 0.15877 0.0044184 -0.040219 -0.25989 -0.30638 -0.017174 -0.15446 -0.17178 -0.13205 0.027547 -0.056389 -0.15253 0.15467 0.33683 -0.069302 0.43204 -0.063819 0.20485 -0.074596 -0.3874 -0.39658 0.071132 0.50279 -0.33672 -0.051429 -0.18324 -0.017183 -0.034871 0.32915 0.04252 -0.079394 0.32112 0.093896 -0.14795 -0.061448 0.072666 0.012027 -0.065759 -0.19592 -0.15081 0.11364 0.13755 -0.19632 -0.2412 0.011799 0.37589 0.2805 0.24069 0.055192 0.06002 -0.12801 0.17156 0.02562 0.089125 0.053728 0.11102 0.053582 0.021893 -0.15393 0.096756 -0.036971 0.41341 -0.42618 -0.27061 -0.24215 -0.51012 -0.12493 0.031255 -0.0037401 
4131 0.045756 0.085252 -0.22818 -0.17713 0.18275 0.32793 -0.78304 0.35982 0.17803 0.097935 -0.24315 0.23015 -0.38268 -0.085558 0.15066 0.12531 0.1089 -0.16773 -0.38167 -0.16742 0.21894 -0.068087 0.07616 0.1864 -0.018812 -0.15399 0.43172 -0.041967 -0.12101 0.071351 0.23773 0.2065 0.11286 -0.092581 -0.50959 -0.084611 -0.13192 -0.27779 -0.028254 0.08082 0.13236 0.21907 -0.089035 0.26176 0.70271 -0.23517 0.1891 0.16147 0.22714 0.20256 -0.26626 -0.1068 0.0087555 0.52489 -0.20852 -0.14859 -0.29582 0.037504 -0.31214 0.35552 0.045024 0.012965 0.54417 0.28248 -0.090514 0.016938 0.079834 -0.20917 -0.20611 -0.44878 -0.20051 0.3778 -0.097185 -0.10586 -0.075156 0.23649 0.31833 0.30417 0.21461 0.065743 0.15664 -0.1119 0.21409 0.27925 0.3742 0.078133 0.013251 0.19773 -0.14873 -0.12201 0.062636 -0.11961 0.33733 -0.25667 -0.36431 -0.17768 -0.28994 -0.16271 -0.017441 -0.29673 
0013 0.10937 -0.19525 0.44474 0.12672 0.042099 0.31795 -0.17094 0.14789 0.065051 0.19546 -0.22165 0.11579 -0.21405 -0.11692 -0.31904 0.10805 -0.13231 -0.41543 -0.34743 -0.23357 0.20963 0.30617 0.068339 -0.15831 -0.46588 0.079521 0.10231 -0.081401 0.042047 0.57438 -0.2328 0.30998 -0.11611 -0.3758 -0.37965 -0.034386 -0.10021 -0.25911 -0.11636 -0.11483 -0.21377 0.078149 0.17708 0.23529 0.24566 -0.26788 0.15702 -0.10737 0.071803 0.15391 -0.32977 -0.21445 -0.28604 0.26824 0.032734 -0.15326 -0.14672 -0.055666 0.33061 -0.14615 -0.017696 -0.077652 0.24609 0.2524 0.14849 0.32245 -0.33395 0.35624 -0.015875 0.18606 -0.32416 0.60157 0.31672 0.19847 -0.73259 0.25039 0.26959 -0.2384 0.499 -0.26033 0.073248 0.051569 0.20169 -0.28842 0.036263 -0.28856 0.36548 -0.11201 -0.0023062 0.033867 -0.093637 -0.0090922 0.477 -0.0091691 0.10709 -0.37583 -0.5203 0.10276 -0.081434 -0.33334 
3972 0.0090294 0.091567 -0.18209 -0.012245 -0.019645 0.030038 -0.61847 -0.12129 0.13261 0.2119 -0.13992 0.20651 0.023328 0.1113 -0.040077 -0.0033501 -0.075584 -0.21261 -0.28084 0.082124 0.021039 0.083896 0.17796 0.04208 -0.47767 -0.14895 0.055415 0.02195 -0.068823 0.3069 0.22481 0.2535 -0.0090837 -0.11782 -0.15316 -0.39816 -0.12901 -0.33825 -0.49719 0.076739 -0.1363 0.27496 0.19102 0.007392 0.38784 -0.077616 0.51921 -0.078964 0.14086 0.13845 -0.089693 -0.064887 0.052446 0.22673 -0.56601 -0.087606 -0.35649 0.25617 -0.046412 0.33356 0.064661 -0.16945 0.33518 0.35115 -0.33072 0.04908 -0.037038 0.005678 -0.23078 -0.15422 -0.05836 0.072823 0.24377 -0.050619 -0.34406 -0.14666 0.14422 0.11021 0.3157 -0.044812 0.035199 -0.12692 0.097027 0.32348 0.13082 0.23869 0.0058797 0.26547 -0.11661 -0.12225 0.24784 -0.078584 0.41896 -0.47643 -0.30357 -0.28009 -0.63121 -0.12465 -0.071222 -0.27791 
3892 0.13367 0.039411 -0.18859 -0.16326 0.20693 0.37845 -0.59677 0.067715 0.37103 0.31373 -0.31343 0.21752 -0.23036 0.3575 0.14611 0.055443 0.072547 -0.26763 -0.14419 -0.15855 0.22764 -0.055703 0.11071 0.17093 -0.24298 -0.26553 0.3929 -0.12088 -0.22116 0.12877 0.18643 0.10928 0.036427 -0.0014882 -0.57526 -0.070485 -0.033004 -0.20122 -0.08668 0.24513 -0.19815 0.30406 0.012198 0.20221 0.71144 -0.16064 0.36704 0.15246 0.092566 0.37837 -0.2075 0.03937 -0.104 0.27777 -0.37264 -0.19659 -0.31099 -0.02202 -0.17339 0.33765 -0.097524 0.14654 0.38971 0.56213 -0.28212 0.080232 -0.035685 -0.33356 -0.17819 -0.35336 0.099377 0.48617 0.051658 -0.080824 -0.20946 0.25969 0.07224 0.29352 0.43034 -0.11887 -0.0073519 0.011496 0.2336 0.13087 0.39343 0.12 -0.096594 0.22651 -0.26157 -0.12307 0.19908 -0.13829 0.41451 -0.21113 -0.19927 -0.27367 -0.24581 -0.05109 -0.17144 -0.30993 
8162 0.63972 0.51566 -0.27953 0.42424 0.38207 0.45131 -0.81379 -0.47817 0.16023 0.088098 0.45159 -0.056781 -0.29313 0.0017223 0.41246 -0.27949 0.48465 0.48772 0.16756 0.44533 -0.0050762 0.029927 -0.43743 -0.30901 -0.16381 -0.8624 0.2985 0.46285 -0.82154 -0.21742 0.79849 0.26852 -0.88144 0.48248 -0.0197 0.19954 -0.51795 -0.72941 -0.48696 0.12969 0.43706 0.27672 -0.010956 0.78004 0.41645 -1.4685 0.47009 0.5543 0.23604 0.35387 -0.45168 0.1987 -0.20553 -0.081201 -0.14758 -0.54628 -0.58107 -0.15322 -0.055982 0.17104 0.74759 -3.8347e-05 0.68813 0.28277 0.012249 -0.091838 0.20428 -0.034733 -0.20573 -0.019932 -0.3689 0.17408 0.6568 0.18075 0.48269 -0.0024434 0.89101 0.64055 0.45177 -0.26099 0.6705 -0.22288 0.64473 0.95955 0.59527 0.020047 0.37657 0.88594 -0.89901 -0.30112 0.26615 -0.28066 1.0421 -0.74484 -1.5441 -0.76355 -0.54851 0.29532 -0.52443 0.25973 
9359 0.4126 -0.16162 -0.1309 0.41363 -0.26901 -0.21593 -0.47868 0.19646 0.10664 -0.076393 0.31489 0.084178 -0.053009 0.18156 -0.18433 0.40475 0.16221 0.26088 -0.32194 0.11219 0.017957 0.15831 -0.16244 -0.01764 -0.1466 4.5801e-05 0.0018304 0.31672 -0.32951 -0.012317 0.070323 -0.24406 0.047808 -0.14483 -0.086064 -0.18653 -0.16168 -0.28681 -0.72083 -0.096142 0.12794 0.2586 -0.10159 0.26923 0.26215 -0.56517 -0.066336 -0.22171 0.45679 -0.21716 -0.24282 -0.16958 -0.31019 0.40143 -0.19741 0.1059 -0.21495 0.21651 -0.27266 0.62025 0.308 -0.10302 0.76474 0.47575 0.074534 -0.24853 0.34515 -0.21312 0.14423 -0.17901 -0.39228 -0.2728 0.15962 0.20756 0.16211 -0.10757 0.24664 0.35929 0.09723 0.40773 -0.0051788 -0.29159 0.046579 0.20177 0.3402 0.43905 0.46004 0.32053 0.06422 -0.027338 -2.354e-06 0.1333 -0.097282 -0.65903 -0.54215 -0.41368 -0.50597 0.028128 0.0014915 0.1149 
0390 0.0072541 0.078414 -0.16604 0.028419 -0.096617 0.33736 -0.61345 0.12307 0.14733 0.097498 0.16988 -0.001709 -0.36288 -0.069859 0.28935 0.014947 0.20031 0.158 -0.2796 -0.022279 0.088111 -0.1337 -0.1994 0.11968 -0.047142 -0.22519 0.34078 0.25412 -0.34607 -0.1411 0.16404 0.16946 -0.19556 0.074755 -0.24508 -0.053612 -0.11084 -0.31723 -0.19809 0.062138 0.35944 0.20275 -0.010415 0.25583 0.4378 -0.62316 0.062449 0.25466 0.036195 0.17838 -0.25815 -0.0026763 -0.14182 0.22365 -0.11418 -0.20293 -0.17165 -0.082892 -0.29019 0.16539 0.26458 0.072269 0.55317 0.19904 0.10772 0.04769 0.044863 0.0181 -0.10226 -0.12924 -0.39021 0.30763 0.072941 -0.048635 0.24427 -0.037803 0.25292 0.35084 0.23556 -0.01655 0.34701 -0.046675 0.24786 0.25001 0.53298 0.033698 0.15181 0.42261 -0.28951 -0.19149 0.053316 -0.085432 0.35778 -0.28303 -0.65474 -0.17671 -0.11883 0.073625 -0.12454 -0.084782 
3142 -0.10886 -0.047685 -0.070816 -0.059249 -0.010852 0.30627 -0.64986 0.13651 0.21003 0.17681 -0.025379 0.068419 -0.35266 0.021887 0.091442 0.012556 0.12697 -0.0018387 -0.38658 -0.14748 0.24827 -0.012321 0.0025129 0.18268 -0.24442 -0.10638 0.22164 0.056469 -0.13052 0.11009 -0.032103 0.31683 0.038723 -0.041653 -0.40138 -0.1059 -0.13757 -0.31252 -0.19527 0.064992 0.060713 0.36727 0.139 0.15249 0.54696 -0.32524 0.12357 0.14627 -0.016595 0.30696 -0.16936 -0.081317 -0.081424 0.27006 -0.27319 -0.1338 -0.26579 0.066777 -0.15637 0.15766 0.026993 0.025675 0.4912 0.40418 0.091342 0.22105 -0.082473 -0.047702 -0.16337 -0.15076 -0.23906 0.47136 0.088225 0.040272 -0.19194 0.00698 0.066754 0.067007 0.27994 -0.18137 0.18053 0.013024 0.16188 0.073391 0.37312 0.04958 0.073546 0.29471 -0.12951 -0.052356 0.081942 -0.082926 0.38712 -0.22416 -0.25317 -0.13864 -0.21507 -2.9012e-05 -0.026934 -0.29606 
5011 0.17411 0.05765 -0.32742 -0.20771 -0.051952 0.26778 -0.74019 0.78488 0.11868 0.18119 -0.32094 0.40836 -0.54512 -0.2274 0.2108 0.49682 -0.092265 -0.62119 -0.37952 -0.25445 0.022145 -0.087452 0.1929 0.052394 0.072483 0.090451 0.50381 0.024396 -0.15642 0.19099 0.37789 0.08943 0.10436 -0.39187 -0.68991 -0.24909 -0.0069871 -0.064311 0.15543 0.0040091 0.20184 -0.1357 -0.47344 0.20444 0.72135 0.19404 0.28917 -0.078661 0.44315 -0.07709 -0.63419 -0.36123 0.007543 0.76356 -0.16542 -0.050147 -0.11794 0.043748 -0.20422 0.49842 -0.064729 -0.076262 0.5763 -0.06724 -0.17029 -0.13518 0.026011 -0.059978 -0.11334 -0.57533 -0.18422 0.12661 -0.23859 -0.34848 -0.043525 0.32724 0.40967 0.42334 0.17811 0.32605 0.053143 -0.020635 0.2616 -0.094782 0.30953 0.072148 0.2123 -0.078848 0.018431 -0.15465 -0.12383 -0.064608 0.28617 -0.17267 -0.29571 -0.21022 -0.39985 -0.31119 -0.028589 -0.24851 
3929 0.28814 -0.23431 0.39746 0.5139 -0.12133 -0.16852 -0.23266 0.20084 -0.26906 -0.055353 0.18594 0.11206 0.13407 0.18504 -0.5344 0.46057 0.032971 -0.22522 -0.28371 -0.0068812 0.032926 0.26527 0.076283 -0.31699 -0.29718 0.14133 -0.12482 0.093081 0.0018943 0.42061 -0.063479 -0.0028826 0.064564 -0.14157 -0.070459 -0.36779 0.022215 -0.21818 -0.62748 -0.40926 -0.16678 -0.096869 -0.012702 0.24874 0.11418 -0.34076 0.36558 -0.3749 0.3314 -0.27432 -0.4035 -0.60539 -0.09806 0.59013 -0.36342 0.087054 -0.26824 -0.0076179 0.14264 0.40063 0.17825 -0.18134 0.44928 0.36859 -0.037337 -0.12558 0.13854 0.079827 0.07212 0.054486 -0.39613 -0.010359 0.38196 0.05834 -0.52186 -0.03357 0.47172 0.14633 0.31297 0.035355 -0.071241 -0.26574 0.12112 -0.22988 -0.068988 0.11767 0.48007 0.023817 0.33598 -0.068996 -0.025619 0.11043 0.33633 -0.74011 -0.16143 -0.42469 -0.78294 0.057621 0.16837 0.13967 
8628 0.35837 -0.12067 0.019241 0.33699 -0.077609 -0.083136 -0.38546 0.14392 0.020511 -0.070277 0.23293 0.078834 -0.10747 0.13894 -0.17395 0.28962 0.15761 0.11754 -0.24542 0.030494 0.075409 0.13391 -0.096339 -0.091951 -0.10191 -0.048631 0.020169 0.19914 -0.26197 0.063048 0.076983 -0.1065 -0.041949 -0.08904 -0.12254 -0.13595 -0.14193 -0.23117 -0.49154 -0.13682 0.075627 0.15279 -0.095469 0.29458 0.23662 -0.53001 0.024271 -0.12834 0.3095 -0.13337 -0.27908 -0.20141 -0.19939 0.3553 -0.12695 0.016055 -0.19284 0.063922 -0.12282 0.40662 0.27703 -0.046779 0.57638 0.37896 0.057915 -0.11214 0.22375 -0.14727 0.072272 -0.096538 -0.32174 -0.063274 0.18304 0.14016 -0.0078032 -0.020802 0.30636 0.25749 0.14402 0.19696 0.054211 -0.22173 0.13904 0.12725 0.20275 0.21179 0.37984 0.18997 0.039836 -0.031795 -0.018666 0.047248 0.0972 -0.52982 -0.37796 -0.34722 -0.4156 0.094203 0.0084127 0.1027 
9961 0.13834 -0.16387 0.36235 0.12622 0.032485 0.27702 -0.23041 0.12971 0.074089 0.14454 -0.14672 0.10705 -0.18722 -0.082619 -0.25085 0.11786 -0.0694 -0.3018 -0.31464 -0.21074 0.17597 0.27948 0.035064 -0.11279 -0.41584 0.020762 0.074651 -0.035123 -0.025079 0.46784 -0.20112 0.24648 -0.12002 -0.36668 -0.3545 -0.054451 -0.12292 -0.24268 -0.18595 -0.065349 -0.1814 0.10062 0.17747 0.24083 0.22483 -0.31301 0.11887 -0.093301 0.089624 0.1185 -0.29457 -0.16064 -0.27423 0.22273 0.048936 -0.14178 -0.16368 -0.021214 0.2595 -0.07988 0.065464 -0.10075 0.30937 0.26108 0.1235 0.27362 -0.28343 0.26131 -0.0067526 0.12131 -0.29885 0.46914 0.28742 0.20169 -0.56403 0.18837 0.22322 -0.18537 0.42094 -0.21685 0.052968 0.056565 0.1669 -0.1721 0.082625 -0.2053 0.33533 -0.034139 -0.051939 0.056557 -0.065785 -0.0018774 0.39738 -0.038669 0.0077832 -0.3801 -0.45815 0.11669 -0.087479 -0.2967 
0041 0.07131 -0.30108 0.62861 0.51035 0.13817 -0.014215 -0.33203 -0.018474 -0.2933 0.08776 -0.11699 0.13861 0.24068 0.1348 -0.56693 0.26575 -0.28284 -0.74723 -0.26021 -0.077363 0.16058 0.44905 0.24832 -0.5259 -0.5795 0.10523 -0.069357 0.01635 0.1482 0.95442 0.016046 0.44671 -0.034517 -0.11393 -0.23955 -0.61653 0.13303 -0.23814 -0.49466 -0.45827 -0.40997 -0.28355 0.094867 0.20924 0.025896 -0.099076 0.87629 -0.34332 0.27394 -0.23786 -0.53316 -0.861 0.008135 0.68061 -0.66303 0.029421 -0.24119 -0.11868 0.47175 0.16728 -0.0094235 -0.12548 0.10021 0.33717 -0.27597 0.14436 -0.09314 0.41272 -0.0059729 0.23469 -0.37559 0.44699 0.62444 -0.049968 -1.1625 -0.069864 0.59465 0.085455 0.66772 -0.34719 -0.027882 -0.28397 0.2125 -0.41804 -0.2577 -0.1858 0.35465 -0.16411 0.29906 -0.21839 0.032524 -0.05683 0.8148 -0.73437 0.026122 -0.5424 -1.1589 0.027928 0.11595 0.047058 
4233 0.16376 0.0097695 -0.18923 -0.15601 0.066696 0.1965 -0.58836 0.40604 0.12423 0.13835 -0.24332 0.27522 -0.39637 -0.055384 0.11244 0.27761 -0.009168 -0.44078 -0.26843 -0.14937 0.097365 -0.01285 0.15531 0.01504 -0.038406 -0.039474 0.35453 -0.019299 -0.1464 0.20444 0.28993 0.093994 0.044346 -0.17534 -0.53794 -0.19672 -0.054601 -0.14671 0.060724 0.0033757 0.019182 0.025929 -0.22078 0.18016 0.55079 -0.021984 0.30064 -0.019266 0.20187 0.034218 -0.43076 -0.25393 -0.01616 0.55642 -0.1983 -0.099158 -0.16168 -0.022299 -0.11911 0.3494 -0.0068669 -0.029216 0.41219 0.084458 -0.13665 -0.023468 -0.013864 -0.082109 -0.081418 -0.32446 -0.12857 0.22617 -0.069736 -0.20395 -0.17507 0.18814 0.30953 0.32122 0.22628 0.11142 0.044452 -0.042899 0.23999 0.0018883 0.23232 0.025115 0.098789 -0.032426 -0.087092 -0.14301 0.014753 -0.091484 0.30869 -0.19501 -0.15864 -0.20893 -0.37136 -0.15738 -0.030607 -0.18101 
8163 0.6121 0.52526 -0.28883 0.41397 0.31651 0.45888 -0.86433 -0.42016 0.15607 0.056276 0.49299 -0.084846 -0.33872 -0.06142 0.45561 -0.29209 0.49266 0.51556 0.13319 0.44035 -0.024373 -0.0017638 -0.47457 -0.29 -0.13377 -0.8652 0.31371 0.51543 -0.85566 -0.26324 0.79498 0.28337 -0.89331 0.47663 -0.043207 0.19775 -0.51321 -0.72849 -0.48479 0.13253 0.51957 0.23781 -0.032405 0.83084 0.42468 -1.5331 0.43578 0.57914 0.24618 0.32542 -0.49522 0.17118 -0.23375 -0.045061 -0.12662 -0.56288 -0.55328 -0.16556 -0.070044 0.1568 0.77792 -0.0060937 0.74149 0.24555 0.064652 -0.099628 0.21967 3.0592e-05 -0.21538 -0.0072172 -0.4582 0.19504 0.62806 0.15999 0.55198 -0.039399 0.93434 0.66984 0.45436 -0.23518 0.72422 -0.25022 0.66896 0.97027 0.64171 0.036196 0.42496 0.92648 -0.91003 -0.32547 0.25258 -0.25333 1.0473 -0.77798 -1.6163 -0.76503 -0.51611 0.31387 -0.52613 0.2922 
8604 0.20569 -0.10649 0.092089 0.2161 -0.007198 0.069708 -0.34222 0.12185 0.006769 0.023081 0.061579 0.089702 -0.12498 0.022697 -0.14481 0.20393 0.097193 -0.063921 -0.24183 -0.043585 0.087454 0.10195 -0.022108 -0.086933 -0.1817 -0.041539 0.077302 0.079973 -0.16056 0.17307 0.032786 0.050023 -0.053005 -0.11602 -0.20284 -0.13101 -0.097832 -0.22032 -0.33181 -0.10101 -0.0026972 0.096897 -0.0066971 0.25269 0.25598 -0.39875 0.1221 -0.081247 0.19239 -0.0003562 -0.26198 -0.2282 -0.15424 0.3431 -0.11838 -0.041338 -0.18427 -0.0037852 -0.0040399 0.2302 0.16601 -0.064877 0.4358 0.2992 0.034146 0.0051269 0.061565 -0.0063604 0.014829 -0.060937 -0.26881 0.15865 0.19103 0.078907 -0.19256 0.043657 0.29462 0.15114 0.26044 0.027718 0.067825 -0.12947 0.1526 0.016804 0.15179 0.069376 0.28488 0.11447 0.0048311 -0.051251 0.0069824 0.014467 0.25472 -0.35789 -0.24682 -0.31501 -0.39762 0.063523 -0.0018847 -0.022079 
8191 0.20543 -0.04297 0.11653 0.17351 0.067726 0.16523 -0.31496 0.056177 0.041041 0.034274 0.037344 0.059232 -0.16018 0.0032994 -0.081633 0.095857 0.044641 -0.076156 -0.18027 -0.034049 0.099326 0.12193 -0.02227 -0.079112 -0.19336 -0.071713 0.08305 0.083277 -0.13155 0.21951 0.040803 0.10715 -0.12768 -0.091031 -0.20725 -0.028356 -0.14654 -0.25895 -0.22282 -0.05752 0.0065577 0.088143 0.01648 0.25451 0.23007 -0.40168 0.13914 -0.0047185 0.14813 0.042335 -0.26948 -0.13626 -0.15736 0.19793 -0.033456 -0.097206 -0.19319 -0.0062995 0.079314 0.10188 0.15737 -0.060666 0.31672 0.20816 0.06133 0.072278 -0.024427 0.057295 -0.019986 0.0038987 -0.25233 0.21778 0.217 0.11443 -0.20087 0.079311 0.28121 0.060401 0.24601 -0.076407 0.10426 -0.080846 0.17349 0.05128 0.14651 -0.033819 0.26636 0.11484 -0.11611 -0.02514 -0.0063035 -0.01731 0.31774 -0.25101 -0.23276 -0.32052 -0.36639 0.086351 -0.059545 -0.057382 
5412 0.136 -0.10785 -0.38325 0.023735 -0.35138 0.14442 -0.7009 0.86925 0.12337 0.11805 -0.17537 0.22219 -0.4171 -0.14616 0.2141 0.70383 -0.021657 -0.46144 -0.46445 -0.20856 -0.066933 -0.18903 -0.016464 0.10479 0.081789 0.095577 0.59693 0.2664 -0.40332 -0.0099584 0.27798 -0.13866 0.084802 -0.39061 -0.51298 -0.33903 0.17304 -0.0081666 -0.075408 -0.11391 0.40527 -0.16817 -0.44338 0.27081 0.507 -0.1426 0.098655 -0.19456 0.4065 -0.26949 -0.69628 -0.4454 -0.20782 0.99844 -0.067397 -0.048407 0.13644 -0.056817 -0.43039 0.6241 0.11979 -0.0055598 0.73566 0.049577 -0.12862 -0.24039 0.25502 0.046522 0.1601 -0.51211 -0.51099 0.04755 -0.33189 -0.46169 0.10962 0.11696 0.48306 0.63942 0.30549 0.59797 0.056146 -0.1461 0.19937 -0.082889 0.51332 0.24537 0.24843 -0.063912 0.049285 -0.28364 -0.029815 -0.035194 0.045419 -0.36822 -0.53765 -0.26032 -0.30122 -0.1711 0.018094 -0.046977 
